~o
<STREAMINFO> 1 39
<VECSIZE> 39<NULLD><MFCC_D_A_0><DIAGC>
~s "silst"
<MEAN> 39
 -1.969800e+01 -2.036032e+00 -5.678179e+00 -1.381314e+00 -1.942563e+00 1.400621e-01 -8.045534e-01 4.973032e-01 -3.265280e-01 7.008589e-01 -1.220077e-01 2.974734e-01 3.173297e+01 -1.143496e-01 4.217297e-02 1.189787e-01 9.561349e-02 7.804242e-02 5.698891e-02 4.709809e-03 -3.034497e-02 -1.260781e-02 6.733824e-02 3.115768e-02 -3.365166e-02 -6.690541e-02 8.654279e-02 -7.469416e-02 -4.030919e-02 -1.074362e-01 -5.854879e-02 -7.799464e-02 -2.722989e-02 -1.241639e-02 -3.899935e-02 -4.856033e-02 -4.503312e-02 -1.045265e-02 1.866982e-01
<VARIANCE> 39
 2.645875e+00 4.523838e+00 5.700956e+00 8.375744e+00 9.289233e+00 1.100415e+01 1.180441e+01 1.306171e+01 1.332436e+01 1.357546e+01 1.233227e+01 1.105337e+01 2.146068e+00 3.170250e-01 4.454183e-01 6.916586e-01 9.070236e-01 1.048282e+00 1.221238e+00 1.335574e+00 1.439535e+00 1.506647e+00 1.541337e+00 1.390074e+00 1.249634e+00 2.277228e-01 7.750242e-02 1.095481e-01 1.458433e-01 1.947643e-01 2.205644e-01 2.553938e-01 2.796980e-01 2.973388e-01 3.108961e-01 3.117454e-01 2.819654e-01 2.554890e-01 9.948715e-02
<GCONST> 7.599371e+01
~h "b"
<BEGINHMM>
<NUMSTATES> 5
<STATE> 2
<MEAN> 39
 -5.695075e+00 3.365159e+00 -2.578185e+00 -1.437087e+00 -2.595608e+00 -2.587568e+00 -7.435159e+00 -8.431270e+00 -8.649742e+00 -4.488903e+00 -3.244358e+00 -4.421226e+00 4.038763e+01 -1.092593e+00 1.432556e+00 8.544657e-01 1.372682e+00 9.837559e-01 6.041355e-01 6.759058e-01 -2.386071e-01 -3.371384e-01 -5.676427e-01 -4.063121e-01 -4.181432e-02 -1.890336e+00 -1.802967e-01 -1.010590e+00 -2.182763e-01 -7.442552e-01 -4.844742e-01 -3.041232e-01 -3.369230e-02 5.914230e-01 5.404927e-01 3.367956e-01 1.109080e-01 2.019985e-01 1.405963e+00
<VARIANCE> 39
 3.061810e+01 2.384298e+01 2.100458e+01 3.084891e+01 2.318076e+01 3.354893e+01 3.696270e+01 3.297147e+01 3.400873e+01 3.196397e+01 3.265765e+01 2.732978e+01 2.568310e+01 2.578198e+00 4.760604e+00 3.134617e+00 4.610407e+00 3.225467e+00 3.561943e+00 3.910721e+00 4.445516e+00 4.267755e+00 3.522503e+00 2.962966e+00 2.504000e+00 6.625631e+00 3.797047e-01 7.129137e-01 6.744301e-01 7.491406e-01 6.467674e-01 6.360297e-01 8.798536e-01 8.368217e-01 7.862740e-01 7.332720e-01 6.260595e-01 5.357613e-01 8.914790e-01
<GCONST> 1.276758e+02
<STATE> 3
<MEAN> 39
 -1.166500e+01 1.968181e+00 -1.937769e+00 -1.317202e-01 -9.196309e-01 -9.805565e-01 -4.301188e+00 -5.030881e+00 -5.712096e+00 -3.424062e+00 -3.017926e+00 -2.907012e+00 3.807758e+01 -3.251005e-01 -2.263469e+00 -8.572900e-01 -1.847480e+00 -1.071736e+00 -8.344564e-01 1.197963e-01 1.116977e+00 1.387016e+00 8.102210e-01 5.374301e-01 6.046071e-01 3.689663e+00 8.390389e-01 -8.526030e-01 -4.127872e-01 -1.186925e+00 -8.618832e-01 -4.533885e-01 -4.567474e-01 6.809905e-02 9.641983e-02 2.771261e-01 2.187274e-01 2.637613e-02 1.809755e+00
<VARIANCE> 39
 4.304750e+01 2.514219e+01 1.841042e+01 2.380771e+01 1.726067e+01 2.304522e+01 2.865970e+01 3.394227e+01 3.437732e+01 2.886168e+01 2.329934e+01 2.003919e+01 3.896738e+01 4.122206e+00 3.182685e+00 3.147389e+00 4.414713e+00 3.185895e+00 3.578006e+00 4.086948e+00 4.211769e+00 4.136522e+00 3.446623e+00 3.036437e+00 2.364265e+00 7.654134e+00 5.601831e-01 7.059122e-01 8.918485e-01 7.982857e-01 7.020439e-01 8.304928e-01 7.791194e-01 9.128220e-01 9.224042e-01 8.004714e-01 7.022465e-01 5.036362e-01 7.768275e-01
<GCONST> 1.277272e+02
<STATE> 4
<MEAN> 39
 -8.945561e+00 -6.195654e+00 -6.204499e+00 -8.822566e+00 -6.669134e+00 -5.960978e+00 -5.820782e+00 -2.934883e+00 -2.060343e+00 -7.859908e-01 -1.101828e+00 -1.323071e+00 5.537556e+01 2.322134e+00 -2.721041e+00 -1.030498e+00 -3.656287e+00 -2.507415e+00 -1.006083e+00 -1.136959e+00 6.539686e-01 4.966238e-01 7.786049e-01 5.109332e-01 1.588932e-01 5.276895e+00 4.060880e-01 3.559791e-01 2.245766e-01 6.547578e-02 -4.623942e-03 3.554475e-01 -1.895446e-01 -1.602716e-01 -4.600017e-01 -1.776304e-01 -1.804907e-01 -2.460500e-01 -8.141137e-01
<VARIANCE> 39
 4.254481e+01 2.372275e+01 3.625735e+01 4.990507e+01 3.312775e+01 4.329491e+01 3.796344e+01 3.406707e+01 3.279365e+01 2.947989e+01 2.758537e+01 2.142043e+01 4.338994e+01 5.741241e+00 5.264328e+00 7.953865e+00 7.358277e+00 6.245364e+00 7.306917e+00 7.339800e+00 7.151778e+00 7.258799e+00 5.452393e+00 5.144204e+00 3.881706e+00 6.434174e+00 8.072467e-01 6.504120e-01 5.897465e-01 9.295473e-01 7.969781e-01 8.213302e-01 9.102945e-01 8.878270e-01 8.547482e-01 7.249069e-01 6.928735e-01 5.228474e-01 8.827652e-01
<GCONST> 1.378467e+02
<TRANSP> 5
 0.000000e+00 1.000000e+00 0.000000e+00 0.000000e+00 0.000000e+00
 0.000000e+00 6.369679e-01 3.630321e-01 0.000000e+00 0.000000e+00
 0.000000e+00 0.000000e+00 4.941311e-01 5.058689e-01 0.000000e+00
 0.000000e+00 0.000000e+00 0.000000e+00 4.644850e-01 5.355150e-01
 0.000000e+00 0.000000e+00 0.000000e+00 0.000000e+00 0.000000e+00
<ENDHMM>
~h "d"
<BEGINHMM>
<NUMSTATES> 5
<STATE> 2
<MEAN> 39
 -7.796650e+00 2.867830e-01 1.136437e+00 -9.723271e-01 -8.056981e+00 -7.917581e+00 -7.564625e+00 -5.141746e+00 -5.892386e+00 -5.011189e+00 -6.327211e+00 -3.641030e+00 4.404287e+01 -1.213257e+00 1.633799e+00 1.648231e-01 1.277753e+00 1.864343e+00 1.190077e+00 5.213073e-01 -6.559439e-01 -1.602249e-01 -2.460672e-01 -3.402768e-01 -4.872178e-01 -2.442606e+00 -2.036404e-01 -9.934245e-01 -2.988609e-01 -9.644806e-01 -2.294081e-01 7.994655e-02 -9.339582e-03 5.030348e-01 2.313339e-01 2.917876e-01 4.473789e-01 2.753593e-01 1.372868e+00
<VARIANCE> 39
 3.140408e+01 4.423747e+01 3.805378e+01 5.851601e+01 5.294926e+01 4.413823e+01 4.043819e+01 4.759623e+01 4.714807e+01 3.877110e+01 3.644186e+01 3.077407e+01 6.062778e+01 2.911635e+00 6.696120e+00 3.683646e+00 6.688802e+00 5.401838e+00 5.097149e+00 5.364046e+00 5.549354e+00 4.734249e+00 4.139242e+00 3.926833e+00 3.279592e+00 9.152100e+00 4.141083e-01 9.916764e-01 5.566635e-01 9.332411e-01 9.478744e-01 7.843813e-01 9.855497e-01 8.984439e-01 8.199338e-01 8.041148e-01 7.280672e-01 5.984018e-01 1.369277e+00
<GCONST> 1.383116e+02
<STATE> 3
<MEAN> 39
 -1.253872e+01 -1.501520e-01 -2.756177e-01 -8.672354e-01 -3.549235e+00 -3.358414e+00 -5.381161e+00 -4.497431e+00 -5.196858e+00 -3.656034e+00 -4.667633e+00 -3.319817e+00 4.116035e+01 -1.377925e+00 -2.102086e+00 -7.017903e-01 -1.989856e+00 5.742582e-02 5.486490e-01 4.672707e-01 9.149950e-01 7.518936e-01 6.470070e-01 1.043356e+00 7.576663e-01 2.752933e+00 3.836287e-01 -6.933359e-01 -9.642334e-02 -8.761722e-01 -9.234535e-01 -6.537392e-01 -2.983637e-01 3.362109e-01 1.437381e-01 1.709021e-01 1.853564e-01 2.114290e-01 1.705767e+00
<VARIANCE> 39
 4.259948e+01 4.291861e+01 3.444418e+01 4.324515e+01 4.010953e+01 3.682692e+01 3.646936e+01 3.796824e+01 3.631046e+01 2.952614e+01 2.752954e+01 2.266032e+01 7.740506e+01 3.823087e+00 5.229712e+00 3.848942e+00 5.443213e+00 4.654053e+00 5.079461e+00 4.925998e+00 5.080463e+00 4.743495e+00 3.880261e+00 3.424382e+00 2.783730e+00 1.072424e+01 6.069208e-01 9.380569e-01 6.632615e-01 8.839440e-01 9.009998e-01 8.872892e-01 9.191514e-01 9.064583e-01 8.468252e-01 7.059309e-01 7.020642e-01 5.674936e-01 1.300130e+00
<GCONST> 1.360724e+02
<STATE> 4
<MEAN> 39
 -1.451985e+01 -7.502573e+00 -2.496021e+00 -9.511719e+00 -7.663322e+00 -5.876729e+00 -4.867091e+00 -1.381813e+00 -2.621501e+00 -1.783581e+00 -1.885875e+00 -3.636864e-01 5.571051e+01 8.743384e-01 -1.136618e+00 -1.384768e-01 -1.563898e+00 -1.574261e+00 -1.328053e+00 -8.263729e-01 7.559147e-01 3.495822e-01 3.109246e-01 2.068145e-01 2.442829e-01 3.332994e+00 7.476045e-01 3.031899e-01 4.705359e-02 4.392892e-01 -1.752420e-01 -1.347057e-01 -2.857265e-01 -4.901698e-02 -2.007402e-01 -7.118785e-02 -2.565882e-01 -2.897369e-01 -7.097108e-01
<VARIANCE> 39
 5.242773e+01 4.265580e+01 4.491328e+01 4.586979e+01 5.158060e+01 5.242282e+01 4.947668e+01 4.132904e+01 3.869024e+01 2.932407e+01 2.749829e+01 2.299755e+01 6.686312e+01 7.146158e+00 4.772685e+00 4.321316e+00 6.142614e+00 6.146664e+00 6.129190e+00 6.614738e+00 5.497244e+00 5.180418e+00 4.042054e+00 4.398434e+00 3.308119e+00 1.192984e+01 8.485766e-01 9.437635e-01 8.579707e-01 1.016200e+00 1.229673e+00 1.394025e+00 1.094275e+00 9.828435e-01 9.341756e-01 7.828936e-01 8.031839e-01 6.454527e-01 1.424120e+00
<GCONST> 1.420975e+02
<TRANSP> 5
 0.000000e+00 1.000000e+00 0.000000e+00 0.000000e+00 0.000000e+00
 0.000000e+00 5.016614e-01 4.983386e-01 0.000000e+00 0.000000e+00
 0.000000e+00 0.000000e+00 3.632664e-01 6.367337e-01 0.000000e+00
 0.000000e+00 0.000000e+00 0.000000e+00 5.328582e-01 4.671418e-01
 0.000000e+00 0.000000e+00 0.000000e+00 0.000000e+00 0.000000e+00
<ENDHMM>
~h "f"
<BEGINHMM>
<NUMSTATES> 5
<STATE> 2
<MEAN> 39
 -1.607660e+01 -5.122365e+00 -6.640835e+00 -5.683716e+00 -3.548624e+00 -3.377757e+00 -2.457621e+00 -9.458511e-01 -2.165270e+00 -1.488989e+00 -2.873177e+00 -1.362528e+00 5.277431e+01 -4.068626e+00 -2.519926e-01 -2.794917e-01 9.574925e-01 6.059413e-01 4.646692e-01 7.676981e-01 5.696296e-01 7.265208e-01 3.224415e-01 4.052125e-01 5.951136e-01 -9.359560e-01 3.006715e-01 -4.900005e-01 -1.944793e-01 -4.950249e-01 -4.460145e-01 -2.165346e-01 -3.490045e-01 -2.001749e-02 -6.486433e-02 9.084587e-02 4.977475e-02 -3.795772e-02 3.348168e-01
<VARIANCE> 39
 5.418834e+01 1.803587e+01 2.083244e+01 2.385060e+01 2.007171e+01 2.786946e+01 2.436507e+01 2.428960e+01 2.409703e+01 2.289156e+01 1.962807e+01 1.648685e+01 3.749465e+01 5.098047e+00 3.660769e+00 4.539069e+00 5.396899e+00 4.090267e+00 4.732377e+00 4.629046e+00 4.129141e+00 4.125257e+00 3.642956e+00 3.649634e+00 2.747257e+00 3.112462e+00 1.042187e+00 5.627829e-01 5.497790e-01 6.703821e-01 5.949919e-01 5.950017e-01 6.849846e-01 6.629205e-01 6.178027e-01 5.858825e-01 5.087506e-01 4.495329e-01 4.767177e-01
<GCONST> 1.247941e+02
<STATE> 3
<MEAN> 39
 -2.384410e+01 -8.590246e+00 -9.422729e+00 -6.508102e+00 -4.950025e+00 -3.983358e+00 -3.041639e+00 -2.705957e-01 -1.052168e+00 -1.862819e-01 -1.754760e+00 -9.611165e-02 5.284892e+01 2.225349e-02 -1.963487e-01 -1.723017e-01 -1.135936e-01 -6.891719e-02 -4.292678e-02 -6.517773e-02 -4.219671e-02 4.617699e-02 8.854108e-02 4.128067e-02 1.125972e-02 1.014119e-01 8.327119e-01 1.567905e-01 1.469380e-01 -9.193656e-02 -9.499733e-03 -5.559702e-02 -1.071151e-01 -9.404545e-02 -9.883913e-02 -7.901914e-02 -6.740011e-02 -1.108194e-01 1.027600e-01
<VARIANCE> 39
 1.085633e+01 1.299456e+01 1.094345e+01 1.233171e+01 1.274891e+01 1.383516e+01 1.488286e+01 1.425479e+01 1.401007e+01 1.403885e+01 1.327336e+01 1.183439e+01 2.534779e+01 2.147620e+00 9.925421e-01 1.160587e+00 1.236929e+00 1.353715e+00 1.426403e+00 1.538123e+00 1.595972e+00 1.585242e+00 1.533059e+00 1.460479e+00 1.317854e+00 1.530445e+00 5.025998e-01 2.424864e-01 2.889312e-01 3.448091e-01 3.405227e-01 3.818222e-01 4.116521e-01 3.963542e-01 3.848222e-01 3.553078e-01 3.571258e-01 3.093361e-01 3.005032e-01
<GCONST> 9.661604e+01
<STATE> 4
<MEAN> 39
 -1.726350e+01 -7.200225e+00 -7.975358e+00 -7.062134e+00 -4.634837e+00 -3.985442e+00 -2.949513e+00 -9.705131e-01 -1.266537e+00 -4.564407e-01 -2.013499e+00 -8.803256e-01 5.321694e+01 4.741600e+00 2.087044e-01 1.682135e-01 -1.393815e+00 -1.061984e+00 -5.621586e-01 -1.193436e+00 -5.478301e-01 -5.677767e-01 -4.351218e-01 -1.535431e-01 -5.342559e-01 1.005244e+00 6.139625e-01 -2.702795e-01 -1.221355e-01 -4.751318e-01 -4.445219e-01 -1.083051e-01 -4.396284e-01 2.149576e-02 -1.312814e-01 -6.923869e-02 5.888964e-02 -6.150644e-02 3.487247e-01
<VARIANCE> 39
 4.733852e+01 1.926594e+01 2.053550e+01 2.243950e+01 2.024855e+01 2.333788e+01 2.192106e+01 2.073653e+01 1.963772e+01 1.781820e+01 1.663881e+01 1.458992e+01 3.682895e+01 6.031609e+00 3.449487e+00 4.666329e+00 5.315747e+00 4.543061e+00 5.367889e+00 5.341260e+00 4.007398e+00 4.102844e+00 3.180062e+00 3.442636e+00 2.622638e+00 4.779634e+00 9.849040e-01 5.201033e-01 5.464861e-01 6.614905e-01 6.325092e-01 7.193733e-01 7.726375e-01 6.790038e-01 6.651468e-01 5.917245e-01 5.237019e-01 4.383478e-01 6.256424e-01
<GCONST> 1.247047e+02
<TRANSP> 5
 0.000000e+00 1.000000e+00 0.000000e+00 0.000000e+00 0.000000e+00
 0.000000e+00 5.847269e-01 4.152731e-01 0.000000e+00 0.000000e+00
 0.000000e+00 0.000000e+00 8.290241e-01 1.709759e-01 0.000000e+00
 0.000000e+00 0.000000e+00 0.000000e+00 5.882705e-01 4.117294e-01
 0.000000e+00 0.000000e+00 0.000000e+00 0.000000e+00 0.000000e+00
<ENDHMM>
~h "g"
<BEGINHMM>
<NUMSTATES> 5
<STATE> 2
<MEAN> 39
 -7.108115e+00 -5.158972e-01 1.557973e+00 -1.708040e+00 -1.150256e+01 -1.152253e+01 -5.421207e+00 -3.384551e+00 -1.196218e+01 -4.487247e+00 -1.617492e+00 -3.923985e+00 4.584803e+01 -1.078709e+00 1.854111e+00 -4.956552e-01 1.729678e+00 2.304349e+00 9.083530e-01 -1.724769e-01 -9.221529e-01 7.648439e-01 -6.086789e-01 -7.458399e-01 -7.504196e-02 -3.209442e+00 -1.773056e-01 -1.027181e+00 -6.948790e-01 -6.978572e-01 3.276421e-01 3.444533e-01 -8.223628e-02 2.688462e-01 7.404659e-01 4.534320e-01 -8.198899e-02 1.776394e-01 1.128291e+00
<VARIANCE> 39
 2.183848e+01 3.868219e+01 4.322683e+01 4.498603e+01 5.755642e+01 5.360007e+01 5.252148e+01 8.240197e+01 5.329686e+01 5.764653e+01 6.276128e+01 3.787070e+01 4.866748e+01 2.501318e+00 6.881264e+00 4.610044e+00 5.751976e+00 6.344880e+00 5.839899e+00 6.631137e+00 7.979410e+00 6.250745e+00 6.008575e+00 4.900329e+00 3.447648e+00 6.632520e+00 3.314492e-01 1.078348e+00 7.047951e-01 8.883537e-01 9.508339e-01 9.973294e-01 1.084234e+00 1.164611e+00 1.018185e+00 1.099547e+00 8.791423e-01 6.839753e-01 1.262401e+00
<GCONST> 1.426546e+02
<STATE> 3
<MEAN> 39
 -1.235994e+01 4.269914e-01 -1.784006e+00 9.431155e-01 -2.941247e+00 -6.247658e+00 -5.910593e+00 -4.190462e+00 -6.455657e+00 -3.632196e+00 -3.613868e+00 -2.824868e+00 3.987603e+01 -8.030277e-01 -2.799425e+00 -2.456634e+00 -1.359442e+00 1.607292e+00 8.912012e-01 -1.284484e-01 5.940887e-01 1.641257e+00 1.233579e+00 -5.656619e-02 6.293443e-01 2.127718e+00 5.629879e-01 -8.764681e-01 -1.879864e-01 -1.053322e+00 -8.268824e-01 -4.711828e-01 -1.428652e-01 1.968584e-01 -1.657001e-01 4.125729e-01 2.868778e-01 7.807402e-02 1.836311e+00
<VARIANCE> 39
 3.530436e+01 3.934929e+01 3.770718e+01 2.870622e+01 4.073973e+01 4.758122e+01 3.927099e+01 4.242571e+01 3.914804e+01 3.095775e+01 2.722226e+01 2.062837e+01 4.522272e+01 3.396657e+00 7.568059e+00 6.166342e+00 5.897199e+00 7.333967e+00 7.051985e+00 6.653619e+00 7.888165e+00 6.014926e+00 5.186587e+00 4.230545e+00 3.333798e+00 8.484049e+00 6.197018e-01 1.237382e+00 9.780197e-01 1.010409e+00 9.611039e-01 1.073456e+00 1.039073e+00 1.127161e+00 8.593625e-01 9.056488e-01 8.523201e-01 5.147871e-01 1.100745e+00
<GCONST> 1.400358e+02
<STATE> 4
<MEAN> 39
 -1.133659e+01 -1.030818e+01 -9.181443e+00 -6.943668e+00 -2.704511e+00 -7.509902e+00 -6.958438e+00 -2.365351e+00 -3.487547e+00 1.075429e+00 -2.936624e+00 -9.971638e-01 5.377570e+01 1.361373e+00 -3.825032e-01 -8.020416e-03 -1.540758e+00 -9.254151e-01 -7.960706e-01 -1.149137e+00 -9.727994e-02 9.800144e-02 4.169222e-01 3.979575e-01 1.533534e-01 2.712466e+00 6.326709e-01 8.533719e-01 7.619353e-01 1.924352e-01 -6.723981e-01 -2.340796e-01 -2.074809e-01 -7.543339e-02 -4.871895e-01 -4.751686e-01 1.490016e-01 -2.023192e-01 -4.923653e-01
<VARIANCE> 39
 3.023415e+01 5.432396e+01 8.076270e+01 4.698765e+01 6.719767e+01 6.548207e+01 6.030503e+01 5.505467e+01 4.765752e+01 3.985512e+01 3.330857e+01 2.446367e+01 3.473753e+01 4.704218e+00 8.047280e+00 7.111621e+00 7.177362e+00 6.687339e+00 6.626510e+00 5.945476e+00 5.713386e+00 6.026810e+00 5.630706e+00 4.179877e+00 3.097729e+00 6.488176e+00 5.910880e-01 1.519079e+00 1.374687e+00 1.116771e+00 1.242997e+00 1.238170e+00 1.237198e+00 1.308483e+00 1.201381e+00 1.111976e+00 8.687603e-01 6.818687e-01 8.468411e-01
<GCONST> 1.452921e+02
<TRANSP> 5
 0.000000e+00 1.000000e+00 0.000000e+00 0.000000e+00 0.000000e+00
 0.000000e+00 5.638428e-01 4.361572e-01 0.000000e+00 0.000000e+00
 0.000000e+00 0.000000e+00 4.838176e-01 5.161824e-01 0.000000e+00
 0.000000e+00 0.000000e+00 0.000000e+00 6.403501e-01 3.596499e-01
 0.000000e+00 0.000000e+00 0.000000e+00 0.000000e+00 0.000000e+00
<ENDHMM>
~h "k"
<BEGINHMM>
<NUMSTATES> 5
<STATE> 2
<MEAN> 39
 -1.155937e+01 -4.057444e+00 -1.827716e+00 -3.293094e+00 -7.246902e+00 -9.960612e+00 -4.896657e+00 -4.212513e-01 -7.799637e+00 -1.470672e+00 -1.655232e+00 -1.783931e+00 4.663790e+01 -2.661185e+00 1.377555e+00 -3.977240e-01 2.025433e+00 2.247239e+00 2.341924e+00 9.949301e-01 -7.411792e-01 1.061747e+00 3.854418e-01 4.859804e-02 3.504095e-01 -5.172514e+00 -1.462988e-01 -7.275187e-01 -5.790799e-01 -5.762892e-01 8.481503e-02 4.638589e-01 6.162649e-02 2.600845e-01 6.278681e-01 1.432017e-01 -9.316757e-03 2.569053e-02 6.570547e-01
<VARIANCE> 39
 4.247286e+01 3.672793e+01 6.280054e+01 5.393926e+01 9.040781e+01 7.225471e+01 6.643815e+01 8.186615e+01 6.920848e+01 4.942314e+01 5.168324e+01 3.243914e+01 6.775916e+01 5.653879e+00 5.352618e+00 6.729491e+00 5.666117e+00 7.900272e+00 7.056908e+00 7.224166e+00 7.682482e+00 7.651353e+00 5.416639e+00 5.787557e+00 3.469934e+00 6.124016e+00 7.344743e-01 1.012375e+00 8.321227e-01 1.066298e+00 1.472840e+00 1.292909e+00 1.078720e+00 1.414015e+00 1.350685e+00 1.026491e+00 9.699410e-01 7.133991e-01 2.013512e+00
<GCONST> 1.492548e+02
<STATE> 3
<MEAN> 39
 -1.956153e+01 -3.528162e+00 -5.073428e+00 -4.837183e-01 -9.875537e-01 -1.024140e+00 -1.795605e+00 3.647947e-01 -1.097085e+00 7.766984e-01 -6.011184e-01 -3.422528e-01 3.443431e+01 -3.591222e-01 -1.585998e+00 -1.263179e+00 -1.037343e+00 1.423625e-01 6.814482e-01 3.342287e-01 1.486583e-01 5.604599e-01 5.770354e-01 -4.986001e-03 2.570631e-01 1.181630e+00 7.617998e-01 -5.469112e-01 -5.854505e-02 -8.965494e-01 -6.854978e-01 -9.500890e-01 -3.957093e-01 2.277919e-02 -4.882776e-01 -6.675838e-02 -1.598182e-01 -9.548876e-02 2.450857e+00
<VARIANCE> 39
 1.106791e+01 1.682709e+01 1.805569e+01 1.704292e+01 2.037601e+01 2.222409e+01 2.396092e+01 2.506157e+01 2.462919e+01 2.046019e+01 1.710769e+01 1.511264e+01 2.487667e+01 4.956083e+00 5.098848e+00 5.254382e+00 5.250981e+00 5.850133e+00 6.427029e+00 5.024818e+00 5.115164e+00 5.937962e+00 3.732313e+00 3.445279e+00 2.633937e+00 1.662683e+01 6.526436e-01 7.826409e-01 8.725376e-01 7.495736e-01 9.111692e-01 8.599231e-01 8.987306e-01 8.902817e-01 7.857806e-01 6.530738e-01 6.641046e-01 4.510750e-01 1.343807e+00
<GCONST> 1.285333e+02
<STATE> 4
<MEAN> 39
 -1.605637e+01 -1.038107e+01 -7.646079e+00 -9.332144e+00 -4.354176e+00 -4.952802e+00 -2.833791e+00 -3.025558e-01 -2.794368e+00 1.783682e+00 -2.362121e+00 -3.542200e-01 5.449073e+01 1.013536e+00 9.893753e-02 2.656744e-01 -9.143713e-01 -8.501703e-01 -7.296119e-01 -1.545902e-01 -1.228944e-01 -3.527105e-01 -4.003316e-01 -1.380497e-01 -2.124562e-01 2.297396e+00 2.511156e-01 4.458361e-01 3.276779e-01 2.648148e-01 -1.462259e-01 -3.646330e-02 -1.112059e-01 2.647552e-03 -1.065557e-01 -2.651728e-01 7.939504e-02 -1.035511e-01 -5.199511e-01
<VARIANCE> 39
 3.019328e+01 3.912264e+01 7.172768e+01 4.550446e+01 5.529077e+01 4.848530e+01 4.989278e+01 4.509735e+01 3.981600e+01 3.408162e+01 2.916417e+01 2.244804e+01 4.951422e+01 5.437124e+00 4.902971e+00 4.349469e+00 5.280443e+00 4.471962e+00 4.798393e+00 4.560999e+00 4.418406e+00 4.689937e+00 3.930242e+00 3.365943e+00 2.649272e+00 1.044132e+01 7.648281e-01 1.243174e+00 9.963168e-01 9.750018e-01 9.105045e-01 9.377104e-01 9.521444e-01 8.813406e-01 9.050114e-01 7.601522e-01 6.663126e-01 5.393849e-01 1.710592e+00
<GCONST> 1.387153e+02
<TRANSP> 5
 0.000000e+00 1.000000e+00 0.000000e+00 0.000000e+00 0.000000e+00
 0.000000e+00 5.574246e-01 4.425754e-01 0.000000e+00 0.000000e+00
 0.000000e+00 0.000000e+00 6.185137e-01 3.814863e-01 0.000000e+00
 0.000000e+00 0.000000e+00 0.000000e+00 7.712890e-01 2.287111e-01
 0.000000e+00 0.000000e+00 0.000000e+00 0.000000e+00 0.000000e+00
<ENDHMM>
~h "l"
<BEGINHMM>
<NUMSTATES> 5
<STATE> 2
<MEAN> 39
 -1.862434e+00 -5.321965e+00 -1.065896e+01 -2.162171e+01 -7.748265e+00 1.182702e-02 -8.560051e+00 -7.762663e+00 -3.551171e+00 5.315329e-01 -4.791780e-01 -3.496003e+00 5.964835e+01 1.179598e+00 6.955503e-01 -3.266178e-01 -2.213879e+00 -3.193579e-01 1.213418e+00 -2.168682e-01 -8.107294e-01 -7.178533e-01 -8.444512e-02 6.187273e-01 3.432231e-01 6.978793e-02 -3.774514e-01 -2.325309e-01 1.273658e-01 5.220724e-01 3.132681e-02 -3.304619e-01 9.035590e-02 5.240065e-01 1.446072e-01 -1.334578e-01 -1.641982e-01 8.211471e-02 -9.091812e-02
<VARIANCE> 39
 1.435985e+01 4.802552e+01 4.784455e+01 6.860948e+01 5.796354e+01 7.191849e+01 7.703299e+01 5.975769e+01 6.306417e+01 5.762500e+01 6.537663e+01 4.018723e+01 3.122572e+01 2.737758e+00 2.936579e+00 2.735085e+00 5.357920e+00 4.646163e+00 4.990564e+00 5.501446e+00 5.063797e+00 4.586806e+00 4.555708e+00 4.072473e+00 3.623579e+00 2.395351e+00 4.365680e-01 5.259832e-01 4.215262e-01 7.753485e-01 7.598427e-01 7.448615e-01 8.211092e-01 8.237392e-01 9.368531e-01 8.156925e-01 7.202727e-01 6.229119e-01 3.067015e-01
<GCONST> 1.346353e+02
<STATE> 3
<MEAN> 39
 -5.056468e-01 -2.824341e+00 -1.103117e+01 -2.654460e+01 -8.961280e+00 2.620078e+00 -6.797719e+00 -6.270577e+00 -5.029574e+00 -1.498559e+00 3.478655e-01 -1.336154e+00 5.819812e+01 -1.735697e-01 -2.194860e-01 1.910420e-02 4.794313e-01 3.491923e-01 -3.646890e-01 -3.615889e-01 1.889056e-01 3.087272e-01 2.791258e-01 -1.815729e-01 -3.542467e-01 2.691891e-02 -3.029411e-01 -3.011056e-01 1.190223e-01 7.045034e-01 1.271405e-01 -3.483223e-01 -6.434651e-02 1.919457e-01 2.859422e-01 9.006985e-02 -2.338142e-01 -1.977847e-01 1.884907e-02
<VARIANCE> 39
 9.815981e+00 3.882806e+01 4.701916e+01 6.663647e+01 6.485609e+01 6.368886e+01 7.747892e+01 6.380263e+01 5.717040e+01 5.911291e+01 5.282712e+01 3.835544e+01 2.788792e+01 6.378609e-01 3.025293e+00 1.520079e+00 3.539996e+00 2.625169e+00 2.756829e+00 3.352817e+00 3.116727e+00 3.702309e+00 3.482826e+00 2.631671e+00 2.586810e+00 1.758390e+00 2.277757e-01 3.298786e-01 3.093604e-01 5.975114e-01 5.576954e-01 5.927153e-01 5.717081e-01 7.243619e-01 6.485420e-01 6.252370e-01 5.649927e-01 4.668995e-01 2.407523e-01
<GCONST> 1.233506e+02
<STATE> 4
<MEAN> 39
 -3.014199e+00 -7.941087e+00 -9.196425e+00 -1.830386e+01 -6.822109e+00 -4.056963e+00 -1.181185e+01 -4.029285e+00 -2.594735e-01 1.322249e+00 -3.104299e+00 -4.963447e+00 6.030398e+01 -9.327310e-01 -8.909478e-01 1.402528e+00 2.313892e+00 -7.376748e-01 -2.028485e+00 5.584805e-02 1.777234e+00 4.701860e-01 -8.138258e-01 -1.031036e+00 1.772526e-01 8.789513e-02 -2.045715e-01 2.023706e-01 4.152780e-01 7.737410e-02 -3.747904e-01 7.844548e-02 5.558750e-01 7.476333e-02 -6.121303e-01 -4.248329e-01 2.194736e-01 3.998721e-01 -2.428039e-01
<VARIANCE> 39
 1.453401e+01 4.002024e+01 5.410543e+01 6.993913e+01 5.179521e+01 8.687090e+01 8.234290e+01 6.927566e+01 6.711549e+01 6.513124e+01 6.664267e+01 4.369625e+01 4.350290e+01 1.390562e+00 3.303608e+00 3.911219e+00 4.928575e+00 5.565242e+00 5.318998e+00 5.416050e+00 5.618195e+00 6.734290e+00 5.124931e+00 4.132311e+00 4.379220e+00 2.821530e+00 3.038405e-01 3.763642e-01 3.965537e-01 7.963532e-01 7.275010e-01 9.367930e-01 8.039252e-01 1.042582e+00 1.044552e+00 9.649271e-01 7.820725e-01 6.506442e-01 2.661460e-01
<GCONST> 1.363632e+02
<TRANSP> 5
 0.000000e+00 1.000000e+00 0.000000e+00 0.000000e+00 0.000000e+00
 0.000000e+00 5.459031e-01 4.540969e-01 0.000000e+00 0.000000e+00
 0.000000e+00 0.000000e+00 7.052860e-01 2.947139e-01 0.000000e+00
 0.000000e+00 0.000000e+00 0.000000e+00 5.203831e-01 4.796169e-01
 0.000000e+00 0.000000e+00 0.000000e+00 0.000000e+00 0.000000e+00
<ENDHMM>
~h "m"
<BEGINHMM>
<NUMSTATES> 5
<STATE> 2
<MEAN> 39
 -4.581792e+00 -3.638983e+00 -5.249664e+00 -4.951298e+00 -6.750848e+00 -7.104269e+00 -6.304507e+00 -7.959338e+00 -1.057198e+01 -1.917790e+00 -2.217483e+00 -5.814374e+00 5.091162e+01 3.957348e-01 1.341775e+00 9.833575e-01 1.665186e+00 6.476116e-02 -1.095403e+00 6.363274e-02 -2.180693e+00 -2.356516e+00 2.657447e-01 1.685943e-01 -7.771476e-01 -7.633616e-01 -2.367948e-01 -4.274529e-01 6.265515e-02 -3.704130e-01 -1.894093e-01 1.391878e-01 -1.088797e-01 5.150575e-01 4.752100e-01 -7.626725e-02 -7.707578e-02 1.891579e-01 4.898655e-01
<VARIANCE> 39
 2.246651e+01 3.047421e+01 3.465284e+01 5.146192e+01 4.600250e+01 5.921456e+01 6.182167e+01 6.194161e+01 6.767908e+01 5.338355e+01 6.764352e+01 4.473248e+01 3.753224e+01 4.785558e+00 2.866254e+00 3.709897e+00 4.141517e+00 4.946914e+00 4.441054e+00 6.053931e+00 5.293737e+00 5.812819e+00 4.906283e+00 5.035991e+00 3.893047e+00 4.917634e+00 3.741730e-01 4.077336e-01 5.988466e-01 6.107776e-01 6.285244e-01 6.558662e-01 7.720672e-01 7.979380e-01 9.508160e-01 6.919676e-01 7.164369e-01 5.513784e-01 3.584891e-01
<GCONST> 1.348820e+02
<STATE> 3
<MEAN> 39
 -4.149337e+00 -3.078142e+00 -3.029892e+00 -3.147017e+00 -7.579692e+00 -8.615383e+00 -7.126392e+00 -1.071522e+01 -1.343315e+01 -1.105510e+00 -2.365701e+00 -6.940274e+00 5.136777e+01 -4.295503e-02 -4.997303e-02 1.458011e-01 -5.015451e-02 -9.555101e-02 6.209105e-02 -7.945396e-02 4.130979e-02 1.519650e-01 -1.467154e-01 -1.147604e-01 8.427207e-02 2.095050e-01 -1.140003e-01 -4.307772e-01 -2.686441e-01 -6.550548e-01 -1.125424e-01 3.581403e-01 -1.643757e-02 7.717093e-01 8.058886e-01 -1.669071e-01 -7.108731e-02 2.998667e-01 3.633215e-01
<VARIANCE> 39
 8.713295e+00 2.321090e+01 3.087684e+01 4.922176e+01 5.147973e+01 7.006813e+01 6.612575e+01 6.599938e+01 6.241495e+01 6.208266e+01 8.440284e+01 5.443673e+01 2.066672e+01 1.175865e+00 1.806281e+00 1.460662e+00 2.031337e+00 2.097218e+00 2.030288e+00 2.468801e+00 2.653174e+00 3.156550e+00 2.404628e+00 2.377511e+00 2.001295e+00 2.217871e+00 3.221789e-01 2.968217e-01 4.975235e-01 5.122817e-01 5.872982e-01 5.651477e-01 6.684858e-01 7.353492e-01 8.642992e-01 6.785076e-01 7.117450e-01 5.928893e-01 2.349710e-01
<GCONST> 1.217887e+02
<STATE> 4
<MEAN> 39
 -4.480070e+00 -5.054479e+00 -4.734774e+00 -5.801733e+00 -7.926409e+00 -7.108946e+00 -7.346880e+00 -7.468566e+00 -9.123749e+00 -2.776295e+00 -2.697355e+00 -5.353703e+00 5.340324e+01 -2.476497e-01 -1.604481e+00 -4.105086e-01 -2.265539e+00 -8.764781e-01 9.994994e-01 -1.495959e-01 2.461701e+00 2.372078e+00 -6.427067e-01 -3.634852e-01 9.222096e-01 1.705305e+00 -2.649023e-01 -2.262698e-01 9.881142e-02 -3.953423e-01 -1.310288e-01 2.224507e-01 1.457579e-01 4.664135e-01 1.725248e-01 7.584965e-02 1.818883e-03 1.309081e-01 1.659403e-01
<VARIANCE> 39
 1.734896e+01 3.203889e+01 3.517903e+01 5.279672e+01 4.688560e+01 6.134640e+01 5.583989e+01 6.139655e+01 7.176343e+01 5.012198e+01 6.461960e+01 4.165804e+01 4.176234e+01 2.640482e+00 3.375993e+00 5.573642e+00 5.116086e+00 5.790516e+00 4.944320e+00 5.536984e+00 5.326941e+00 6.524774e+00 5.122846e+00 5.315442e+00 4.012075e+00 4.017229e+00 3.807323e-01 4.531251e-01 6.014876e-01 6.776343e-01 6.770438e-01 6.806372e-01 7.320263e-01 8.629053e-01 1.152182e+00 6.819838e-01 6.870978e-01 5.369927e-01 4.007671e-01
<GCONST> 1.356418e+02
<TRANSP> 5
 0.000000e+00 1.000000e+00 0.000000e+00 0.000000e+00 0.000000e+00
 0.000000e+00 4.319905e-01 5.680094e-01 0.000000e+00 0.000000e+00
 0.000000e+00 0.000000e+00 6.629058e-01 3.370943e-01 0.000000e+00
 0.000000e+00 0.000000e+00 0.000000e+00 4.195461e-01 5.804539e-01
 0.000000e+00 0.000000e+00 0.000000e+00 0.000000e+00 0.000000e+00
<ENDHMM>
~h "n"
<BEGINHMM>
<NUMSTATES> 5
<STATE> 2
<MEAN> 39
 -4.337554e+00 -6.781351e+00 -3.227118e+00 -8.398033e+00 -1.131711e+01 -7.918939e+00 -6.601156e+00 -3.325250e+00 -7.629950e+00 -2.686732e+00 -5.321435e+00 -4.563399e+00 5.522952e+01 1.925774e-01 1.793003e+00 1.072517e-01 1.708778e+00 6.908904e-02 -6.464776e-01 1.252472e+00 -2.965583e+00 -1.437530e+00 1.229237e+00 -7.831009e-01 -2.442690e-01 -1.974948e+00 -1.901658e-01 -1.127156e-02 4.043843e-02 -1.261483e-01 -3.590596e-02 1.437077e-01 7.940438e-02 8.490123e-04 9.790449e-02 -1.672283e-04 3.949737e-02 1.169275e-01 1.023600e-01
<VARIANCE> 39
 1.158633e+01 3.570087e+01 4.481117e+01 5.907197e+01 5.345807e+01 5.556004e+01 5.743788e+01 8.015508e+01 7.917258e+01 6.014796e+01 6.153363e+01 4.849809e+01 3.150828e+01 1.514540e+00 2.746146e+00 4.385895e+00 3.830914e+00 4.871091e+00 5.227055e+00 5.230565e+00 6.804381e+00 6.344281e+00 4.756266e+00 4.265394e+00 3.704141e+00 2.290267e+00 2.227641e-01 3.201029e-01 4.094779e-01 4.780454e-01 5.799155e-01 5.472513e-01 6.367534e-01 9.598797e-01 7.510828e-01 6.405994e-01 5.548500e-01 4.767924e-01 2.745557e-01
<GCONST> 1.307203e+02
<STATE> 3
<MEAN> 39
 -4.244577e+00 -2.295800e+00 -2.617177e+00 -5.147257e+00 -1.217178e+01 -8.814257e+00 -2.542800e+00 -1.103637e+01 -1.108439e+01 5.364196e-01 -7.271489e+00 -4.275321e+00 5.108379e+01 -1.891579e-01 8.692971e-01 1.427140e-01 5.530899e-01 1.724777e-01 1.760324e-02 2.675743e-01 -8.623087e-01 -3.384019e-01 9.320636e-02 -1.945891e-01 4.559375e-02 -8.651512e-01 -3.073866e-01 -4.697081e-01 -2.177866e-02 -4.633500e-01 2.295087e-01 2.450920e-01 -4.690477e-01 1.041678e+00 5.461346e-01 -4.687385e-01 2.892407e-01 1.073592e-01 4.314760e-01
<VARIANCE> 39
 9.003725e+00 2.901527e+01 3.000904e+01 5.220061e+01 4.733973e+01 5.105177e+01 5.568349e+01 7.321236e+01 6.585795e+01 6.185921e+01 6.657656e+01 5.458015e+01 2.361823e+01 9.146290e-01 2.193070e+00 1.881071e+00 2.297855e+00 2.541880e+00 2.593924e+00 3.189428e+00 5.015717e+00 3.547442e+00 3.060512e+00 2.501127e+00 2.161806e+00 1.852182e+00 2.928210e-01 4.583274e-01 5.277739e-01 6.008345e-01 7.098234e-01 7.121221e-01 7.689257e-01 1.030678e+00 9.889745e-01 7.572191e-01 6.971963e-01 6.017126e-01 3.583696e-01
<GCONST> 1.256264e+02
<STATE> 4
<MEAN> 39
 -6.591511e+00 -3.598659e+00 -3.406098e+00 -6.124572e+00 -9.976726e+00 -7.297080e+00 -4.781799e+00 -6.845357e+00 -8.082905e+00 -1.820091e+00 -6.348640e+00 -3.858536e+00 5.042620e+01 -9.891766e-01 -6.276143e-01 -2.965697e-01 -8.323343e-01 8.130568e-01 7.334295e-01 -6.681763e-01 1.629584e+00 1.074412e+00 -6.389285e-01 5.927535e-01 2.214281e-01 4.589457e-01 -2.503243e-01 -4.119546e-01 -1.733947e-01 -4.325799e-01 4.395122e-02 2.266769e-01 -2.532086e-02 5.845588e-01 3.262188e-01 -3.898589e-02 2.263207e-01 1.279559e-01 4.773373e-01
<VARIANCE> 39
 2.575689e+01 5.032777e+01 3.980069e+01 5.690126e+01 5.228950e+01 5.083366e+01 5.662886e+01 7.930804e+01 7.010780e+01 5.713309e+01 5.503355e+01 4.622370e+01 5.433303e+01 3.805377e+00 4.367172e+00 4.016396e+00 5.020201e+00 5.175192e+00 4.774424e+00 5.561309e+00 7.418000e+00 6.265874e+00 5.043769e+00 4.535113e+00 3.757846e+00 5.371513e+00 6.181225e-01 8.460883e-01 6.204628e-01 8.003972e-01 8.633450e-01 8.216022e-01 9.703667e-01 1.449850e+00 1.231327e+00 9.178130e-01 7.892451e-01 6.501487e-01 7.731161e-01
<GCONST> 1.415558e+02
<TRANSP> 5
 0.000000e+00 1.000000e+00 0.000000e+00 0.000000e+00 0.000000e+00
 0.000000e+00 3.567742e-01 6.432258e-01 0.000000e+00 0.000000e+00
 0.000000e+00 0.000000e+00 5.865761e-01 4.134239e-01 0.000000e+00
 0.000000e+00 0.000000e+00 0.000000e+00 4.708870e-01 5.291129e-01
 0.000000e+00 0.000000e+00 0.000000e+00 0.000000e+00 0.000000e+00
<ENDHMM>
~h "p"
<BEGINHMM>
<NUMSTATES> 5
<STATE> 2
<MEAN> 39
 -1.073041e+01 7.224458e-01 -3.984291e+00 -3.141399e+00 -3.078606e+00 -2.770943e+00 -5.101747e+00 -5.113365e+00 -5.843607e+00 -2.629092e+00 -2.804091e+00 -3.000326e+00 4.000933e+01 -3.327458e+00 1.021569e+00 3.841688e-01 2.215009e+00 1.516981e+00 1.394138e+00 1.567414e+00 6.758198e-01 8.314671e-01 2.212044e-01 7.147993e-02 5.143903e-01 -4.692844e+00 -2.083426e-01 -1.012186e+00 -2.627750e-01 -6.333612e-01 -3.822540e-01 -1.488850e-01 9.229252e-03 5.383651e-01 4.783679e-01 3.814190e-01 2.330225e-01 1.679659e-01 1.231154e+00
<VARIANCE> 39
 4.433439e+01 2.409827e+01 2.737437e+01 4.224958e+01 2.684438e+01 2.884832e+01 3.224923e+01 3.361739e+01 3.751002e+01 3.142433e+01 3.059886e+01 2.370745e+01 4.726740e+01 5.271759e+00 6.033188e+00 5.487852e+00 7.039601e+00 4.684372e+00 5.440974e+00 5.009380e+00 5.331330e+00 5.782803e+00 4.855227e+00 4.490260e+00 3.329923e+00 8.740782e+00 9.559206e-01 7.520931e-01 7.542532e-01 1.072230e+00 8.457448e-01 7.727644e-01 8.189897e-01 8.588381e-01 8.660889e-01 7.736862e-01 7.046304e-01 5.636482e-01 1.497834e+00
<GCONST> 1.364652e+02
<STATE> 3
<MEAN> 39
 -1.948703e+01 -2.110334e+00 -5.116322e+00 -1.135667e+00 -1.432335e+00 2.202357e-01 -1.051216e+00 5.501196e-03 -3.847106e-01 9.508065e-01 -1.184377e-02 -3.847937e-02 3.265653e+01 -3.440369e-01 -1.117978e+00 -4.992043e-01 -5.148820e-01 -1.684258e-01 -1.618999e-01 2.798528e-01 5.840456e-01 7.455270e-01 4.574787e-01 3.490309e-01 3.424809e-01 1.709201e+00 8.679268e-01 -3.447787e-01 -6.527224e-02 -6.172866e-01 -3.072262e-01 -4.870259e-01 -3.838972e-01 -2.228910e-01 -2.346155e-01 -1.876384e-01 -1.631331e-01 -1.790485e-01 2.040351e+00
<VARIANCE> 39
 4.572255e+00 5.958638e+00 6.498389e+00 8.859426e+00 9.646075e+00 1.141529e+01 1.201851e+01 1.459337e+01 1.431863e+01 1.411813e+01 1.238285e+01 1.185048e+01 1.288796e+01 3.021351e+00 2.080796e+00 1.683060e+00 2.560889e+00 1.879112e+00 2.590794e+00 2.502120e+00 2.974379e+00 3.035597e+00 2.481458e+00 2.183285e+00 1.920395e+00 1.382898e+01 5.899634e-01 3.755376e-01 4.258413e-01 5.359587e-01 4.592579e-01 5.444784e-01 5.252571e-01 5.077386e-01 5.269367e-01 4.798538e-01 4.455825e-01 3.694910e-01 9.762508e-01
<GCONST> 1.058311e+02
<STATE> 4
<MEAN> 39
 -1.479678e+01 -8.798900e+00 -7.764004e+00 -7.246227e+00 -3.099723e+00 -3.142951e+00 -1.892406e+00 -3.090940e-01 -2.089899e-01 3.126274e-01 -1.198501e+00 -7.523142e-01 5.319188e+01 1.950737e+00 -8.293127e-01 -5.895827e-01 -1.335904e+00 -6.223130e-01 -6.012314e-01 -6.894288e-01 -2.588864e-01 -4.287876e-01 -4.308098e-01 -4.716019e-01 -3.420590e-01 2.868341e+00 4.479657e-01 3.223068e-01 1.709385e-02 -3.820359e-02 -2.095619e-01 -3.438608e-03 -3.305869e-01 -1.407294e-01 -3.103471e-01 -1.675773e-01 -8.404265e-02 -1.044310e-01 -6.593466e-01
<VARIANCE> 39
 2.143451e+01 2.508029e+01 2.807602e+01 3.344324e+01 2.825769e+01 3.151534e+01 3.270091e+01 2.993072e+01 2.865044e+01 2.471266e+01 2.297571e+01 1.846432e+01 4.695230e+01 4.688331e+00 3.732640e+00 3.374409e+00 4.171812e+00 3.952997e+00 4.462901e+00 4.682204e+00 4.080440e+00 4.191197e+00 3.184077e+00 3.069001e+00 2.330188e+00 1.056604e+01 5.897471e-01 5.929275e-01 5.196622e-01 6.595038e-01 6.816490e-01 7.170513e-01 7.701581e-01 7.939204e-01 7.996149e-01 6.533595e-01 6.097503e-01 4.714537e-01 1.470158e+00
<GCONST> 1.283523e+02
<TRANSP> 5
 0.000000e+00 1.000000e+00 0.000000e+00 0.000000e+00 0.000000e+00
 0.000000e+00 5.318702e-01 4.681297e-01 0.000000e+00 0.000000e+00
 0.000000e+00 0.000000e+00 7.017021e-01 2.982979e-01 0.000000e+00
 0.000000e+00 0.000000e+00 0.000000e+00 7.548711e-01 2.451288e-01
 0.000000e+00 0.000000e+00 0.000000e+00 0.000000e+00 0.000000e+00
<ENDHMM>
~h "r"
<BEGINHMM>
<NUMSTATES> 5
<STATE> 2
<MEAN> 39
 2.219794e+00 -9.735378e+00 -1.470362e+01 -6.816774e+00 -4.049488e+00 -1.060127e+01 -1.613704e+01 -2.951267e-01 -1.757247e+00 -3.145822e+00 -1.162543e+00 3.281590e-01 5.645846e+01 1.097084e+00 -1.694434e-01 -9.132929e-01 1.288872e-01 3.331594e-01 -3.823784e-01 -1.215782e+00 1.887415e-01 5.366668e-01 -8.813798e-02 -1.815829e-01 8.472833e-02 2.208214e-01 -4.670480e-01 -2.202449e-01 5.030395e-01 6.179537e-02 -3.828307e-01 -1.087330e-02 4.210684e-01 2.764908e-01 -5.171062e-02 -1.049377e-02 -7.447239e-05 -7.817893e-02 5.703678e-02
<VARIANCE> 39
 1.843667e+01 3.455940e+01 6.697331e+01 4.392895e+01 5.554444e+01 7.191505e+01 8.604272e+01 9.211329e+01 7.959657e+01 4.447963e+01 4.012920e+01 3.567153e+01 2.901149e+01 3.725954e+00 2.556980e+00 3.564301e+00 2.722179e+00 3.899593e+00 4.942220e+00 6.236588e+00 4.936534e+00 4.295844e+00 3.627011e+00 2.837978e+00 2.381766e+00 2.070666e+00 4.150977e-01 4.165280e-01 4.309488e-01 4.095047e-01 4.847487e-01 6.438411e-01 8.678805e-01 7.953678e-01 6.220102e-01 5.440977e-01 4.646592e-01 4.173865e-01 2.837884e-01
<GCONST> 1.294871e+02
<STATE> 3
<MEAN> 39
 2.579468e+00 -1.442017e+01 -1.383402e+01 -5.368946e+00 -5.992380e+00 -1.411406e+01 -1.898702e+01 5.811188e+00 8.254579e-01 -4.186191e+00 -2.000343e+00 -1.154765e-01 5.986816e+01 -4.424808e-01 -5.512118e-01 1.498287e+00 5.243763e-01 -1.330664e+00 -7.323865e-01 8.268598e-01 9.969230e-01 -4.049239e-01 -6.105266e-01 -1.020702e-01 -4.681092e-02 1.861282e-01 -6.139520e-01 2.855508e-01 6.615510e-01 -1.755639e-01 -2.761625e-01 4.654790e-01 9.542224e-01 -3.730265e-01 -5.481637e-01 6.955878e-02 1.457625e-01 -1.153938e-01 -2.633145e-01
<VARIANCE> 39
 1.187124e+01 2.545639e+01 7.196143e+01 4.772705e+01 6.832154e+01 7.917046e+01 1.152359e+02 8.580522e+01 9.104988e+01 5.325977e+01 4.415194e+01 3.546053e+01 2.119148e+01 1.486018e+00 3.129099e+00 3.048360e+00 2.826915e+00 4.021041e+00 4.330178e+00 5.384291e+00 6.060011e+00 4.213573e+00 3.457232e+00 3.344040e+00 2.456710e+00 2.953081e+00 3.989254e-01 2.719805e-01 3.815735e-01 4.320397e-01 5.638172e-01 6.213098e-01 8.994530e-01 6.878184e-01 6.427043e-01 5.730069e-01 4.501104e-01 4.070500e-01 2.373123e-01
<GCONST> 1.284344e+02
<STATE> 4
<MEAN> 39
 -7.034796e-01 -1.391236e+01 -8.877762e+00 -4.480875e+00 -9.058889e+00 -1.471075e+01 -1.170252e+01 6.104103e+00 -3.083083e+00 -5.215952e+00 -2.387256e+00 -3.804107e-01 5.798526e+01 -1.504881e+00 6.716346e-01 2.235936e+00 -5.569490e-02 -1.036536e+00 8.961800e-01 2.106042e+00 -9.269049e-01 -1.274808e+00 1.134252e-01 8.888246e-02 -4.372659e-01 -9.113498e-01 -3.973263e-01 4.017869e-01 6.403519e-02 -3.297360e-01 2.578780e-01 6.089676e-01 1.382648e-01 -5.565939e-01 1.372518e-04 3.048138e-01 -6.431985e-03 -1.672838e-01 -2.755006e-01
<VARIANCE> 39
 1.861323e+01 3.589922e+01 7.107674e+01 5.984603e+01 8.277404e+01 9.652905e+01 1.081247e+02 8.084298e+01 9.973985e+01 5.996397e+01 5.244277e+01 3.793851e+01 4.791941e+01 2.037258e+00 4.334554e+00 3.739838e+00 4.746373e+00 5.478971e+00 4.430442e+00 6.039455e+00 5.832285e+00 4.833596e+00 3.958381e+00 3.810050e+00 3.007709e+00 5.405557e+00 4.418199e-01 4.356283e-01 4.302007e-01 5.722488e-01 7.233657e-01 9.824933e-01 1.024050e+00 9.061723e-01 7.524663e-01 6.640816e-01 6.149269e-01 5.051740e-01 3.655700e-01
<GCONST> 1.373092e+02
<TRANSP> 5
 0.000000e+00 1.000000e+00 0.000000e+00 0.000000e+00 0.000000e+00
 0.000000e+00 6.020282e-01 3.979717e-01 0.000000e+00 0.000000e+00
 0.000000e+00 0.000000e+00 4.800245e-01 5.199755e-01 0.000000e+00
 0.000000e+00 0.000000e+00 0.000000e+00 3.676976e-01 6.323025e-01
 0.000000e+00 0.000000e+00 0.000000e+00 0.000000e+00 0.000000e+00
<ENDHMM>
~h "s"
<BEGINHMM>
<NUMSTATES> 5
<STATE> 2
<MEAN> 39
 -2.172477e+01 -5.933716e-02 -5.326727e+00 -8.148967e+00 -2.516135e+00 -7.428580e+00 -2.128501e+00 -5.944182e-02 -2.330067e+00 -1.757698e+00 -2.963373e+00 -5.736704e-01 5.806683e+01 -4.632402e+00 1.468611e+00 -9.300711e-01 3.191692e-01 1.884296e+00 9.972033e-01 1.474415e+00 8.564028e-01 4.851822e-01 2.760480e-01 8.255882e-01 6.963742e-01 4.746054e-02 4.882313e-01 -5.080305e-01 -8.205742e-02 -1.612556e-01 -3.610905e-01 7.212901e-02 -3.410707e-01 2.774942e-02 -7.791097e-02 8.947692e-02 1.409736e-02 -8.154117e-02 -3.844127e-03
<VARIANCE> 39
 7.233826e+01 2.860406e+01 4.468196e+01 3.382955e+01 4.466395e+01 4.145012e+01 4.104671e+01 3.971754e+01 3.272921e+01 3.033409e+01 2.609287e+01 2.070826e+01 2.332088e+01 4.242651e+00 4.092108e+00 4.585258e+00 5.074670e+00 4.420759e+00 4.915908e+00 4.887570e+00 4.309224e+00 4.236406e+00 3.997832e+00 3.892996e+00 2.858380e+00 2.041916e+00 1.268039e+00 5.826286e-01 6.325367e-01 6.684473e-01 7.300975e-01 7.879351e-01 7.947378e-01 7.610824e-01 6.227079e-01 6.564248e-01 5.974270e-01 4.839565e-01 4.024946e-01
<GCONST> 1.307108e+02
<STATE> 3
<MEAN> 39
 -3.019086e+01 1.491835e+00 -9.374590e+00 -7.779913e+00 -5.337812e-02 -5.125529e+00 -1.653003e-01 1.560560e+00 -1.565392e+00 -2.870324e-01 -1.158189e+00 7.649338e-01 5.819855e+01 -1.146276e-01 -7.955458e-02 -2.970192e-02 -1.158640e-01 3.130003e-02 1.544954e-02 -5.878671e-02 5.258086e-02 5.552043e-02 6.152669e-02 1.914835e-03 -2.340119e-03 -1.617769e-02 6.659298e-01 -2.306821e-01 2.711843e-01 -3.135346e-02 -2.102612e-01 -1.552038e-01 -2.118917e-01 -1.305606e-01 -3.855058e-02 -6.817934e-02 -1.142638e-01 -1.089081e-01 -1.575940e-01
<VARIANCE> 39
 8.415635e+00 2.080688e+01 3.035623e+01 3.807672e+01 3.478836e+01 3.164859e+01 2.831904e+01 2.511694e+01 1.954272e+01 1.701672e+01 1.612520e+01 1.330256e+01 1.666458e+01 1.208920e+00 1.322528e+00 1.292243e+00 1.352744e+00 1.516333e+00 1.707438e+00 1.603425e+00 1.624323e+00 1.546902e+00 1.505513e+00 1.351475e+00 1.233584e+00 7.217732e-01 4.053685e-01 2.450383e-01 2.830334e-01 3.253455e-01 3.533278e-01 3.984782e-01 3.908762e-01 3.725369e-01 3.588609e-01 3.417646e-01 3.174837e-01 2.760913e-01 1.966134e-01
<GCONST> 1.006805e+02
<STATE> 4
<MEAN> 39
 -2.532973e+01 -1.935904e+00 -5.962035e+00 -9.086400e+00 -1.033727e+00 -5.916064e+00 -2.464251e+00 1.388378e+00 -1.072851e+00 -6.429124e-01 -1.933837e+00 -2.068845e-01 5.576303e+01 3.313655e+00 -1.175345e+00 1.016015e+00 1.386330e-01 -1.158705e+00 -2.105464e-01 -1.268166e+00 -7.460319e-01 -1.724746e-01 -8.970542e-02 -3.319038e-01 -5.548539e-01 -1.336240e+00 6.629037e-01 -1.754389e-01 -2.549334e-02 7.930662e-02 -3.478421e-01 6.051460e-02 -2.135302e-01 -1.705490e-01 -1.529355e-01 3.053865e-02 4.776016e-03 -9.235295e-02 -1.926590e-01
<VARIANCE> 39
 4.075308e+01 2.930294e+01 3.833131e+01 3.282921e+01 4.007793e+01 4.115431e+01 4.023295e+01 3.325525e+01 2.843236e+01 2.394507e+01 2.199445e+01 1.891099e+01 4.156252e+01 5.695260e+00 2.813164e+00 3.742632e+00 4.609007e+00 4.675789e+00 5.481812e+00 4.967854e+00 3.886525e+00 3.703292e+00 2.938275e+00 3.136989e+00 2.408658e+00 6.230855e+00 7.477624e-01 5.505134e-01 5.979025e-01 6.868085e-01 7.020385e-01 8.077424e-01 9.324723e-01 6.970372e-01 6.445056e-01 5.710786e-01 5.735009e-01 4.441378e-01 1.014194e+00
<GCONST> 1.297243e+02
<TRANSP> 5
 0.000000e+00 1.000000e+00 0.000000e+00 0.000000e+00 0.000000e+00
 0.000000e+00 6.412238e-01 3.587762e-01 0.000000e+00 0.000000e+00
 0.000000e+00 0.000000e+00 8.296455e-01 1.703545e-01 0.000000e+00
 0.000000e+00 0.000000e+00 0.000000e+00 6.563926e-01 3.436075e-01
 0.000000e+00 0.000000e+00 0.000000e+00 0.000000e+00 0.000000e+00
<ENDHMM>
~h "t"
<BEGINHMM>
<NUMSTATES> 5
<STATE> 2
<MEAN> 39
 -1.132565e+01 -3.530737e+00 -2.652577e+00 -5.344138e+00 -8.580146e+00 -7.413013e+00 -6.756938e+00 -3.528917e+00 -3.705163e+00 -1.871868e+00 -3.804700e+00 -2.656426e+00 4.688885e+01 -1.717499e+00 8.787560e-01 -5.201714e-02 1.491593e+00 1.516122e+00 1.024629e+00 8.568643e-01 -2.234408e-02 3.460021e-01 3.956464e-02 2.956405e-01 3.062108e-01 -3.053581e+00 -4.982917e-02 -5.716013e-01 -2.225765e-01 -5.426365e-01 -5.256143e-02 2.109067e-01 1.377514e-01 3.792913e-01 5.504581e-02 1.223049e-01 2.068506e-01 1.028079e-01 8.125881e-01
<VARIANCE> 39
 6.458271e+01 5.312736e+01 5.991483e+01 6.154731e+01 6.752594e+01 5.285188e+01 5.420127e+01 5.823023e+01 6.599199e+01 4.972281e+01 4.476107e+01 3.767622e+01 8.872129e+01 5.715039e+00 5.939246e+00 5.415103e+00 7.032956e+00 6.974386e+00 6.887512e+00 6.268534e+00 6.981553e+00 6.436137e+00 5.060958e+00 5.206468e+00 3.857975e+00 1.048415e+01 6.002575e-01 8.998572e-01 7.230368e-01 1.159630e+00 1.190292e+00 9.907019e-01 9.808418e-01 1.092437e+00 1.054208e+00 9.602400e-01 8.687040e-01 6.696844e-01 1.748827e+00
<GCONST> 1.473995e+02
<STATE> 3
<MEAN> 39
 -1.767989e+01 -4.173845e+00 -4.275283e+00 -3.492861e+00 -3.505761e+00 -1.989912e+00 -2.778729e+00 -8.665925e-01 -1.485734e+00 -1.374371e-01 -1.217275e+00 -8.489941e-01 4.014704e+01 -5.245745e-01 -1.113283e+00 -4.079598e-01 -9.553870e-01 -5.122618e-02 1.601652e-01 3.936802e-01 5.334039e-01 2.860253e-01 2.366795e-01 4.616920e-01 4.730498e-01 1.568816e+00 4.120272e-01 -1.779394e-01 5.226023e-02 -6.829162e-01 -5.827448e-01 -5.780840e-01 -2.625048e-01 -6.711273e-03 -2.205292e-01 -1.204526e-01 -1.394162e-01 -4.701767e-02 1.668624e+00
<VARIANCE> 39
 4.886523e+01 3.622645e+01 2.999349e+01 3.644030e+01 3.926130e+01 3.464756e+01 3.301340e+01 2.926449e+01 2.985545e+01 2.600127e+01 2.298516e+01 1.938658e+01 1.085596e+02 4.288885e+00 4.093322e+00 3.669196e+00 5.816741e+00 4.317086e+00 4.485595e+00 4.076910e+00 4.543004e+00 4.173421e+00 3.501581e+00 3.200165e+00 2.599722e+00 1.466422e+01 6.821965e-01 8.038111e-01 7.259437e-01 9.367285e-01 9.164903e-01 8.497038e-01 7.738692e-01 8.600812e-01 7.616663e-01 6.701523e-01 6.501898e-01 4.892350e-01 2.067701e+00
<GCONST> 1.342421e+02
<STATE> 4
<MEAN> 39
 -1.779241e+01 -7.666004e+00 -4.561537e+00 -9.462577e+00 -6.754067e+00 -6.147588e+00 -2.287391e+00 1.743772e-01 -2.031886e+00 -1.023242e+00 -1.582405e+00 1.639112e-01 5.549881e+01 1.303134e+00 -2.862136e-01 2.503835e-01 -3.962292e-01 -8.852380e-01 -9.559084e-01 -5.070061e-01 1.297246e-01 -3.453746e-01 -3.678153e-01 -4.070809e-01 -1.632442e-01 1.676242e+00 6.135777e-01 7.888031e-02 8.100659e-02 2.387204e-01 -1.116183e-01 2.747175e-02 -3.258321e-01 -9.645014e-02 -1.345192e-01 -3.304912e-02 -9.102244e-02 -2.030221e-01 -5.697586e-01
<VARIANCE> 39
 6.103287e+01 3.894195e+01 4.144780e+01 4.251260e+01 4.416824e+01 3.873470e+01 4.624958e+01 3.839006e+01 3.544609e+01 3.027230e+01 2.851232e+01 2.325707e+01 6.834183e+01 6.722157e+00 3.093481e+00 3.704990e+00 5.042542e+00 4.524852e+00 4.675609e+00 5.041899e+00 4.254608e+00 3.944446e+00 3.394818e+00 3.388059e+00 2.704421e+00 1.086772e+01 7.848213e-01 7.303927e-01 7.107024e-01 1.012996e+00 8.116071e-01 8.281038e-01 8.818648e-01 8.187281e-01 7.354605e-01 6.642972e-01 6.764946e-01 5.332996e-01 1.699692e+00
<GCONST> 1.360133e+02
<TRANSP> 5
 0.000000e+00 1.000000e+00 0.000000e+00 0.000000e+00 0.000000e+00
 0.000000e+00 4.322280e-01 5.677720e-01 0.000000e+00 0.000000e+00
 0.000000e+00 0.000000e+00 5.065079e-01 4.934920e-01 0.000000e+00
 0.000000e+00 0.000000e+00 0.000000e+00 6.217154e-01 3.782846e-01
 0.000000e+00 0.000000e+00 0.000000e+00 0.000000e+00 0.000000e+00
<ENDHMM>
~h "v"
<BEGINHMM>
<NUMSTATES> 5
<STATE> 2
<MEAN> 39
 -3.215754e+00 -6.039471e+00 -8.015252e+00 -8.543595e+00 -7.010886e+00 -7.357748e+00 -1.130381e+01 -5.626956e+00 -3.686232e+00 -5.213311e-01 -1.038664e+00 -3.121318e+00 5.492312e+01 -1.859794e+00 2.369002e+00 -1.628756e-02 1.464981e+00 1.571481e+00 7.851099e-01 9.057456e-01 -1.207324e+00 -7.261575e-01 -5.760536e-01 -1.595126e-01 2.460295e-01 -2.289633e+00 -6.003905e-01 -1.794784e-01 3.548624e-01 -4.407051e-02 -1.689985e-01 1.071734e-01 3.671280e-01 4.694476e-01 8.047277e-02 -1.366769e-01 -2.583429e-01 4.518157e-03 2.147617e-01
<VARIANCE> 39
 2.674711e+01 2.191823e+01 3.594317e+01 3.829296e+01 2.571294e+01 4.487712e+01 4.080181e+01 3.605186e+01 3.527328e+01 3.584302e+01 4.038979e+01 2.969383e+01 2.605817e+01 2.912327e+00 2.609464e+00 3.553122e+00 4.063134e+00 3.525920e+00 4.231363e+00 5.171272e+00 5.248440e+00 4.221982e+00 3.826884e+00 3.588686e+00 2.826917e+00 2.316983e+00 3.968134e-01 3.364693e-01 3.432897e-01 4.142022e-01 4.629639e-01 4.586360e-01 5.524787e-01 5.351606e-01 5.157950e-01 4.978687e-01 4.678757e-01 4.330380e-01 2.696796e-01
<GCONST> 1.227574e+02
<STATE> 3
<MEAN> 39
 -8.744099e+00 -1.346450e+00 -5.949755e+00 -5.574325e+00 -4.713111e+00 -5.491713e+00 -8.424321e+00 -6.891457e+00 -6.053898e+00 -2.807828e+00 -2.946867e+00 -2.965370e+00 5.035057e+01 -2.380049e+00 9.274889e-01 5.813260e-01 1.120176e+00 8.885801e-01 6.515971e-01 1.133752e+00 2.328019e-01 -1.131559e-01 -5.253190e-01 -4.561892e-01 1.065699e-01 -1.091748e+00 3.363759e-01 -9.040126e-01 -7.170166e-02 -5.498179e-01 -5.147658e-01 -2.458228e-01 -1.284320e-01 5.789831e-01 3.765804e-01 2.667356e-01 8.294728e-02 1.943309e-02 8.635336e-01
<VARIANCE> 39
 3.236085e+01 1.910490e+01 2.746183e+01 2.928184e+01 2.078144e+01 3.159310e+01 2.806581e+01 2.571779e+01 2.650290e+01 2.685342e+01 2.896010e+01 2.188995e+01 3.463641e+01 4.028837e+00 2.215768e+00 2.445045e+00 3.128811e+00 2.466581e+00 3.402394e+00 3.366794e+00 3.119665e+00 2.731862e+00 2.769375e+00 2.646710e+00 2.002468e+00 2.287716e+00 4.985859e-01 4.086919e-01 5.610276e-01 5.533745e-01 5.462955e-01 6.050956e-01 7.733365e-01 7.009576e-01 6.280795e-01 5.875577e-01 5.146956e-01 4.330645e-01 4.548935e-01
<GCONST> 1.198834e+02
<STATE> 4
<MEAN> 39
 -1.394455e+01 -3.714505e+00 -6.462262e+00 -5.409377e+00 -4.385787e+00 -4.739158e+00 -5.323350e+00 -3.300791e+00 -3.577210e+00 -2.221575e+00 -2.943221e+00 -1.943202e+00 5.091780e+01 5.711421e-01 -9.277422e-01 -3.858841e-01 -8.461426e-01 -5.955051e-01 -4.570003e-01 -8.745450e-02 6.086516e-01 4.522209e-01 3.399706e-01 2.244288e-01 1.291604e-01 1.071191e+00 9.641495e-01 -3.963218e-01 -9.340560e-02 -5.111793e-01 -4.121654e-01 -2.524402e-01 -4.023622e-01 7.720330e-02 -7.607803e-03 1.132476e-01 9.570733e-02 -5.343473e-02 4.606099e-01
<VARIANCE> 39
 5.580829e+01 2.383657e+01 2.853413e+01 2.898112e+01 2.225755e+01 2.905637e+01 3.208426e+01 2.826431e+01 2.590444e+01 2.314793e+01 2.215267e+01 1.873594e+01 4.345436e+01 7.836898e+00 2.912374e+00 2.935747e+00 3.998613e+00 3.382801e+00 3.890028e+00 4.246341e+00 3.371757e+00 3.107026e+00 2.535012e+00 2.491063e+00 2.016059e+00 4.837480e+00 8.797336e-01 6.818208e-01 6.360376e-01 7.991977e-01 6.500829e-01 7.900656e-01 8.312238e-01 7.853901e-01 7.053935e-01 5.945010e-01 5.708432e-01 4.362550e-01 7.290915e-01
<GCONST> 1.262942e+02
<TRANSP> 5
 0.000000e+00 1.000000e+00 0.000000e+00 0.000000e+00 0.000000e+00
 0.000000e+00 3.480944e-01 6.519056e-01 0.000000e+00 0.000000e+00
 0.000000e+00 0.000000e+00 4.136626e-01 5.863374e-01 0.000000e+00
 0.000000e+00 0.000000e+00 0.000000e+00 6.094582e-01 3.905418e-01
 0.000000e+00 0.000000e+00 0.000000e+00 0.000000e+00 0.000000e+00
<ENDHMM>
~h "w"
<BEGINHMM>
<NUMSTATES> 5
<STATE> 2
<MEAN> 39
 -5.257516e+00 -4.122097e+00 -9.624662e+00 -1.115098e+01 -6.330614e+00 -2.125297e+00 -6.985132e+00 -5.165151e+00 -8.187772e+00 -1.434960e+00 -6.508495e-01 -1.751413e+00 4.929192e+01 2.571945e+00 1.920801e+00 -4.537624e-01 -2.201615e+00 -1.546301e+00 8.853976e-01 7.757103e-01 -4.404849e-01 -1.411433e+00 -9.348835e-01 2.191843e-02 2.377662e-01 -3.786723e-01 -1.289568e-01 -1.593878e-01 3.899752e-01 -2.767445e-01 -6.310695e-01 -2.900289e-01 4.392642e-02 4.695227e-01 2.208406e-01 -7.048619e-02 -1.288889e-01 -5.051054e-02 5.768557e-01
<VARIANCE> 39
 5.485403e+01 4.724060e+01 2.770015e+01 5.147803e+01 4.391275e+01 3.716416e+01 5.007447e+01 3.981264e+01 5.937507e+01 3.841286e+01 3.960064e+01 2.611850e+01 4.123246e+01 5.136128e+00 3.383946e+00 4.318226e+00 5.030169e+00 5.555381e+00 5.094956e+00 6.207795e+00 5.051282e+00 4.801115e+00 4.152768e+00 3.528552e+00 2.857131e+00 5.339529e+00 5.628811e-01 9.021909e-01 6.397386e-01 8.183577e-01 9.880326e-01 7.783305e-01 1.056293e+00 8.255737e-01 8.966519e-01 9.151613e-01 6.249848e-01 5.277676e-01 4.985887e-01
<GCONST> 1.361614e+02
<STATE> 3
<MEAN> 39
 2.420102e+00 1.016598e+00 -8.797471e+00 -2.119140e+01 -1.724116e+01 -1.533268e+00 -4.291665e+00 -2.372863e+00 -8.445918e+00 -4.725162e+00 -1.697786e+00 -2.298256e+00 5.217284e+01 5.084262e-01 -6.406677e-01 -3.137412e-01 -1.449884e+00 -7.191970e-01 6.845445e-01 1.579410e-01 2.198320e-01 2.882224e-01 2.359667e-01 3.745507e-01 1.502252e-01 1.116224e+00 -3.604579e-01 -6.126205e-01 -1.094355e-01 3.640250e-01 5.977522e-01 1.002655e-01 -2.286944e-01 -1.099067e-01 1.386357e-01 3.354685e-01 2.090803e-01 1.819676e-02 2.386082e-01
<VARIANCE> 39
 7.003993e+00 2.411249e+01 2.906257e+01 4.945626e+01 4.872760e+01 4.599846e+01 4.009207e+01 4.401359e+01 5.541776e+01 3.937600e+01 3.872247e+01 2.802102e+01 1.856150e+01 1.262014e+00 2.467697e+00 1.810576e+00 3.069952e+00 3.978175e+00 3.451990e+00 3.487865e+00 3.125612e+00 3.619330e+00 3.290782e+00 3.132723e+00 2.323585e+00 2.104395e+00 3.336758e-01 2.822203e-01 2.905316e-01 5.192986e-01 5.336676e-01 5.742099e-01 6.146123e-01 5.615431e-01 7.158844e-01 5.756893e-01 4.783083e-01 4.430566e-01 1.776351e-01
<GCONST> 1.192659e+02
<STATE> 4
<MEAN> 39
 1.740435e+00 -7.648377e+00 -1.171973e+01 -2.155902e+01 -1.142397e+01 2.081492e+00 -8.388756e+00 -4.780442e+00 -8.603415e+00 9.905353e-01 2.384743e+00 -1.759133e+00 5.893718e+01 -4.395315e-01 -2.221733e+00 -6.555168e-02 1.036988e+00 1.252856e+00 -7.383295e-01 -1.507535e+00 2.589308e-01 1.400554e+00 1.375404e+00 3.457657e-02 -8.741124e-01 1.674698e+00 -3.690541e-01 1.536795e-01 3.596921e-01 6.313934e-01 -5.615803e-02 -6.884369e-01 1.569750e-01 4.773578e-01 4.354705e-01 -3.493130e-01 -5.933381e-01 -2.112239e-01 -3.059786e-01
<VARIANCE> 39
 8.386800e+00 2.831035e+01 4.269393e+01 7.420857e+01 6.261383e+01 7.510020e+01 8.715627e+01 6.173722e+01 6.829931e+01 8.342415e+01 7.607248e+01 4.243359e+01 1.845408e+01 6.420721e-01 1.501409e+00 2.483901e+00 3.635419e+00 3.568000e+00 6.025321e+00 5.022964e+00 4.876482e+00 4.364575e+00 4.321336e+00 4.838447e+00 3.226225e+00 1.017452e+00 2.780671e-01 2.858926e-01 3.562928e-01 5.595083e-01 7.700446e-01 6.807836e-01 9.942945e-01 7.856208e-01 8.816856e-01 1.064440e+00 7.142848e-01 7.212687e-01 1.616563e-01
<GCONST> 1.284433e+02
<TRANSP> 5
 0.000000e+00 1.000000e+00 0.000000e+00 0.000000e+00 0.000000e+00
 0.000000e+00 6.265442e-01 3.734558e-01 0.000000e+00 0.000000e+00
 0.000000e+00 0.000000e+00 7.545695e-01 2.454305e-01 0.000000e+00
 0.000000e+00 0.000000e+00 0.000000e+00 5.740210e-01 4.259789e-01
 0.000000e+00 0.000000e+00 0.000000e+00 0.000000e+00 0.000000e+00
<ENDHMM>
~h "y"
<BEGINHMM>
<NUMSTATES> 5
<STATE> 2
<MEAN> 39
 -1.123742e+01 -2.614521e+00 1.165100e+01 -1.186340e+01 -1.477722e+01 -7.184827e+00 -9.894051e+00 -5.240699e+00 -1.157055e+01 -4.035384e+00 -3.532229e+00 -2.603960e+00 5.533851e+01 5.332188e-01 5.070230e-02 1.581991e+00 -1.593619e-01 -1.309097e+00 -2.403276e-01 -3.560706e-01 -2.092655e-01 -1.203267e+00 -3.583965e-01 3.344501e-01 -1.215924e-01 4.274613e-01 2.289414e-01 -3.128720e-01 -7.173617e-01 5.443872e-02 2.564785e-01 -1.105129e-01 -3.136425e-02 2.730940e-01 3.300500e-01 1.708918e-01 1.010688e-01 2.051979e-02 3.651234e-02
<VARIANCE> 39
 2.500095e+01 4.205091e+01 3.751604e+01 7.393957e+01 4.763684e+01 5.080179e+01 4.333678e+01 5.939519e+01 4.257356e+01 4.865205e+01 5.238060e+01 2.933319e+01 3.104215e+01 4.898382e+00 3.461797e+00 4.522905e+00 3.510431e+00 5.605583e+00 6.669347e+00 4.281246e+00 4.274703e+00 4.716661e+00 4.251473e+00 2.828422e+00 2.186222e+00 2.982086e+00 4.587577e-01 3.450503e-01 5.044254e-01 7.077549e-01 9.536664e-01 9.371777e-01 7.527856e-01 8.549442e-01 7.213907e-01 6.662377e-01 4.767702e-01 4.251648e-01 3.172935e-01
<GCONST> 1.317501e+02
<STATE> 3
<MEAN> 39
 -8.486284e+00 -6.038724e+00 1.314568e+01 -1.118202e+01 -1.997809e+01 -8.629516e+00 -9.579823e+00 -4.571131e+00 -1.294596e+01 -3.204030e+00 -7.139319e-01 -2.395090e+00 5.820385e+01 7.067605e-01 -8.658839e-01 -6.740295e-01 5.530744e-01 -4.831704e-01 -1.140477e+00 1.978457e-01 7.432739e-01 -1.263272e-01 1.761102e-02 5.756189e-01 1.961603e-01 4.553449e-01 4.865858e-02 -5.328752e-02 -3.719811e-01 9.291043e-02 3.016689e-01 -1.335112e-01 -8.160882e-02 2.299253e-01 2.183789e-01 -7.117955e-02 -2.210816e-02 8.018100e-02 -7.620034e-02
<VARIANCE> 39
 1.154573e+01 3.252890e+01 3.940818e+01 7.955869e+01 3.405508e+01 5.005669e+01 4.915199e+01 5.746234e+01 4.452395e+01 6.810201e+01 5.321152e+01 2.981646e+01 1.847623e+01 1.406343e+00 9.925219e-01 1.424413e+00 1.296218e+00 1.467121e+00 2.653498e+00 2.525036e+00 2.582427e+00 1.746189e+00 1.837080e+00 1.397253e+00 1.206236e+00 4.970737e-01 1.172609e-01 1.275967e-01 2.349700e-01 2.001551e-01 3.729563e-01 3.133180e-01 3.612792e-01 2.800160e-01 3.622792e-01 3.004452e-01 2.404299e-01 2.038995e-01 8.326628e-02
<GCONST> 1.050996e+02
<STATE> 4
<MEAN> 39
 -3.095815e+00 -1.268421e+01 2.483634e+00 -4.880935e+00 -1.688669e+01 -1.815175e+01 -1.052642e+01 5.937814e+00 -8.988071e+00 -6.340256e+00 2.464823e+00 9.059705e-01 5.959178e+01 1.005652e+00 -5.700890e-01 -2.216086e+00 5.368652e-01 1.400700e+00 -9.443434e-01 -1.264734e+00 1.370161e+00 1.493532e+00 -4.711354e-01 -4.331884e-01 4.752072e-01 -4.426153e-02 -1.520332e-01 2.370953e-01 -9.047695e-02 -1.997553e-01 3.254915e-01 5.081117e-01 -1.231657e-01 -3.820697e-01 2.925054e-01 1.873484e-01 -2.996186e-01 -1.599995e-01 -1.742736e-01
<VARIANCE> 39
 1.474740e+01 2.670606e+01 6.965663e+01 5.078859e+01 4.925947e+01 6.204978e+01 8.054749e+01 6.286198e+01 7.330261e+01 5.876993e+01 3.853941e+01 3.302868e+01 1.879363e+01 1.199470e+00 1.248956e+00 1.856959e+00 1.452109e+00 1.954064e+00 2.672894e+00 3.145960e+00 3.031703e+00 2.835888e+00 2.397173e+00 1.937821e+00 1.596757e+00 5.454342e-01 1.548987e-01 1.418296e-01 2.913170e-01 2.484330e-01 3.998602e-01 4.277592e-01 4.177849e-01 3.791478e-01 4.657319e-01 4.041327e-01 2.983063e-01 2.545745e-01 7.589808e-02
<GCONST> 1.116957e+02
<TRANSP> 5
 0.000000e+00 1.000000e+00 0.000000e+00 0.000000e+00 0.000000e+00
 0.000000e+00 6.980914e-01 3.019086e-01 0.000000e+00 0.000000e+00
 0.000000e+00 0.000000e+00 7.838036e-01 2.161964e-01 0.000000e+00
 0.000000e+00 0.000000e+00 0.000000e+00 6.730648e-01 3.269352e-01
 0.000000e+00 0.000000e+00 0.000000e+00 0.000000e+00 0.000000e+00
<ENDHMM>
~h "z"
<BEGINHMM>
<NUMSTATES> 5
<STATE> 2
<MEAN> 39
 -1.640441e+01 2.978989e+00 -2.810809e+00 -8.589247e+00 -4.158231e+00 -1.126888e+01 -7.954016e+00 -4.163187e+00 -3.797497e+00 -2.687340e+00 -4.416428e+00 -1.163220e+00 5.677123e+01 -4.519763e+00 1.908674e+00 -7.102278e-01 4.208896e-01 2.427402e+00 1.152518e+00 1.596694e+00 8.437805e-01 5.307067e-01 4.948115e-02 4.949355e-01 3.135974e-01 -2.643386e-01 2.907138e-02 -7.100338e-01 -1.331749e-01 -9.495997e-02 -2.398401e-01 4.087080e-01 1.973391e-01 4.047560e-01 4.275975e-02 1.879602e-01 1.651787e-01 2.800453e-03 5.700063e-02
<VARIANCE> 39
 5.402211e+01 3.502948e+01 4.507041e+01 4.270490e+01 5.408807e+01 5.192554e+01 4.711655e+01 3.795012e+01 3.479847e+01 3.669054e+01 2.613083e+01 2.429733e+01 2.487013e+01 3.100053e+00 4.736835e+00 3.706262e+00 5.564424e+00 3.824965e+00 5.771127e+00 4.668813e+00 4.789209e+00 3.948263e+00 3.774050e+00 3.489897e+00 3.200803e+00 1.510486e+00 1.070767e+00 7.063221e-01 5.186335e-01 6.485888e-01 7.880114e-01 8.113205e-01 7.476056e-01 7.077147e-01 5.814581e-01 6.388102e-01 5.136909e-01 4.958320e-01 1.897479e-01
<GCONST> 1.300031e+02
<STATE> 3
<MEAN> 39
 -2.877120e+01 1.887179e+00 -7.471572e+00 -8.633477e+00 5.912706e-01 -5.539187e+00 -1.377107e+00 1.171875e+00 -1.516837e+00 -7.555277e-01 -1.734973e+00 1.259190e-01 5.588075e+01 -3.232368e-01 -6.472471e-01 -3.146161e-01 -2.320709e-01 -4.022008e-02 1.771345e-01 2.064749e-01 3.614280e-01 2.550546e-01 1.952587e-01 1.624968e-01 5.215156e-02 9.122716e-02 1.086614e+00 -2.763628e-01 2.517859e-01 -4.744542e-02 -4.403383e-01 -3.392226e-01 -4.587415e-01 -3.156355e-01 -1.125554e-01 -7.239109e-02 -1.536749e-01 -1.166695e-01 -1.132011e-01
<VARIANCE> 39
 1.416588e+01 2.679523e+01 4.405062e+01 4.236755e+01 3.809845e+01 3.484752e+01 3.784896e+01 2.942762e+01 2.119324e+01 1.977285e+01 1.830672e+01 1.470479e+01 1.640837e+01 3.917314e+00 1.568640e+00 1.900981e+00 1.694332e+00 2.104855e+00 2.910561e+00 2.645706e+00 2.299929e+00 2.064072e+00 1.908763e+00 1.685810e+00 1.476815e+00 8.866605e-01 6.855382e-01 3.901755e-01 3.774551e-01 4.744998e-01 5.261917e-01 6.108098e-01 5.721020e-01 5.116904e-01 4.467029e-01 4.138967e-01 3.916908e-01 3.456129e-01 2.512349e-01
<GCONST> 1.120814e+02
<STATE> 4
<MEAN> 39
 -2.039446e+01 -2.779726e+00 -5.856117e+00 -8.908483e+00 -2.281238e+00 -6.416864e+00 -4.689242e+00 -1.899309e-01 -1.004206e+00 -7.694600e-01 -2.481343e+00 -8.539664e-01 5.155682e+01 2.748700e+00 -1.154615e+00 1.125905e-01 2.695805e-01 -9.567257e-01 -1.401091e-02 -6.606653e-01 -5.767777e-01 -1.386650e-01 7.101029e-02 -2.079043e-01 -3.010510e-01 -1.265205e+00 2.411287e-01 2.786137e-03 -5.501018e-02 5.800231e-02 -1.231137e-01 9.713697e-02 1.720438e-02 -5.390106e-02 -1.383337e-01 -6.520704e-03 2.516513e-03 -2.414916e-02 -4.562422e-02
<VARIANCE> 39
 4.943924e+01 3.935138e+01 4.099397e+01 3.666137e+01 4.403482e+01 5.384658e+01 4.992948e+01 3.818542e+01 3.332593e+01 3.222116e+01 2.658983e+01 2.232889e+01 7.671671e+01 6.022433e+00 3.655744e+00 3.502063e+00 4.585431e+00 4.867293e+00 5.522489e+00 5.449706e+00 4.249216e+00 3.716522e+00 3.305557e+00 3.119837e+00 2.549117e+00 6.354723e+00 9.814253e-01 6.164816e-01 5.304701e-01 6.813517e-01 7.341328e-01 8.962150e-01 8.597884e-01 7.773839e-01 6.929831e-01 6.165992e-01 5.495441e-01 4.688787e-01 9.429948e-01
<GCONST> 1.337214e+02
<TRANSP> 5
 0.000000e+00 1.000000e+00 0.000000e+00 0.000000e+00 0.000000e+00
 0.000000e+00 6.769833e-01 3.230167e-01 0.000000e+00 0.000000e+00
 0.000000e+00 0.000000e+00 7.865812e-01 2.134188e-01 0.000000e+00
 0.000000e+00 0.000000e+00 0.000000e+00 6.937248e-01 3.062752e-01
 0.000000e+00 0.000000e+00 0.000000e+00 0.000000e+00 0.000000e+00
<ENDHMM>
~h "aa"
<BEGINHMM>
<NUMSTATES> 5
<STATE> 2
<MEAN> 39
 -9.570301e-01 -1.205954e+01 -1.306056e+01 -1.795426e+01 -9.286611e+00 -7.480758e-01 -6.356163e+00 -6.333274e-01 -2.911853e+00 -7.033241e-01 -1.508599e+00 -4.593304e+00 6.163860e+01 1.295660e+00 -1.150101e+00 -1.249430e+00 -1.380432e+00 2.454066e-01 1.314307e+00 1.567670e-01 -3.874559e-02 -2.458287e-02 -8.580153e-02 1.996309e-01 -4.307817e-01 1.146500e+00 -5.580825e-01 2.092336e-01 1.773701e-01 4.469490e-01 3.446681e-01 -3.566189e-02 1.602922e-01 -8.730955e-02 -1.359377e-02 -8.506728e-02 5.188229e-03 2.201416e-01 -3.916677e-01
<VARIANCE> 39
 1.983513e+01 4.832449e+01 4.456104e+01 7.063473e+01 6.965016e+01 8.910201e+01 8.703218e+01 7.281613e+01 7.139671e+01 6.044878e+01 7.264473e+01 4.401424e+01 4.069927e+01 3.563160e+00 2.730386e+00 3.155571e+00 4.628872e+00 5.091690e+00 4.761968e+00 5.489272e+00 5.115962e+00 4.565821e+00 3.990842e+00 3.980298e+00 3.617766e+00 2.333300e+00 5.337122e-01 4.372721e-01 4.142127e-01 6.447713e-01 7.106061e-01 8.276246e-01 9.662595e-01 8.545582e-01 8.156139e-01 6.885375e-01 7.151787e-01 5.558830e-01 4.409321e-01
<GCONST> 1.363120e+02
<STATE> 3
<MEAN> 39
 3.840893e-01 -1.367349e+01 -1.612178e+01 -2.102160e+01 -6.596889e+00 3.923154e+00 -3.810500e+00 -2.465706e+00 -2.623704e+00 -2.257066e+00 -9.298570e-01 -4.284366e+00 6.330505e+01 1.280191e-02 -1.903174e-01 -2.118616e-01 2.860298e-01 4.013197e-01 -2.015286e-01 -2.083170e-01 5.143619e-02 1.875799e-01 -5.136254e-02 -6.630217e-02 -6.410854e-02 8.205336e-02 -3.796436e-02 1.203939e-01 1.210449e-01 1.851916e-01 -9.542283e-02 -2.917534e-01 -1.554362e-01 9.277970e-02 2.721987e-02 3.777850e-02 -6.066752e-02 4.560933e-03 -1.188792e-01
<VARIANCE> 39
 1.217269e+01 4.599300e+01 3.667364e+01 7.702897e+01 7.746055e+01 8.497096e+01 8.578619e+01 7.530974e+01 6.983122e+01 5.848726e+01 6.527167e+01 4.662313e+01 2.357919e+01 2.679920e-01 8.660890e-01 8.706534e-01 1.620872e+00 1.521466e+00 1.914253e+00 1.946974e+00 1.747525e+00 1.570144e+00 1.553266e+00 1.467891e+00 1.436698e+00 3.039190e-01 5.785848e-02 1.147630e-01 1.347305e-01 1.916135e-01 2.358072e-01 2.452627e-01 2.973711e-01 2.786794e-01 2.695966e-01 2.602243e-01 2.482178e-01 2.354477e-01 5.220273e-02
<GCONST> 1.021752e+02
<STATE> 4
<MEAN> 39
 -3.714156e-01 -1.493835e+01 -1.527901e+01 -1.630965e+01 -6.250079e+00 -1.304632e+00 -6.750396e+00 -2.719316e-01 -1.395264e+00 -1.125462e+00 -2.423237e+00 -5.973342e+00 6.332169e+01 -3.192011e-01 9.639085e-01 8.562296e-01 1.672657e+00 -2.652786e-01 -1.818001e+00 -7.418990e-01 5.454423e-01 1.613597e-01 2.154619e-02 -4.784023e-01 3.797415e-01 -1.233275e+00 -3.706679e-01 4.799593e-01 4.347396e-01 3.540570e-01 2.174908e-02 -6.462255e-02 9.033594e-02 -1.910981e-01 -1.341978e-01 -5.940176e-02 -5.011602e-03 2.588475e-01 -5.467634e-01
<VARIANCE> 39
 1.466299e+01 3.883325e+01 4.040798e+01 6.235756e+01 5.797337e+01 8.900877e+01 8.857281e+01 7.859003e+01 7.517352e+01 6.244099e+01 7.916595e+01 5.164618e+01 2.535855e+01 1.101589e+00 3.024133e+00 2.743831e+00 3.670415e+00 3.976935e+00 3.480551e+00 4.664073e+00 4.286962e+00 4.140645e+00 3.804319e+00 3.440026e+00 3.282722e+00 2.371790e+00 4.034120e-01 3.372981e-01 3.363022e-01 5.200048e-01 5.733564e-01 6.912374e-01 7.890172e-01 7.399758e-01 6.725881e-01 6.537722e-01 6.617306e-01 5.779044e-01 3.288419e-01
<GCONST> 1.303377e+02
<TRANSP> 5
 0.000000e+00 1.000000e+00 0.000000e+00 0.000000e+00 0.000000e+00
 0.000000e+00 6.564912e-01 3.435088e-01 0.000000e+00 0.000000e+00
 0.000000e+00 0.000000e+00 8.515282e-01 1.484717e-01 0.000000e+00
 0.000000e+00 0.000000e+00 0.000000e+00 5.837002e-01 4.162998e-01
 0.000000e+00 0.000000e+00 0.000000e+00 0.000000e+00 0.000000e+00
<ENDHMM>
~h "ae"
<BEGINHMM>
<NUMSTATES> 5
<STATE> 2
<MEAN> 39
 -4.695848e+00 -1.514265e+01 -3.201192e+00 -1.331922e+01 -1.577215e+01 -9.709814e+00 -4.573413e+00 4.993481e+00 -3.501906e+00 -2.566384e+00 -3.984268e+00 -3.601871e+00 6.470123e+01 4.534240e-01 -1.424934e+00 -2.787926e-01 -5.576011e-01 -2.686471e-01 1.364721e-01 2.111726e-01 1.102579e+00 2.298591e-01 -4.818746e-01 -2.096097e-01 -1.702400e-01 1.142096e+00 -3.684170e-01 4.261476e-01 -1.301337e-01 3.086727e-01 5.009344e-01 2.424236e-01 1.058679e-01 -3.258392e-01 1.706907e-02 2.016531e-02 1.189639e-02 1.213736e-01 -5.165729e-01
<VARIANCE> 39
 1.658397e+01 3.317654e+01 5.247190e+01 5.579729e+01 5.222775e+01 6.283068e+01 8.435838e+01 7.035898e+01 8.057699e+01 4.970481e+01 5.595528e+01 3.829390e+01 2.600289e+01 1.684775e+00 2.050066e+00 2.397453e+00 2.449543e+00 2.994155e+00 3.224099e+00 4.570058e+00 3.672261e+00 3.141178e+00 2.639986e+00 2.546049e+00 2.094721e+00 1.596485e+00 3.559886e-01 3.307488e-01 3.365524e-01 4.043671e-01 4.834331e-01 5.229870e-01 6.579512e-01 5.908397e-01 5.718656e-01 5.142257e-01 4.885252e-01 3.810248e-01 2.830735e-01
<GCONST> 1.237114e+02
<STATE> 3
<MEAN> 39
 -4.452457e+00 -1.703383e+01 -6.413480e+00 -1.277328e+01 -1.315474e+01 -7.762243e+00 -1.950037e+00 5.205282e+00 -2.161481e+00 -4.877355e+00 -5.645757e+00 -3.656831e+00 6.558492e+01 4.705720e-02 1.419299e-02 -2.452096e-01 8.932862e-02 2.730062e-01 7.130310e-03 -5.230009e-02 -5.415952e-03 6.089257e-02 -1.069578e-01 -1.166589e-01 2.230878e-02 -9.428504e-02 1.125418e-02 2.085224e-01 2.969096e-02 7.479718e-02 1.067917e-02 -1.004554e-01 -1.507921e-01 -1.201294e-01 -4.224023e-02 1.134825e-01 5.233824e-02 3.600097e-03 -1.859304e-01
<VARIANCE> 39
 1.528199e+01 3.078169e+01 4.933271e+01 4.718063e+01 5.546545e+01 6.594407e+01 7.797980e+01 6.695440e+01 8.790433e+01 4.493768e+01 4.649819e+01 4.211505e+01 2.479286e+01 2.913244e-01 6.279136e-01 1.105016e+00 8.880074e-01 1.315373e+00 1.309657e+00 1.593343e+00 1.446882e+00 1.380463e+00 1.266710e+00 1.212836e+00 1.008957e+00 2.508199e-01 5.645989e-02 1.323940e-01 1.511106e-01 1.637779e-01 2.079958e-01 2.137551e-01 2.545934e-01 2.733221e-01 2.457283e-01 2.181281e-01 2.093265e-01 1.826565e-01 7.453184e-02
<GCONST> 9.729929e+01
<STATE> 4
<MEAN> 39
 -4.236187e+00 -1.469296e+01 -5.707461e+00 -1.247945e+01 -1.308472e+01 -9.787410e+00 -4.919608e+00 4.627505e+00 -2.447869e+00 -3.419710e+00 -5.252035e+00 -3.674975e+00 6.362041e+01 -2.506006e-01 2.076051e+00 4.335461e-01 1.124278e+00 5.308878e-01 -4.401317e-01 -7.433538e-01 -1.043745e+00 -5.470565e-01 4.277577e-01 2.992502e-01 1.128700e-01 -2.210267e+00 -4.510085e-01 6.553801e-01 1.573160e-01 4.776976e-01 3.584684e-01 2.459174e-01 1.978112e-01 -4.651279e-01 -2.076060e-01 1.381609e-02 7.463785e-02 3.277458e-02 -7.810292e-01
<VARIANCE> 39
 1.372002e+01 3.105566e+01 6.253786e+01 4.751892e+01 6.037890e+01 6.562137e+01 8.322748e+01 6.773288e+01 8.071279e+01 5.520126e+01 6.098389e+01 4.456856e+01 3.117442e+01 1.592175e+00 3.095384e+00 3.017214e+00 3.062449e+00 3.739246e+00 3.594001e+00 4.146394e+00 4.398399e+00 4.611075e+00 3.677957e+00 3.435913e+00 2.840491e+00 3.299594e+00 4.171198e-01 3.561476e-01 4.363256e-01 4.786122e-01 6.279439e-01 6.850511e-01 7.486457e-01 7.687511e-01 7.608081e-01 7.384026e-01 6.995684e-01 5.192343e-01 3.879213e-01
<GCONST> 1.306173e+02
<TRANSP> 5
 0.000000e+00 1.000000e+00 0.000000e+00 0.000000e+00 0.000000e+00
 0.000000e+00 5.939450e-01 4.060549e-01 0.000000e+00 0.000000e+00
 0.000000e+00 0.000000e+00 8.406275e-01 1.593725e-01 0.000000e+00
 0.000000e+00 0.000000e+00 0.000000e+00 6.130877e-01 3.869123e-01
 0.000000e+00 0.000000e+00 0.000000e+00 0.000000e+00 0.000000e+00
<ENDHMM>
~h "ah"
<BEGINHMM>
<NUMSTATES> 5
<STATE> 2
<MEAN> 39
 -4.542411e+00 -9.840234e+00 -6.073750e+00 -1.293443e+01 -1.040328e+01 -8.137451e+00 -1.045874e+01 -1.078368e+00 -1.574842e+00 -3.364882e-01 -4.017900e+00 -3.645257e+00 6.025496e+01 1.786917e+00 -1.341969e+00 8.535798e-02 -1.293955e+00 -8.549902e-01 -6.593737e-02 -1.155347e+00 3.352418e-01 3.019429e-01 2.088008e-01 -3.990101e-01 -5.467401e-01 1.451523e+00 -6.716976e-01 4.678872e-01 1.131189e-02 4.510246e-01 4.396190e-01 3.334877e-01 5.286822e-01 -1.534478e-01 -2.475582e-01 -7.183097e-02 1.431485e-01 1.177901e-01 -7.794654e-01
<VARIANCE> 39
 2.451823e+01 3.570438e+01 6.102169e+01 5.833769e+01 6.165868e+01 7.887613e+01 7.025719e+01 6.289180e+01 6.253477e+01 5.917599e+01 6.210903e+01 3.983197e+01 4.031494e+01 4.901655e+00 3.478049e+00 3.993567e+00 5.021639e+00 5.102853e+00 5.841748e+00 5.773505e+00 5.818778e+00 5.727356e+00 4.537668e+00 4.900316e+00 3.623389e+00 4.192176e+00 6.812775e-01 5.549330e-01 5.535196e-01 7.697454e-01 7.587177e-01 9.286081e-01 9.719493e-01 8.993100e-01 8.982708e-01 7.902699e-01 7.530463e-01 6.111873e-01 8.715745e-01
<GCONST> 1.399836e+02
<STATE> 3
<MEAN> 39
 -3.274862e+00 -1.292098e+01 -7.149097e+00 -1.510566e+01 -9.732027e+00 -5.908481e+00 -1.056914e+01 4.060879e-01 -5.954834e-01 -7.375528e-01 -4.657804e+00 -4.938174e+00 6.323867e+01 8.144338e-02 3.693094e-01 1.396686e-01 1.427804e-01 1.578413e-01 4.063770e-03 4.766385e-02 -2.577538e-01 -2.572474e-01 -2.160448e-02 2.786976e-02 1.302849e-02 -4.495727e-01 -4.369653e-01 7.018371e-01 1.107505e-01 5.513073e-01 2.567301e-01 -7.973724e-03 3.441352e-01 -3.584240e-01 -3.513175e-01 -7.002061e-02 1.164874e-01 1.485396e-01 -7.702757e-01
<VARIANCE> 39
 1.480070e+01 3.353279e+01 6.597607e+01 5.638304e+01 6.605025e+01 8.861104e+01 7.426211e+01 6.402661e+01 7.134646e+01 6.721178e+01 6.859692e+01 4.831334e+01 2.681107e+01 1.082428e+00 1.766012e+00 2.196242e+00 2.469452e+00 2.657926e+00 3.171915e+00 2.903836e+00 3.375551e+00 3.099113e+00 2.627879e+00 2.647381e+00 2.352445e+00 1.605526e+00 4.952329e-01 4.251371e-01 4.309869e-01 5.907263e-01 6.732251e-01 7.912339e-01 8.831296e-01 8.032469e-01 7.379079e-01 6.494088e-01 6.181675e-01 5.349593e-01 4.828789e-01
<GCONST> 1.278010e+02
<STATE> 4
<MEAN> 39
 -3.567783e+00 -8.433535e+00 -5.283581e+00 -1.225953e+01 -9.827434e+00 -8.116452e+00 -1.067686e+01 -2.444402e+00 -2.946876e+00 -4.633723e-01 -3.457545e+00 -3.348676e+00 5.850729e+01 -1.164843e+00 2.536043e+00 5.894755e-01 1.920670e+00 1.095992e+00 3.531525e-01 1.078699e+00 -1.296214e+00 -1.232860e+00 -4.964391e-01 1.453427e-01 2.294827e-01 -2.889036e+00 -7.880424e-01 4.030223e-01 -1.867901e-03 4.295046e-01 3.768608e-01 3.392265e-01 5.029992e-01 -6.125297e-02 -9.261294e-02 -1.140201e-01 -1.735575e-02 3.096052e-02 -5.808739e-01
<VARIANCE> 39
 2.023384e+01 3.279990e+01 6.316388e+01 6.209015e+01 5.949619e+01 8.089836e+01 6.533741e+01 6.610329e+01 6.535521e+01 6.353645e+01 6.647684e+01 4.358590e+01 3.422675e+01 3.276928e+00 3.281404e+00 3.640002e+00 5.443134e+00 4.881070e+00 5.553162e+00 5.639287e+00 5.613823e+00 5.544000e+00 4.866252e+00 4.426968e+00 3.932477e+00 5.307770e+00 6.385109e-01 5.598647e-01 5.954964e-01 7.469077e-01 7.455546e-01 9.539216e-01 8.541870e-01 1.022256e+00 8.722784e-01 8.690630e-01 8.357610e-01 6.374027e-01 6.755883e-01
<GCONST> 1.394585e+02
<TRANSP> 5
 0.000000e+00 1.000000e+00 0.000000e+00 0.000000e+00 0.000000e+00
 0.000000e+00 3.030027e-01 6.969973e-01 0.000000e+00 0.000000e+00
 0.000000e+00 0.000000e+00 6.053225e-01 3.946775e-01 0.000000e+00
 0.000000e+00 0.000000e+00 0.000000e+00 2.881724e-01 7.118276e-01
 0.000000e+00 0.000000e+00 0.000000e+00 0.000000e+00 0.000000e+00
<ENDHMM>
~h "aw"
<BEGINHMM>
<NUMSTATES> 5
<STATE> 2
<MEAN> 39
 -4.038490e+00 -1.696187e+01 -9.228746e+00 -1.348158e+01 -9.484740e+00 -5.282132e+00 -3.826983e+00 2.343213e+00 -2.123005e+00 -3.178350e+00 -6.408492e+00 -4.525841e+00 6.555371e+01 6.048741e-01 -1.562853e+00 -8.739869e-01 -5.342332e-01 5.301262e-01 7.566906e-01 3.825724e-04 3.062682e-01 5.042461e-01 -5.007064e-01 -5.299399e-01 -3.435715e-01 1.230072e+00 -3.452657e-01 4.258924e-01 2.186448e-02 2.456513e-01 3.519897e-01 1.989573e-01 4.091851e-02 -3.417225e-01 -9.121112e-02 6.202371e-02 1.617887e-01 1.058233e-01 -5.355085e-01
<VARIANCE> 39
 1.599996e+01 3.296033e+01 5.636393e+01 4.907732e+01 6.603880e+01 6.682197e+01 7.863763e+01 7.210332e+01 7.627496e+01 5.279986e+01 5.071837e+01 4.320219e+01 2.329462e+01 1.890476e+00 2.340771e+00 2.247828e+00 2.645072e+00 3.415639e+00 3.151287e+00 4.218089e+00 4.423521e+00 3.297191e+00 2.753510e+00 2.646415e+00 2.566622e+00 1.950325e+00 3.956084e-01 3.810854e-01 3.534577e-01 4.633777e-01 5.572215e-01 5.635438e-01 7.153011e-01 7.399961e-01 6.342951e-01 5.329251e-01 4.778528e-01 4.511111e-01 3.126228e-01
<GCONST> 1.261314e+02
<STATE> 3
<MEAN> 39
 -2.336349e+00 -1.804288e+01 -1.326274e+01 -1.474644e+01 -4.869073e+00 -7.077854e-01 -4.799246e+00 -1.417906e+00 3.385569e-01 -4.110190e+00 -6.048242e+00 -5.308450e+00 6.569659e+01 2.482522e-01 2.907378e-01 -4.391509e-01 -4.065771e-01 3.694389e-01 5.702965e-01 -2.574062e-01 -4.615475e-01 4.317615e-02 2.100313e-01 3.207948e-01 -8.378818e-02 -2.774979e-01 2.186009e-02 1.921770e-01 5.971919e-02 -3.670407e-02 -1.642235e-01 -8.594579e-02 -2.611528e-02 1.006377e-02 -7.593879e-02 8.613408e-02 9.641434e-02 5.251653e-02 -1.324277e-01
<VARIANCE> 39
 1.370168e+01 2.999436e+01 4.146985e+01 5.283467e+01 5.744028e+01 7.778532e+01 8.208102e+01 7.173486e+01 6.869339e+01 5.334884e+01 5.054773e+01 4.612073e+01 2.123676e+01 2.279949e-01 6.745338e-01 7.405164e-01 1.205468e+00 1.435889e+00 1.496285e+00 1.672029e+00 1.693972e+00 1.554038e+00 1.403453e+00 1.452365e+00 1.268230e+00 2.167189e-01 3.734805e-02 9.514575e-02 1.133990e-01 1.593541e-01 1.985259e-01 2.211663e-01 2.627355e-01 2.508068e-01 2.460039e-01 2.081893e-01 2.258023e-01 2.130178e-01 3.703138e-02
<GCONST> 9.637048e+01
<STATE> 4
<MEAN> 39
 -4.225796e-01 -1.242338e+01 -1.485952e+01 -1.923306e+01 -6.563527e+00 2.157222e+00 -5.705567e+00 -3.238945e+00 -1.626499e+00 -5.761492e-01 -2.273772e+00 -5.012356e+00 6.134512e+01 -8.012041e-02 1.253747e+00 5.524631e-01 5.774472e-01 -8.070420e-01 -9.152366e-01 -2.270655e-01 -7.209436e-02 -4.277562e-01 4.309893e-01 2.663619e-01 3.189920e-01 -1.298192e+00 -2.831753e-01 1.546500e-01 3.523777e-01 5.768737e-01 2.267565e-02 -3.818392e-01 2.667691e-03 -4.914543e-02 -7.196109e-02 -7.093878e-02 -1.722202e-01 5.460589e-02 -2.809533e-01
<VARIANCE> 39
 1.313570e+01 3.994729e+01 3.489229e+01 6.775752e+01 6.420456e+01 7.846531e+01 8.768431e+01 6.063989e+01 6.505607e+01 6.350138e+01 6.954440e+01 4.761023e+01 3.640977e+01 9.227145e-01 2.206239e+00 2.188501e+00 4.499736e+00 3.530275e+00 3.724882e+00 3.781260e+00 3.690090e+00 3.495975e+00 3.209280e+00 3.258531e+00 2.937247e+00 1.562454e+00 2.116756e-01 3.432108e-01 3.288067e-01 5.381374e-01 6.160207e-01 5.140911e-01 6.660605e-01 6.282147e-01 6.327261e-01 5.981814e-01 5.774941e-01 4.975913e-01 3.167576e-01
<GCONST> 1.264274e+02
<TRANSP> 5
 0.000000e+00 1.000000e+00 0.000000e+00 0.000000e+00 0.000000e+00
 0.000000e+00 7.090744e-01 2.909256e-01 0.000000e+00 0.000000e+00
 0.000000e+00 0.000000e+00 8.731555e-01 1.268445e-01 0.000000e+00
 0.000000e+00 0.000000e+00 0.000000e+00 7.641382e-01 2.358618e-01
 0.000000e+00 0.000000e+00 0.000000e+00 0.000000e+00 0.000000e+00
<ENDHMM>
~h "ay"
<BEGINHMM>
<NUMSTATES> 5
<STATE> 2
<MEAN> 39
 -1.848019e+00 -1.512717e+01 -1.378370e+01 -1.723101e+01 -5.732379e+00 6.595415e-02 -5.372928e+00 -2.218700e+00 -2.806334e-01 -8.153472e-01 -4.277098e+00 -6.634839e+00 6.407684e+01 6.543212e-01 -1.965659e+00 -5.347807e-01 -4.481089e-01 3.508759e-01 5.715386e-01 -2.119914e-03 3.873167e-01 8.230361e-01 -3.685189e-01 -7.630824e-01 -7.239313e-01 1.471455e+00 -5.752854e-01 4.232787e-01 4.406415e-01 5.854418e-01 6.814092e-02 -3.347753e-01 1.129644e-01 3.670976e-02 -1.804052e-01 -1.475717e-01 4.427310e-02 3.448597e-01 -5.173883e-01
<VARIANCE> 39
 1.382617e+01 3.353326e+01 3.731954e+01 5.232102e+01 5.660651e+01 8.181980e+01 6.587408e+01 6.421847e+01 6.090761e+01 6.161837e+01 6.964376e+01 4.281717e+01 2.509411e+01 2.998000e+00 2.259958e+00 2.980953e+00 4.499367e+00 3.705220e+00 4.636710e+00 3.931744e+00 4.368124e+00 3.771464e+00 3.303730e+00 3.445146e+00 3.323909e+00 2.120700e+00 4.871996e-01 3.812868e-01 3.815818e-01 6.112100e-01 6.817325e-01 7.356942e-01 7.026008e-01 7.353109e-01 6.531271e-01 6.434155e-01 7.032521e-01 5.476819e-01 3.389498e-01
<GCONST> 1.301537e+02
<STATE> 3
<MEAN> 39
 -2.175605e+00 -1.812686e+01 -1.363869e+01 -1.464326e+01 -4.560369e+00 -8.680115e-01 -4.712834e+00 -1.129750e+00 1.439173e+00 -3.541511e+00 -6.058162e+00 -6.657525e+00 6.558884e+01 -2.021609e-01 -2.060695e-01 5.782427e-01 5.614464e-01 -4.477460e-01 -8.506898e-01 1.129485e-01 7.717940e-01 9.036687e-02 -4.481857e-01 -3.074892e-01 2.554505e-01 5.966211e-02 -1.989603e-02 2.319355e-01 1.768692e-01 -1.103358e-02 -2.631955e-01 -2.006144e-01 2.387059e-02 1.009794e-01 -1.679000e-01 1.868842e-02 1.609357e-01 1.505710e-01 -1.234563e-01
<VARIANCE> 39
 1.129763e+01 3.006468e+01 3.410618e+01 4.521992e+01 5.309532e+01 7.509022e+01 6.940820e+01 6.668985e+01 6.828795e+01 5.377263e+01 5.136544e+01 4.802586e+01 2.039718e+01 2.326896e-01 6.799675e-01 1.009910e+00 1.236370e+00 1.629415e+00 2.043406e+00 1.687904e+00 2.184516e+00 1.475472e+00 1.375191e+00 1.412904e+00 1.333404e+00 2.098433e-01 4.042235e-02 1.193390e-01 1.306372e-01 1.666049e-01 2.269336e-01 2.322886e-01 2.642273e-01 2.808734e-01 2.741763e-01 2.346774e-01 2.627807e-01 2.616267e-01 4.490795e-02
<GCONST> 9.804794e+01
<STATE> 4
<MEAN> 39
 -4.485366e+00 -1.590952e+01 -5.322347e+00 -1.329143e+01 -1.312726e+01 -9.196649e+00 -3.037397e+00 4.951551e+00 -2.015931e+00 -3.776264e+00 -5.397489e+00 -3.030810e+00 6.459128e+01 -3.436259e-01 1.383398e+00 1.670137e+00 4.381701e-01 -1.483625e+00 -1.264526e+00 1.388095e-02 -1.624690e-01 -1.129523e+00 3.963087e-01 9.305557e-01 5.777653e-01 -9.638801e-01 -6.717727e-02 4.419473e-01 -1.175102e-01 1.783264e-01 4.079823e-01 3.260154e-01 -1.599586e-01 -6.294145e-01 -1.313679e-01 1.790680e-01 6.653777e-02 -1.254451e-01 -4.985224e-01
<VARIANCE> 39
 1.207177e+01 3.432127e+01 4.847469e+01 4.589542e+01 5.974688e+01 6.032719e+01 7.405054e+01 6.152366e+01 7.948869e+01 5.143069e+01 4.857985e+01 3.901332e+01 2.572388e+01 5.611285e-01 1.539886e+00 2.171876e+00 2.753515e+00 3.618319e+00 3.054842e+00 4.094069e+00 4.592843e+00 3.657015e+00 3.400654e+00 2.819700e+00 3.175536e+00 1.078670e+00 1.584516e-01 2.825083e-01 3.157468e-01 4.571709e-01 5.954758e-01 4.782619e-01 6.182492e-01 6.052356e-01 6.577829e-01 5.886543e-01 5.745190e-01 4.607467e-01 2.539670e-01
<GCONST> 1.219740e+02
<TRANSP> 5
 0.000000e+00 1.000000e+00 0.000000e+00 0.000000e+00 0.000000e+00
 0.000000e+00 6.189045e-01 3.810955e-01 0.000000e+00 0.000000e+00
 0.000000e+00 0.000000e+00 8.421469e-01 1.578531e-01 0.000000e+00
 0.000000e+00 0.000000e+00 0.000000e+00 7.589432e-01 2.410568e-01
 0.000000e+00 0.000000e+00 0.000000e+00 0.000000e+00 0.000000e+00
<ENDHMM>
~h "ch"
<BEGINHMM>
<NUMSTATES> 5
<STATE> 2
<MEAN> 39
 -1.869190e+01 -4.027611e+00 -3.787959e-01 -5.093367e+00 -4.098612e+00 -2.484779e+00 -5.227445e+00 -1.919911e+00 -2.947298e+00 -2.479155e+00 -2.410764e+00 -1.406532e+00 4.347714e+01 -2.960086e+00 -7.081486e-01 -3.446116e-01 -7.659063e-01 1.057336e+00 1.956379e+00 8.848268e-01 3.685734e-01 8.910915e-01 5.958252e-01 7.173305e-01 3.945952e-01 -1.830266e-02 -1.000928e-02 -4.028113e-01 9.394588e-02 -6.934203e-01 -4.880501e-01 -2.363515e-01 -1.398585e-01 2.017061e-01 7.849577e-02 5.981853e-02 1.167792e-01 4.214702e-02 1.669271e+00
<VARIANCE> 39
 4.411886e+01 5.310168e+01 3.295206e+01 5.277019e+01 3.924554e+01 4.405427e+01 3.176792e+01 3.387562e+01 3.429683e+01 2.835246e+01 2.412200e+01 1.904508e+01 7.990573e+01 5.498288e+00 6.549994e+00 5.395634e+00 8.275964e+00 6.508078e+00 5.075723e+00 4.635633e+00 4.739113e+00 4.461131e+00 3.830610e+00 3.320560e+00 2.642084e+00 2.037316e+01 7.972580e-01 1.567351e+00 9.137096e-01 1.330899e+00 9.981570e-01 1.050990e+00 8.537823e-01 9.210877e-01 7.802892e-01 7.542741e-01 6.808904e-01 4.837990e-01 2.083865e+00
<GCONST> 1.400383e+02
<STATE> 3
<MEAN> 39
 -3.053567e+01 -5.308826e+00 1.852991e+00 -1.192378e+01 -4.503733e+00 1.017980e+00 -2.874231e+00 1.626278e-01 -1.631197e-01 -1.013292e+00 2.490660e-01 1.947528e-01 5.803022e+01 -8.120159e-01 1.233172e-01 5.031096e-01 -1.414070e-01 -8.110576e-01 -2.164581e-01 5.269951e-01 5.134668e-03 7.434974e-02 5.547409e-02 2.218596e-02 6.538326e-02 1.831874e+00 8.433273e-01 2.890929e-02 -1.126449e-01 4.636136e-01 -1.606111e-01 -4.238455e-01 -5.289469e-02 -8.893084e-02 -2.360013e-01 -8.832227e-02 -2.007093e-01 -1.040402e-01 -6.475371e-01
<VARIANCE> 39
 1.895589e+01 3.061235e+01 3.091709e+01 2.319826e+01 3.539917e+01 2.114620e+01 2.213433e+01 2.194459e+01 1.913173e+01 1.614208e+01 1.330842e+01 1.122250e+01 2.800646e+01 4.163550e+00 2.590168e+00 2.634622e+00 2.630503e+00 2.308358e+00 2.203440e+00 1.906628e+00 2.001683e+00 1.745603e+00 1.661742e+00 1.452161e+00 1.268040e+00 5.570282e+00 6.043147e-01 5.882078e-01 5.781835e-01 5.464339e-01 4.705127e-01 4.668618e-01 4.305668e-01 4.138946e-01 3.753820e-01 3.635848e-01 3.018252e-01 2.658170e-01 7.525231e-01
<GCONST> 1.119386e+02
<STATE> 4
<MEAN> 39
 -2.370057e+01 -8.333984e+00 1.087655e+00 -7.838462e+00 -9.982519e+00 -4.573318e+00 -1.174011e+00 -2.657598e-01 -1.397979e+00 -1.502270e+00 -1.289494e+00 -5.962238e-01 5.894948e+01 3.693157e+00 -4.108782e-01 -5.916848e-01 6.144871e-01 -5.066237e-01 -1.701528e+00 -1.062618e+00 7.308266e-02 -6.476241e-01 -5.185047e-01 -5.166279e-01 -3.291015e-01 -7.179132e-01 6.617335e-01 -6.296314e-02 -1.675177e-01 -2.877294e-01 1.408678e-01 6.783257e-02 -5.829863e-01 2.857004e-02 -4.332845e-02 -5.388086e-02 1.914727e-02 -3.770198e-02 -1.470880e-01
<VARIANCE> 39
 4.730215e+01 2.001559e+01 2.861543e+01 3.133359e+01 3.395362e+01 3.174212e+01 3.136741e+01 2.726365e+01 2.488885e+01 2.186998e+01 2.127087e+01 1.665087e+01 2.830948e+01 5.553227e+00 2.099904e+00 3.172241e+00 3.041218e+00 4.400826e+00 4.265402e+00 5.203074e+00 3.623720e+00 3.214617e+00 2.909988e+00 2.810128e+00 2.064286e+00 2.881916e+00 8.835626e-01 3.965290e-01 5.276000e-01 5.298145e-01 6.690133e-01 7.512346e-01 7.690683e-01 6.611256e-01 6.013949e-01 5.813653e-01 5.056422e-01 4.109927e-01 7.714794e-01
<GCONST> 1.236505e+02
<TRANSP> 5
 0.000000e+00 1.000000e+00 0.000000e+00 0.000000e+00 0.000000e+00
 0.000000e+00 7.189227e-01 2.810773e-01 0.000000e+00 0.000000e+00
 0.000000e+00 0.000000e+00 8.023806e-01 1.976194e-01 0.000000e+00
 0.000000e+00 0.000000e+00 0.000000e+00 7.298952e-01 2.701048e-01
 0.000000e+00 0.000000e+00 0.000000e+00 0.000000e+00 0.000000e+00
<ENDHMM>
~h "dh"
<BEGINHMM>
<NUMSTATES> 5
<STATE> 2
<MEAN> 39
 -1.579953e+01 -8.090900e-01 -5.624300e+00 -2.927429e+00 -3.348544e+00 -3.618617e+00 -3.687546e+00 -2.686541e+00 -2.201261e+00 -1.020477e+00 -2.653108e+00 -1.864225e+00 4.252736e+01 -9.828089e-02 -1.251692e-01 -1.317767e-01 -2.204437e-01 -2.438010e-01 -1.702292e-01 6.801882e-02 2.002061e-01 2.071469e-01 -1.815819e-01 6.659173e-03 6.865919e-02 1.158331e+00 5.390665e-01 -5.023685e-01 -9.477013e-02 -5.169793e-01 -5.283327e-01 -4.431801e-01 -2.453595e-01 1.372236e-01 1.310467e-01 3.974053e-02 -1.076196e-02 3.074886e-02 1.113275e+00
<VARIANCE> 39
 4.873345e+01 2.561394e+01 2.349323e+01 2.634738e+01 2.474844e+01 3.267253e+01 3.785940e+01 3.929208e+01 3.153641e+01 2.621659e+01 2.728314e+01 2.630780e+01 7.237852e+01 4.357849e+00 2.845110e+00 3.189682e+00 3.502734e+00 3.088065e+00 3.868355e+00 3.503761e+00 3.395051e+00 3.061810e+00 2.585919e+00 2.525028e+00 2.345337e+00 1.022593e+01 6.985852e-01 5.754690e-01 6.056417e-01 7.031345e-01 6.309919e-01 7.057235e-01 7.435634e-01 7.128627e-01 6.550743e-01 5.884436e-01 5.372319e-01 4.981129e-01 1.183242e+00
<GCONST> 1.275589e+02
<STATE> 3
<MEAN> 39
 -1.504318e+01 -3.649808e+00 -8.020988e+00 -6.506779e+00 -6.211269e+00 -6.026314e+00 -3.289118e+00 -1.767420e+00 -9.241410e-01 -1.391634e+00 -2.274613e+00 -7.945725e-01 5.217962e+01 2.464716e+00 -9.094738e-01 1.716566e-01 -1.437190e+00 -1.963486e+00 -1.953651e+00 -1.352010e+00 1.640146e-01 4.128560e-01 -1.742913e-01 -4.362843e-01 -2.740437e-01 4.197916e+00 6.311253e-01 -2.659660e-01 4.579622e-01 -1.964369e-01 -3.430575e-01 -1.785926e-01 -4.328345e-01 4.518389e-02 -1.039384e-01 1.698638e-01 -1.085998e-01 -1.889355e-01 -8.452272e-02
<VARIANCE> 39
 3.526716e+01 2.666029e+01 2.384393e+01 2.490305e+01 2.447049e+01 2.765899e+01 3.708417e+01 2.991402e+01 2.561747e+01 2.291030e+01 2.271285e+01 2.221284e+01 4.668011e+01 4.426056e+00 3.048624e+00 3.987405e+00 3.677220e+00 3.952122e+00 4.310883e+00 4.620801e+00 4.621064e+00 4.654398e+00 3.625592e+00 3.439925e+00 3.338007e+00 6.247897e+00 5.177608e-01 6.740891e-01 6.490853e-01 6.792968e-01 5.734242e-01 7.346544e-01 7.769380e-01 6.863565e-01 6.707930e-01 5.790218e-01 6.591120e-01 4.928175e-01 9.823705e-01
<GCONST> 1.277108e+02
<STATE> 4
<MEAN> 39
 -6.908774e+00 -5.087358e+00 -5.571811e+00 -8.786269e+00 -1.143096e+01 -1.148437e+01 -8.596212e+00 -2.341558e+00 -4.414337e-01 -1.133403e+00 -3.980434e+00 -2.976878e+00 5.893237e+01 2.275967e+00 -1.935779e+00 7.615077e-01 -1.735668e+00 -2.044229e+00 -1.388893e+00 -1.404564e+00 7.226215e-01 2.367535e-01 2.446580e-01 -3.057978e-01 -3.425532e-01 2.941171e+00 -5.055102e-01 -8.893333e-02 1.194110e-01 1.632054e-01 4.012854e-01 6.185448e-01 3.672098e-01 1.125476e-01 -2.511638e-01 2.634046e-02 9.895860e-02 8.573210e-02 -9.012622e-01
<VARIANCE> 39
 2.233414e+01 2.974570e+01 3.781926e+01 3.885175e+01 4.530222e+01 4.281324e+01 5.291988e+01 4.463881e+01 4.901262e+01 4.000813e+01 3.458527e+01 3.421036e+01 3.291953e+01 3.709414e+00 3.155001e+00 4.360168e+00 4.151750e+00 4.282665e+00 5.397510e+00 6.346570e+00 5.251217e+00 5.282666e+00 4.047994e+00 4.437273e+00 3.650015e+00 4.140976e+00 5.522197e-01 4.067120e-01 4.427403e-01 5.397955e-01 5.830548e-01 5.632738e-01 6.248057e-01 6.323979e-01 6.124840e-01 5.503703e-01 5.021257e-01 4.877939e-01 6.545593e-01
<GCONST> 1.303437e+02
<TRANSP> 5
 0.000000e+00 1.000000e+00 0.000000e+00 0.000000e+00 0.000000e+00
 0.000000e+00 5.936669e-01 4.063331e-01 0.000000e+00 0.000000e+00
 0.000000e+00 0.000000e+00 3.885648e-01 6.114352e-01 0.000000e+00
 0.000000e+00 0.000000e+00 0.000000e+00 3.230701e-01 6.769299e-01
 0.000000e+00 0.000000e+00 0.000000e+00 0.000000e+00 0.000000e+00
<ENDHMM>
~h "eh"
<BEGINHMM>
<NUMSTATES> 5
<STATE> 2
<MEAN> 39
 -4.799680e+00 -1.254164e+01 -2.976215e+00 -1.319180e+01 -1.463315e+01 -1.070319e+01 -8.768453e+00 2.816628e+00 -1.850160e+00 -1.367826e+00 -4.063359e+00 -2.838615e+00 6.373859e+01 1.274485e+00 -2.071947e+00 3.199729e-02 -1.187962e+00 -1.263307e+00 -2.807176e-01 -2.865511e-01 1.583081e+00 5.361958e-01 -2.348745e-01 -3.394585e-01 -2.993846e-01 1.871703e+00 -6.675794e-01 4.166517e-01 -2.305107e-01 2.553932e-01 5.900244e-01 4.839575e-01 4.867653e-01 -2.168433e-01 -1.305005e-01 -1.021187e-02 1.122509e-01 6.746757e-02 -5.611848e-01
<VARIANCE> 39
 1.749401e+01 3.504343e+01 6.155874e+01 5.239431e+01 5.333928e+01 5.675046e+01 8.034811e+01 6.128254e+01 7.588091e+01 5.294313e+01 5.458654e+01 3.859760e+01 2.611054e+01 4.248460e+00 2.588368e+00 3.237995e+00 3.514602e+00 4.450891e+00 4.653137e+00 6.183038e+00 4.723186e+00 4.843504e+00 3.916858e+00 3.655737e+00 3.090884e+00 2.238599e+00 5.982519e-01 4.640276e-01 4.262657e-01 5.517707e-01 6.527476e-01 6.829339e-01 8.158345e-01 7.999294e-01 8.194587e-01 6.457055e-01 6.127027e-01 5.129646e-01 4.488322e-01
<GCONST> 1.327547e+02
<STATE> 3
<MEAN> 39
 -4.487963e+00 -1.506269e+01 -4.733562e+00 -1.427813e+01 -1.436065e+01 -9.087174e+00 -5.994151e+00 5.277563e+00 -1.294346e+00 -2.876838e+00 -5.056036e+00 -3.056461e+00 6.563749e+01 7.592430e-02 -7.110175e-02 -3.143094e-01 -3.708167e-03 2.931799e-01 1.573220e-01 3.805758e-02 9.319019e-02 1.707034e-02 -1.432365e-01 -1.050717e-01 -1.064347e-01 -5.716418e-02 -1.502082e-02 3.905162e-01 -6.795147e-03 1.964415e-01 1.886146e-01 -4.037683e-02 -1.465336e-01 -3.776929e-01 -1.537328e-01 8.451036e-02 9.519096e-02 3.608345e-02 -4.034310e-01
<VARIANCE> 39
 1.487492e+01 2.950647e+01 5.200639e+01 4.907333e+01 5.973304e+01 6.439135e+01 8.548722e+01 6.101536e+01 8.365961e+01 5.502013e+01 5.594040e+01 4.240301e+01 2.042255e+01 4.149220e-01 8.654241e-01 1.539468e+00 1.245247e+00 1.713289e+00 1.966643e+00 2.199125e+00 2.046830e+00 1.925075e+00 1.728989e+00 1.539918e+00 1.411523e+00 4.601372e-01 1.096314e-01 2.148914e-01 2.081403e-01 2.639979e-01 3.219296e-01 3.242359e-01 4.072689e-01 4.213794e-01 3.900902e-01 3.221755e-01 3.133790e-01 2.937564e-01 1.497853e-01
<GCONST> 1.081617e+02
<STATE> 4
<MEAN> 39
 -3.289223e+00 -1.425806e+01 -5.646710e+00 -1.304647e+01 -1.281732e+01 -1.010005e+01 -8.862346e+00 4.289699e+00 -1.326209e+00 -2.046548e+00 -4.609738e+00 -3.622233e+00 6.373457e+01 -2.577339e-01 2.061042e+00 5.752522e-02 1.299486e+00 1.076104e+00 3.446039e-03 -1.846438e-01 -1.739927e+00 -8.297842e-01 8.047400e-02 3.279225e-01 1.779492e-01 -2.345678e+00 -5.465006e-01 6.800156e-01 1.082270e-01 4.025978e-01 3.870779e-01 3.254950e-01 3.528403e-01 -4.908980e-01 -2.360335e-01 -1.328948e-02 8.991689e-02 8.287886e-02 -7.585290e-01
<VARIANCE> 39
 1.539881e+01 3.020119e+01 5.670818e+01 5.132576e+01 5.987909e+01 7.415984e+01 9.139494e+01 6.764357e+01 8.433289e+01 6.039112e+01 6.335202e+01 4.486583e+01 2.505415e+01 1.914937e+00 2.789594e+00 3.563973e+00 3.705868e+00 4.080972e+00 4.027811e+00 5.147109e+00 4.833602e+00 4.753545e+00 3.839964e+00 3.739035e+00 3.456293e+00 2.951360e+00 4.332711e-01 3.893822e-01 4.550680e-01 5.290651e-01 6.837745e-01 7.484954e-01 8.043929e-01 8.858804e-01 8.636452e-01 7.129982e-01 6.992027e-01 5.657530e-01 4.582373e-01
<GCONST> 1.330433e+02
<TRANSP> 5
 0.000000e+00 1.000000e+00 0.000000e+00 0.000000e+00 0.000000e+00
 0.000000e+00 5.379722e-01 4.620278e-01 0.000000e+00 0.000000e+00
 0.000000e+00 0.000000e+00 7.789875e-01 2.210125e-01 0.000000e+00
 0.000000e+00 0.000000e+00 0.000000e+00 5.248263e-01 4.751737e-01
 0.000000e+00 0.000000e+00 0.000000e+00 0.000000e+00 0.000000e+00
<ENDHMM>
~h "er"
<BEGINHMM>
<NUMSTATES> 5
<STATE> 2
<MEAN> 39
 9.247935e-01 -1.289571e+01 -1.173725e+01 -7.713445e+00 -8.104765e+00 -1.245256e+01 -1.529345e+01 1.907701e+00 -1.191872e+00 -2.491792e+00 -2.220738e+00 -1.217256e+00 5.937908e+01 2.202936e+00 -1.002941e+00 -1.649351e+00 -1.120783e-01 4.971366e-01 -1.041718e+00 -2.384470e+00 1.303786e+00 7.076674e-01 -2.774946e-01 4.862027e-02 2.683898e-01 5.397336e-01 -8.205692e-01 3.069322e-01 2.000071e-01 5.586388e-02 2.462306e-01 3.744065e-01 5.278426e-01 -1.217286e-01 6.202501e-04 6.472053e-02 3.981227e-04 -1.165600e-02 -2.918790e-01
<VARIANCE> 39
 1.806030e+01 3.076831e+01 7.732544e+01 4.973591e+01 6.991207e+01 7.305596e+01 8.598518e+01 7.261600e+01 7.870152e+01 4.710856e+01 4.781377e+01 3.461612e+01 2.194408e+01 4.376009e+00 2.545928e+00 3.526778e+00 3.406553e+00 4.556262e+00 4.654998e+00 6.845873e+00 5.480026e+00 4.831652e+00 3.789429e+00 3.286471e+00 2.731067e+00 1.473472e+00 6.201504e-01 4.313669e-01 6.380976e-01 5.471264e-01 6.925357e-01 7.003645e-01 9.694898e-01 7.952390e-01 6.732160e-01 5.963883e-01 5.553216e-01 4.760717e-01 2.735308e-01
<GCONST> 1.324198e+02
<STATE> 3
<MEAN> 39
 3.142334e+00 -1.334378e+01 -1.680151e+01 -6.967397e+00 -4.326986e+00 -1.297587e+01 -1.845596e+01 4.128259e+00 2.221697e+00 -2.368153e+00 -2.375058e+00 -7.581766e-01 5.872869e+01 -6.431268e-02 1.353609e-01 -1.115169e-02 1.327183e-01 1.492291e-01 -1.101251e-01 6.105224e-03 1.155171e-01 1.366225e-02 -1.393142e-01 -7.218516e-02 5.978803e-02 -2.330704e-01 -2.682339e-01 1.360028e-01 3.472241e-01 1.981517e-02 -2.028005e-01 1.722550e-01 4.473083e-01 -2.063257e-01 -2.250359e-01 -2.430978e-02 1.853969e-02 -4.235609e-02 -1.270854e-01
<VARIANCE> 39
 1.131665e+01 2.936520e+01 6.492413e+01 4.388745e+01 6.722413e+01 8.448683e+01 1.077186e+02 9.090971e+01 9.301752e+01 5.098894e+01 4.201437e+01 3.401136e+01 2.209251e+01 3.795819e-01 8.584531e-01 1.738370e+00 1.288109e+00 2.160589e+00 1.820863e+00 2.704119e+00 2.325175e+00 2.002357e+00 1.776814e+00 1.529387e+00 1.352035e+00 4.575151e-01 1.688202e-01 1.978000e-01 2.142236e-01 2.244243e-01 3.102592e-01 3.417676e-01 5.151790e-01 4.754455e-01 3.600670e-01 3.271110e-01 2.764385e-01 2.492006e-01 1.096345e-01
<GCONST> 1.090934e+02
<STATE> 4
<MEAN> 39
 -1.700200e+00 -1.122050e+01 -1.180032e+01 -5.216774e+00 -5.832364e+00 -1.185244e+01 -1.233703e+01 3.396842e+00 -8.318684e-01 -3.815339e+00 -2.957712e+00 -5.250044e-01 5.430321e+01 -1.721779e+00 1.000194e+00 1.620336e+00 8.283577e-02 -4.272047e-01 1.270475e+00 2.265047e+00 -1.087407e+00 -1.002512e+00 -5.554512e-02 3.875943e-02 -2.287821e-01 -1.200518e+00 -4.243368e-01 2.696405e-01 1.423704e-01 -2.365330e-01 1.164676e-01 4.179370e-01 2.600831e-01 -2.986682e-01 -7.422916e-02 1.761757e-01 1.971597e-02 -1.404266e-01 -1.205544e-01
<VARIANCE> 39
 4.011553e+01 3.240195e+01 7.788389e+01 5.967203e+01 7.291642e+01 9.329773e+01 1.231642e+02 7.219918e+01 8.542453e+01 5.762677e+01 4.831458e+01 3.750309e+01 6.211060e+01 3.365223e+00 3.704184e+00 3.858157e+00 4.239542e+00 5.157120e+00 5.274935e+00 7.391094e+00 6.068805e+00 5.128656e+00 4.442741e+00 3.791188e+00 3.068624e+00 4.095894e+00 8.013016e-01 5.661094e-01 6.342064e-01 6.664654e-01 7.721582e-01 9.029263e-01 1.219138e+00 8.729701e-01 8.154988e-01 7.375296e-01 6.446677e-01 5.374455e-01 7.155289e-01
<GCONST> 1.409033e+02
<TRANSP> 5
 0.000000e+00 1.000000e+00 0.000000e+00 0.000000e+00 0.000000e+00
 0.000000e+00 5.746303e-01 4.253697e-01 0.000000e+00 0.000000e+00
 0.000000e+00 0.000000e+00 8.129235e-01 1.870765e-01 0.000000e+00
 0.000000e+00 0.000000e+00 0.000000e+00 6.657668e-01 3.342331e-01
 0.000000e+00 0.000000e+00 0.000000e+00 0.000000e+00 0.000000e+00
<ENDHMM>
~h "ey"
<BEGINHMM>
<NUMSTATES> 5
<STATE> 2
<MEAN> 39
 -4.632666e+00 -1.418711e+01 -1.353696e+00 -1.321075e+01 -1.670907e+01 -1.105791e+01 -7.816597e+00 4.556849e+00 -1.671575e+00 -1.875754e+00 -3.134010e+00 -2.614777e+00 6.484736e+01 1.192454e-01 -9.539095e-01 1.367415e+00 -7.933339e-01 -1.828836e+00 -5.185103e-01 5.174643e-01 1.080324e+00 -5.913638e-01 -2.555401e-01 5.173323e-01 3.669699e-01 1.058954e+00 -4.221798e-01 5.366945e-01 9.464130e-03 1.569990e-01 3.525495e-01 3.711455e-01 2.246774e-01 -5.609362e-01 -3.103077e-01 1.656539e-01 2.678103e-01 9.808066e-03 -5.167605e-01
<VARIANCE> 39
 1.428232e+01 2.826519e+01 4.806034e+01 5.462178e+01 4.723528e+01 5.069177e+01 7.930802e+01 6.005093e+01 7.479896e+01 5.104502e+01 5.746332e+01 3.653159e+01 2.219104e+01 2.293308e+00 2.550144e+00 2.418976e+00 3.165967e+00 3.021363e+00 3.643313e+00 4.636550e+00 4.596877e+00 3.804217e+00 3.785444e+00 3.264751e+00 2.563173e+00 1.624238e+00 4.217367e-01 3.285782e-01 3.195225e-01 4.745468e-01 5.202294e-01 5.511553e-01 7.396639e-01 7.222243e-01 7.833980e-01 6.033041e-01 5.943731e-01 4.908628e-01 2.532616e-01
<GCONST> 1.262398e+02
<STATE> 3
<MEAN> 39
 -6.535910e+00 -1.240301e+01 3.812020e+00 -1.504527e+01 -2.077736e+01 -1.038968e+01 -5.122260e+00 2.159021e+00 -6.051305e+00 -7.683126e-01 -6.622216e-01 -2.087852e+00 6.464713e+01 -1.913508e-01 4.984422e-01 7.881081e-01 -2.084203e-02 -3.970881e-01 1.166771e-01 -7.860129e-02 -6.607617e-01 -6.815908e-01 1.804376e-01 3.194568e-01 -6.306554e-03 -3.340232e-01 4.430635e-02 1.147225e-01 -1.431775e-01 1.737455e-01 2.397899e-01 -4.684563e-03 -1.439994e-01 -9.417727e-02 2.567142e-02 -5.845002e-02 -1.223981e-01 -4.091986e-02 -1.886343e-01
<VARIANCE> 39
 1.265421e+01 2.955258e+01 4.428537e+01 7.189001e+01 4.148412e+01 5.630681e+01 6.996777e+01 7.176319e+01 6.095372e+01 5.228016e+01 6.715383e+01 3.013787e+01 2.081479e+01 2.632567e-01 6.410123e-01 1.103378e+00 9.268363e-01 1.074505e+00 1.218315e+00 1.505631e+00 1.624658e+00 1.854372e+00 1.450339e+00 1.364627e+00 1.067526e+00 2.755988e-01 5.219074e-02 1.224471e-01 1.543497e-01 1.754492e-01 2.153904e-01 2.277251e-01 2.752352e-01 2.945034e-01 2.584539e-01 2.472068e-01 2.335308e-01 1.942052e-01 6.683872e-02
<GCONST> 9.740482e+01
<STATE> 4
<MEAN> 39
 -6.809561e+00 -9.346637e+00 6.889767e+00 -1.238352e+01 -2.064453e+01 -1.077794e+01 -7.620785e+00 -9.265130e-01 -9.653155e+00 -1.237587e+00 -1.608041e-02 -2.056978e+00 6.063461e+01 -3.278829e-01 1.403429e+00 -7.202147e-01 1.593192e+00 1.801028e+00 1.662938e-01 5.361183e-02 -7.497675e-01 -7.138947e-02 -5.610984e-01 -5.354427e-01 -1.545496e-01 -2.085294e+00 -3.703339e-01 2.642657e-01 -6.418284e-01 2.716533e-01 8.010851e-01 2.791361e-01 2.728644e-01 9.938646e-03 4.431591e-01 4.850998e-03 -1.664699e-01 -2.591463e-02 -4.429001e-01
<VARIANCE> 39
 1.452448e+01 3.610727e+01 4.485349e+01 7.944641e+01 4.108623e+01 5.747586e+01 6.607787e+01 7.663564e+01 5.804634e+01 6.238604e+01 7.060707e+01 3.368237e+01 3.705809e+01 2.151483e+00 2.734297e+00 3.675493e+00 3.507917e+00 4.637814e+00 3.804219e+00 4.632114e+00 4.143308e+00 4.532470e+00 3.607644e+00 3.408953e+00 2.553795e+00 3.390894e+00 4.590943e-01 4.218164e-01 4.549768e-01 6.502085e-01 6.172816e-01 6.985046e-01 6.847891e-01 7.986850e-01 7.421935e-01 6.654123e-01 6.210923e-01 4.651897e-01 5.216789e-01
<GCONST> 1.314270e+02
<TRANSP> 5
 0.000000e+00 1.000000e+00 0.000000e+00 0.000000e+00 0.000000e+00
 0.000000e+00 6.597040e-01 3.402960e-01 0.000000e+00 0.000000e+00
 0.000000e+00 0.000000e+00 8.406561e-01 1.593439e-01 0.000000e+00
 0.000000e+00 0.000000e+00 0.000000e+00 6.796784e-01 3.203216e-01
 0.000000e+00 0.000000e+00 0.000000e+00 0.000000e+00 0.000000e+00
<ENDHMM>
~h "hh"
<BEGINHMM>
<NUMSTATES> 5
<STATE> 2
<MEAN> 39
 -1.329262e+01 -8.634226e+00 -3.433473e+00 -9.222730e+00 -6.279829e+00 -1.910463e+00 7.236187e-01 -6.431940e-01 -3.302213e+00 -2.390565e+00 -3.686320e+00 -6.815353e-01 5.367059e+01 2.317884e-02 -2.279485e-01 -5.963687e-02 -5.704230e-02 1.517947e-01 3.307124e-01 5.255072e-01 -3.233687e-02 -4.998831e-03 -1.710517e-01 -2.296287e-01 -1.240919e-01 3.005038e-01 3.794217e-01 1.484542e-01 2.382304e-03 -8.979470e-02 -2.931087e-01 -2.432680e-01 -3.972422e-01 -1.422472e-01 -1.550191e-01 -4.895739e-02 1.030377e-02 -1.411556e-01 1.525044e-01
<VARIANCE> 39
 2.882659e+01 4.079846e+01 6.682999e+01 4.734092e+01 6.224210e+01 5.151116e+01 4.998409e+01 5.991665e+01 4.865195e+01 3.980819e+01 3.881991e+01 2.747053e+01 5.577114e+01 2.211743e+00 1.980865e+00 2.425085e+00 2.395417e+00 3.037977e+00 2.989403e+00 3.587936e+00 3.223993e+00 3.066072e+00 2.733348e+00 2.565152e+00 2.003905e+00 1.419476e+00 2.973582e-01 4.115658e-01 3.915008e-01 4.870653e-01 5.548823e-01 5.611714e-01 6.514652e-01 6.095921e-01 5.973002e-01 5.499048e-01 5.340855e-01 4.055947e-01 2.343713e-01
<GCONST> 1.235090e+02
<STATE> 3
<MEAN> 39
 -1.105020e+01 -6.245598e+00 -1.249304e+00 -8.781398e+00 -7.939700e+00 -2.684166e+00 4.290411e-01 -1.928500e+00 -5.169219e+00 -3.047859e+00 -4.698423e+00 -2.031220e+00 5.564917e+01 1.969762e+00 3.066521e-01 -7.718030e-02 -6.550696e-01 -1.323533e+00 -9.003735e-01 -1.028957e+00 -3.607688e-01 -6.451758e-01 -4.845724e-01 -3.307846e-01 -5.748010e-01 1.284445e+00 3.410628e-01 -3.691450e-01 -2.414729e-01 -4.399057e-01 -3.998797e-01 -2.942429e-01 -5.038667e-01 9.138335e-02 1.293318e-03 4.887033e-02 1.867513e-01 -7.457138e-03 4.464706e-01
<VARIANCE> 39
 2.754895e+01 3.831083e+01 6.907265e+01 5.377516e+01 7.099899e+01 5.858390e+01 5.917169e+01 6.995581e+01 5.083923e+01 4.744645e+01 4.627581e+01 2.893180e+01 4.694091e+01 2.845649e+00 2.424691e+00 3.891464e+00 2.766357e+00 3.431144e+00 3.348015e+00 4.330151e+00 3.935421e+00 4.006960e+00 2.815827e+00 3.217397e+00 2.243576e+00 1.649572e+00 2.455201e-01 3.458017e-01 3.665257e-01 4.048417e-01 4.744051e-01 5.250290e-01 6.209542e-01 5.544220e-01 5.411537e-01 5.510073e-01 4.550310e-01 3.985092e-01 2.045153e-01
<GCONST> 1.255071e+02
<STATE> 4
<MEAN> 39
 -6.992636e+00 -6.665898e+00 -2.393264e+00 -1.284899e+01 -1.275309e+01 -6.258699e+00 -1.127917e+00 -3.159032e+00 -6.828715e+00 -3.896456e+00 -5.832298e+00 -2.966310e+00 6.058053e+01 1.542668e+00 -1.242253e+00 -9.089079e-01 -9.386155e-01 -1.082401e+00 -9.164968e-01 -8.520057e-01 4.770128e-01 -3.522563e-02 -9.181646e-02 2.237908e-01 -2.073206e-01 1.592415e+00 -2.358387e-01 -4.215438e-01 -4.607664e-03 -2.045297e-02 1.433209e-01 1.359209e-01 -7.539107e-02 2.221344e-01 2.233731e-01 1.141289e-01 1.863565e-01 8.410054e-02 3.183268e-02
<VARIANCE> 39
 1.758147e+01 3.322476e+01 7.144438e+01 6.458317e+01 6.424955e+01 5.838388e+01 6.133966e+01 7.914349e+01 5.570332e+01 4.791797e+01 5.825898e+01 2.917214e+01 3.747722e+01 2.041715e+00 2.352087e+00 3.386088e+00 2.927830e+00 3.609526e+00 3.353294e+00 4.584934e+00 3.769741e+00 3.517684e+00 3.085183e+00 2.650928e+00 2.298416e+00 1.574557e+00 2.282984e-01 2.817639e-01 3.270454e-01 3.394569e-01 3.922478e-01 3.762130e-01 5.038806e-01 4.839239e-01 4.435557e-01 4.472527e-01 3.899723e-01 3.285502e-01 1.467225e-01
<GCONST> 1.221469e+02
<TRANSP> 5
 0.000000e+00 1.000000e+00 0.000000e+00 0.000000e+00 0.000000e+00
