~o
<STREAMINFO> 1 39
<VECSIZE> 39<NULLD><MFCC_D_A_0><DIAGC>
~s "silst"
<MEAN> 39
 -1.950072e+01 -2.099928e+00 -5.876090e+00 -1.600971e+00 -2.024259e+00 -3.996879e-03 -7.729966e-01 4.166216e-01 -4.602653e-01 6.481855e-01 -2.346650e-01 2.748803e-01 3.207954e+01 -1.337478e-01 6.649807e-02 1.404294e-01 1.066891e-01 8.082467e-02 6.516160e-02 5.179529e-03 -3.637858e-02 -4.712188e-03 8.292224e-02 4.228174e-02 -3.230156e-02 -9.603509e-02 7.624575e-02 -7.182543e-02 -3.213682e-02 -9.134018e-02 -4.864528e-02 -7.211220e-02 -2.740837e-02 -8.971036e-03 -3.381929e-02 -4.459704e-02 -4.019585e-02 -9.958143e-03 1.674616e-01
<VARIANCE> 39
 3.559208e+00 5.311916e+00 6.843424e+00 9.319140e+00 9.995831e+00 1.191256e+01 1.254674e+01 1.387770e+01 1.424637e+01 1.436208e+01 1.304080e+01 1.157394e+01 3.385372e+00 3.316557e-01 4.847872e-01 7.269206e-01 9.239837e-01 1.063484e+00 1.238981e+00 1.358652e+00 1.465194e+00 1.531498e+00 1.570268e+00 1.407570e+00 1.266258e+00 2.507091e-01 7.559768e-02 1.092795e-01 1.453586e-01 1.921074e-01 2.189261e-01 2.542020e-01 2.812169e-01 2.989771e-01 3.128358e-01 3.150226e-01 2.832097e-01 2.570412e-01 8.752793e-02
<GCONST> 7.796736e+01
~h "b"
<BEGINHMM>
<NUMSTATES> 5
<STATE> 2
<MEAN> 39
 -5.665880e+00 3.158431e+00 -2.653322e+00 -1.545695e+00 -2.677276e+00 -2.642598e+00 -7.445640e+00 -8.313330e+00 -8.554661e+00 -4.390995e+00 -3.182225e+00 -4.415980e+00 4.059166e+01 -1.077209e+00 1.476343e+00 8.610225e-01 1.403313e+00 9.952213e-01 5.994100e-01 6.618934e-01 -2.722335e-01 -3.565494e-01 -5.767238e-01 -3.939531e-01 -3.878119e-02 -1.941412e+00 -1.856324e-01 -9.843606e-01 -2.095066e-01 -7.275758e-01 -4.664455e-01 -2.917791e-01 -2.733686e-02 5.802141e-01 5.296245e-01 3.228924e-01 9.961610e-02 1.972749e-01 1.378634e+00
<VARIANCE> 39
 3.121708e+01 2.581913e+01 2.177525e+01 3.235530e+01 2.415508e+01 3.461401e+01 3.712277e+01 3.351358e+01 3.488432e+01 3.224931e+01 3.294436e+01 2.733502e+01 2.905618e+01 2.604663e+00 4.846471e+00 3.175978e+00 4.695259e+00 3.268389e+00 3.595064e+00 3.975671e+00 4.567769e+00 4.321474e+00 3.570248e+00 2.992454e+00 2.528500e+00 6.745833e+00 3.813659e-01 7.323667e-01 6.747864e-01 7.646736e-01 6.590440e-01 6.488519e-01 8.759227e-01 8.407705e-01 7.871769e-01 7.365136e-01 6.318293e-01 5.316876e-01 9.312563e-01
<GCONST> 1.284494e+02
<STATE> 3
<MEAN> 39
 -1.167381e+01 1.731493e+00 -2.032557e+00 -3.133784e-01 -1.008244e+00 -1.154359e+00 -4.310000e+00 -4.964989e+00 -5.620898e+00 -3.422626e+00 -3.047983e+00 -2.875118e+00 3.856597e+01 -2.513869e-01 -2.352307e+00 -8.958450e-01 -1.957589e+00 -1.141308e+00 -8.734841e-01 6.973050e-02 1.123351e+00 1.406791e+00 8.351562e-01 5.643866e-01 6.191624e-01 3.879982e+00 8.626206e-01 -8.256350e-01 -4.060997e-01 -1.172270e+00 -8.592272e-01 -4.314686e-01 -4.668015e-01 5.471095e-02 7.373809e-02 2.720536e-01 2.173891e-01 1.584035e-02 1.745791e+00
<VARIANCE> 39
 4.248022e+01 2.614635e+01 1.839939e+01 2.425196e+01 1.740325e+01 2.327636e+01 2.867188e+01 3.368293e+01 3.427823e+01 2.854299e+01 2.327872e+01 1.997312e+01 4.311993e+01 4.292187e+00 3.116227e+00 3.266473e+00 4.459826e+00 3.241807e+00 3.639744e+00 4.244746e+00 4.280736e+00 4.197525e+00 3.494707e+00 3.082854e+00 2.403870e+00 7.408084e+00 5.613440e-01 7.306594e-01 8.888462e-01 8.125163e-01 6.994880e-01 8.474287e-01 7.916473e-01 9.235712e-01 9.430462e-01 8.041245e-01 7.096028e-01 5.133110e-01 8.462763e-01
<GCONST> 1.282847e+02
<STATE> 4
<MEAN> 39
 -8.169739e+00 -6.673482e+00 -6.438606e+00 -9.703688e+00 -7.255875e+00 -5.959175e+00 -6.107156e+00 -2.878372e+00 -2.041251e+00 -5.287967e-01 -9.778707e-01 -1.442092e+00 5.621231e+01 2.307373e+00 -2.646011e+00 -9.856851e-01 -3.608368e+00 -2.456346e+00 -8.659544e-01 -1.083634e+00 6.471505e-01 4.383622e-01 7.477498e-01 4.464193e-01 1.009401e-01 5.018614e+00 2.856519e-01 4.146377e-01 2.543445e-01 1.878069e-01 8.848464e-02 3.706959e-01 -1.245901e-01 -1.567033e-01 -4.513100e-01 -2.097921e-01 -2.071428e-01 -2.395825e-01 -9.273577e-01
<VARIANCE> 39
 4.483775e+01 2.809039e+01 3.978702e+01 5.799762e+01 3.663113e+01 4.913822e+01 4.186328e+01 3.825599e+01 3.569901e+01 3.179458e+01 3.065121e+01 2.349608e+01 4.449165e+01 5.631420e+00 5.344085e+00 7.835457e+00 7.496811e+00 6.383285e+00 7.547009e+00 7.488740e+00 7.309518e+00 7.162833e+00 5.476531e+00 5.277375e+00 3.952515e+00 6.852884e+00 8.412968e-01 6.436864e-01 5.711320e-01 9.587130e-01 8.117509e-01 8.103111e-01 9.081348e-01 8.837611e-01 8.413193e-01 7.213066e-01 6.854401e-01 5.199685e-01 8.453549e-01
<GCONST> 1.392762e+02
<TRANSP> 5
 0.000000e+00 1.000000e+00 0.000000e+00 0.000000e+00 0.000000e+00
 0.000000e+00 6.502528e-01 3.497472e-01 0.000000e+00 0.000000e+00
 0.000000e+00 0.000000e+00 5.077237e-01 4.922763e-01 0.000000e+00
 0.000000e+00 0.000000e+00 0.000000e+00 4.838572e-01 5.161428e-01
 0.000000e+00 0.000000e+00 0.000000e+00 0.000000e+00 0.000000e+00
<ENDHMM>
~h "d"
<BEGINHMM>
<NUMSTATES> 5
<STATE> 2
<MEAN> 39
 -7.743897e+00 3.160402e-02 1.101550e+00 -1.181192e+00 -8.196836e+00 -7.978880e+00 -7.578951e+00 -5.005318e+00 -5.828357e+00 -4.956666e+00 -6.251243e+00 -3.575289e+00 4.434983e+01 -1.200549e+00 1.669185e+00 1.999980e-01 1.319168e+00 1.838741e+00 1.167590e+00 5.071796e-01 -6.902276e-01 -1.756701e-01 -2.566992e-01 -3.491417e-01 -4.826523e-01 -2.476665e+00 -2.026525e-01 -9.563286e-01 -3.017814e-01 -9.281924e-01 -2.011575e-01 9.234712e-02 -3.650743e-03 4.866285e-01 2.222019e-01 2.796347e-01 4.282065e-01 2.582319e-01 1.319595e+00
<VARIANCE> 39
 3.138938e+01 4.695980e+01 3.848198e+01 6.161126e+01 5.418044e+01 4.465400e+01 4.091791e+01 4.838013e+01 4.734915e+01 3.894807e+01 3.672829e+01 3.095258e+01 6.523820e+01 2.885439e+00 6.731294e+00 3.696675e+00 6.752312e+00 5.433029e+00 5.117073e+00 5.454749e+00 5.629424e+00 4.754228e+00 4.148909e+00 3.966280e+00 3.298293e+00 9.284482e+00 4.114047e-01 1.030360e+00 5.542729e-01 9.844528e-01 9.793744e-01 7.860878e-01 9.861044e-01 9.038131e-01 8.184410e-01 8.077753e-01 7.366670e-01 6.049995e-01 1.449051e+00
<GCONST> 1.388828e+02
<STATE> 3
<MEAN> 39
 -1.265891e+01 -3.946738e-01 -3.257911e-01 -1.072632e+00 -3.534430e+00 -3.305755e+00 -5.325575e+00 -4.423060e+00 -5.143056e+00 -3.626398e+00 -4.600766e+00 -3.248612e+00 4.139501e+01 -1.361103e+00 -2.111583e+00 -6.976381e-01 -2.014582e+00 1.756130e-02 5.180231e-01 4.570928e-01 9.120688e-01 7.513902e-01 6.582316e-01 1.041189e+00 7.637268e-01 2.823336e+00 4.034195e-01 -6.649905e-01 -8.633920e-02 -8.536624e-01 -9.282022e-01 -6.646093e-01 -3.066022e-01 3.280840e-01 1.333501e-01 1.666122e-01 1.762150e-01 2.017159e-01 1.672644e+00
<VARIANCE> 39
 4.266632e+01 4.452890e+01 3.500223e+01 4.451108e+01 4.001719e+01 3.712227e+01 3.688525e+01 3.827219e+01 3.640002e+01 2.949643e+01 2.792162e+01 2.277362e+01 7.889376e+01 3.860122e+00 5.208311e+00 3.869688e+00 5.471565e+00 4.736287e+00 5.123974e+00 4.904396e+00 5.046787e+00 4.746460e+00 3.855996e+00 3.431294e+00 2.765179e+00 1.086517e+01 6.208894e-01 9.799297e-01 6.802325e-01 9.208636e-01 9.133765e-01 9.064062e-01 9.404528e-01 9.280251e-01 8.650652e-01 7.156262e-01 7.191938e-01 5.795583e-01 1.341963e+00
<GCONST> 1.365802e+02
<STATE> 4
<MEAN> 39
 -1.422615e+01 -7.609734e+00 -2.411192e+00 -9.701212e+00 -8.033424e+00 -6.129807e+00 -5.156123e+00 -1.335033e+00 -2.613892e+00 -1.756184e+00 -1.942715e+00 -4.020489e-01 5.619055e+01 9.827943e-01 -1.126428e+00 -1.468806e-01 -1.525631e+00 -1.589499e+00 -1.349006e+00 -8.529124e-01 7.799823e-01 3.288544e-01 3.112525e-01 1.663103e-01 1.921709e-01 3.247815e+00 7.176501e-01 3.021895e-01 2.344832e-02 4.574971e-01 -1.192514e-01 -8.848685e-02 -2.498764e-01 -5.332910e-02 -2.059673e-01 -7.299380e-02 -2.489365e-01 -2.948802e-01 -7.611588e-01
<VARIANCE> 39
 5.458472e+01 4.297040e+01 4.569183e+01 4.663235e+01 5.248590e+01 5.330379e+01 5.139814e+01 4.282671e+01 3.990312e+01 2.989104e+01 2.800353e+01 2.341375e+01 6.476725e+01 7.142817e+00 4.717620e+00 4.391867e+00 6.124822e+00 6.250124e+00 6.225052e+00 6.711171e+00 5.598907e+00 5.277487e+00 4.107417e+00 4.494682e+00 3.392529e+00 1.173358e+01 8.791488e-01 9.331859e-01 8.521878e-01 1.001637e+00 1.249364e+00 1.413697e+00 1.116436e+00 9.922308e-01 9.325309e-01 7.859421e-01 8.025894e-01 6.416236e-01 1.379220e+00
<GCONST> 1.424977e+02
<TRANSP> 5
 0.000000e+00 1.000000e+00 0.000000e+00 0.000000e+00 0.000000e+00
 0.000000e+00 5.120164e-01 4.879836e-01 0.000000e+00 0.000000e+00
 0.000000e+00 0.000000e+00 3.838970e-01 6.161030e-01 0.000000e+00
 0.000000e+00 0.000000e+00 0.000000e+00 5.343872e-01 4.656128e-01
 0.000000e+00 0.000000e+00 0.000000e+00 0.000000e+00 0.000000e+00
<ENDHMM>
~h "f"
<BEGINHMM>
<NUMSTATES> 5
<STATE> 2
<MEAN> 39
 -1.627728e+01 -5.190267e+00 -6.660920e+00 -5.675089e+00 -3.521956e+00 -3.304207e+00 -2.362352e+00 -8.596974e-01 -2.115077e+00 -1.444181e+00 -2.839071e+00 -1.340698e+00 5.276002e+01 -4.037057e+00 -2.674396e-01 -2.881262e-01 9.421241e-01 5.802794e-01 4.377478e-01 7.470437e-01 5.807497e-01 7.317174e-01 3.300990e-01 4.101349e-01 6.059955e-01 -9.243223e-01 3.266208e-01 -4.779986e-01 -1.921418e-01 -4.953197e-01 -4.451976e-01 -2.215284e-01 -3.575667e-01 -3.348767e-02 -7.287239e-02 8.405241e-02 4.452989e-02 -4.302995e-02 3.343694e-01
<VARIANCE> 39
 5.359371e+01 1.835493e+01 2.034301e+01 2.362063e+01 1.985992e+01 2.740070e+01 2.365305e+01 2.394182e+01 2.348047e+01 2.263340e+01 1.936963e+01 1.643741e+01 3.812553e+01 5.156743e+00 3.680557e+00 4.479279e+00 5.343007e+00 4.012546e+00 4.690405e+00 4.569034e+00 4.076739e+00 4.074019e+00 3.607944e+00 3.614907e+00 2.720776e+00 3.152097e+00 1.035415e+00 5.720663e-01 5.529609e-01 6.737456e-01 6.026761e-01 5.960729e-01 6.795332e-01 6.603353e-01 6.180862e-01 5.852680e-01 5.119110e-01 4.510034e-01 4.887949e-01
<GCONST> 1.246268e+02
<STATE> 3
<MEAN> 39
 -2.382648e+01 -8.598306e+00 -9.423735e+00 -6.500720e+00 -4.936565e+00 -3.978119e+00 -3.038035e+00 -2.692978e-01 -1.044999e+00 -1.747984e-01 -1.756457e+00 -1.041583e-01 5.286354e+01 8.008756e-02 -1.810424e-01 -1.598902e-01 -1.171583e-01 -6.813793e-02 -5.010192e-02 -7.215293e-02 -5.235576e-02 3.894095e-02 8.001748e-02 3.426088e-02 2.516164e-03 1.085331e-01 8.458301e-01 1.545577e-01 1.436189e-01 -9.979065e-02 -1.731937e-02 -5.736497e-02 -1.151416e-01 -9.516109e-02 -1.003542e-01 -8.039431e-02 -6.596600e-02 -1.110276e-01 1.055355e-01
<VARIANCE> 39
 1.089017e+01 1.300840e+01 1.093913e+01 1.234898e+01 1.275071e+01 1.384799e+01 1.487812e+01 1.423922e+01 1.400320e+01 1.403989e+01 1.327266e+01 1.182966e+01 2.543883e+01 2.322583e+00 1.004760e+00 1.165374e+00 1.246547e+00 1.356612e+00 1.435292e+00 1.540190e+00 1.595664e+00 1.580944e+00 1.529786e+00 1.461363e+00 1.320392e+00 1.553665e+00 5.082446e-01 2.453893e-01 2.930587e-01 3.513649e-01 3.466320e-01 3.867501e-01 4.205484e-01 3.982200e-01 3.876547e-01 3.574306e-01 3.591405e-01 3.119266e-01 3.049075e-01
<GCONST> 9.690282e+01
<STATE> 4
<MEAN> 39
 -1.665681e+01 -7.159266e+00 -7.917123e+00 -7.219067e+00 -4.794267e+00 -4.088404e+00 -3.070753e+00 -1.063094e+00 -1.347480e+00 -5.184210e-01 -2.060367e+00 -9.818366e-01 5.338476e+01 4.845116e+00 1.488046e-01 1.472825e-01 -1.464085e+00 -1.137980e+00 -5.852785e-01 -1.259697e+00 -5.292194e-01 -5.836278e-01 -4.459378e-01 -1.479593e-01 -5.518276e-01 1.065377e+00 5.241987e-01 -2.890161e-01 -1.257592e-01 -4.582859e-01 -4.303373e-01 -9.410627e-02 -4.203434e-01 4.152691e-02 -1.208613e-01 -6.203608e-02 6.474729e-02 -4.874416e-02 3.418926e-01
<VARIANCE> 39
 5.235801e+01 1.979668e+01 2.178590e+01 2.351499e+01 2.153951e+01 2.441959e+01 2.342064e+01 2.166806e+01 2.043759e+01 1.827967e+01 1.718370e+01 1.524507e+01 3.692049e+01 5.930972e+00 3.610613e+00 4.883337e+00 5.382085e+00 4.667173e+00 5.563562e+00 5.593406e+00 4.202732e+00 4.265810e+00 3.315225e+00 3.565126e+00 2.720465e+00 4.785089e+00 1.051612e+00 5.176496e-01 5.432627e-01 6.640831e-01 6.433605e-01 7.236927e-01 7.795180e-01 6.824588e-01 6.684706e-01 5.958344e-01 5.209475e-01 4.374079e-01 6.144782e-01
<GCONST> 1.257786e+02
<TRANSP> 5
 0.000000e+00 1.000000e+00 0.000000e+00 0.000000e+00 0.000000e+00
 0.000000e+00 5.817856e-01 4.182145e-01 0.000000e+00 0.000000e+00
 0.000000e+00 0.000000e+00 8.311931e-01 1.688069e-01 0.000000e+00
 0.000000e+00 0.000000e+00 0.000000e+00 5.794390e-01 4.205611e-01
 0.000000e+00 0.000000e+00 0.000000e+00 0.000000e+00 0.000000e+00
<ENDHMM>
~h "g"
<BEGINHMM>
<NUMSTATES> 5
<STATE> 2
<MEAN> 39
 -7.071038e+00 -7.653761e-01 1.609651e+00 -1.887507e+00 -1.158890e+01 -1.150859e+01 -5.583715e+00 -3.279395e+00 -1.192921e+01 -4.433581e+00 -1.556900e+00 -3.919534e+00 4.615624e+01 -1.072785e+00 1.846463e+00 -4.827817e-01 1.752762e+00 2.279261e+00 8.899199e-01 -1.518214e-01 -9.189891e-01 7.029861e-01 -6.220780e-01 -7.250559e-01 -7.163984e-02 -3.208395e+00 -1.785608e-01 -9.820210e-01 -6.959738e-01 -6.734390e-01 3.385872e-01 3.445250e-01 -5.813739e-02 2.468507e-01 7.373328e-01 4.427595e-01 -9.660958e-02 1.684578e-01 1.076136e+00
<VARIANCE> 39
 2.170698e+01 4.175937e+01 4.345969e+01 4.680592e+01 5.848230e+01 5.431480e+01 5.358550e+01 8.281776e+01 5.406243e+01 5.853433e+01 6.364919e+01 3.774343e+01 5.358524e+01 2.467726e+00 6.977556e+00 4.626320e+00 5.753858e+00 6.307565e+00 5.782100e+00 6.627184e+00 7.934924e+00 6.452234e+00 5.978975e+00 4.913343e+00 3.456845e+00 6.738034e+00 3.307369e-01 1.156678e+00 7.027816e-01 9.280148e-01 9.622087e-01 9.992891e-01 1.091660e+00 1.184115e+00 1.022233e+00 1.126369e+00 8.970833e-01 6.857646e-01 1.384128e+00
<GCONST> 1.432800e+02
<STATE> 3
<MEAN> 39
 -1.251067e+01 -6.660146e-01 -2.489854e+00 6.326373e-01 -2.556278e+00 -6.125960e+00 -5.853301e+00 -3.883832e+00 -6.090513e+00 -3.380333e+00 -3.619936e+00 -2.703769e+00 4.064014e+01 -7.274119e-01 -2.909894e+00 -2.531318e+00 -1.488559e+00 1.535375e+00 8.321750e-01 -1.647431e-01 5.990934e-01 1.657542e+00 1.316993e+00 -3.462604e-02 6.368994e-01 2.358274e+00 6.039591e-01 -7.016723e-01 -8.758117e-02 -1.003291e+00 -8.776311e-01 -4.896789e-01 -1.560451e-01 1.453829e-01 -2.214150e-01 3.731575e-01 2.867362e-01 5.284636e-02 1.709666e+00
<VARIANCE> 39
 3.506880e+01 5.061602e+01 4.381248e+01 3.058381e+01 4.224049e+01 4.955636e+01 4.019568e+01 4.311428e+01 3.986417e+01 3.132795e+01 2.701648e+01 2.055269e+01 5.161192e+01 3.458891e+00 7.536602e+00 6.186405e+00 5.906467e+00 7.307924e+00 7.228926e+00 6.668138e+00 7.915472e+00 5.990683e+00 5.103993e+00 4.175017e+00 3.321011e+00 8.500164e+00 6.254423e-01 1.466127e+00 1.054740e+00 1.048429e+00 9.787641e-01 1.092973e+00 1.053448e+00 1.163226e+00 8.787407e-01 9.232649e-01 8.755648e-01 5.294997e-01 1.208392e+00
<GCONST> 1.413346e+02
<STATE> 4
<MEAN> 39
 -1.095702e+01 -9.941772e+00 -8.883370e+00 -7.433757e+00 -3.259958e+00 -7.694042e+00 -7.156245e+00 -2.596867e+00 -3.697528e+00 1.191124e+00 -2.758969e+00 -1.027459e+00 5.422240e+01 1.521798e+00 -1.502935e-01 1.917098e-01 -1.527474e+00 -1.083453e+00 -8.411555e-01 -1.181018e+00 -1.304645e-01 -4.846269e-02 3.158533e-01 4.371606e-01 8.572517e-02 2.551822e+00 5.713362e-01 7.764867e-01 6.931836e-01 2.367702e-01 -5.845726e-01 -1.840405e-01 -1.801593e-01 -2.998448e-02 -4.349735e-01 -4.939979e-01 1.246079e-01 -1.967789e-01 -5.444984e-01
<VARIANCE> 39
 3.106231e+01 5.552034e+01 8.421146e+01 4.871350e+01 7.155908e+01 6.592684e+01 6.086183e+01 5.628954e+01 4.918349e+01 4.068982e+01 3.493100e+01 2.488832e+01 3.437280e+01 4.546586e+00 7.269969e+00 6.472749e+00 7.304743e+00 6.471575e+00 6.532793e+00 5.988864e+00 5.599637e+00 5.906881e+00 5.628629e+00 4.292890e+00 3.106198e+00 6.249176e+00 6.107228e-01 1.593564e+00 1.448737e+00 1.061525e+00 1.274224e+00 1.230237e+00 1.243435e+00 1.297444e+00 1.236838e+00 1.093564e+00 8.509200e-01 6.817986e-01 8.122235e-01
<GCONST> 1.453725e+02
<TRANSP> 5
 0.000000e+00 1.000000e+00 0.000000e+00 0.000000e+00 0.000000e+00
 0.000000e+00 5.879861e-01 4.120139e-01 0.000000e+00 0.000000e+00
 0.000000e+00 0.000000e+00 5.126900e-01 4.873100e-01 0.000000e+00
 0.000000e+00 0.000000e+00 0.000000e+00 6.383212e-01 3.616788e-01
 0.000000e+00 0.000000e+00 0.000000e+00 0.000000e+00 0.000000e+00
<ENDHMM>
~h "k"
<BEGINHMM>
<NUMSTATES> 5
<STATE> 2
<MEAN> 39
 -1.211156e+01 -4.013634e+00 -2.107095e+00 -2.969828e+00 -6.722875e+00 -9.443075e+00 -4.624074e+00 -3.387408e-01 -7.272381e+00 -1.488316e+00 -1.733618e+00 -1.751612e+00 4.578644e+01 -2.670312e+00 1.211640e+00 -3.982437e-01 1.899904e+00 2.131263e+00 2.341436e+00 1.007722e+00 -6.557731e-01 1.113060e+00 4.251462e-01 1.324352e-01 4.018221e-01 -4.927442e+00 -3.677425e-02 -7.520539e-01 -5.553995e-01 -6.392211e-01 9.301819e-03 3.655065e-01 1.961785e-02 2.458214e-01 5.337914e-01 1.512163e-01 -9.055430e-03 1.352599e-02 8.254707e-01
<VARIANCE> 39
 4.390028e+01 3.681203e+01 5.743658e+01 5.242519e+01 8.644282e+01 7.106967e+01 6.345022e+01 7.828190e+01 6.643515e+01 4.691615e+01 4.839584e+01 3.119455e+01 7.721221e+01 5.457363e+00 5.564221e+00 6.975226e+00 5.668729e+00 8.168814e+00 7.421209e+00 7.168264e+00 7.854681e+00 7.978935e+00 5.466340e+00 5.817781e+00 3.482731e+00 6.652497e+00 8.068643e-01 1.028649e+00 8.244333e-01 1.086043e+00 1.485739e+00 1.373931e+00 1.074289e+00 1.407572e+00 1.345476e+00 9.991857e-01 9.474069e-01 7.034560e-01 2.273082e+00
<GCONST> 1.494663e+02
<STATE> 3
<MEAN> 39
 -1.951437e+01 -4.327323e+00 -5.509546e+00 -8.464675e-01 -9.629953e-01 -9.245681e-01 -1.737293e+00 5.950009e-01 -8.836477e-01 9.784055e-01 -5.061560e-01 -1.987274e-01 3.519703e+01 -7.630445e-02 -1.725749e+00 -1.295765e+00 -1.298725e+00 -6.814343e-02 3.622069e-01 1.945801e-01 1.330257e-01 3.778548e-01 5.664329e-01 -6.117211e-02 2.264931e-01 1.842921e+00 7.105252e-01 -3.813698e-01 2.157791e-02 -8.121653e-01 -6.565920e-01 -9.416618e-01 -3.900512e-01 -1.914696e-02 -5.021513e-01 -9.834935e-02 -1.708880e-01 -1.108804e-01 2.294173e+00
<VARIANCE> 39
 1.278679e+01 2.321383e+01 2.144207e+01 1.968587e+01 2.242594e+01 2.305297e+01 2.482757e+01 2.465445e+01 2.343211e+01 1.992951e+01 1.663663e+01 1.458227e+01 3.376126e+01 4.427821e+00 5.058036e+00 5.167998e+00 5.021668e+00 5.358280e+00 5.906178e+00 4.816295e+00 4.907933e+00 5.652807e+00 3.630335e+00 3.281847e+00 2.605113e+00 1.597173e+01 6.894031e-01 8.915046e-01 8.967719e-01 7.694356e-01 9.289213e-01 8.658023e-01 8.903074e-01 8.641503e-01 7.796190e-01 6.405259e-01 6.465182e-01 4.402529e-01 1.564818e+00
<GCONST> 1.293173e+02
<STATE> 4
<MEAN> 39
 -1.568488e+01 -1.034762e+01 -7.436442e+00 -9.702673e+00 -4.814461e+00 -5.225496e+00 -2.906790e+00 -3.755705e-01 -2.994298e+00 1.685701e+00 -2.428603e+00 -4.204545e-01 5.522888e+01 1.106571e+00 1.568280e-01 3.340400e-01 -8.428088e-01 -9.004889e-01 -7.679410e-01 -2.060858e-01 -8.397369e-02 -3.769617e-01 -4.640152e-01 -1.131544e-01 -2.309975e-01 2.178295e+00 2.182830e-01 4.125652e-01 2.994800e-01 2.852876e-01 -1.092518e-01 7.003585e-03 -9.892034e-02 1.585810e-02 -7.609287e-02 -2.537825e-01 8.901799e-02 -9.327285e-02 -5.799028e-01
<VARIANCE> 39
 3.272600e+01 3.917271e+01 7.362099e+01 4.442173e+01 5.882476e+01 5.010044e+01 5.070043e+01 4.627060e+01 4.106762e+01 3.524170e+01 3.031296e+01 2.302511e+01 4.523418e+01 5.500366e+00 4.754650e+00 4.124676e+00 5.167283e+00 4.476615e+00 4.812112e+00 4.726537e+00 4.542313e+00 4.682743e+00 3.914009e+00 3.406090e+00 2.638497e+00 9.820672e+00 7.769461e-01 1.251457e+00 1.003922e+00 9.569516e-01 9.133587e-01 9.233702e-01 9.546070e-01 8.849033e-01 9.149892e-01 7.706585e-01 6.703864e-01 5.443619e-01 1.616996e+00
<GCONST> 1.388771e+02
<TRANSP> 5
 0.000000e+00 1.000000e+00 0.000000e+00 0.000000e+00 0.000000e+00
 0.000000e+00 5.918516e-01 4.081484e-01 0.000000e+00 0.000000e+00
 0.000000e+00 0.000000e+00 6.185915e-01 3.814085e-01 0.000000e+00
 0.000000e+00 0.000000e+00 0.000000e+00 7.655963e-01 2.344037e-01
 0.000000e+00 0.000000e+00 0.000000e+00 0.000000e+00 0.000000e+00
<ENDHMM>
~h "l"
<BEGINHMM>
<NUMSTATES> 5
<STATE> 2
<MEAN> 39
 -1.518522e+00 -5.175153e+00 -1.086946e+01 -2.247640e+01 -8.092968e+00 6.624861e-01 -8.068598e+00 -7.776620e+00 -3.624970e+00 2.140210e-01 -3.839718e-01 -3.129622e+00 5.966429e+01 9.881692e-01 6.750361e-01 -2.817440e-01 -1.988598e+00 -2.858821e-01 1.085304e+00 -1.144296e-01 -6.348087e-01 -6.564487e-01 -1.842702e-01 5.583154e-01 4.002919e-01 -1.475884e-02 -3.702541e-01 -2.469359e-01 1.140951e-01 5.606315e-01 7.454827e-02 -3.536635e-01 4.000849e-02 4.746505e-01 1.691416e-01 -7.321192e-02 -1.603968e-01 1.630773e-02 -5.981904e-02
<VARIANCE> 39
 1.322695e+01 4.871758e+01 4.684270e+01 6.701974e+01 6.013292e+01 7.082373e+01 7.790809e+01 6.008317e+01 6.275976e+01 5.805428e+01 6.416929e+01 4.098570e+01 3.053663e+01 2.306715e+00 2.790966e+00 2.442965e+00 4.848695e+00 4.115186e+00 4.502073e+00 4.967448e+00 4.717500e+00 4.245948e+00 4.272084e+00 3.806390e+00 3.343862e+00 2.171513e+00 4.002545e-01 4.987342e-01 3.907224e-01 7.295474e-01 7.316460e-01 6.979582e-01 7.867035e-01 8.007311e-01 8.817978e-01 7.939423e-01 6.908416e-01 6.175609e-01 2.830327e-01
<GCONST> 1.326534e+02
<STATE> 3
<MEAN> 39
 -5.643167e-01 -3.245508e+00 -1.094555e+01 -2.650223e+01 -8.602754e+00 2.560549e+00 -7.545675e+00 -6.270908e+00 -4.831176e+00 -1.016182e+00 5.632682e-01 -1.749710e+00 5.855717e+01 -2.361684e-01 -4.079493e-01 3.680608e-02 7.342652e-01 4.084468e-01 -5.517495e-01 -5.064638e-01 2.604099e-01 5.086368e-01 4.442593e-01 -2.949960e-01 -5.480845e-01 1.226211e-01 -3.012893e-01 -2.636822e-01 1.617719e-01 7.160537e-01 6.329733e-02 -3.801302e-01 -8.256409e-03 2.318529e-01 2.664335e-01 1.040389e-02 -2.810362e-01 -1.419209e-01 -1.121139e-02
<VARIANCE> 39
 9.593159e+00 3.948135e+01 4.728356e+01 6.705940e+01 6.392166e+01 6.390516e+01 7.626199e+01 6.389515e+01 5.853808e+01 6.164606e+01 5.384702e+01 4.037349e+01 2.767705e+01 5.995392e-01 3.117388e+00 1.529118e+00 3.426835e+00 2.565228e+00 2.927003e+00 3.519437e+00 3.314870e+00 4.056187e+00 3.480326e+00 2.772818e+00 2.676249e+00 1.784073e+00 2.253500e-01 3.315992e-01 3.182949e-01 5.790167e-01 5.745760e-01 5.962203e-01 5.754625e-01 7.637255e-01 6.556488e-01 6.767331e-01 5.650881e-01 4.903035e-01 2.378552e-01
<GCONST> 1.239526e+02
<STATE> 4
<MEAN> 39
 -3.195424e+00 -7.867311e+00 -9.037186e+00 -1.790098e+01 -6.958868e+00 -4.589029e+00 -1.138790e+01 -3.453710e+00 -2.938309e-01 8.359357e-01 -3.618426e+00 -4.757036e+00 5.999835e+01 -9.659378e-01 -7.514771e-01 1.482479e+00 2.287024e+00 -8.212725e-01 -1.961677e+00 2.310579e-01 1.709749e+00 2.222271e-01 -9.457685e-01 -9.265076e-01 3.507249e-01 -2.784307e-02 -2.002223e-01 2.089584e-01 3.760431e-01 3.243073e-02 -3.289235e-01 1.617841e-01 5.259177e-01 -1.746599e-02 -6.253078e-01 -3.517279e-01 2.905048e-01 3.704093e-01 -2.439347e-01
<VARIANCE> 39
 1.510255e+01 4.270166e+01 5.470571e+01 7.063977e+01 5.317737e+01 8.681043e+01 8.647848e+01 6.873723e+01 6.863831e+01 6.621832e+01 6.426183e+01 4.424277e+01 4.771783e+01 1.456897e+00 3.243130e+00 3.991723e+00 4.955948e+00 5.680772e+00 5.354366e+00 5.164331e+00 5.784029e+00 6.490588e+00 4.835458e+00 4.170184e+00 4.017762e+00 2.785708e+00 3.126414e-01 3.905255e-01 4.070432e-01 8.151842e-01 7.445415e-01 9.064752e-01 8.412126e-01 1.002962e+00 1.057419e+00 9.723964e-01 7.240951e-01 6.729492e-01 2.770078e-01
<GCONST> 1.366682e+02
<TRANSP> 5
 0.000000e+00 1.000000e+00 0.000000e+00 0.000000e+00 0.000000e+00
 0.000000e+00 6.024191e-01 3.975809e-01 0.000000e+00 0.000000e+00
 0.000000e+00 0.000000e+00 6.789756e-01 3.210244e-01 0.000000e+00
 0.000000e+00 0.000000e+00 0.000000e+00 5.148377e-01 4.851623e-01
 0.000000e+00 0.000000e+00 0.000000e+00 0.000000e+00 0.000000e+00
<ENDHMM>
~h "m"
<BEGINHMM>
<NUMSTATES> 5
<STATE> 2
<MEAN> 39
 -4.387713e+00 -3.835244e+00 -5.370829e+00 -5.188245e+00 -6.794914e+00 -6.986606e+00 -6.456090e+00 -7.783123e+00 -1.038743e+01 -2.035170e+00 -2.188353e+00 -5.780459e+00 5.120713e+01 3.460492e-01 1.376774e+00 9.853047e-01 1.681217e+00 9.821177e-02 -1.085258e+00 9.508489e-02 -2.185336e+00 -2.356997e+00 2.985742e-01 1.956476e-01 -7.697455e-01 -8.390856e-01 -2.401793e-01 -4.047939e-01 7.417669e-02 -3.446664e-01 -1.891427e-01 1.253976e-01 -9.364618e-02 4.889617e-01 4.419168e-01 -6.459115e-02 -8.095393e-02 1.770983e-01 4.647065e-01
<VARIANCE> 39
 2.144076e+01 3.197485e+01 3.541812e+01 5.306614e+01 4.622784e+01 5.964404e+01 6.236398e+01 6.259236e+01 6.921043e+01 5.353933e+01 6.751939e+01 4.486007e+01 3.790047e+01 4.607206e+00 2.819514e+00 3.746275e+00 4.111294e+00 4.924650e+00 4.422883e+00 6.006540e+00 5.294811e+00 5.852158e+00 4.877875e+00 5.025626e+00 3.892145e+00 4.824274e+00 3.616724e-01 4.194347e-01 5.948817e-01 6.207444e-01 6.260988e-01 6.506274e-01 7.673334e-01 8.109159e-01 9.683638e-01 6.860262e-01 7.065257e-01 5.504436e-01 3.551401e-01
<GCONST> 1.349010e+02
<STATE> 3
<MEAN> 39
 -4.119607e+00 -3.083799e+00 -3.040659e+00 -3.034490e+00 -7.634240e+00 -8.689199e+00 -7.103280e+00 -1.078528e+01 -1.350748e+01 -1.051717e+00 -2.328173e+00 -7.029338e+00 5.138429e+01 -3.502227e-02 -1.091335e-01 1.138112e-01 -1.277986e-01 -1.191546e-01 8.661330e-02 -9.532972e-02 1.116812e-01 2.352540e-01 -1.713888e-01 -1.221283e-01 1.106294e-01 2.767383e-01 -1.245185e-01 -4.401651e-01 -2.671964e-01 -6.741911e-01 -1.120052e-01 3.708435e-01 -1.544422e-02 7.916285e-01 8.188503e-01 -1.744525e-01 -7.645386e-02 3.108675e-01 3.713608e-01
<VARIANCE> 39
 8.582720e+00 2.320123e+01 3.075050e+01 4.853927e+01 5.105740e+01 6.988622e+01 6.607611e+01 6.596267e+01 6.232853e+01 6.208945e+01 8.471008e+01 5.406048e+01 2.037963e+01 1.192780e+00 1.897011e+00 1.548431e+00 2.203304e+00 2.181118e+00 2.123548e+00 2.545728e+00 2.816177e+00 3.426532e+00 2.484353e+00 2.447179e+00 2.068924e+00 2.302156e+00 3.336698e-01 2.963261e-01 5.030382e-01 5.126588e-01 5.934221e-01 5.694227e-01 6.740512e-01 7.351276e-01 8.676200e-01 6.851228e-01 7.230977e-01 5.958514e-01 2.380597e-01
<GCONST> 1.224343e+02
<STATE> 4
<MEAN> 39
 -4.404271e+00 -5.572223e+00 -4.954188e+00 -6.459268e+00 -8.169251e+00 -6.902910e+00 -7.466185e+00 -6.851589e+00 -8.393697e+00 -3.022909e+00 -2.902515e+00 -5.147099e+00 5.400636e+01 -2.685911e-01 -1.632196e+00 -3.788132e-01 -2.294995e+00 -9.092823e-01 1.025004e+00 -1.026753e-01 2.527009e+00 2.344315e+00 -6.363822e-01 -3.783971e-01 9.348769e-01 1.733167e+00 -2.652339e-01 -1.554354e-01 1.318705e-01 -3.006570e-01 -1.021917e-01 1.774720e-01 1.586715e-01 3.669204e-01 6.129957e-02 1.121912e-01 2.640040e-02 8.969910e-02 9.992832e-02
<VARIANCE> 39
 1.718980e+01 3.512304e+01 3.692411e+01 5.500518e+01 4.807420e+01 6.193631e+01 5.544750e+01 6.236460e+01 7.252839e+01 4.913116e+01 6.306630e+01 4.073939e+01 4.514685e+01 2.666654e+00 3.387828e+00 5.701515e+00 5.190983e+00 5.925657e+00 5.009684e+00 5.612928e+00 5.410775e+00 6.644701e+00 5.185420e+00 5.406995e+00 4.064685e+00 3.983770e+00 3.614003e-01 4.848115e-01 5.837074e-01 7.036992e-01 6.672168e-01 6.836856e-01 7.286954e-01 8.899274e-01 1.154350e+00 6.678241e-01 6.769445e-01 5.323479e-01 4.187106e-01
<GCONST> 1.360875e+02
<TRANSP> 5
 0.000000e+00 1.000000e+00 0.000000e+00 0.000000e+00 0.000000e+00
 0.000000e+00 4.478228e-01 5.521772e-01 0.000000e+00 0.000000e+00
 0.000000e+00 0.000000e+00 6.720567e-01 3.279433e-01 0.000000e+00
 0.000000e+00 0.000000e+00 0.000000e+00 4.229645e-01 5.770355e-01
 0.000000e+00 0.000000e+00 0.000000e+00 0.000000e+00 0.000000e+00
<ENDHMM>
~h "n"
<BEGINHMM>
<NUMSTATES> 5
<STATE> 2
<MEAN> 39
 -4.439917e+00 -7.168239e+00 -3.250239e+00 -8.924586e+00 -1.141822e+01 -7.781916e+00 -6.695573e+00 -2.747697e+00 -7.652492e+00 -3.079048e+00 -5.364062e+00 -4.484938e+00 5.573539e+01 1.843993e-01 1.658394e+00 1.201837e-01 1.581207e+00 5.446408e-02 -6.262450e-01 1.106750e+00 -2.669517e+00 -1.310258e+00 1.108433e+00 -7.113439e-01 -2.179530e-01 -1.848789e+00 -1.665845e-01 3.764000e-02 3.371985e-02 -6.802022e-02 -2.931902e-02 1.108107e-01 9.717112e-02 -7.920593e-02 6.942958e-02 4.136982e-02 1.669658e-02 1.087117e-01 3.630172e-02
<VARIANCE> 39
 1.126860e+01 3.549088e+01 4.681893e+01 6.131261e+01 5.554503e+01 5.607994e+01 5.802780e+01 8.182829e+01 8.087570e+01 6.102055e+01 6.083521e+01 4.808351e+01 3.184807e+01 1.344716e+00 2.677688e+00 4.022910e+00 3.685763e+00 4.554409e+00 4.866351e+00 4.911500e+00 6.894085e+00 5.934664e+00 4.523371e+00 4.022010e+00 3.462234e+00 2.265067e+00 2.119573e-01 3.160131e-01 4.018165e-01 4.809165e-01 5.609116e-01 5.427881e-01 6.224249e-01 9.786573e-01 7.327907e-01 6.242258e-01 5.464999e-01 4.609217e-01 2.774597e-01
<GCONST> 1.299511e+02
<STATE> 3
<MEAN> 39
 -4.158999e+00 -2.348953e+00 -2.685096e+00 -5.108986e+00 -1.224554e+01 -8.977971e+00 -2.420263e+00 -1.122011e+01 -1.116484e+01 7.337499e-01 -7.350368e+00 -4.321087e+00 5.118693e+01 -1.802033e-01 8.808520e-01 1.299719e-01 5.572106e-01 1.631379e-01 1.054289e-02 2.720152e-01 -8.978808e-01 -3.435436e-01 1.101274e-01 -2.005501e-01 4.257310e-02 -8.658039e-01 -3.153096e-01 -4.944116e-01 -1.622969e-02 -4.920248e-01 2.302150e-01 2.672548e-01 -4.967501e-01 1.089101e+00 5.733043e-01 -5.027546e-01 3.046929e-01 1.123529e-01 4.596267e-01
<VARIANCE> 39
 8.658823e+00 2.859194e+01 2.980784e+01 5.200582e+01 4.666785e+01 5.081308e+01 5.574602e+01 7.306126e+01 6.578841e+01 6.133470e+01 6.739521e+01 5.578157e+01 2.247977e+01 8.973758e-01 2.349574e+00 1.969433e+00 2.393004e+00 2.583791e+00 2.672211e+00 3.342553e+00 5.393718e+00 3.788466e+00 3.211620e+00 2.581383e+00 2.217084e+00 1.991196e+00 2.958205e-01 4.643889e-01 5.414478e-01 6.113597e-01 7.317836e-01 7.334843e-01 7.803038e-01 1.041856e+00 1.019603e+00 7.670614e-01 7.164549e-01 6.241557e-01 3.619339e-01
<GCONST> 1.263314e+02
<STATE> 4
<MEAN> 39
 -6.603975e+00 -3.434644e+00 -3.300297e+00 -6.071141e+00 -9.958627e+00 -7.339307e+00 -4.796319e+00 -6.771007e+00 -8.136561e+00 -1.980672e+00 -6.351400e+00 -3.801278e+00 5.033612e+01 -1.020801e+00 -6.342612e-01 -2.827441e-01 -8.181235e-01 8.337225e-01 7.327660e-01 -6.622427e-01 1.672573e+00 1.091652e+00 -6.573551e-01 5.922326e-01 2.282832e-01 4.437730e-01 -2.544029e-01 -4.114785e-01 -1.807955e-01 -4.157867e-01 4.653339e-02 2.196188e-01 -1.060800e-02 5.550632e-01 3.189786e-01 -1.086985e-02 2.227686e-01 1.205396e-01 4.671955e-01
<VARIANCE> 39
 2.502307e+01 5.049947e+01 3.872397e+01 5.671109e+01 5.188243e+01 4.950949e+01 5.600467e+01 7.835336e+01 6.880996e+01 5.625874e+01 5.407813e+01 4.537143e+01 5.473690e+01 3.762038e+00 4.366467e+00 3.976738e+00 4.987034e+00 5.194829e+00 4.670291e+00 5.542905e+00 7.417550e+00 6.214057e+00 5.019679e+00 4.490634e+00 3.746010e+00 5.363724e+00 6.131783e-01 8.196895e-01 6.018597e-01 7.811500e-01 8.479565e-01 7.976180e-01 9.267718e-01 1.396627e+00 1.176628e+00 8.839011e-01 7.638896e-01 6.299780e-01 7.594097e-01
<GCONST> 1.409113e+02
<TRANSP> 5
 0.000000e+00 1.000000e+00 0.000000e+00 0.000000e+00 0.000000e+00
 0.000000e+00 4.342557e-01 5.657442e-01 0.000000e+00 0.000000e+00
 0.000000e+00 0.000000e+00 5.807076e-01 4.192923e-01 0.000000e+00
 0.000000e+00 0.000000e+00 0.000000e+00 4.738441e-01 5.261559e-01
 0.000000e+00 0.000000e+00 0.000000e+00 0.000000e+00 0.000000e+00
<ENDHMM>
~h "p"
<BEGINHMM>
<NUMSTATES> 5
<STATE> 2
<MEAN> 39
 -1.051518e+01 3.961275e-01 -4.181456e+00 -3.456923e+00 -3.238034e+00 -2.759683e+00 -5.117912e+00 -5.042430e+00 -5.779259e+00 -2.583007e+00 -2.735143e+00 -3.020699e+00 4.047242e+01 -3.289803e+00 1.085536e+00 4.094068e-01 2.251368e+00 1.518787e+00 1.354917e+00 1.543687e+00 6.443050e-01 8.089551e-01 2.185629e-01 7.451519e-02 5.272286e-01 -4.691536e+00 -2.280792e-01 -9.762267e-01 -2.411082e-01 -5.965462e-01 -3.578071e-01 -1.397524e-01 1.292114e-02 5.262172e-01 4.734127e-01 3.712726e-01 2.208997e-01 1.660611e-01 1.171060e+00
<VARIANCE> 39
 4.717427e+01 2.717227e+01 2.964048e+01 4.647388e+01 2.826072e+01 3.020580e+01 3.304425e+01 3.358747e+01 3.751509e+01 3.163437e+01 3.144651e+01 2.390952e+01 5.540342e+01 5.262875e+00 6.386707e+00 5.590522e+00 7.083493e+00 4.726814e+00 5.566713e+00 5.080077e+00 5.465708e+00 5.867834e+00 4.905414e+00 4.557039e+00 3.350524e+00 9.063543e+00 1.010078e+00 7.884305e-01 7.693138e-01 1.131181e+00 8.709741e-01 7.838618e-01 8.202663e-01 8.585216e-01 8.642713e-01 7.719427e-01 7.184297e-01 5.669439e-01 1.643829e+00
<GCONST> 1.377116e+02
<STATE> 3
<MEAN> 39
 -1.944524e+01 -2.244554e+00 -5.155372e+00 -1.265573e+00 -1.455764e+00 1.464341e-01 -1.074692e+00 2.334106e-02 -3.430228e-01 9.906611e-01 1.900285e-02 -1.386727e-02 3.306199e+01 -2.690350e-01 -1.131749e+00 -4.951031e-01 -5.335556e-01 -1.723841e-01 -1.922769e-01 2.508970e-01 5.642718e-01 7.301550e-01 4.414237e-01 3.337948e-01 3.226060e-01 1.842038e+00 8.597935e-01 -3.272592e-01 -6.377320e-02 -6.001448e-01 -3.015396e-01 -4.758805e-01 -3.822978e-01 -2.266367e-01 -2.438999e-01 -1.969351e-01 -1.713296e-01 -1.834616e-01 1.975225e+00
<VARIANCE> 39
 4.869048e+00 6.574604e+00 6.762032e+00 9.412674e+00 9.797395e+00 1.166736e+01 1.201181e+01 1.447024e+01 1.405911e+01 1.403811e+01 1.212547e+01 1.175944e+01 1.758370e+01 2.991597e+00 2.106174e+00 1.690179e+00 2.566133e+00 1.875092e+00 2.577660e+00 2.484596e+00 2.934054e+00 3.006621e+00 2.478917e+00 2.162882e+00 1.910221e+00 1.416545e+01 6.003577e-01 3.785026e-01 4.279566e-01 5.385898e-01 4.599561e-01 5.467560e-01 5.312598e-01 5.097584e-01 5.286701e-01 4.792980e-01 4.437076e-01 3.680353e-01 1.061591e+00
<GCONST> 1.064924e+02
<STATE> 4
<MEAN> 39
 -1.451014e+01 -8.931850e+00 -7.819607e+00 -7.397444e+00 -3.200243e+00 -3.242485e+00 -1.920968e+00 -2.928552e-01 -2.627570e-01 2.244103e-01 -1.275573e+00 -7.912769e-01 5.363530e+01 2.020288e+00 -7.921014e-01 -5.906531e-01 -1.365853e+00 -6.670339e-01 -6.054275e-01 -7.327340e-01 -2.819604e-01 -4.841682e-01 -4.591433e-01 -4.895098e-01 -3.606720e-01 2.778344e+00 4.173461e-01 3.257701e-01 2.139121e-02 -3.052211e-02 -2.063059e-01 7.370707e-03 -3.279573e-01 -1.311311e-01 -2.988086e-01 -1.560722e-01 -7.001731e-02 -9.735727e-02 -6.902088e-01
<VARIANCE> 39
 2.337433e+01 2.526904e+01 2.888787e+01 3.463269e+01 2.949973e+01 3.289729e+01 3.399653e+01 3.103452e+01 2.953750e+01 2.531423e+01 2.374615e+01 1.872797e+01 4.404784e+01 4.722051e+00 3.775345e+00 3.443682e+00 4.267719e+00 4.043669e+00 4.563214e+00 4.820727e+00 4.133186e+00 4.214475e+00 3.208812e+00 3.103202e+00 2.341712e+00 1.035654e+01 5.974889e-01 5.995514e-01 5.169443e-01 6.593782e-01 6.867849e-01 7.251128e-01 7.747065e-01 8.017943e-01 8.080364e-01 6.607438e-01 6.142457e-01 4.729399e-01 1.445068e+00
<GCONST> 1.289347e+02
<TRANSP> 5
 0.000000e+00 1.000000e+00 0.000000e+00 0.000000e+00 0.000000e+00
 0.000000e+00 5.521530e-01 4.478470e-01 0.000000e+00 0.000000e+00
 0.000000e+00 0.000000e+00 7.112820e-01 2.887180e-01 0.000000e+00
 0.000000e+00 0.000000e+00 0.000000e+00 7.515474e-01 2.484526e-01
 0.000000e+00 0.000000e+00 0.000000e+00 0.000000e+00 0.000000e+00
<ENDHMM>
~h "r"
<BEGINHMM>
<NUMSTATES> 5
<STATE> 2
<MEAN> 39
 2.233311e+00 -9.857264e+00 -1.447398e+01 -6.826009e+00 -4.251420e+00 -1.068844e+01 -1.624420e+01 -2.167842e-01 -1.918868e+00 -3.228045e+00 -1.033100e+00 3.462006e-01 5.661956e+01 1.128755e+00 -2.021111e-01 -9.443466e-01 1.243308e-01 3.369870e-01 -3.980004e-01 -1.272859e+00 2.181362e-01 5.588000e-01 -9.516325e-02 -1.721750e-01 9.818000e-02 2.402688e-01 -4.859366e-01 -2.121431e-01 5.027162e-01 5.675049e-02 -3.799585e-01 4.552869e-03 4.395337e-01 2.617411e-01 -4.762237e-02 -9.411387e-05 -4.296425e-03 -8.303940e-02 5.307753e-02
<VARIANCE> 39
 1.815933e+01 3.479900e+01 6.799725e+01 4.406166e+01 5.688608e+01 7.233105e+01 8.632909e+01 9.281091e+01 7.830281e+01 4.477956e+01 4.010272e+01 3.535468e+01 2.881114e+01 3.705942e+00 2.598748e+00 3.652205e+00 2.772172e+00 4.007936e+00 4.982756e+00 6.247686e+00 5.043019e+00 4.331916e+00 3.656503e+00 2.839945e+00 2.396672e+00 2.112069e+00 4.293724e-01 4.243635e-01 4.408375e-01 4.165260e-01 4.976145e-01 6.594793e-01 8.961556e-01 8.218566e-01 6.312637e-01 5.513677e-01 4.692243e-01 4.193226e-01 2.874446e-01
<GCONST> 1.299291e+02
<STATE> 3
<MEAN> 39
 2.601577e+00 -1.435093e+01 -1.388393e+01 -5.364050e+00 -5.857807e+00 -1.414352e+01 -1.913652e+01 5.761773e+00 9.599463e-01 -4.149463e+00 -2.066171e+00 -7.359494e-02 5.981691e+01 -4.669653e-01 -5.222799e-01 1.482178e+00 5.428951e-01 -1.292564e+00 -7.099850e-01 8.594645e-01 9.655305e-01 -3.976668e-01 -6.076385e-01 -1.141830e-01 -4.273434e-02 1.477509e-01 -6.171792e-01 2.875416e-01 6.639106e-01 -1.665186e-01 -2.798573e-01 4.663233e-01 9.641512e-01 -3.668251e-01 -5.508857e-01 6.123652e-02 1.512788e-01 -1.143179e-01 -2.689905e-01
<VARIANCE> 39
 1.182024e+01 2.566738e+01 7.118456e+01 4.772220e+01 6.800231e+01 7.949722e+01 1.158588e+02 8.552275e+01 9.116592e+01 5.317136e+01 4.402228e+01 3.527390e+01 2.146288e+01 1.420905e+00 3.160614e+00 3.079265e+00 2.827831e+00 4.039753e+00 4.274437e+00 5.213242e+00 6.084904e+00 4.142629e+00 3.455397e+00 3.325888e+00 2.437315e+00 3.033438e+00 3.953719e-01 2.815013e-01 3.789212e-01 4.364546e-01 5.669223e-01 6.475906e-01 8.972836e-01 6.956797e-01 6.466903e-01 5.721162e-01 4.524995e-01 4.068156e-01 2.475936e-01
<GCONST> 1.285045e+02
<STATE> 4
<MEAN> 39
 -6.360878e-01 -1.409254e+01 -8.858962e+00 -4.614634e+00 -9.311069e+00 -1.458805e+01 -1.159574e+01 6.199224e+00 -3.044648e+00 -5.216492e+00 -2.226272e+00 -4.818996e-01 5.826640e+01 -1.476423e+00 5.986060e-01 2.232466e+00 -1.515158e-01 -1.086156e+00 9.108564e-01 2.112182e+00 -8.905851e-01 -1.281900e+00 1.307787e-01 1.118344e-01 -4.559914e-01 -7.898958e-01 -3.687979e-01 3.993609e-01 5.582720e-02 -3.285626e-01 2.652372e-01 5.765900e-01 1.025764e-01 -5.607309e-01 6.114690e-03 3.030401e-01 -2.330170e-02 -1.535019e-01 -2.646781e-01
<VARIANCE> 39
 1.788402e+01 3.601481e+01 7.104603e+01 5.975314e+01 8.218741e+01 9.640215e+01 1.069117e+02 8.108981e+01 1.005153e+02 6.022065e+01 5.288263e+01 3.842281e+01 4.759268e+01 1.924669e+00 4.033128e+00 3.589167e+00 4.549860e+00 5.255107e+00 4.195041e+00 5.741480e+00 5.621500e+00 4.700962e+00 3.814187e+00 3.690926e+00 2.932348e+00 5.023371e+00 4.120679e-01 4.111681e-01 4.086241e-01 5.436410e-01 6.926473e-01 9.422209e-01 9.696946e-01 8.699529e-01 7.274509e-01 6.463901e-01 5.935579e-01 4.957626e-01 3.298195e-01
<GCONST> 1.360598e+02
<TRANSP> 5
 0.000000e+00 1.000000e+00 0.000000e+00 0.000000e+00 0.000000e+00
 0.000000e+00 5.957371e-01 4.042628e-01 0.000000e+00 0.000000e+00
 0.000000e+00 0.000000e+00 4.788856e-01 5.211143e-01 0.000000e+00
 0.000000e+00 0.000000e+00 0.000000e+00 3.891786e-01 6.108214e-01
 0.000000e+00 0.000000e+00 0.000000e+00 0.000000e+00 0.000000e+00
<ENDHMM>
~h "s"
<BEGINHMM>
<NUMSTATES> 5
<STATE> 2
<MEAN> 39
 -2.195927e+01 -4.282050e-03 -5.302664e+00 -8.134581e+00 -2.410127e+00 -7.359046e+00 -2.074905e+00 1.862059e-02 -2.326715e+00 -1.787368e+00 -2.897363e+00 -5.399198e-01 5.804735e+01 -4.614101e+00 1.440131e+00 -9.392642e-01 2.919206e-01 1.869372e+00 9.946764e-01 1.460629e+00 8.702346e-01 4.917429e-01 2.909006e-01 8.286640e-01 6.987335e-01 5.972113e-02 5.192031e-01 -5.126389e-01 -7.733916e-02 -1.582378e-01 -3.747527e-01 6.305337e-02 -3.512636e-01 1.631002e-02 -7.997667e-02 8.826199e-02 5.548843e-03 -8.624230e-02 -7.295182e-03
<VARIANCE> 39
 6.996217e+01 2.870612e+01 4.492223e+01 3.374934e+01 4.399759e+01 4.136208e+01 4.101759e+01 3.923126e+01 3.228860e+01 2.999759e+01 2.561819e+01 2.044102e+01 2.319766e+01 4.326671e+00 4.067031e+00 4.556809e+00 5.025695e+00 4.371408e+00 4.899392e+00 4.841407e+00 4.284682e+00 4.211816e+00 3.973948e+00 3.845226e+00 2.836024e+00 2.044330e+00 1.222957e+00 5.898945e-01 6.356643e-01 6.746417e-01 7.282599e-01 7.904328e-01 7.902662e-01 7.571420e-01 6.230096e-01 6.550696e-01 5.934504e-01 4.841713e-01 4.056620e-01
<GCONST> 1.305096e+02
<STATE> 3
<MEAN> 39
 -3.018531e+01 1.467917e+00 -9.327259e+00 -7.834289e+00 -3.232812e-02 -5.157007e+00 -1.859773e-01 1.583845e+00 -1.565182e+00 -2.916187e-01 -1.169377e+00 7.646068e-01 5.820782e+01 -8.627261e-02 -9.700210e-02 -8.282090e-03 -1.173472e-01 2.166743e-02 1.036160e-02 -7.141976e-02 4.866803e-02 5.543767e-02 5.867126e-02 -1.766665e-03 -8.966540e-03 -3.247255e-02 6.777888e-01 -2.326764e-01 2.728166e-01 -2.551380e-02 -2.143256e-01 -1.506096e-01 -2.172263e-01 -1.345035e-01 -3.862059e-02 -6.703354e-02 -1.137826e-01 -1.112721e-01 -1.660493e-01
<VARIANCE> 39
 8.473250e+00 2.083343e+01 3.046549e+01 3.807402e+01 3.469108e+01 3.165142e+01 2.857476e+01 2.522346e+01 1.957950e+01 1.707728e+01 1.616636e+01 1.333011e+01 1.660223e+01 1.295424e+00 1.351282e+00 1.332210e+00 1.368924e+00 1.540175e+00 1.738544e+00 1.621345e+00 1.639385e+00 1.559985e+00 1.514039e+00 1.358203e+00 1.240428e+00 7.690055e-01 4.110808e-01 2.471590e-01 2.856464e-01 3.306611e-01 3.568881e-01 4.042304e-01 3.978474e-01 3.758142e-01 3.621882e-01 3.436520e-01 3.200993e-01 2.780513e-01 2.085737e-01
<GCONST> 1.011718e+02
<STATE> 4
<MEAN> 39
 -2.499190e+01 -2.053397e+00 -5.805358e+00 -9.030735e+00 -1.117336e+00 -5.884230e+00 -2.624769e+00 1.313328e+00 -1.037747e+00 -6.240475e-01 -1.948591e+00 -2.682126e-01 5.552510e+01 3.407439e+00 -1.199491e+00 9.911029e-01 1.716036e-01 -1.202456e+00 -1.919663e-01 -1.284257e+00 -7.757005e-01 -1.848001e-01 -8.263718e-02 -3.320584e-01 -5.661752e-01 -1.391149e+00 6.181201e-01 -1.700243e-01 -4.916346e-02 6.797019e-02 -3.412847e-01 6.155114e-02 -1.923205e-01 -1.593565e-01 -1.554868e-01 2.726087e-02 1.184172e-02 -8.176573e-02 -1.552412e-01
<VARIANCE> 39
 4.338707e+01 2.997854e+01 3.847848e+01 3.286471e+01 4.098653e+01 4.185812e+01 4.054706e+01 3.377776e+01 2.873699e+01 2.437908e+01 2.223781e+01 1.914846e+01 4.420668e+01 5.637733e+00 2.909010e+00 3.858283e+00 4.783085e+00 4.754560e+00 5.613934e+00 5.123271e+00 3.964137e+00 3.804243e+00 3.003507e+00 3.212712e+00 2.460079e+00 6.659351e+00 7.781524e-01 5.671857e-01 6.012482e-01 6.953543e-01 7.183247e-01 8.181130e-01 9.446613e-01 7.061942e-01 6.513034e-01 5.810847e-01 5.783602e-01 4.492039e-01 1.054371e+00
<GCONST> 1.305693e+02
<TRANSP> 5
 0.000000e+00 1.000000e+00 0.000000e+00 0.000000e+00 0.000000e+00
 0.000000e+00 6.355485e-01 3.644516e-01 0.000000e+00 0.000000e+00
 0.000000e+00 0.000000e+00 8.327913e-01 1.672087e-01 0.000000e+00
 0.000000e+00 0.000000e+00 0.000000e+00 6.487702e-01 3.512298e-01
 0.000000e+00 0.000000e+00 0.000000e+00 0.000000e+00 0.000000e+00
<ENDHMM>
~h "t"
<BEGINHMM>
<NUMSTATES> 5
<STATE> 2
<MEAN> 39
 -1.136638e+01 -3.607597e+00 -2.784043e+00 -5.318089e+00 -8.441201e+00 -7.173373e+00 -6.626679e+00 -3.412159e+00 -3.576326e+00 -1.849786e+00 -3.840667e+00 -2.711160e+00 4.669393e+01 -1.734059e+00 8.308328e-01 -6.368458e-02 1.442346e+00 1.483665e+00 1.018278e+00 8.462737e-01 6.751657e-03 3.545353e-01 6.898368e-02 3.348883e-01 3.203761e-01 -2.977401e+00 -4.502561e-02 -5.663210e-01 -2.115079e-01 -5.526457e-01 -7.087433e-02 1.788965e-01 1.301294e-01 3.634619e-01 4.065287e-02 1.200081e-01 2.060070e-01 1.133946e-01 8.548599e-01
<VARIANCE> 39
 6.252854e+01 5.395416e+01 5.927000e+01 6.256479e+01 6.717252e+01 5.304969e+01 5.329433e+01 5.711497e+01 6.492078e+01 4.880710e+01 4.413156e+01 3.726191e+01 9.503205e+01 5.663120e+00 6.103763e+00 5.504572e+00 7.158340e+00 7.037067e+00 6.967379e+00 6.244885e+00 7.049799e+00 6.426497e+00 5.069376e+00 5.164992e+00 3.859620e+00 1.078909e+01 6.047856e-01 9.140834e-01 7.254170e-01 1.186418e+00 1.209295e+00 1.004157e+00 9.831873e-01 1.090993e+00 1.054059e+00 9.569201e-01 8.687447e-01 6.682761e-01 1.885734e+00
<GCONST> 1.476084e+02
<STATE> 3
<MEAN> 39
 -1.772447e+01 -4.838273e+00 -4.291927e+00 -4.106382e+00 -3.701435e+00 -2.058419e+00 -2.803826e+00 -7.562335e-01 -1.417522e+00 -7.511897e-02 -1.030800e+00 -7.177246e-01 4.128098e+01 -5.451392e-01 -1.101831e+00 -3.753344e-01 -1.092203e+00 -1.453100e-01 2.820509e-02 3.857695e-01 5.602873e-01 2.639729e-01 2.244468e-01 4.736786e-01 5.078893e-01 1.956323e+00 4.279066e-01 -8.025317e-02 7.923240e-02 -5.884776e-01 -5.602406e-01 -5.800700e-01 -2.588966e-01 -2.907631e-02 -2.460516e-01 -1.377395e-01 -1.746103e-01 -7.222566e-02 1.511393e+00
<VARIANCE> 39
 4.884917e+01 4.004630e+01 3.058871e+01 4.150555e+01 4.105647e+01 3.599013e+01 3.372136e+01 2.975465e+01 3.012888e+01 2.632064e+01 2.338512e+01 1.979643e+01 1.212842e+02 4.067287e+00 4.053093e+00 3.595793e+00 5.852516e+00 4.224291e+00 4.465234e+00 4.018840e+00 4.420457e+00 4.108542e+00 3.474356e+00 3.155488e+00 2.578008e+00 1.517709e+01 7.028690e-01 8.800077e-01 7.518802e-01 1.067380e+00 9.545727e-01 8.788702e-01 7.902206e-01 8.833395e-01 7.794413e-01 6.843091e-01 6.678506e-01 5.036981e-01 2.391459e+00
<GCONST> 1.352797e+02
<STATE> 4
<MEAN> 39
 -1.762241e+01 -7.471533e+00 -4.572383e+00 -9.320737e+00 -6.875738e+00 -6.346746e+00 -2.251807e+00 2.178153e-01 -2.064913e+00 -1.095900e+00 -1.679193e+00 1.078367e-01 5.540615e+01 1.414906e+00 -2.627312e-01 2.612594e-01 -3.006036e-01 -8.746122e-01 -9.294342e-01 -5.370554e-01 9.405728e-02 -3.791277e-01 -3.899660e-01 -4.502135e-01 -2.069204e-01 1.455553e+00 6.042677e-01 3.408219e-02 6.455339e-02 2.138156e-01 -9.711361e-02 5.763160e-02 -3.355026e-01 -9.685391e-02 -1.197678e-01 -2.267512e-02 -7.236893e-02 -1.956832e-01 -5.535676e-01
<VARIANCE> 39
 6.275730e+01 3.781645e+01 4.118161e+01 4.297732e+01 4.434203e+01 3.826305e+01 4.656882e+01 3.864407e+01 3.565818e+01 3.045179e+01 2.858359e+01 2.332302e+01 7.304480e+01 6.605278e+00 3.090182e+00 3.718984e+00 4.839115e+00 4.569125e+00 4.733422e+00 5.101956e+00 4.248535e+00 3.926899e+00 3.386454e+00 3.381660e+00 2.684471e+00 9.847963e+00 7.941800e-01 6.701044e-01 6.880507e-01 9.978841e-01 7.958265e-01 8.040980e-01 8.744001e-01 8.136023e-01 7.175525e-01 6.527329e-01 6.618227e-01 5.276820e-01 1.708852e+00
<GCONST> 1.357120e+02
<TRANSP> 5
 0.000000e+00 1.000000e+00 0.000000e+00 0.000000e+00 0.000000e+00
 0.000000e+00 4.474595e-01 5.525405e-01 0.000000e+00 0.000000e+00
 0.000000e+00 0.000000e+00 5.044346e-01 4.955654e-01 0.000000e+00
 0.000000e+00 0.000000e+00 0.000000e+00 6.100085e-01 3.899916e-01
 0.000000e+00 0.000000e+00 0.000000e+00 0.000000e+00 0.000000e+00
<ENDHMM>
~h "v"
<BEGINHMM>
<NUMSTATES> 5
<STATE> 2
<MEAN> 39
 -3.012255e+00 -6.464304e+00 -7.937042e+00 -8.793699e+00 -7.289989e+00 -7.554554e+00 -1.137901e+01 -5.284274e+00 -3.475019e+00 -4.387264e-01 -1.055146e+00 -3.217452e+00 5.531093e+01 -1.715543e+00 2.348577e+00 -8.828275e-02 1.446010e+00 1.578736e+00 7.676572e-01 8.062373e-01 -1.281296e+00 -7.298622e-01 -5.159035e-01 -9.461630e-02 2.434873e-01 -2.281028e+00 -6.257215e-01 -1.126586e-01 3.501218e-01 -1.562009e-02 -1.322625e-01 1.342004e-01 3.867107e-01 4.218079e-01 4.701507e-02 -1.588903e-01 -2.580712e-01 1.393038e-02 1.571968e-01
<VARIANCE> 39
 2.684956e+01 2.335838e+01 3.734331e+01 3.961180e+01 2.721095e+01 4.656750e+01 4.338672e+01 3.780305e+01 3.639784e+01 3.674109e+01 4.243570e+01 3.043901e+01 2.679833e+01 2.912570e+00 2.708513e+00 3.497650e+00 4.045591e+00 3.542253e+00 4.205489e+00 5.153622e+00 5.280666e+00 4.233641e+00 3.820231e+00 3.550082e+00 2.852368e+00 2.395696e+00 3.984795e-01 3.509106e-01 3.531814e-01 4.240676e-01 4.793512e-01 4.624885e-01 5.518324e-01 5.416887e-01 5.110814e-01 4.981671e-01 4.692895e-01 4.319765e-01 2.806349e-01
<GCONST> 1.234928e+02
<STATE> 3
<MEAN> 39
 -8.285512e+00 -1.614244e+00 -6.245567e+00 -5.842637e+00 -4.855681e+00 -5.599252e+00 -8.653515e+00 -6.974669e+00 -5.941189e+00 -2.585923e+00 -2.732567e+00 -2.944049e+00 5.067827e+01 -2.378331e+00 1.057300e+00 5.988382e-01 1.175065e+00 9.341717e-01 6.840835e-01 1.143556e+00 1.559742e-01 -1.872459e-01 -5.811182e-01 -4.869611e-01 1.148739e-01 -1.207173e+00 2.686826e-01 -8.753458e-01 -2.193644e-02 -5.090305e-01 -4.923450e-01 -2.259733e-01 -1.015932e-01 6.010374e-01 3.677795e-01 2.365358e-01 4.855093e-02 1.158535e-02 8.260964e-01
<VARIANCE> 39
 3.132530e+01 1.908241e+01 2.740073e+01 2.867857e+01 2.067269e+01 3.181549e+01 2.819983e+01 2.614017e+01 2.659385e+01 2.726364e+01 2.918450e+01 2.223059e+01 3.347408e+01 4.013844e+00 2.252407e+00 2.510458e+00 3.205783e+00 2.488131e+00 3.451362e+00 3.482092e+00 3.197678e+00 2.759650e+00 2.815137e+00 2.678106e+00 2.034225e+00 2.339141e+00 4.974152e-01 4.097472e-01 5.427203e-01 5.403656e-01 5.467819e-01 5.815305e-01 7.602559e-01 6.952326e-01 6.211355e-01 5.878958e-01 5.146983e-01 4.331562e-01 4.483381e-01
<GCONST> 1.199324e+02
<STATE> 4
<MEAN> 39
 -1.351967e+01 -3.622986e+00 -6.360271e+00 -5.464962e+00 -4.516418e+00 -4.831518e+00 -5.477339e+00 -3.433473e+00 -3.708560e+00 -2.308541e+00 -3.043031e+00 -2.075099e+00 5.108070e+01 5.483059e-01 -9.487423e-01 -3.719152e-01 -8.505835e-01 -6.002914e-01 -4.586528e-01 -7.099497e-02 6.384630e-01 4.655075e-01 3.173175e-01 2.000779e-01 1.137039e-01 1.104799e+00 9.353117e-01 -4.182720e-01 -1.089988e-01 -5.181729e-01 -4.085640e-01 -2.503701e-01 -3.883986e-01 9.105145e-02 7.779072e-03 1.220392e-01 1.056151e-01 -4.526410e-02 4.760595e-01
<VARIANCE> 39
 5.636978e+01 2.494812e+01 2.877271e+01 3.038936e+01 2.290957e+01 2.993870e+01 3.282003e+01 2.888064e+01 2.666475e+01 2.367917e+01 2.236137e+01 1.879176e+01 4.425201e+01 8.079604e+00 3.005268e+00 2.987247e+00 4.100371e+00 3.410032e+00 3.872384e+00 4.389474e+00 3.455881e+00 3.116011e+00 2.554507e+00 2.474850e+00 2.058435e+00 4.679459e+00 9.258657e-01 6.768985e-01 6.401719e-01 8.041605e-01 6.587768e-01 8.006692e-01 8.459615e-01 7.819219e-01 7.027782e-01 5.977355e-01 5.667220e-01 4.348569e-01 7.299634e-01
<GCONST> 1.268368e+02
<TRANSP> 5
 0.000000e+00 1.000000e+00 0.000000e+00 0.000000e+00 0.000000e+00
 0.000000e+00 3.445977e-01 6.554022e-01 0.000000e+00 0.000000e+00
 0.000000e+00 0.000000e+00 4.167098e-01 5.832902e-01 0.000000e+00
 0.000000e+00 0.000000e+00 0.000000e+00 6.193277e-01 3.806723e-01
 0.000000e+00 0.000000e+00 0.000000e+00 0.000000e+00 0.000000e+00
<ENDHMM>
~h "w"
<BEGINHMM>
<NUMSTATES> 5
<STATE> 2
<MEAN> 39
 -5.130783e+00 -3.762870e+00 -9.602965e+00 -1.117165e+01 -6.584215e+00 -2.261891e+00 -6.808625e+00 -5.096407e+00 -8.193988e+00 -1.644458e+00 -8.352234e-01 -1.802268e+00 4.906994e+01 2.508966e+00 1.864115e+00 -4.180715e-01 -2.134709e+00 -1.532566e+00 8.081300e-01 7.296841e-01 -3.879848e-01 -1.308711e+00 -9.088534e-01 -4.821725e-03 1.938214e-01 -3.369273e-01 -1.182504e-01 -1.834172e-01 3.697473e-01 -2.851089e-01 -6.064510e-01 -2.668131e-01 1.951616e-02 4.457918e-01 2.119265e-01 -4.557733e-02 -1.055931e-01 -4.534154e-02 5.892110e-01
<VARIANCE> 39
 5.378699e+01 4.873465e+01 2.693623e+01 4.970177e+01 4.436591e+01 3.688799e+01 4.892910e+01 3.941999e+01 5.854601e+01 3.826389e+01 3.903092e+01 2.560699e+01 4.073846e+01 5.157351e+00 3.420378e+00 4.189975e+00 5.017606e+00 5.463795e+00 5.061936e+00 6.138313e+00 5.024668e+00 4.950248e+00 4.150390e+00 3.517792e+00 2.857894e+00 5.304459e+00 5.546979e-01 8.962954e-01 6.409857e-01 8.157946e-01 9.880277e-01 7.907530e-01 1.038009e+00 8.339812e-01 8.945249e-01 9.093664e-01 6.268715e-01 5.269257e-01 4.802701e-01
<GCONST> 1.359198e+02
<STATE> 3
<MEAN> 39
 2.516514e+00 9.723743e-01 -8.819121e+00 -2.132673e+01 -1.721019e+01 -1.444690e+00 -4.379519e+00 -2.408340e+00 -8.641586e+00 -4.661438e+00 -1.618055e+00 -2.234960e+00 5.222977e+01 5.248786e-01 -7.016336e-01 -3.136029e-01 -1.489077e+00 -7.200610e-01 7.116188e-01 9.596662e-02 1.878944e-01 2.658899e-01 2.963547e-01 4.199619e-01 1.618636e-01 1.185700e+00 -3.923093e-01 -6.264791e-01 -1.044810e-01 3.990247e-01 6.205553e-01 8.437136e-02 -2.311020e-01 -9.857309e-02 1.703655e-01 3.438792e-01 1.973191e-01 8.829233e-03 2.279534e-01
<VARIANCE> 39
 6.666370e+00 2.397245e+01 2.924257e+01 4.741269e+01 4.805855e+01 4.528150e+01 3.992670e+01 4.424818e+01 5.501394e+01 3.959186e+01 3.890136e+01 2.802299e+01 1.729049e+01 1.263353e+00 2.511098e+00 1.822603e+00 3.112867e+00 4.014754e+00 3.456740e+00 3.640366e+00 3.187195e+00 3.656973e+00 3.425054e+00 3.211821e+00 2.340810e+00 2.133339e+00 3.501694e-01 2.732110e-01 2.962655e-01 5.245664e-01 5.249977e-01 5.928219e-01 6.254282e-01 5.783680e-01 7.435752e-01 5.810652e-01 4.935461e-01 4.563572e-01 1.805843e-01
<GCONST> 1.195189e+02
<STATE> 4
<MEAN> 39
 1.633069e+00 -7.815904e+00 -1.157462e+01 -2.145857e+01 -1.146867e+01 1.865875e+00 -8.576300e+00 -4.584365e+00 -8.104734e+00 1.049283e+00 2.230891e+00 -2.007454e+00 5.915257e+01 -4.725341e-01 -2.124230e+00 -3.221525e-02 1.043261e+00 1.196464e+00 -7.831393e-01 -1.375902e+00 3.607246e-01 1.429416e+00 1.222733e+00 -8.080821e-02 -8.367926e-01 1.589377e+00 -3.365565e-01 1.842556e-01 3.405576e-01 5.833518e-01 -7.057367e-02 -6.335107e-01 1.945461e-01 4.355059e-01 3.514853e-01 -3.771549e-01 -5.510033e-01 -1.658780e-01 -3.091019e-01
<VARIANCE> 39
 8.596581e+00 2.863543e+01 4.306645e+01 7.574660e+01 6.617735e+01 7.792732e+01 8.880740e+01 6.301768e+01 6.981841e+01 8.421110e+01 7.757239e+01 4.384077e+01 1.840652e+01 5.741699e-01 1.519093e+00 2.471226e+00 3.515649e+00 3.543014e+00 5.959451e+00 5.011605e+00 4.818587e+00 4.240613e+00 4.423840e+00 4.700595e+00 3.203194e+00 9.665003e-01 2.562377e-01 2.712744e-01 3.509365e-01 5.502903e-01 7.516081e-01 6.938515e-01 9.680426e-01 7.836469e-01 8.952668e-01 1.028664e+00 7.413305e-01 7.208208e-01 1.558789e-01
<GCONST> 1.282382e+02
<TRANSP> 5
 0.000000e+00 1.000000e+00 0.000000e+00 0.000000e+00 0.000000e+00
 0.000000e+00 6.399872e-01 3.600128e-01 0.000000e+00 0.000000e+00
 0.000000e+00 0.000000e+00 7.448102e-01 2.551898e-01 0.000000e+00
 0.000000e+00 0.000000e+00 0.000000e+00 5.909773e-01 4.090227e-01
 0.000000e+00 0.000000e+00 0.000000e+00 0.000000e+00 0.000000e+00
<ENDHMM>
~h "y"
<BEGINHMM>
<NUMSTATES> 5
<STATE> 2
<MEAN> 39
 -1.109958e+01 -1.910860e+00 1.226140e+01 -1.293450e+01 -1.495849e+01 -6.934928e+00 -1.040476e+01 -5.947927e+00 -1.176968e+01 -3.663408e+00 -3.975565e+00 -2.494756e+00 5.521270e+01 4.197580e-01 -1.813574e-02 1.276125e+00 -1.693866e-01 -1.117736e+00 -1.204029e-01 -2.558022e-01 -2.371655e-01 -8.760764e-01 -2.073372e-01 2.554175e-01 -7.380559e-02 4.001926e-01 1.983114e-01 -3.096487e-01 -6.319668e-01 8.974642e-02 1.813983e-01 -1.524243e-01 1.310147e-02 2.451836e-01 2.765211e-01 1.616521e-01 9.421951e-02 2.018102e-02 6.533940e-02
<VARIANCE> 39
 2.017761e+01 3.896274e+01 3.542579e+01 7.947688e+01 4.383117e+01 4.846034e+01 4.389422e+01 6.043986e+01 4.159523e+01 4.959335e+01 5.277386e+01 3.049550e+01 2.771899e+01 3.939500e+00 2.960349e+00 3.936379e+00 2.887219e+00 4.831717e+00 5.540131e+00 3.724219e+00 3.511997e+00 4.226669e+00 3.633076e+00 2.424623e+00 1.952750e+00 2.484150e+00 3.500859e-01 2.872461e-01 4.696503e-01 5.871049e-01 8.215386e-01 7.572355e-01 6.393858e-01 7.147160e-01 6.320134e-01 5.606157e-01 4.166886e-01 3.701855e-01 2.608381e-01
<GCONST> 1.270172e+02
<STATE> 3
<MEAN> 39
 -7.944097e+00 -7.363865e+00 1.284171e+01 -1.001723e+01 -2.086253e+01 -9.293395e+00 -8.995131e+00 -3.691287e+00 -1.318894e+01 -3.427364e+00 3.724434e-01 -2.499687e+00 5.885390e+01 8.351385e-01 -9.854040e-01 -8.928487e-01 6.902726e-01 -4.152051e-01 -1.411885e+00 1.575593e-01 1.023761e+00 -1.651929e-01 -7.801251e-02 6.922811e-01 2.335398e-01 4.681647e-01 2.321773e-02 -7.064406e-03 -4.061572e-01 6.591374e-02 4.058755e-01 -9.021486e-02 -1.405184e-01 2.453093e-01 2.874372e-01 -1.046311e-01 -6.540766e-02 1.022245e-01 -1.168538e-01
<VARIANCE> 39
 1.102958e+01 2.623301e+01 4.173383e+01 7.086090e+01 3.038010e+01 5.212008e+01 4.906839e+01 5.423108e+01 4.555423e+01 7.139402e+01 4.852659e+01 2.880431e+01 1.677086e+01 1.462594e+00 1.012371e+00 1.495435e+00 1.348380e+00 1.549703e+00 2.670042e+00 2.764379e+00 2.761113e+00 1.872151e+00 1.977605e+00 1.451264e+00 1.292803e+00 5.149537e-01 1.466227e-01 1.321435e-01 2.603446e-01 2.119862e-01 3.802424e-01 3.437768e-01 3.826925e-01 2.964766e-01 3.992600e-01 3.296298e-01 2.607863e-01 2.101352e-01 8.048529e-02
<GCONST> 1.060576e+02
<STATE> 4
<MEAN> 39
 -2.808872e+00 -1.278815e+01 1.563768e+00 -4.699643e+00 -1.621225e+01 -1.823984e+01 -1.108026e+01 6.305517e+00 -8.106130e+00 -6.524526e+00 2.126366e+00 1.123203e+00 5.944170e+01 9.186639e-01 -4.649878e-01 -2.144782e+00 4.618557e-01 1.426069e+00 -7.604679e-01 -1.222466e+00 1.163167e+00 1.524091e+00 -3.822984e-01 -5.211957e-01 3.865092e-01 -9.842457e-02 -1.591682e-01 2.395547e-01 -4.604866e-02 -1.828928e-01 2.727916e-01 4.902343e-01 -6.298280e-02 -3.947619e-01 2.242049e-01 1.954892e-01 -2.602203e-01 -1.709235e-01 -1.716184e-01
<VARIANCE> 39
 1.539268e+01 2.685747e+01 7.441824e+01 4.972367e+01 5.212512e+01 6.299810e+01 8.367235e+01 6.254338e+01 7.853848e+01 5.647138e+01 3.927504e+01 3.320535e+01 1.942043e+01 1.073699e+00 1.210023e+00 1.870479e+00 1.388153e+00 1.872918e+00 2.557179e+00 2.946894e+00 3.032275e+00 2.722975e+00 2.385824e+00 1.801220e+00 1.589680e+00 5.148460e-01 1.588792e-01 1.423817e-01 2.822232e-01 2.460548e-01 3.965330e-01 4.348547e-01 4.214238e-01 3.753842e-01 4.694537e-01 3.894670e-01 3.011867e-01 2.453715e-01 7.745367e-02
<GCONST> 1.114260e+02
<TRANSP> 5
 0.000000e+00 1.000000e+00 0.000000e+00 0.000000e+00 0.000000e+00
 0.000000e+00 7.426000e-01 2.574000e-01 0.000000e+00 0.000000e+00
 0.000000e+00 0.000000e+00 7.555223e-01 2.444777e-01 0.000000e+00
 0.000000e+00 0.000000e+00 0.000000e+00 6.818907e-01 3.181093e-01
 0.000000e+00 0.000000e+00 0.000000e+00 0.000000e+00 0.000000e+00
<ENDHMM>
~h "z"
<BEGINHMM>
<NUMSTATES> 5
<STATE> 2
<MEAN> 39
 -1.647092e+01 3.058995e+00 -2.935934e+00 -8.614983e+00 -4.103696e+00 -1.126130e+01 -7.879160e+00 -4.173440e+00 -3.742397e+00 -2.648771e+00 -4.423041e+00 -1.177634e+00 5.675138e+01 -4.536630e+00 1.907107e+00 -6.928016e-01 4.446453e-01 2.421848e+00 1.167923e+00 1.601649e+00 8.483619e-01 5.175211e-01 4.836576e-02 5.132049e-01 3.180378e-01 -2.723581e-01 3.976637e-02 -7.205524e-01 -1.335635e-01 -9.359596e-02 -2.420844e-01 4.094082e-01 1.970945e-01 4.047237e-01 4.344111e-02 1.894569e-01 1.619934e-01 2.935296e-03 5.636305e-02
<VARIANCE> 39
 5.341303e+01 3.508426e+01 4.476008e+01 4.298583e+01 5.355626e+01 5.211055e+01 4.659397e+01 3.783732e+01 3.437873e+01 3.665008e+01 2.605763e+01 2.423240e+01 2.499797e+01 3.132243e+00 4.753311e+00 3.725492e+00 5.554664e+00 3.838372e+00 5.792098e+00 4.683413e+00 4.810853e+00 3.958838e+00 3.763214e+00 3.486268e+00 3.209750e+00 1.537129e+00 1.058680e+00 7.059570e-01 5.251621e-01 6.552171e-01 7.896700e-01 8.162730e-01 7.477849e-01 7.116938e-01 5.821649e-01 6.413946e-01 5.157892e-01 4.989508e-01 1.926013e-01
<GCONST> 1.300653e+02
<STATE> 3
<MEAN> 39
 -2.881036e+01 2.118998e+00 -7.431841e+00 -8.571276e+00 7.231460e-01 -5.592994e+00 -1.321301e+00 1.126763e+00 -1.564564e+00 -7.399561e-01 -1.777146e+00 1.431857e-01 5.593899e+01 -3.255743e-01 -6.600201e-01 -3.210121e-01 -2.420030e-01 -5.648747e-02 1.711839e-01 2.048105e-01 3.709437e-01 2.599710e-01 2.084014e-01 1.630748e-01 5.087171e-02 1.222516e-01 1.120374e+00 -2.958311e-01 2.547983e-01 -5.925748e-02 -4.675706e-01 -3.503672e-01 -4.790425e-01 -3.229289e-01 -1.139356e-01 -7.037270e-02 -1.577289e-01 -1.223361e-01 -9.966267e-02
<VARIANCE> 39
 1.426187e+01 2.593007e+01 4.405957e+01 4.228979e+01 3.778908e+01 3.505027e+01 3.785060e+01 2.951404e+01 2.119481e+01 1.974222e+01 1.828255e+01 1.471176e+01 1.618903e+01 4.185264e+00 1.611050e+00 1.941833e+00 1.729203e+00 2.181125e+00 3.000273e+00 2.736625e+00 2.326650e+00 2.081314e+00 1.921468e+00 1.703301e+00 1.496122e+00 8.773855e-01 6.906717e-01 4.006393e-01 3.850008e-01 4.855789e-01 5.302905e-01 6.215986e-01 5.791195e-01 5.215533e-01 4.539156e-01 4.208594e-01 3.979868e-01 3.504166e-01 2.500464e-01
<GCONST> 1.125032e+02
<STATE> 4
<MEAN> 39
 -2.043384e+01 -2.933536e+00 -5.902234e+00 -8.963675e+00 -2.372700e+00 -6.349540e+00 -4.655880e+00 -1.329748e-01 -1.006420e+00 -7.417861e-01 -2.437797e+00 -8.519248e-01 5.154848e+01 2.684104e+00 -1.136577e+00 1.181651e-01 2.658352e-01 -9.303228e-01 7.609495e-03 -6.326033e-01 -5.564072e-01 -1.381771e-01 5.613352e-02 -2.038995e-01 -2.904959e-01 -1.280198e+00 2.172673e-01 2.135640e-02 -5.442816e-02 6.608287e-02 -1.002424e-01 9.854181e-02 2.905424e-02 -4.997658e-02 -1.330398e-01 -1.390232e-02 -7.473715e-04 -1.971062e-02 -5.397488e-02
<VARIANCE> 39
 4.969528e+01 3.838101e+01 4.110980e+01 3.674239e+01 4.445902e+01 5.310530e+01 4.928009e+01 3.736769e+01 3.271278e+01 3.167340e+01 2.640598e+01 2.208110e+01 7.674100e+01 5.946281e+00 3.588961e+00 3.427914e+00 4.482205e+00 4.741127e+00 5.379164e+00 5.306646e+00 4.209898e+00 3.637084e+00 3.237220e+00 3.049030e+00 2.507421e+00 6.252925e+00 9.352708e-01 5.905864e-01 5.237749e-01 6.630875e-01 7.142496e-01 8.737634e-01 8.273025e-01 7.527286e-01 6.727096e-01 6.022812e-01 5.344919e-01 4.592065e-01 9.425142e-01
<GCONST> 1.329953e+02
<TRANSP> 5
 0.000000e+00 1.000000e+00 0.000000e+00 0.000000e+00 0.000000e+00
 0.000000e+00 6.705401e-01 3.294599e-01 0.000000e+00 0.000000e+00
 0.000000e+00 0.000000e+00 7.833295e-01 2.166705e-01 0.000000e+00
 0.000000e+00 0.000000e+00 0.000000e+00 6.978850e-01 3.021151e-01
 0.000000e+00 0.000000e+00 0.000000e+00 0.000000e+00 0.000000e+00
<ENDHMM>
~h "aa"
<BEGINHMM>
<NUMSTATES> 5
<STATE> 2
<MEAN> 39
 -1.021046e+00 -1.191290e+01 -1.313219e+01 -1.793079e+01 -9.287539e+00 -7.044451e-01 -6.276765e+00 -6.991472e-01 -2.894132e+00 -7.018403e-01 -1.526902e+00 -4.597974e+00 6.142987e+01 1.293385e+00 -1.152707e+00 -1.257164e+00 -1.387896e+00 2.534804e-01 1.343157e+00 1.732923e-01 -6.536616e-02 -3.710318e-02 -9.459193e-02 2.121323e-01 -4.223471e-01 1.155399e+00 -5.548059e-01 1.976394e-01 1.805876e-01 4.370710e-01 3.380221e-01 -3.894037e-02 1.572571e-01 -8.337919e-02 -1.384721e-02 -8.479683e-02 1.066677e-02 2.263943e-01 -3.687978e-01
<VARIANCE> 39
 2.071358e+01 4.906658e+01 4.365084e+01 7.086270e+01 7.001581e+01 8.760995e+01 8.705817e+01 7.253305e+01 7.185822e+01 6.100764e+01 7.269117e+01 4.395183e+01 4.306073e+01 3.564411e+00 2.750161e+00 3.138417e+00 4.609076e+00 5.082749e+00 4.740907e+00 5.470426e+00 5.079443e+00 4.562483e+00 4.006157e+00 3.962375e+00 3.618501e+00 2.409263e+00 5.537932e-01 4.437063e-01 4.122832e-01 6.554211e-01 7.110601e-01 8.176783e-01 9.747844e-01 8.621438e-01 8.260138e-01 6.985783e-01 7.215394e-01 5.589603e-01 4.463265e-01
<GCONST> 1.365441e+02
<STATE> 3
<MEAN> 39
 3.898241e-01 -1.352707e+01 -1.603290e+01 -2.122704e+01 -6.752717e+00 4.118211e+00 -3.678579e+00 -2.580410e+00 -2.649172e+00 -2.264604e+00 -8.547924e-01 -4.240592e+00 6.324382e+01 1.527214e-02 -2.083610e-01 -2.271201e-01 2.695979e-01 4.198284e-01 -1.534129e-01 -1.897099e-01 2.610219e-02 1.765131e-01 -4.821962e-02 -4.284633e-02 -6.721997e-02 9.777721e-02 -3.976008e-02 1.171658e-01 1.145395e-01 1.927328e-01 -8.688868e-02 -2.964409e-01 -1.592626e-01 9.478769e-02 3.182719e-02 3.704987e-02 -6.228554e-02 1.497527e-03 -1.165120e-01
<VARIANCE> 39
 1.209268e+01 4.649396e+01 3.653040e+01 7.646354e+01 7.800715e+01 8.340093e+01 8.500853e+01 7.362560e+01 6.912960e+01 5.856719e+01 6.498926e+01 4.668854e+01 2.387066e+01 2.689899e-01 8.779612e-01 8.669400e-01 1.637358e+00 1.515072e+00 1.890539e+00 1.921347e+00 1.720575e+00 1.557312e+00 1.550942e+00 1.457684e+00 1.436891e+00 3.072669e-01 5.973008e-02 1.154399e-01 1.340504e-01 1.916005e-01 2.358335e-01 2.461986e-01 2.948625e-01 2.768783e-01 2.685757e-01 2.592784e-01 2.495874e-01 2.350798e-01 5.290068e-02
<GCONST> 1.021290e+02
<STATE> 4
<MEAN> 39
 -1.910482e-01 -1.522098e+01 -1.582268e+01 -1.615229e+01 -5.839475e+00 -1.472941e+00 -6.892634e+00 4.096162e-02 -1.429994e+00 -1.258749e+00 -2.365470e+00 -5.954943e+00 6.350109e+01 -2.285416e-01 7.975092e-01 7.349578e-01 1.521285e+00 -2.509867e-01 -1.810068e+00 -8.062466e-01 6.220137e-01 2.500967e-01 1.736929e-02 -5.380877e-01 3.466522e-01 -1.031063e+00 -3.185807e-01 4.671977e-01 4.367688e-01 3.203050e-01 -2.678391e-02 -9.615478e-02 7.266031e-02 -1.712722e-01 -1.323406e-01 -4.957349e-02 -1.345821e-02 2.545831e-01 -5.153760e-01
<VARIANCE> 39
 1.460590e+01 3.885622e+01 4.088622e+01 6.183057e+01 5.793326e+01 8.888826e+01 9.073354e+01 8.290010e+01 7.641619e+01 6.129813e+01 7.856239e+01 5.136957e+01 2.440983e+01 8.672110e-01 2.524932e+00 2.492154e+00 3.378258e+00 3.748896e+00 3.271090e+00 4.475743e+00 3.936969e+00 3.880889e+00 3.546202e+00 3.235736e+00 3.066674e+00 1.735712e+00 3.489861e-01 3.173650e-01 3.139049e-01 4.898873e-01 5.344693e-01 6.211907e-01 7.391369e-01 6.926320e-01 6.272380e-01 6.133395e-01 6.153759e-01 5.474235e-01 2.952993e-01
<GCONST> 1.279260e+02
<TRANSP> 5
 0.000000e+00 1.000000e+00 0.000000e+00 0.000000e+00 0.000000e+00
 0.000000e+00 6.471661e-01 3.528339e-01 0.000000e+00 0.000000e+00
 0.000000e+00 0.000000e+00 8.500770e-01 1.499230e-01 0.000000e+00
 0.000000e+00 0.000000e+00 0.000000e+00 6.009769e-01 3.990231e-01
 0.000000e+00 0.000000e+00 0.000000e+00 0.000000e+00 0.000000e+00
<ENDHMM>
~h "ae"
<BEGINHMM>
<NUMSTATES> 5
<STATE> 2
<MEAN> 39
 -4.959473e+00 -1.544539e+01 -2.641921e+00 -1.402130e+01 -1.618402e+01 -9.157165e+00 -4.063053e+00 5.356210e+00 -3.897495e+00 -2.317350e+00 -4.110771e+00 -3.751280e+00 6.504712e+01 1.857064e-01 -1.097921e+00 -2.744763e-01 -3.506573e-01 4.776906e-03 2.878327e-01 3.835984e-01 8.475749e-01 1.995623e-01 -4.560496e-01 -2.258925e-01 -1.283077e-01 7.966672e-01 -2.228774e-01 3.861687e-01 -1.389712e-01 3.047404e-01 4.164098e-01 1.253259e-01 -6.466061e-04 -3.029074e-01 8.747298e-03 -1.033833e-02 3.333215e-03 1.094751e-01 -4.355828e-01
<VARIANCE> 39
 1.670933e+01 3.391691e+01 5.231945e+01 5.695411e+01 5.143684e+01 6.355361e+01 8.162049e+01 7.125146e+01 8.245311e+01 4.852959e+01 5.527544e+01 3.652055e+01 2.468894e+01 9.773602e-01 1.565380e+00 1.995243e+00 1.969845e+00 2.255932e+00 2.575467e+00 3.450598e+00 3.067436e+00 2.568491e+00 2.150082e+00 2.090754e+00 1.759228e+00 9.947163e-01 2.801613e-01 2.861386e-01 2.724315e-01 3.253856e-01 4.060576e-01 4.392775e-01 5.659515e-01 4.997955e-01 4.621674e-01 4.224201e-01 4.069686e-01 3.203883e-01 2.191325e-01
<GCONST> 1.176847e+02
<STATE> 3
<MEAN> 39
 -4.340332e+00 -1.715786e+01 -6.927566e+00 -1.247350e+01 -1.278720e+01 -7.750069e+00 -1.892068e+00 5.160651e+00 -1.857244e+00 -5.180826e+00 -5.764104e+00 -3.627968e+00 6.558870e+01 6.073141e-02 8.260004e-02 -2.493968e-01 1.071127e-01 2.726242e-01 -3.767247e-02 -1.301892e-01 -3.948816e-02 5.983259e-02 -6.893164e-02 -1.012814e-01 2.740421e-02 -1.489636e-01 4.709005e-03 2.203441e-01 5.321337e-02 6.407227e-02 -6.488246e-03 -1.016519e-01 -1.423725e-01 -1.229379e-01 -5.472204e-02 1.328763e-01 5.856409e-02 -3.342895e-03 -1.948214e-01
<VARIANCE> 39
 1.496262e+01 3.018892e+01 4.665090e+01 4.463448e+01 5.457569e+01 6.575020e+01 7.821667e+01 6.623392e+01 8.696719e+01 4.388664e+01 4.570092e+01 4.312426e+01 2.501951e+01 2.872850e-01 6.076990e-01 1.115999e+00 8.659507e-01 1.349005e+00 1.291251e+00 1.551902e+00 1.422101e+00 1.386447e+00 1.272510e+00 1.213519e+00 1.012085e+00 2.424273e-01 5.802270e-02 1.369334e-01 1.497119e-01 1.640199e-01 2.081652e-01 2.153678e-01 2.554464e-01 2.766965e-01 2.497544e-01 2.182956e-01 2.113639e-01 1.840827e-01 8.206437e-02
<GCONST> 9.719347e+01
<STATE> 4
<MEAN> 39
 -4.206624e+00 -1.458759e+01 -5.766471e+00 -1.243393e+01 -1.304735e+01 -9.872124e+00 -5.013731e+00 4.577552e+00 -2.367096e+00 -3.307842e+00 -5.266879e+00 -3.690115e+00 6.351739e+01 -3.111046e-01 2.149618e+00 4.763469e-01 1.157163e+00 5.589464e-01 -4.377876e-01 -7.358420e-01 -1.059532e+00 -5.672400e-01 4.355275e-01 3.410146e-01 1.394090e-01 -2.274467e+00 -4.859859e-01 6.551756e-01 1.610235e-01 4.883239e-01 3.754113e-01 2.689174e-01 2.123009e-01 -4.583555e-01 -2.107212e-01 -4.665617e-03 8.412366e-02 4.035919e-02 -7.868180e-01
<VARIANCE> 39
 1.391068e+01 3.116655e+01 6.272231e+01 4.747277e+01 6.065813e+01 6.570192e+01 8.369452e+01 6.846156e+01 7.996494e+01 5.561377e+01 6.173291e+01 4.462170e+01 3.165091e+01 1.775813e+00 3.135833e+00 3.063776e+00 3.061061e+00 3.798638e+00 3.674199e+00 4.281498e+00 4.452914e+00 4.703843e+00 3.731742e+00 3.485257e+00 2.908742e+00 3.266215e+00 4.341346e-01 3.684922e-01 4.386628e-01 4.886833e-01 6.327506e-01 6.937696e-01 7.595340e-01 7.825017e-01 7.724507e-01 7.504767e-01 7.164026e-01 5.299026e-01 4.068708e-01
<GCONST> 1.312428e+02
<TRANSP> 5
 0.000000e+00 1.000000e+00 0.000000e+00 0.000000e+00 0.000000e+00
 0.000000e+00 6.176262e-01 3.823738e-01 0.000000e+00 0.000000e+00
 0.000000e+00 0.000000e+00 8.293377e-01 1.706623e-01 0.000000e+00
 0.000000e+00 0.000000e+00 0.000000e+00 5.892738e-01 4.107262e-01
 0.000000e+00 0.000000e+00 0.000000e+00 0.000000e+00 0.000000e+00
<ENDHMM>
~h "ah"
<BEGINHMM>
<NUMSTATES> 5
<STATE> 2
<MEAN> 39
 -4.925233e+00 -9.603164e+00 -6.188305e+00 -1.267076e+01 -1.019429e+01 -8.149512e+00 -1.004592e+01 -1.116767e+00 -1.398862e+00 -5.009822e-01 -4.096880e+00 -3.579026e+00 5.983048e+01 1.777823e+00 -1.249857e+00 1.116416e-01 -1.243639e+00 -8.184420e-01 -1.269484e-01 -1.163575e+00 2.753919e-01 2.906456e-01 1.926692e-01 -4.327413e-01 -5.467337e-01 1.427176e+00 -6.082023e-01 4.335876e-01 2.137116e-02 4.118758e-01 4.039475e-01 3.321024e-01 4.738594e-01 -1.493651e-01 -2.612531e-01 -5.341467e-02 1.463663e-01 1.025828e-01 -7.381361e-01
<VARIANCE> 39
 2.736632e+01 3.593382e+01 6.068417e+01 5.784389e+01 6.255203e+01 7.769018e+01 7.085072e+01 6.149706e+01 6.167966e+01 5.893410e+01 5.999398e+01 3.956295e+01 4.551413e+01 5.200760e+00 3.687873e+00 4.048433e+00 5.168679e+00 5.180275e+00 5.787443e+00 5.795158e+00 5.832233e+00 5.630676e+00 4.493258e+00 4.893073e+00 3.635741e+00 4.620393e+00 6.963432e-01 5.584953e-01 5.429959e-01 7.699767e-01 7.613917e-01 9.221407e-01 9.504603e-01 8.911568e-01 8.810380e-01 7.705908e-01 7.254153e-01 6.007245e-01 9.353285e-01
<GCONST> 1.403232e+02
<STATE> 3
<MEAN> 39
 -3.190204e+00 -1.320252e+01 -6.868493e+00 -1.526070e+01 -9.791659e+00 -6.107117e+00 -1.113591e+01 6.532401e-01 -4.306178e-01 -2.968069e-01 -4.854345e+00 -4.963050e+00 6.342199e+01 1.452836e-01 3.303635e-01 1.308357e-01 1.118206e-01 1.632881e-01 6.678015e-02 1.804112e-02 -2.696925e-01 -2.680362e-01 -9.482051e-03 5.253925e-02 -2.600669e-02 -4.559581e-01 -5.304343e-01 7.946441e-01 8.864865e-02 6.219844e-01 3.183796e-01 3.869830e-02 4.355260e-01 -3.975139e-01 -3.683646e-01 -1.136878e-01 1.466688e-01 1.632147e-01 -8.695746e-01
<VARIANCE> 39
 1.412808e+01 3.343705e+01 6.008788e+01 5.573870e+01 6.195347e+01 9.092641e+01 7.417938e+01 6.309015e+01 6.944002e+01 6.660865e+01 6.935101e+01 4.956186e+01 2.641696e+01 1.367022e+00 2.157693e+00 2.354474e+00 2.841612e+00 2.908404e+00 3.414226e+00 3.133093e+00 3.629551e+00 3.267228e+00 2.851415e+00 2.831903e+00 2.495819e+00 2.025322e+00 5.566680e-01 4.419679e-01 4.643225e-01 6.482300e-01 7.291633e-01 8.924338e-01 9.708099e-01 8.473832e-01 7.957703e-01 7.088490e-01 6.890914e-01 5.897148e-01 5.343336e-01
<GCONST> 1.301692e+02
<STATE> 4
<MEAN> 39
 -3.692635e+00 -8.371472e+00 -5.551001e+00 -1.233711e+01 -9.737615e+00 -7.671058e+00 -1.023336e+01 -2.717141e+00 -2.765184e+00 -7.096062e-01 -3.384696e+00 -3.503225e+00 5.870665e+01 -1.083027e+00 2.321726e+00 5.421215e-01 1.710823e+00 9.882826e-01 3.161097e-01 1.012763e+00 -1.159547e+00 -1.174914e+00 -4.733693e-01 1.656722e-01 2.571523e-01 -2.579518e+00 -7.205573e-01 3.471200e-01 1.446751e-02 3.993635e-01 3.295031e-01 2.672048e-01 4.428193e-01 -2.179818e-02 -1.032549e-01 -8.242795e-02 -1.365507e-02 4.611643e-02 -5.209768e-01
<VARIANCE> 39
 2.033422e+01 3.210326e+01 7.203513e+01 6.160838e+01 6.555338e+01 8.031842e+01 6.511293e+01 6.425644e+01 6.610321e+01 6.475472e+01 6.549008e+01 4.259199e+01 3.350595e+01 3.260706e+00 3.380579e+00 3.384658e+00 5.349667e+00 4.636422e+00 5.247293e+00 5.370176e+00 5.324829e+00 5.185554e+00 4.481536e+00 4.106614e+00 3.696724e+00 5.240771e+00 6.265251e-01 4.870329e-01 5.804904e-01 6.729500e-01 7.143396e-01 8.986902e-01 8.113416e-01 9.377438e-01 8.259978e-01 8.092530e-01 7.675557e-01 5.885922e-01 5.637187e-01
<GCONST> 1.380209e+02
<TRANSP> 5
 0.000000e+00 1.000000e+00 0.000000e+00 0.000000e+00 0.000000e+00
 0.000000e+00 2.849689e-01 7.150311e-01 0.000000e+00 0.000000e+00
 0.000000e+00 0.000000e+00 5.624192e-01 4.375808e-01 0.000000e+00
 0.000000e+00 0.000000e+00 0.000000e+00 3.237800e-01 6.762200e-01
 0.000000e+00 0.000000e+00 0.000000e+00 0.000000e+00 0.000000e+00
<ENDHMM>
~h "aw"
<BEGINHMM>
<NUMSTATES> 5
<STATE> 2
<MEAN> 39
 -4.169066e+00 -1.686597e+01 -9.176511e+00 -1.335828e+01 -9.656343e+00 -5.229950e+00 -3.669329e+00 2.415819e+00 -2.286403e+00 -3.376183e+00 -6.471695e+00 -4.511690e+00 6.543815e+01 5.906865e-01 -1.519094e+00 -8.989884e-01 -4.772774e-01 5.808802e-01 7.544363e-01 -2.393417e-02 2.782349e-01 4.875390e-01 -5.044187e-01 -5.120744e-01 -3.178795e-01 1.175963e+00 -3.322706e-01 4.125360e-01 2.427717e-02 2.265859e-01 3.426383e-01 1.840628e-01 2.444473e-02 -3.402826e-01 -8.009467e-02 8.184040e-02 1.648041e-01 1.009506e-01 -5.103975e-01
<VARIANCE> 39
 1.647051e+01 3.416228e+01 5.629163e+01 4.865427e+01 6.734769e+01 6.543057e+01 7.831543e+01 7.033186e+01 7.839527e+01 5.254327e+01 5.074340e+01 4.299353e+01 2.487364e+01 1.810010e+00 2.291781e+00 2.219431e+00 2.576537e+00 3.308383e+00 3.126053e+00 4.181418e+00 4.252648e+00 3.178750e+00 2.714630e+00 2.559558e+00 2.518117e+00 1.925556e+00 3.937077e-01 3.773896e-01 3.444821e-01 4.431815e-01 5.386975e-01 5.390359e-01 7.093522e-01 7.288631e-01 6.300157e-01 5.169581e-01 4.645967e-01 4.479948e-01 2.995195e-01
<GCONST> 1.256303e+02
<STATE> 3
<MEAN> 39
 -2.375143e+00 -1.828362e+01 -1.317487e+01 -1.465573e+01 -4.795871e+00 -8.425069e-01 -4.823317e+00 -1.238398e+00 4.279814e-01 -4.107862e+00 -6.186557e+00 -5.378664e+00 6.587816e+01 2.509229e-01 2.781734e-01 -4.570874e-01 -4.195407e-01 4.046992e-01 6.034535e-01 -2.631972e-01 -5.043062e-01 7.294238e-02 2.283831e-01 3.208209e-01 -1.096837e-01 -2.679867e-01 2.234481e-02 1.994207e-01 5.804098e-02 -4.592556e-02 -1.675358e-01 -7.835843e-02 -2.332773e-02 6.633195e-03 -8.019160e-02 8.917587e-02 1.081368e-01 5.544938e-02 -1.356232e-01
<VARIANCE> 39
 1.335096e+01 2.828926e+01 4.116716e+01 5.186597e+01 5.603629e+01 7.740636e+01 8.194539e+01 7.077962e+01 6.880286e+01 5.357766e+01 4.915482e+01 4.615592e+01 2.043211e+01 2.287868e-01 6.696379e-01 7.338199e-01 1.183318e+00 1.400440e+00 1.470354e+00 1.655465e+00 1.663754e+00 1.520111e+00 1.400986e+00 1.448043e+00 1.239989e+00 2.171856e-01 3.790124e-02 9.622861e-02 1.135558e-01 1.556029e-01 1.977022e-01 2.189030e-01 2.625602e-01 2.494811e-01 2.427549e-01 2.057205e-01 2.227824e-01 2.094486e-01 3.809014e-02
<GCONST> 9.596228e+01
<STATE> 4
<MEAN> 39
 -2.226539e-01 -1.246347e+01 -1.515223e+01 -1.949765e+01 -6.504038e+00 2.404831e+00 -5.379586e+00 -3.442747e+00 -1.550901e+00 -5.681019e-01 -2.031705e+00 -4.951130e+00 6.144513e+01 -2.811131e-02 1.212422e+00 4.759206e-01 4.403808e-01 -7.894904e-01 -8.442872e-01 -2.587919e-01 -1.437651e-02 -4.364058e-01 4.186617e-01 2.937408e-01 3.259017e-01 -1.204632e+00 -2.614040e-01 1.403751e-01 3.373416e-01 5.659149e-01 9.856646e-03 -3.972207e-01 -1.839951e-02 -2.354582e-02 -4.792070e-02 -6.471061e-02 -1.799543e-01 4.883458e-02 -2.606831e-01
<VARIANCE> 39
 1.294321e+01 4.082395e+01 3.482777e+01 6.542488e+01 6.420417e+01 7.867739e+01 8.896156e+01 6.165408e+01 6.341648e+01 6.247100e+01 6.820523e+01 4.763687e+01 3.497902e+01 8.164943e-01 1.977111e+00 1.953427e+00 4.170763e+00 3.367483e+00 3.604504e+00 3.660192e+00 3.482490e+00 3.284147e+00 3.002696e+00 3.034741e+00 2.841354e+00 1.318480e+00 1.877682e-01 3.238399e-01 3.087966e-01 4.920354e-01 5.834255e-01 4.828850e-01 6.267866e-01 5.924357e-01 5.889708e-01 5.708408e-01 5.479388e-01 4.849311e-01 2.844416e-01
<GCONST> 1.244641e+02
<TRANSP> 5
 0.000000e+00 1.000000e+00 0.000000e+00 0.000000e+00 0.000000e+00
 0.000000e+00 7.069759e-01 2.930241e-01 0.000000e+00 0.000000e+00
 0.000000e+00 0.000000e+00 8.684343e-01 1.315658e-01 0.000000e+00
 0.000000e+00 0.000000e+00 0.000000e+00 7.710934e-01 2.289066e-01
 0.000000e+00 0.000000e+00 0.000000e+00 0.000000e+00 0.000000e+00
<ENDHMM>
~h "ay"
<BEGINHMM>
<NUMSTATES> 5
<STATE> 2
<MEAN> 39
 -1.884419e+00 -1.493447e+01 -1.378865e+01 -1.717932e+01 -5.814768e+00 -1.990342e-02 -5.366241e+00 -2.255511e+00 -2.798079e-01 -8.683997e-01 -4.283759e+00 -6.521414e+00 6.389721e+01 6.980879e-01 -2.012898e+00 -5.716946e-01 -5.021040e-01 3.606399e-01 6.359807e-01 -2.383126e-02 3.692915e-01 8.257545e-01 -3.626734e-01 -7.475796e-01 -7.441789e-01 1.513784e+00 -5.963030e-01 4.099410e-01 4.447949e-01 5.910688e-01 8.727773e-02 -3.208588e-01 1.163040e-01 2.778447e-02 -1.771529e-01 -1.405197e-01 4.713535e-02 3.374531e-01 -5.142263e-01
<VARIANCE> 39
 1.429238e+01 3.378999e+01 3.796117e+01 5.279323e+01 5.699297e+01 8.230143e+01 6.668147e+01 6.459363e+01 6.119843e+01 6.191672e+01 6.935767e+01 4.248171e+01 2.587938e+01 3.054232e+00 2.274566e+00 3.019794e+00 4.457900e+00 3.859943e+00 4.616055e+00 3.994244e+00 4.412323e+00 3.828019e+00 3.315429e+00 3.455900e+00 3.335666e+00 2.172628e+00 5.044117e-01 3.937441e-01 3.884684e-01 6.231624e-01 6.795778e-01 7.473438e-01 7.179661e-01 7.431083e-01 6.701306e-01 6.556051e-01 7.143266e-01 5.489846e-01 3.449641e-01
<GCONST> 1.306488e+02
<STATE> 3
<MEAN> 39
 -1.937420e+00 -1.808744e+01 -1.407572e+01 -1.505845e+01 -4.164384e+00 -1.901329e-02 -5.005456e+00 -1.677488e+00 1.827225e+00 -3.052749e+00 -5.795472e+00 -7.225921e+00 6.564261e+01 -2.147084e-01 -3.303154e-01 5.582027e-01 6.641935e-01 -3.563551e-01 -8.757046e-01 7.154655e-02 8.088674e-01 1.678616e-01 -5.095045e-01 -4.285498e-01 2.475060e-01 1.167342e-01 -3.277293e-02 2.520704e-01 2.067220e-01 1.465070e-02 -2.972615e-01 -2.482546e-01 4.262894e-02 1.411231e-01 -1.957761e-01 -1.542602e-02 1.691880e-01 1.986670e-01 -1.342439e-01
<VARIANCE> 39
 1.065285e+01 3.007582e+01 3.242476e+01 4.505200e+01 5.129590e+01 7.362820e+01 6.962507e+01 6.503326e+01 6.449341e+01 5.389708e+01 5.281260e+01 4.621341e+01 1.984246e+01 2.395920e-01 6.605769e-01 1.043098e+00 1.283033e+00 1.641203e+00 2.222168e+00 1.643249e+00 2.325664e+00 1.485726e+00 1.415916e+00 1.407311e+00 1.437881e+00 2.037751e-01 4.378292e-02 1.315736e-01 1.360951e-01 1.783192e-01 2.308476e-01 2.417324e-01 2.733438e-01 2.890120e-01 2.963701e-01 2.399523e-01 2.875504e-01 2.735454e-01 5.198631e-02
<GCONST> 9.882760e+01
<STATE> 4
<MEAN> 39
 -4.386582e+00 -1.648481e+01 -6.289504e+00 -1.320081e+01 -1.212481e+01 -8.639143e+00 -2.936762e+00 4.708869e+00 -1.899565e+00 -4.370737e+00 -6.019650e+00 -2.977568e+00 6.489596e+01 -2.849180e-01 1.101496e+00 1.458657e+00 2.358039e-01 -1.450185e+00 -1.151442e+00 1.064650e-01 7.352676e-02 -9.336231e-01 3.282279e-01 8.395670e-01 5.034671e-01 -6.875435e-01 -1.788630e-02 3.763409e-01 -7.305337e-02 8.950458e-02 2.792445e-01 2.449204e-01 -1.752106e-01 -5.453858e-01 -1.166460e-01 2.129406e-01 9.809992e-02 -1.232885e-01 -3.868889e-01
<VARIANCE> 39
 1.199142e+01 3.387231e+01 4.768608e+01 4.441169e+01 6.219782e+01 5.861491e+01 7.229313e+01 6.137590e+01 8.071968e+01 5.100456e+01 4.756092e+01 3.948154e+01 2.490841e+01 4.706645e-01 1.223911e+00 2.077737e+00 2.141711e+00 3.127040e+00 2.674815e+00 3.657775e+00 3.658843e+00 3.068968e+00 2.884806e+00 2.431969e+00 2.715618e+00 6.191570e-01 1.079952e-01 2.430545e-01 2.494071e-01 3.600435e-01 4.794657e-01 3.779240e-01 5.149006e-01 5.317047e-01 5.415931e-01 4.886905e-01 4.702367e-01 3.812717e-01 1.885607e-01
<GCONST> 1.164953e+02
<TRANSP> 5
 0.000000e+00 1.000000e+00 0.000000e+00 0.000000e+00 0.000000e+00
 0.000000e+00 5.882201e-01 4.117799e-01 0.000000e+00 0.000000e+00
 0.000000e+00 0.000000e+00 8.258733e-01 1.741267e-01 0.000000e+00
 0.000000e+00 0.000000e+00 0.000000e+00 7.816197e-01 2.183803e-01
 0.000000e+00 0.000000e+00 0.000000e+00 0.000000e+00 0.000000e+00
<ENDHMM>
~h "ch"
<BEGINHMM>
<NUMSTATES> 5
<STATE> 2
<MEAN> 39
 -1.833680e+01 -3.813234e+00 -3.870866e-01 -4.865232e+00 -4.213237e+00 -2.779539e+00 -5.270408e+00 -1.928624e+00 -3.036346e+00 -2.521803e+00 -2.532873e+00 -1.510829e+00 4.346085e+01 -2.989595e+00 -6.477457e-01 -3.596972e-01 -6.577766e-01 1.134690e+00 2.014101e+00 9.083379e-01 3.538802e-01 8.866287e-01 6.117810e-01 7.110728e-01 4.082471e-01 -2.825646e-01 -2.867291e-02 -4.580634e-01 7.411763e-02 -7.419941e-01 -4.767002e-01 -1.997379e-01 -1.414906e-01 2.102806e-01 9.362258e-02 6.918048e-02 1.353114e-01 4.968448e-02 1.687555e+00
<VARIANCE> 39
 4.586426e+01 5.191391e+01 3.357274e+01 5.214539e+01 3.970557e+01 4.545470e+01 3.253704e+01 3.444611e+01 3.506593e+01 2.948957e+01 2.439008e+01 1.959961e+01 8.239523e+01 5.540538e+00 6.902182e+00 5.502653e+00 8.475805e+00 6.575598e+00 5.149245e+00 4.758883e+00 4.849083e+00 4.564488e+00 3.912582e+00 3.427296e+00 2.732325e+00 2.024693e+01 8.016549e-01 1.511757e+00 9.195818e-01 1.284325e+00 1.023345e+00 1.086140e+00 8.672633e-01 9.267910e-01 7.866298e-01 7.736070e-01 6.889504e-01 4.889835e-01 2.124576e+00
<GCONST> 1.406522e+02
<STATE> 3
<MEAN> 39
 -3.037045e+01 -5.333832e+00 1.711831e+00 -1.202765e+01 -4.135510e+00 1.110166e+00 -3.085709e+00 2.828004e-01 -1.095165e-01 -1.035015e+00 3.251347e-01 1.963400e-01 5.751302e+01 -1.000461e+00 1.369486e-01 5.637607e-01 -2.509728e-01 -7.884170e-01 -1.282984e-01 5.280880e-01 1.971823e-02 1.275396e-01 6.596585e-02 6.987409e-02 9.069832e-02 2.019941e+00 8.115049e-01 6.346430e-02 -8.903389e-02 4.859585e-01 -1.912000e-01 -4.399336e-01 -3.169822e-02 -9.916018e-02 -2.468831e-01 -8.760328e-02 -2.100636e-01 -1.052716e-01 -6.052020e-01
<VARIANCE> 39
 2.092468e+01 3.227926e+01 3.170445e+01 2.301418e+01 3.427852e+01 2.136942e+01 2.196072e+01 2.167282e+01 1.892724e+01 1.588974e+01 1.294303e+01 1.107321e+01 3.122691e+01 4.068477e+00 2.705960e+00 2.687662e+00 2.857704e+00 2.335305e+00 2.208048e+00 1.951751e+00 2.020118e+00 1.765734e+00 1.671108e+00 1.439365e+00 1.280358e+00 5.896534e+00 6.351757e-01 6.421495e-01 5.981256e-01 5.657121e-01 4.810161e-01 4.798520e-01 4.363755e-01 4.167861e-01 3.766439e-01 3.685040e-01 2.986704e-01 2.689497e-01 8.596413e-01
<GCONST> 1.127782e+02
<STATE> 4
<MEAN> 39
 -2.427541e+01 -8.247902e+00 1.281883e+00 -8.081519e+00 -9.957527e+00 -4.200786e+00 -1.135627e+00 -3.759469e-01 -1.355559e+00 -1.486000e+00 -1.268428e+00 -5.367215e-01 5.926404e+01 3.507423e+00 -4.380470e-01 -5.674219e-01 5.894427e-01 -5.629779e-01 -1.677548e+00 -9.645186e-01 6.100843e-02 -6.364486e-01 -4.929132e-01 -5.048503e-01 -3.107303e-01 -6.045988e-01 6.924764e-01 -7.005206e-02 -1.758066e-01 -2.478271e-01 1.445482e-01 3.666084e-02 -5.649094e-01 3.454583e-02 -4.284323e-02 -6.073199e-02 1.557420e-02 -4.228698e-02 -1.945708e-01
<VARIANCE> 39
 4.757199e+01 1.995476e+01 2.750548e+01 3.139573e+01 3.273597e+01 3.224706e+01 3.079807e+01 2.720777e+01 2.467236e+01 2.134883e+01 2.079714e+01 1.638915e+01 2.582828e+01 5.686074e+00 2.028747e+00 3.032068e+00 2.936989e+00 4.176350e+00 3.995987e+00 5.049299e+00 3.487925e+00 3.079005e+00 2.808498e+00 2.716943e+00 1.992319e+00 2.713555e+00 8.602804e-01 3.778559e-01 5.162215e-01 5.151414e-01 6.324472e-01 7.248399e-01 7.324625e-01 6.417906e-01 5.783854e-01 5.579713e-01 4.869865e-01 3.973418e-01 7.124860e-01
<GCONST> 1.224006e+02
<TRANSP> 5
 0.000000e+00 1.000000e+00 0.000000e+00 0.000000e+00 0.000000e+00
 0.000000e+00 7.100244e-01 2.899756e-01 0.000000e+00 0.000000e+00
 0.000000e+00 0.000000e+00 7.949661e-01 2.050339e-01 0.000000e+00
 0.000000e+00 0.000000e+00 0.000000e+00 7.492831e-01 2.507169e-01
 0.000000e+00 0.000000e+00 0.000000e+00 0.000000e+00 0.000000e+00
<ENDHMM>
~h "dh"
<BEGINHMM>
<NUMSTATES> 5
<STATE> 2
<MEAN> 39
 -1.613418e+01 -9.780397e-01 -5.688017e+00 -2.967734e+00 -3.327980e+00 -3.431849e+00 -3.486165e+00 -2.417273e+00 -2.091828e+00 -8.732052e-01 -2.470551e+00 -1.666899e+00 4.223647e+01 -1.447279e-01 -9.218168e-02 -9.336177e-02 -1.665667e-01 -1.809673e-01 -9.175000e-02 9.551882e-02 1.972289e-01 1.811695e-01 -1.729578e-01 1.276825e-02 6.267153e-02 9.931836e-01 5.399899e-01 -4.613099e-01 -9.400924e-02 -4.883340e-01 -5.063945e-01 -4.518397e-01 -2.365008e-01 1.070810e-01 1.163491e-01 1.617455e-02 -2.827597e-02 1.504765e-02 1.117049e+00
<VARIANCE> 39
 4.806527e+01 2.518381e+01 2.327890e+01 2.611505e+01 2.420665e+01 3.169488e+01 3.640318e+01 3.831180e+01 3.056740e+01 2.497025e+01 2.635239e+01 2.578442e+01 7.415027e+01 4.068240e+00 2.787565e+00 3.175082e+00 3.367573e+00 2.856452e+00 3.597949e+00 3.309620e+00 3.320803e+00 2.994221e+00 2.494875e+00 2.439293e+00 2.240368e+00 9.625603e+00 6.720585e-01 5.623403e-01 5.888892e-01 6.904588e-01 6.121733e-01 6.803439e-01 7.062655e-01 6.950937e-01 6.366850e-01 5.697232e-01 5.189288e-01 4.838819e-01 1.208370e+00
<GCONST> 1.263658e+02
<STATE> 3
<MEAN> 39
 -1.519956e+01 -3.339571e+00 -7.770367e+00 -6.088511e+00 -5.774908e+00 -5.683893e+00 -3.247310e+00 -1.872620e+00 -1.070086e+00 -1.396489e+00 -2.319134e+00 -9.648204e-01 5.116773e+01 2.380952e+00 -9.106042e-01 6.410755e-02 -1.454039e+00 -1.939156e+00 -1.966084e+00 -1.309774e+00 1.410298e-01 4.189825e-01 -2.075540e-01 -4.249489e-01 -2.435721e-01 4.287710e+00 6.723569e-01 -3.147732e-01 4.212120e-01 -2.603514e-01 -4.151958e-01 -2.453019e-01 -4.640184e-01 6.033666e-02 -7.231067e-02 1.691356e-01 -1.078072e-01 -1.698378e-01 7.188313e-02
<VARIANCE> 39
 3.544727e+01 2.816285e+01 2.478695e+01 2.679403e+01 2.496803e+01 2.842857e+01 3.744339e+01 3.105492e+01 2.598116e+01 2.327635e+01 2.306837e+01 2.302102e+01 5.540590e+01 4.455361e+00 2.943376e+00 3.893477e+00 3.502775e+00 3.788000e+00 4.167188e+00 4.539297e+00 4.542519e+00 4.534385e+00 3.570666e+00 3.346509e+00 3.304661e+00 6.134608e+00 5.361031e-01 7.015936e-01 6.942438e-01 7.208350e-01 5.876777e-01 7.535525e-01 8.095229e-01 7.122713e-01 7.088845e-01 5.975084e-01 6.672876e-01 5.142366e-01 1.082673e+00
<GCONST> 1.284888e+02
<STATE> 4
<MEAN> 39
 -6.989769e+00 -5.462417e+00 -5.796422e+00 -8.914878e+00 -1.158829e+01 -1.142255e+01 -8.159396e+00 -2.053539e+00 -3.617216e-01 -1.244205e+00 -3.980886e+00 -2.948704e+00 5.907946e+01 2.178574e+00 -1.938277e+00 6.904953e-01 -1.697516e+00 -1.980525e+00 -1.347460e+00 -1.264587e+00 7.631549e-01 2.512792e-01 1.925241e-01 -3.306973e-01 -3.264941e-01 2.943564e+00 -4.911411e-01 -6.222385e-02 1.278619e-01 1.804558e-01 4.173958e-01 6.057259e-01 3.420095e-01 1.044650e-01 -2.387034e-01 2.363078e-02 9.196217e-02 8.911978e-02 -9.001427e-01
<VARIANCE> 39
 2.310764e+01 3.273881e+01 3.689291e+01 3.918152e+01 4.576230e+01 4.234405e+01 5.583622e+01 4.617514e+01 4.938302e+01 4.058144e+01 3.506212e+01 3.495858e+01 3.359517e+01 3.731626e+00 3.094663e+00 4.173399e+00 4.078303e+00 4.248715e+00 5.286438e+00 6.321957e+00 5.028986e+00 5.093595e+00 3.928422e+00 4.304818e+00 3.542315e+00 4.148600e+00 5.635262e-01 4.363221e-01 4.533553e-01 5.472996e-01 6.029377e-01 5.726451e-01 6.561309e-01 6.290427e-01 6.079308e-01 5.612997e-01 5.183402e-01 4.930286e-01 6.438084e-01
<GCONST> 1.306053e+02
<TRANSP> 5
 0.000000e+00 1.000000e+00 0.000000e+00 0.000000e+00 0.000000e+00
 0.000000e+00 5.848472e-01 4.151528e-01 0.000000e+00 0.000000e+00
 0.000000e+00 0.000000e+00 3.983233e-01 6.016766e-01 0.000000e+00
 0.000000e+00 0.000000e+00 0.000000e+00 3.986703e-01 6.013297e-01
 0.000000e+00 0.000000e+00 0.000000e+00 0.000000e+00 0.000000e+00
<ENDHMM>
~h "eh"
<BEGINHMM>
<NUMSTATES> 5
<STATE> 2
<MEAN> 39
 -4.908584e+00 -1.216428e+01 -3.021453e+00 -1.292763e+01 -1.450177e+01 -1.076420e+01 -8.736236e+00 2.546209e+00 -1.816720e+00 -1.381211e+00 -3.993804e+00 -2.822969e+00 6.334942e+01 1.407091e+00 -2.132314e+00 1.070448e-01 -1.230358e+00 -1.405095e+00 -3.893933e-01 -3.897098e-01 1.606013e+00 5.051141e-01 -2.284506e-01 -3.518322e-01 -3.000429e-01 1.948529e+00 -6.758004e-01 3.652476e-01 -2.353034e-01 2.187122e-01 5.785921e-01 5.006449e-01 4.932438e-01 -1.765545e-01 -1.181419e-01 1.413601e-03 1.110779e-01 7.561690e-02 -5.266445e-01
<VARIANCE> 39
 1.846997e+01 3.631839e+01 6.206591e+01 5.221508e+01 5.370439e+01 5.616918e+01 7.866599e+01 6.085569e+01 7.507216e+01 5.273368e+01 5.430175e+01 3.844211e+01 2.964005e+01 4.573841e+00 2.729574e+00 3.349879e+00 3.675877e+00 4.472962e+00 4.807006e+00 6.465026e+00 4.943607e+00 5.074310e+00 4.048982e+00 3.812607e+00 3.156924e+00 2.495136e+00 6.281441e-01 4.866009e-01 4.374889e-01 5.651509e-01 6.794534e-01 6.910459e-01 8.243909e-01 7.936136e-01 8.297824e-01 6.553523e-01 6.254775e-01 5.152613e-01 5.098191e-01
<GCONST> 1.338860e+02
<STATE> 3
<MEAN> 39
 -4.587227e+00 -1.513337e+01 -4.333129e+00 -1.425489e+01 -1.465144e+01 -9.287081e+00 -6.042939e+00 5.439056e+00 -1.441263e+00 -2.829981e+00 -5.030638e+00 -2.972455e+00 6.574696e+01 7.360888e-02 -1.271691e-01 -3.075351e-01 -1.213899e-02 2.780916e-01 1.560097e-01 5.146987e-02 1.528848e-01 4.428475e-02 -1.542291e-01 -1.291625e-01 -1.072185e-01 -7.820491e-03 -3.606581e-02 4.135596e-01 -2.501565e-02 2.194378e-01 2.232059e-01 -2.754349e-02 -1.295009e-01 -4.001329e-01 -1.472170e-01 7.979503e-02 9.313641e-02 2.766472e-02 -4.259634e-01
<VARIANCE> 39
 1.441907e+01 2.921591e+01 5.127559e+01 4.801305e+01 5.776050e+01 6.148220e+01 8.600100e+01 5.938120e+01 8.379781e+01 5.443988e+01 5.606105e+01 4.202703e+01 1.984313e+01 4.367238e-01 9.264740e-01 1.589640e+00 1.261402e+00 1.749713e+00 1.962290e+00 2.245296e+00 2.099060e+00 1.986373e+00 1.757181e+00 1.556456e+00 1.429260e+00 5.259030e-01 1.308709e-01 2.267862e-01 2.170681e-01 2.777208e-01 3.389508e-01 3.436501e-01 4.348988e-01 4.397988e-01 4.043622e-01 3.332953e-01 3.226519e-01 2.992107e-01 1.611861e-01
<GCONST> 1.091052e+02
<STATE> 4
<MEAN> 39
 -3.319303e+00 -1.416282e+01 -5.764382e+00 -1.298891e+01 -1.270533e+01 -1.015134e+01 -8.733529e+00 4.164915e+00 -1.183267e+00 -2.034862e+00 -4.781033e+00 -3.632392e+00 6.370922e+01 -2.830808e-01 2.056472e+00 2.119524e-02 1.267667e+00 1.114080e+00 5.094174e-02 -1.888866e-01 -1.736372e+00 -7.811664e-01 8.544093e-02 3.528765e-01 1.501878e-01 -2.311123e+00 -5.524231e-01 6.679311e-01 1.089670e-01 3.859740e-01 3.877894e-01 3.344769e-01 3.463832e-01 -4.721183e-01 -2.437649e-01 -8.346044e-03 1.132056e-01 8.748092e-02 -7.501696e-01
<VARIANCE> 39
 1.506754e+01 3.055772e+01 5.609917e+01 5.038353e+01 5.985772e+01 7.349354e+01 9.182156e+01 6.680186e+01 8.469609e+01 6.035917e+01 6.279151e+01 4.507976e+01 2.525306e+01 2.015832e+00 2.804285e+00 3.593365e+00 3.784587e+00 4.040624e+00 4.114372e+00 5.142133e+00 4.736373e+00 4.710974e+00 3.804579e+00 3.706328e+00 3.471075e+00 2.947862e+00 4.381225e-01 3.974963e-01 4.545918e-01 5.383960e-01 6.858552e-01 7.440681e-01 8.088988e-01 8.767363e-01 8.727837e-01 7.126108e-01 7.003076e-01 5.676212e-01 4.642304e-01
<GCONST> 1.331145e+02
<TRANSP> 5
 0.000000e+00 1.000000e+00 0.000000e+00 0.000000e+00 0.000000e+00
 0.000000e+00 4.992265e-01 5.007735e-01 0.000000e+00 0.000000e+00
 0.000000e+00 0.000000e+00 7.813355e-01 2.186644e-01 0.000000e+00
 0.000000e+00 0.000000e+00 0.000000e+00 5.216844e-01 4.783156e-01
 0.000000e+00 0.000000e+00 0.000000e+00 0.000000e+00 0.000000e+00
<ENDHMM>
~h "er"
<BEGINHMM>
<NUMSTATES> 5
<STATE> 2
<MEAN> 39
 1.206889e+00 -1.309420e+01 -1.202178e+01 -7.610294e+00 -8.011123e+00 -1.254599e+01 -1.559691e+01 2.253960e+00 -1.005173e+00 -2.573359e+00 -2.080603e+00 -1.148648e+00 5.943933e+01 2.026515e+00 -8.970023e-01 -1.645269e+00 -8.599605e-02 6.132364e-01 -9.805456e-01 -2.319346e+00 1.258998e+00 7.424504e-01 -2.660195e-01 2.386591e-02 2.753009e-01 4.645389e-01 -8.097126e-01 3.205833e-01 2.281575e-01 4.374590e-02 2.190372e-01 3.730037e-01 5.454035e-01 -1.650550e-01 -1.595786e-02 7.499418e-02 -1.452649e-02 -2.522807e-02 -2.839552e-01
<VARIANCE> 39
 1.650857e+01 3.056851e+01 7.620448e+01 4.947076e+01 6.983221e+01 7.454073e+01 8.707748e+01 7.487834e+01 8.010817e+01 4.733099e+01 4.815893e+01 3.480538e+01 2.148033e+01 4.025032e+00 2.416825e+00 3.296108e+00 3.240284e+00 4.345927e+00 4.474043e+00 6.494708e+00 5.248869e+00 4.617432e+00 3.672006e+00 3.183367e+00 2.658229e+00 1.373749e+00 6.000590e-01 4.107615e-01 6.048250e-01 5.299032e-01 6.745425e-01 6.793000e-01 9.449164e-01 7.795711e-01 6.632140e-01 5.781299e-01 5.388035e-01 4.654282e-01 2.518761e-01
<GCONST> 1.312865e+02
<STATE> 3
<MEAN> 39
 3.203959e+00 -1.326127e+01 -1.696984e+01 -6.945198e+00 -4.140590e+00 -1.295152e+01 -1.859228e+01 4.049910e+00 2.355877e+00 -2.338406e+00 -2.425983e+00 -7.303703e-01 5.865185e+01 -9.895197e-02 1.439229e-01 5.933136e-02 1.353150e-01 8.383285e-02 -8.952288e-02 9.351535e-02 9.333510e-02 -3.433411e-02 -1.519716e-01 -6.630856e-02 5.966988e-02 -2.426283e-01 -2.702349e-01 1.304975e-01 3.550139e-01 2.113028e-02 -2.128626e-01 1.753200e-01 4.603463e-01 -1.984163e-01 -2.337343e-01 -2.867306e-02 2.640992e-02 -4.241525e-02 -1.271365e-01
<VARIANCE> 39
 1.110141e+01 2.931881e+01 6.410873e+01 4.377111e+01 6.671111e+01 8.462913e+01 1.074547e+02 9.055648e+01 9.230057e+01 5.089905e+01 4.154019e+01 3.372996e+01 2.207156e+01 3.747838e-01 8.798122e-01 1.716633e+00 1.292214e+00 2.137260e+00 1.810880e+00 2.699449e+00 2.339882e+00 1.981746e+00 1.780549e+00 1.522142e+00 1.336168e+00 4.789594e-01 1.719012e-01 1.996771e-01 2.154526e-01 2.255926e-01 3.094335e-01 3.451936e-01 5.231580e-01 4.758408e-01 3.611373e-01 3.265452e-01 2.756080e-01 2.484788e-01 1.144509e-01
<GCONST> 1.091268e+02
<STATE> 4
<MEAN> 39
 -1.708192e+00 -1.124225e+01 -1.153452e+01 -5.187473e+00 -6.077841e+00 -1.198759e+01 -1.214657e+01 3.430040e+00 -1.045668e+00 -3.885702e+00 -2.997041e+00 -5.313181e-01 5.444695e+01 -1.791644e+00 1.031587e+00 1.666910e+00 5.961126e-02 -4.235367e-01 1.331254e+00 2.312221e+00 -1.126603e+00 -1.012696e+00 -2.104563e-02 4.646227e-02 -2.525944e-01 -1.222533e+00 -4.308195e-01 2.727746e-01 1.212362e-01 -2.445017e-01 1.424506e-01 4.239593e-01 2.291298e-01 -2.983320e-01 -4.870462e-02 1.840817e-01 1.762070e-02 -1.379378e-01 -1.252345e-01
<VARIANCE> 39
 3.811285e+01 3.261690e+01 7.785958e+01 6.038965e+01 7.293781e+01 9.179665e+01 1.200391e+02 7.180393e+01 8.599888e+01 5.797417e+01 4.908724e+01 3.787286e+01 6.051204e+01 3.362842e+00 3.696084e+00 3.832135e+00 4.267570e+00 5.221490e+00 5.283659e+00 7.411903e+00 6.014673e+00 5.166308e+00 4.477060e+00 3.811701e+00 3.095694e+00 4.009621e+00 7.939541e-01 5.659280e-01 6.307536e-01 6.640776e-01 7.703618e-01 9.082403e-01 1.203370e+00 8.793785e-01 8.154778e-01 7.429066e-01 6.547944e-01 5.429992e-01 7.013096e-01
<GCONST> 1.408405e+02
<TRANSP> 5
 0.000000e+00 1.000000e+00 0.000000e+00 0.000000e+00 0.000000e+00
 0.000000e+00 5.885144e-01 4.114856e-01 0.000000e+00 0.000000e+00
 0.000000e+00 0.000000e+00 8.099748e-01 1.900252e-01 0.000000e+00
 0.000000e+00 0.000000e+00 0.000000e+00 6.554280e-01 3.445720e-01
 0.000000e+00 0.000000e+00 0.000000e+00 0.000000e+00 0.000000e+00
<ENDHMM>
~h "ey"
<BEGINHMM>
<NUMSTATES> 5
<STATE> 2
<MEAN> 39
 -4.646810e+00 -1.428362e+01 -1.285827e+00 -1.320839e+01 -1.678731e+01 -1.114444e+01 -7.736401e+00 4.738125e+00 -1.628318e+00 -1.973128e+00 -3.092973e+00 -2.558902e+00 6.492217e+01 7.854534e-02 -8.936337e-01 1.390854e+00 -7.725618e-01 -1.815393e+00 -4.969447e-01 5.480749e-01 1.016903e+00 -6.626062e-01 -2.417980e-01 5.740502e-01 3.835080e-01 1.001237e+00 -4.117811e-01 5.357962e-01 2.941010e-03 1.547714e-01 3.583130e-01 3.737577e-01 2.059762e-01 -5.796335e-01 -3.027182e-01 1.792293e-01 2.655112e-01 -4.674815e-03 -5.083347e-01
<VARIANCE> 39
 1.398145e+01 2.800780e+01 4.713240e+01 5.423741e+01 4.688562e+01 5.036555e+01 7.961617e+01 5.948159e+01 7.479512e+01 5.080221e+01 5.739882e+01 3.617453e+01 2.213995e+01 2.160569e+00 2.514705e+00 2.370652e+00 3.052325e+00 2.917341e+00 3.505116e+00 4.504340e+00 4.473742e+00 3.677248e+00 3.714228e+00 3.163913e+00 2.514764e+00 1.582785e+00 4.202434e-01 3.214751e-01 3.117051e-01 4.656896e-01 5.044356e-01 5.379915e-01 7.362376e-01 7.067840e-01 7.676346e-01 5.881149e-01 5.867056e-01 4.849109e-01 2.468866e-01
<GCONST> 1.255091e+02
<STATE> 3
<MEAN> 39
 -6.561550e+00 -1.237220e+01 3.898390e+00 -1.505744e+01 -2.083286e+01 -1.037705e+01 -5.123001e+00 2.105178e+00 -6.134109e+00 -7.520056e-01 -6.268100e-01 -2.081385e+00 6.463175e+01 -1.871567e-01 5.012763e-01 7.764483e-01 -1.560196e-02 -3.813305e-01 1.235831e-01 -9.275793e-02 -6.657764e-01 -6.740233e-01 1.823259e-01 3.058181e-01 -1.418368e-02 -3.403669e-01 4.336818e-02 1.153756e-01 -1.470095e-01 1.779452e-01 2.445728e-01 -6.995643e-03 -1.402954e-01 -8.910572e-02 3.168809e-02 -6.296877e-02 -1.275338e-01 -3.934567e-02 -1.914594e-01
<VARIANCE> 39
 1.262701e+01 2.939612e+01 4.388180e+01 7.211584e+01 4.131181e+01 5.611007e+01 6.981356e+01 7.151465e+01 6.062997e+01 5.218887e+01 6.738629e+01 3.007357e+01 2.081328e+01 2.649912e-01 6.486459e-01 1.100521e+00 9.284909e-01 1.066525e+00 1.212341e+00 1.499732e+00 1.624591e+00 1.851633e+00 1.443682e+00 1.349506e+00 1.059427e+00 2.820088e-01 5.344637e-02 1.238368e-01 1.566303e-01 1.763731e-01 2.199147e-01 2.270388e-01 2.760089e-01 2.912347e-01 2.597141e-01 2.464427e-01 2.343418e-01 1.934833e-01 6.971426e-02
<GCONST> 9.747961e+01
<STATE> 4
<MEAN> 39
 -6.868957e+00 -9.206713e+00 6.939898e+00 -1.238303e+01 -2.062066e+01 -1.078378e+01 -7.555228e+00 -1.081932e+00 -9.717683e+00 -1.214791e+00 -1.030729e-01 -2.055764e+00 6.054452e+01 -3.663781e-01 1.417012e+00 -7.509651e-01 1.610115e+00 1.846826e+00 1.812873e-01 7.199939e-02 -7.299321e-01 -3.449612e-02 -5.701539e-01 -5.415738e-01 -1.477115e-01 -2.104758e+00 -3.815580e-01 2.504080e-01 -6.509575e-01 2.648745e-01 8.053595e-01 2.839088e-01 2.716137e-01 2.719441e-02 4.546015e-01 7.219478e-03 -1.570525e-01 -2.141738e-02 -4.352301e-01
<VARIANCE> 39
 1.447121e+01 3.665845e+01 4.437890e+01 7.974172e+01 4.064061e+01 5.743056e+01 6.575840e+01 7.715037e+01 5.777928e+01 6.213083e+01 7.066180e+01 3.392596e+01 3.709729e+01 2.287561e+00 2.762545e+00 3.663700e+00 3.547967e+00 4.667808e+00 3.833112e+00 4.708095e+00 4.173624e+00 4.541150e+00 3.622703e+00 3.456526e+00 2.578567e+00 3.446996e+00 4.649171e-01 4.345074e-01 4.508067e-01 6.553003e-01 6.134220e-01 7.009804e-01 6.851833e-01 8.102179e-01 7.439948e-01 6.669720e-01 6.263846e-01 4.692805e-01 5.303356e-01
<GCONST> 1.316768e+02
<TRANSP> 5
 0.000000e+00 1.000000e+00 0.000000e+00 0.000000e+00 0.000000e+00
 0.000000e+00 6.547619e-01 3.452381e-01 0.000000e+00 0.000000e+00
 0.000000e+00 0.000000e+00 8.410747e-01 1.589253e-01 0.000000e+00
 0.000000e+00 0.000000e+00 0.000000e+00 6.775294e-01 3.224706e-01
 0.000000e+00 0.000000e+00 0.000000e+00 0.000000e+00 0.000000e+00
<ENDHMM>
~h "hh"
<BEGINHMM>
<NUMSTATES> 5
<STATE> 2
<MEAN> 39
 -1.338567e+01 -8.689459e+00 -3.564006e+00 -9.186616e+00 -6.195601e+00 -1.852509e+00 8.237694e-01 -4.559934e-01 -3.216683e+00 -2.270757e+00 -3.614871e+00 -6.391134e-01 5.354827e+01 7.632083e-02 -2.137305e-01 -3.101590e-02 -9.551358e-02 8.817231e-02 2.893643e-01 4.761752e-01 -6.698906e-02 -4.780661e-02 -1.785258e-01 -2.293150e-01 -1.335505e-01 3.546953e-01 3.790970e-01 1.554161e-01 5.847334e-03 -8.732808e-02 -2.936622e-01 -2.534893e-01 -4.094441e-01 -1.445748e-01 -1.599481e-01 -5.136420e-02 4.889857e-03 -1.428725e-01 1.548129e-01
<VARIANCE> 39
 2.940001e+01 4.087654e+01 6.605064e+01 4.666662e+01 6.228626e+01 5.147906e+01 4.993805e+01 5.918554e+01 4.751034e+01 3.869923e+01 3.798602e+01 2.695264e+01 5.557571e+01 2.265340e+00 2.025769e+00 2.425295e+00 2.383546e+00 3.018552e+00 2.978034e+00 3.553978e+00 3.197981e+00 3.034685e+00 2.685179e+00 2.551761e+00 1.991281e+00 1.487717e+00 3.036061e-01 4.068030e-01 3.934158e-01 4.905401e-01 5.570436e-01 5.641457e-01 6.483421e-01 5.988599e-01 5.866506e-01 5.477211e-01 5.267516e-01 4.034270e-01 2.438307e-01
<GCONST> 1.234223e+02
<STATE> 3
<MEAN> 39
 -1.072836e+01 -6.100454e+00 -1.156088e+00 -8.936812e+00 -8.223064e+00 -2.942155e+00 3.749374e-01 -2.147801e+00 -5.428952e+00 -3.229556e+00 -4.865264e+00 -2.152942e+00 5.600108e+01 1.947869e+00 2.015712e-01 -1.431078e-01 -7.279413e-01 -1.354603e+00 -9.673711e-01 -1.071754e+00 -3.323911e-01 -6.305843e-01 -4.689105e-01 -3.188583e-01 -5.634707e-01 1.339825e+00 2.861424e-01 -3.968080e-01 -2.504612e-01 -4.133145e-01 -3.555549e-01 -2.685101e-01 -4.736015e-01 1.232490e-01 4.352149e-02 7.168128e-02 1.918693e-01 6.847835e-03 4.103129e-01
<VARIANCE> 39
 2.706152e+01 3.814391e+01 6.950587e+01 5.376563e+01 7.104272e+01 5.852105e+01 5.983683e+01 7.246447e+01 5.127579e+01 4.776701e+01 4.757542e+01 2.914138e+01 4.486872e+01 2.771493e+00 2.389575e+00 3.837134e+00 2.756778e+00 3.429194e+00 3.407265e+00 4.321136e+00 3.933819e+00 4.020861e+00 2.840409e+00 3.182313e+00 2.233771e+00 1.680423e+00 2.645040e-01 3.509173e-01 3.568744e-01 3.976195e-01 4.765719e-01 5.113632e-01 6.319224e-01 5.604004e-01 5.303679e-01 5.493848e-01 4.533822e-01 3.952865e-01 1.944270e-01
<GCONST> 1.254787e+02
<STATE> 4
<MEAN> 39
 -6.877738e+00 -7.442903e+00 -2.420046e+00 -1.321871e+01 -1.329796e+01 -6.773879e+00 -1.502846e+00 -2.928430e+00 -6.834790e+00 -3.890933e+00 -5.708976e+00 -2.831393e+00 6.127848e+01 1.332460e+00 -1.312091e+00 -8.698609e-01 -7.859928e-01 -9.020339e-01 -8.097304e-01 -7.817279e-01 5.907360e-01 9.486716e-02 -9.348667e-02 2.493046e-01 -1.595071e-01 1.449888e+00 -2.343891e-01 -3.063773e-01 2.487168e-02 1.931305e-02 1.672226e-01 1.532422e-01 -4.868079e-02 1.722597e-01 2.133708e-01 9.470265e-02 1.429221e-01 6.798413e-02 -3.132352e-02
<VARIANCE> 39
 1.766118e+01 3.563121e+01 6.892296e+01 6.557003e+01 6.304412e+01 6.108764e+01 6.245089e+01 8.102691e+01 5.670324e+01 5.018808e+01 5.994367e+01 3.091286e+01 3.729377e+01 1.905388e+00 2.367317e+00 3.088241e+00 2.812069e+00 3.536306e+00 3.108363e+00 4.402558e+00 3.632952e+00 3.362228e+00 2.999239e+00 2.506296e+00 2.220737e+00 1.596673e+00 2.260655e-01 3.026064e-01 3.242254e-01 3.250181e-01 3.833161e-01 3.662018e-01 4.788515e-01 4.744379e-01 4.287631e-01 4.293105e-01 3.827462e-01 3.163811e-01 1.443932e-01
<GCONST> 1.216364e+02
<TRANSP> 5
