~o
<STREAMINFO> 1 39
<VECSIZE> 39<NULLD><MFCC_D_A_0><DIAGC>
~s "silst"
<MEAN> 39
 -1.961389e+01 -2.064550e+00 -5.756269e+00 -1.464436e+00 -1.977587e+00 8.826004e-02 -8.022578e-01 4.689015e-01 -3.700933e-01 6.781895e-01 -1.688982e-01 2.922705e-01 3.185867e+01 -1.220875e-01 5.163816e-02 1.282832e-01 9.995059e-02 7.943583e-02 5.990409e-02 5.319352e-03 -3.160325e-02 -9.642025e-03 7.424825e-02 3.690578e-02 -3.226336e-02 -7.824023e-02 8.175109e-02 -7.335098e-02 -3.713464e-02 -1.003782e-01 -5.418905e-02 -7.503742e-02 -2.682734e-02 -1.084834e-02 -3.691106e-02 -4.681519e-02 -4.287139e-02 -1.040019e-02 1.780819e-01
<VARIANCE> 39
 2.997570e+00 4.800532e+00 6.161551e+00 8.742205e+00 9.565495e+00 1.133574e+01 1.206817e+01 1.337133e+01 1.364274e+01 1.385383e+01 1.261879e+01 1.123358e+01 2.542031e+00 3.220007e-01 4.593543e-01 7.041039e-01 9.127323e-01 1.054183e+00 1.227238e+00 1.343374e+00 1.448501e+00 1.514367e+00 1.550907e+00 1.396582e+00 1.255433e+00 2.356002e-01 7.652928e-02 1.090016e-01 1.452928e-01 1.929785e-01 2.194669e-01 2.541046e-01 2.797246e-01 2.972653e-01 3.109456e-01 3.125020e-01 2.821050e-01 2.556667e-01 9.346644e-02
<GCONST> 7.670345e+01
~h "b"
<BEGINHMM>
<NUMSTATES> 5
<STATE> 2
<MEAN> 39
 -5.674539e+00 3.292594e+00 -2.609258e+00 -1.486489e+00 -2.634579e+00 -2.611858e+00 -7.441620e+00 -8.394160e+00 -8.619059e+00 -4.456261e+00 -3.228657e+00 -4.420177e+00 4.046572e+01 -1.090033e+00 1.447848e+00 8.566690e-01 1.386318e+00 9.902858e-01 6.024052e-01 6.700197e-01 -2.510510e-01 -3.444759e-01 -5.722563e-01 -4.013408e-01 -4.002471e-02 -1.908784e+00 -1.831741e-01 -1.002659e+00 -2.155403e-01 -7.389889e-01 -4.775811e-01 -2.993115e-01 -3.080606e-02 5.883045e-01 5.381375e-01 3.316794e-01 1.074325e-01 2.007466e-01 1.397253e+00
<VARIANCE> 39
 3.071301e+01 2.445455e+01 2.129618e+01 3.140573e+01 2.362237e+01 3.394571e+01 3.702203e+01 3.316519e+01 3.430547e+01 3.205357e+01 3.290744e+01 2.735401e+01 2.688153e+01 2.583707e+00 4.796896e+00 3.145286e+00 4.647491e+00 3.244656e+00 3.575816e+00 3.942219e+00 4.498747e+00 4.297345e+00 3.541851e+00 2.982178e+00 2.512184e+00 6.652254e+00 3.798880e-01 7.195585e-01 6.745647e-01 7.560459e-01 6.540080e-01 6.406178e-01 8.787009e-01 8.392470e-01 7.871784e-01 7.352304e-01 6.297968e-01 5.347526e-01 9.058394e-01
<GCONST> 1.279796e+02
<STATE> 3
<MEAN> 39
 -1.168839e+01 1.859852e+00 -1.984594e+00 -2.125919e-01 -9.497434e-01 -1.037601e+00 -4.293914e+00 -4.990895e+00 -5.663251e+00 -3.410328e+00 -3.024406e+00 -2.884839e+00 3.826176e+01 -2.934806e-01 -2.294657e+00 -8.716360e-01 -1.889225e+00 -1.099729e+00 -8.500198e-01 9.731634e-02 1.116323e+00 1.391698e+00 8.212276e-01 5.490125e-01 6.086808e-01 3.761632e+00 8.485677e-01 -8.388631e-01 -4.091041e-01 -1.179615e+00 -8.602657e-01 -4.445002e-01 -4.598916e-01 6.151251e-02 8.578853e-02 2.741399e-01 2.180576e-01 2.198723e-02 1.781804e+00
<VARIANCE> 39
 4.284756e+01 2.547599e+01 1.840586e+01 2.400311e+01 1.726995e+01 2.313291e+01 2.860304e+01 3.370109e+01 3.427808e+01 2.868667e+01 2.331115e+01 1.999052e+01 4.053409e+01 4.194186e+00 3.169363e+00 3.200720e+00 4.439543e+00 3.208415e+00 3.600832e+00 4.136786e+00 4.241835e+00 4.170869e+00 3.467770e+00 3.055581e+00 2.378372e+00 7.567334e+00 5.613665e-01 7.164035e-01 8.892688e-01 8.051163e-01 7.013019e-01 8.362516e-01 7.809917e-01 9.141879e-01 9.306512e-01 8.011302e-01 7.037718e-01 5.065140e-01 8.049054e-01
<GCONST> 1.279362e+02
<STATE> 4
<MEAN> 39
 -8.629162e+00 -6.374217e+00 -6.294485e+00 -9.156795e+00 -6.925457e+00 -5.997334e+00 -5.960071e+00 -2.926131e+00 -2.066600e+00 -7.057291e-01 -1.056330e+00 -1.355339e+00 5.573540e+01 2.324442e+00 -2.696164e+00 -1.012363e+00 -3.642919e+00 -2.499002e+00 -9.560343e-01 -1.121820e+00 6.503745e-01 4.694917e-01 7.656662e-01 4.897236e-01 1.393430e-01 5.183161e+00 3.574743e-01 3.823004e-01 2.382103e-01 1.160665e-01 3.459507e-02 3.656904e-01 -1.623795e-01 -1.594337e-01 -4.571997e-01 -1.905312e-01 -1.923177e-01 -2.447682e-01 -8.661515e-01
<VARIANCE> 39
 4.358269e+01 2.528605e+01 3.785614e+01 5.291508e+01 3.474702e+01 4.570068e+01 3.966986e+01 3.529913e+01 3.406050e+01 3.035690e+01 2.863276e+01 2.218708e+01 4.346388e+01 5.700728e+00 5.285303e+00 7.920046e+00 7.405597e+00 6.289135e+00 7.411088e+00 7.407408e+00 7.217146e+00 7.228720e+00 5.461002e+00 5.187114e+00 3.909451e+00 6.528116e+00 8.213910e-01 6.466404e-01 5.828198e-01 9.376162e-01 8.030614e-01 8.150432e-01 9.116598e-01 8.827234e-01 8.503664e-01 7.234173e-01 6.863630e-01 5.199341e-01 8.655165e-01
<GCONST> 1.383869e+02
<TRANSP> 5
 0.000000e+00 1.000000e+00 0.000000e+00 0.000000e+00 0.000000e+00
 0.000000e+00 6.419232e-01 3.580768e-01 0.000000e+00 0.000000e+00
 0.000000e+00 0.000000e+00 5.008662e-01 4.991338e-01 0.000000e+00
 0.000000e+00 0.000000e+00 0.000000e+00 4.714453e-01 5.285547e-01
 0.000000e+00 0.000000e+00 0.000000e+00 0.000000e+00 0.000000e+00
<ENDHMM>
~h "d"
<BEGINHMM>
<NUMSTATES> 5
<STATE> 2
<MEAN> 39
 -7.772005e+00 1.881021e-01 1.115337e+00 -1.057281e+00 -8.121910e+00 -7.944548e+00 -7.573926e+00 -5.091368e+00 -5.865233e+00 -4.993606e+00 -6.301960e+00 -3.613098e+00 4.416333e+01 -1.209972e+00 1.649272e+00 1.786123e-01 1.296680e+00 1.855621e+00 1.181599e+00 5.173475e-01 -6.681387e-01 -1.662879e-01 -2.500360e-01 -3.437973e-01 -4.875394e-01 -2.460334e+00 -2.036352e-01 -9.795129e-01 -2.998289e-01 -9.518723e-01 -2.175563e-01 8.521077e-02 -6.572956e-03 4.970531e-01 2.279047e-01 2.875172e-01 4.401453e-01 2.693588e-01 1.353180e+00
<VARIANCE> 39
 3.141207e+01 4.526387e+01 3.825772e+01 5.971642e+01 5.346059e+01 4.427588e+01 4.062746e+01 4.797634e+01 4.731639e+01 3.883847e+01 3.662110e+01 3.089329e+01 6.230135e+01 2.899844e+00 6.702406e+00 3.691591e+00 6.711099e+00 5.410831e+00 5.105465e+00 5.399892e+00 5.581952e+00 4.742746e+00 4.142479e+00 3.935892e+00 3.287783e+00 9.167526e+00 4.128053e-01 1.006091e+00 5.570051e-01 9.533709e-01 9.627707e-01 7.840197e-01 9.864717e-01 9.027838e-01 8.212268e-01 8.068618e-01 7.332503e-01 6.017568e-01 1.400428e+00
<GCONST> 1.385486e+02
<STATE> 3
<MEAN> 39
 -1.259805e+01 -2.275359e-01 -2.962988e-01 -9.312104e-01 -3.540687e+00 -3.334722e+00 -5.350639e+00 -4.454422e+00 -5.171202e+00 -3.636216e+00 -4.635265e+00 -3.289594e+00 4.121190e+01 -1.369888e+00 -2.105483e+00 -6.991665e-01 -1.999248e+00 4.282165e-02 5.391085e-01 4.633477e-01 9.125963e-01 7.515549e-01 6.517020e-01 1.040391e+00 7.581916e-01 2.778075e+00 3.907256e-01 -6.831111e-01 -9.246250e-02 -8.685021e-01 -9.246972e-01 -6.580625e-01 -3.011091e-01 3.314998e-01 1.388553e-01 1.683698e-01 1.813562e-01 2.075359e-01 1.695297e+00
<VARIANCE> 39
 4.270580e+01 4.336209e+01 3.462344e+01 4.350423e+01 4.001246e+01 3.678740e+01 3.664589e+01 3.813767e+01 3.630144e+01 2.947194e+01 2.766529e+01 2.264746e+01 7.778016e+01 3.827662e+00 5.212283e+00 3.854555e+00 5.443234e+00 4.671639e+00 5.081448e+00 4.908423e+00 5.066375e+00 4.742130e+00 3.866377e+00 3.421940e+00 2.775903e+00 1.076120e+01 6.110384e-01 9.519485e-01 6.690901e-01 8.938955e-01 9.047950e-01 8.921099e-01 9.244056e-01 9.148542e-01 8.535147e-01 7.077599e-01 7.067734e-01 5.712170e-01 1.310672e+00
<GCONST> 1.362001e+02
<STATE> 4
<MEAN> 39
 -1.442948e+01 -7.537946e+00 -2.449994e+00 -9.578464e+00 -7.806415e+00 -5.967886e+00 -4.958453e+00 -1.378016e+00 -2.624510e+00 -1.776368e+00 -1.900728e+00 -3.713697e-01 5.588667e+01 9.173393e-01 -1.133369e+00 -1.362226e-01 -1.551428e+00 -1.588390e+00 -1.343699e+00 -8.364297e-01 7.614633e-01 3.385862e-01 3.097670e-01 1.920574e-01 2.279802e-01 3.311130e+00 7.397436e-01 3.034204e-01 3.813656e-02 4.471743e-01 -1.556689e-01 -1.205610e-01 -2.741288e-01 -4.847910e-02 -2.028507e-01 -7.239862e-02 -2.543163e-01 -2.922391e-01 -7.301354e-01
<VARIANCE> 39
 5.298887e+01 4.273145e+01 4.526104e+01 4.605630e+01 5.197390e+01 5.280552e+01 5.006012e+01 4.178995e+01 3.903449e+01 2.955820e+01 2.767511e+01 2.308370e+01 6.578082e+01 7.138606e+00 4.752436e+00 4.337615e+00 6.137354e+00 6.188446e+00 6.163345e+00 6.642930e+00 5.534060e+00 5.226022e+00 4.062983e+00 4.430001e+00 3.333533e+00 1.184361e+01 8.587135e-01 9.408481e-01 8.564442e-01 1.009748e+00 1.236740e+00 1.400918e+00 1.101203e+00 9.852679e-01 9.337266e-01 7.833532e-01 8.029025e-01 6.445106e-01 1.401825e+00
<GCONST> 1.422149e+02
<TRANSP> 5
 0.000000e+00 1.000000e+00 0.000000e+00 0.000000e+00 0.000000e+00
 0.000000e+00 5.056115e-01 4.943884e-01 0.000000e+00 0.000000e+00
 0.000000e+00 0.000000e+00 3.720006e-01 6.279994e-01 0.000000e+00
 0.000000e+00 0.000000e+00 0.000000e+00 5.331388e-01 4.668613e-01
 0.000000e+00 0.000000e+00 0.000000e+00 0.000000e+00 0.000000e+00
<ENDHMM>
~h "f"
<BEGINHMM>
<NUMSTATES> 5
<STATE> 2
<MEAN> 39
 -1.612422e+01 -5.143142e+00 -6.656595e+00 -5.694707e+00 -3.532741e+00 -3.342620e+00 -2.421884e+00 -9.248028e-01 -2.152660e+00 -1.477643e+00 -2.863718e+00 -1.354725e+00 5.276865e+01 -4.056944e+00 -2.535884e-01 -2.778190e-01 9.547801e-01 5.951262e-01 4.529150e-01 7.599391e-01 5.732934e-01 7.261033e-01 3.246085e-01 4.077025e-01 5.991177e-01 -9.339908e-01 3.072052e-01 -4.866932e-01 -1.935531e-01 -4.940060e-01 -4.448915e-01 -2.182205e-01 -3.516752e-01 -2.393982e-02 -6.708945e-02 8.868555e-02 4.827920e-02 -3.966513e-02 3.343616e-01
<VARIANCE> 39
 5.413831e+01 1.816463e+01 2.072677e+01 2.392565e+01 2.007988e+01 2.784488e+01 2.411608e+01 2.417645e+01 2.389880e+01 2.292003e+01 1.959725e+01 1.647770e+01 3.777003e+01 5.120119e+00 3.683659e+00 4.522851e+00 5.384248e+00 4.054656e+00 4.722188e+00 4.614522e+00 4.108544e+00 4.106789e+00 3.633698e+00 3.639560e+00 2.740126e+00 3.134892e+00 1.041530e+00 5.652508e-01 5.504974e-01 6.723847e-01 5.987786e-01 5.955667e-01 6.825675e-01 6.618026e-01 6.172163e-01 5.870641e-01 5.097958e-01 4.499901e-01 4.821927e-01
<GCONST> 1.247872e+02
<STATE> 3
<MEAN> 39
 -2.383759e+01 -8.593736e+00 -9.423059e+00 -6.507454e+00 -4.945572e+00 -3.980788e+00 -3.039483e+00 -2.702166e-01 -1.049521e+00 -1.819344e-01 -1.755029e+00 -9.813299e-02 5.285818e+01 4.405200e-02 -1.906895e-01 -1.673438e-01 -1.149957e-01 -6.846835e-02 -4.532395e-02 -6.776251e-02 -4.636293e-02 4.356286e-02 8.538996e-02 3.876994e-02 7.922504e-03 1.043628e-01 8.380014e-01 1.563407e-01 1.458617e-01 -9.472804e-02 -1.247395e-02 -5.633103e-02 -1.104680e-01 -9.452259e-02 -9.955934e-02 -7.957528e-02 -6.691699e-02 -1.109328e-01 1.033951e-01
<VARIANCE> 39
 1.086479e+01 1.300224e+01 1.094543e+01 1.234717e+01 1.275615e+01 1.384246e+01 1.489213e+01 1.424986e+01 1.400878e+01 1.403773e+01 1.326870e+01 1.182987e+01 2.532730e+01 2.213515e+00 9.980600e-01 1.164458e+00 1.241642e+00 1.356583e+00 1.430351e+00 1.539873e+00 1.596588e+00 1.584821e+00 1.532511e+00 1.461205e+00 1.318559e+00 1.541693e+00 5.049518e-01 2.437209e-01 2.907745e-01 3.475595e-01 3.429502e-01 3.838308e-01 4.153990e-01 3.973306e-01 3.861117e-01 3.561312e-01 3.580289e-01 3.102064e-01 3.020832e-01
<GCONST> 9.673969e+01
<STATE> 4
<MEAN> 39
 -1.701210e+01 -7.178762e+00 -7.948245e+00 -7.118732e+00 -4.689893e+00 -4.030612e+00 -3.002903e+00 -1.004312e+00 -1.298063e+00 -4.795921e-01 -2.036514e+00 -9.246256e-01 5.327991e+01 4.787187e+00 1.868683e-01 1.598857e-01 -1.422019e+00 -1.092543e+00 -5.737152e-01 -1.220788e+00 -5.404117e-01 -5.768432e-01 -4.401149e-01 -1.514720e-01 -5.422376e-01 1.027906e+00 5.768328e-01 -2.786470e-01 -1.246674e-01 -4.692383e-01 -4.396960e-01 -1.025228e-01 -4.310389e-01 2.947018e-02 -1.274890e-01 -6.664638e-02 6.147815e-02 -5.654959e-02 3.469780e-01
<VARIANCE> 39
 4.943710e+01 1.949755e+01 2.102658e+01 2.282973e+01 2.070949e+01 2.379174e+01 2.243131e+01 2.114014e+01 1.997599e+01 1.797601e+01 1.683623e+01 1.487587e+01 3.692599e+01 5.983199e+00 3.516982e+00 4.753718e+00 5.352873e+00 4.593228e+00 5.445137e+00 5.434737e+00 4.083698e+00 4.172644e+00 3.235445e+00 3.492770e+00 2.665496e+00 4.784831e+00 1.015095e+00 5.181079e-01 5.446277e-01 6.613325e-01 6.363765e-01 7.206513e-01 7.760391e-01 6.797704e-01 6.662694e-01 5.940611e-01 5.221675e-01 4.382089e-01 6.208162e-01
<GCONST> 1.251396e+02
<TRANSP> 5
 0.000000e+00 1.000000e+00 0.000000e+00 0.000000e+00 0.000000e+00
 0.000000e+00 5.842606e-01 4.157394e-01 0.000000e+00 0.000000e+00
 0.000000e+00 0.000000e+00 8.299966e-01 1.700033e-01 0.000000e+00
 0.000000e+00 0.000000e+00 0.000000e+00 5.851528e-01 4.148472e-01
 0.000000e+00 0.000000e+00 0.000000e+00 0.000000e+00 0.000000e+00
<ENDHMM>
~h "g"
<BEGINHMM>
<NUMSTATES> 5
<STATE> 2
<MEAN> 39
 -7.104851e+00 -5.730056e-01 1.570030e+00 -1.738709e+00 -1.150586e+01 -1.150369e+01 -5.488176e+00 -3.362606e+00 -1.193537e+01 -4.496420e+00 -1.597685e+00 -3.920196e+00 4.591225e+01 -1.079996e+00 1.838195e+00 -4.983707e-01 1.726763e+00 2.299543e+00 9.086853e-01 -1.637912e-01 -9.162165e-01 7.509770e-01 -6.054015e-01 -7.399125e-01 -7.045953e-02 -3.196417e+00 -1.764385e-01 -1.014603e+00 -6.943460e-01 -6.936316e-01 3.275750e-01 3.428646e-01 -7.257026e-02 2.614385e-01 7.364919e-01 4.544099e-01 -8.509800e-02 1.748154e-01 1.115609e+00
<VARIANCE> 39
 2.177550e+01 3.963668e+01 4.318099e+01 4.530011e+01 5.770510e+01 5.376634e+01 5.275568e+01 8.222778e+01 5.343723e+01 5.772483e+01 6.287144e+01 3.772177e+01 5.022311e+01 2.487967e+00 6.940310e+00 4.626935e+00 5.753644e+00 6.328584e+00 5.814200e+00 6.616402e+00 7.977590e+00 6.313027e+00 5.991821e+00 4.901897e+00 3.456096e+00 6.680805e+00 3.315960e-01 1.105961e+00 7.053446e-01 8.997307e-01 9.538943e-01 9.979181e-01 1.085980e+00 1.171307e+00 1.018847e+00 1.104531e+00 8.838626e-01 6.833042e-01 1.304470e+00
<GCONST> 1.428308e+02
<STATE> 3
<MEAN> 39
 -1.243991e+01 2.018511e-03 -2.083896e+00 8.396167e-01 -2.759517e+00 -6.161893e+00 -5.879718e+00 -4.075120e+00 -6.287002e+00 -3.526618e+00 -3.625192e+00 -2.783154e+00 4.014471e+01 -7.670264e-01 -2.849506e+00 -2.488351e+00 -1.421746e+00 1.572410e+00 8.696046e-01 -1.397747e-01 5.933064e-01 1.642549e+00 1.271585e+00 -4.397992e-02 6.297489e-01 2.231400e+00 5.814130e-01 -8.072470e-01 -1.461452e-01 -1.037277e+00 -8.497891e-01 -4.824466e-01 -1.494362e-01 1.759900e-01 -1.904692e-01 3.966277e-01 2.873180e-01 6.904202e-02 1.789896e+00
<VARIANCE> 39
 3.528515e+01 4.329744e+01 4.017659e+01 2.942092e+01 4.134811e+01 4.825103e+01 3.956127e+01 4.240024e+01 3.947981e+01 3.107816e+01 2.709359e+01 2.051707e+01 4.750069e+01 3.432231e+00 7.554224e+00 6.175428e+00 5.916961e+00 7.323433e+00 7.098965e+00 6.669097e+00 7.904235e+00 6.009892e+00 5.164612e+00 4.199270e+00 3.329766e+00 8.496344e+00 6.229222e-01 1.317281e+00 1.008550e+00 1.023785e+00 9.690995e-01 1.080636e+00 1.043332e+00 1.138167e+00 8.662525e-01 9.147166e-01 8.617985e-01 5.185144e-01 1.136888e+00
<GCONST> 1.405254e+02
<STATE> 4
<MEAN> 39
 -1.119473e+01 -1.019075e+01 -9.061316e+00 -7.148738e+00 -2.917042e+00 -7.589736e+00 -7.039440e+00 -2.442351e+00 -3.571895e+00 1.128702e+00 -2.859229e+00 -1.007083e+00 5.397548e+01 1.427260e+00 -2.896945e-01 7.246342e-02 -1.533241e+00 -9.877204e-01 -8.177983e-01 -1.166155e+00 -1.090534e-01 3.837819e-02 3.751605e-01 4.155874e-01 1.265264e-01 2.651081e+00 6.095604e-01 8.275560e-01 7.355794e-01 2.131043e-01 -6.390288e-01 -2.140532e-01 -1.962586e-01 -5.820864e-02 -4.674873e-01 -4.856908e-01 1.392896e-01 -2.007743e-01 -5.174940e-01
<VARIANCE> 39
 3.045718e+01 5.488281e+01 8.241721e+01 4.745214e+01 6.889825e+01 6.560253e+01 6.054088e+01 5.562920e+01 4.823094e+01 4.014102e+01 3.393542e+01 2.464585e+01 3.432938e+01 4.654097e+00 7.764614e+00 6.883470e+00 7.234311e+00 6.600406e+00 6.606389e+00 5.954257e+00 5.651098e+00 5.986672e+00 5.636783e+00 4.236009e+00 3.103587e+00 6.402105e+00 5.975636e-01 1.548780e+00 1.406228e+00 1.089098e+00 1.253098e+00 1.235090e+00 1.240720e+00 1.306250e+00 1.214043e+00 1.099799e+00 8.617737e-01 6.829351e-01 8.290889e-01
<GCONST> 1.453200e+02
<TRANSP> 5
 0.000000e+00 1.000000e+00 0.000000e+00 0.000000e+00 0.000000e+00
 0.000000e+00 5.734580e-01 4.265420e-01 0.000000e+00 0.000000e+00
 0.000000e+00 0.000000e+00 4.938591e-01 5.061409e-01 0.000000e+00
 0.000000e+00 0.000000e+00 0.000000e+00 6.401020e-01 3.598981e-01
 0.000000e+00 0.000000e+00 0.000000e+00 0.000000e+00 0.000000e+00
<ENDHMM>
~h "k"
<BEGINHMM>
<NUMSTATES> 5
<STATE> 2
<MEAN> 39
 -1.175618e+01 -4.041367e+00 -1.952088e+00 -3.160822e+00 -7.046700e+00 -9.788502e+00 -4.793963e+00 -3.945875e-01 -7.597496e+00 -1.485564e+00 -1.693762e+00 -1.780815e+00 4.632449e+01 -2.671978e+00 1.318688e+00 -3.876485e-01 1.979167e+00 2.199759e+00 2.336955e+00 1.002745e+00 -7.082363e-01 1.077849e+00 3.981183e-01 8.417463e-02 3.735808e-01 -5.080150e+00 -1.044268e-01 -7.380102e-01 -5.706335e-01 -6.007860e-01 5.764862e-02 4.307572e-01 4.431345e-02 2.551672e-01 5.940494e-01 1.470027e-01 -8.215847e-03 2.145241e-02 7.198609e-01
<VARIANCE> 39
 4.294221e+01 3.687170e+01 6.058131e+01 5.346337e+01 8.890937e+01 7.177967e+01 6.543433e+01 8.047755e+01 6.804931e+01 4.849015e+01 5.042973e+01 3.201020e+01 7.140063e+01 5.583790e+00 5.435367e+00 6.851711e+00 5.661222e+00 8.033311e+00 7.251738e+00 7.225785e+00 7.745818e+00 7.805203e+00 5.457626e+00 5.809569e+00 3.487890e+00 6.311200e+00 7.605870e-01 1.022597e+00 8.264358e-01 1.078505e+00 1.475281e+00 1.321757e+00 1.077691e+00 1.411283e+00 1.343181e+00 1.015863e+00 9.611347e-01 7.114149e-01 2.115310e+00
<GCONST> 1.493784e+02
<STATE> 3
<MEAN> 39
 -1.957146e+01 -3.796672e+00 -5.230687e+00 -6.043615e-01 -9.699444e-01 -9.588470e-01 -1.757741e+00 4.599475e-01 -1.000693e+00 8.565922e-01 -5.534181e-01 -2.829020e-01 3.466413e+01 -2.500104e-01 -1.636846e+00 -1.276038e+00 -1.131403e+00 6.452109e-02 5.669563e-01 2.818143e-01 1.456550e-01 4.940824e-01 5.735255e-01 -2.364767e-02 2.433366e-01 1.416713e+00 7.470405e-01 -4.893005e-01 -2.918810e-02 -8.675854e-01 -6.769571e-01 -9.520516e-01 -3.955186e-01 5.441381e-03 -4.968636e-01 -7.906725e-02 -1.655078e-01 -1.018348e-01 2.401300e+00
<VARIANCE> 39
 1.163210e+01 1.876500e+01 1.906258e+01 1.793821e+01 2.102287e+01 2.229631e+01 2.415629e+01 2.477244e+01 2.399525e+01 2.013129e+01 1.681967e+01 1.481202e+01 2.755787e+01 4.744926e+00 5.076478e+00 5.210186e+00 5.158356e+00 5.645061e+00 6.213516e+00 4.932769e+00 5.045102e+00 5.840681e+00 3.685971e+00 3.370789e+00 2.620735e+00 1.635690e+01 6.653091e-01 8.125347e-01 8.795778e-01 7.542157e-01 9.164057e-01 8.582600e-01 8.944580e-01 8.802502e-01 7.799709e-01 6.464050e-01 6.566788e-01 4.456536e-01 1.408786e+00
<GCONST> 1.286681e+02
<STATE> 4
<MEAN> 39
 -1.587861e+01 -1.037603e+01 -7.558027e+00 -9.473666e+00 -4.547564e+00 -5.076071e+00 -2.862981e+00 -3.240303e-01 -2.879894e+00 1.735604e+00 -2.387729e+00 -3.831877e-01 5.479262e+01 1.059088e+00 1.123373e-01 2.879420e-01 -8.908320e-01 -8.756759e-01 -7.525306e-01 -1.832843e-01 -1.038717e-01 -3.623991e-01 -4.263064e-01 -1.282127e-01 -2.184433e-01 2.263747e+00 2.346796e-01 4.328558e-01 3.156604e-01 2.712954e-01 -1.312248e-01 -1.814020e-02 -1.065204e-01 8.516530e-03 -9.279586e-02 -2.592113e-01 8.308088e-02 -9.893166e-02 -5.426310e-01
<VARIANCE> 39
 3.136340e+01 3.912324e+01 7.256731e+01 4.501150e+01 5.686358e+01 4.923542e+01 5.014180e+01 4.560592e+01 4.039327e+01 3.460825e+01 2.965756e+01 2.272481e+01 4.765269e+01 5.479568e+00 4.867677e+00 4.271873e+00 5.240949e+00 4.484600e+00 4.821417e+00 4.654374e+00 4.487478e+00 4.697692e+00 3.936278e+00 3.397350e+00 2.648906e+00 1.023114e+01 7.703052e-01 1.248464e+00 1.000980e+00 9.653795e-01 9.127539e-01 9.316357e-01 9.509991e-01 8.832321e-01 9.105018e-01 7.653916e-01 6.679789e-01 5.419486e-01 1.665348e+00
<GCONST> 1.388409e+02
<TRANSP> 5
 0.000000e+00 1.000000e+00 0.000000e+00 0.000000e+00 0.000000e+00
 0.000000e+00 5.706431e-01 4.293570e-01 0.000000e+00 0.000000e+00
 0.000000e+00 0.000000e+00 6.185834e-01 3.814165e-01 0.000000e+00
 0.000000e+00 0.000000e+00 0.000000e+00 7.699594e-01 2.300406e-01
 0.000000e+00 0.000000e+00 0.000000e+00 0.000000e+00 0.000000e+00
<ENDHMM>
~h "l"
<BEGINHMM>
<NUMSTATES> 5
<STATE> 2
<MEAN> 39
 -1.704015e+00 -5.288778e+00 -1.077284e+01 -2.199297e+01 -7.894047e+00 3.187379e-01 -8.346915e+00 -7.824707e+00 -3.569915e+00 4.091518e-01 -4.100019e-01 -3.336386e+00 5.968211e+01 1.098200e+00 6.937960e-01 -3.026510e-01 -2.119257e+00 -3.100955e-01 1.157003e+00 -1.657088e-01 -7.266875e-01 -6.979653e-01 -1.393314e-01 5.914862e-01 3.782986e-01 2.456002e-02 -3.754847e-01 -2.385237e-01 1.233532e-01 5.421103e-01 4.951310e-02 -3.467542e-01 6.690177e-02 5.092658e-01 1.579598e-01 -1.096711e-01 -1.665195e-01 5.068448e-02 -7.766870e-02
<VARIANCE> 39
 1.379176e+01 4.810024e+01 4.753077e+01 6.779884e+01 5.908813e+01 7.161998e+01 7.779123e+01 5.993618e+01 6.308950e+01 5.781980e+01 6.487397e+01 4.058782e+01 3.088427e+01 2.542547e+00 2.864928e+00 2.604431e+00 5.137156e+00 4.409604e+00 4.777193e+00 5.281929e+00 4.922197e+00 4.432784e+00 4.438766e+00 3.959719e+00 3.509644e+00 2.297913e+00 4.206346e-01 5.131736e-01 4.071449e-01 7.536656e-01 7.480291e-01 7.236899e-01 8.089354e-01 8.109115e-01 9.115420e-01 8.037149e-01 7.069740e-01 6.222048e-01 2.951770e-01
<GCONST> 1.337840e+02
<STATE> 3
<MEAN> 39
 -5.266899e-01 -2.973564e+00 -1.098212e+01 -2.652992e+01 -8.801035e+00 2.608416e+00 -7.107367e+00 -6.251854e+00 -4.975000e+00 -1.308715e+00 4.367085e-01 -1.502857e+00 5.832103e+01 -2.037623e-01 -3.047399e-01 2.406182e-02 5.916023e-01 3.813529e-01 -4.440466e-01 -4.249718e-01 2.174163e-01 3.986264e-01 3.557582e-01 -2.297766e-01 -4.438559e-01 7.207432e-02 -3.033341e-01 -2.888063e-01 1.353336e-01 7.103133e-01 1.028795e-01 -3.590520e-01 -4.231593e-02 2.055111e-01 2.798878e-01 6.032183e-02 -2.526737e-01 -1.760193e-01 8.408338e-03
<VARIANCE> 39
 9.727971e+00 3.921753e+01 4.699207e+01 6.693552e+01 6.429249e+01 6.352115e+01 7.630213e+01 6.380172e+01 5.769446e+01 6.006036e+01 5.305472e+01 3.906530e+01 2.787333e+01 6.207732e-01 3.072920e+00 1.523263e+00 3.496607e+00 2.598869e+00 2.823928e+00 3.409101e+00 3.193949e+00 3.850873e+00 3.473279e+00 2.686959e+00 2.620767e+00 1.774968e+00 2.269092e-01 3.312188e-01 3.134967e-01 5.900939e-01 5.649279e-01 5.955645e-01 5.715820e-01 7.414770e-01 6.503950e-01 6.451661e-01 5.669868e-01 4.748261e-01 2.407447e-01
<GCONST> 1.235854e+02
<STATE> 4
<MEAN> 39
 -3.094121e+00 -7.954511e+00 -9.081301e+00 -1.809534e+01 -6.890706e+00 -4.339446e+00 -1.169933e+01 -3.758346e+00 -2.463028e-01 1.120571e+00 -3.346833e+00 -4.888041e+00 6.022193e+01 -9.474279e-01 -8.316644e-01 1.452641e+00 2.302943e+00 -7.946820e-01 -2.007705e+00 1.388292e-01 1.760405e+00 3.545725e-01 -8.862817e-01 -9.863512e-01 2.604284e-01 4.051124e-02 -2.018907e-01 2.094376e-01 3.986942e-01 5.378441e-02 -3.573426e-01 1.198938e-01 5.488231e-01 3.094837e-02 -6.263884e-01 -3.940649e-01 2.547143e-01 3.905534e-01 -2.458778e-01
<VARIANCE> 39
 1.470064e+01 4.091850e+01 5.476265e+01 7.035222e+01 5.242323e+01 8.701558e+01 8.345334e+01 6.918362e+01 6.762448e+01 6.563092e+01 6.560942e+01 4.393259e+01 4.472668e+01 1.412864e+00 3.294744e+00 3.968045e+00 4.940215e+00 5.612733e+00 5.336440e+00 5.338149e+00 5.686796e+00 6.712862e+00 4.984523e+00 4.169366e+00 4.224617e+00 2.813650e+00 3.068401e-01 3.808690e-01 4.037586e-01 8.063867e-01 7.355524e-01 9.312188e-01 8.169380e-01 1.033383e+00 1.046029e+00 9.759409e-01 7.548785e-01 6.618237e-01 2.703807e-01
<GCONST> 1.365266e+02
<TRANSP> 5
 0.000000e+00 1.000000e+00 0.000000e+00 0.000000e+00 0.000000e+00
 0.000000e+00 5.698235e-01 4.301765e-01 0.000000e+00 0.000000e+00
 0.000000e+00 0.000000e+00 6.947178e-01 3.052822e-01 0.000000e+00
 0.000000e+00 0.000000e+00 0.000000e+00 5.157961e-01 4.842039e-01
 0.000000e+00 0.000000e+00 0.000000e+00 0.000000e+00 0.000000e+00
<ENDHMM>
~h "m"
<BEGINHMM>
<NUMSTATES> 5
<STATE> 2
<MEAN> 39
 -4.505472e+00 -3.707131e+00 -5.305155e+00 -5.034880e+00 -6.768378e+00 -7.059454e+00 -6.347042e+00 -7.904496e+00 -1.050054e+01 -1.960250e+00 -2.211943e+00 -5.802826e+00 5.101779e+01 3.758409e-01 1.359184e+00 9.871391e-01 1.673393e+00 7.934889e-02 -1.091541e+00 7.525893e-02 -2.182562e+00 -2.358142e+00 2.763360e-01 1.795714e-01 -7.729571e-01 -7.966782e-01 -2.377646e-01 -4.194012e-01 6.789590e-02 -3.612072e-01 -1.892760e-01 1.341264e-01 -1.029451e-01 5.049521e-01 4.629094e-01 -7.232247e-02 -7.846544e-02 1.845564e-01 4.810722e-01
<VARIANCE> 39
 2.213890e+01 3.101393e+01 3.503679e+01 5.198214e+01 4.608566e+01 5.930209e+01 6.234177e+01 6.215358e+01 6.836791e+01 5.341796e+01 6.763224e+01 4.474384e+01 3.769209e+01 4.715336e+00 2.847159e+00 3.725088e+00 4.133018e+00 4.938293e+00 4.434139e+00 6.030095e+00 5.284468e+00 5.825983e+00 4.897967e+00 5.028474e+00 3.897009e+00 4.879863e+00 3.696330e-01 4.121667e-01 5.978284e-01 6.150664e-01 6.279029e-01 6.534638e-01 7.705681e-01 8.055303e-01 9.595808e-01 6.906826e-01 7.134021e-01 5.511297e-01 3.566225e-01
<GCONST> 1.349043e+02
<STATE> 3
<MEAN> 39
 -4.143169e+00 -3.081513e+00 -3.029637e+00 -3.100008e+00 -7.594454e+00 -8.644558e+00 -7.111124e+00 -1.074179e+01 -1.346847e+01 -1.090207e+00 -2.351422e+00 -6.975252e+00 5.137224e+01 -3.910070e-02 -7.586163e-02 1.299290e-01 -8.416010e-02 -1.060926e-01 7.352671e-02 -8.550049e-02 7.224441e-02 1.911410e-01 -1.557063e-01 -1.172131e-01 9.534133e-02 2.383954e-01 -1.169677e-01 -4.347739e-01 -2.687554e-01 -6.635759e-01 -1.135146e-01 3.630919e-01 -1.691169e-02 7.794684e-01 8.113443e-01 -1.694019e-01 -7.331938e-02 3.040518e-01 3.674607e-01
<VARIANCE> 39
 8.678610e+00 2.320915e+01 3.085926e+01 4.895964e+01 5.136935e+01 7.002352e+01 6.609949e+01 6.596243e+01 6.239540e+01 6.209277e+01 8.445309e+01 5.429066e+01 2.058794e+01 1.179846e+00 1.837795e+00 1.497758e+00 2.105223e+00 2.125786e+00 2.066933e+00 2.496378e+00 2.718942e+00 3.272788e+00 2.435464e+00 2.403538e+00 2.028684e+00 2.246331e+00 3.258551e-01 2.966285e-01 4.998286e-01 5.124864e-01 5.895298e-01 5.671837e-01 6.695442e-01 7.342777e-01 8.651230e-01 6.815863e-01 7.160072e-01 5.939803e-01 2.357752e-01
<GCONST> 1.220434e+02
<STATE> 4
<MEAN> 39
 -4.445189e+00 -5.290166e+00 -4.829072e+00 -6.086316e+00 -8.048553e+00 -7.047521e+00 -7.411397e+00 -7.192498e+00 -8.793884e+00 -2.876765e+00 -2.799894e+00 -5.262277e+00 5.367924e+01 -2.541439e-01 -1.624890e+00 -3.921905e-01 -2.285719e+00 -8.992212e-01 1.011344e+00 -1.299795e-01 2.499915e+00 2.359106e+00 -6.460475e-01 -3.717174e-01 9.286119e-01 1.727249e+00 -2.675104e-01 -1.934952e-01 1.165776e-01 -3.535507e-01 -1.175338e-01 2.046103e-01 1.543484e-01 4.221705e-01 1.207635e-01 9.125514e-02 1.314436e-02 1.131290e-01 1.345895e-01
<VARIANCE> 39
 1.734059e+01 3.350333e+01 3.567239e+01 5.363887e+01 4.711975e+01 6.143558e+01 5.556141e+01 6.197388e+01 7.206173e+01 4.970845e+01 6.412104e+01 4.129699e+01 4.329646e+01 2.644704e+00 3.394729e+00 5.648392e+00 5.155586e+00 5.859112e+00 4.995943e+00 5.585581e+00 5.375668e+00 6.592825e+00 5.164528e+00 5.376437e+00 4.050330e+00 4.013548e+00 3.725547e-01 4.702342e-01 5.922492e-01 6.904697e-01 6.714393e-01 6.828256e-01 7.313820e-01 8.812200e-01 1.155817e+00 6.773023e-01 6.829954e-01 5.366277e-01 4.110122e-01
<GCONST> 1.358971e+02
<TRANSP> 5
 0.000000e+00 1.000000e+00 0.000000e+00 0.000000e+00 0.000000e+00
 0.000000e+00 4.380994e-01 5.619006e-01 0.000000e+00 0.000000e+00
 0.000000e+00 0.000000e+00 6.672389e-01 3.327611e-01 0.000000e+00
 0.000000e+00 0.000000e+00 0.000000e+00 4.201149e-01 5.798851e-01
 0.000000e+00 0.000000e+00 0.000000e+00 0.000000e+00 0.000000e+00
<ENDHMM>
~h "n"
<BEGINHMM>
<NUMSTATES> 5
<STATE> 2
<MEAN> 39
 -4.375111e+00 -6.920531e+00 -3.244923e+00 -8.602781e+00 -1.135087e+01 -7.842848e+00 -6.674483e+00 -3.099715e+00 -7.613707e+00 -2.865727e+00 -5.325101e+00 -4.539568e+00 5.541473e+01 1.878871e-01 1.745109e+00 1.179370e-01 1.664709e+00 6.458555e-02 -6.452409e-01 1.195470e+00 -2.858443e+00 -1.387521e+00 1.185689e+00 -7.586579e-01 -2.354712e-01 -1.934006e+00 -1.811995e-01 9.156097e-03 3.893127e-02 -1.011563e-01 -3.413870e-02 1.309638e-01 9.096334e-02 -3.485246e-02 8.260745e-02 1.975457e-02 2.902504e-02 1.132545e-01 7.480824e-02
<VARIANCE> 39
 1.148422e+01 3.552573e+01 4.542477e+01 5.968092e+01 5.424641e+01 5.597751e+01 5.738793e+01 8.074049e+01 8.031537e+01 6.077599e+01 6.150776e+01 4.830113e+01 3.150589e+01 1.448418e+00 2.712633e+00 4.260603e+00 3.777102e+00 4.760166e+00 5.104901e+00 5.109334e+00 6.822478e+00 6.198433e+00 4.670489e+00 4.187333e+00 3.618408e+00 2.275472e+00 2.182183e-01 3.158532e-01 4.075921e-01 4.791196e-01 5.715804e-01 5.459310e-01 6.298169e-01 9.639118e-01 7.437467e-01 6.330202e-01 5.518438e-01 4.707896e-01 2.737266e-01
<GCONST> 1.304189e+02
<STATE> 3
<MEAN> 39
 -4.212078e+00 -2.301611e+00 -2.641867e+00 -5.126514e+00 -1.219114e+01 -8.885136e+00 -2.488909e+00 -1.110717e+01 -1.112789e+01 6.252875e-01 -7.297697e+00 -4.289721e+00 5.110367e+01 -1.871917e-01 8.785478e-01 1.375039e-01 5.592257e-01 1.713936e-01 1.487515e-02 2.740289e-01 -8.822719e-01 -3.445710e-01 1.024193e-01 -1.969307e-01 4.364578e-02 -8.711469e-01 -3.109566e-01 -4.800947e-01 -1.901879e-02 -4.741181e-01 2.298345e-01 2.534835e-01 -4.797158e-01 1.059442e+00 5.568976e-01 -4.817002e-01 2.946966e-01 1.092301e-01 4.425473e-01
<VARIANCE> 39
 8.882211e+00 2.888159e+01 2.988905e+01 5.215914e+01 4.702657e+01 5.083265e+01 5.561632e+01 7.296188e+01 6.551283e+01 6.139481e+01 6.680383e+01 5.496478e+01 2.318303e+01 9.073471e-01 2.249708e+00 1.917462e+00 2.336125e+00 2.561363e+00 2.626429e+00 3.257300e+00 5.174327e+00 3.646263e+00 3.126605e+00 2.533283e+00 2.183040e+00 1.900850e+00 2.940335e-01 4.597944e-01 5.328167e-01 6.042109e-01 7.185917e-01 7.192631e-01 7.735284e-01 1.032805e+00 9.987849e-01 7.609822e-01 7.043860e-01 6.095535e-01 3.590062e-01
<GCONST> 1.258822e+02
<STATE> 4
<MEAN> 39
 -6.609108e+00 -3.552443e+00 -3.365301e+00 -6.110755e+00 -9.956600e+00 -7.320659e+00 -4.797237e+00 -6.803904e+00 -8.099552e+00 -1.877365e+00 -6.349476e+00 -3.834314e+00 5.038861e+01 -1.005042e+00 -6.371912e-01 -2.929918e-01 -8.298950e-01 8.213086e-01 7.350578e-01 -6.682523e-01 1.650280e+00 1.086418e+00 -6.453799e-01 5.951349e-01 2.235564e-01 4.589393e-01 -2.508377e-01 -4.125814e-01 -1.775973e-01 -4.278943e-01 4.310244e-02 2.250949e-01 -1.884510e-02 5.744677e-01 3.231405e-01 -2.816699e-02 2.249966e-01 1.264138e-01 4.759490e-01
<VARIANCE> 39
 2.555153e+01 5.039993e+01 3.947505e+01 5.683487e+01 5.209576e+01 5.038257e+01 5.635938e+01 7.901232e+01 6.958717e+01 5.679901e+01 5.470216e+01 4.591234e+01 5.454615e+01 3.811768e+00 4.374827e+00 4.010999e+00 5.015179e+00 5.197222e+00 4.748501e+00 5.568941e+00 7.433315e+00 6.252278e+00 5.041416e+00 4.533571e+00 3.761867e+00 5.377755e+00 6.173456e-01 8.396108e-01 6.143429e-01 7.942957e-01 8.580464e-01 8.137291e-01 9.554284e-01 1.431388e+00 1.214511e+00 9.073644e-01 7.820050e-01 6.437651e-01 7.704074e-01
<GCONST> 1.413807e+02
<TRANSP> 5
 0.000000e+00 1.000000e+00 0.000000e+00 0.000000e+00 0.000000e+00
 0.000000e+00 3.853354e-01 6.146647e-01 0.000000e+00 0.000000e+00
 0.000000e+00 0.000000e+00 5.855026e-01 4.144974e-01 0.000000e+00
 0.000000e+00 0.000000e+00 0.000000e+00 4.711358e-01 5.288643e-01
 0.000000e+00 0.000000e+00 0.000000e+00 0.000000e+00 0.000000e+00
<ENDHMM>
~h "p"
<BEGINHMM>
<NUMSTATES> 5
<STATE> 2
<MEAN> 39
 -1.063076e+01 6.052851e-01 -4.068730e+00 -3.288673e+00 -3.149680e+00 -2.769198e+00 -5.105772e+00 -5.096249e+00 -5.816842e+00 -2.607534e+00 -2.769037e+00 -2.998923e+00 4.018929e+01 -3.317271e+00 1.048370e+00 3.983730e-01 2.233760e+00 1.517357e+00 1.377397e+00 1.557834e+00 6.669701e-01 8.181217e-01 2.164864e-01 6.974182e-02 5.169091e-01 -4.695022e+00 -2.181371e-01 -9.987077e-01 -2.535805e-01 -6.160216e-01 -3.714203e-01 -1.449819e-01 1.107547e-02 5.340849e-01 4.767748e-01 3.773923e-01 2.279619e-01 1.661293e-01 1.207411e+00
<VARIANCE> 39
 4.548302e+01 2.523110e+01 2.820139e+01 4.430418e+01 2.748157e+01 2.930382e+01 3.264152e+01 3.365614e+01 3.765032e+01 3.161391e+01 3.108733e+01 2.379633e+01 5.011626e+01 5.251544e+00 6.171558e+00 5.520050e+00 7.067315e+00 4.702376e+00 5.489264e+00 5.044896e+00 5.373136e+00 5.816773e+00 4.879777e+00 4.510798e+00 3.344662e+00 8.841723e+00 9.757313e-01 7.672460e-01 7.597621e-01 1.100540e+00 8.576981e-01 7.761390e-01 8.210911e-01 8.598235e-01 8.665906e-01 7.726992e-01 7.113383e-01 5.658507e-01 1.547971e+00
<GCONST> 1.369832e+02
<STATE> 3
<MEAN> 39
 -1.947553e+01 -2.146956e+00 -5.124971e+00 -1.173614e+00 -1.438910e+00 1.970804e-01 -1.059035e+00 1.119154e-02 -3.756011e-01 9.589446e-01 -5.895246e-03 -3.080443e-02 3.277235e+01 -3.215930e-01 -1.122011e+00 -4.969267e-01 -5.202572e-01 -1.695869e-01 -1.712864e-01 2.702382e-01 5.782228e-01 7.402697e-01 4.523522e-01 3.454097e-01 3.365069e-01 1.751720e+00 8.661169e-01 -3.400051e-01 -6.478256e-02 -6.125038e-01 -3.058493e-01 -4.839253e-01 -3.841173e-01 -2.238662e-01 -2.374952e-01 -1.901968e-01 -1.647240e-01 -1.802244e-01 2.021835e+00
<VARIANCE> 39
 4.659277e+00 6.114078e+00 6.568520e+00 9.005521e+00 9.667575e+00 1.148055e+01 1.199370e+01 1.452930e+01 1.421712e+01 1.405561e+01 1.229478e+01 1.181847e+01 1.408942e+01 3.017561e+00 2.090352e+00 1.686912e+00 2.565173e+00 1.877854e+00 2.588655e+00 2.500759e+00 2.964484e+00 3.028341e+00 2.482384e+00 2.180315e+00 1.920816e+00 1.396108e+01 5.931338e-01 3.758566e-01 4.265489e-01 5.361558e-01 4.596567e-01 5.446661e-01 5.271565e-01 5.086133e-01 5.277454e-01 4.789793e-01 4.448524e-01 3.689652e-01 9.947474e-01
<GCONST> 1.060105e+02
<STATE> 4
<MEAN> 39
 -1.469362e+01 -8.849715e+00 -7.777694e+00 -7.295437e+00 -3.136675e+00 -3.189020e+00 -1.899108e+00 -3.051364e-01 -2.347350e-01 2.825900e-01 -1.222383e+00 -7.668722e-01 5.335350e+01 1.977473e+00 -8.162943e-01 -5.907001e-01 -1.346526e+00 -6.378373e-01 -6.037138e-01 -7.040696e-01 -2.667358e-01 -4.485815e-01 -4.400252e-01 -4.769145e-01 -3.497541e-01 2.838069e+00 4.367715e-01 3.223686e-01 1.730485e-02 -3.628189e-02 -2.087644e-01 1.336887e-03 -3.294416e-01 -1.372120e-01 -3.056551e-01 -1.630007e-01 -7.884842e-02 -1.018655e-01 -6.700653e-01
<VARIANCE> 39
 2.218334e+01 2.513069e+01 2.840149e+01 3.384483e+01 2.865257e+01 3.212236e+01 3.317536e+01 3.031670e+01 2.898363e+01 2.497044e+01 2.326529e+01 1.855273e+01 4.582407e+01 4.700915e+00 3.746133e+00 3.397141e+00 4.210891e+00 3.988789e+00 4.501285e+00 4.735527e+00 4.106388e+00 4.210263e+00 3.200260e+00 3.082488e+00 2.333971e+00 1.047740e+01 5.918511e-01 5.954411e-01 5.182405e-01 6.596573e-01 6.834882e-01 7.211271e-01 7.718354e-01 7.972881e-01 8.034384e-01 6.572713e-01 6.116885e-01 4.718278e-01 1.456781e+00
<GCONST> 1.285776e+02
<TRANSP> 5
 0.000000e+00 1.000000e+00 0.000000e+00 0.000000e+00 0.000000e+00
 0.000000e+00 5.393208e-01 4.606791e-01 0.000000e+00 0.000000e+00
 0.000000e+00 0.000000e+00 7.050827e-01 2.949173e-01 0.000000e+00
 0.000000e+00 0.000000e+00 0.000000e+00 7.544293e-01 2.455707e-01
 0.000000e+00 0.000000e+00 0.000000e+00 0.000000e+00 0.000000e+00
<ENDHMM>
~h "r"
<BEGINHMM>
<NUMSTATES> 5
<STATE> 2
<MEAN> 39
 2.234692e+00 -9.772119e+00 -1.464630e+01 -6.836620e+00 -4.112668e+00 -1.060520e+01 -1.616558e+01 -2.884000e-01 -1.836064e+00 -3.168498e+00 -1.117940e+00 3.250988e-01 5.651005e+01 1.106764e+00 -1.820993e-01 -9.210861e-01 1.266947e-01 3.309139e-01 -3.874524e-01 -1.232210e+00 1.987521e-01 5.421132e-01 -9.091044e-02 -1.752519e-01 8.937804e-02 2.288096e-01 -4.757117e-01 -2.183756e-01 5.044428e-01 6.100655e-02 -3.821365e-01 -5.982797e-03 4.282738e-01 2.722825e-01 -4.893526e-02 -6.729119e-03 -1.734311e-03 -8.034200e-02 5.567246e-02
<VARIANCE> 39
 1.829498e+01 3.462241e+01 6.734637e+01 4.410724e+01 5.603552e+01 7.191180e+01 8.604354e+01 9.226040e+01 7.924746e+01 4.464984e+01 4.008904e+01 3.561875e+01 2.892123e+01 3.714643e+00 2.579327e+00 3.593030e+00 2.744776e+00 3.943719e+00 4.958336e+00 6.250672e+00 4.979688e+00 4.316280e+00 3.641826e+00 2.843699e+00 2.392185e+00 2.093123e+00 4.216057e-01 4.193966e-01 4.341213e-01 4.123733e-01 4.896790e-01 6.502824e-01 8.791261e-01 8.050362e-01 6.258539e-01 5.475579e-01 4.664519e-01 4.192049e-01 2.856385e-01
<GCONST> 1.296774e+02
<STATE> 3
<MEAN> 39
 2.588245e+00 -1.439218e+01 -1.385906e+01 -5.369162e+00 -5.941862e+00 -1.410590e+01 -1.904567e+01 5.776285e+00 8.725464e-01 -4.163613e+00 -2.030129e+00 -1.069199e-01 5.984975e+01 -4.551236e-01 -5.403588e-01 1.495759e+00 5.342819e-01 -1.316793e+00 -7.264249e-01 8.393894e-01 9.862566e-01 -3.987336e-01 -6.105253e-01 -1.095443e-01 -4.589722e-02 1.698600e-01 -6.154798e-01 2.865825e-01 6.626543e-01 -1.722533e-01 -2.773593e-01 4.654170e-01 9.586167e-01 -3.695062e-01 -5.495702e-01 6.552096e-02 1.485546e-01 -1.152281e-01 -2.657011e-01
<VARIANCE> 39
 1.188926e+01 2.552983e+01 7.181115e+01 4.776049e+01 6.832256e+01 7.927695e+01 1.157062e+02 8.575286e+01 9.109227e+01 5.325582e+01 4.409002e+01 3.534892e+01 2.130005e+01 1.453662e+00 3.150665e+00 3.047397e+00 2.835465e+00 4.025534e+00 4.309483e+00 5.320222e+00 6.078333e+00 4.185990e+00 3.458248e+00 3.340559e+00 2.452298e+00 2.992649e+00 3.976577e-01 2.753923e-01 3.809789e-01 4.340049e-01 5.660132e-01 6.320296e-01 9.006639e-01 6.897231e-01 6.453899e-01 5.729442e-01 4.516398e-01 4.071196e-01 2.418837e-01
<GCONST> 1.284864e+02
<STATE> 4
<MEAN> 39
 -6.745016e-01 -1.398757e+01 -8.843363e+00 -4.533083e+00 -9.189701e+00 -1.469295e+01 -1.165318e+01 6.149535e+00 -3.107878e+00 -5.218170e+00 -2.311697e+00 -4.243626e-01 5.811013e+01 -1.494744e+00 6.431207e-01 2.243888e+00 -9.742869e-02 -1.064437e+00 9.030017e-01 2.113750e+00 -9.151108e-01 -1.281608e+00 1.239181e-01 9.966473e-02 -4.476281e-01 -8.604443e-01 -3.857122e-01 4.021364e-01 6.050333e-02 -3.317315e-01 2.630556e-01 5.991787e-01 1.222761e-01 -5.611435e-01 4.553891e-03 3.058400e-01 -1.441547e-02 -1.620633e-01 -2.709123e-01
<VARIANCE> 39
 1.822753e+01 3.597065e+01 7.114655e+01 5.973624e+01 8.247895e+01 9.662971e+01 1.075877e+02 8.104960e+01 1.001512e+02 6.013580e+01 5.261414e+01 3.807801e+01 4.763588e+01 1.982538e+00 4.219124e+00 3.674977e+00 4.676892e+00 5.391789e+00 4.340136e+00 5.927495e+00 5.754344e+00 4.791732e+00 3.908623e+00 3.764642e+00 2.980549e+00 5.266359e+00 4.293226e-01 4.256326e-01 4.209554e-01 5.599558e-01 7.114586e-01 9.661255e-01 1.002807e+00 8.939909e-01 7.438731e-01 6.569123e-01 6.074889e-01 5.017676e-01 3.509765e-01
<GCONST> 1.368233e+02
<TRANSP> 5
 0.000000e+00 1.000000e+00 0.000000e+00 0.000000e+00 0.000000e+00
 0.000000e+00 5.988420e-01 4.011581e-01 0.000000e+00 0.000000e+00
 0.000000e+00 0.000000e+00 4.790186e-01 5.209814e-01 0.000000e+00
 0.000000e+00 0.000000e+00 0.000000e+00 3.743627e-01 6.256373e-01
 0.000000e+00 0.000000e+00 0.000000e+00 0.000000e+00 0.000000e+00
<ENDHMM>
~h "s"
<BEGINHMM>
<NUMSTATES> 5
<STATE> 2
<MEAN> 39
 -2.180434e+01 -4.794006e-02 -5.335394e+00 -8.147768e+00 -2.475302e+00 -7.392995e+00 -2.094751e+00 -3.253945e-02 -2.322206e+00 -1.760180e+00 -2.939090e+00 -5.652906e-01 5.806061e+01 -4.628284e+00 1.460790e+00 -9.283898e-01 3.126407e-01 1.878538e+00 9.943661e-01 1.468441e+00 8.597671e-01 4.845689e-01 2.794285e-01 8.271400e-01 6.985406e-01 5.049984e-02 4.991780e-01 -5.089834e-01 -8.079893e-02 -1.610782e-01 -3.654449e-01 6.830616e-02 -3.451272e-01 2.324089e-02 -7.835245e-02 8.933590e-02 1.079073e-02 -8.301315e-02 -4.913484e-03
<VARIANCE> 39
 7.164004e+01 2.869317e+01 4.465424e+01 3.389566e+01 4.444229e+01 4.137531e+01 4.088493e+01 3.954617e+01 3.252987e+01 3.022245e+01 2.592397e+01 2.062480e+01 2.333465e+01 4.272305e+00 4.079461e+00 4.583243e+00 5.057545e+00 4.405329e+00 4.917240e+00 4.876086e+00 4.299015e+00 4.227316e+00 3.992850e+00 3.878037e+00 2.850489e+00 2.044278e+00 1.253836e+00 5.854792e-01 6.344665e-01 6.706870e-01 7.303808e-01 7.881494e-01 7.939885e-01 7.595353e-01 6.231516e-01 6.559595e-01 5.961942e-01 4.841092e-01 4.039907e-01
<GCONST> 1.306537e+02
<STATE> 3
<MEAN> 39
 -3.018909e+01 1.482212e+00 -9.359667e+00 -7.799032e+00 -4.749013e-02 -5.136061e+00 -1.708339e-01 1.565461e+00 -1.565384e+00 -2.877035e-01 -1.161524e+00 7.647840e-01 5.820137e+01 -1.041926e-01 -8.514299e-02 -2.135802e-02 -1.166232e-01 2.789710e-02 1.366764e-02 -6.355235e-02 5.089197e-02 5.552170e-02 6.039694e-02 4.431560e-04 -4.684357e-03 -2.220452e-02 6.699817e-01 -2.314471e-01 2.717020e-01 -2.939131e-02 -2.115009e-01 -1.532612e-01 -2.136605e-01 -1.315963e-01 -3.851372e-02 -6.773219e-02 -1.141000e-01 -1.097082e-01 -1.608233e-01
<VARIANCE> 39
 8.429555e+00 2.080331e+01 3.039179e+01 3.808257e+01 3.475767e+01 3.165832e+01 2.839500e+01 2.513196e+01 1.955289e+01 1.703104e+01 1.614141e+01 1.331210e+01 1.665229e+01 1.237248e+00 1.333856e+00 1.306992e+00 1.359241e+00 1.525315e+00 1.718939e+00 1.610194e+00 1.630584e+00 1.551226e+00 1.508750e+00 1.353758e+00 1.235937e+00 7.379395e-01 4.072620e-01 2.457058e-01 2.840225e-01 3.271921e-01 3.545059e-01 4.007358e-01 3.933266e-01 3.737115e-01 3.599275e-01 3.424428e-01 3.183073e-01 2.767650e-01 2.010552e-01
<GCONST> 1.008548e+02
<STATE> 4
<MEAN> 39
 -2.519730e+01 -1.975529e+00 -5.910340e+00 -9.069404e+00 -1.062551e+00 -5.916768e+00 -2.510378e+00 1.353035e+00 -1.063808e+00 -6.293162e-01 -1.945927e+00 -2.337223e-01 5.569026e+01 3.356660e+00 -1.185406e+00 1.009549e+00 1.494279e-01 -1.176927e+00 -2.049408e-01 -1.276131e+00 -7.577235e-01 -1.770275e-01 -8.740648e-02 -3.333071e-01 -5.601752e-01 -1.357744e+00 6.462637e-01 -1.742430e-01 -3.488169e-02 7.533056e-02 -3.463506e-01 6.128566e-02 -2.053723e-01 -1.666496e-01 -1.540496e-01 2.971984e-02 7.375751e-03 -8.859657e-02 -1.792512e-01
<VARIANCE> 39
 4.187683e+01 2.955284e+01 3.842822e+01 3.279863e+01 4.041312e+01 4.137304e+01 4.036744e+01 3.345047e+01 2.858041e+01 2.410682e+01 2.209041e+01 1.905672e+01 4.235726e+01 5.667331e+00 2.848784e+00 3.783740e+00 4.680191e+00 4.706434e+00 5.536996e+00 5.030011e+00 3.920655e+00 3.744909e+00 2.963482e+00 3.165993e+00 2.429846e+00 6.399179e+00 7.625533e-01 5.563778e-01 5.998265e-01 6.898198e-01 7.082438e-01 8.125036e-01 9.394428e-01 7.013041e-01 6.478754e-01 5.748589e-01 5.759033e-01 4.465947e-01 1.026517e+00
<GCONST> 1.300629e+02
<TRANSP> 5
 0.000000e+00 1.000000e+00 0.000000e+00 0.000000e+00 0.000000e+00
 0.000000e+00 6.387624e-01 3.612376e-01 0.000000e+00 0.000000e+00
 0.000000e+00 0.000000e+00 8.310707e-01 1.689293e-01 0.000000e+00
 0.000000e+00 0.000000e+00 0.000000e+00 6.532198e-01 3.467802e-01
 0.000000e+00 0.000000e+00 0.000000e+00 0.000000e+00 0.000000e+00
<ENDHMM>
~h "t"
<BEGINHMM>
<NUMSTATES> 5
<STATE> 2
<MEAN> 39
 -1.134482e+01 -3.555163e+00 -2.695636e+00 -5.330679e+00 -8.521323e+00 -7.325574e+00 -6.710649e+00 -3.483815e+00 -3.656353e+00 -1.865841e+00 -3.814409e+00 -2.680689e+00 4.679803e+01 -1.724777e+00 8.588111e-01 -5.841450e-02 1.471584e+00 1.501950e+00 1.024277e+00 8.549761e-01 -1.468106e-02 3.486196e-01 5.088880e-02 3.098128e-01 3.137527e-01 -3.022182e+00 -4.618037e-02 -5.704503e-01 -2.185646e-01 -5.463940e-01 -6.058206e-02 1.981811e-01 1.349610e-01 3.727053e-01 4.899263e-02 1.213401e-01 2.053805e-01 1.064867e-01 8.305382e-01
<VARIANCE> 39
 6.372786e+01 5.331621e+01 5.956941e+01 6.205356e+01 6.742080e+01 5.286121e+01 5.396302e+01 5.774860e+01 6.550341e+01 4.934138e+01 4.448593e+01 3.754247e+01 9.098867e+01 5.699299e+00 5.990500e+00 5.445616e+00 7.080454e+00 6.985557e+00 6.922741e+00 6.258957e+00 7.016766e+00 6.430949e+00 5.062418e+00 5.195110e+00 3.861863e+00 1.060837e+01 6.006095e-01 9.044608e-01 7.231036e-01 1.172866e+00 1.198996e+00 9.967548e-01 9.815677e-01 1.092830e+00 1.054097e+00 9.591228e-01 8.693312e-01 6.692985e-01 1.801198e+00
<GCONST> 1.474769e+02
<STATE> 3
<MEAN> 39
 -1.772380e+01 -4.455507e+00 -4.301430e+00 -3.738485e+00 -3.565805e+00 -1.997339e+00 -2.769009e+00 -8.144797e-01 -1.444113e+00 -1.056817e-01 -1.135467e+00 -7.865117e-01 4.057355e+01 -5.242499e-01 -1.111703e+00 -3.970701e-01 -1.014574e+00 -9.631165e-02 1.022044e-01 3.872664e-01 5.386267e-01 2.749696e-01 2.313892e-01 4.631991e-01 4.849683e-01 1.740137e+00 4.169310e-01 -1.346832e-01 6.545811e-02 -6.424838e-01 -5.729225e-01 -5.799717e-01 -2.622209e-01 -1.700995e-02 -2.308699e-01 -1.284964e-01 -1.537920e-01 -5.764236e-02 1.603592e+00
<VARIANCE> 39
 4.869214e+01 3.783232e+01 3.018781e+01 3.828159e+01 3.983700e+01 3.501072e+01 3.319832e+01 2.930459e+01 2.978525e+01 2.599143e+01 2.302320e+01 1.941083e+01 1.128994e+02 4.181290e+00 4.063018e+00 3.633162e+00 5.810563e+00 4.265455e+00 4.458014e+00 4.039106e+00 4.485126e+00 4.130849e+00 3.481841e+00 3.174114e+00 2.582429e+00 1.490109e+01 6.898841e-01 8.350571e-01 7.334751e-01 9.824404e-01 9.274387e-01 8.589418e-01 7.772180e-01 8.656147e-01 7.650320e-01 6.707762e-01 6.537058e-01 4.922203e-01 2.180440e+00
<GCONST> 1.345207e+02
<STATE> 4
<MEAN> 39
 -1.771093e+01 -7.591522e+00 -4.560164e+00 -9.432282e+00 -6.830467e+00 -6.259688e+00 -2.282163e+00 1.944338e-01 -2.053184e+00 -1.054217e+00 -1.631353e+00 1.486484e-01 5.556067e+01 1.359872e+00 -2.755464e-01 2.605415e-01 -3.538780e-01 -8.851708e-01 -9.515048e-01 -5.263742e-01 1.157788e-01 -3.613882e-01 -3.781261e-01 -4.292471e-01 -1.833884e-01 1.583116e+00 6.104446e-01 6.045713e-02 7.407652e-02 2.317981e-01 -1.026073e-01 4.376699e-02 -3.291540e-01 -9.596217e-02 -1.284354e-01 -2.784005e-02 -8.280200e-02 -2.012793e-01 -5.736256e-01
<VARIANCE> 39
 6.197313e+01 3.850173e+01 4.142842e+01 4.265541e+01 4.427243e+01 3.845859e+01 4.654351e+01 3.861492e+01 3.565253e+01 3.044667e+01 2.860793e+01 2.338371e+01 6.912885e+01 6.688145e+00 3.091888e+00 3.714432e+00 4.955999e+00 4.556263e+00 4.702601e+00 5.077126e+00 4.256022e+00 3.948553e+00 3.397685e+00 3.388622e+00 2.699703e+00 1.042362e+01 7.904217e-01 7.058308e-01 7.028772e-01 1.009631e+00 8.057478e-01 8.172662e-01 8.811488e-01 8.163682e-01 7.292408e-01 6.620743e-01 6.722054e-01 5.328293e-01 1.699753e+00
<GCONST> 1.359328e+02
<TRANSP> 5
 0.000000e+00 1.000000e+00 0.000000e+00 0.000000e+00 0.000000e+00
 0.000000e+00 4.393893e-01 5.606107e-01 0.000000e+00 0.000000e+00
 0.000000e+00 0.000000e+00 5.093014e-01 4.906986e-01 0.000000e+00
 0.000000e+00 0.000000e+00 0.000000e+00 6.158095e-01 3.841905e-01
 0.000000e+00 0.000000e+00 0.000000e+00 0.000000e+00 0.000000e+00
<ENDHMM>
~h "v"
<BEGINHMM>
<NUMSTATES> 5
<STATE> 2
<MEAN> 39
 -3.101133e+00 -6.224888e+00 -8.012330e+00 -8.651647e+00 -7.119667e+00 -7.421719e+00 -1.134922e+01 -5.478979e+00 -3.595407e+00 -4.905682e-01 -1.033553e+00 -3.154245e+00 5.508413e+01 -1.804739e+00 2.373271e+00 -4.596806e-02 1.459771e+00 1.574791e+00 7.745759e-01 8.671792e-01 -1.244190e+00 -7.288689e-01 -5.543611e-01 -1.347313e-01 2.484657e-01 -2.293585e+00 -6.157694e-01 -1.523116e-01 3.560248e-01 -3.184301e-02 -1.544247e-01 1.182786e-01 3.783655e-01 4.498703e-01 6.645619e-02 -1.458524e-01 -2.606507e-01 7.579640e-03 1.914178e-01
<VARIANCE> 39
 2.679194e+01 2.239931e+01 3.654450e+01 3.911267e+01 2.625662e+01 4.565392e+01 4.173763e+01 3.687367e+01 3.573758e+01 3.627779e+01 4.121887e+01 3.008030e+01 2.614179e+01 2.893600e+00 2.645721e+00 3.534088e+00 4.067327e+00 3.540054e+00 4.231147e+00 5.171906e+00 5.267115e+00 4.235620e+00 3.834625e+00 3.576016e+00 2.842066e+00 2.342079e+00 3.951966e-01 3.387642e-01 3.450757e-01 4.182689e-01 4.698019e-01 4.597227e-01 5.504640e-01 5.380996e-01 5.125299e-01 4.975565e-01 4.678672e-01 4.336636e-01 2.719691e-01
<GCONST> 1.230313e+02
<STATE> 3
<MEAN> 39
 -8.530274e+00 -1.444849e+00 -6.074638e+00 -5.686882e+00 -4.781194e+00 -5.530523e+00 -8.518684e+00 -6.928696e+00 -6.011742e+00 -2.709381e+00 -2.847353e+00 -2.950647e+00 5.047876e+01 -2.386301e+00 9.863917e-01 5.923193e-01 1.147276e+00 9.108059e-01 6.639780e-01 1.140267e+00 1.994890e-01 -1.480075e-01 -5.518547e-01 -4.694934e-01 1.091322e-01 -1.144875e+00 3.050988e-01 -8.927601e-01 -5.004126e-02 -5.320873e-01 -5.036998e-01 -2.368481e-01 -1.185383e-01 5.870150e-01 3.733299e-01 2.543108e-01 6.840304e-02 1.499476e-02 8.489130e-01
<VARIANCE> 39
 3.183695e+01 1.902338e+01 2.742417e+01 2.910042e+01 2.073000e+01 3.172459e+01 2.807460e+01 2.582909e+01 2.656140e+01 2.696888e+01 2.905940e+01 2.202716e+01 3.416638e+01 4.001115e+00 2.221317e+00 2.472263e+00 3.163011e+00 2.477235e+00 3.432179e+00 3.413759e+00 3.155084e+00 2.747721e+00 2.790572e+00 2.661182e+00 2.020955e+00 2.293444e+00 4.929999e-01 4.065443e-01 5.514704e-01 5.454913e-01 5.447815e-01 5.924086e-01 7.662919e-01 6.966843e-01 6.239335e-01 5.865641e-01 5.142480e-01 4.322377e-01 4.499395e-01
<GCONST> 1.198409e+02
<STATE> 4
<MEAN> 39
 -1.381132e+01 -3.699720e+00 -6.429262e+00 -5.422286e+00 -4.434727e+00 -4.777011e+00 -5.385030e+00 -3.349890e+00 -3.629147e+00 -2.252441e+00 -2.987427e+00 -1.988304e+00 5.095754e+01 5.560818e-01 -9.332764e-01 -3.776461e-01 -8.453997e-01 -5.936805e-01 -4.585440e-01 -8.108248e-02 6.192133e-01 4.544972e-01 3.298092e-01 2.148494e-01 1.250946e-01 1.081277e+00 9.544210e-01 -4.055339e-01 -1.003528e-01 -5.150813e-01 -4.115048e-01 -2.515286e-01 -3.961623e-01 8.383150e-02 -5.105855e-04 1.172351e-01 9.990561e-02 -4.912044e-02 4.671585e-01
<VARIANCE> 39
 5.591096e+01 2.410901e+01 2.865740e+01 2.943945e+01 2.243676e+01 2.943099e+01 3.238627e+01 2.843801e+01 2.621273e+01 2.333192e+01 2.227187e+01 1.879220e+01 4.353863e+01 7.927320e+00 2.927883e+00 2.947118e+00 4.036829e+00 3.395333e+00 3.892427e+00 4.289664e+00 3.394719e+00 3.110752e+00 2.534793e+00 2.494806e+00 2.027628e+00 4.777300e+00 8.957604e-01 6.787021e-01 6.374640e-01 8.018404e-01 6.533325e-01 7.969084e-01 8.391141e-01 7.853116e-01 7.065055e-01 5.939500e-01 5.717824e-01 4.357862e-01 7.307250e-01
<GCONST> 1.264864e+02
<TRANSP> 5
 0.000000e+00 1.000000e+00 0.000000e+00 0.000000e+00 0.000000e+00
 0.000000e+00 3.434080e-01 6.565920e-01 0.000000e+00 0.000000e+00
 0.000000e+00 0.000000e+00 4.172096e-01 5.827904e-01 0.000000e+00
 0.000000e+00 0.000000e+00 0.000000e+00 6.143690e-01 3.856310e-01
 0.000000e+00 0.000000e+00 0.000000e+00 0.000000e+00 0.000000e+00
<ENDHMM>
~h "w"
<BEGINHMM>
<NUMSTATES> 5
<STATE> 2
<MEAN> 39
 -5.235026e+00 -4.030737e+00 -9.625783e+00 -1.116029e+01 -6.391968e+00 -2.156577e+00 -6.919102e+00 -5.143685e+00 -8.173879e+00 -1.487098e+00 -6.981963e-01 -1.760433e+00 4.922214e+01 2.556950e+00 1.902072e+00 -4.418028e-01 -2.181304e+00 -1.540005e+00 8.630617e-01 7.573419e-01 -4.268533e-01 -1.383728e+00 -9.272134e-01 1.696146e-02 2.251267e-01 -3.643486e-01 -1.254934e-01 -1.671661e-01 3.835982e-01 -2.795012e-01 -6.238967e-01 -2.835689e-01 3.539111e-02 4.636740e-01 2.183269e-01 -6.204849e-02 -1.225671e-01 -4.920465e-02 5.815815e-01
<VARIANCE> 39
 5.458134e+01 4.763345e+01 2.738313e+01 5.096750e+01 4.400657e+01 3.696329e+01 4.973964e+01 3.966552e+01 5.916929e+01 3.825947e+01 3.936191e+01 2.593837e+01 4.112877e+01 5.142128e+00 3.400988e+00 4.281501e+00 5.033892e+00 5.529487e+00 5.082737e+00 6.207630e+00 5.041725e+00 4.843982e+00 4.151648e+00 3.524105e+00 2.856854e+00 5.346479e+00 5.630645e-01 9.014465e-01 6.403501e-01 8.186669e-01 9.887362e-01 7.813125e-01 1.050678e+00 8.255456e-01 8.967592e-01 9.133329e-01 6.240206e-01 5.269420e-01 4.929471e-01
<GCONST> 1.360882e+02
<STATE> 3
<MEAN> 39
 2.449587e+00 1.002843e+00 -8.803034e+00 -2.123857e+01 -1.722644e+01 -1.501647e+00 -4.331010e+00 -2.378174e+00 -8.501331e+00 -4.712080e+00 -1.667533e+00 -2.273927e+00 5.219623e+01 5.105238e-01 -6.607317e-01 -3.145773e-01 -1.459431e+00 -7.173584e-01 6.927961e-01 1.411935e-01 2.119399e-01 2.836185e-01 2.560164e-01 3.881520e-01 1.528797e-01 1.135894e+00 -3.693064e-01 -6.158702e-01 -1.074761e-01 3.751037e-01 6.042379e-01 9.553611e-02 -2.294175e-01 -1.075819e-01 1.480704e-01 3.378417e-01 2.052757e-01 1.459421e-02 2.347934e-01
<VARIANCE> 39
 6.884994e+00 2.408683e+01 2.915633e+01 4.890480e+01 4.850034e+01 4.589769e+01 4.004553e+01 4.407964e+01 5.542403e+01 3.947895e+01 3.865712e+01 2.792561e+01 1.819669e+01 1.253653e+00 2.483184e+00 1.813567e+00 3.074070e+00 3.990594e+00 3.455673e+00 3.530897e+00 3.140181e+00 3.627113e+00 3.331215e+00 3.153587e+00 2.327291e+00 2.102768e+00 3.384598e-01 2.795232e-01 2.920385e-01 5.203252e-01 5.303707e-01 5.797114e-01 6.188619e-01 5.664420e-01 7.238643e-01 5.777019e-01 4.821541e-01 4.468109e-01 1.783288e-01
<GCONST> 1.193221e+02
<STATE> 4
<MEAN> 39
 1.700614e+00 -7.730432e+00 -1.168494e+01 -2.148968e+01 -1.139135e+01 1.980646e+00 -8.490135e+00 -4.748371e+00 -8.434425e+00 1.053602e+00 2.340757e+00 -1.854938e+00 5.902106e+01 -4.556239e-01 -2.193021e+00 -4.530016e-02 1.051740e+00 1.232623e+00 -7.697212e-01 -1.471281e+00 2.998654e-01 1.423165e+00 1.326974e+00 -1.701259e-02 -8.692442e-01 1.647289e+00 -3.587476e-01 1.678740e-01 3.563611e-01 6.139324e-01 -6.580123e-02 -6.716903e-01 1.750882e-01 4.673256e-01 4.061953e-01 -3.646380e-01 -5.830521e-01 -1.931429e-01 -3.096190e-01
<VARIANCE> 39
 8.439152e+00 2.837120e+01 4.283873e+01 7.479748e+01 6.355777e+01 7.628975e+01 8.792429e+01 6.198361e+01 6.885185e+01 8.356970e+01 7.675718e+01 4.311640e+01 1.840548e+01 6.173685e-01 1.507839e+00 2.488956e+00 3.590246e+00 3.565412e+00 6.012517e+00 5.019011e+00 4.876065e+00 4.308188e+00 4.364725e+00 4.814421e+00 3.212662e+00 1.004794e+00 2.714483e-01 2.819346e-01 3.546364e-01 5.604979e-01 7.647144e-01 6.872963e-01 9.908225e-01 7.832263e-01 8.917971e-01 1.054352e+00 7.233133e-01 7.265128e-01 1.604343e-01
<GCONST> 1.284337e+02
<TRANSP> 5
 0.000000e+00 1.000000e+00 0.000000e+00 0.000000e+00 0.000000e+00
 0.000000e+00 6.305951e-01 3.694049e-01 0.000000e+00 0.000000e+00
 0.000000e+00 0.000000e+00 7.521904e-01 2.478097e-01 0.000000e+00
 0.000000e+00 0.000000e+00 0.000000e+00 5.785320e-01 4.214680e-01
 0.000000e+00 0.000000e+00 0.000000e+00 0.000000e+00 0.000000e+00
<ENDHMM>
~h "y"
<BEGINHMM>
<NUMSTATES> 5
<STATE> 2
<MEAN> 39
 -1.121244e+01 -2.175435e+00 1.195604e+01 -1.237735e+01 -1.482185e+01 -7.031107e+00 -1.018009e+01 -5.577967e+00 -1.168813e+01 -3.897416e+00 -3.751740e+00 -2.557205e+00 5.523713e+01 4.839961e-01 1.544728e-02 1.423008e+00 -1.715725e-01 -1.209039e+00 -1.766078e-01 -3.205350e-01 -2.215769e-01 -1.027756e+00 -2.858131e-01 3.003918e-01 -9.854875e-02 4.169103e-01 2.154857e-01 -3.186604e-01 -6.787564e-01 7.485728e-02 2.186877e-01 -1.355972e-01 -1.152994e-02 2.631235e-01 3.086047e-01 1.685739e-01 9.590463e-02 2.374796e-02 5.519229e-02
<VARIANCE> 39
 2.255854e+01 4.121052e+01 3.621400e+01 7.690603e+01 4.577439e+01 4.980525e+01 4.417914e+01 5.983662e+01 4.239341e+01 4.901008e+01 5.292418e+01 3.010696e+01 2.945087e+01 4.448014e+00 3.224531e+00 4.221784e+00 3.204357e+00 5.244862e+00 6.155900e+00 3.994364e+00 3.919158e+00 4.496747e+00 3.954367e+00 2.641231e+00 2.077859e+00 2.743311e+00 4.068152e-01 3.145503e-01 4.919540e-01 6.475748e-01 8.973032e-01 8.422883e-01 7.015768e-01 7.875544e-01 6.799996e-01 6.161383e-01 4.493924e-01 3.990062e-01 2.904235e-01
<GCONST> 1.296363e+02
<STATE> 3
<MEAN> 39
 -8.222304e+00 -6.666658e+00 1.302713e+01 -1.072385e+01 -2.040098e+01 -8.942760e+00 -9.293771e+00 -4.208335e+00 -1.305811e+01 -3.242910e+00 -2.464809e-01 -2.448695e+00 5.851225e+01 7.601711e-01 -9.214061e-01 -7.756914e-01 6.167427e-01 -4.515339e-01 -1.259718e+00 1.930948e-01 8.652199e-01 -1.438666e-01 -1.768216e-02 6.224948e-01 2.116482e-01 4.610874e-01 3.742967e-02 -2.976555e-02 -3.843482e-01 8.095746e-02 3.469310e-01 -1.144840e-01 -1.065313e-01 2.359487e-01 2.447315e-01 -8.917660e-02 -3.966480e-02 8.752490e-02 -9.560005e-02
<VARIANCE> 39
 1.120698e+01 2.928154e+01 4.062270e+01 7.617529e+01 3.224174e+01 5.074543e+01 4.881421e+01 5.639507e+01 4.466658e+01 6.967370e+01 5.136377e+01 2.922424e+01 1.750346e+01 1.419462e+00 9.864210e-01 1.456637e+00 1.310778e+00 1.487580e+00 2.640808e+00 2.621981e+00 2.659179e+00 1.786223e+00 1.889233e+00 1.413990e+00 1.238185e+00 4.973828e-01 1.270707e-01 1.274778e-01 2.430044e-01 2.035080e-01 3.724780e-01 3.229089e-01 3.673513e-01 2.830084e-01 3.759076e-01 3.098438e-01 2.475959e-01 2.052250e-01 7.995270e-02
<GCONST> 1.052522e+02
<STATE> 4
<MEAN> 39
 -2.938813e+00 -1.274655e+01 1.995644e+00 -4.762082e+00 -1.651847e+01 -1.824411e+01 -1.080279e+01 6.161784e+00 -8.548149e+00 -6.442051e+00 2.293603e+00 1.051887e+00 5.950824e+01 9.684371e-01 -5.197906e-01 -2.187629e+00 4.975809e-01 1.418598e+00 -8.553271e-01 -1.257602e+00 1.272464e+00 1.516579e+00 -4.288587e-01 -4.805273e-01 4.352295e-01 -6.989306e-02 -1.563063e-01 2.375702e-01 -6.866165e-02 -1.930441e-01 2.990338e-01 5.023743e-01 -9.408925e-02 -3.894807e-01 2.600169e-01 1.943227e-01 -2.810681e-01 -1.671263e-01 -1.726846e-01
<VARIANCE> 39
 1.507997e+01 2.676014e+01 7.209328e+01 5.016607e+01 5.096407e+01 6.265896e+01 8.194752e+01 6.262778e+01 7.583325e+01 5.744454e+01 3.887136e+01 3.311882e+01 1.906332e+01 1.152166e+00 1.237033e+00 1.871028e+00 1.421631e+00 1.912557e+00 2.625295e+00 3.054957e+00 3.045314e+00 2.791662e+00 2.401111e+00 1.874451e+00 1.591245e+00 5.335984e-01 1.560026e-01 1.421483e-01 2.879583e-01 2.477923e-01 3.992679e-01 4.321514e-01 4.191198e-01 3.757085e-01 4.701449e-01 3.969187e-01 3.001432e-01 2.501369e-01 7.685952e-02
<GCONST> 1.116261e+02
<TRANSP> 5
 0.000000e+00 1.000000e+00 0.000000e+00 0.000000e+00 0.000000e+00
 0.000000e+00 7.192495e-01 2.807505e-01 0.000000e+00 0.000000e+00
 0.000000e+00 0.000000e+00 7.719178e-01 2.280823e-01 0.000000e+00
 0.000000e+00 0.000000e+00 0.000000e+00 6.763019e-01 3.236981e-01
 0.000000e+00 0.000000e+00 0.000000e+00 0.000000e+00 0.000000e+00
<ENDHMM>
~h "z"
<BEGINHMM>
<NUMSTATES> 5
<STATE> 2
<MEAN> 39
 -1.640817e+01 2.998980e+00 -2.835958e+00 -8.601833e+00 -4.149146e+00 -1.127682e+01 -7.953876e+00 -4.164169e+00 -3.780992e+00 -2.685528e+00 -4.417872e+00 -1.167017e+00 5.677369e+01 -4.525275e+00 1.911055e+00 -7.046847e-01 4.287572e-01 2.425428e+00 1.156851e+00 1.597494e+00 8.442829e-01 5.272497e-01 4.950181e-02 4.998965e-01 3.152384e-01 -2.680620e-01 2.962911e-02 -7.134008e-01 -1.334973e-01 -9.375647e-02 -2.400572e-01 4.107170e-01 1.989844e-01 4.052996e-01 4.272823e-02 1.882844e-01 1.647481e-01 2.432191e-03 5.662914e-02
<VARIANCE> 39
 5.372398e+01 3.502516e+01 4.500876e+01 4.275456e+01 5.383363e+01 5.194216e+01 4.701924e+01 3.790915e+01 3.471930e+01 3.673391e+01 2.613991e+01 2.427887e+01 2.488104e+01 3.110218e+00 4.736684e+00 3.708513e+00 5.563400e+00 3.831653e+00 5.773609e+00 4.677193e+00 4.796742e+00 3.949808e+00 3.774150e+00 3.489248e+00 3.203664e+00 1.514993e+00 1.064584e+00 7.060044e-01 5.198526e-01 6.500227e-01 7.878797e-01 8.114961e-01 7.465343e-01 7.086679e-01 5.814611e-01 6.400779e-01 5.143151e-01 4.969319e-01 1.902376e-01
<GCONST> 1.300082e+02
<STATE> 3
<MEAN> 39
 -2.878650e+01 1.959999e+00 -7.452418e+00 -8.600986e+00 6.243435e-01 -5.553484e+00 -1.363633e+00 1.160408e+00 -1.531873e+00 -7.563715e-01 -1.748069e+00 1.331273e-01 5.590019e+01 -3.272131e-01 -6.515976e-01 -3.173670e-01 -2.353100e-01 -4.402860e-02 1.758250e-01 2.078985e-01 3.655861e-01 2.568954e-01 2.000757e-01 1.634494e-01 5.234049e-02 1.015263e-01 1.097619e+00 -2.828215e-01 2.530004e-01 -5.123875e-02 -4.489132e-01 -3.430564e-01 -4.657219e-01 -3.183192e-01 -1.130142e-01 -7.194787e-02 -1.550630e-01 -1.186680e-01 -1.088053e-01
<VARIANCE> 39
 1.414905e+01 2.655300e+01 4.409291e+01 4.227214e+01 3.802503e+01 3.490971e+01 3.791327e+01 2.950105e+01 2.120955e+01 1.980353e+01 1.830727e+01 1.471237e+01 1.634060e+01 4.012922e+00 1.581065e+00 1.916681e+00 1.706930e+00 2.131084e+00 2.943863e+00 2.676465e+00 2.311298e+00 2.071977e+00 1.914687e+00 1.691685e+00 1.484313e+00 8.811079e-01 6.867703e-01 3.941999e-01 3.797336e-01 4.780520e-01 5.281591e-01 6.135979e-01 5.739307e-01 5.145136e-01 4.491923e-01 4.161880e-01 3.937657e-01 3.476045e-01 2.507145e-01
<GCONST> 1.122323e+02
<STATE> 4
<MEAN> 39
 -2.039566e+01 -2.840382e+00 -5.847320e+00 -8.923363e+00 -2.314416e+00 -6.394747e+00 -4.689271e+00 -1.732381e-01 -1.014387e+00 -7.608916e-01 -2.467885e+00 -8.671392e-01 5.156256e+01 2.730151e+00 -1.151785e+00 1.108172e-01 2.703522e-01 -9.466909e-01 -5.296047e-03 -6.521779e-01 -5.725371e-01 -1.390400e-01 6.747610e-02 -2.066559e-01 -2.998172e-01 -1.272439e+00 2.318178e-01 9.547128e-03 -5.646570e-02 6.103691e-02 -1.149129e-01 9.835132e-02 2.223465e-02 -5.176139e-02 -1.359822e-01 -8.715533e-03 2.344849e-03 -2.158382e-02 -4.916509e-02
<VARIANCE> 39
 4.964032e+01 3.911870e+01 4.105084e+01 3.668558e+01 4.420337e+01 5.368632e+01 4.979384e+01 3.805482e+01 3.313780e+01 3.209103e+01 2.659101e+01 2.227804e+01 7.673907e+01 5.998609e+00 3.647160e+00 3.483131e+00 4.565624e+00 4.842700e+00 5.479684e+00 5.406131e+00 4.243637e+00 3.695855e+00 3.285010e+00 3.107770e+00 2.540949e+00 6.339155e+00 9.689819e-01 6.101655e-01 5.283104e-01 6.774397e-01 7.295977e-01 8.902103e-01 8.497656e-01 7.708153e-01 6.870809e-01 6.127284e-01 5.465949e-01 4.665660e-01 9.462329e-01
<GCONST> 1.335572e+02
<TRANSP> 5
 0.000000e+00 1.000000e+00 0.000000e+00 0.000000e+00 0.000000e+00
 0.000000e+00 6.746369e-01 3.253631e-01 0.000000e+00 0.000000e+00
 0.000000e+00 0.000000e+00 7.858201e-01 2.141799e-01 0.000000e+00
 0.000000e+00 0.000000e+00 0.000000e+00 6.952978e-01 3.047023e-01
 0.000000e+00 0.000000e+00 0.000000e+00 0.000000e+00 0.000000e+00
<ENDHMM>
~h "aa"
<BEGINHMM>
<NUMSTATES> 5
<STATE> 2
<MEAN> 39
 -9.647455e-01 -1.202201e+01 -1.308262e+01 -1.795098e+01 -9.280526e+00 -7.421163e-01 -6.346914e+00 -6.461756e-01 -2.900657e+00 -7.062328e-01 -1.510220e+00 -4.599264e+00 6.159549e+01 1.293869e+00 -1.150098e+00 -1.252358e+00 -1.382136e+00 2.492901e-01 1.324607e+00 1.638533e-01 -4.859622e-02 -2.967985e-02 -8.680402e-02 2.030639e-01 -4.279513e-01 1.147696e+00 -5.573906e-01 2.059793e-01 1.785962e-01 4.438042e-01 3.421066e-01 -3.665043e-02 1.603526e-01 -8.678066e-02 -1.354703e-02 -8.502511e-02 7.458475e-03 2.226533e-01 -3.847297e-01
<VARIANCE> 39
 2.001818e+01 4.861424e+01 4.431425e+01 7.081740e+01 6.985107e+01 8.864545e+01 8.725807e+01 7.272678e+01 7.156405e+01 6.063825e+01 7.273509e+01 4.398034e+01 4.113028e+01 3.559731e+00 2.736385e+00 3.151007e+00 4.616211e+00 5.078197e+00 4.748197e+00 5.476256e+00 5.103630e+00 4.561306e+00 3.989820e+00 3.975999e+00 3.614470e+00 2.357755e+00 5.391946e-01 4.393641e-01 4.139474e-01 6.482464e-01 7.107876e-01 8.252289e-01 9.684004e-01 8.569899e-01 8.179176e-01 6.908072e-01 7.169654e-01 5.562226e-01 4.425587e-01
<GCONST> 1.363687e+02
<STATE> 3
<MEAN> 39
 3.906411e-01 -1.360846e+01 -1.609389e+01 -2.109274e+01 -6.660542e+00 3.978697e+00 -3.755567e+00 -2.502286e+00 -2.633071e+00 -2.267322e+00 -9.057804e-01 -4.256428e+00 6.327293e+01 1.364940e-02 -1.954320e-01 -2.171354e-01 2.783808e-01 4.077797e-01 -1.833983e-01 -2.017321e-01 4.133167e-02 1.831732e-01 -4.993617e-02 -5.817154e-02 -6.441157e-02 8.718160e-02 -3.845031e-02 1.179470e-01 1.185914e-01 1.872533e-01 -9.181751e-02 -2.925419e-01 -1.570764e-01 9.304070e-02 2.854577e-02 3.818505e-02 -6.053027e-02 2.528788e-03 -1.170546e-01
<VARIANCE> 39
 1.215726e+01 4.627746e+01 3.668578e+01 7.704092e+01 7.772468e+01 8.455741e+01 8.574127e+01 7.478296e+01 6.959248e+01 5.848334e+01 6.513992e+01 4.655120e+01 2.368441e+01 2.672136e-01 8.697882e-01 8.680983e-01 1.618402e+00 1.516849e+00 1.897071e+00 1.934753e+00 1.733303e+00 1.561724e+00 1.550147e+00 1.462416e+00 1.433515e+00 3.052756e-01 5.825679e-02 1.145584e-01 1.343707e-01 1.913403e-01 2.353728e-01 2.451909e-01 2.960249e-01 2.774078e-01 2.686932e-01 2.590518e-01 2.477719e-01 2.343839e-01 5.211960e-02
<GCONST> 1.021044e+02
<STATE> 4
<MEAN> 39
 -3.188472e-01 -1.507348e+01 -1.546009e+01 -1.631045e+01 -6.111899e+00 -1.303479e+00 -6.770730e+00 -1.903417e-01 -1.428810e+00 -1.158662e+00 -2.385178e+00 -5.993290e+00 6.343289e+01 -2.773998e-01 8.918331e-01 8.049412e-01 1.619586e+00 -2.633959e-01 -1.823399e+00 -7.727463e-01 5.808846e-01 1.969415e-01 2.238747e-02 -4.992355e-01 3.614390e-01 -1.150401e+00 -3.481359e-01 4.795793e-01 4.355005e-01 3.446874e-01 3.028421e-03 -8.098916e-02 8.138666e-02 -1.824281e-01 -1.309824e-01 -5.681694e-02 -1.094555e-02 2.602218e-01 -5.394163e-01
<VARIANCE> 39
 1.461280e+01 3.892905e+01 4.022359e+01 6.193624e+01 5.804133e+01 8.899545e+01 8.923991e+01 7.998596e+01 7.558430e+01 6.212288e+01 7.924321e+01 5.163948e+01 2.488088e+01 9.824437e-01 2.836239e+00 2.635702e+00 3.555403e+00 3.901989e+00 3.401158e+00 4.590870e+00 4.159581e+00 4.047537e+00 3.710234e+00 3.368633e+00 3.204393e+00 2.115862e+00 3.817062e-01 3.287295e-01 3.281440e-01 5.080848e-01 5.612425e-01 6.653931e-01 7.704911e-01 7.230173e-01 6.567636e-01 6.398440e-01 6.463154e-01 5.671337e-01 3.165368e-01
<GCONST> 1.294268e+02
<TRANSP> 5
 0.000000e+00 1.000000e+00 0.000000e+00 0.000000e+00 0.000000e+00
 0.000000e+00 6.536549e-01 3.463451e-01 0.000000e+00 0.000000e+00
 0.000000e+00 0.000000e+00 8.509014e-01 1.490986e-01 0.000000e+00
 0.000000e+00 0.000000e+00 0.000000e+00 5.892046e-01 4.107954e-01
 0.000000e+00 0.000000e+00 0.000000e+00 0.000000e+00 0.000000e+00
<ENDHMM>
~h "ae"
<BEGINHMM>
<NUMSTATES> 5
<STATE> 2
<MEAN> 39
 -4.769000e+00 -1.535688e+01 -3.025299e+00 -1.360519e+01 -1.593036e+01 -9.484163e+00 -4.404246e+00 5.213912e+00 -3.620699e+00 -2.478024e+00 -4.038746e+00 -3.661557e+00 6.490483e+01 3.148418e-01 -1.279997e+00 -2.878889e-01 -4.634103e-01 -1.303928e-01 2.202052e-01 3.009796e-01 1.002761e+00 2.252753e-01 -4.683665e-01 -2.165206e-01 -1.481139e-01 9.799776e-01 -3.071529e-01 4.225046e-01 -1.323129e-01 3.128533e-01 4.687855e-01 1.919067e-01 6.497805e-02 -3.289700e-01 1.221074e-02 6.372326e-03 6.452610e-03 1.172500e-01 -4.885620e-01
<VARIANCE> 39
 1.663265e+01 3.335658e+01 5.255160e+01 5.595959e+01 5.200378e+01 6.339507e+01 8.357045e+01 7.089308e+01 8.152245e+01 4.940970e+01 5.575830e+01 3.780517e+01 2.540477e+01 1.301298e+00 1.835299e+00 2.249664e+00 2.244889e+00 2.666803e+00 2.915600e+00 4.065014e+00 3.418838e+00 2.887465e+00 2.421218e+00 2.338432e+00 1.955643e+00 1.283987e+00 3.272824e-01 3.089808e-01 3.114811e-01 3.701547e-01 4.551117e-01 4.916102e-01 6.278062e-01 5.529085e-01 5.280258e-01 4.790908e-01 4.580864e-01 3.582621e-01 2.506987e-01
<GCONST> 1.212746e+02
<STATE> 3
<MEAN> 39
 -4.413476e+00 -1.706634e+01 -6.584606e+00 -1.265709e+01 -1.304016e+01 -7.761160e+00 -1.928369e+00 5.187968e+00 -2.047131e+00 -4.987806e+00 -5.677073e+00 -3.649809e+00 6.557597e+01 5.176994e-02 4.049811e-02 -2.440940e-01 9.555505e-02 2.713950e-01 -9.123214e-03 -8.130259e-02 -2.117638e-02 5.917257e-02 -9.315886e-02 -1.108883e-01 2.516232e-02 -1.145814e-01 9.610841e-03 2.101597e-01 3.795849e-02 6.976602e-02 3.825653e-03 -1.010461e-01 -1.484292e-01 -1.190806e-01 -4.666794e-02 1.203262e-01 5.460423e-02 1.096039e-03 -1.872689e-01
<VARIANCE> 39
 1.523645e+01 3.065316e+01 4.842921e+01 4.625957e+01 5.510265e+01 6.593417e+01 7.817467e+01 6.675031e+01 8.762799e+01 4.450383e+01 4.620455e+01 4.247353e+01 2.491967e+01 2.882659e-01 6.148471e-01 1.101796e+00 8.733462e-01 1.320232e+00 1.295149e+00 1.570618e+00 1.425996e+00 1.374157e+00 1.260801e+00 1.208380e+00 1.004885e+00 2.445282e-01 5.661647e-02 1.328380e-01 1.500280e-01 1.626269e-01 2.065595e-01 2.132621e-01 2.528907e-01 2.729689e-01 2.457711e-01 2.169704e-01 2.090702e-01 1.821467e-01 7.652166e-02
<GCONST> 9.710297e+01
<STATE> 4
<MEAN> 39
 -4.231592e+00 -1.465538e+01 -5.727633e+00 -1.246655e+01 -1.307105e+01 -9.825277e+00 -4.941176e+00 4.605189e+00 -2.428652e+00 -3.373181e+00 -5.265991e+00 -3.668031e+00 6.358642e+01 -2.751395e-01 2.103486e+00 4.518073e-01 1.136632e+00 5.406606e-01 -4.381885e-01 -7.430988e-01 -1.044520e+00 -5.532867e-01 4.261909e-01 3.141106e-01 1.241848e-01 -2.235379e+00 -4.637876e-01 6.548787e-01 1.574863e-01 4.817094e-01 3.653963e-01 2.555940e-01 2.022546e-01 -4.610325e-01 -2.070926e-01 5.851636e-03 7.830791e-02 3.500418e-02 -7.834687e-01
<VARIANCE> 39
 1.382509e+01 3.110275e+01 6.276051e+01 4.741591e+01 6.052277e+01 6.563660e+01 8.335803e+01 6.803064e+01 8.048207e+01 5.530407e+01 6.133128e+01 4.459928e+01 3.132013e+01 1.665062e+00 3.120994e+00 3.027988e+00 3.068668e+00 3.762298e+00 3.622221e+00 4.197990e+00 4.407549e+00 4.639021e+00 3.697971e+00 3.454623e+00 2.865645e+00 3.309792e+00 4.236981e-01 3.607171e-01 4.380598e-01 4.824563e-01 6.304179e-01 6.888006e-01 7.523249e-01 7.738157e-01 7.648820e-01 7.428779e-01 7.055097e-01 5.232667e-01 3.948219e-01
<GCONST> 1.308686e+02
<TRANSP> 5
 0.000000e+00 1.000000e+00 0.000000e+00 0.000000e+00 0.000000e+00
 0.000000e+00 5.985776e-01 4.014224e-01 0.000000e+00 0.000000e+00
 0.000000e+00 0.000000e+00 8.363909e-01 1.636091e-01 0.000000e+00
 0.000000e+00 0.000000e+00 0.000000e+00 6.049876e-01 3.950125e-01
 0.000000e+00 0.000000e+00 0.000000e+00 0.000000e+00 0.000000e+00
<ENDHMM>
~h "ah"
<BEGINHMM>
<NUMSTATES> 5
<STATE> 2
<MEAN> 39
 -4.681112e+00 -9.723139e+00 -6.050089e+00 -1.283374e+01 -1.037695e+01 -8.182543e+00 -1.031855e+01 -1.120677e+00 -1.544005e+00 -3.911206e-01 -4.034208e+00 -3.600124e+00 6.009454e+01 1.792566e+00 -1.312665e+00 9.562943e-02 -1.280757e+00 -8.459705e-01 -9.048489e-02 -1.162435e+00 3.084258e-01 2.966196e-01 2.028385e-01 -4.076058e-01 -5.471602e-01 1.441948e+00 -6.499018e-01 4.525986e-01 1.097110e-02 4.354362e-01 4.292783e-01 3.362541e-01 5.092766e-01 -1.473739e-01 -2.510595e-01 -6.586143e-02 1.436033e-01 1.128200e-01 -7.639899e-01
<VARIANCE> 39
 2.548527e+01 3.563099e+01 6.166476e+01 5.823655e+01 6.222557e+01 7.817789e+01 7.041331e+01 6.237687e+01 6.240411e+01 5.890520e+01 6.116564e+01 3.963657e+01 4.171553e+01 5.015101e+00 3.564520e+00 4.010701e+00 5.085309e+00 5.123440e+00 5.831679e+00 5.790661e+00 5.829695e+00 5.694890e+00 4.534647e+00 4.899220e+00 3.619157e+00 4.329561e+00 6.871941e-01 5.580051e-01 5.494884e-01 7.688955e-01 7.582030e-01 9.250472e-01 9.640110e-01 8.933530e-01 8.923282e-01 7.833139e-01 7.392646e-01 6.054243e-01 8.934298e-01
<GCONST> 1.400941e+02
<STATE> 3
<MEAN> 39
 -3.225031e+00 -1.305918e+01 -7.135825e+00 -1.519319e+01 -9.681751e+00 -5.935110e+00 -1.074364e+01 5.042251e-01 -5.100339e-01 -5.894483e-01 -4.742608e+00 -4.967244e+00 6.333996e+01 1.025424e-01 3.576458e-01 1.334652e-01 1.311192e-01 1.584757e-01 2.244822e-02 3.727678e-02 -2.600446e-01 -2.588964e-01 -1.681683e-02 4.160030e-02 2.374729e-03 -4.490786e-01 -4.645448e-01 7.336271e-01 1.068526e-01 5.761755e-01 2.714222e-01 3.509648e-03 3.713878e-01 -3.732936e-01 -3.583015e-01 -8.422310e-02 1.260258e-01 1.537236e-01 -8.025854e-01
<VARIANCE> 39
 1.443920e+01 3.318097e+01 6.381098e+01 5.589802e+01 6.464700e+01 8.943698e+01 7.427264e+01 6.354647e+01 7.043983e+01 6.711646e+01 6.883064e+01 4.871777e+01 2.633466e+01 1.159491e+00 1.894322e+00 2.234576e+00 2.574218e+00 2.733939e+00 3.244669e+00 2.970321e+00 3.453701e+00 3.143721e+00 2.697908e+00 2.705963e+00 2.400862e+00 1.728375e+00 5.123997e-01 4.300829e-01 4.387485e-01 6.097150e-01 6.916721e-01 8.198668e-01 9.109676e-01 8.164132e-01 7.528146e-01 6.678056e-01 6.415296e-01 5.524641e-01 4.993796e-01
<GCONST> 1.284903e+02
<STATE> 4
<MEAN> 39
 -3.613807e+00 -8.331586e+00 -5.313977e+00 -1.223765e+01 -9.839995e+00 -7.998652e+00 -1.055843e+01 -2.577156e+00 -2.922221e+00 -5.386159e-01 -3.425526e+00 -3.372728e+00 5.850026e+01 -1.152528e+00 2.486830e+00 5.804259e-01 1.867248e+00 1.072019e+00 3.543920e-01 1.068286e+00 -1.259288e+00 -1.228418e+00 -4.989440e-01 1.478030e-01 2.396029e-01 -2.812152e+00 -7.737407e-01 3.812072e-01 1.140404e-05 4.179656e-01 3.679703e-01 3.208745e-01 4.875967e-01 -4.386082e-02 -9.348386e-02 -1.034926e-01 -1.828519e-02 3.491885e-02 -5.599436e-01
<VARIANCE> 39
 2.034051e+01 3.234608e+01 6.540004e+01 6.206720e+01 6.095242e+01 8.037493e+01 6.497882e+01 6.544672e+01 6.544920e+01 6.393870e+01 6.618159e+01 4.304765e+01 3.360450e+01 3.282027e+00 3.309186e+00 3.572627e+00 5.447824e+00 4.825348e+00 5.477103e+00 5.583535e+00 5.538446e+00 5.449471e+00 4.762599e+00 4.344025e+00 3.871290e+00 5.296533e+00 6.382492e-01 5.311990e-01 5.950965e-01 7.204518e-01 7.373965e-01 9.390072e-01 8.422154e-01 9.975665e-01 8.623294e-01 8.546748e-01 8.177279e-01 6.215885e-01 6.329332e-01
<GCONST> 1.390316e+02
<TRANSP> 5
 0.000000e+00 1.000000e+00 0.000000e+00 0.000000e+00 0.000000e+00
 0.000000e+00 2.930298e-01 7.069702e-01 0.000000e+00 0.000000e+00
 0.000000e+00 0.000000e+00 5.960630e-01 4.039370e-01 0.000000e+00
 0.000000e+00 0.000000e+00 0.000000e+00 2.896766e-01 7.103233e-01
 0.000000e+00 0.000000e+00 0.000000e+00 0.000000e+00 0.000000e+00
<ENDHMM>
~h "aw"
<BEGINHMM>
<NUMSTATES> 5
<STATE> 2
<MEAN> 39
 -4.097196e+00 -1.688697e+01 -9.181792e+00 -1.345990e+01 -9.582713e+00 -5.235966e+00 -3.777288e+00 2.342683e+00 -2.220206e+00 -3.241363e+00 -6.445750e+00 -4.532447e+00 6.547141e+01 5.919763e-01 -1.540534e+00 -8.791329e-01 -5.052755e-01 5.497580e-01 7.507582e-01 -8.155970e-03 3.003027e-01 4.979185e-01 -5.055072e-01 -5.171549e-01 -3.323783e-01 1.200799e+00 -3.381554e-01 4.209897e-01 2.144457e-02 2.388409e-01 3.471485e-01 1.917690e-01 3.603256e-02 -3.402348e-01 -8.853000e-02 6.650987e-02 1.620081e-01 1.035426e-01 -5.252368e-01
<VARIANCE> 39
 1.620495e+01 3.367517e+01 5.662846e+01 4.906110e+01 6.694943e+01 6.627551e+01 7.853535e+01 7.148779e+01 7.748814e+01 5.268896e+01 5.142802e+01 4.300824e+01 2.404684e+01 1.843189e+00 2.319304e+00 2.232416e+00 2.625430e+00 3.364287e+00 3.135368e+00 4.192426e+00 4.346395e+00 3.239805e+00 2.745114e+00 2.616267e+00 2.538365e+00 1.928075e+00 3.936125e-01 3.779470e-01 3.489654e-01 4.561497e-01 5.500247e-01 5.535422e-01 7.115070e-01 7.339774e-01 6.316308e-01 5.265371e-01 4.722580e-01 4.483002e-01 3.060915e-01
<GCONST> 1.259314e+02
<STATE> 3
<MEAN> 39
 -2.350768e+00 -1.813592e+01 -1.325092e+01 -1.467746e+01 -4.810310e+00 -7.728748e-01 -4.845576e+00 -1.364398e+00 3.811566e-01 -4.140733e+00 -6.102293e+00 -5.320370e+00 6.576560e+01 2.486493e-01 2.853131e-01 -4.462743e-01 -4.093814e-01 3.838251e-01 5.828339e-01 -2.624469e-01 -4.746695e-01 5.226926e-02 2.137184e-01 3.227201e-01 -9.472373e-02 -2.732792e-01 2.245077e-02 1.950090e-01 5.887593e-02 -4.234061e-02 -1.656410e-01 -8.128279e-02 -2.437879e-02 8.468906e-03 -7.861412e-02 8.792284e-02 1.007365e-01 5.393873e-02 -1.334914e-01
<VARIANCE> 39
 1.349282e+01 2.930904e+01 4.130216e+01 5.240445e+01 5.670638e+01 7.747365e+01 8.223856e+01 7.175044e+01 6.852934e+01 5.339690e+01 4.999779e+01 4.623257e+01 2.089148e+01 2.273946e-01 6.698006e-01 7.371167e-01 1.194339e+00 1.416662e+00 1.481214e+00 1.665113e+00 1.683569e+00 1.546350e+00 1.399090e+00 1.448097e+00 1.251013e+00 2.153677e-01 3.740821e-02 9.507089e-02 1.131395e-01 1.575323e-01 1.974655e-01 2.199000e-01 2.627443e-01 2.496467e-01 2.450482e-01 2.069394e-01 2.244114e-01 2.106994e-01 3.704620e-02
<GCONST> 9.613493e+01
<STATE> 4
<MEAN> 39
 -3.473521e-01 -1.242361e+01 -1.499930e+01 -1.930803e+01 -6.531931e+00 2.253942e+00 -5.539783e+00 -3.313720e+00 -1.580241e+00 -5.886397e-01 -2.167823e+00 -4.981923e+00 6.140347e+01 -5.968824e-02 1.235005e+00 5.251201e-01 5.137563e-01 -8.079707e-01 -8.801069e-01 -2.221952e-01 -5.162803e-02 -4.333153e-01 4.284025e-01 2.674763e-01 3.259401e-01 -1.260311e+00 -2.732167e-01 1.489728e-01 3.458275e-01 5.729055e-01 1.673282e-02 -3.885983e-01 -7.123205e-03 -4.058743e-02 -6.115881e-02 -6.829275e-02 -1.751022e-01 5.139761e-02 -2.729362e-01
<VARIANCE> 39
 1.297101e+01 4.062978e+01 3.500517e+01 6.707835e+01 6.414267e+01 7.852439e+01 8.903382e+01 6.073650e+01 6.415095e+01 6.262725e+01 6.869855e+01 4.773246e+01 3.578898e+01 8.854922e-01 2.107074e+00 2.083856e+00 4.375456e+00 3.438354e+00 3.684588e+00 3.700925e+00 3.612599e+00 3.413667e+00 3.098960e+00 3.160845e+00 2.898608e+00 1.472040e+00 2.028209e-01 3.349479e-01 3.214070e-01 5.192749e-01 6.044393e-01 5.017477e-01 6.488684e-01 6.162943e-01 6.172156e-01 5.847535e-01 5.643474e-01 4.927338e-01 3.048514e-01
<GCONST> 1.256478e+02
<TRANSP> 5
 0.000000e+00 1.000000e+00 0.000000e+00 0.000000e+00 0.000000e+00
 0.000000e+00 7.086527e-01 2.913474e-01 0.000000e+00 0.000000e+00
 0.000000e+00 0.000000e+00 8.710588e-01 1.289413e-01 0.000000e+00
 0.000000e+00 0.000000e+00 0.000000e+00 7.671738e-01 2.328262e-01
 0.000000e+00 0.000000e+00 0.000000e+00 0.000000e+00 0.000000e+00
<ENDHMM>
~h "ay"
<BEGINHMM>
<NUMSTATES> 5
<STATE> 2
<MEAN> 39
 -1.864370e+00 -1.506049e+01 -1.378789e+01 -1.719264e+01 -5.765259e+00 2.829680e-02 -5.376050e+00 -2.214721e+00 -2.670670e-01 -8.511178e-01 -4.295664e+00 -6.584916e+00 6.399595e+01 6.762521e-01 -1.980383e+00 -5.512013e-01 -4.753093e-01 3.526013e-01 6.004990e-01 -1.076663e-02 3.803913e-01 8.190879e-01 -3.675853e-01 -7.515979e-01 -7.320353e-01 1.489289e+00 -5.854275e-01 4.177061e-01 4.416648e-01 5.880513e-01 7.816204e-02 -3.274046e-01 1.156159e-01 3.255360e-02 -1.795417e-01 -1.436898e-01 4.575681e-02 3.412448e-01 -5.162917e-01
<VARIANCE> 39
 1.398377e+01 3.371594e+01 3.753413e+01 5.250688e+01 5.663345e+01 8.179787e+01 6.598647e+01 6.432316e+01 6.104393e+01 6.167225e+01 6.957819e+01 4.269812e+01 2.547418e+01 3.036912e+00 2.277186e+00 3.012366e+00 4.498014e+00 3.772758e+00 4.631266e+00 3.961351e+00 4.395412e+00 3.800696e+00 3.311372e+00 3.454768e+00 3.324547e+00 2.146970e+00 4.944031e-01 3.877543e-01 3.862830e-01 6.197661e-01 6.826174e-01 7.407662e-01 7.089913e-01 7.371866e-01 6.585596e-01 6.485261e-01 7.077054e-01 5.495431e-01 3.438411e-01
<GCONST> 1.304020e+02
<STATE> 3
<MEAN> 39
 -2.077607e+00 -1.809678e+01 -1.388091e+01 -1.478997e+01 -4.339276e+00 -5.219153e-01 -4.832143e+00 -1.363964e+00 1.605508e+00 -3.363488e+00 -5.943102e+00 -6.892072e+00 6.560528e+01 -2.053436e-01 -2.568699e-01 5.612032e-01 6.002609e-01 -3.988399e-01 -8.494335e-01 9.192076e-02 7.794480e-01 1.246320e-01 -4.702131e-01 -3.589460e-01 2.477757e-01 8.083656e-02 -2.478938e-02 2.376309e-01 1.881256e-01 -1.517056e-03 -2.771195e-01 -2.200826e-01 3.249808e-02 1.198777e-01 -1.761826e-01 3.338187e-03 1.611394e-01 1.687868e-01 -1.260458e-01
<VARIANCE> 39
 1.106122e+01 3.020359e+01 3.293948e+01 4.526040e+01 5.227167e+01 7.450486e+01 6.944231e+01 6.585139e+01 6.648564e+01 5.394169e+01 5.214098e+01 4.741207e+01 2.023012e+01 2.341116e-01 6.657282e-01 1.009218e+00 1.248686e+00 1.611420e+00 2.097570e+00 1.647609e+00 2.226296e+00 1.463650e+00 1.382395e+00 1.400493e+00 1.358322e+00 2.076652e-01 4.143698e-02 1.229721e-01 1.320080e-01 1.700968e-01 2.260426e-01 2.344301e-01 2.660391e-01 2.807176e-01 2.784879e-01 2.336238e-01 2.686892e-01 2.634502e-01 4.739892e-02
<GCONST> 9.812432e+01
<STATE> 4
<MEAN> 39
 -4.469084e+00 -1.621518e+01 -5.668831e+00 -1.329089e+01 -1.273789e+01 -8.955609e+00 -2.929677e+00 4.886907e+00 -1.969376e+00 -4.053175e+00 -5.687731e+00 -2.999193e+00 6.477272e+01 -3.211023e-01 1.257424e+00 1.598898e+00 3.408788e-01 -1.503314e+00 -1.236145e+00 5.936137e-02 -4.325099e-02 -1.053989e+00 3.698692e-01 8.988723e-01 5.517296e-01 -8.276547e-01 -4.157865e-02 4.165575e-01 -9.677696e-02 1.385136e-01 3.482941e-01 2.894978e-01 -1.713291e-01 -5.999779e-01 -1.304001e-01 1.995972e-01 8.719660e-02 -1.248798e-01 -4.509120e-01
<VARIANCE> 39
 1.193191e+01 3.391801e+01 4.752456e+01 4.504696e+01 5.985955e+01 5.952746e+01 7.320159e+01 6.142762e+01 8.011782e+01 5.109446e+01 4.776139e+01 3.915743e+01 2.525376e+01 5.185589e-01 1.373500e+00 2.125020e+00 2.482629e+00 3.368245e+00 2.884618e+00 3.932751e+00 4.207619e+00 3.415191e+00 3.181493e+00 2.665043e+00 2.990366e+00 8.372878e-01 1.331383e-01 2.669029e-01 2.865060e-01 4.161215e-01 5.446318e-01 4.329425e-01 5.741425e-01 5.712607e-01 6.110301e-01 5.468441e-01 5.324053e-01 4.290181e-01 2.238062e-01
<GCONST> 1.196129e+02
<TRANSP> 5
 0.000000e+00 1.000000e+00 0.000000e+00 0.000000e+00 0.000000e+00
 0.000000e+00 6.077002e-01 3.922998e-01 0.000000e+00 0.000000e+00
 0.000000e+00 0.000000e+00 8.361983e-01 1.638017e-01 0.000000e+00
 0.000000e+00 0.000000e+00 0.000000e+00 7.679095e-01 2.320905e-01
 0.000000e+00 0.000000e+00 0.000000e+00 0.000000e+00 0.000000e+00
<ENDHMM>
~h "ch"
<BEGINHMM>
<NUMSTATES> 5
<STATE> 2
<MEAN> 39
 -1.852618e+01 -3.913731e+00 -3.745358e-01 -4.974204e+00 -4.138912e+00 -2.605227e+00 -5.242152e+00 -1.930898e+00 -2.988357e+00 -2.501769e+00 -2.473784e+00 -1.447912e+00 4.342779e+01 -2.970880e+00 -6.868926e-01 -3.534818e-01 -7.164555e-01 1.091846e+00 1.981500e+00 8.979729e-01 3.582157e-01 8.845586e-01 6.010003e-01 7.139931e-01 4.005521e-01 -1.433686e-01 -1.872336e-02 -4.308206e-01 8.338113e-02 -7.189343e-01 -4.834256e-01 -2.204118e-01 -1.419271e-01 2.070878e-01 8.600350e-02 6.556983e-02 1.259778e-01 4.558794e-02 1.683066e+00
<VARIANCE> 39
 4.500979e+01 5.237910e+01 3.311025e+01 5.236178e+01 3.943643e+01 4.461988e+01 3.214318e+01 3.422993e+01 3.475280e+01 2.887338e+01 2.427721e+01 1.923325e+01 8.070969e+01 5.522488e+00 6.694525e+00 5.439985e+00 8.357675e+00 6.526745e+00 5.107696e+00 4.699024e+00 4.819156e+00 4.527983e+00 3.876778e+00 3.377018e+00 2.676844e+00 2.030145e+01 7.994744e-01 1.538555e+00 9.167444e-01 1.302082e+00 1.009046e+00 1.066581e+00 8.579490e-01 9.263587e-01 7.849458e-01 7.624245e-01 6.852137e-01 4.856553e-01 2.092568e+00
<GCONST> 1.403089e+02
<STATE> 3
<MEAN> 39
 -3.045058e+01 -5.310034e+00 1.770005e+00 -1.199518e+01 -4.323673e+00 1.052152e+00 -2.986395e+00 2.195184e-01 -1.524786e-01 -1.031197e+00 2.882912e-01 2.008038e-01 5.781432e+01 -9.029881e-01 1.315556e-01 5.330637e-01 -1.946626e-01 -8.020985e-01 -1.731343e-01 5.253957e-01 1.112799e-02 1.016332e-01 6.192060e-02 4.448469e-02 7.935188e-02 1.922216e+00 8.283991e-01 4.533675e-02 -1.007138e-01 4.760573e-01 -1.757002e-01 -4.311211e-01 -4.205620e-02 -9.431901e-02 -2.404495e-01 -8.776165e-02 -2.056936e-01 -1.049050e-01 -6.297038e-01
<VARIANCE> 39
 1.992577e+01 3.137136e+01 3.126670e+01 2.295224e+01 3.480634e+01 2.122886e+01 2.205209e+01 2.179536e+01 1.905797e+01 1.604163e+01 1.311537e+01 1.114557e+01 2.921179e+01 4.122962e+00 2.640787e+00 2.655294e+00 2.735539e+00 2.318802e+00 2.196104e+00 1.924247e+00 2.014412e+00 1.762244e+00 1.666257e+00 1.449612e+00 1.273757e+00 5.723735e+00 6.164193e-01 6.151247e-01 5.867676e-01 5.541764e-01 4.741737e-01 4.721778e-01 4.326204e-01 4.156432e-01 3.772462e-01 3.662203e-01 3.011954e-01 2.673980e-01 7.952919e-01
<GCONST> 1.123086e+02
<STATE> 4
<MEAN> 39
 -2.397792e+01 -8.311829e+00 1.186164e+00 -7.938383e+00 -1.000015e+01 -4.394037e+00 -1.137985e+00 -3.244823e-01 -1.363976e+00 -1.471647e+00 -1.278335e+00 -5.773664e-01 5.907748e+01 3.599952e+00 -4.232566e-01 -5.816677e-01 6.081921e-01 -5.317556e-01 -1.689345e+00 -1.005503e+00 7.106789e-02 -6.435246e-01 -5.057163e-01 -5.107620e-01 -3.249886e-01 -6.686332e-01 6.782150e-01 -6.503725e-02 -1.714761e-01 -2.693742e-01 1.455869e-01 5.357483e-02 -5.742457e-01 3.139599e-02 -4.491046e-02 -5.886601e-02 1.614048e-02 -4.005751e-02 -1.702029e-01
<VARIANCE> 39
 4.740537e+01 1.990403e+01 2.825847e+01 3.139819e+01 3.347212e+01 3.211453e+01 3.097621e+01 2.727321e+01 2.472906e+01 2.171625e+01 2.106163e+01 1.656478e+01 2.732645e+01 5.622147e+00 2.062823e+00 3.102875e+00 2.995356e+00 4.311135e+00 4.160627e+00 5.130477e+00 3.557349e+00 3.139823e+00 2.870090e+00 2.763261e+00 2.026213e+00 2.813045e+00 8.743516e-01 3.880789e-01 5.236931e-01 5.265800e-01 6.555337e-01 7.420509e-01 7.539933e-01 6.512005e-01 5.901132e-01 5.715298e-01 4.973734e-01 4.051768e-01 7.522499e-01
<GCONST> 1.231350e+02
<TRANSP> 5
 0.000000e+00 1.000000e+00 0.000000e+00 0.000000e+00 0.000000e+00
 0.000000e+00 7.147298e-01 2.852702e-01 0.000000e+00 0.000000e+00
 0.000000e+00 0.000000e+00 7.990737e-01 2.009263e-01 0.000000e+00
 0.000000e+00 0.000000e+00 0.000000e+00 7.394544e-01 2.605456e-01
 0.000000e+00 0.000000e+00 0.000000e+00 0.000000e+00 0.000000e+00
<ENDHMM>
~h "dh"
<BEGINHMM>
<NUMSTATES> 5
<STATE> 2
<MEAN> 39
 -1.588396e+01 -8.575892e-01 -5.643085e+00 -2.950361e+00 -3.350611e+00 -3.557883e+00 -3.641746e+00 -2.623279e+00 -2.185395e+00 -9.847323e-01 -2.599113e+00 -1.816440e+00 4.243346e+01 -1.234340e-01 -1.095020e-01 -1.140767e-01 -1.949209e-01 -2.141796e-01 -1.361795e-01 8.034153e-02 2.005108e-01 1.970376e-01 -1.748858e-01 1.092502e-02 6.755170e-02 1.086965e+00 5.359554e-01 -4.894637e-01 -9.566199e-02 -5.067732e-01 -5.189407e-01 -4.464601e-01 -2.395737e-01 1.295624e-01 1.280569e-01 3.239285e-02 -1.600750e-02 2.716116e-02 1.113973e+00
<VARIANCE> 39
 4.860028e+01 2.545790e+01 2.354212e+01 2.633034e+01 2.458572e+01 3.236738e+01 3.742822e+01 3.905596e+01 3.137174e+01 2.596467e+01 2.702659e+01 2.623149e+01 7.300622e+01 4.233009e+00 2.821340e+00 3.182362e+00 3.445002e+00 2.993312e+00 3.767058e+00 3.430577e+00 3.362461e+00 3.033731e+00 2.548003e+00 2.488378e+00 2.306193e+00 9.979445e+00 6.888449e-01 5.711377e-01 5.982908e-01 6.996074e-01 6.271380e-01 6.959229e-01 7.296060e-01 7.072411e-01 6.485671e-01 5.834057e-01 5.298890e-01 4.941287e-01 1.198881e+00
<GCONST> 1.271617e+02
<STATE> 3
<MEAN> 39
 -1.513042e+01 -3.559669e+00 -7.933752e+00 -6.367162e+00 -6.049785e+00 -5.888713e+00 -3.247391e+00 -1.781063e+00 -9.589928e-01 -1.383036e+00 -2.277586e+00 -8.350145e-01 5.181709e+01 2.443758e+00 -9.085725e-01 1.332721e-01 -1.440646e+00 -1.960231e+00 -1.964844e+00 -1.340918e+00 1.510301e-01 4.133022e-01 -1.909348e-01 -4.363758e-01 -2.648318e-01 4.237487e+00 6.483359e-01 -2.813173e-01 4.459049e-01 -2.179174e-01 -3.694170e-01 -2.031935e-01 -4.464945e-01 4.796637e-02 -9.456755e-02 1.684507e-01 -1.094680e-01 -1.838057e-01 -3.002070e-02
<VARIANCE> 39
 3.518643e+01 2.709838e+01 2.411337e+01 2.550532e+01 2.474796e+01 2.787846e+01 3.695951e+01 3.010865e+01 2.567032e+01 2.298823e+01 2.278067e+01 2.236836e+01 5.007322e+01 4.404378e+00 3.007813e+00 3.957599e+00 3.629642e+00 3.903737e+00 4.251626e+00 4.574144e+00 4.585291e+00 4.608629e+00 3.610665e+00 3.395425e+00 3.324670e+00 6.220087e+00 5.224303e-01 6.831235e-01 6.631767e-01 6.936272e-01 5.774469e-01 7.376552e-01 7.890560e-01 6.916656e-01 6.811246e-01 5.835175e-01 6.605273e-01 4.964404e-01 1.020443e+00
<GCONST> 1.279188e+02
<STATE> 4
<MEAN> 39
 -6.903997e+00 -5.284644e+00 -5.636536e+00 -8.841648e+00 -1.156201e+01 -1.149470e+01 -8.407692e+00 -2.213988e+00 -4.306187e-01 -1.187930e+00 -3.982236e+00 -2.979490e+00 5.904516e+01 2.223463e+00 -1.948973e+00 7.319885e-01 -1.722660e+00 -2.013356e+00 -1.362385e+00 -1.336033e+00 7.453004e-01 2.419402e-01 2.209445e-01 -3.145253e-01 -3.362271e-01 2.931296e+00 -5.054581e-01 -7.557461e-02 1.196641e-01 1.695954e-01 4.134014e-01 6.164910e-01 3.578942e-01 1.095324e-01 -2.453114e-01 2.337721e-02 9.636974e-02 8.914877e-02 -9.018824e-01
<VARIANCE> 39
 2.242885e+01 3.132431e+01 3.779093e+01 3.925039e+01 4.579260e+01 4.269906e+01 5.435696e+01 4.540665e+01 4.953514e+01 4.061428e+01 3.497667e+01 3.467902e+01 3.311009e+01 3.712611e+00 3.128440e+00 4.272249e+00 4.112015e+00 4.256286e+00 5.319486e+00 6.345049e+00 5.148916e+00 5.180129e+00 3.986783e+00 4.370210e+00 3.590194e+00 4.106406e+00 5.562055e-01 4.195729e-01 4.470876e-01 5.414507e-01 5.910039e-01 5.677744e-01 6.367819e-01 6.288894e-01 6.098254e-01 5.563982e-01 5.080389e-01 4.908386e-01 6.454955e-01
<GCONST> 1.304607e+02
<TRANSP> 5
 0.000000e+00 1.000000e+00 0.000000e+00 0.000000e+00 0.000000e+00
 0.000000e+00 5.913233e-01 4.086767e-01 0.000000e+00 0.000000e+00
 0.000000e+00 0.000000e+00 3.934048e-01 6.065953e-01 0.000000e+00
 0.000000e+00 0.000000e+00 0.000000e+00 3.579274e-01 6.420725e-01
 0.000000e+00 0.000000e+00 0.000000e+00 0.000000e+00 0.000000e+00
<ENDHMM>
~h "eh"
<BEGINHMM>
<NUMSTATES> 5
<STATE> 2
<MEAN> 39
 -4.834263e+00 -1.239428e+01 -2.986737e+00 -1.310346e+01 -1.458956e+01 -1.073524e+01 -8.763086e+00 2.712670e+00 -1.842352e+00 -1.383045e+00 -4.047008e+00 -2.832484e+00 6.360809e+01 1.328845e+00 -2.101468e+00 5.636076e-02 -1.204838e+00 -1.315264e+00 -3.178169e-01 -3.257689e-01 1.598225e+00 5.227166e-01 -2.310459e-01 -3.427179e-01 -3.027480e-01 1.902502e+00 -6.742519e-01 3.986300e-01 -2.328895e-01 2.436575e-01 5.866138e-01 4.917985e-01 4.915712e-01 -2.014027e-01 -1.260776e-01 -5.521803e-03 1.131244e-01 6.986239e-02 -5.496464e-01
<VARIANCE> 39
 1.769441e+01 3.559469e+01 6.176122e+01 5.226804e+01 5.334504e+01 5.654250e+01 7.983451e+01 6.112728e+01 7.551229e+01 5.281369e+01 5.441052e+01 3.859705e+01 2.698409e+01 4.358700e+00 2.617479e+00 3.274662e+00 3.557583e+00 4.457834e+00 4.700572e+00 6.281530e+00 4.785045e+00 4.913000e+00 3.961069e+00 3.700338e+00 3.116714e+00 2.294211e+00 6.062800e-01 4.715354e-01 4.291826e-01 5.537573e-01 6.596925e-01 6.840525e-01 8.171068e-01 7.972668e-01 8.194508e-01 6.508547e-01 6.158814e-01 5.141046e-01 4.661885e-01
<GCONST> 1.330671e+02
<STATE> 3
<MEAN> 39
 -4.520564e+00 -1.507418e+01 -4.621192e+00 -1.426272e+01 -1.445610e+01 -9.158069e+00 -6.003963e+00 5.345345e+00 -1.351589e+00 -2.873361e+00 -5.059348e+00 -3.019169e+00 6.565840e+01 7.508970e-02 -8.990649e-02 -3.135807e-01 -4.286246e-03 2.893372e-01 1.561492e-01 4.172519e-02 1.135911e-01 2.680420e-02 -1.470798e-01 -1.139871e-01 -1.060986e-01 -4.207738e-02 -2.222747e-02 3.979549e-01 -1.187427e-02 2.037107e-01 1.999061e-01 -3.599726e-02 -1.409486e-01 -3.861777e-01 -1.512148e-01 8.399496e-02 9.394076e-02 3.305425e-02 -4.108095e-01
<VARIANCE> 39
 1.473007e+01 2.938177e+01 5.174110e+01 4.862481e+01 5.913795e+01 6.342741e+01 8.564407e+01 6.043952e+01 8.378849e+01 5.490327e+01 5.584201e+01 4.227240e+01 2.031304e+01 4.197978e-01 8.831419e-01 1.552543e+00 1.246269e+00 1.724776e+00 1.963734e+00 2.212987e+00 2.063029e+00 1.944688e+00 1.739469e+00 1.542396e+00 1.415504e+00 4.806864e-01 1.162499e-01 2.185450e-01 2.109183e-01 2.686818e-01 3.274827e-01 3.301781e-01 4.156780e-01 4.281433e-01 3.944327e-01 3.261426e-01 3.163000e-01 2.949069e-01 1.533228e-01
<GCONST> 1.084525e+02
<STATE> 4
<MEAN> 39
 -3.298686e+00 -1.424557e+01 -5.677464e+00 -1.302568e+01 -1.278818e+01 -1.013144e+01 -8.826630e+00 4.269078e+00 -1.290513e+00 -2.030030e+00 -4.655450e+00 -3.632537e+00 6.373277e+01 -2.672368e-01 2.061829e+00 4.718650e-02 1.294576e+00 1.091385e+00 2.359934e-02 -1.848529e-01 -1.741102e+00 -8.156391e-01 8.370063e-02 3.368345e-01 1.692104e-01 -2.344865e+00 -5.501923e-01 6.772897e-01 1.078680e-01 3.971459e-01 3.883205e-01 3.316237e-01 3.525742e-01 -4.868189e-01 -2.373527e-01 -1.308671e-02 9.743986e-02 8.550210e-02 -7.580839e-01
<VARIANCE> 39
 1.529265e+01 3.024018e+01 5.643254e+01 5.102661e+01 5.988892e+01 7.394828e+01 9.153162e+01 6.743703e+01 8.449938e+01 6.042324e+01 6.317368e+01 4.498994e+01 2.510309e+01 1.955055e+00 2.801057e+00 3.579300e+00 3.746008e+00 4.073674e+00 4.062570e+00 5.160562e+00 4.802188e+00 4.742426e+00 3.838686e+00 3.736660e+00 3.466174e+00 2.973668e+00 4.356863e-01 3.928707e-01 4.547262e-01 5.336182e-01 6.860807e-01 7.487498e-01 8.057225e-01 8.848582e-01 8.722745e-01 7.150003e-01 7.018709e-01 5.673175e-01 4.611974e-01
<GCONST> 1.331292e+02
<TRANSP> 5
 0.000000e+00 1.000000e+00 0.000000e+00 0.000000e+00 0.000000e+00
 0.000000e+00 5.249516e-01 4.750484e-01 0.000000e+00 0.000000e+00
 0.000000e+00 0.000000e+00 7.806908e-01 2.193092e-01 0.000000e+00
 0.000000e+00 0.000000e+00 0.000000e+00 5.219698e-01 4.780302e-01
 0.000000e+00 0.000000e+00 0.000000e+00 0.000000e+00 0.000000e+00
<ENDHMM>
~h "er"
<BEGINHMM>
<NUMSTATES> 5
<STATE> 2
<MEAN> 39
 1.035770e+00 -1.297463e+01 -1.182705e+01 -7.678061e+00 -8.075068e+00 -1.249245e+01 -1.541282e+01 2.049926e+00 -1.143286e+00 -2.523890e+00 -2.169268e+00 -1.194977e+00 5.940337e+01 2.141475e+00 -9.665775e-01 -1.648507e+00 -1.029039e-01 5.379114e-01 -1.021392e+00 -2.361351e+00 1.293010e+00 7.177341e-01 -2.756579e-01 4.224117e-02 2.720532e-01 5.121221e-01 -8.205388e-01 3.132524e-01 2.098665e-01 5.165639e-02 2.376216e-01 3.745467e-01 5.365396e-01 -1.389591e-01 -3.680747e-03 6.888610e-02 -5.706590e-03 -1.596553e-02 -2.896541e-01
<VARIANCE> 39
 1.740726e+01 3.069350e+01 7.699843e+01 4.962125e+01 6.990881e+01 7.352686e+01 8.620995e+01 7.351895e+01 7.927890e+01 4.709159e+01 4.789890e+01 3.463913e+01 2.174615e+01 4.252864e+00 2.505207e+00 3.445030e+00 3.351391e+00 4.480292e+00 4.589822e+00 6.741498e+00 5.394666e+00 4.760402e+00 3.744899e+00 3.252920e+00 2.702678e+00 1.432070e+00 6.128940e-01 4.254989e-01 6.274630e-01 5.405276e-01 6.862708e-01 6.930850e-01 9.627591e-01 7.910445e-01 6.704999e-01 5.906476e-01 5.498759e-01 4.725431e-01 2.648625e-01
<GCONST> 1.320240e+02
<STATE> 3
<MEAN> 39
 3.167478e+00 -1.332560e+01 -1.687120e+01 -6.955954e+00 -4.269501e+00 -1.296359e+01 -1.849389e+01 4.111654e+00 2.268004e+00 -2.359752e+00 -2.396583e+00 -7.489224e-01 5.870197e+01 -7.604763e-02 1.393591e-01 1.210067e-02 1.331643e-01 1.280910e-01 -1.037927e-01 3.393377e-02 1.070538e-01 -6.700270e-04 -1.426294e-01 -6.985482e-02 5.893965e-02 -2.366478e-01 -2.683356e-01 1.336157e-01 3.499654e-01 1.991407e-02 -2.065425e-01 1.732553e-01 4.505942e-01 -2.037105e-01 -2.277485e-01 -2.552734e-02 2.111302e-02 -4.225460e-02 -1.267091e-01
<VARIANCE> 39
 1.123528e+01 2.937453e+01 6.448819e+01 4.380841e+01 6.706847e+01 8.442775e+01 1.076020e+02 9.085690e+01 9.290202e+01 5.091271e+01 4.184530e+01 3.390829e+01 2.210442e+01 3.770698e-01 8.640032e-01 1.729293e+00 1.287058e+00 2.149942e+00 1.814563e+00 2.702920e+00 2.323720e+00 1.995816e+00 1.778487e+00 1.525649e+00 1.347952e+00 4.632413e-01 1.691325e-01 1.978321e-01 2.140033e-01 2.242593e-01 3.094689e-01 3.420449e-01 5.163999e-01 4.747134e-01 3.598246e-01 3.264300e-01 2.756735e-01 2.489093e-01 1.107494e-01
<GCONST> 1.090557e+02
<STATE> 4
<MEAN> 39
 -1.689577e+00 -1.122930e+01 -1.171281e+01 -5.212371e+00 -5.918406e+00 -1.191537e+01 -1.229533e+01 3.404889e+00 -9.060665e-01 -3.826146e+00 -2.963697e+00 -5.271845e-01 5.436288e+01 -1.747377e+00 1.013496e+00 1.639011e+00 7.834641e-02 -4.247858e-01 1.293111e+00 2.281057e+00 -1.101879e+00 -1.004047e+00 -4.500257e-02 3.904697e-02 -2.352831e-01 -1.211501e+00 -4.280713e-01 2.712085e-01 1.356867e-01 -2.395387e-01 1.254491e-01 4.218187e-01 2.510638e-01 -2.981334e-01 -6.607784e-02 1.783108e-01 1.863052e-02 -1.394767e-01 -1.233910e-01
<VARIANCE> 39
 3.932495e+01 3.247277e+01 7.811381e+01 5.990657e+01 7.295931e+01 9.278596e+01 1.221984e+02 7.223342e+01 8.568187e+01 5.790437e+01 4.865932e+01 3.771595e+01 6.147580e+01 3.373682e+00 3.708169e+00 3.856322e+00 4.260350e+00 5.186050e+00 5.297986e+00 7.409770e+00 6.057780e+00 5.152869e+00 4.465066e+00 3.804497e+00 3.084222e+00 4.090041e+00 7.994139e-01 5.665420e-01 6.350050e-01 6.692118e-01 7.735160e-01 9.067041e-01 1.217326e+00 8.758603e-01 8.174374e-01 7.406435e-01 6.500740e-01 5.407274e-01 7.133225e-01
<GCONST> 1.409554e+02
<TRANSP> 5
 0.000000e+00 1.000000e+00 0.000000e+00 0.000000e+00 0.000000e+00
 0.000000e+00 5.782512e-01 4.217488e-01 0.000000e+00 0.000000e+00
 0.000000e+00 0.000000e+00 8.119622e-01 1.880378e-01 0.000000e+00
 0.000000e+00 0.000000e+00 0.000000e+00 6.621915e-01 3.378086e-01
 0.000000e+00 0.000000e+00 0.000000e+00 0.000000e+00 0.000000e+00
<ENDHMM>
~h "ey"
<BEGINHMM>
<NUMSTATES> 5
<STATE> 2
<MEAN> 39
 -4.636975e+00 -1.423531e+01 -1.316887e+00 -1.321736e+01 -1.675726e+01 -1.108570e+01 -7.788589e+00 4.633113e+00 -1.662266e+00 -1.916033e+00 -3.107270e+00 -2.594332e+00 6.488297e+01 1.005967e-01 -9.270355e-01 1.376582e+00 -7.863706e-01 -1.820944e+00 -5.056022e-01 5.313663e-01 1.054565e+00 -6.213608e-01 -2.488828e-01 5.398932e-01 3.709842e-01 1.033275e+00 -4.177317e-01 5.370246e-01 6.088370e-03 1.572288e-01 3.562176e-01 3.719785e-01 2.172711e-01 -5.686417e-01 -3.068264e-01 1.704422e-01 2.659524e-01 4.196206e-03 -5.136771e-01
<VARIANCE> 39
 1.415393e+01 2.809789e+01 4.776656e+01 5.450428e+01 4.712273e+01 5.053270e+01 7.945675e+01 5.979522e+01 7.481005e+01 5.105124e+01 5.753739e+01 3.639496e+01 2.216209e+01 2.232651e+00 2.531031e+00 2.400558e+00 3.120129e+00 2.972267e+00 3.588504e+00 4.577003e+00 4.546772e+00 3.744436e+00 3.753676e+00 3.222143e+00 2.539889e+00 1.603833e+00 4.210775e-01 3.251906e-01 3.163488e-01 4.714738e-01 5.139167e-01 5.452963e-01 7.380062e-01 7.155615e-01 7.767211e-01 5.978174e-01 5.917588e-01 4.883275e-01 2.506061e-01
<GCONST> 1.259334e+02
<STATE> 3
<MEAN> 39
 -6.548004e+00 -1.238731e+01 3.843452e+00 -1.505548e+01 -2.079575e+01 -1.038212e+01 -5.116491e+00 2.132589e+00 -6.087618e+00 -7.601818e-01 -6.545147e-01 -2.086397e+00 6.463920e+01 -1.895351e-01 4.996755e-01 7.830551e-01 -1.829839e-02 -3.911034e-01 1.190131e-01 -8.449069e-02 -6.624624e-01 -6.787939e-01 1.807783e-01 3.143388e-01 -9.357892e-03 -3.367402e-01 4.421709e-02 1.144409e-01 -1.447327e-01 1.754924e-01 2.413238e-01 -5.935458e-03 -1.428457e-01 -9.167699e-02 2.787405e-02 -6.030349e-02 -1.240439e-01 -4.020508e-02 -1.894201e-01
<VARIANCE> 39
 1.264284e+01 2.950555e+01 4.416507e+01 7.197861e+01 4.143845e+01 5.630638e+01 6.996165e+01 7.172797e+01 6.082131e+01 5.226126e+01 6.727064e+01 3.011556e+01 2.083819e+01 2.636000e-01 6.424407e-01 1.101805e+00 9.267932e-01 1.070536e+00 1.215907e+00 1.502510e+00 1.623603e+00 1.852968e+00 1.446302e+00 1.356699e+00 1.064536e+00 2.774369e-01 5.249238e-02 1.226922e-01 1.550906e-01 1.757609e-01 2.164908e-01 2.276416e-01 2.754677e-01 2.930393e-01 2.584502e-01 2.468356e-01 2.337899e-01 1.938953e-01 6.775381e-02
<GCONST> 9.741338e+01
<STATE> 4
<MEAN> 39
 -6.826253e+00 -9.303236e+00 6.906160e+00 -1.236895e+01 -2.063957e+01 -1.079233e+01 -7.604669e+00 -9.748294e-01 -9.679423e+00 -1.234869e+00 -3.640759e-02 -2.058615e+00 6.060429e+01 -3.427613e-01 1.411107e+00 -7.326669e-01 1.601786e+00 1.821387e+00 1.743684e-01 6.111812e-02 -7.437341e-01 -5.714470e-02 -5.632888e-01 -5.392101e-01 -1.539719e-01 -2.098279e+00 -3.754282e-01 2.596476e-01 -6.455930e-01 2.687092e-01 8.040260e-01 2.825560e-01 2.729831e-01 1.610791e-02 4.485080e-01 5.840767e-03 -1.635176e-01 -2.394466e-02 -4.409928e-01
<VARIANCE> 39
 1.447350e+01 3.627422e+01 4.474870e+01 7.946870e+01 4.087012e+01 5.741139e+01 6.591244e+01 7.677594e+01 5.796096e+01 6.232769e+01 7.063322e+01 3.375867e+01 3.716121e+01 2.199877e+00 2.748995e+00 3.678296e+00 3.534960e+00 4.660262e+00 3.818843e+00 4.666110e+00 4.153503e+00 4.543004e+00 3.616862e+00 3.426808e+00 2.564868e+00 3.435845e+00 4.612778e-01 4.269916e-01 4.548354e-01 6.530232e-01 6.155684e-01 6.999079e-01 6.849370e-01 8.040572e-01 7.444023e-01 6.666227e-01 6.241775e-01 4.673305e-01 5.255712e-01
<GCONST> 1.315529e+02
<TRANSP> 5
 0.000000e+00 1.000000e+00 0.000000e+00 0.000000e+00 0.000000e+00
 0.000000e+00 6.575723e-01 3.424276e-01 0.000000e+00 0.000000e+00
 0.000000e+00 0.000000e+00 8.406773e-01 1.593227e-01 0.000000e+00
 0.000000e+00 0.000000e+00 0.000000e+00 6.786297e-01 3.213704e-01
 0.000000e+00 0.000000e+00 0.000000e+00 0.000000e+00 0.000000e+00
<ENDHMM>
~h "hh"
<BEGINHMM>
<NUMSTATES> 5
<STATE> 2
<MEAN> 39
 -1.332215e+01 -8.675752e+00 -3.481532e+00 -9.199692e+00 -6.234086e+00 -1.876458e+00 7.606146e-01 -5.996171e-01 -3.254484e+00 -2.363216e+00 -3.665607e+00 -6.696249e-01 5.361708e+01 4.608402e-02 -2.190754e-01 -4.745470e-02 -6.894012e-02 1.285271e-01 3.154050e-01 5.021679e-01 -4.942968e-02 -2.180598e-02 -1.730466e-01 -2.277379e-01 -1.294063e-01 3.194999e-01 3.808120e-01 1.521932e-01 3.525562e-03 -9.064724e-02 -2.951291e-01 -2.481918e-01 -4.024057e-01 -1.435640e-01 -1.573749e-01 -4.934953e-02 9.317687e-03 -1.415559e-01 1.547009e-01
<VARIANCE> 39
 2.881202e+01 4.075741e+01 6.648498e+01 4.713745e+01 6.235125e+01 5.150877e+01 4.996336e+01 5.951492e+01 4.818131e+01 3.944647e+01 3.850429e+01 2.745533e+01 5.573479e+01 2.244322e+00 1.999381e+00 2.424829e+00 2.387663e+00 3.028383e+00 2.981625e+00 3.577294e+00 3.209938e+00 3.053841e+00 2.718719e+00 2.563854e+00 1.998238e+00 1.442728e+00 2.984943e-01 4.088559e-01 3.928807e-01 4.890022e-01 5.564362e-01 5.608247e-01 6.497693e-01 6.054194e-01 5.938933e-01 5.489122e-01 5.314841e-01 4.050238e-01 2.375755e-01
<GCONST> 1.234725e+02
<STATE> 3
<MEAN> 39
 -1.089509e+01 -6.137272e+00 -1.181185e+00 -8.830160e+00 -8.053306e+00 -2.787616e+00 3.765722e-01 -2.068991e+00 -5.290673e+00 -3.124995e+00 -4.767510e+00 -2.099419e+00 5.578003e+01 1.967793e+00 2.666137e-01 -1.045943e-01 -6.939910e-01 -1.346836e+00 -9.317581e-01 -1.050979e+00 -3.506787e-01 -6.431240e-01 -4.759091e-01 -3.186361e-01 -5.678049e-01 1.313202e+00 3.149677e-01 -3.868166e-01 -2.472097e-01 -4.321033e-01 -3.820941e-01 -2.829695e-01 -4.870237e-01 1.083723e-01 1.982128e-02 5.946644e-02 1.898733e-01 4.256959e-04 4.331339e-01
<VARIANCE> 39
 2.722049e+01 3.820749e+01 6.932716e+01 5.376175e+01 7.088259e+01 5.842620e+01 5.933788e+01 7.111878e+01 5.110841e+01 4.773948e+01 4.683616e+01 2.902859e+01 4.595470e+01 2.831083e+00 2.404044e+00 3.879326e+00 2.776340e+00 3.435622e+00 3.384440e+00 4.334244e+00 3.941003e+00 4.020365e+00 2.834013e+00 3.206443e+00 2.240963e+00 1.669393e+00 2.501605e-01 3.460273e-01 3.606391e-01 4.000161e-01 4.734236e-01 5.167618e-01 6.255076e-01 5.570180e-01 5.369883e-01 5.518343e-01 4.533049e-01 3.973746e-01 1.990217e-01
<GCONST> 1.254799e+02
<STATE> 4
<MEAN> 39
 -6.896179e+00 -6.990422e+00 -2.456515e+00 -1.301372e+01 -1.299635e+01 -6.504643e+00 -1.250097e+00 -3.094988e+00 -6.811409e+00 -3.859922e+00 -5.747025e+00 -2.937768e+00 6.091252e+01 1.458495e+00 -1.293224e+00 -8.970644e-01 -8.826911e-01 -1.012563e+00 -8.783776e-01 -8.191141e-01 5.293638e-01 2.376064e-02 -9.098741e-02 2.373240e-01 -1.865290e-01 1.544824e+00 -2.401043e-01 -3.758714e-01 1.318763e-02 -2.858212e-03 1.551253e-01 1.456778e-01 -6.218576e-02 2.032093e-01 2.204873e-01 1.032840e-01 1.691463e-01 7.649776e-02 4.027605e-03
<VARIANCE> 39
 1.751011e+01 3.373847e+01 7.041936e+01 6.433736e+01 6.346980e+01 5.945401e+01 6.217063e+01 7.912437e+01 5.585180e+01 4.881072e+01 5.913003e+01 2.966075e+01 3.718557e+01 1.979937e+00 2.356238e+00 3.253311e+00 2.887702e+00 3.583528e+00 3.236321e+00 4.512906e+00 3.719747e+00 3.464112e+00 3.056326e+00 2.584558e+00 2.278869e+00 1.576678e+00 2.280813e-01 2.883963e-01 3.271555e-01 3.313385e-01 3.857937e-01 3.722753e-01 4.928963e-01 4.788914e-01 4.382710e-01 4.400704e-01 3.850520e-01 3.233548e-01 1.449197e-01
<GCONST> 1.218615e+02
<TRANSP> 5
 0.000000e+00 1.000000e+00 0.000000e+00 0.000000e+00 0.000000e+00
