~o
<STREAMINFO> 1 39
<VECSIZE> 39<NULLD><MFCC_D_A_0><DIAGC>
~s "silst"
<MEAN> 39
 -1.932598e+01 -2.175902e+00 -6.038599e+00 -1.780436e+00 -2.078773e+00 -1.409351e-01 -7.474735e-01 3.602895e-01 -5.858032e-01 6.042653e-01 -3.293490e-01 2.571064e-01 3.241607e+01 -1.513178e-01 8.925511e-02 1.511701e-01 1.159458e-01 8.282236e-02 7.539038e-02 9.405522e-03 -3.957919e-02 1.757544e-03 9.323309e-02 4.851592e-02 -3.331034e-02 -1.231482e-01 7.012329e-02 -6.932086e-02 -2.414704e-02 -8.063728e-02 -4.368653e-02 -7.128087e-02 -2.931393e-02 -8.168248e-03 -2.998964e-02 -4.388037e-02 -3.839836e-02 -9.781897e-03 1.561660e-01
<VARIANCE> 39
 4.475723e+00 6.235898e+00 7.948849e+00 1.019612e+01 1.063344e+01 1.282796e+01 1.320240e+01 1.470005e+01 1.514847e+01 1.530390e+01 1.375484e+01 1.206599e+01 4.809852e+00 3.533840e-01 5.353971e-01 7.766979e-01 9.519203e-01 1.090301e+00 1.272484e+00 1.390780e+00 1.504711e+00 1.571465e+00 1.610422e+00 1.436153e+00 1.288801e+00 2.781281e-01 7.577025e-02 1.117201e-01 1.489000e-01 1.933388e-01 2.210061e-01 2.576402e-01 2.851717e-01 3.038243e-01 3.186960e-01 3.197170e-01 2.877358e-01 2.604443e-01 8.099557e-02
<GCONST> 8.005746e+01
~h "b"
<BEGINHMM>
<NUMSTATES> 5
<STATE> 2
<MEAN> 39
 -5.734380e+00 2.937500e+00 -2.723775e+00 -1.668229e+00 -2.678447e+00 -2.663638e+00 -7.415708e+00 -8.168149e+00 -8.372693e+00 -4.229459e+00 -3.125058e+00 -4.367346e+00 4.075940e+01 -1.042324e+00 1.506541e+00 8.501931e-01 1.430812e+00 9.961016e-01 6.072531e-01 6.569698e-01 -3.027849e-01 -3.755178e-01 -5.861912e-01 -3.767734e-01 -4.701049e-02 -2.008718e+00 -1.887533e-01 -9.508182e-01 -1.993100e-01 -7.071653e-01 -4.549214e-01 -2.834917e-01 -2.512503e-02 5.613366e-01 5.051203e-01 3.031552e-01 8.923282e-02 1.893445e-01 1.352257e+00
<VARIANCE> 39
 3.317316e+01 2.782014e+01 2.271290e+01 3.467249e+01 2.461135e+01 3.506620e+01 3.740335e+01 3.411556e+01 3.584435e+01 3.320155e+01 3.314651e+01 2.724066e+01 3.282367e+01 2.662290e+00 4.993048e+00 3.272738e+00 4.774080e+00 3.317300e+00 3.686753e+00 4.044374e+00 4.656194e+00 4.339022e+00 3.622331e+00 3.014133e+00 2.542096e+00 7.039269e+00 3.912918e-01 7.577442e-01 6.783928e-01 7.858755e-01 6.674483e-01 6.525985e-01 8.716523e-01 8.388718e-01 7.937106e-01 7.428718e-01 6.329098e-01 5.269929e-01 9.719393e-01
<GCONST> 1.293386e+02
<STATE> 3
<MEAN> 39
 -1.158628e+01 1.557586e+00 -2.106971e+00 -4.775457e-01 -1.118514e+00 -1.337065e+00 -4.370098e+00 -5.012622e+00 -5.622309e+00 -3.463654e+00 -3.080999e+00 -2.886383e+00 3.906652e+01 -1.875458e-01 -2.429393e+00 -9.247619e-01 -2.056606e+00 -1.211574e+00 -9.140399e-01 3.645793e-02 1.138214e+00 1.429503e+00 8.541874e-01 5.855769e-01 6.365617e-01 4.048006e+00 8.786256e-01 -8.123095e-01 -3.969157e-01 -1.165247e+00 -8.608708e-01 -4.130361e-01 -4.751319e-01 5.783332e-02 6.585817e-02 2.737637e-01 2.182824e-01 1.088983e-02 1.699397e+00
<VARIANCE> 39
 4.171635e+01 2.709984e+01 1.864879e+01 2.486518e+01 1.776662e+01 2.394334e+01 2.868172e+01 3.342081e+01 3.424250e+01 2.843209e+01 2.327781e+01 2.003500e+01 4.685846e+01 4.487358e+00 3.071240e+00 3.388198e+00 4.507411e+00 3.353174e+00 3.717942e+00 4.427516e+00 4.348567e+00 4.249579e+00 3.557534e+00 3.138412e+00 2.453654e+00 7.160452e+00 5.671582e-01 7.560872e-01 9.007977e-01 8.250697e-01 7.051636e-01 8.687355e-01 8.094739e-01 9.412326e-01 9.630302e-01 8.179383e-01 7.168983e-01 5.259561e-01 9.138852e-01
<GCONST> 1.289848e+02
<STATE> 4
<MEAN> 39
 -7.528027e+00 -7.011061e+00 -6.673325e+00 -1.047705e+01 -7.650185e+00 -5.756558e+00 -6.304306e+00 -2.969392e+00 -2.014580e+00 -2.767008e-01 -8.236761e-01 -1.567436e+00 5.678788e+01 2.270887e+00 -2.589817e+00 -9.507416e-01 -3.543801e+00 -2.359882e+00 -7.428515e-01 -1.041186e+00 6.421154e-01 3.974273e-01 7.145417e-01 3.986557e-01 3.648547e-02 4.792789e+00 1.934980e-01 4.479052e-01 2.736336e-01 2.804062e-01 1.564527e-01 3.641079e-01 -8.499621e-02 -1.501889e-01 -4.410903e-01 -2.338272e-01 -2.245297e-01 -2.318879e-01 -9.893312e-01
<VARIANCE> 39
 4.609153e+01 3.043847e+01 4.289669e+01 6.476098e+01 3.923710e+01 5.413054e+01 4.476866e+01 4.161752e+01 3.789249e+01 3.375903e+01 3.429599e+01 2.508000e+01 4.521344e+01 5.535891e+00 5.288765e+00 7.663311e+00 7.506637e+00 6.480994e+00 7.588724e+00 7.547901e+00 7.212297e+00 7.062349e+00 5.484689e+00 5.322071e+00 4.023927e+00 7.125648e+00 8.599513e-01 6.301314e-01 5.561870e-01 9.870777e-01 8.042559e-01 8.014126e-01 8.920771e-01 8.737057e-01 8.290136e-01 7.146868e-01 6.868978e-01 5.190946e-01 8.224780e-01
<GCONST> 1.401219e+02
<TRANSP> 5
 0.000000e+00 1.000000e+00 0.000000e+00 0.000000e+00 0.000000e+00
 0.000000e+00 6.634626e-01 3.365374e-01 0.000000e+00 0.000000e+00
 0.000000e+00 0.000000e+00 5.133112e-01 4.866888e-01 0.000000e+00
 0.000000e+00 0.000000e+00 0.000000e+00 5.007262e-01 4.992739e-01
 0.000000e+00 0.000000e+00 0.000000e+00 0.000000e+00 0.000000e+00
<ENDHMM>
~h "d"
<BEGINHMM>
<NUMSTATES> 5
<STATE> 2
<MEAN> 39
 -7.755223e+00 -2.731625e-01 1.083909e+00 -1.439399e+00 -8.292362e+00 -7.960233e+00 -7.517642e+00 -4.823982e+00 -5.779095e+00 -4.836682e+00 -6.088526e+00 -3.452106e+00 4.468595e+01 -1.169179e+00 1.663909e+00 2.281617e-01 1.338330e+00 1.795017e+00 1.134947e+00 4.902862e-01 -7.112160e-01 -1.919512e-01 -2.627030e-01 -3.545290e-01 -4.694096e-01 -2.463552e+00 -1.988177e-01 -9.057837e-01 -3.042774e-01 -8.792611e-01 -1.766649e-01 9.251948e-02 -1.078739e-03 4.623858e-01 2.186011e-01 2.585074e-01 3.977070e-01 2.349299e-01 1.249717e+00
<VARIANCE> 39
 3.190003e+01 5.029210e+01 3.888354e+01 6.513740e+01 5.568690e+01 4.576516e+01 4.161260e+01 4.942238e+01 4.723344e+01 3.888584e+01 3.699447e+01 3.117710e+01 7.146393e+01 2.825406e+00 6.877511e+00 3.701436e+00 6.918502e+00 5.497292e+00 5.151142e+00 5.506559e+00 5.713082e+00 4.770325e+00 4.162454e+00 4.017559e+00 3.324045e+00 9.863839e+00 4.101990e-01 1.082395e+00 5.492831e-01 1.026547e+00 9.991365e-01 7.920679e-01 9.694720e-01 9.019210e-01 8.020605e-01 7.997729e-01 7.431644e-01 6.071535e-01 1.540044e+00
<GCONST> 1.395123e+02
<STATE> 3
<MEAN> 39
 -1.266238e+01 -7.812735e-01 -3.774918e-01 -1.431489e+00 -3.635148e+00 -3.370224e+00 -5.343074e+00 -4.401407e+00 -5.116952e+00 -3.636654e+00 -4.569799e+00 -3.191002e+00 4.197793e+01 -1.323180e+00 -2.090231e+00 -6.746364e-01 -2.022407e+00 -2.616406e-02 4.579425e-01 4.186064e-01 8.980230e-01 7.439413e-01 6.483108e-01 1.023988e+00 7.523295e-01 2.894549e+00 4.242188e-01 -6.319962e-01 -8.008445e-02 -8.231499e-01 -9.284847e-01 -6.585076e-01 -3.143802e-01 3.313997e-01 1.298490e-01 1.701318e-01 1.703173e-01 1.929061e-01 1.608651e+00
<VARIANCE> 39
 4.297052e+01 4.763128e+01 3.610733e+01 4.778081e+01 4.122806e+01 3.837198e+01 3.780783e+01 3.872453e+01 3.699162e+01 2.990349e+01 2.860103e+01 2.320431e+01 8.245874e+01 4.011930e+00 5.370839e+00 3.908781e+00 5.695246e+00 4.971668e+00 5.319185e+00 5.019707e+00 5.111043e+00 4.801299e+00 3.892846e+00 3.524415e+00 2.816685e+00 1.128605e+01 6.530858e-01 1.042385e+00 7.059737e-01 9.935794e-01 9.534921e-01 9.381706e-01 9.800233e-01 9.514139e-01 8.959749e-01 7.368404e-01 7.486368e-01 6.030717e-01 1.457258e+00
<GCONST> 1.379139e+02
<STATE> 4
<MEAN> 39
 -1.376090e+01 -7.723073e+00 -2.362240e+00 -9.889369e+00 -8.426352e+00 -6.487434e+00 -5.497796e+00 -1.227874e+00 -2.561349e+00 -1.712231e+00 -2.080111e+00 -5.085082e-01 5.665232e+01 1.087825e+00 -1.136534e+00 -1.972045e-01 -1.492987e+00 -1.573319e+00 -1.321811e+00 -8.736227e-01 8.168889e-01 3.206493e-01 3.247782e-01 1.228485e-01 1.246227e-01 3.132323e+00 6.663115e-01 2.963708e-01 -2.456801e-03 4.664476e-01 -5.642169e-02 -2.709096e-02 -2.008456e-01 -6.700209e-02 -2.120577e-01 -7.421551e-02 -2.324502e-01 -2.919034e-01 -7.999045e-01
<VARIANCE> 39
 5.695277e+01 4.389255e+01 4.555958e+01 4.800473e+01 5.367706e+01 5.373953e+01 5.425771e+01 4.526417e+01 4.146637e+01 3.065066e+01 2.947194e+01 2.446345e+01 6.428516e+01 7.264155e+00 4.668766e+00 4.539471e+00 6.065351e+00 6.407528e+00 6.378596e+00 6.881091e+00 5.724870e+00 5.406671e+00 4.185370e+00 4.632611e+00 3.579146e+00 1.139093e+01 9.312870e-01 9.214835e-01 8.439292e-01 1.003580e+00 1.289329e+00 1.448232e+00 1.155831e+00 1.011215e+00 9.384551e-01 7.913238e-01 8.096259e-01 6.497093e-01 1.385629e+00
<GCONST> 1.432875e+02
<TRANSP> 5
 0.000000e+00 1.000000e+00 0.000000e+00 0.000000e+00 0.000000e+00
 0.000000e+00 5.243247e-01 4.756753e-01 0.000000e+00 0.000000e+00
 0.000000e+00 0.000000e+00 3.927026e-01 6.072974e-01 0.000000e+00
 0.000000e+00 0.000000e+00 0.000000e+00 5.305622e-01 4.694378e-01
 0.000000e+00 0.000000e+00 0.000000e+00 0.000000e+00 0.000000e+00
<ENDHMM>
~h "f"
<BEGINHMM>
<NUMSTATES> 5
<STATE> 2
<MEAN> 39
 -1.666749e+01 -5.299311e+00 -6.688595e+00 -5.631793e+00 -3.512384e+00 -3.294966e+00 -2.263109e+00 -7.645220e-01 -2.036728e+00 -1.398428e+00 -2.780380e+00 -1.287756e+00 5.280520e+01 -3.993253e+00 -2.974062e-01 -3.144505e-01 9.095464e-01 5.435532e-01 4.239901e-01 7.241774e-01 5.874295e-01 7.352969e-01 3.563538e-01 4.252644e-01 6.150807e-01 -9.049771e-01 3.722705e-01 -4.550833e-01 -1.832252e-01 -4.924511e-01 -4.419535e-01 -2.244828e-01 -3.670325e-01 -4.882266e-02 -8.847708e-02 7.339117e-02 3.483298e-02 -5.045632e-02 3.279328e-01
<VARIANCE> 39
 5.221704e+01 1.845947e+01 1.960366e+01 2.275660e+01 1.945723e+01 2.609643e+01 2.307618e+01 2.313621e+01 2.248752e+01 2.190260e+01 1.884455e+01 1.613394e+01 3.715025e+01 5.241764e+00 3.628812e+00 4.396203e+00 5.193438e+00 3.909516e+00 4.580590e+00 4.445838e+00 4.014032e+00 3.978826e+00 3.553600e+00 3.549718e+00 2.669965e+00 3.130394e+00 1.009299e+00 5.877565e-01 5.623104e-01 6.785447e-01 6.140324e-01 5.951478e-01 6.780574e-01 6.548117e-01 6.201254e-01 5.771638e-01 5.161865e-01 4.507394e-01 4.917360e-01
<GCONST> 1.240707e+02
<STATE> 3
<MEAN> 39
 -2.380566e+01 -8.592073e+00 -9.421716e+00 -6.465560e+00 -4.912868e+00 -3.961660e+00 -3.042738e+00 -2.772405e-01 -1.040415e+00 -1.692566e-01 -1.753298e+00 -1.095910e-01 5.287320e+01 1.376698e-01 -1.682581e-01 -1.515929e-01 -1.235996e-01 -7.030448e-02 -5.998878e-02 -8.211718e-02 -6.086615e-02 3.101356e-02 6.984992e-02 2.486275e-02 -8.564642e-03 1.170515e-01 8.593863e-01 1.466803e-01 1.364425e-01 -1.120529e-01 -2.748283e-02 -6.035682e-02 -1.226737e-01 -9.499457e-02 -9.999611e-02 -8.167102e-02 -6.488255e-02 -1.128266e-01 1.148189e-01
<VARIANCE> 39
 1.096587e+01 1.302299e+01 1.090578e+01 1.226829e+01 1.270491e+01 1.377232e+01 1.474185e+01 1.414744e+01 1.392203e+01 1.398155e+01 1.325323e+01 1.178278e+01 2.559126e+01 2.559886e+00 1.017519e+00 1.156130e+00 1.251805e+00 1.350661e+00 1.441657e+00 1.541127e+00 1.588040e+00 1.573318e+00 1.520087e+00 1.459096e+00 1.323768e+00 1.561437e+00 5.103674e-01 2.489494e-01 2.967877e-01 3.572920e-01 3.535951e-01 3.915446e-01 4.277910e-01 3.981052e-01 3.900047e-01 3.585978e-01 3.602848e-01 3.140666e-01 3.097740e-01
<GCONST> 9.709595e+01
<STATE> 4
<MEAN> 39
 -1.621055e+01 -7.151377e+00 -7.960909e+00 -7.405906e+00 -4.960629e+00 -4.155065e+00 -3.139631e+00 -1.155833e+00 -1.417312e+00 -5.725073e-01 -2.098843e+00 -1.051483e+00 5.355671e+01 4.913742e+00 9.576445e-02 1.289028e-01 -1.530030e+00 -1.193259e+00 -5.964569e-01 -1.308516e+00 -5.254869e-01 -5.965396e-01 -4.554701e-01 -1.435896e-01 -5.644643e-01 1.121516e+00 4.574317e-01 -2.963979e-01 -1.190484e-01 -4.369942e-01 -4.104688e-01 -8.180336e-02 -4.068493e-01 5.698794e-02 -1.099848e-01 -5.475429e-02 7.124534e-02 -3.764923e-02 3.277972e-01
<VARIANCE> 39
 5.663675e+01 2.035648e+01 2.281529e+01 2.452072e+01 2.252509e+01 2.494705e+01 2.436743e+01 2.200723e+01 2.104890e+01 1.860749e+01 1.749747e+01 1.559802e+01 3.606474e+01 5.913092e+00 3.770818e+00 5.099023e+00 5.400146e+00 4.791177e+00 5.705473e+00 5.749828e+00 4.324293e+00 4.365100e+00 3.390278e+00 3.673552e+00 2.758463e+00 4.607296e+00 1.098956e+00 5.244333e-01 5.428405e-01 6.673427e-01 6.549452e-01 7.202615e-01 7.821165e-01 6.829519e-01 6.724694e-01 5.950608e-01 5.169824e-01 4.343659e-01 5.786017e-01
<GCONST> 1.264132e+02
<TRANSP> 5
 0.000000e+00 1.000000e+00 0.000000e+00 0.000000e+00 0.000000e+00
 0.000000e+00 5.740280e-01 4.259720e-01 0.000000e+00 0.000000e+00
 0.000000e+00 0.000000e+00 8.320060e-01 1.679940e-01 0.000000e+00
 0.000000e+00 0.000000e+00 0.000000e+00 5.667723e-01 4.332277e-01
 0.000000e+00 0.000000e+00 0.000000e+00 0.000000e+00 0.000000e+00
<ENDHMM>
~h "g"
<BEGINHMM>
<NUMSTATES> 5
<STATE> 2
<MEAN> 39
 -7.042256e+00 -1.143872e+00 1.691083e+00 -2.255835e+00 -1.181252e+01 -1.156845e+01 -5.618413e+00 -3.159796e+00 -1.188761e+01 -4.245438e+00 -1.534287e+00 -3.889360e+00 4.670785e+01 -1.047632e+00 1.854506e+00 -4.369220e-01 1.817559e+00 2.234015e+00 8.387105e-01 -1.641895e-01 -9.144599e-01 6.098966e-01 -6.554894e-01 -6.834229e-01 -6.778882e-02 -3.233926e+00 -1.830534e-01 -9.243307e-01 -7.015748e-01 -6.291663e-01 3.691124e-01 3.497896e-01 -4.820129e-02 2.273552e-01 7.382303e-01 4.073994e-01 -1.181893e-01 1.555801e-01 9.959006e-01
<VARIANCE> 39
 2.176138e+01 4.570687e+01 4.422073e+01 5.081024e+01 6.067401e+01 5.584190e+01 5.516542e+01 8.501421e+01 5.504590e+01 6.035398e+01 6.557612e+01 3.776479e+01 6.056379e+01 2.460982e+00 7.045846e+00 4.660303e+00 5.750199e+00 6.309850e+00 5.782771e+00 6.669736e+00 7.918253e+00 6.670028e+00 5.953458e+00 4.970125e+00 3.467004e+00 6.852046e+00 3.313826e-01 1.258785e+00 6.987411e-01 9.864628e-01 9.946880e-01 1.017787e+00 1.108704e+00 1.215857e+00 1.027844e+00 1.185165e+00 9.280662e-01 6.898408e-01 1.543827e+00
<GCONST> 1.443129e+02
<STATE> 3
<MEAN> 39
 -1.255892e+01 -1.637195e+00 -2.988601e+00 2.779260e-01 -2.426535e+00 -6.217226e+00 -5.763533e+00 -3.621333e+00 -5.865376e+00 -3.201641e+00 -3.592837e+00 -2.544259e+00 4.154068e+01 -6.774981e-01 -2.950227e+00 -2.535632e+00 -1.569740e+00 1.485430e+00 7.558098e-01 -2.176417e-01 6.042600e-01 1.671177e+00 1.362939e+00 -3.144284e-02 6.443080e-01 2.515423e+00 6.325878e-01 -5.495391e-01 -6.943583e-03 -9.527504e-01 -9.080477e-01 -4.838307e-01 -1.756085e-01 9.883744e-02 -2.571258e-01 3.412810e-01 2.802983e-01 2.488831e-02 1.581339e+00
<VARIANCE> 39
 3.459503e+01 6.151472e+01 4.901629e+01 3.350174e+01 4.427929e+01 5.154580e+01 4.138650e+01 4.486904e+01 4.091651e+01 3.200506e+01 2.731017e+01 2.114910e+01 5.922244e+01 3.483333e+00 7.581722e+00 6.242895e+00 5.880020e+00 7.380614e+00 7.424994e+00 6.733479e+00 7.947036e+00 5.957702e+00 5.088530e+00 4.220420e+00 3.317586e+00 8.652296e+00 6.280721e-01 1.699271e+00 1.127414e+00 1.097903e+00 1.002914e+00 1.123602e+00 1.078224e+00 1.223510e+00 9.159936e-01 9.477347e-01 9.028220e-01 5.556157e-01 1.352241e+00
<GCONST> 1.428356e+02
<STATE> 4
<MEAN> 39
 -1.050691e+01 -9.541807e+00 -8.611735e+00 -7.784774e+00 -3.782887e+00 -7.839720e+00 -7.434359e+00 -2.794683e+00 -3.930565e+00 1.261183e+00 -2.581420e+00 -1.129937e+00 5.451581e+01 1.651513e+00 -4.127637e-03 2.999037e-01 -1.526680e+00 -1.199708e+00 -8.302405e-01 -1.196677e+00 -1.527735e-01 -1.318149e-01 2.446665e-01 4.605222e-01 1.992470e-02 2.396713e+00 5.035199e-01 6.839557e-01 6.168428e-01 2.638713e-01 -4.949308e-01 -1.417023e-01 -1.386593e-01 1.580985e-02 -3.796971e-01 -4.977989e-01 1.005367e-01 -1.802436e-01 -5.626192e-01
<VARIANCE> 39
 3.230712e+01 5.554596e+01 8.638123e+01 5.038507e+01 7.642574e+01 6.615667e+01 6.104249e+01 5.781137e+01 5.033019e+01 4.141425e+01 3.689871e+01 2.535072e+01 3.598043e+01 4.344441e+00 6.594054e+00 6.070452e+00 7.322192e+00 6.289765e+00 6.499829e+00 6.002632e+00 5.600177e+00 5.884363e+00 5.652453e+00 4.386669e+00 3.147159e+00 5.864480e+00 6.422479e-01 1.637103e+00 1.510974e+00 1.023348e+00 1.316433e+00 1.222451e+00 1.252355e+00 1.274621e+00 1.256586e+00 1.088719e+00 8.403608e-01 6.751899e-01 8.028829e-01
<GCONST> 1.455416e+02
<TRANSP> 5
 0.000000e+00 1.000000e+00 0.000000e+00 0.000000e+00 0.000000e+00
 0.000000e+00 6.097710e-01 3.902290e-01 0.000000e+00 0.000000e+00
 0.000000e+00 0.000000e+00 5.383070e-01 4.616929e-01 0.000000e+00
 0.000000e+00 0.000000e+00 0.000000e+00 6.344896e-01 3.655104e-01
 0.000000e+00 0.000000e+00 0.000000e+00 0.000000e+00 0.000000e+00
<ENDHMM>
~h "k"
<BEGINHMM>
<NUMSTATES> 5
<STATE> 2
<MEAN> 39
 -1.275298e+01 -4.013522e+00 -2.330595e+00 -2.731516e+00 -6.192431e+00 -8.838056e+00 -4.377433e+00 -1.972353e-01 -6.710287e+00 -1.438020e+00 -1.731485e+00 -1.662241e+00 4.497589e+01 -2.595059e+00 1.025306e+00 -4.414959e-01 1.753866e+00 2.011030e+00 2.324890e+00 9.992820e-01 -5.738346e-01 1.157156e+00 4.677848e-01 1.880072e-01 4.335764e-01 -4.651178e+00 6.511671e-02 -7.577333e-01 -5.309550e-01 -6.856325e-01 -6.740417e-02 2.570440e-01 -1.559569e-02 2.224900e-01 4.337502e-01 1.509745e-01 -1.612701e-02 2.232648e-03 9.767280e-01
<VARIANCE> 39
 4.596713e+01 3.647566e+01 5.333417e+01 5.049924e+01 8.311338e+01 7.120666e+01 6.019534e+01 7.454971e+01 6.500870e+01 4.479953e+01 4.547777e+01 2.995374e+01 8.618697e+01 5.358479e+00 5.852092e+00 7.041759e+00 5.734776e+00 8.252707e+00 7.480292e+00 7.081110e+00 7.887472e+00 8.071753e+00 5.399674e+00 5.701612e+00 3.457814e+00 7.440375e+00 8.846242e-01 1.049001e+00 8.347265e-01 1.086043e+00 1.505765e+00 1.484592e+00 1.090926e+00 1.407367e+00 1.375185e+00 9.807580e-01 9.345410e-01 6.900452e-01 2.551183e+00
<GCONST> 1.496550e+02
<STATE> 3
<MEAN> 39
 -1.931235e+01 -5.343306e+00 -5.982246e+00 -1.344747e+00 -1.013867e+00 -1.045966e+00 -1.799253e+00 7.361182e-01 -8.419545e-01 1.168131e+00 -5.107831e-01 -8.534446e-02 3.643657e+01 1.676520e-01 -1.857874e+00 -1.311271e+00 -1.543901e+00 -2.558409e-01 4.952499e-02 5.941305e-02 1.117665e-01 2.078746e-01 5.682333e-01 -1.268784e-01 1.897701e-01 2.518798e+00 6.310098e-01 -1.851425e-01 1.089785e-01 -7.116894e-01 -6.108733e-01 -8.961945e-01 -3.652377e-01 -4.831644e-02 -4.854584e-01 -1.277709e-01 -1.672247e-01 -1.231300e-01 2.065991e+00
<VARIANCE> 39
 1.483308e+01 3.242714e+01 2.587451e+01 2.350857e+01 2.527852e+01 2.585733e+01 2.706351e+01 2.551127e+01 2.429423e+01 2.028138e+01 1.711541e+01 1.466455e+01 4.949590e+01 4.052841e+00 5.008008e+00 5.119034e+00 4.907601e+00 5.041933e+00 5.537785e+00 4.662182e+00 4.702942e+00 5.331050e+00 3.554741e+00 3.161740e+00 2.561719e+00 1.568846e+01 7.170365e-01 1.047647e+00 9.183424e-01 8.041319e-01 9.344624e-01 8.861539e-01 8.864821e-01 8.410126e-01 7.957386e-01 6.338891e-01 6.309654e-01 4.398937e-01 1.889043e+00
<GCONST> 1.309470e+02
<STATE> 4
<MEAN> 39
 -1.554803e+01 -1.015634e+01 -7.304736e+00 -9.965667e+00 -5.047240e+00 -5.304013e+00 -2.882320e+00 -4.829771e-01 -3.086757e+00 1.657464e+00 -2.446959e+00 -4.816914e-01 5.559753e+01 1.145495e+00 2.701918e-01 4.234671e-01 -7.530414e-01 -9.143086e-01 -7.624866e-01 -2.072701e-01 -8.193606e-02 -3.990808e-01 -5.279841e-01 -9.596223e-02 -2.564416e-01 1.988651e+00 2.151445e-01 3.686426e-01 2.781349e-01 3.021022e-01 -9.337826e-02 3.053762e-02 -9.859429e-02 2.632987e-02 -6.542189e-02 -2.515097e-01 9.294023e-02 -8.776357e-02 -6.129137e-01
<VARIANCE> 39
 3.374454e+01 3.875566e+01 7.451647e+01 4.399714e+01 5.995511e+01 5.031492e+01 5.079953e+01 4.665084e+01 4.141302e+01 3.577934e+01 3.086517e+01 2.328322e+01 4.452646e+01 5.561147e+00 4.519607e+00 3.914129e+00 5.043581e+00 4.455328e+00 4.783594e+00 4.722840e+00 4.564416e+00 4.668089e+00 3.851224e+00 3.406206e+00 2.626288e+00 9.002513e+00 7.798949e-01 1.241328e+00 1.003665e+00 9.621277e-01 9.114326e-01 9.152925e-01 9.584437e-01 8.829243e-01 9.180275e-01 7.751333e-01 6.710939e-01 5.449011e-01 1.618242e+00
<GCONST> 1.387396e+02
<TRANSP> 5
 0.000000e+00 1.000000e+00 0.000000e+00 0.000000e+00 0.000000e+00
 0.000000e+00 6.253278e-01 3.746721e-01 0.000000e+00 0.000000e+00
 0.000000e+00 0.000000e+00 6.161467e-01 3.838533e-01 0.000000e+00
 0.000000e+00 0.000000e+00 0.000000e+00 7.553638e-01 2.446362e-01
 0.000000e+00 0.000000e+00 0.000000e+00 0.000000e+00 0.000000e+00
<ENDHMM>
~h "l"
<BEGINHMM>
<NUMSTATES> 5
<STATE> 2
<MEAN> 39
 -1.352238e+00 -5.050199e+00 -1.085220e+01 -2.301814e+01 -8.354507e+00 9.829305e-01 -7.907387e+00 -7.573422e+00 -3.733793e+00 -3.247426e-02 -3.560489e-01 -2.910312e+00 5.965416e+01 8.681247e-01 6.114776e-01 -2.779598e-01 -1.844914e+00 -2.240109e-01 1.020917e+00 -1.007190e-01 -5.551529e-01 -5.803113e-01 -1.738371e-01 5.313072e-01 3.760681e-01 -1.880334e-02 -3.620166e-01 -2.464466e-01 1.026652e-01 5.745277e-01 9.980088e-02 -3.524748e-01 2.314985e-02 4.230816e-01 1.770199e-01 -3.229702e-02 -1.509231e-01 -1.171152e-02 -4.792891e-02
<VARIANCE> 39
 1.276617e+01 4.917824e+01 4.606264e+01 6.750685e+01 6.101362e+01 7.014300e+01 7.610316e+01 6.030739e+01 6.209315e+01 5.807841e+01 6.361982e+01 4.121508e+01 3.016013e+01 2.060813e+00 2.750159e+00 2.274946e+00 4.569021e+00 3.827006e+00 4.242228e+00 4.625576e+00 4.484649e+00 4.070642e+00 4.099649e+00 3.637870e+00 3.176996e+00 2.043532e+00 3.795939e-01 4.829736e-01 3.728429e-01 7.094873e-01 7.018096e-01 6.737323e-01 7.497782e-01 7.967781e-01 8.525196e-01 7.826146e-01 6.744502e-01 6.082144e-01 2.723715e-01
<GCONST> 1.314089e+02
<STATE> 3
<MEAN> 39
 -6.173844e-01 -3.650921e+00 -1.096278e+01 -2.641384e+01 -8.308228e+00 2.458286e+00 -8.075428e+00 -6.441675e+00 -4.562256e+00 -5.866359e-01 6.661144e-01 -2.070089e+00 5.894360e+01 -2.550665e-01 -4.994718e-01 6.623714e-02 8.756142e-01 3.916472e-01 -6.866982e-01 -5.880935e-01 3.330515e-01 6.259518e-01 5.003066e-01 -3.813730e-01 -6.289235e-01 1.692778e-01 -2.954670e-01 -2.253604e-01 1.974680e-01 7.205285e-01 9.161245e-03 -4.103722e-01 3.565539e-02 2.745733e-01 2.364706e-01 -6.294108e-02 -3.085388e-01 -9.936505e-02 -3.888071e-02
<VARIANCE> 39
 9.401803e+00 3.981205e+01 4.801472e+01 6.754831e+01 6.326572e+01 6.509885e+01 7.747814e+01 6.366646e+01 6.009673e+01 6.364154e+01 5.511626e+01 4.194224e+01 2.686772e+01 5.828160e-01 3.169809e+00 1.555493e+00 3.376926e+00 2.567331e+00 3.114254e+00 3.677344e+00 3.537322e+00 4.326416e+00 3.559035e+00 2.913446e+00 2.763877e+00 1.765857e+00 2.206737e-01 3.354948e-01 3.251646e-01 5.664550e-01 5.933543e-01 5.962480e-01 5.964455e-01 7.833837e-01 6.760598e-01 7.181450e-01 5.691905e-01 5.177227e-01 2.353219e-01
<GCONST> 1.246190e+02
<STATE> 4
<MEAN> 39
 -3.228628e+00 -7.561956e+00 -9.152709e+00 -1.786577e+01 -7.089845e+00 -4.623172e+00 -1.078494e+01 -3.141511e+00 -4.051169e-01 4.063922e-01 -3.878280e+00 -4.553778e+00 5.961584e+01 -9.784130e-01 -6.439868e-01 1.452294e+00 2.262929e+00 -7.592327e-01 -1.870032e+00 3.049198e-01 1.582119e+00 9.419912e-02 -9.468803e-01 -8.398091e-01 4.031813e-01 -1.248483e-01 -2.059345e-01 1.924292e-01 3.461148e-01 2.607448e-02 -2.742681e-01 1.883318e-01 4.735968e-01 -6.488624e-02 -5.959416e-01 -2.872131e-01 3.108847e-01 3.345474e-01 -2.369951e-01
<VARIANCE> 39
 1.532216e+01 4.644753e+01 5.287253e+01 7.069491e+01 5.455247e+01 8.655313e+01 9.077233e+01 6.823799e+01 6.992045e+01 6.620208e+01 6.284034e+01 4.490506e+01 5.157847e+01 1.521416e+00 3.133361e+00 3.926409e+00 4.943230e+00 5.767150e+00 5.278100e+00 4.863221e+00 5.813195e+00 6.006214e+00 4.673519e+00 4.044098e+00 3.817976e+00 2.697477e+00 3.174226e-01 4.047126e-01 4.023776e-01 8.152466e-01 7.517002e-01 8.507910e-01 8.603173e-01 9.401442e-01 1.070241e+00 9.374744e-01 6.913410e-01 6.677432e-01 2.858236e-01
<GCONST> 1.364918e+02
<TRANSP> 5
 0.000000e+00 1.000000e+00 0.000000e+00 0.000000e+00 0.000000e+00
 0.000000e+00 6.386633e-01 3.613367e-01 0.000000e+00 0.000000e+00
 0.000000e+00 0.000000e+00 6.568285e-01 3.431715e-01 0.000000e+00
 0.000000e+00 0.000000e+00 0.000000e+00 5.251074e-01 4.748926e-01
 0.000000e+00 0.000000e+00 0.000000e+00 0.000000e+00 0.000000e+00
<ENDHMM>
~h "m"
<BEGINHMM>
<NUMSTATES> 5
<STATE> 2
<MEAN> 39
 -4.228129e+00 -3.993402e+00 -5.373828e+00 -5.353652e+00 -6.858684e+00 -6.930606e+00 -6.619180e+00 -7.661422e+00 -1.023197e+01 -2.131114e+00 -2.132946e+00 -5.797527e+00 5.151291e+01 3.227412e-01 1.375939e+00 9.635122e-01 1.672851e+00 1.152467e-01 -1.058789e+00 1.237540e-01 -2.170149e+00 -2.337510e+00 3.343266e-01 2.095193e-01 -7.697372e-01 -8.702816e-01 -2.441632e-01 -3.814628e-01 8.242188e-02 -3.268597e-01 -1.893362e-01 1.113096e-01 -7.469647e-02 4.666028e-01 4.133420e-01 -5.531577e-02 -8.541740e-02 1.738891e-01 4.393481e-01
<VARIANCE> 39
 2.013361e+01 3.317426e+01 3.598091e+01 5.431565e+01 4.651484e+01 6.073645e+01 6.277697e+01 6.272808e+01 7.008163e+01 5.379275e+01 6.736189e+01 4.480461e+01 3.767923e+01 4.391024e+00 2.782502e+00 3.736172e+00 4.041075e+00 4.869640e+00 4.370468e+00 5.929116e+00 5.300846e+00 5.862095e+00 4.816641e+00 4.970222e+00 3.817318e+00 4.743970e+00 3.509223e-01 4.270709e-01 5.935559e-01 6.235147e-01 6.218216e-01 6.454329e-01 7.620122e-01 8.082047e-01 9.720384e-01 6.790472e-01 6.953266e-01 5.521183e-01 3.521806e-01
<GCONST> 1.347177e+02
<STATE> 3
<MEAN> 39
 -4.063305e+00 -3.062249e+00 -3.047255e+00 -2.943643e+00 -7.722278e+00 -8.800666e+00 -7.116337e+00 -1.091070e+01 -1.365619e+01 -9.787723e-01 -2.303378e+00 -7.128186e+00 5.138879e+01 -3.164825e-02 -1.498853e-01 1.094369e-01 -1.791141e-01 -1.371208e-01 9.642284e-02 -1.123447e-01 1.575908e-01 2.837301e-01 -1.999466e-01 -1.316820e-01 1.359847e-01 3.264060e-01 -1.439201e-01 -4.516499e-01 -2.629859e-01 -6.905183e-01 -1.058799e-01 3.881951e-01 -1.048442e-02 8.176746e-01 8.369760e-01 -1.829901e-01 -8.297006e-02 3.237356e-01 3.763102e-01
<VARIANCE> 39
 8.282438e+00 2.309489e+01 3.037507e+01 4.795316e+01 5.036598e+01 6.914694e+01 6.593613e+01 6.613187e+01 6.166793e+01 6.213859e+01 8.564646e+01 5.382380e+01 1.980369e+01 1.237845e+00 2.028964e+00 1.635755e+00 2.354793e+00 2.312643e+00 2.231329e+00 2.650978e+00 3.022653e+00 3.657664e+00 2.571920e+00 2.538383e+00 2.143082e+00 2.453146e+00 3.522104e-01 2.966726e-01 5.118533e-01 5.153587e-01 6.033517e-01 5.734506e-01 6.880845e-01 7.388352e-01 8.723364e-01 6.948348e-01 7.397010e-01 5.999720e-01 2.436839e-01
<GCONST> 1.231937e+02
<STATE> 4
<MEAN> 39
 -4.439879e+00 -5.824091e+00 -5.023601e+00 -6.897561e+00 -8.261852e+00 -6.677326e+00 -7.501759e+00 -6.508189e+00 -8.044809e+00 -3.189539e+00 -3.030022e+00 -4.984599e+00 5.429886e+01 -3.082897e-01 -1.601283e+00 -3.783068e-01 -2.255585e+00 -8.689856e-01 1.027723e+00 -4.922597e-02 2.520582e+00 2.297732e+00 -6.069631e-01 -3.736437e-01 9.283018e-01 1.681116e+00 -2.517408e-01 -1.176513e-01 1.339044e-01 -2.421042e-01 -8.713054e-02 1.398661e-01 1.553034e-01 3.000917e-01 7.579464e-03 1.352128e-01 4.383691e-02 6.301558e-02 6.930079e-02
<VARIANCE> 39
 1.732718e+01 3.704686e+01 3.900439e+01 5.716171e+01 5.089674e+01 6.257081e+01 5.571873e+01 6.257470e+01 7.243943e+01 4.845483e+01 6.193063e+01 4.015412e+01 4.756283e+01 2.695537e+00 3.344001e+00 5.667604e+00 5.224862e+00 5.927335e+00 4.958223e+00 5.516479e+00 5.475088e+00 6.655210e+00 5.164369e+00 5.356395e+00 4.042822e+00 3.940458e+00 3.408293e-01 4.940848e-01 5.786266e-01 7.161421e-01 6.621251e-01 6.850095e-01 7.219682e-01 8.946560e-01 1.146521e+00 6.570184e-01 6.689202e-01 5.264016e-01 4.264617e-01
<GCONST> 1.362080e+02
<TRANSP> 5
 0.000000e+00 1.000000e+00 0.000000e+00 0.000000e+00 0.000000e+00
 0.000000e+00 4.649920e-01 5.350080e-01 0.000000e+00 0.000000e+00
 0.000000e+00 0.000000e+00 6.722830e-01 3.277170e-01 0.000000e+00
 0.000000e+00 0.000000e+00 0.000000e+00 4.378062e-01 5.621938e-01
 0.000000e+00 0.000000e+00 0.000000e+00 0.000000e+00 0.000000e+00
<ENDHMM>
~h "n"
<BEGINHMM>
<NUMSTATES> 5
<STATE> 2
<MEAN> 39
 -4.558488e+00 -7.462904e+00 -3.047194e+00 -9.449221e+00 -1.173466e+01 -7.787259e+00 -6.563118e+00 -2.427166e+00 -7.870740e+00 -3.091786e+00 -5.464328e+00 -4.411270e+00 5.619790e+01 1.951943e-01 1.528903e+00 8.498073e-02 1.467116e+00 4.981764e-02 -5.823796e-01 1.012355e+00 -2.437204e+00 -1.229226e+00 1.003865e+00 -6.491107e-01 -2.034130e-01 -1.711363e+00 -1.473023e-01 6.039302e-02 2.054600e-02 -3.356411e-02 -1.752971e-02 8.827465e-02 8.160459e-02 -1.140476e-01 6.940039e-02 5.256198e-02 9.473233e-03 1.043472e-01 -3.465918e-03
<VARIANCE> 39
 1.094391e+01 3.614134e+01 4.772674e+01 6.623320e+01 5.726739e+01 5.626212e+01 5.981880e+01 8.402848e+01 8.105246e+01 6.140283e+01 6.109772e+01 4.852915e+01 3.261897e+01 1.214223e+00 2.646383e+00 3.707763e+00 3.524951e+00 4.260446e+00 4.518437e+00 4.667606e+00 6.952226e+00 5.546062e+00 4.346031e+00 3.770349e+00 3.243287e+00 2.296345e+00 2.064888e-01 3.250396e-01 3.983028e-01 4.943163e-01 5.516340e-01 5.482493e-01 6.309679e-01 1.038397e+00 7.375261e-01 6.265276e-01 5.450692e-01 4.562881e-01 2.911277e-01
<GCONST> 1.296580e+02
<STATE> 3
<MEAN> 39
 -4.110292e+00 -2.566129e+00 -2.708645e+00 -5.187350e+00 -1.234140e+01 -9.115685e+00 -2.440074e+00 -1.130228e+01 -1.116263e+01 8.826245e-01 -7.455576e+00 -4.367486e+00 5.142380e+01 -1.671498e-01 8.485971e-01 1.083329e-01 5.369116e-01 1.488012e-01 1.011909e-02 2.412748e-01 -8.854438e-01 -3.033225e-01 1.023699e-01 -2.048718e-01 4.661456e-02 -8.261806e-01 -3.155477e-01 -5.040126e-01 -1.731035e-02 -5.139326e-01 2.283355e-01 2.882164e-01 -5.104616e-01 1.122768e+00 5.926709e-01 -5.294637e-01 3.189928e-01 1.199079e-01 4.760132e-01
<VARIANCE> 39
 8.352893e+00 2.844039e+01 2.996008e+01 5.253191e+01 4.643088e+01 5.099678e+01 5.633702e+01 7.466898e+01 6.692097e+01 6.200390e+01 6.848500e+01 5.715545e+01 2.154133e+01 8.931810e-01 2.563323e+00 2.054308e+00 2.513174e+00 2.643439e+00 2.775972e+00 3.503730e+00 5.796753e+00 4.047791e+00 3.320355e+00 2.680573e+00 2.295455e+00 2.195447e+00 2.969829e-01 4.759608e-01 5.524397e-01 6.236848e-01 7.409794e-01 7.533851e-01 7.989203e-01 1.075537e+00 1.059744e+00 7.838334e-01 7.351546e-01 6.466975e-01 3.702788e-01
<GCONST> 1.272925e+02
<STATE> 4
<MEAN> 39
 -6.502856e+00 -3.212725e+00 -3.231086e+00 -6.020711e+00 -9.993788e+00 -7.387045e+00 -4.747725e+00 -6.737770e+00 -8.237490e+00 -2.153417e+00 -6.388907e+00 -3.762950e+00 5.024342e+01 -1.011204e+00 -5.773427e-01 -2.554428e-01 -7.534572e-01 8.401872e-01 7.105561e-01 -6.293001e-01 1.654941e+00 1.057646e+00 -6.743876e-01 5.779893e-01 2.325367e-01 3.738159e-01 -2.614536e-01 -3.996491e-01 -1.756409e-01 -3.842316e-01 6.069735e-02 2.065553e-01 -3.472511e-03 5.173948e-01 3.084010e-01 1.145578e-02 2.141183e-01 1.090440e-01 4.341384e-01
<VARIANCE> 39
 2.341342e+01 5.081435e+01 3.733942e+01 5.687815e+01 5.156647e+01 4.824062e+01 5.572780e+01 7.830634e+01 6.762032e+01 5.554250e+01 5.252372e+01 4.422837e+01 5.472480e+01 3.530399e+00 4.312413e+00 3.815850e+00 4.848318e+00 4.995387e+00 4.425265e+00 5.354295e+00 7.266294e+00 6.036786e+00 4.863277e+00 4.312794e+00 3.636138e+00 5.233741e+00 5.915936e-01 7.758602e-01 5.763752e-01 7.510580e-01 8.203315e-01 7.588205e-01 8.798745e-01 1.330926e+00 1.097953e+00 8.376617e-01 7.284153e-01 5.997587e-01 7.248352e-01
<GCONST> 1.396230e+02
<TRANSP> 5
 0.000000e+00 1.000000e+00 0.000000e+00 0.000000e+00 0.000000e+00
 0.000000e+00 4.968480e-01 5.031519e-01 0.000000e+00 0.000000e+00
 0.000000e+00 0.000000e+00 5.671766e-01 4.328234e-01 0.000000e+00
 0.000000e+00 0.000000e+00 0.000000e+00 4.904642e-01 5.095358e-01
 0.000000e+00 0.000000e+00 0.000000e+00 0.000000e+00 0.000000e+00
<ENDHMM>
~h "p"
<BEGINHMM>
<NUMSTATES> 5
<STATE> 2
<MEAN> 39
 -1.053568e+01 1.068038e-01 -4.226461e+00 -3.595033e+00 -3.274586e+00 -2.774756e+00 -5.098090e+00 -4.899357e+00 -5.654778e+00 -2.538957e+00 -2.678590e+00 -3.009213e+00 4.083178e+01 -3.220997e+00 1.101517e+00 3.942141e-01 2.249334e+00 1.515286e+00 1.346989e+00 1.524022e+00 6.330823e-01 8.248371e-01 2.415988e-01 8.731590e-02 5.429787e-01 -4.674478e+00 -2.273373e-01 -9.407154e-01 -2.313244e-01 -5.781068e-01 -3.475636e-01 -1.316004e-01 1.296751e-02 5.061654e-01 4.550681e-01 3.625748e-01 2.091060e-01 1.614955e-01 1.121599e+00
<VARIANCE> 39
 4.913595e+01 2.997850e+01 3.129045e+01 4.811200e+01 2.849866e+01 3.170623e+01 3.376500e+01 3.343810e+01 3.744030e+01 3.159760e+01 3.141836e+01 2.412548e+01 6.325306e+01 5.447496e+00 6.600464e+00 5.665664e+00 7.017947e+00 4.813042e+00 5.590813e+00 5.120025e+00 5.532625e+00 5.956202e+00 4.922659e+00 4.573022e+00 3.323704e+00 9.376792e+00 1.058277e+00 8.259043e-01 7.858681e-01 1.162481e+00 8.785837e-01 8.095886e-01 8.255204e-01 8.607242e-01 8.650213e-01 7.713743e-01 7.242846e-01 5.640352e-01 1.794642e+00
<GCONST> 1.385951e+02
<STATE> 3
<MEAN> 39
 -1.937532e+01 -2.454211e+00 -5.215082e+00 -1.445154e+00 -1.500421e+00 4.143968e-02 -1.089848e+00 5.764582e-02 -2.863836e-01 1.020420e+00 4.388188e-02 1.118967e-02 3.372861e+01 -1.747383e-01 -1.158336e+00 -5.000121e-01 -5.613382e-01 -1.778436e-01 -2.280514e-01 2.164162e-01 5.370348e-01 7.054905e-01 4.160596e-01 3.067531e-01 2.973246e-01 1.996945e+00 8.417698e-01 -2.994048e-01 -6.158039e-02 -5.749616e-01 -2.928417e-01 -4.586379e-01 -3.788656e-01 -2.325791e-01 -2.559290e-01 -2.068454e-01 -1.796481e-01 -1.878993e-01 1.873074e+00
<VARIANCE> 39
 5.507386e+00 7.731186e+00 7.206204e+00 1.023703e+01 1.017990e+01 1.222521e+01 1.226013e+01 1.445658e+01 1.407133e+01 1.418545e+01 1.209036e+01 1.181990e+01 2.663051e+01 2.934409e+00 2.146519e+00 1.693345e+00 2.559749e+00 1.861350e+00 2.541882e+00 2.435709e+00 2.885523e+00 2.951429e+00 2.448861e+00 2.132035e+00 1.890471e+00 1.454914e+01 6.190501e-01 3.881283e-01 4.300233e-01 5.426012e-01 4.645093e-01 5.550235e-01 5.376441e-01 5.151005e-01 5.355512e-01 4.791181e-01 4.438439e-01 3.680055e-01 1.241811e+00
<GCONST> 1.076556e+02
<STATE> 4
<MEAN> 39
 -1.428288e+01 -9.027040e+00 -7.913743e+00 -7.575104e+00 -3.268574e+00 -3.275948e+00 -1.990399e+00 -3.158597e-01 -2.766486e-01 2.007847e-01 -1.310276e+00 -8.357728e-01 5.400794e+01 2.090058e+00 -7.515675e-01 -6.051236e-01 -1.403846e+00 -7.115855e-01 -6.134731e-01 -7.906122e-01 -3.111786e-01 -5.352525e-01 -4.887014e-01 -5.046165e-01 -3.835392e-01 2.688975e+00 3.955782e-01 3.328433e-01 2.785339e-02 -2.031601e-02 -2.046954e-01 1.357853e-02 -3.260628e-01 -1.207402e-01 -2.895357e-01 -1.512826e-01 -6.009044e-02 -8.924310e-02 -7.232153e-01
<VARIANCE> 39
 2.497372e+01 2.539457e+01 2.938629e+01 3.576262e+01 3.034648e+01 3.374694e+01 3.476333e+01 3.146070e+01 2.991429e+01 2.546672e+01 2.395681e+01 1.884370e+01 4.186546e+01 4.817126e+00 3.811973e+00 3.526744e+00 4.368608e+00 4.130767e+00 4.675767e+00 4.944905e+00 4.161194e+00 4.213258e+00 3.228492e+00 3.145338e+00 2.358829e+00 1.016558e+01 6.029796e-01 6.109934e-01 5.177860e-01 6.621491e-01 6.903307e-01 7.307777e-01 7.733034e-01 8.027315e-01 8.125100e-01 6.612545e-01 6.148733e-01 4.741365e-01 1.445079e+00
<GCONST> 1.293462e+02
<TRANSP> 5
 0.000000e+00 1.000000e+00 0.000000e+00 0.000000e+00 0.000000e+00
 0.000000e+00 5.699366e-01 4.300634e-01 0.000000e+00 0.000000e+00
 0.000000e+00 0.000000e+00 7.225493e-01 2.774507e-01 0.000000e+00
 0.000000e+00 0.000000e+00 0.000000e+00 7.418920e-01 2.581080e-01
 0.000000e+00 0.000000e+00 0.000000e+00 0.000000e+00 0.000000e+00
<ENDHMM>
~h "r"
<BEGINHMM>
<NUMSTATES> 5
<STATE> 2
<MEAN> 39
 2.162632e+00 -1.015881e+01 -1.409044e+01 -6.755554e+00 -4.489091e+00 -1.091382e+01 -1.641042e+01 9.924936e-02 -1.980329e+00 -3.354251e+00 -9.408522e-01 3.652362e-01 5.690738e+01 1.185510e+00 -2.447576e-01 -9.912200e-01 1.322062e-01 3.568130e-01 -4.503922e-01 -1.385837e+00 2.843506e-01 6.026824e-01 -1.145734e-01 -1.797052e-01 1.069575e-01 2.659151e-01 -4.978173e-01 -1.892647e-01 4.962964e-01 4.701821e-02 -3.761461e-01 2.375070e-02 4.621012e-01 2.316737e-01 -5.355136e-02 9.852787e-03 -4.241056e-03 -8.545896e-02 4.067314e-02
<VARIANCE> 39
 1.875443e+01 3.538165e+01 6.957664e+01 4.370716e+01 5.856939e+01 7.324590e+01 8.764452e+01 9.535274e+01 7.688683e+01 4.460197e+01 4.014234e+01 3.498694e+01 2.897915e+01 3.763175e+00 2.613719e+00 3.784924e+00 2.798278e+00 4.121249e+00 5.035528e+00 6.200077e+00 5.140243e+00 4.350407e+00 3.664557e+00 2.842998e+00 2.391327e+00 2.094751e+00 4.421808e-01 4.361387e-01 4.580506e-01 4.221927e-01 5.120426e-01 6.707493e-01 9.243641e-01 8.498657e-01 6.392632e-01 5.548170e-01 4.726826e-01 4.161665e-01 2.909499e-01
<GCONST> 1.304132e+02
<STATE> 3
<MEAN> 39
 2.594121e+00 -1.426451e+01 -1.392175e+01 -5.353064e+00 -5.718053e+00 -1.425829e+01 -1.927060e+01 5.794792e+00 1.074214e+00 -4.142030e+00 -2.132430e+00 -4.547085e-02 5.973569e+01 -4.652283e-01 -4.797024e-01 1.432685e+00 5.386007e-01 -1.242382e+00 -6.717583e-01 8.782276e-01 9.049848e-01 -4.043648e-01 -5.877923e-01 -1.065284e-01 -3.750964e-02 1.077821e-01 -6.199288e-01 2.856943e-01 6.651568e-01 -1.553750e-01 -2.851720e-01 4.708680e-01 9.725177e-01 -3.692409e-01 -5.460992e-01 5.921505e-02 1.534863e-01 -1.109463e-01 -2.721452e-01
<VARIANCE> 39
 1.183308e+01 2.621571e+01 6.946225e+01 4.743238e+01 6.725574e+01 8.012357e+01 1.156111e+02 8.607422e+01 9.176681e+01 5.298528e+01 4.378272e+01 3.550398e+01 2.222039e+01 1.441313e+00 3.134536e+00 3.212846e+00 2.786640e+00 4.115286e+00 4.223942e+00 5.107004e+00 6.040537e+00 4.104480e+00 3.458293e+00 3.297971e+00 2.431029e+00 3.032139e+00 3.925411e-01 2.947631e-01 3.729521e-01 4.443630e-01 5.649055e-01 6.723597e-01 8.889368e-01 7.200789e-01 6.501229e-01 5.739685e-01 4.562519e-01 4.086513e-01 2.567347e-01
<GCONST> 1.286862e+02
<STATE> 4
<MEAN> 39
 -6.118737e-01 -1.420720e+01 -8.921881e+00 -4.719504e+00 -9.391769e+00 -1.433865e+01 -1.164069e+01 6.199860e+00 -2.791269e+00 -5.187810e+00 -2.156284e+00 -5.212163e-01 5.843563e+01 -1.435871e+00 5.399200e-01 2.175630e+00 -2.121202e-01 -1.095595e+00 8.981429e-01 2.083806e+00 -8.519068e-01 -1.264936e+00 1.326099e-01 1.301049e-01 -4.529865e-01 -6.989892e-01 -3.445244e-01 3.912600e-01 4.943012e-02 -3.115483e-01 2.628405e-01 5.394745e-01 8.958481e-02 -5.497566e-01 -1.458278e-03 2.936786e-01 -2.911203e-02 -1.417216e-01 -2.576195e-01
<VARIANCE> 39
 1.782926e+01 3.631102e+01 7.037798e+01 5.970527e+01 8.245491e+01 9.588622e+01 1.055948e+02 8.110606e+01 1.004574e+02 6.030872e+01 5.335251e+01 3.917065e+01 4.835428e+01 1.909853e+00 3.762864e+00 3.512445e+00 4.317105e+00 5.038340e+00 4.023231e+00 5.516315e+00 5.417591e+00 4.561628e+00 3.674127e+00 3.582692e+00 2.858163e+00 4.651919e+00 3.915589e-01 3.927715e-01 3.974183e-01 5.240947e-01 6.649207e-01 9.068420e-01 9.248089e-01 8.337969e-01 7.073641e-01 6.311210e-01 5.764486e-01 4.882715e-01 3.013379e-01
<GCONST> 1.350565e+02
<TRANSP> 5
 0.000000e+00 1.000000e+00 0.000000e+00 0.000000e+00 0.000000e+00
 0.000000e+00 5.921264e-01 4.078736e-01 0.000000e+00 0.000000e+00
 0.000000e+00 0.000000e+00 4.807586e-01 5.192414e-01 0.000000e+00
 0.000000e+00 0.000000e+00 0.000000e+00 4.214753e-01 5.785246e-01
 0.000000e+00 0.000000e+00 0.000000e+00 0.000000e+00 0.000000e+00
<ENDHMM>
~h "s"
<BEGINHMM>
<NUMSTATES> 5
<STATE> 2
<MEAN> 39
 -2.233675e+01 7.553561e-02 -5.353475e+00 -8.085514e+00 -2.271668e+00 -7.290478e+00 -1.915936e+00 1.135511e-01 -2.314034e+00 -1.788443e+00 -2.805538e+00 -4.871955e-01 5.802196e+01 -4.579222e+00 1.418895e+00 -9.608421e-01 2.620245e-01 1.850755e+00 9.967189e-01 1.444777e+00 8.776293e-01 5.006461e-01 3.085355e-01 8.339883e-01 7.046934e-01 8.580044e-02 5.626883e-01 -5.151765e-01 -6.863814e-02 -1.552724e-01 -3.900941e-01 5.249045e-02 -3.675767e-01 7.086266e-04 -8.580038e-02 8.597987e-02 -7.513361e-03 -9.161102e-02 -1.283661e-02
<VARIANCE> 39
 6.650323e+01 2.868311e+01 4.463102e+01 3.337484e+01 4.313834e+01 4.094308e+01 3.993602e+01 3.843227e+01 3.158270e+01 2.917523e+01 2.503430e+01 2.010371e+01 2.315911e+01 4.469426e+00 4.023202e+00 4.511689e+00 4.944219e+00 4.319211e+00 4.833340e+00 4.771683e+00 4.266433e+00 4.182543e+00 3.939466e+00 3.805084e+00 2.801798e+00 2.079660e+00 1.159090e+00 5.995667e-01 6.413716e-01 6.797521e-01 7.239391e-01 7.932416e-01 7.807729e-01 7.495828e-01 6.207948e-01 6.512128e-01 5.897474e-01 4.838932e-01 4.125813e-01
<GCONST> 1.301569e+02
<STATE> 3
<MEAN> 39
 -3.017299e+01 1.451226e+00 -9.290415e+00 -7.881741e+00 -8.028597e-04 -5.183508e+00 -1.981110e-01 1.604863e+00 -1.565114e+00 -2.832052e-01 -1.181693e+00 7.656302e-01 5.820607e+01 -4.893627e-02 -1.196517e-01 1.845029e-02 -1.196782e-01 7.199135e-03 3.756734e-03 -8.890623e-02 4.214250e-02 5.335009e-02 5.338755e-02 -6.834931e-03 -1.773163e-02 -5.038322e-02 6.911023e-01 -2.358216e-01 2.731710e-01 -2.156775e-02 -2.211455e-01 -1.470351e-01 -2.233419e-01 -1.390663e-01 -3.861483e-02 -6.569049e-02 -1.131884e-01 -1.145298e-01 -1.719345e-01
<VARIANCE> 39
 8.548624e+00 2.080491e+01 3.052342e+01 3.805563e+01 3.460144e+01 3.159035e+01 2.862996e+01 2.525190e+01 1.956355e+01 1.708615e+01 1.618034e+01 1.333927e+01 1.656705e+01 1.448953e+00 1.365303e+00 1.375334e+00 1.385791e+00 1.563074e+00 1.772366e+00 1.642296e+00 1.651180e+00 1.567579e+00 1.520663e+00 1.365541e+00 1.245692e+00 8.375630e-01 4.190677e-01 2.489705e-01 2.887381e-01 3.360004e-01 3.620072e-01 4.093976e-01 4.057428e-01 3.794811e-01 3.651593e-01 3.454478e-01 3.229243e-01 2.801313e-01 2.210955e-01
<GCONST> 1.017006e+02
<STATE> 4
<MEAN> 39
 -2.464737e+01 -2.147961e+00 -5.723219e+00 -8.996019e+00 -1.220813e+00 -5.798523e+00 -2.723268e+00 1.191375e+00 -1.043752e+00 -6.011086e-01 -1.956677e+00 -3.436886e-01 5.519721e+01 3.483708e+00 -1.223960e+00 9.757251e-01 1.754045e-01 -1.254735e+00 -1.911030e-01 -1.311721e+00 -7.961832e-01 -2.017984e-01 -8.826643e-02 -3.358015e-01 -5.737913e-01 -1.401314e+00 5.722444e-01 -1.675545e-01 -6.654739e-02 5.598003e-02 -3.333438e-01 5.758659e-02 -1.767960e-01 -1.416342e-01 -1.539445e-01 2.238373e-02 1.700670e-02 -7.102589e-02 -1.055925e-01
<VARIANCE> 39
 4.550322e+01 3.028542e+01 3.838105e+01 3.286283e+01 4.114121e+01 4.221331e+01 4.053687e+01 3.381878e+01 2.868513e+01 2.442213e+01 2.247049e+01 1.922423e+01 4.813915e+01 5.698442e+00 3.011512e+00 3.964957e+00 4.908954e+00 4.797868e+00 5.692160e+00 5.270497e+00 4.013988e+00 3.854679e+00 3.042301e+00 3.285670e+00 2.506608e+00 6.903627e+00 7.912463e-01 5.775833e-01 6.012685e-01 7.013841e-01 7.241110e-01 8.160899e-01 9.445472e-01 7.080145e-01 6.475729e-01 5.825874e-01 5.792131e-01 4.478300e-01 1.102838e+00
<GCONST> 1.310945e+02
<TRANSP> 5
 0.000000e+00 1.000000e+00 0.000000e+00 0.000000e+00 0.000000e+00
 0.000000e+00 6.291167e-01 3.708833e-01 0.000000e+00 0.000000e+00
 0.000000e+00 0.000000e+00 8.365048e-01 1.634952e-01 0.000000e+00
 0.000000e+00 0.000000e+00 0.000000e+00 6.378455e-01 3.621545e-01
 0.000000e+00 0.000000e+00 0.000000e+00 0.000000e+00 0.000000e+00
<ENDHMM>
~h "t"
<BEGINHMM>
<NUMSTATES> 5
<STATE> 2
<MEAN> 39
 -1.146219e+01 -3.701481e+00 -2.894859e+00 -5.356506e+00 -8.260527e+00 -6.918104e+00 -6.423780e+00 -3.246661e+00 -3.477699e+00 -1.763742e+00 -3.820693e+00 -2.757076e+00 4.651349e+01 -1.742548e+00 7.704296e-01 -8.409072e-02 1.392613e+00 1.450700e+00 1.006278e+00 8.299339e-01 5.350739e-02 3.887974e-01 1.167240e-01 3.773666e-01 3.440301e-01 -2.912828e+00 -4.022759e-02 -5.559555e-01 -1.978287e-01 -5.601058e-01 -9.138778e-02 1.470005e-01 1.151980e-01 3.406614e-01 2.780166e-02 1.112247e-01 2.059309e-01 1.257147e-01 8.989214e-01
<VARIANCE> 39
 6.128375e+01 5.471689e+01 5.934937e+01 6.393135e+01 6.633965e+01 5.352954e+01 5.183612e+01 5.632841e+01 6.391205e+01 4.826361e+01 4.387589e+01 3.710566e+01 1.015000e+02 5.606810e+00 6.355771e+00 5.653314e+00 7.375214e+00 7.118129e+00 7.015324e+00 6.190323e+00 7.081801e+00 6.441753e+00 5.082115e+00 5.131587e+00 3.863126e+00 1.121974e+01 6.189478e-01 9.382234e-01 7.386149e-01 1.224596e+00 1.218393e+00 1.035897e+00 9.829103e-01 1.097951e+00 1.054373e+00 9.547127e-01 8.598530e-01 6.741524e-01 2.069506e+00
<GCONST> 1.479817e+02
<STATE> 3
<MEAN> 39
 -1.751867e+01 -5.372288e+00 -4.253720e+00 -4.714758e+00 -4.066177e+00 -2.314313e+00 -2.984341e+00 -7.267705e-01 -1.412771e+00 -9.006432e-02 -9.743935e-01 -6.535101e-01 4.258500e+01 -5.839413e-01 -1.055691e+00 -3.289068e-01 -1.166534e+00 -1.826985e-01 -6.572693e-02 3.935357e-01 5.872250e-01 2.426125e-01 2.102631e-01 4.782116e-01 5.410246e-01 2.185374e+00 4.511491e-01 -2.233772e-02 9.189925e-02 -5.156676e-01 -5.388550e-01 -5.677435e-01 -2.544106e-01 -4.068483e-02 -2.687163e-01 -1.478123e-01 -1.994438e-01 -9.533293e-02 1.382124e+00
<VARIANCE> 39
 5.044034e+01 4.289719e+01 3.201610e+01 4.704393e+01 4.388898e+01 3.875174e+01 3.553775e+01 3.127788e+01 3.169548e+01 2.757462e+01 2.458952e+01 2.092949e+01 1.348267e+02 4.059690e+00 4.168445e+00 3.585218e+00 6.082313e+00 4.290193e+00 4.630807e+00 4.112828e+00 4.442255e+00 4.160341e+00 3.524946e+00 3.201346e+00 2.637990e+00 1.563339e+01 7.313496e-01 9.383951e-01 7.892167e-01 1.220947e+00 1.018032e+00 9.292715e-01 8.304636e-01 9.231384e-01 8.191473e-01 7.194499e-01 7.027801e-01 5.356572e-01 2.767250e+00
<GCONST> 1.371980e+02
<STATE> 4
<MEAN> 39
 -1.756784e+01 -7.260036e+00 -4.635185e+00 -8.964884e+00 -6.755651e+00 -6.191462e+00 -2.185698e+00 1.943319e-01 -2.040460e+00 -1.078470e+00 -1.696136e+00 4.611012e-02 5.456979e+01 1.412757e+00 -2.663857e-01 2.265185e-01 -2.733178e-01 -8.400631e-01 -8.761201e-01 -5.217890e-01 6.782061e-02 -3.863539e-01 -3.906670e-01 -4.448811e-01 -2.147513e-01 1.354690e+00 5.886096e-01 5.596474e-03 5.612445e-02 1.694371e-01 -1.047554e-01 4.911069e-02 -3.381651e-01 -9.187720e-02 -1.098778e-01 -2.104873e-02 -6.269553e-02 -1.846921e-01 -4.713695e-01
<VARIANCE> 39
 6.254145e+01 3.696513e+01 4.002214e+01 4.382974e+01 4.411734e+01 3.869672e+01 4.607972e+01 3.841975e+01 3.506469e+01 3.022240e+01 2.812098e+01 2.297130e+01 8.709821e+01 6.516273e+00 3.084797e+00 3.704469e+00 4.739173e+00 4.542740e+00 4.732019e+00 5.060285e+00 4.223504e+00 3.886118e+00 3.362780e+00 3.367358e+00 2.650783e+00 9.363446e+00 7.980937e-01 6.285622e-01 6.645388e-01 9.704822e-01 7.844986e-01 7.956368e-01 8.596470e-01 8.056234e-01 7.012459e-01 6.388187e-01 6.438236e-01 5.137287e-01 1.746170e+00
<GCONST> 1.353908e+02
<TRANSP> 5
 0.000000e+00 1.000000e+00 0.000000e+00 0.000000e+00 0.000000e+00
 0.000000e+00 4.565781e-01 5.434219e-01 0.000000e+00 0.000000e+00
 0.000000e+00 0.000000e+00 4.729832e-01 5.270168e-01 0.000000e+00
 0.000000e+00 0.000000e+00 0.000000e+00 6.090162e-01 3.909838e-01
 0.000000e+00 0.000000e+00 0.000000e+00 0.000000e+00 0.000000e+00
<ENDHMM>
~h "v"
<BEGINHMM>
<NUMSTATES> 5
<STATE> 2
<MEAN> 39
 -3.021303e+00 -6.718466e+00 -7.769108e+00 -8.903702e+00 -7.594975e+00 -7.630310e+00 -1.132313e+01 -5.095734e+00 -3.332099e+00 -4.287025e-01 -1.104147e+00 -3.369984e+00 5.557943e+01 -1.570151e+00 2.230606e+00 -1.413126e-01 1.386149e+00 1.550879e+00 7.347432e-01 7.129130e-01 -1.281355e+00 -7.058758e-01 -4.536569e-01 -2.881440e-02 2.366450e-01 -2.180519e+00 -5.973862e-01 -7.488091e-02 3.253025e-01 -1.201452e-02 -1.097128e-01 1.360611e-01 3.731554e-01 3.832231e-01 2.468935e-02 -1.561969e-01 -2.525066e-01 2.633921e-02 1.257059e-01
<VARIANCE> 39
 2.696630e+01 2.592027e+01 3.851870e+01 3.984029e+01 2.861803e+01 4.756271e+01 4.487787e+01 3.982539e+01 3.837280e+01 3.790554e+01 4.362452e+01 3.062030e+01 2.829081e+01 3.061282e+00 2.858095e+00 3.403554e+00 3.963914e+00 3.524009e+00 4.157659e+00 4.944815e+00 5.172431e+00 4.217271e+00 3.766448e+00 3.469675e+00 2.824291e+00 2.578592e+00 4.257700e-01 3.844086e-01 3.708145e-01 4.344878e-01 4.867156e-01 4.645755e-01 5.644827e-01 5.567486e-01 5.152268e-01 5.055304e-01 4.753263e-01 4.291795e-01 3.072754e-01
<GCONST> 1.243871e+02
<STATE> 3
<MEAN> 39
 -7.925029e+00 -2.056560e+00 -6.524476e+00 -6.116337e+00 -5.011320e+00 -5.728154e+00 -8.857822e+00 -6.938110e+00 -5.728013e+00 -2.375142e+00 -2.513945e+00 -2.975015e+00 5.115685e+01 -2.310267e+00 1.132460e+00 5.551254e-01 1.162425e+00 9.487508e-01 6.927251e-01 1.121515e+00 7.998536e-02 -2.320361e-01 -5.846860e-01 -4.921887e-01 1.321063e-01 -1.246330e+00 2.263321e-01 -8.366528e-01 2.304783e-02 -4.764915e-01 -4.787145e-01 -2.129903e-01 -7.330094e-02 6.207386e-01 3.532901e-01 2.017359e-01 1.098071e-02 1.111126e-02 7.853774e-01
<VARIANCE> 39
 3.193541e+01 1.973627e+01 2.752903e+01 2.830150e+01 2.089201e+01 3.179676e+01 2.900869e+01 2.745007e+01 2.709553e+01 2.790289e+01 2.966267e+01 2.246751e+01 3.211517e+01 4.117648e+00 2.442100e+00 2.572695e+00 3.258654e+00 2.520369e+00 3.507600e+00 3.606206e+00 3.274556e+00 2.845385e+00 2.865934e+00 2.709677e+00 2.042042e+00 2.549570e+00 5.541533e-01 4.357424e-01 5.423113e-01 5.470610e-01 5.619850e-01 5.789403e-01 7.588629e-01 7.031421e-01 6.331249e-01 5.958208e-01 5.233486e-01 4.368227e-01 4.544010e-01
<GCONST> 1.207610e+02
<STATE> 4
<MEAN> 39
 -1.294240e+01 -3.528158e+00 -6.316783e+00 -5.596400e+00 -4.656287e+00 -4.914846e+00 -5.724514e+00 -3.632866e+00 -3.848432e+00 -2.295468e+00 -3.074402e+00 -2.223112e+00 5.128883e+01 5.190564e-01 -9.271719e-01 -3.242431e-01 -8.234006e-01 -5.834780e-01 -4.464505e-01 -5.331583e-02 6.659622e-01 4.435237e-01 2.858387e-01 1.553162e-01 1.008394e-01 1.079303e+00 8.800733e-01 -4.355606e-01 -1.085115e-01 -5.120333e-01 -3.998524e-01 -2.430625e-01 -3.716812e-01 1.076190e-01 2.072374e-02 1.251095e-01 1.083749e-01 -4.088618e-02 4.834256e-01
<VARIANCE> 39
 5.639788e+01 2.619901e+01 2.929288e+01 3.209198e+01 2.361498e+01 3.094053e+01 3.354443e+01 2.930876e+01 2.742000e+01 2.423579e+01 2.297743e+01 1.884017e+01 4.431044e+01 8.275120e+00 3.128799e+00 3.059517e+00 4.271551e+00 3.466346e+00 3.869740e+00 4.564780e+00 3.537357e+00 3.150661e+00 2.633125e+00 2.545992e+00 2.094745e+00 4.620081e+00 9.688911e-01 6.660804e-01 6.349727e-01 7.982900e-01 6.622720e-01 7.951118e-01 8.596148e-01 7.722580e-01 7.003472e-01 5.997500e-01 5.611912e-01 4.267299e-01 7.101641e-01
<GCONST> 1.273817e+02
<TRANSP> 5
 0.000000e+00 1.000000e+00 0.000000e+00 0.000000e+00 0.000000e+00
 0.000000e+00 3.435322e-01 6.564677e-01 0.000000e+00 0.000000e+00
 0.000000e+00 0.000000e+00 3.985439e-01 6.014561e-01 0.000000e+00
 0.000000e+00 0.000000e+00 0.000000e+00 6.261638e-01 3.738362e-01
 0.000000e+00 0.000000e+00 0.000000e+00 0.000000e+00 0.000000e+00
<ENDHMM>
~h "w"
<BEGINHMM>
<NUMSTATES> 5
<STATE> 2
<MEAN> 39
 -4.780274e+00 -3.142552e+00 -9.577934e+00 -1.140023e+01 -7.122272e+00 -2.440966e+00 -6.501033e+00 -4.877641e+00 -8.181860e+00 -1.952014e+00 -1.104881e+00 -1.878829e+00 4.877426e+01 2.383642e+00 1.790030e+00 -3.661057e-01 -2.062140e+00 -1.545008e+00 7.040959e-01 6.945280e-01 -3.019081e-01 -1.140579e+00 -8.610392e-01 -5.262204e-02 1.473207e-01 -2.795753e-01 -1.110054e-01 -2.207596e-01 3.361566e-01 -2.776227e-01 -5.501207e-01 -2.311586e-01 -1.584810e-02 3.933945e-01 1.900404e-01 -8.723848e-03 -6.436358e-02 -3.303672e-02 5.944768e-01
<VARIANCE> 39
 5.297244e+01 5.013900e+01 2.620788e+01 4.864622e+01 4.609514e+01 3.659039e+01 4.745791e+01 3.940089e+01 5.729673e+01 3.804557e+01 3.828013e+01 2.500069e+01 4.021383e+01 5.175212e+00 3.375178e+00 4.025196e+00 4.927988e+00 5.330157e+00 4.971477e+00 5.885384e+00 4.964837e+00 5.171153e+00 4.068596e+00 3.460647e+00 2.825701e+00 5.126044e+00 5.270196e-01 8.733966e-01 6.448330e-01 8.067994e-01 9.970765e-01 8.033900e-01 1.021579e+00 8.542455e-01 8.889434e-01 9.019784e-01 6.350021e-01 5.215625e-01 4.569820e-01
<GCONST> 1.354859e+02
<STATE> 3
<MEAN> 39
 2.636199e+00 8.387303e-01 -8.892162e+00 -2.143552e+01 -1.709558e+01 -1.321678e+00 -4.543365e+00 -2.597000e+00 -9.007595e+00 -4.534421e+00 -1.453745e+00 -2.096097e+00 5.232566e+01 5.656798e-01 -8.036035e-01 -3.174597e-01 -1.538760e+00 -7.114463e-01 7.340029e-01 -2.827638e-02 1.224423e-01 2.225924e-01 4.029608e-01 5.011727e-01 1.696356e-01 1.307702e+00 -4.463907e-01 -6.511660e-01 -9.299920e-02 4.527778e-01 6.490923e-01 5.096360e-02 -2.317669e-01 -6.645703e-02 2.353532e-01 3.565896e-01 1.706116e-01 -1.468536e-02 2.114073e-01
<VARIANCE> 39
 6.433229e+00 2.429600e+01 2.940484e+01 4.439315e+01 4.816437e+01 4.463671e+01 4.005710e+01 4.497424e+01 5.494934e+01 4.036437e+01 3.988116e+01 2.813992e+01 1.588579e+01 1.324002e+00 2.575648e+00 1.850535e+00 3.269684e+00 4.105109e+00 3.506514e+00 4.006047e+00 3.326251e+00 3.738755e+00 3.702046e+00 3.362881e+00 2.407541e+00 2.240557e+00 3.745807e-01 2.679763e-01 3.120700e-01 5.443533e-01 5.309089e-01 6.382432e-01 6.423728e-01 6.252143e-01 7.892766e-01 5.946609e-01 5.262002e-01 4.781546e-01 1.891065e-01
<GCONST> 1.205072e+02
<STATE> 4
<MEAN> 39
 1.554448e+00 -7.697535e+00 -1.120955e+01 -2.160230e+01 -1.201832e+01 1.617975e+00 -8.488684e+00 -4.002950e+00 -7.452670e+00 8.062596e-01 1.915704e+00 -2.222019e+00 5.922372e+01 -4.686060e-01 -1.973800e+00 -4.380293e-02 9.491113e-01 1.097544e+00 -7.190433e-01 -1.145150e+00 4.559327e-01 1.357823e+00 1.008290e+00 -1.377264e-01 -7.221172e-01 1.466137e+00 -2.928754e-01 1.880064e-01 2.921698e-01 5.284972e-01 -4.146938e-02 -5.369818e-01 2.047758e-01 3.480781e-01 2.477482e-01 -3.679501e-01 -4.715095e-01 -1.167710e-01 -2.921939e-01
<VARIANCE> 39
 8.599623e+00 3.066935e+01 4.363357e+01 7.772333e+01 7.350893e+01 7.946318e+01 9.049069e+01 6.646304e+01 7.074056e+01 8.505991e+01 7.833129e+01 4.447139e+01 1.821489e+01 5.231932e-01 1.547359e+00 2.428528e+00 3.495189e+00 3.492027e+00 5.905021e+00 4.974360e+00 4.611410e+00 4.181521e+00 4.401429e+00 4.425636e+00 3.212068e+00 9.140707e-01 2.278151e-01 2.597578e-01 3.421894e-01 5.150151e-01 7.330925e-01 7.005601e-01 9.231782e-01 7.845488e-01 8.655195e-01 9.778525e-01 7.654090e-01 6.970599e-01 1.507523e-01
<GCONST> 1.278405e+02
<TRANSP> 5
 0.000000e+00 1.000000e+00 0.000000e+00 0.000000e+00 0.000000e+00
 0.000000e+00 6.612081e-01 3.387919e-01 0.000000e+00 0.000000e+00
 0.000000e+00 0.000000e+00 7.216156e-01 2.783844e-01 0.000000e+00
 0.000000e+00 0.000000e+00 0.000000e+00 6.224993e-01 3.775007e-01
 0.000000e+00 0.000000e+00 0.000000e+00 0.000000e+00 0.000000e+00
<ENDHMM>
~h "y"
<BEGINHMM>
<NUMSTATES> 5
<STATE> 2
<MEAN> 39
 -1.091928e+01 -1.920107e+00 1.248642e+01 -1.317733e+01 -1.520004e+01 -6.936273e+00 -1.051963e+01 -6.101564e+00 -1.185289e+01 -3.432692e+00 -4.033419e+00 -2.455352e+00 5.527966e+01 3.483475e-01 -3.257379e-02 1.184361e+00 -1.420648e-01 -1.058135e+00 -8.069283e-02 -1.654796e-01 -2.548338e-01 -8.022805e-01 -1.607410e-01 2.312120e-01 -5.704030e-02 3.714468e-01 1.869993e-01 -2.907021e-01 -5.896309e-01 9.339501e-02 1.527130e-01 -1.534985e-01 3.221193e-02 2.194238e-01 2.407501e-01 1.579158e-01 9.548256e-02 1.112307e-02 6.633098e-02
<VARIANCE> 39
 1.869884e+01 3.727287e+01 3.572950e+01 7.904996e+01 4.261803e+01 4.769858e+01 4.306401e+01 6.075118e+01 4.133968e+01 5.091341e+01 5.263860e+01 3.046475e+01 2.664552e+01 3.491194e+00 2.728792e+00 3.792933e+00 2.638454e+00 4.435503e+00 4.994132e+00 3.529378e+00 3.205220e+00 4.011317e+00 3.388000e+00 2.222665e+00 1.838288e+00 2.287263e+00 3.008136e-01 2.673405e-01 4.429774e-01 5.462732e-01 7.442949e-01 7.166190e-01 5.776971e-01 6.613339e-01 5.852183e-01 5.090784e-01 3.857617e-01 3.463815e-01 2.362532e-01
<GCONST> 1.247001e+02
<STATE> 3
<MEAN> 39
 -7.719130e+00 -7.968472e+00 1.261217e+01 -9.353050e+00 -2.116574e+01 -9.663353e+00 -8.773056e+00 -3.155648e+00 -1.332202e+01 -3.681705e+00 9.686619e-01 -2.537179e+00 5.913258e+01 9.099832e-01 -1.045323e+00 -9.992867e-01 7.477295e-01 -3.699529e-01 -1.555642e+00 8.711433e-02 1.189062e+00 -1.736131e-01 -1.432083e-01 7.571434e-01 2.625389e-01 4.755621e-01 3.697602e-03 1.580216e-02 -4.311519e-01 5.377151e-02 4.656527e-01 -5.764294e-02 -1.718689e-01 2.476299e-01 3.442090e-01 -1.160861e-01 -9.639926e-02 1.188649e-01 -1.390948e-01
<VARIANCE> 39
 1.127516e+01 2.421318e+01 4.271112e+01 6.561602e+01 2.971944e+01 5.387493e+01 4.965753e+01 5.203205e+01 4.672541e+01 7.206190e+01 4.524787e+01 2.890267e+01 1.640972e+01 1.484765e+00 1.058660e+00 1.530397e+00 1.396876e+00 1.651917e+00 2.698199e+00 2.905750e+00 2.811539e+00 1.974704e+00 2.060886e+00 1.505135e+00 1.346474e+00 5.491453e-01 1.819853e-01 1.404207e-01 2.827297e-01 2.220226e-01 3.951787e-01 3.759515e-01 4.040083e-01 3.178884e-01 4.269636e-01 3.585657e-01 2.770678e-01 2.176560e-01 8.449386e-02
<GCONST> 1.073234e+02
<STATE> 4
<MEAN> 39
 -2.756211e+00 -1.284051e+01 1.195380e+00 -4.670005e+00 -1.603443e+01 -1.807576e+01 -1.130475e+01 6.410637e+00 -7.748988e+00 -6.548864e+00 2.007978e+00 1.039338e+00 5.943367e+01 8.537858e-01 -3.933820e-01 -2.083459e+00 4.356517e-01 1.416029e+00 -6.548780e-01 -1.145067e+00 1.036208e+00 1.509695e+00 -3.360770e-01 -5.537491e-01 3.308350e-01 -1.370960e-01 -1.595109e-01 2.478296e-01 -2.115227e-02 -1.699916e-01 2.463467e-01 4.738950e-01 -2.917282e-02 -4.055332e-01 1.875311e-01 1.945064e-01 -2.439044e-01 -1.699628e-01 -1.731953e-01
<VARIANCE> 39
 1.587862e+01 2.674902e+01 7.512313e+01 4.931402e+01 5.172054e+01 6.302182e+01 8.571825e+01 6.257257e+01 7.972688e+01 5.609019e+01 3.995890e+01 3.322587e+01 2.028547e+01 9.674352e-01 1.173190e+00 1.912015e+00 1.351462e+00 1.832917e+00 2.483906e+00 2.832407e+00 2.977936e+00 2.637965e+00 2.341338e+00 1.727160e+00 1.582671e+00 4.910377e-01 1.614914e-01 1.474706e-01 2.772020e-01 2.453718e-01 3.899125e-01 4.380983e-01 4.344573e-01 3.883423e-01 4.658411e-01 3.851486e-01 3.036754e-01 2.422960e-01 8.075620e-02
<GCONST> 1.112527e+02
<TRANSP> 5
 0.000000e+00 1.000000e+00 0.000000e+00 0.000000e+00 0.000000e+00
 0.000000e+00 7.632402e-01 2.367599e-01 0.000000e+00 0.000000e+00
 0.000000e+00 0.000000e+00 7.401912e-01 2.598088e-01 0.000000e+00
 0.000000e+00 0.000000e+00 0.000000e+00 6.924726e-01 3.075274e-01
 0.000000e+00 0.000000e+00 0.000000e+00 0.000000e+00 0.000000e+00
<ENDHMM>
~h "z"
<BEGINHMM>
<NUMSTATES> 5
<STATE> 2
<MEAN> 39
 -1.674560e+01 3.177571e+00 -2.941795e+00 -8.588101e+00 -3.949242e+00 -1.116897e+01 -7.771547e+00 -4.098939e+00 -3.711312e+00 -2.647630e+00 -4.392830e+00 -1.188559e+00 5.670478e+01 -4.540679e+00 1.862954e+00 -7.000042e-01 4.278576e-01 2.417271e+00 1.195979e+00 1.612374e+00 8.831680e-01 5.232124e-01 6.916707e-02 5.285869e-01 3.335668e-01 -2.655801e-01 7.403597e-02 -7.361791e-01 -1.340775e-01 -9.330970e-02 -2.601864e-01 3.965123e-01 1.873523e-01 3.958234e-01 4.308476e-02 1.892242e-01 1.555623e-01 3.670394e-03 5.884600e-02
<VARIANCE> 39
 5.335780e+01 3.486000e+01 4.476501e+01 4.280450e+01 5.312816e+01 5.220064e+01 4.637724e+01 3.778456e+01 3.386453e+01 3.610037e+01 2.554082e+01 2.382944e+01 2.486685e+01 3.171932e+00 4.776819e+00 3.730740e+00 5.526978e+00 3.817484e+00 5.755120e+00 4.667439e+00 4.784069e+00 3.964325e+00 3.727561e+00 3.444166e+00 3.182838e+00 1.557514e+00 1.065187e+00 7.021577e-01 5.275812e-01 6.617231e-01 7.927149e-01 8.257805e-01 7.503412e-01 7.160872e-01 5.818963e-01 6.391619e-01 5.145389e-01 4.993190e-01 1.944054e-01
<GCONST> 1.299906e+02
<STATE> 3
<MEAN> 39
 -2.882624e+01 2.421526e+00 -7.272592e+00 -8.605022e+00 9.581544e-01 -5.706640e+00 -1.326177e+00 1.130865e+00 -1.617771e+00 -7.326215e-01 -1.838896e+00 1.426020e-01 5.606802e+01 -3.065093e-01 -6.953965e-01 -3.370129e-01 -2.495092e-01 -9.111366e-02 1.774206e-01 1.937183e-01 3.737937e-01 2.746817e-01 2.314042e-01 1.671311e-01 4.685136e-02 1.558536e-01 1.166356e+00 -3.207616e-01 2.587210e-01 -6.461278e-02 -5.050857e-01 -3.630542e-01 -5.047040e-01 -3.382429e-01 -1.174889e-01 -6.716911e-02 -1.623087e-01 -1.305303e-01 -8.745595e-02
<VARIANCE> 39
 1.504559e+01 2.475399e+01 4.417221e+01 4.234492e+01 3.714947e+01 3.528790e+01 3.847189e+01 2.990435e+01 2.129359e+01 1.988743e+01 1.827284e+01 1.475580e+01 1.581004e+01 4.537594e+00 1.695294e+00 2.002752e+00 1.788571e+00 2.293313e+00 3.097007e+00 2.863698e+00 2.377734e+00 2.111726e+00 1.944055e+00 1.724341e+00 1.528453e+00 8.965961e-01 6.905601e-01 4.130997e-01 3.980229e-01 5.070211e-01 5.296034e-01 6.398199e-01 5.885350e-01 5.377162e-01 4.656834e-01 4.326931e-01 4.058424e-01 3.566670e-01 2.528344e-01
<GCONST> 1.132337e+02
<STATE> 4
<MEAN> 39
 -2.078513e+01 -3.112188e+00 -6.127316e+00 -8.963940e+00 -2.350209e+00 -6.112774e+00 -4.482779e+00 -3.292742e-02 -9.640147e-01 -7.319645e-01 -2.306098e+00 -8.129005e-01 5.157277e+01 2.555242e+00 -1.080663e+00 1.179514e-01 2.619419e-01 -8.781824e-01 -6.262161e-03 -5.983375e-01 -5.302728e-01 -1.382287e-01 2.557168e-02 -1.944839e-01 -2.719543e-01 -1.251035e+00 2.135185e-01 4.577986e-02 -3.698244e-02 6.647776e-02 -7.686673e-02 8.510455e-02 2.572972e-02 -4.952411e-02 -1.328159e-01 -2.487312e-02 -9.209994e-03 -1.579449e-02 -7.239196e-02
<VARIANCE> 39
 4.955074e+01 3.661489e+01 4.076222e+01 3.706684e+01 4.281490e+01 5.133912e+01 4.803151e+01 3.631712e+01 3.128103e+01 3.047935e+01 2.570530e+01 2.142121e+01 7.550081e+01 5.862856e+00 3.473249e+00 3.296628e+00 4.259012e+00 4.465291e+00 5.080535e+00 4.972048e+00 4.053422e+00 3.485877e+00 3.114908e+00 2.919384e+00 2.400435e+00 5.899425e+00 8.513287e-01 5.509139e-01 5.081245e-01 6.307713e-01 6.654337e-01 8.234401e-01 7.755834e-01 7.140399e-01 6.450642e-01 5.780491e-01 5.142404e-01 4.398830e-01 9.145874e-01
<GCONST> 1.313939e+02
<TRANSP> 5
 0.000000e+00 1.000000e+00 0.000000e+00 0.000000e+00 0.000000e+00
 0.000000e+00 6.679767e-01 3.320232e-01 0.000000e+00 0.000000e+00
 0.000000e+00 0.000000e+00 7.741984e-01 2.258016e-01 0.000000e+00
 0.000000e+00 0.000000e+00 0.000000e+00 7.001889e-01 2.998111e-01
 0.000000e+00 0.000000e+00 0.000000e+00 0.000000e+00 0.000000e+00
<ENDHMM>
~h "aa"
<BEGINHMM>
<NUMSTATES> 5
<STATE> 2
<MEAN> 39
 -1.066159e+00 -1.168256e+01 -1.327516e+01 -1.799094e+01 -9.272781e+00 -5.508476e-01 -6.096659e+00 -8.365356e-01 -2.914312e+00 -7.207206e-01 -1.518072e+00 -4.587579e+00 6.115921e+01 1.285348e+00 -1.160643e+00 -1.250740e+00 -1.403600e+00 2.532520e-01 1.388742e+00 2.020406e-01 -1.151849e-01 -5.713480e-02 -1.000213e-01 2.389826e-01 -4.181516e-01 1.173890e+00 -5.507718e-01 1.800476e-01 1.861736e-01 4.303198e-01 3.299675e-01 -5.609576e-02 1.431427e-01 -7.288683e-02 -8.327298e-03 -8.335698e-02 1.314671e-02 2.376094e-01 -3.376237e-01
<VARIANCE> 39
 2.188148e+01 4.962508e+01 4.217665e+01 7.121307e+01 7.051727e+01 8.500222e+01 8.601598e+01 7.161480e+01 7.203934e+01 6.177935e+01 7.258640e+01 4.386929e+01 4.526556e+01 3.545298e+00 2.764170e+00 3.108652e+00 4.631629e+00 5.122909e+00 4.751301e+00 5.431568e+00 5.029440e+00 4.532321e+00 4.000894e+00 3.918809e+00 3.586696e+00 2.438953e+00 5.777017e-01 4.461573e-01 4.079041e-01 6.624562e-01 7.012546e-01 7.885417e-01 9.728942e-01 8.663701e-01 8.325641e-01 7.066326e-01 7.310787e-01 5.572180e-01 4.396001e-01
<GCONST> 1.365820e+02
<STATE> 3
<MEAN> 39
 3.595269e-01 -1.348659e+01 -1.589798e+01 -2.148508e+01 -6.895640e+00 4.424912e+00 -3.499999e+00 -2.773374e+00 -2.748418e+00 -2.174676e+00 -7.571005e-01 -4.304441e+00 6.327622e+01 2.064339e-02 -2.399016e-01 -2.479154e-01 2.595758e-01 4.455421e-01 -1.063486e-01 -1.703708e-01 5.712689e-03 1.690120e-01 -5.093248e-02 -1.764043e-02 -7.543630e-02 1.197307e-01 -4.365982e-02 1.229384e-01 1.104580e-01 2.053504e-01 -8.011582e-02 -3.089519e-01 -1.643730e-01 1.012939e-01 4.163690e-02 3.142336e-02 -7.034720e-02 6.386854e-03 -1.215541e-01
<VARIANCE> 39
 1.197057e+01 4.654664e+01 3.535984e+01 7.343063e+01 7.794143e+01 8.002541e+01 8.283338e+01 7.126872e+01 6.830946e+01 5.909053e+01 6.538625e+01 4.716607e+01 2.402356e+01 2.827583e-01 8.942440e-01 8.706964e-01 1.715867e+00 1.537663e+00 1.928086e+00 1.939487e+00 1.734594e+00 1.573913e+00 1.574604e+00 1.461131e+00 1.466089e+00 3.142979e-01 6.513124e-02 1.202338e-01 1.359540e-01 1.938368e-01 2.419011e-01 2.495311e-01 2.981945e-01 2.807463e-01 2.733409e-01 2.655130e-01 2.568860e-01 2.443815e-01 5.661170e-02
<GCONST> 1.026019e+02
<STATE> 4
<MEAN> 39
 8.030578e-02 -1.515028e+01 -1.647172e+01 -1.567085e+01 -5.435749e+00 -1.870801e+00 -7.200813e+00 3.667023e-01 -1.259853e+00 -1.557914e+00 -2.412206e+00 -5.623436e+00 6.333122e+01 -1.900161e-01 6.939958e-01 6.470739e-01 1.338317e+00 -2.274724e-01 -1.719931e+00 -7.983916e-01 6.508917e-01 3.029200e-01 6.979277e-03 -5.842164e-01 3.317464e-01 -8.728529e-01 -2.886246e-01 4.172600e-01 4.281082e-01 2.684397e-01 -6.531460e-02 -1.014560e-01 6.371999e-02 -1.481664e-01 -1.373832e-01 -3.119169e-02 8.666087e-04 2.238243e-01 -4.505028e-01
<VARIANCE> 39
 1.484024e+01 3.929688e+01 4.313718e+01 6.403337e+01 5.826336e+01 8.858437e+01 9.392928e+01 8.617639e+01 7.772581e+01 5.964578e+01 7.522933e+01 5.029605e+01 2.429551e+01 7.939628e-01 2.116628e+00 2.304111e+00 3.085545e+00 3.430600e+00 3.049046e+00 4.173178e+00 3.570617e+00 3.518820e+00 3.240636e+00 2.961564e+00 2.797286e+00 1.306141e+00 3.140405e-01 3.025288e-01 2.920839e-01 4.503573e-01 4.865004e-01 5.460134e-01 6.745529e-01 6.230492e-01 5.690914e-01 5.594875e-01 5.545477e-01 5.033053e-01 2.644101e-01
<GCONST> 1.254070e+02
<TRANSP> 5
 0.000000e+00 1.000000e+00 0.000000e+00 0.000000e+00 0.000000e+00
 0.000000e+00 6.261223e-01 3.738778e-01 0.000000e+00 0.000000e+00
 0.000000e+00 0.000000e+00 8.483546e-01 1.516454e-01 0.000000e+00
 0.000000e+00 0.000000e+00 0.000000e+00 6.269769e-01 3.730231e-01
 0.000000e+00 0.000000e+00 0.000000e+00 0.000000e+00 0.000000e+00
<ENDHMM>
~h "ae"
<BEGINHMM>
<NUMSTATES> 5
<STATE> 2
<MEAN> 39
 -5.121605e+00 -1.553020e+01 -2.469213e+00 -1.413448e+01 -1.638109e+01 -8.831203e+00 -3.460564e+00 5.385461e+00 -3.740656e+00 -2.359489e+00 -4.209748e+00 -3.924490e+00 6.519115e+01 9.455775e-02 -8.970007e-01 -2.168993e-01 -2.778052e-01 5.886834e-02 3.082433e-01 4.389697e-01 6.474974e-01 1.434816e-01 -4.368623e-01 -2.347159e-01 -1.046721e-01 6.373076e-01 -1.405636e-01 3.118814e-01 -1.388751e-01 2.680939e-01 3.485632e-01 6.424379e-02 -7.002117e-02 -2.411082e-01 1.234804e-02 -1.245470e-02 8.214477e-03 9.553434e-02 -3.577160e-01
<VARIANCE> 39
 1.653653e+01 3.386059e+01 5.094740e+01 5.621978e+01 5.102303e+01 6.235640e+01 7.779067e+01 6.851074e+01 8.241601e+01 4.696696e+01 5.378897e+01 3.517282e+01 2.457011e+01 7.762468e-01 1.330736e+00 1.655765e+00 1.621135e+00 1.882960e+00 2.182823e+00 2.813463e+00 2.614533e+00 2.162329e+00 1.824046e+00 1.804620e+00 1.516380e+00 8.170543e-01 2.259646e-01 2.506434e-01 2.262630e-01 2.736327e-01 3.444189e-01 3.709131e-01 4.723126e-01 4.266932e-01 3.838831e-01 3.522007e-01 3.430883e-01 2.715753e-01 1.871994e-01
<GCONST> 1.128625e+02
<STATE> 3
<MEAN> 39
 -4.245713e+00 -1.725347e+01 -7.419538e+00 -1.230168e+01 -1.234536e+01 -7.736674e+00 -1.841331e+00 5.076456e+00 -1.782166e+00 -5.443601e+00 -5.953144e+00 -3.555439e+00 6.556374e+01 8.433119e-02 1.454760e-01 -2.722707e-01 1.406801e-01 2.839833e-01 -9.053436e-02 -2.256453e-01 -5.757137e-02 6.876548e-02 -2.632329e-02 -8.146413e-02 3.008335e-02 -2.056591e-01 -6.509081e-03 2.487733e-01 7.659396e-02 6.270885e-02 -1.944354e-02 -1.036257e-01 -1.315910e-01 -1.355511e-01 -6.768983e-02 1.511221e-01 6.416596e-02 -8.580847e-03 -2.170381e-01
<VARIANCE> 39
 1.431780e+01 2.992639e+01 4.431053e+01 4.266531e+01 5.294624e+01 6.569736e+01 7.799591e+01 6.614012e+01 8.722523e+01 4.341827e+01 4.536534e+01 4.415956e+01 2.514311e+01 2.969067e-01 6.363253e-01 1.177731e+00 8.960173e-01 1.420353e+00 1.336630e+00 1.559011e+00 1.502307e+00 1.457701e+00 1.335518e+00 1.259311e+00 1.058609e+00 2.602813e-01 6.332131e-02 1.500238e-01 1.547678e-01 1.751743e-01 2.178485e-01 2.260345e-01 2.691912e-01 2.952173e-01 2.630737e-01 2.287636e-01 2.217993e-01 1.936103e-01 9.476791e-02
<GCONST> 9.841629e+01
<STATE> 4
<MEAN> 39
 -4.170252e+00 -1.447942e+01 -5.877114e+00 -1.235003e+01 -1.298140e+01 -9.887237e+00 -5.121533e+00 4.548380e+00 -2.241487e+00 -3.293705e+00 -5.309789e+00 -3.741267e+00 6.341316e+01 -3.403731e-01 2.178676e+00 4.898261e-01 1.160363e+00 5.732876e-01 -4.408375e-01 -7.228796e-01 -1.077527e+00 -5.773425e-01 4.758521e-01 3.726915e-01 1.543528e-01 -2.277145e+00 -5.121136e-01 6.528994e-01 1.727007e-01 4.913317e-01 3.800941e-01 2.769776e-01 2.239205e-01 -4.592317e-01 -2.229689e-01 -7.116256e-03 9.555645e-02 5.127013e-02 -7.838058e-01
<VARIANCE> 39
 1.406046e+01 3.135719e+01 6.159408e+01 4.741393e+01 6.050205e+01 6.537076e+01 8.338952e+01 6.856696e+01 7.949500e+01 5.571109e+01 6.149472e+01 4.472261e+01 3.223919e+01 1.900961e+00 3.103009e+00 3.101713e+00 2.981518e+00 3.822399e+00 3.700682e+00 4.358768e+00 4.545730e+00 4.767540e+00 3.763991e+00 3.511175e+00 2.964408e+00 3.053222e+00 4.482877e-01 3.804959e-01 4.310071e-01 4.969347e-01 6.301368e-01 6.910303e-01 7.663239e-01 7.945693e-01 7.755167e-01 7.576147e-01 7.216650e-01 5.373514e-01 4.278464e-01
<GCONST> 1.314840e+02
<TRANSP> 5
 0.000000e+00 1.000000e+00 0.000000e+00 0.000000e+00 0.000000e+00
 0.000000e+00 6.704453e-01 3.295547e-01 0.000000e+00 0.000000e+00
 0.000000e+00 0.000000e+00 8.145489e-01 1.854511e-01 0.000000e+00
 0.000000e+00 0.000000e+00 0.000000e+00 5.635800e-01 4.364200e-01
 0.000000e+00 0.000000e+00 0.000000e+00 0.000000e+00 0.000000e+00
<ENDHMM>
~h "ah"
<BEGINHMM>
<NUMSTATES> 5
<STATE> 2
<MEAN> 39
 -5.333645e+00 -9.558125e+00 -6.355620e+00 -1.242071e+01 -9.881326e+00 -8.060148e+00 -9.725587e+00 -8.280075e-01 -1.088963e+00 -5.114386e-01 -4.178693e+00 -3.468473e+00 5.950031e+01 1.726151e+00 -1.131785e+00 1.368874e-01 -1.168462e+00 -7.559922e-01 -1.599133e-01 -1.155766e+00 2.213091e-01 2.810838e-01 1.939032e-01 -4.779559e-01 -5.494512e-01 1.352636e+00 -5.500523e-01 4.270527e-01 3.788063e-02 3.845026e-01 3.674034e-01 3.143911e-01 4.373619e-01 -1.781333e-01 -2.869251e-01 -4.707085e-02 1.484058e-01 8.400691e-02 -7.063072e-01
<VARIANCE> 39
 3.103672e+01 3.747784e+01 5.699469e+01 5.714775e+01 6.185725e+01 7.778513e+01 7.203342e+01 6.064200e+01 5.993792e+01 5.832073e+01 5.853594e+01 3.970599e+01 5.523931e+01 5.462874e+00 3.853715e+00 4.065730e+00 5.272904e+00 5.224255e+00 5.814398e+00 5.867391e+00 5.777513e+00 5.537167e+00 4.401441e+00 4.843350e+00 3.635018e+00 5.251760e+00 7.184867e-01 5.782400e-01 5.341265e-01 7.983859e-01 7.825075e-01 9.452024e-01 9.570239e-01 9.007443e-01 8.732349e-01 7.629427e-01 7.167624e-01 6.016667e-01 1.042851e+00
<GCONST> 1.409912e+02
<STATE> 3
<MEAN> 39
 -3.217089e+00 -1.276273e+01 -6.207839e+00 -1.496394e+01 -1.028304e+01 -6.813944e+00 -1.165000e+01 4.971739e-01 -5.081531e-01 1.436499e-01 -4.871992e+00 -4.805668e+00 6.303146e+01 2.127381e-01 3.105182e-01 1.715840e-01 9.874919e-02 1.632543e-01 1.513407e-01 7.154141e-04 -3.130332e-01 -3.143784e-01 -4.101843e-03 5.536844e-02 -8.021140e-02 -4.925711e-01 -6.646923e-01 8.670102e-01 5.713081e-02 6.947472e-01 4.140505e-01 1.309309e-01 5.546303e-01 -4.131778e-01 -3.867484e-01 -1.610573e-01 1.894987e-01 1.836272e-01 -9.708644e-01
<VARIANCE> 39
 1.429555e+01 3.504652e+01 5.778937e+01 5.633912e+01 5.808719e+01 9.089793e+01 7.310355e+01 6.371339e+01 6.900806e+01 6.466713e+01 7.010767e+01 4.987413e+01 2.729608e+01 1.913700e+00 2.721151e+00 2.664997e+00 3.477564e+00 3.339815e+00 3.790421e+00 3.571225e+00 4.047157e+00 3.596843e+00 3.199632e+00 3.146733e+00 2.722695e+00 2.669780e+00 6.276391e-01 4.713401e-01 5.235032e-01 7.140378e-01 7.823020e-01 1.020864e+00 1.055900e+00 9.180728e-01 8.839912e-01 7.850408e-01 7.790009e-01 6.548918e-01 5.814642e-01
<GCONST> 1.334902e+02
<STATE> 4
<MEAN> 39
 -3.763321e+00 -9.138924e+00 -6.137324e+00 -1.296121e+01 -9.219305e+00 -6.858067e+00 -9.954679e+00 -2.385142e+00 -2.272400e+00 -8.200248e-01 -3.694417e+00 -3.858403e+00 5.953051e+01 -9.601480e-01 2.001930e+00 4.342170e-01 1.437862e+00 8.638331e-01 2.775971e-01 8.975137e-01 -9.836351e-01 -1.026975e+00 -4.222288e-01 2.241677e-01 2.595955e-01 -2.196757e+00 -6.250451e-01 3.245681e-01 2.600092e-02 3.670700e-01 2.607201e-01 1.803005e-01 3.740868e-01 -1.956903e-02 -1.122679e-01 -5.851246e-02 5.824823e-03 6.414376e-02 -4.793310e-01
<VARIANCE> 39
 1.982218e+01 3.704333e+01 7.472449e+01 6.228355e+01 6.861633e+01 8.282295e+01 6.498677e+01 6.355574e+01 6.739580e+01 6.636266e+01 6.500026e+01 4.340673e+01 3.780929e+01 3.334099e+00 3.534393e+00 3.128534e+00 5.204434e+00 4.326652e+00 4.870720e+00 4.953772e+00 4.925274e+00 4.778829e+00 4.075148e+00 3.744223e+00 3.386951e+00 5.236762e+00 5.926508e-01 4.717618e-01 5.376074e-01 6.334542e-01 6.773373e-01 8.406609e-01 7.695389e-01 8.741665e-01 7.674883e-01 7.438070e-01 6.934656e-01 5.460727e-01 5.208116e-01
<GCONST> 1.368453e+02
<TRANSP> 5
 0.000000e+00 1.000000e+00 0.000000e+00 0.000000e+00 0.000000e+00
 0.000000e+00 2.924860e-01 7.075140e-01 0.000000e+00 0.000000e+00
 0.000000e+00 0.000000e+00 4.682460e-01 5.317540e-01 0.000000e+00
 0.000000e+00 0.000000e+00 0.000000e+00 4.216012e-01 5.783988e-01
 0.000000e+00 0.000000e+00 0.000000e+00 0.000000e+00 0.000000e+00
<ENDHMM>
~h "aw"
<BEGINHMM>
<NUMSTATES> 5
<STATE> 2
<MEAN> 39
 -4.418956e+00 -1.683094e+01 -9.166005e+00 -1.324760e+01 -9.640248e+00 -5.203772e+00 -3.443825e+00 2.444153e+00 -2.457306e+00 -3.625478e+00 -6.567350e+00 -4.449585e+00 6.536597e+01 5.932030e-01 -1.471375e+00 -9.026707e-01 -4.099647e-01 6.255855e-01 7.345156e-01 -5.606850e-02 2.072913e-01 4.722117e-01 -5.132997e-01 -5.097663e-01 -2.997023e-01 1.142035e+00 -3.124012e-01 3.979219e-01 2.983902e-02 2.032031e-01 3.264136e-01 1.709044e-01 -8.966248e-03 -3.275844e-01 -6.382314e-02 1.057825e-01 1.731278e-01 9.560811e-02 -4.835702e-01
<VARIANCE> 39
 1.786352e+01 3.428682e+01 5.496201e+01 4.809833e+01 6.714473e+01 6.369712e+01 7.769386e+01 6.932494e+01 7.980382e+01 5.217847e+01 4.905151e+01 4.292414e+01 2.662864e+01 1.757622e+00 2.248292e+00 2.159501e+00 2.545206e+00 3.194190e+00 3.119400e+00 4.107080e+00 3.978674e+00 3.059629e+00 2.638123e+00 2.460217e+00 2.493635e+00 1.945946e+00 3.952864e-01 3.806784e-01 3.315844e-01 4.273361e-01 5.147699e-01 5.202143e-01 6.876822e-01 7.146121e-01 6.206468e-01 4.972182e-01 4.524519e-01 4.439902e-01 2.984199e-01
<GCONST> 1.250687e+02
<STATE> 3
<MEAN> 39
 -2.379343e+00 -1.847345e+01 -1.316706e+01 -1.449047e+01 -4.731830e+00 -9.895425e-01 -4.873267e+00 -1.185845e+00 5.229576e-01 -4.084398e+00 -6.363224e+00 -5.467665e+00 6.597990e+01 2.508849e-01 2.669776e-01 -4.591553e-01 -4.313065e-01 4.158565e-01 6.223134e-01 -2.604903e-01 -5.223963e-01 9.227125e-02 2.492437e-01 3.133819e-01 -1.277917e-01 -2.570187e-01 2.147773e-02 2.079469e-01 5.700123e-02 -5.088760e-02 -1.704295e-01 -7.397407e-02 -1.612027e-02 4.895990e-03 -8.484784e-02 8.757426e-02 1.170125e-01 6.017730e-02 -1.414216e-01
<VARIANCE> 39
 1.267252e+01 2.680035e+01 4.034404e+01 5.046092e+01 5.634902e+01 7.691145e+01 8.169519e+01 7.133792e+01 6.803743e+01 5.302080e+01 4.778831e+01 4.614048e+01 1.986246e+01 2.362537e-01 6.722920e-01 7.326332e-01 1.185341e+00 1.380685e+00 1.462052e+00 1.631766e+00 1.662702e+00 1.497503e+00 1.398149e+00 1.440641e+00 1.228840e+00 2.304615e-01 3.984352e-02 9.826158e-02 1.146709e-01 1.562832e-01 1.981259e-01 2.191983e-01 2.601720e-01 2.513831e-01 2.424797e-01 2.064171e-01 2.202645e-01 2.086928e-01 4.106250e-02
<GCONST> 9.591267e+01
<STATE> 4
<MEAN> 39
 4.132099e-03 -1.230866e+01 -1.540098e+01 -1.943068e+01 -6.418121e+00 2.410550e+00 -5.249803e+00 -3.491546e+00 -1.539904e+00 -6.866663e-01 -1.760454e+00 -4.743428e+00 6.137209e+01 -4.702757e-03 1.140074e+00 4.322693e-01 3.789639e-01 -7.694169e-01 -7.911911e-01 -2.898689e-01 2.482503e-02 -4.284472e-01 3.818197e-01 3.067003e-01 3.113136e-01 -1.103385e+00 -2.432000e-01 1.216098e-01 3.223239e-01 5.369719e-01 -1.207106e-04 -3.951110e-01 -3.346702e-02 -1.058763e-02 -3.465531e-02 -5.426930e-02 -1.849746e-01 3.797605e-02 -2.337983e-01
<VARIANCE> 39
 1.299709e+01 4.054379e+01 3.553612e+01 6.630231e+01 6.457938e+01 7.898051e+01 8.973724e+01 6.125549e+01 6.351517e+01 6.234372e+01 6.732702e+01 4.827142e+01 3.389400e+01 7.363967e-01 1.859540e+00 1.860860e+00 3.842268e+00 3.201997e+00 3.437528e+00 3.579807e+00 3.278361e+00 3.177592e+00 2.878271e+00 2.911793e+00 2.741184e+00 1.151590e+00 1.674834e-01 3.002003e-01 2.962266e-01 4.618540e-01 5.445046e-01 4.573705e-01 5.902359e-01 5.589499e-01 5.559243e-01 5.435749e-01 5.261306e-01 4.683469e-01 2.528989e-01
<GCONST> 1.228754e+02
<TRANSP> 5
 0.000000e+00 1.000000e+00 0.000000e+00 0.000000e+00 0.000000e+00
 0.000000e+00 7.032334e-01 2.967667e-01 0.000000e+00 0.000000e+00
 0.000000e+00 0.000000e+00 8.667321e-01 1.332679e-01 0.000000e+00
 0.000000e+00 0.000000e+00 0.000000e+00 7.792623e-01 2.207377e-01
 0.000000e+00 0.000000e+00 0.000000e+00 0.000000e+00 0.000000e+00
<ENDHMM>
~h "ay"
<BEGINHMM>
<NUMSTATES> 5
<STATE> 2
<MEAN> 39
 -1.895313e+00 -1.479641e+01 -1.396420e+01 -1.719602e+01 -5.688665e+00 1.064550e-01 -5.272738e+00 -2.370131e+00 -2.764629e-01 -7.922848e-01 -4.213390e+00 -6.587522e+00 6.373363e+01 6.869573e-01 -2.032102e+00 -5.706465e-01 -4.754082e-01 3.973855e-01 6.340210e-01 -4.860572e-02 3.457968e-01 8.375851e-01 -3.496329e-01 -7.812116e-01 -7.729865e-01 1.527127e+00 -5.947171e-01 3.973492e-01 4.562392e-01 5.857375e-01 7.331629e-02 -3.341396e-01 1.085770e-01 4.129310e-02 -1.715737e-01 -1.440985e-01 4.262902e-02 3.478517e-01 -4.954692e-01
<VARIANCE> 39
 1.489257e+01 3.328154e+01 3.790075e+01 5.355605e+01 5.687117e+01 8.200658e+01 6.689230e+01 6.469888e+01 6.138620e+01 6.204171e+01 6.901167e+01 4.239642e+01 2.765937e+01 2.942381e+00 2.247958e+00 2.987278e+00 4.375480e+00 3.895091e+00 4.585978e+00 3.947708e+00 4.434455e+00 3.787662e+00 3.272040e+00 3.405801e+00 3.292627e+00 2.211217e+00 5.131782e-01 3.936337e-01 3.883261e-01 6.234518e-01 6.796035e-01 7.434167e-01 7.207485e-01 7.498805e-01 6.749538e-01 6.569241e-01 7.138659e-01 5.440522e-01 3.414258e-01
<GCONST> 1.306486e+02
<STATE> 3
<MEAN> 39
 -1.729258e+00 -1.811018e+01 -1.415835e+01 -1.552831e+01 -4.050149e+00 6.952159e-01 -5.287212e+00 -1.924771e+00 1.978309e+00 -2.469521e+00 -5.587718e+00 -7.695331e+00 6.564855e+01 -2.389781e-01 -4.221474e-01 6.002505e-01 7.666057e-01 -3.416809e-01 -9.645060e-01 6.153632e-02 8.951308e-01 2.129619e-01 -5.766157e-01 -5.093300e-01 2.704797e-01 1.610773e-01 -4.509540e-02 2.855569e-01 2.369394e-01 3.706922e-02 -3.300027e-01 -2.873752e-01 5.777476e-02 1.573510e-01 -2.335456e-01 -3.459721e-02 1.950447e-01 2.426255e-01 -1.556948e-01
<VARIANCE> 39
 9.976812e+00 2.987516e+01 3.199158e+01 4.338974e+01 4.971314e+01 7.168601e+01 6.874088e+01 6.407665e+01 6.117602e+01 5.263271e+01 5.415762e+01 4.494099e+01 1.954419e+01 2.569277e-01 6.851364e-01 1.160799e+00 1.362530e+00 1.796051e+00 2.488898e+00 1.755275e+00 2.544491e+00 1.589566e+00 1.506896e+00 1.496096e+00 1.627667e+00 2.174906e-01 4.983685e-02 1.498815e-01 1.451548e-01 1.970923e-01 2.473908e-01 2.550167e-01 2.956908e-01 3.198109e-01 3.381146e-01 2.641954e-01 3.328939e-01 2.978111e-01 6.158904e-02
<GCONST> 1.008929e+02
<STATE> 4
<MEAN> 39
 -4.202399e+00 -1.683396e+01 -7.419262e+00 -1.295369e+01 -1.098211e+01 -8.086991e+00 -3.071553e+00 4.176007e+00 -1.508429e+00 -4.819489e+00 -6.297451e+00 -3.138210e+00 6.501977e+01 -2.415443e-01 9.270508e-01 1.244528e+00 1.662515e-01 -1.289535e+00 -1.005502e+00 1.270340e-01 1.513979e-01 -7.743474e-01 2.543906e-01 7.164661e-01 4.423849e-01 -5.581065e-01 -6.235697e-03 3.219140e-01 -4.786877e-02 4.549316e-02 2.033519e-01 1.940655e-01 -1.557123e-01 -4.541413e-01 -9.656499e-02 2.065701e-01 9.424377e-02 -1.075069e-01 -3.116608e-01
<VARIANCE> 39
 1.217437e+01 3.326861e+01 5.105011e+01 4.364756e+01 6.797602e+01 5.865829e+01 7.207816e+01 6.432453e+01 8.291953e+01 5.102219e+01 4.666992e+01 3.981937e+01 2.440055e+01 4.088967e-01 1.117668e+00 1.960117e+00 1.791464e+00 2.863039e+00 2.380465e+00 3.198617e+00 3.053508e+00 2.666208e+00 2.505653e+00 2.170156e+00 2.312803e+00 5.021570e-01 8.770373e-02 2.101591e-01 2.113705e-01 2.979367e-01 4.087400e-01 3.246079e-01 4.412181e-01 4.866278e-01 4.500132e-01 4.153186e-01 3.870185e-01 3.218566e-01 1.533670e-01
<GCONST> 1.127376e+02
<TRANSP> 5
 0.000000e+00 1.000000e+00 0.000000e+00 0.000000e+00 0.000000e+00
 0.000000e+00 5.671937e-01 4.328062e-01 0.000000e+00 0.000000e+00
 0.000000e+00 0.000000e+00 8.057064e-01 1.942935e-01 0.000000e+00
 0.000000e+00 0.000000e+00 0.000000e+00 8.059538e-01 1.940462e-01
 0.000000e+00 0.000000e+00 0.000000e+00 0.000000e+00 0.000000e+00
<ENDHMM>
~h "ch"
<BEGINHMM>
<NUMSTATES> 5
<STATE> 2
<MEAN> 39
 -1.816572e+01 -3.768367e+00 -3.871778e-01 -4.858896e+00 -4.320015e+00 -2.936428e+00 -5.332359e+00 -1.964390e+00 -3.145241e+00 -2.607121e+00 -2.577383e+00 -1.533246e+00 4.364000e+01 -3.027267e+00 -6.049315e-01 -3.618830e-01 -6.218144e-01 1.170123e+00 2.044823e+00 9.199186e-01 3.552192e-01 9.073030e-01 6.272497e-01 7.133886e-01 4.147918e-01 -3.786959e-01 -3.255397e-02 -4.723714e-01 6.591488e-02 -7.436267e-01 -4.684615e-01 -1.831233e-01 -1.363304e-01 2.144042e-01 1.027340e-01 7.844405e-02 1.388287e-01 5.058787e-02 1.664861e+00
<VARIANCE> 39
 4.665002e+01 5.227864e+01 3.392608e+01 5.234439e+01 4.041899e+01 4.613419e+01 3.238743e+01 3.452106e+01 3.525439e+01 3.019720e+01 2.429744e+01 1.981098e+01 8.501894e+01 5.501093e+00 7.132466e+00 5.544084e+00 8.568160e+00 6.701282e+00 5.223268e+00 4.857234e+00 4.945183e+00 4.606861e+00 3.939625e+00 3.462369e+00 2.789624e+00 2.028610e+01 8.035898e-01 1.509599e+00 9.214776e-01 1.292830e+00 1.045187e+00 1.098613e+00 8.788341e-01 9.349955e-01 7.923067e-01 7.852475e-01 6.931969e-01 4.939369e-01 2.188985e+00
<GCONST> 1.410868e+02
<STATE> 3
<MEAN> 39
 -3.024815e+01 -5.357710e+00 1.671047e+00 -1.195873e+01 -3.968885e+00 1.229323e+00 -3.184646e+00 3.515876e-01 -3.265293e-02 -1.015517e+00 3.825646e-01 1.804180e-01 5.699179e+01 -1.088395e+00 1.381310e-01 5.943348e-01 -2.878516e-01 -7.712170e-01 -8.993004e-02 5.410240e-01 3.319943e-02 1.451894e-01 7.441587e-02 9.571885e-02 9.077203e-02 2.105591e+00 7.931091e-01 8.040511e-02 -8.087440e-02 4.898326e-01 -1.996565e-01 -4.512079e-01 -2.543564e-02 -1.002029e-01 -2.541057e-01 -8.819775e-02 -2.136868e-01 -1.068313e-01 -5.690640e-01
<VARIANCE> 39
 2.277164e+01 3.332823e+01 3.310193e+01 2.368337e+01 3.403918e+01 2.132330e+01 2.206038e+01 2.153777e+01 1.883404e+01 1.563439e+01 1.293192e+01 1.088295e+01 3.650035e+01 4.034849e+00 2.805137e+00 2.765664e+00 3.024407e+00 2.353714e+00 2.242081e+00 1.982366e+00 2.014573e+00 1.752778e+00 1.681630e+00 1.424330e+00 1.272749e+00 6.194335e+00 6.738589e-01 6.620620e-01 6.225010e-01 5.857762e-01 4.900136e-01 4.879019e-01 4.398023e-01 4.187967e-01 3.768316e-01 3.713089e-01 2.956784e-01 2.690408e-01 9.870360e-01
<GCONST> 1.136019e+02
<STATE> 4
<MEAN> 39
 -2.460309e+01 -8.058502e+00 1.400124e+00 -8.315861e+00 -9.796105e+00 -4.024145e+00 -1.155590e+00 -4.029098e-01 -1.386859e+00 -1.482276e+00 -1.226658e+00 -4.846623e-01 5.939832e+01 3.365167e+00 -4.452952e-01 -5.551881e-01 5.545571e-01 -5.911105e-01 -1.634771e+00 -9.138960e-01 5.324372e-02 -6.125261e-01 -4.784687e-01 -5.013257e-01 -2.842098e-01 -5.331866e-01 6.881354e-01 -7.997856e-02 -1.751730e-01 -2.231764e-01 1.352545e-01 2.342524e-02 -5.421762e-01 3.374716e-02 -4.001654e-02 -6.250858e-02 1.100758e-02 -4.263457e-02 -2.034744e-01
<VARIANCE> 39
 4.912062e+01 2.056894e+01 2.590366e+01 3.131442e+01 3.345352e+01 3.257201e+01 3.005654e+01 2.714890e+01 2.433346e+01 2.123838e+01 2.047404e+01 1.614159e+01 2.495522e+01 5.820642e+00 1.982745e+00 2.929841e+00 2.814081e+00 4.071137e+00 3.876260e+00 4.924902e+00 3.399851e+00 2.993099e+00 2.749307e+00 2.645129e+00 1.945235e+00 2.635365e+00 8.500502e-01 3.659758e-01 4.953154e-01 4.992510e-01 6.134445e-01 7.032930e-01 7.150429e-01 6.268952e-01 5.603494e-01 5.429085e-01 4.763113e-01 3.839911e-01 6.781689e-01
<GCONST> 1.216191e+02
<TRANSP> 5
 0.000000e+00 1.000000e+00 0.000000e+00 0.000000e+00 0.000000e+00
 0.000000e+00 7.075509e-01 2.924491e-01 0.000000e+00 0.000000e+00
 0.000000e+00 0.000000e+00 7.894416e-01 2.105584e-01 0.000000e+00
 0.000000e+00 0.000000e+00 0.000000e+00 7.634386e-01 2.365614e-01
 0.000000e+00 0.000000e+00 0.000000e+00 0.000000e+00 0.000000e+00
<ENDHMM>
~h "dh"
<BEGINHMM>
<NUMSTATES> 5
<STATE> 2
<MEAN> 39
 -1.659777e+01 -1.319594e+00 -5.896180e+00 -3.021267e+00 -3.202137e+00 -3.155071e+00 -3.098019e+00 -1.964023e+00 -1.824568e+00 -7.054170e-01 -2.225133e+00 -1.423378e+00 4.179308e+01 -1.419873e-01 -7.684159e-02 -6.682980e-02 -1.393007e-01 -1.478696e-01 -4.635072e-02 9.599428e-02 1.776704e-01 1.672804e-01 -1.581456e-01 7.385471e-03 5.742241e-02 8.973799e-01 5.384613e-01 -3.942646e-01 -7.818668e-02 -4.371858e-01 -4.753254e-01 -4.481829e-01 -2.373661e-01 6.258409e-02 8.379708e-02 -1.287148e-02 -4.901714e-02 -5.068289e-03 1.081976e+00
<VARIANCE> 39
 4.648900e+01 2.515449e+01 2.292867e+01 2.602458e+01 2.377745e+01 3.044182e+01 3.410209e+01 3.613774e+01 2.899291e+01 2.335306e+01 2.551652e+01 2.428777e+01 7.531940e+01 3.825768e+00 2.757887e+00 3.140479e+00 3.243759e+00 2.725286e+00 3.368353e+00 3.102433e+00 3.181844e+00 2.925222e+00 2.430574e+00 2.355843e+00 2.143655e+00 9.123654e+00 6.467915e-01 5.622284e-01 5.796831e-01 6.698175e-01 5.903430e-01 6.526804e-01 6.659614e-01 6.588944e-01 6.173275e-01 5.444406e-01 5.009280e-01 4.571057e-01 1.235980e+00
<GCONST> 1.249911e+02
<STATE> 3
<MEAN> 39
 -1.518140e+01 -2.914233e+00 -7.419230e+00 -5.605268e+00 -5.366947e+00 -5.432991e+00 -3.385741e+00 -2.125014e+00 -1.294815e+00 -1.401683e+00 -2.468729e+00 -1.243414e+00 5.017020e+01 2.217118e+00 -9.093964e-01 -3.192236e-02 -1.439429e+00 -1.865422e+00 -1.904966e+00 -1.210235e+00 1.500877e-01 4.273231e-01 -2.190400e-01 -3.840713e-01 -1.946740e-01 4.269865e+00 6.915941e-01 -3.683437e-01 3.672785e-01 -3.327754e-01 -4.811386e-01 -3.077562e-01 -4.696819e-01 8.546120e-02 -3.305062e-02 1.693856e-01 -9.591163e-02 -1.362765e-01 2.363130e-01
<VARIANCE> 39
 3.682960e+01 2.946804e+01 2.562349e+01 2.853415e+01 2.530688e+01 2.908147e+01 3.866590e+01 3.280467e+01 2.691240e+01 2.411956e+01 2.375392e+01 2.392115e+01 6.262641e+01 4.686953e+00 2.912661e+00 3.750553e+00 3.331241e+00 3.614982e+00 4.077260e+00 4.566062e+00 4.480326e+00 4.368545e+00 3.482593e+00 3.279034e+00 3.257273e+00 6.083811e+00 5.775950e-01 7.257262e-01 7.365856e-01 7.585968e-01 6.135849e-01 7.733352e-01 8.478099e-01 7.420425e-01 7.414031e-01 6.150178e-01 6.776986e-01 5.466753e-01 1.182887e+00
<GCONST> 1.294370e+02
<STATE> 4
<MEAN> 39
 -7.276466e+00 -5.583580e+00 -5.975643e+00 -8.932394e+00 -1.149131e+01 -1.125717e+01 -7.935946e+00 -1.919917e+00 -3.050636e-01 -1.269757e+00 -3.929539e+00 -2.826871e+00 5.902994e+01 2.187299e+00 -1.899592e+00 6.725056e-01 -1.677637e+00 -1.992099e+00 -1.387199e+00 -1.250102e+00 7.554870e-01 2.500707e-01 1.585656e-01 -3.615578e-01 -3.150524e-01 3.007525e+00 -4.588092e-01 -4.750109e-02 1.465688e-01 1.870980e-01 4.087602e-01 5.857548e-01 3.163858e-01 9.925083e-02 -2.366198e-01 2.807721e-02 8.321503e-02 7.765545e-02 -9.004880e-01
<VARIANCE> 39
 2.504321e+01 3.337986e+01 3.566452e+01 3.840420e+01 4.517517e+01 4.230068e+01 5.645977e+01 4.583754e+01 4.789741e+01 4.000877e+01 3.470292e+01 3.494672e+01 3.411227e+01 3.746282e+00 3.105033e+00 4.060726e+00 4.059646e+00 4.241166e+00 5.295509e+00 6.284344e+00 4.924595e+00 4.980140e+00 3.872668e+00 4.253867e+00 3.504727e+00 4.290907e+00 5.838434e-01 4.585718e-01 4.724174e-01 5.582912e-01 6.172152e-01 5.836656e-01 6.826894e-01 6.333312e-01 6.047212e-01 5.709802e-01 5.338336e-01 4.949147e-01 6.512391e-01
<GCONST> 1.308154e+02
<TRANSP> 5
 0.000000e+00 1.000000e+00 0.000000e+00 0.000000e+00 0.000000e+00
 0.000000e+00 5.911287e-01 4.088713e-01 0.000000e+00 0.000000e+00
 0.000000e+00 0.000000e+00 4.107489e-01 5.892511e-01 0.000000e+00
 0.000000e+00 0.000000e+00 0.000000e+00 4.382907e-01 5.617093e-01
 0.000000e+00 0.000000e+00 0.000000e+00 0.000000e+00 0.000000e+00
<ENDHMM>
~h "eh"
<BEGINHMM>
<NUMSTATES> 5
<STATE> 2
<MEAN> 39
 -5.090561e+00 -1.174354e+01 -3.076556e+00 -1.271147e+01 -1.435609e+01 -1.079026e+01 -8.551660e+00 2.196160e+00 -1.797059e+00 -1.411199e+00 -4.019794e+00 -2.822173e+00 6.291479e+01 1.519959e+00 -2.147316e+00 1.875412e-01 -1.260868e+00 -1.514223e+00 -4.954658e-01 -4.834309e-01 1.602896e+00 4.766724e-01 -2.311351e-01 -3.804387e-01 -2.804385e-01 1.992388e+00 -6.590043e-01 3.112339e-01 -2.354175e-01 1.803260e-01 5.536675e-01 5.049590e-01 4.740066e-01 -1.284999e-01 -1.098878e-01 9.048833e-03 1.184883e-01 8.012222e-02 -4.813725e-01
<VARIANCE> 39
 1.992677e+01 3.734198e+01 6.197023e+01 5.254444e+01 5.436248e+01 5.624133e+01 7.752459e+01 5.956036e+01 7.418755e+01 5.282981e+01 5.357713e+01 3.827937e+01 3.272136e+01 4.811528e+00 2.991860e+00 3.389777e+00 3.895265e+00 4.502919e+00 4.910090e+00 6.605726e+00 5.162035e+00 5.292381e+00 4.176392e+00 3.947145e+00 3.266530e+00 2.832044e+00 6.662312e-01 4.866644e-01 4.368862e-01 5.711085e-01 7.016051e-01 7.063000e-01 8.397602e-01 7.805027e-01 8.368745e-01 6.540333e-01 6.316434e-01 5.130528e-01 5.580909e-01
<GCONST> 1.348427e+02
<STATE> 3
<MEAN> 39
 -4.682100e+00 -1.534027e+01 -3.838229e+00 -1.431912e+01 -1.499715e+01 -9.410039e+00 -6.280982e+00 5.798588e+00 -1.540792e+00 -2.730731e+00 -4.977022e+00 -2.897103e+00 6.593559e+01 8.389617e-02 -2.161807e-01 -3.056483e-01 -3.665145e-02 2.466530e-01 1.628158e-01 7.806335e-02 2.361146e-01 6.557572e-02 -1.749111e-01 -1.557791e-01 -1.020023e-01 6.024198e-02 -6.858876e-02 4.502780e-01 -5.041029e-02 2.530541e-01 2.683575e-01 -9.004205e-03 -1.017066e-01 -4.318556e-01 -1.450766e-01 7.485405e-02 9.266339e-02 2.127789e-02 -4.626576e-01
<VARIANCE> 39
 1.382652e+01 2.810438e+01 4.886957e+01 4.651389e+01 5.450164e+01 5.903465e+01 8.574850e+01 5.725848e+01 8.294151e+01 5.377353e+01 5.537993e+01 4.134302e+01 1.886103e+01 4.879361e-01 1.045923e+00 1.667099e+00 1.318348e+00 1.829846e+00 1.986478e+00 2.350541e+00 2.187564e+00 2.107515e+00 1.813087e+00 1.597681e+00 1.486438e+00 6.378329e-01 1.678236e-01 2.452834e-01 2.270802e-01 2.976257e-01 3.612053e-01 3.736672e-01 4.824508e-01 4.655304e-01 4.285278e-01 3.535474e-01 3.396241e-01 3.104151e-01 1.797780e-01
<GCONST> 1.105851e+02
<STATE> 4
<MEAN> 39
 -3.432223e+00 -1.392243e+01 -6.066292e+00 -1.293620e+01 -1.248192e+01 -1.013729e+01 -8.250854e+00 3.943430e+00 -1.029765e+00 -2.160431e+00 -5.175458e+00 -3.567527e+00 6.363650e+01 -2.883642e-01 1.974977e+00 -2.331424e-02 1.191613e+00 1.109372e+00 9.588424e-02 -2.059560e-01 -1.680648e+00 -7.054471e-01 9.411623e-02 3.687858e-01 1.049343e-01 -2.180520e+00 -5.299383e-01 6.300077e-01 1.192646e-01 3.538000e-01 3.634284e-01 3.202936e-01 3.070036e-01 -4.448877e-01 -2.444898e-01 8.025270e-03 1.406644e-01 8.166440e-02 -7.123404e-01
<VARIANCE> 39
 1.449770e+01 3.109573e+01 5.460770e+01 4.847999e+01 5.916309e+01 7.169267e+01 9.115408e+01 6.433828e+01 8.498758e+01 6.075231e+01 6.192839e+01 4.552889e+01 2.546067e+01 2.065172e+00 2.765087e+00 3.459219e+00 3.666582e+00 3.873111e+00 3.977951e+00 4.945580e+00 4.545347e+00 4.474092e+00 3.643723e+00 3.539896e+00 3.323446e+00 2.833587e+00 4.363999e-01 3.959332e-01 4.288531e-01 5.246704e-01 6.541412e-01 7.057193e-01 7.944802e-01 8.354635e-01 8.332916e-01 6.862211e-01 6.657032e-01 5.445364e-01 4.553055e-01
<GCONST> 1.320671e+02
<TRANSP> 5
 0.000000e+00 1.000000e+00 0.000000e+00 0.000000e+00 0.000000e+00
 0.000000e+00 4.544412e-01 5.455588e-01 0.000000e+00 0.000000e+00
 0.000000e+00 0.000000e+00 7.763284e-01 2.236716e-01 0.000000e+00
 0.000000e+00 0.000000e+00 0.000000e+00 5.322899e-01 4.677101e-01
 0.000000e+00 0.000000e+00 0.000000e+00 0.000000e+00 0.000000e+00
<ENDHMM>
~h "er"
<BEGINHMM>
<NUMSTATES> 5
<STATE> 2
<MEAN> 39
 1.519933e+00 -1.326675e+01 -1.253740e+01 -7.475719e+00 -7.748453e+00 -1.255768e+01 -1.595777e+01 2.529368e+00 -5.874560e-01 -2.668384e+00 -1.908845e+00 -1.035864e+00 5.947497e+01 1.800527e+00 -7.613368e-01 -1.612305e+00 -5.952282e-02 7.364433e-01 -8.916308e-01 -2.242725e+00 1.167409e+00 7.928631e-01 -2.305531e-01 -2.404911e-02 2.667843e-01 3.845675e-01 -7.657028e-01 3.161843e-01 2.567845e-01 3.187231e-02 1.696396e-01 3.561918e-01 5.496532e-01 -1.937174e-01 -4.477663e-02 8.054612e-02 -2.142954e-02 -4.206272e-02 -2.674325e-01
<VARIANCE> 39
 1.555392e+01 3.067336e+01 7.496656e+01 4.842085e+01 6.902283e+01 7.567598e+01 8.894183e+01 7.685263e+01 8.172687e+01 4.781855e+01 4.798030e+01 3.506140e+01 2.108436e+01 3.632877e+00 2.244778e+00 3.019111e+00 2.976937e+00 4.046700e+00 4.188119e+00 5.969346e+00 4.978315e+00 4.271844e+00 3.496696e+00 2.981806e+00 2.551051e+00 1.271660e+00 5.788797e-01 3.797809e-01 5.557733e-01 4.976330e-01 6.389605e-01 6.481646e-01 9.003463e-01 7.432114e-01 6.396959e-01 5.490977e-01 5.104743e-01 4.449874e-01 2.317494e-01
<GCONST> 1.295956e+02
<STATE> 3
<MEAN> 39
 3.255196e+00 -1.315198e+01 -1.709746e+01 -6.898775e+00 -3.917749e+00 -1.300903e+01 -1.889397e+01 4.018792e+00 2.490598e+00 -2.305272e+00 -2.493047e+00 -6.856683e-01 5.857296e+01 -1.463216e-01 1.525498e-01 1.640054e-01 1.496569e-01 -1.224168e-02 -7.250318e-02 2.347427e-01 7.005011e-02 -1.095865e-01 -1.738439e-01 -5.838886e-02 6.737866e-02 -2.587703e-01 -2.812952e-01 1.302309e-01 3.687790e-01 2.262945e-02 -2.241915e-01 1.851672e-01 4.895206e-01 -1.971296e-01 -2.477945e-01 -3.171477e-02 3.414324e-02 -4.207184e-02 -1.312268e-01
<VARIANCE> 39
 1.083271e+01 2.879649e+01 6.365582e+01 4.382970e+01 6.585343e+01 8.524053e+01 1.069630e+02 9.091010e+01 9.172417e+01 5.080625e+01 4.097004e+01 3.333545e+01 2.190499e+01 3.873589e-01 9.293596e-01 1.713859e+00 1.317515e+00 2.137688e+00 1.829570e+00 2.709478e+00 2.433573e+00 1.977617e+00 1.804393e+00 1.545220e+00 1.324058e+00 5.201753e-01 1.840375e-01 2.086367e-01 2.200636e-01 2.315196e-01 3.141325e-01 3.573585e-01 5.478697e-01 4.895797e-01 3.702391e-01 3.317088e-01 2.787050e-01 2.515847e-01 1.245578e-01
<GCONST> 1.097220e+02
<STATE> 4
<MEAN> 39
 -1.743220e+00 -1.125294e+01 -1.127374e+01 -5.161516e+00 -6.328096e+00 -1.206121e+01 -1.175128e+01 3.436751e+00 -1.282625e+00 -3.997968e+00 -3.064838e+00 -5.112490e-01 5.453075e+01 -1.831294e+00 1.027002e+00 1.695516e+00 -1.403227e-03 -4.362936e-01 1.374103e+00 2.349233e+00 -1.157852e+00 -1.044450e+00 2.801745e-02 6.887561e-02 -2.810265e-01 -1.190835e+00 -4.263030e-01 2.711778e-01 9.703088e-02 -2.519968e-01 1.651446e-01 4.198974e-01 1.769408e-01 -2.947443e-01 -2.048657e-02 1.946131e-01 1.585833e-02 -1.380838e-01 -1.218828e-01
<VARIANCE> 39
 3.540763e+01 3.305482e+01 7.636341e+01 6.142143e+01 7.289294e+01 8.999780e+01 1.140089e+02 7.164780e+01 8.598862e+01 5.800947e+01 4.975756e+01 3.782582e+01 5.858971e+01 3.276087e+00 3.603631e+00 3.758250e+00 4.207817e+00 5.177442e+00 5.134593e+00 7.287550e+00 5.828479e+00 5.132845e+00 4.407018e+00 3.762095e+00 3.065680e+00 3.692156e+00 7.616739e-01 5.572997e-01 6.041238e-01 6.440501e-01 7.469779e-01 8.970766e-01 1.142670e+00 8.691041e-01 7.965621e-01 7.346240e-01 6.499207e-01 5.354591e-01 6.416014e-01
<GCONST> 1.400037e+02
<TRANSP> 5
 0.000000e+00 1.000000e+00 0.000000e+00 0.000000e+00 0.000000e+00
 0.000000e+00 6.150751e-01 3.849249e-01 0.000000e+00 0.000000e+00
 0.000000e+00 0.000000e+00 8.033549e-01 1.966451e-01 0.000000e+00
 0.000000e+00 0.000000e+00 0.000000e+00 6.414232e-01 3.585769e-01
 0.000000e+00 0.000000e+00 0.000000e+00 0.000000e+00 0.000000e+00
<ENDHMM>
~h "ey"
<BEGINHMM>
<NUMSTATES> 5
<STATE> 2
<MEAN> 39
 -4.687916e+00 -1.432244e+01 -1.261937e+00 -1.317628e+01 -1.675611e+01 -1.127906e+01 -7.566759e+00 4.877964e+00 -1.538046e+00 -2.056753e+00 -3.137053e+00 -2.480873e+00 6.495525e+01 5.784521e-02 -8.377793e-01 1.412773e+00 -7.494453e-01 -1.820231e+00 -4.860815e-01 5.622999e-01 9.535977e-01 -7.260259e-01 -2.251114e-01 6.357870e-01 4.005502e-01 9.510974e-01 -4.008432e-01 5.273405e-01 -2.464032e-03 1.473408e-01 3.606171e-01 3.752402e-01 1.823857e-01 -5.894508e-01 -2.945759e-01 1.955857e-01 2.678209e-01 -1.913078e-02 -4.962711e-01
<VARIANCE> 39
 1.375786e+01 2.828515e+01 4.542308e+01 5.357736e+01 4.615076e+01 5.009409e+01 8.054856e+01 5.942227e+01 7.462047e+01 4.998962e+01 5.652676e+01 3.562244e+01 2.225610e+01 2.061568e+00 2.478621e+00 2.300062e+00 2.942317e+00 2.830271e+00 3.342602e+00 4.409032e+00 4.312536e+00 3.580199e+00 3.648656e+00 3.068646e+00 2.473671e+00 1.555886e+00 4.174922e-01 3.201566e-01 3.002004e-01 4.548173e-01 4.841396e-01 5.275540e-01 7.336731e-01 6.975546e-01 7.452490e-01 5.636137e-01 5.733584e-01 4.755654e-01 2.450581e-01
<GCONST> 1.247550e+02
<STATE> 3
<MEAN> 39
 -6.556891e+00 -1.239123e+01 4.033355e+00 -1.500732e+01 -2.094325e+01 -1.038244e+01 -5.201314e+00 2.141099e+00 -6.224620e+00 -7.474135e-01 -4.920555e-01 -2.059389e+00 6.462888e+01 -1.837502e-01 5.002188e-01 7.647867e-01 -1.378375e-02 -3.643296e-01 1.330066e-01 -1.001811e-01 -6.710643e-01 -6.697425e-01 1.847371e-01 2.938403e-01 -2.368093e-02 -3.417360e-01 3.923237e-02 1.214827e-01 -1.528679e-01 1.825445e-01 2.537596e-01 -6.181443e-03 -1.346727e-01 -9.012270e-02 3.928462e-02 -6.636097e-02 -1.370303e-01 -3.879651e-02 -1.972360e-01
<VARIANCE> 39
 1.247104e+01 2.893192e+01 4.334442e+01 7.197339e+01 4.045079e+01 5.549197e+01 6.974062e+01 7.036440e+01 5.984406e+01 5.224906e+01 6.725283e+01 2.992507e+01 2.071136e+01 2.707347e-01 6.628533e-01 1.103610e+00 9.366620e-01 1.064674e+00 1.209009e+00 1.497568e+00 1.628527e+00 1.853183e+00 1.435151e+00 1.342250e+00 1.048633e+00 2.947417e-01 5.679985e-02 1.277903e-01 1.607876e-01 1.784922e-01 2.278061e-01 2.262911e-01 2.791358e-01 2.896750e-01 2.639637e-01 2.471734e-01 2.364684e-01 1.932004e-01 7.531181e-02
<GCONST> 9.771069e+01
<STATE> 4
<MEAN> 39
 -6.965300e+00 -8.979088e+00 6.964263e+00 -1.247794e+01 -2.057271e+01 -1.067309e+01 -7.436425e+00 -1.321720e+00 -9.792618e+00 -1.158862e+00 -3.010534e-01 -2.056737e+00 6.044188e+01 -3.936756e-01 1.395918e+00 -7.806643e-01 1.606306e+00 1.865082e+00 1.693416e-01 8.018593e-02 -6.953349e-01 5.748749e-03 -5.805209e-01 -5.415084e-01 -1.297133e-01 -2.062512e+00 -3.851031e-01 2.337795e-01 -6.524273e-01 2.636258e-01 7.982109e-01 2.735881e-01 2.665192e-01 4.418851e-02 4.549196e-01 7.907833e-03 -1.438830e-01 -1.753061e-02 -4.205804e-01
<VARIANCE> 39
 1.436001e+01 3.708794e+01 4.377079e+01 8.050126e+01 4.019368e+01 5.816103e+01 6.573576e+01 7.787932e+01 5.680542e+01 6.209209e+01 7.087189e+01 3.389442e+01 3.630938e+01 2.412203e+00 2.751360e+00 3.561370e+00 3.505354e+00 4.568944e+00 3.803667e+00 4.725298e+00 4.184192e+00 4.473876e+00 3.628004e+00 3.456127e+00 2.584937e+00 3.225269e+00 4.660061e-01 4.405041e-01 4.366999e-01 6.554591e-01 6.075041e-01 6.971548e-01 6.797970e-01 8.080274e-01 7.317331e-01 6.671927e-01 6.221700e-01 4.655429e-01 5.270333e-01
<GCONST> 1.314796e+02
<TRANSP> 5
 0.000000e+00 1.000000e+00 0.000000e+00 0.000000e+00 0.000000e+00
 0.000000e+00 6.505011e-01 3.494989e-01 0.000000e+00 0.000000e+00
 0.000000e+00 0.000000e+00 8.420967e-01 1.579033e-01 0.000000e+00
 0.000000e+00 0.000000e+00 0.000000e+00 6.745571e-01 3.254428e-01
 0.000000e+00 0.000000e+00 0.000000e+00 0.000000e+00 0.000000e+00
<ENDHMM>
~h "hh"
<BEGINHMM>
<NUMSTATES> 5
<STATE> 2
<MEAN> 39
 -1.348203e+01 -8.564839e+00 -3.464468e+00 -9.158938e+00 -6.257216e+00 -1.841800e+00 9.303926e-01 -4.563676e-01 -3.175276e+00 -2.142195e+00 -3.455091e+00 -5.539349e-01 5.334906e+01 1.075070e-01 -2.123208e-01 -5.240664e-03 -1.385641e-01 1.348032e-02 2.449448e-01 4.547987e-01 -8.178607e-02 -8.343782e-02 -1.811688e-01 -2.291133e-01 -1.366749e-01 3.880050e-01 3.685460e-01 1.498478e-01 3.916891e-03 -8.251754e-02 -2.895399e-01 -2.597847e-01 -4.155084e-01 -1.426729e-01 -1.608324e-01 -5.841402e-02 -8.692150e-03 -1.451470e-01 1.551394e-01
<VARIANCE> 39
 2.955167e+01 4.091268e+01 6.585474e+01 4.621347e+01 6.189953e+01 5.122250e+01 4.938687e+01 5.760056e+01 4.622341e+01 3.763165e+01 3.688269e+01 2.622477e+01 5.783284e+01 2.247069e+00 2.084095e+00 2.438820e+00 2.395908e+00 3.018780e+00 2.975130e+00 3.504881e+00 3.186785e+00 3.012686e+00 2.622119e+00 2.516281e+00 1.981856e+00 1.568985e+00 3.131867e-01 4.045495e-01 3.894350e-01 4.876325e-01 5.581451e-01 5.638036e-01 6.435740e-01 5.875161e-01 5.740922e-01 5.422319e-01 5.132876e-01 3.975515e-01 2.488726e-01
<GCONST> 1.232422e+02
<STATE> 3
<MEAN> 39
 -1.059495e+01 -6.251863e+00 -1.109505e+00 -9.187817e+00 -8.618297e+00 -3.192605e+00 4.680698e-01 -2.085342e+00 -5.566951e+00 -3.348372e+00 -4.965709e+00 -2.192202e+00 5.637114e+01 1.871245e+00 8.484262e-02 -2.226680e-01 -7.511951e-01 -1.324481e+00 -9.845080e-01 -1.061670e+00 -2.813106e-01 -5.940654e-01 -4.690355e-01 -3.365158e-01 -5.533936e-01 1.351104e+00 2.568094e-01 -3.831780e-01 -2.446309e-01 -3.674666e-01 -3.073612e-01 -2.465288e-01 -4.659278e-01 1.302957e-01 7.019313e-02 8.325804e-02 1.911911e-01 1.030121e-02 3.697342e-01
<VARIANCE> 39
 2.704661e+01 3.826709e+01 6.864182e+01 5.381578e+01 7.197228e+01 5.867714e+01 6.028682e+01 7.387905e+01 5.144340e+01 4.752077e+01 4.816537e+01 2.927743e+01 4.402651e+01 2.611412e+00 2.437315e+00 3.730346e+00 2.684009e+00 3.429813e+00 3.409929e+00 4.309712e+00 3.870852e+00 3.952573e+00 2.803422e+00 3.111869e+00 2.193974e+00 1.659402e+00 2.913235e-01 3.728670e-01 3.585619e-01 4.076367e-01 4.935881e-01 5.105604e-01 6.329043e-01 5.656446e-01 5.251476e-01 5.400056e-01 4.508249e-01 3.928735e-01 1.889586e-01
<GCONST> 1.254765e+02
<STATE> 4
<MEAN> 39
 -6.960278e+00 -8.014667e+00 -2.172525e+00 -1.363773e+01 -1.376185e+01 -6.924922e+00 -1.989719e+00 -2.698847e+00 -6.885360e+00 -3.900888e+00 -5.650691e+00 -2.773148e+00 6.161617e+01 1.165710e+00 -1.235876e+00 -8.047944e-01 -6.349125e-01 -7.447831e-01 -7.223651e-01 -7.214876e-01 6.224597e-01 1.514680e-01 -7.888698e-02 2.421602e-01 -1.184346e-01 1.272004e+00 -2.067133e-01 -2.137608e-01 1.942948e-02 4.912872e-02 1.823321e-01 1.446039e-01 -2.960108e-02 1.270079e-01 1.947679e-01 8.424605e-02 1.099992e-01 6.169057e-02 -7.110244e-02
<VARIANCE> 39
 1.825908e+01 3.861100e+01 6.761175e+01 6.846413e+01 6.480168e+01 6.230536e+01 6.475101e+01 8.336385e+01 5.756441e+01 5.071698e+01 6.034189e+01 3.227486e+01 3.807140e+01 1.818216e+00 2.327002e+00 2.896359e+00 2.643701e+00 3.385140e+00 2.932986e+00 4.174026e+00 3.420923e+00 3.197821e+00 2.891485e+00 2.380408e+00 2.096933e+00 1.606705e+00 2.193986e-01 3.177681e-01 3.107172e-01 3.190860e-01 3.829519e-01 3.587969e-01 4.622779e-01 4.694816e-01 4.182481e-01 4.105857e-01 3.786467e-01 3.098574e-01 1.506496e-01
<GCONST> 1.212196e+02
<TRANSP> 5
