~o
<STREAMINFO> 1 39
<VECSIZE> 39<NULLD><MFCC_D_A_0><DIAGC>
~h "b"
<BEGINHMM>
<NUMSTATES> 5
<STATE> 2
<MEAN> 39
 -6.557332e+00 2.326876e+00 -2.832124e+00 -1.892713e+00 -2.738072e+00 -2.582308e+00 -7.010352e+00 -7.482129e+00 -7.713995e+00 -3.826246e+00 -3.054457e+00 -4.090815e+00 4.078370e+01 -9.400037e-01 1.381905e+00 6.895102e-01 1.356791e+00 9.621341e-01 6.045943e-01 6.132298e-01 -3.201015e-01 -3.282245e-01 -5.140942e-01 -2.815086e-01 -3.251231e-02 -1.964512e+00 -1.546062e-01 -8.304542e-01 -1.744229e-01 -6.482326e-01 -4.215941e-01 -2.660159e-01 -3.519657e-02 4.820439e-01 4.213843e-01 2.543716e-01 7.772711e-02 1.635428e-01 1.240898e+00
<VARIANCE> 39
 4.155635e+01 3.268503e+01 2.469149e+01 3.848036e+01 2.637689e+01 3.647304e+01 3.922423e+01 3.699228e+01 3.806704e+01 3.442879e+01 3.250241e+01 2.721589e+01 4.228734e+01 2.775579e+00 5.558350e+00 3.587116e+00 5.127255e+00 3.573683e+00 3.792710e+00 4.166874e+00 4.815848e+00 4.430821e+00 3.761429e+00 3.038044e+00 2.568108e+00 8.217216e+00 4.284862e-01 8.556483e-01 6.914879e-01 8.596130e-01 6.942837e-01 6.586508e-01 8.428549e-01 8.499682e-01 8.281404e-01 7.490265e-01 6.276112e-01 5.166057e-01 1.110297e+00
<GCONST> 1.316938e+02
<STATE> 3
<MEAN> 39
 -1.129019e+01 1.206969e+00 -2.331144e+00 -9.987173e-01 -1.453016e+00 -1.736900e+00 -4.595645e+00 -5.223427e+00 -5.675901e+00 -3.466945e+00 -3.086996e+00 -2.921602e+00 4.020466e+01 -8.718044e-02 -2.442102e+00 -9.267632e-01 -2.160139e+00 -1.273466e+00 -8.952940e-01 1.725059e-03 1.114789e+00 1.390501e+00 8.651216e-01 5.888357e-01 6.283792e-01 4.096788e+00 8.401350e-01 -7.799987e-01 -3.604783e-01 -1.119115e+00 -8.206444e-01 -3.666019e-01 -4.515736e-01 8.890440e-02 6.662925e-02 2.682760e-01 1.954539e-01 1.198017e-02 1.559135e+00
<VARIANCE> 39
 4.108858e+01 2.933773e+01 2.043595e+01 2.850996e+01 1.983555e+01 2.592453e+01 2.970688e+01 3.302181e+01 3.460606e+01 2.870575e+01 2.392603e+01 2.071334e+01 5.549649e+01 4.931434e+00 3.520889e+00 3.833186e+00 5.236475e+00 3.778255e+00 4.011851e+00 4.599335e+00 4.549843e+00 4.566719e+00 3.755583e+00 3.352113e+00 2.603814e+00 8.053413e+00 6.293759e-01 8.201880e-01 9.336397e-01 8.905076e-01 7.583854e-01 9.155747e-01 8.510300e-01 9.711010e-01 9.972935e-01 8.357791e-01 7.400333e-01 5.535781e-01 1.129487e+00
<GCONST> 1.317476e+02
<STATE> 4
<MEAN> 39
 -7.053430e+00 -7.241208e+00 -6.760644e+00 -1.116163e+01 -7.976634e+00 -5.400446e+00 -6.344584e+00 -3.052130e+00 -2.245320e+00 -1.079369e-01 -8.855727e-01 -1.745859e+00 5.685879e+01 2.114902e+00 -2.514592e+00 -8.888956e-01 -3.396246e+00 -2.205645e+00 -6.460247e-01 -9.622879e-01 6.677774e-01 3.925355e-01 6.825709e-01 3.347709e-01 -1.105987e-03 4.468388e+00 1.088891e-01 4.671361e-01 2.745062e-01 3.721773e-01 2.109730e-01 3.199170e-01 -6.641121e-02 -1.402430e-01 -4.029068e-01 -2.526681e-01 -2.174230e-01 -2.076668e-01 -9.893831e-01
<VARIANCE> 39
 4.753019e+01 3.434336e+01 4.833155e+01 7.385268e+01 4.411684e+01 6.003078e+01 4.800718e+01 4.354823e+01 4.169983e+01 3.662157e+01 3.926830e+01 2.715518e+01 5.287256e+01 5.569169e+00 5.210807e+00 7.423615e+00 7.557358e+00 6.712113e+00 7.496829e+00 7.376599e+00 7.009893e+00 6.976573e+00 5.371365e+00 5.334452e+00 4.115602e+00 7.595597e+00 9.226792e-01 6.578794e-01 5.767249e-01 1.094841e+00 8.499871e-01 8.415272e-01 8.964139e-01 8.792065e-01 8.606523e-01 7.272016e-01 7.142823e-01 5.363586e-01 9.540495e-01
<GCONST> 1.420452e+02
<TRANSP> 5
 0.000000e+00 1.000000e+00 0.000000e+00 0.000000e+00 0.000000e+00
 0.000000e+00 7.085392e-01 2.914608e-01 0.000000e+00 0.000000e+00
 0.000000e+00 0.000000e+00 5.032721e-01 4.967280e-01 0.000000e+00
 0.000000e+00 0.000000e+00 0.000000e+00 5.139047e-01 4.860954e-01
 0.000000e+00 0.000000e+00 0.000000e+00 0.000000e+00 0.000000e+00
<ENDHMM>
~h "d"
<BEGINHMM>
<NUMSTATES> 5
<STATE> 2
<MEAN> 39
 -8.275019e+00 -1.271560e+00 5.557102e-01 -2.207125e+00 -8.157115e+00 -7.455194e+00 -7.139396e+00 -4.085466e+00 -5.407676e+00 -4.319968e+00 -5.463840e+00 -3.140639e+00 4.525435e+01 -1.027876e+00 1.430699e+00 2.364501e-01 1.221051e+00 1.558721e+00 9.611144e-01 4.301717e-01 -6.225979e-01 -1.586927e-01 -2.556861e-01 -2.852063e-01 -3.645201e-01 -2.164936e+00 -1.579103e-01 -7.399480e-01 -2.747034e-01 -7.396065e-01 -1.532284e-01 6.243254e-02 -4.520576e-03 3.760846e-01 1.961079e-01 1.909300e-01 2.963361e-01 1.722317e-01 1.071986e+00
<VARIANCE> 39
 3.713195e+01 5.922932e+01 4.207075e+01 7.089029e+01 5.997966e+01 4.923685e+01 4.600067e+01 5.199884e+01 4.733427e+01 3.920792e+01 3.796234e+01 3.120237e+01 9.226865e+01 2.774312e+00 7.462761e+00 3.781526e+00 7.424925e+00 5.568212e+00 5.082757e+00 5.559331e+00 5.817960e+00 4.708197e+00 4.131107e+00 3.990773e+00 3.266345e+00 1.193499e+01 4.357455e-01 1.157941e+00 5.518336e-01 1.125440e+00 1.045171e+00 8.217103e-01 9.425262e-01 9.115651e-01 7.869598e-01 7.707124e-01 7.472213e-01 6.117560e-01 1.724090e+00
<GCONST> 1.412691e+02
<STATE> 3
<MEAN> 39
 -1.214730e+01 -1.942099e+00 -6.184408e-01 -2.772060e+00 -4.540610e+00 -4.218926e+00 -5.648625e+00 -3.981834e+00 -4.915474e+00 -3.540079e+00 -4.380876e+00 -2.946320e+00 4.437293e+01 -1.082685e+00 -1.753757e+00 -5.302531e-01 -1.836602e+00 -7.239789e-02 2.768299e-01 2.446171e-01 7.491598e-01 6.155452e-01 4.979510e-01 8.226422e-01 5.991012e-01 2.776195e+00 4.070789e-01 -5.539507e-01 -9.232816e-02 -7.221712e-01 -8.202726e-01 -5.314260e-01 -2.977043e-01 3.096684e-01 1.201682e-01 1.890627e-01 1.483129e-01 1.484974e-01 1.347740e+00
<VARIANCE> 39
 4.504723e+01 5.869544e+01 3.999118e+01 5.994094e+01 4.678757e+01 4.290654e+01 4.122293e+01 4.291230e+01 3.988251e+01 3.225263e+01 3.214022e+01 2.589527e+01 9.887177e+01 4.606328e+00 6.385643e+00 3.991457e+00 6.866320e+00 6.012795e+00 6.083816e+00 5.443701e+00 5.497632e+00 4.998570e+00 4.041361e+00 3.885259e+00 3.077035e+00 1.389296e+01 7.550597e-01 1.205706e+00 7.550318e-01 1.242700e+00 1.089898e+00 1.038591e+00 1.073915e+00 1.015486e+00 9.523890e-01 7.959974e-01 8.334601e-01 6.792167e-01 1.945871e+00
<GCONST> 1.425813e+02
<STATE> 4
<MEAN> 39
 -1.265587e+01 -7.614744e+00 -2.389571e+00 -9.794111e+00 -8.789595e+00 -6.794645e+00 -6.070794e+00 -1.163924e+00 -2.681557e+00 -1.776759e+00 -2.553214e+00 -9.855409e-01 5.665522e+01 1.013085e+00 -1.120726e+00 -3.276255e-01 -1.372397e+00 -1.354160e+00 -1.002643e+00 -7.632575e-01 7.439855e-01 3.115436e-01 3.667448e-01 1.358335e-01 3.391157e-02 2.710814e+00 5.285087e-01 2.376943e-01 -3.203459e-02 3.942952e-01 -2.021436e-03 3.148862e-02 -1.059426e-01 -8.853725e-02 -1.998672e-01 -5.473159e-02 -1.550680e-01 -2.267670e-01 -7.130323e-01
<VARIANCE> 39
 5.951937e+01 4.754681e+01 4.748986e+01 5.371106e+01 5.606594e+01 5.371849e+01 5.960280e+01 5.052749e+01 4.521616e+01 3.286639e+01 3.265177e+01 2.735896e+01 7.378401e+01 7.562848e+00 4.730223e+00 4.719041e+00 5.969332e+00 7.014482e+00 6.793538e+00 7.031287e+00 5.863004e+00 5.539584e+00 4.312095e+00 4.807123e+00 3.865044e+00 1.058676e+01 1.010985e+00 9.208760e-01 8.154466e-01 1.058781e+00 1.357829e+00 1.486901e+00 1.203083e+00 1.049083e+00 9.488038e-01 8.107114e-01 8.187764e-01 6.671395e-01 1.570817e+00
<GCONST> 1.451448e+02
<TRANSP> 5
 0.000000e+00 1.000000e+00 0.000000e+00 0.000000e+00 0.000000e+00
 0.000000e+00 5.458788e-01 4.541212e-01 0.000000e+00 0.000000e+00
 0.000000e+00 0.000000e+00 3.805498e-01 6.194502e-01 0.000000e+00
 0.000000e+00 0.000000e+00 0.000000e+00 5.085393e-01 4.914607e-01
 0.000000e+00 0.000000e+00 0.000000e+00 0.000000e+00 0.000000e+00
<ENDHMM>
~h "f"
<BEGINHMM>
<NUMSTATES> 5
<STATE> 2
<MEAN> 39
 -1.761617e+01 -5.755760e+00 -7.012083e+00 -5.747973e+00 -3.724361e+00 -3.374813e+00 -2.283812e+00 -6.258949e-01 -1.840270e+00 -1.213553e+00 -2.585651e+00 -1.091667e+00 5.283433e+01 -3.621966e+00 -3.228826e-01 -3.356141e-01 7.917004e-01 4.274932e-01 4.092885e-01 6.468289e-01 5.459393e-01 6.699587e-01 3.750958e-01 4.176346e-01 5.762317e-01 -8.501135e-01 4.338887e-01 -3.463619e-01 -1.159565e-01 -4.235871e-01 -3.827664e-01 -2.137449e-01 -3.430169e-01 -6.953365e-02 -1.155530e-01 4.110265e-02 8.597601e-03 -6.599669e-02 2.741718e-01
<VARIANCE> 39
 5.143987e+01 1.842808e+01 1.886240e+01 2.110240e+01 1.831875e+01 2.384139e+01 2.166008e+01 2.114479e+01 2.070494e+01 2.015099e+01 1.806755e+01 1.566619e+01 3.508397e+01 5.903198e+00 3.320026e+00 3.942319e+00 4.623343e+00 3.450686e+00 3.988001e+00 3.922928e+00 3.679161e+00 3.585136e+00 3.250097e+00 3.249702e+00 2.477159e+00 2.944867e+00 9.461457e-01 6.219931e-01 5.643201e-01 6.770227e-01 6.010085e-01 5.559781e-01 6.448472e-01 6.176847e-01 5.929165e-01 5.405920e-01 5.095690e-01 4.366615e-01 4.646273e-01
<GCONST> 1.218361e+02
<STATE> 3
<MEAN> 39
 -2.357234e+01 -8.440495e+00 -9.336671e+00 -6.301101e+00 -4.779080e+00 -3.846936e+00 -2.987406e+00 -2.803939e-01 -1.014220e+00 -1.585125e-01 -1.752109e+00 -1.241981e-01 5.262129e+01 2.341375e-01 -1.577019e-01 -1.434984e-01 -1.456347e-01 -8.395550e-02 -8.469546e-02 -9.948079e-02 -6.868915e-02 1.752392e-02 5.070100e-02 2.190358e-02 -1.884004e-02 1.393691e-01 8.662325e-01 1.150016e-01 1.082242e-01 -1.460298e-01 -5.820206e-02 -7.299843e-02 -1.414808e-01 -9.292786e-02 -9.918553e-02 -8.208631e-02 -6.108588e-02 -1.127754e-01 1.452883e-01
<VARIANCE> 39
 1.297209e+01 1.362344e+01 1.110193e+01 1.223684e+01 1.293104e+01 1.404447e+01 1.493816e+01 1.411257e+01 1.399550e+01 1.389191e+01 1.330160e+01 1.183007e+01 3.018486e+01 3.468837e+00 1.092975e+00 1.193309e+00 1.331326e+00 1.396788e+00 1.528298e+00 1.620188e+00 1.618888e+00 1.602033e+00 1.548862e+00 1.489020e+00 1.364166e+00 1.602098e+00 5.249900e-01 2.663257e-01 3.120925e-01 3.790617e-01 3.745772e-01 4.035409e-01 4.447759e-01 3.994395e-01 4.002663e-01 3.657547e-01 3.658593e-01 3.194407e-01 3.156606e-01
<GCONST> 9.871869e+01
<STATE> 4
<MEAN> 39
 -1.595085e+01 -7.340295e+00 -8.239071e+00 -7.708851e+00 -5.218175e+00 -4.198707e+00 -3.190815e+00 -1.062903e+00 -1.411613e+00 -5.271394e-01 -2.054593e+00 -1.011645e+00 5.364192e+01 4.671934e+00 6.016731e-02 8.720405e-02 -1.499528e+00 -1.169650e+00 -5.492602e-01 -1.224005e+00 -4.927884e-01 -5.646152e-01 -4.509212e-01 -1.335010e-01 -5.410643e-01 1.109732e+00 4.072328e-01 -2.568211e-01 -8.107015e-02 -3.644980e-01 -3.502285e-01 -6.166485e-02 -3.820799e-01 4.680111e-02 -1.016694e-01 -5.653082e-02 5.843704e-02 -3.734516e-02 2.758977e-01
<VARIANCE> 39
 6.436134e+01 2.081651e+01 2.279310e+01 2.609891e+01 2.406085e+01 2.606795e+01 2.513696e+01 2.210434e+01 2.135034e+01 1.894957e+01 1.775212e+01 1.589159e+01 3.828884e+01 7.008339e+00 3.675013e+00 4.844787e+00 5.228218e+00 4.767223e+00 5.408242e+00 5.591907e+00 4.165188e+00 4.248087e+00 3.279444e+00 3.512058e+00 2.692412e+00 4.075414e+00 1.169931e+00 5.164227e-01 5.338147e-01 6.558540e-01 6.683230e-01 7.051042e-01 7.721790e-01 6.679814e-01 6.542089e-01 5.787145e-01 4.993754e-01 4.166952e-01 5.111430e-01
<GCONST> 1.263017e+02
<TRANSP> 5
 0.000000e+00 1.000000e+00 0.000000e+00 0.000000e+00 0.000000e+00
 0.000000e+00 5.769345e-01 4.230655e-01 0.000000e+00 0.000000e+00
 0.000000e+00 0.000000e+00 8.312731e-01 1.687269e-01 0.000000e+00
 0.000000e+00 0.000000e+00 0.000000e+00 5.485901e-01 4.514099e-01
 0.000000e+00 0.000000e+00 0.000000e+00 0.000000e+00 0.000000e+00
<ENDHMM>
~h "g"
<BEGINHMM>
<NUMSTATES> 5
<STATE> 2
<MEAN> 39
 -7.186801e+00 -1.919577e+00 1.661723e+00 -2.986212e+00 -1.197214e+01 -1.157208e+01 -5.681530e+00 -2.920409e+00 -1.155301e+01 -3.793260e+00 -1.641343e+00 -3.705799e+00 4.770102e+01 -9.651151e-01 1.704945e+00 -3.646784e-01 1.832743e+00 2.073145e+00 6.675384e-01 -1.938128e-01 -8.371612e-01 4.192920e-01 -6.417714e-01 -5.432860e-01 -3.673125e-02 -3.075386e+00 -1.748037e-01 -7.943807e-01 -6.824414e-01 -5.413701e-01 3.907357e-01 3.462961e-01 -3.671917e-02 1.798426e-01 7.032335e-01 3.263029e-01 -1.387268e-01 1.233009e-01 8.444937e-01
<VARIANCE> 39
 2.380961e+01 5.464412e+01 4.629025e+01 5.967207e+01 6.819797e+01 5.876619e+01 5.886118e+01 8.911127e+01 5.840730e+01 6.280835e+01 6.764587e+01 3.723407e+01 7.593690e+01 2.586579e+00 7.909221e+00 4.954325e+00 5.982409e+00 6.587676e+00 6.046178e+00 6.774034e+00 8.084526e+00 7.096086e+00 6.110952e+00 5.135056e+00 3.581522e+00 8.099374e+00 3.605661e-01 1.519627e+00 7.382865e-01 1.147643e+00 1.132653e+00 1.086682e+00 1.150751e+00 1.279932e+00 1.082176e+00 1.301136e+00 9.921749e-01 7.010338e-01 1.957743e+00
<GCONST> 1.473489e+02
<STATE> 3
<MEAN> 39
 -1.223259e+01 -3.152746e+00 -3.614612e+00 -6.900001e-01 -2.983250e+00 -7.012798e+00 -5.769109e+00 -3.331249e+00 -5.989724e+00 -2.823570e+00 -3.480455e+00 -2.358728e+00 4.381469e+01 -4.996208e-01 -2.665705e+00 -2.305345e+00 -1.585074e+00 1.282961e+00 5.893651e-01 -3.727809e-01 4.747268e-01 1.560599e+00 1.303406e+00 -5.532815e-02 5.809540e-01 2.544943e+00 6.408308e-01 -3.143942e-01 9.823005e-02 -8.306909e-01 -8.682992e-01 -3.872752e-01 -1.979358e-01 3.898155e-02 -2.371214e-01 2.659123e-01 2.620350e-01 -1.310894e-02 1.270495e+00
<VARIANCE> 39
 3.373535e+01 7.695087e+01 5.939363e+01 4.242953e+01 5.371604e+01 5.519779e+01 4.532221e+01 4.995325e+01 4.529912e+01 3.618837e+01 3.027479e+01 2.367922e+01 7.499904e+01 3.688471e+00 8.694482e+00 7.054268e+00 6.255585e+00 8.285549e+00 7.809724e+00 6.837573e+00 8.023815e+00 6.262805e+00 5.428387e+00 4.465136e+00 3.373407e+00 9.633498e+00 6.517572e-01 2.125691e+00 1.303583e+00 1.257006e+00 1.157614e+00 1.238765e+00 1.168063e+00 1.325025e+00 1.072631e+00 1.082526e+00 9.667892e-01 6.182201e-01 1.824855e+00
<GCONST> 1.471718e+02
<STATE> 4
<MEAN> 39
 -9.533077e+00 -8.790989e+00 -8.156423e+00 -7.995437e+00 -4.553677e+00 -7.980621e+00 -7.962185e+00 -3.005674e+00 -4.400787e+00 1.095757e+00 -2.321542e+00 -1.467094e+00 5.460131e+01 1.671041e+00 -9.545597e-02 1.330450e-01 -1.546041e+00 -1.126900e+00 -5.981683e-01 -1.130704e+00 -7.114469e-02 6.662965e-03 2.333482e-01 4.710823e-01 -1.059131e-02 2.160358e+00 3.816060e-01 4.923124e-01 4.767978e-01 2.403985e-01 -3.777168e-01 -1.104747e-01 -4.828005e-02 8.086970e-02 -2.951548e-01 -4.510335e-01 6.583785e-02 -1.391799e-01 -4.638894e-01
<VARIANCE> 39
 3.383101e+01 5.488874e+01 8.918519e+01 5.530544e+01 8.575348e+01 6.712502e+01 6.158716e+01 5.992567e+01 5.223498e+01 4.393869e+01 4.127650e+01 2.612602e+01 4.388939e+01 4.294424e+00 6.239298e+00 6.164180e+00 7.090167e+00 6.495356e+00 6.701693e+00 6.225234e+00 5.836669e+00 6.213501e+00 5.832244e+00 4.535728e+00 3.333693e+00 5.034341e+00 7.053170e-01 1.599680e+00 1.551844e+00 1.004255e+00 1.399460e+00 1.215974e+00 1.230149e+00 1.221637e+00 1.258391e+00 1.087887e+00 8.392985e-01 6.603643e-01 8.339017e-01
<GCONST> 1.464825e+02
<TRANSP> 5
 0.000000e+00 1.000000e+00 0.000000e+00 0.000000e+00 0.000000e+00
 0.000000e+00 6.447230e-01 3.552770e-01 0.000000e+00 0.000000e+00
 0.000000e+00 0.000000e+00 5.463150e-01 4.536850e-01 0.000000e+00
 0.000000e+00 0.000000e+00 0.000000e+00 6.197628e-01 3.802372e-01
 0.000000e+00 0.000000e+00 0.000000e+00 0.000000e+00 0.000000e+00
<ENDHMM>
~h "k"
<BEGINHMM>
<NUMSTATES> 5
<STATE> 2
<MEAN> 39
 -1.388574e+01 -4.180470e+00 -2.756757e+00 -2.552587e+00 -5.355332e+00 -7.809182e+00 -3.971427e+00 1.836618e-01 -5.698695e+00 -1.181937e+00 -1.580910e+00 -1.448930e+00 4.395612e+01 -2.240886e+00 6.641984e-01 -5.169649e-01 1.464013e+00 1.726978e+00 2.147915e+00 9.359741e-01 -4.419359e-01 1.089762e+00 5.271261e-01 2.416666e-01 4.449763e-01 -4.065892e+00 1.853453e-01 -7.128322e-01 -4.716337e-01 -7.153876e-01 -1.612915e-01 9.401628e-02 -7.542269e-02 1.551216e-01 2.801894e-01 1.353970e-01 -4.869112e-02 -1.528560e-02 1.154776e+00
<VARIANCE> 39
 4.934255e+01 3.613611e+01 4.904489e+01 4.787821e+01 8.063560e+01 7.351541e+01 5.549883e+01 6.880833e+01 6.421374e+01 4.164025e+01 4.163479e+01 2.797815e+01 9.979266e+01 5.837613e+00 6.720219e+00 6.849488e+00 6.176611e+00 8.252817e+00 7.460722e+00 6.770482e+00 7.683900e+00 7.887151e+00 5.167323e+00 5.365444e+00 3.349663e+00 1.039007e+01 9.742172e-01 1.117710e+00 8.849626e-01 1.106391e+00 1.546703e+00 1.712290e+00 1.141901e+00 1.402758e+00 1.454977e+00 9.451908e-01 9.287681e-01 6.675668e-01 3.060512e+00
<GCONST> 1.503064e+02
<STATE> 3
<MEAN> 39
 -1.877169e+01 -6.891225e+00 -6.618111e+00 -2.470930e+00 -1.515373e+00 -1.766962e+00 -2.068084e+00 6.638677e-01 -1.281604e+00 1.403337e+00 -7.774432e-01 -1.707330e-02 3.926194e+01 3.083489e-01 -1.746855e+00 -1.161805e+00 -1.663974e+00 -3.719652e-01 -2.223498e-01 -6.157397e-02 3.613666e-02 6.152418e-02 5.430022e-01 -2.179704e-01 1.458968e-01 3.042630e+00 4.832000e-01 1.059463e-01 2.173571e-01 -5.057327e-01 -4.874527e-01 -7.170101e-01 -2.909155e-01 -6.206439e-02 -3.912392e-01 -1.842255e-01 -1.271127e-01 -1.374064e-01 1.529990e+00
<VARIANCE> 39
 1.854766e+01 4.518009e+01 3.445319e+01 3.332130e+01 3.272063e+01 3.399768e+01 3.198945e+01 2.996114e+01 2.974120e+01 2.334425e+01 1.976760e+01 1.630793e+01 8.917016e+01 4.067065e+00 5.367469e+00 5.243457e+00 5.226922e+00 5.099108e+00 5.521202e+00 4.507902e+00 4.609486e+00 5.129676e+00 3.610900e+00 3.136875e+00 2.525588e+00 1.640990e+01 7.441009e-01 1.296853e+00 9.641635e-01 9.338797e-01 9.966176e-01 1.008688e+00 9.081907e-01 8.671227e-01 8.905666e-01 6.723486e-01 6.413271e-01 4.671581e-01 2.781040e+00
<GCONST> 1.356255e+02
<STATE> 4
<MEAN> 39
 -1.572979e+01 -9.603462e+00 -7.128822e+00 -9.815724e+00 -4.895925e+00 -5.094232e+00 -2.721512e+00 -6.234451e-01 -2.983817e+00 1.631109e+00 -2.454612e+00 -5.191302e-01 5.510546e+01 1.170938e+00 3.631100e-01 4.741191e-01 -7.105582e-01 -9.342457e-01 -7.188193e-01 -2.187038e-01 -1.307569e-01 -4.229397e-01 -5.959656e-01 -9.881298e-02 -3.156819e-01 1.843837e+00 2.392581e-01 2.905945e-01 2.532828e-01 2.815812e-01 -1.168142e-01 1.463470e-02 -1.092777e-01 4.144235e-02 -7.418466e-02 -2.462297e-01 9.549966e-02 -8.963189e-02 -5.544362e-01
<VARIANCE> 39
 3.411647e+01 3.738910e+01 7.243811e+01 4.507993e+01 5.755238e+01 4.842277e+01 4.908298e+01 4.522877e+01 4.017597e+01 3.506506e+01 3.000206e+01 2.280227e+01 5.355373e+01 5.756092e+00 4.497489e+00 3.956143e+00 4.959332e+00 4.537810e+00 4.793007e+00 4.647860e+00 4.508162e+00 4.763056e+00 3.768614e+00 3.419948e+00 2.654514e+00 8.346711e+00 7.726606e-01 1.184387e+00 9.917786e-01 9.783255e-01 8.976561e-01 9.064956e-01 9.282613e-01 8.593283e-01 8.985031e-01 7.636873e-01 6.617315e-01 5.338069e-01 1.730469e+00
<GCONST> 1.384644e+02
<TRANSP> 5
 0.000000e+00 1.000000e+00 0.000000e+00 0.000000e+00 0.000000e+00
 0.000000e+00 6.746393e-01 3.253607e-01 0.000000e+00 0.000000e+00
 0.000000e+00 0.000000e+00 6.019477e-01 3.980522e-01 0.000000e+00
 0.000000e+00 0.000000e+00 0.000000e+00 7.280777e-01 2.719223e-01
 0.000000e+00 0.000000e+00 0.000000e+00 0.000000e+00 0.000000e+00
<ENDHMM>
~h "l"
<BEGINHMM>
<NUMSTATES> 5
<STATE> 2
<MEAN> 39
 -1.271978e+00 -5.067667e+00 -1.074556e+01 -2.378569e+01 -8.461321e+00 1.328160e+00 -7.973629e+00 -7.137765e+00 -3.768534e+00 -2.301884e-01 -3.645549e-01 -2.666645e+00 5.980026e+01 7.238960e-01 4.517716e-01 -2.845199e-01 -1.668287e+00 -1.040499e-01 9.370973e-01 -1.688086e-01 -4.742982e-01 -3.970168e-01 -4.999350e-02 4.686047e-01 2.529624e-01 6.606077e-02 -3.429357e-01 -2.203317e-01 1.061212e-01 5.775223e-01 9.892461e-02 -3.459248e-01 2.568797e-02 3.655543e-01 1.667254e-01 -1.198955e-02 -1.457336e-01 -2.293809e-02 -5.578803e-02
<VARIANCE> 39
 1.290203e+01 4.771224e+01 4.512417e+01 7.256127e+01 6.104720e+01 7.083512e+01 7.486536e+01 6.119114e+01 6.135611e+01 5.867730e+01 6.313435e+01 4.196157e+01 2.926546e+01 1.870388e+00 2.801586e+00 2.156267e+00 4.516831e+00 3.593884e+00 4.161218e+00 4.403663e+00 4.329967e+00 4.049674e+00 3.999486e+00 3.478832e+00 3.118019e+00 1.895506e+00 3.602250e-01 4.552222e-01 3.563486e-01 7.013065e-01 6.623221e-01 6.590879e-01 7.177271e-01 7.954505e-01 8.325598e-01 7.659751e-01 6.617360e-01 5.995443e-01 2.587736e-01
<GCONST> 1.305260e+02
<STATE> 3
<MEAN> 39
 -7.913986e-01 -4.340950e+00 -1.106100e+01 -2.594120e+01 -7.956359e+00 2.066900e+00 -8.621018e+00 -6.520870e+00 -3.988871e+00 -1.244574e-01 2.907159e-01 -2.432222e+00 5.947343e+01 -2.387144e-01 -5.093433e-01 1.265861e-01 9.167720e-01 2.667252e-01 -7.795153e-01 -5.417999e-01 4.399344e-01 6.333098e-01 3.727105e-01 -4.498849e-01 -5.433149e-01 1.699584e-01 -2.776428e-01 -1.669512e-01 2.333841e-01 6.866127e-01 -5.469877e-02 -4.177321e-01 9.161435e-02 2.951821e-01 1.429020e-01 -1.411739e-01 -2.763708e-01 -4.077284e-02 -6.950345e-02
<VARIANCE> 39
 9.806304e+00 4.135176e+01 4.838429e+01 7.013035e+01 6.306623e+01 6.876522e+01 7.983422e+01 6.334380e+01 6.327002e+01 6.540908e+01 5.917050e+01 4.408372e+01 2.611486e+01 6.552551e-01 3.257273e+00 1.731407e+00 3.656716e+00 2.765497e+00 3.610976e+00 3.883084e+00 4.009476e+00 4.599715e+00 3.787793e+00 3.168761e+00 3.018175e+00 1.722456e+00 2.182022e-01 3.532470e-01 3.381688e-01 5.778245e-01 6.272302e-01 6.020870e-01 6.581016e-01 7.943795e-01 7.515946e-01 7.710623e-01 5.989622e-01 5.673682e-01 2.320250e-01
<GCONST> 1.265783e+02
<STATE> 4
<MEAN> 39
 -3.044474e+00 -6.652943e+00 -9.577852e+00 -1.853823e+01 -7.385505e+00 -3.864621e+00 -9.394516e+00 -3.209086e+00 -1.011347e+00 -2.440584e-01 -3.720367e+00 -4.038230e+00 5.875645e+01 -9.052730e-01 -4.998893e-01 1.229899e+00 2.130800e+00 -5.150270e-01 -1.610967e+00 2.740226e-01 1.239801e+00 1.432516e-02 -7.370456e-01 -6.881955e-01 2.902549e-01 -2.425269e-01 -2.067752e-01 1.438799e-01 2.843863e-01 7.520810e-02 -1.673327e-01 1.456818e-01 3.423029e-01 -6.957920e-02 -4.615064e-01 -1.953910e-01 2.528131e-01 2.485360e-01 -2.114721e-01
<VARIANCE> 39
 1.665218e+01 5.277201e+01 5.065009e+01 7.300568e+01 5.860878e+01 8.519806e+01 9.364532e+01 6.826271e+01 7.078036e+01 6.514155e+01 6.052931e+01 4.587114e+01 5.659903e+01 1.570053e+00 2.917279e+00 3.584437e+00 4.827918e+00 5.417521e+00 4.843100e+00 4.333335e+00 5.453272e+00 5.232067e+00 4.405724e+00 3.661535e+00 3.590677e+00 2.398214e+00 2.992419e-01 4.047372e-01 3.825236e-01 7.726475e-01 7.123998e-01 7.506449e-01 8.070106e-01 8.472138e-01 1.033394e+00 8.341295e-01 6.551208e-01 6.238558e-01 2.797788e-01
<GCONST> 1.350891e+02
<TRANSP> 5
 0.000000e+00 1.000000e+00 0.000000e+00 0.000000e+00 0.000000e+00
 0.000000e+00 6.823693e-01 3.176307e-01 0.000000e+00 0.000000e+00
 0.000000e+00 0.000000e+00 6.323043e-01 3.676958e-01 0.000000e+00
 0.000000e+00 0.000000e+00 0.000000e+00 5.683830e-01 4.316169e-01
 0.000000e+00 0.000000e+00 0.000000e+00 0.000000e+00 0.000000e+00
<ENDHMM>
~h "m"
<BEGINHMM>
<NUMSTATES> 5
<STATE> 2
<MEAN> 39
 -4.197955e+00 -4.285676e+00 -5.235374e+00 -5.364930e+00 -7.178228e+00 -7.042063e+00 -6.894323e+00 -7.624553e+00 -1.023040e+01 -2.040639e+00 -2.199165e+00 -6.045041e+00 5.186305e+01 3.252886e-01 1.223012e+00 8.047540e-01 1.493724e+00 9.083524e-02 -9.158825e-01 1.234589e-01 -1.996690e+00 -2.138239e+00 3.442329e-01 2.325234e-01 -7.391487e-01 -7.939706e-01 -2.370907e-01 -3.340351e-01 7.530346e-02 -3.222972e-01 -1.690444e-01 1.073761e-01 -4.251108e-02 4.367768e-01 3.926134e-01 -5.528849e-02 -9.186954e-02 1.920730e-01 3.852556e-01
<VARIANCE> 39
 1.931244e+01 3.389780e+01 3.668865e+01 5.551735e+01 4.696786e+01 6.251239e+01 6.379412e+01 6.474446e+01 7.209123e+01 5.551319e+01 7.018990e+01 4.641674e+01 3.954484e+01 3.755502e+00 2.766851e+00 3.483090e+00 3.894082e+00 4.518711e+00 4.026202e+00 5.419615e+00 5.336329e+00 5.881804e+00 4.513296e+00 4.637411e+00 3.595093e+00 4.448363e+00 3.547771e-01 4.351474e-01 5.876864e-01 6.409668e-01 6.113229e-01 6.380952e-01 7.555185e-01 8.396076e-01 1.022270e+00 6.872611e-01 6.916466e-01 5.673354e-01 3.616953e-01
<GCONST> 1.344046e+02
<STATE> 3
<MEAN> 39
 -3.990880e+00 -3.160730e+00 -3.139441e+00 -3.003075e+00 -7.820704e+00 -8.848238e+00 -7.126040e+00 -1.103696e+01 -1.378713e+01 -9.713350e-01 -2.239745e+00 -7.272398e+00 5.157880e+01 -3.845486e-02 -1.905251e-01 1.407527e-01 -2.241528e-01 -1.778616e-01 9.218013e-02 -1.246402e-01 1.944320e-01 3.108259e-01 -2.265712e-01 -1.495767e-01 1.716226e-01 3.796799e-01 -1.873477e-01 -4.593301e-01 -2.333013e-01 -6.946961e-01 -1.000971e-01 4.045165e-01 5.717447e-03 8.549274e-01 8.554443e-01 -1.866258e-01 -9.790117e-02 3.425682e-01 3.670917e-01
<VARIANCE> 39
 8.178628e+00 2.395038e+01 3.033775e+01 4.858056e+01 4.920422e+01 6.734352e+01 6.521513e+01 6.733595e+01 6.259878e+01 6.276535e+01 8.771097e+01 5.370229e+01 2.043739e+01 1.394748e+00 2.495049e+00 1.970099e+00 2.898790e+00 2.737517e+00 2.594739e+00 3.013168e+00 3.817456e+00 4.424086e+00 2.916569e+00 2.915759e+00 2.403625e+00 2.962454e+00 3.787595e-01 3.161033e-01 5.472370e-01 5.446016e-01 6.259801e-01 5.983981e-01 7.221467e-01 7.739011e-01 9.248302e-01 7.320797e-01 7.825999e-01 6.185426e-01 2.677583e-01
<GCONST> 1.261475e+02
<STATE> 4
<MEAN> 39
 -4.604818e+00 -5.653659e+00 -4.709846e+00 -7.071774e+00 -8.345775e+00 -6.528307e+00 -7.440906e+00 -6.439526e+00 -8.175870e+00 -3.115511e+00 -3.230833e+00 -5.013672e+00 5.424650e+01 -4.027761e-01 -1.392664e+00 -3.469284e-01 -2.023394e+00 -6.701890e-01 9.518678e-01 2.232456e-02 2.314378e+00 2.086915e+00 -5.481536e-01 -3.260633e-01 8.860254e-01 1.419362e+00 -2.179330e-01 -1.086060e-01 7.430135e-02 -2.112792e-01 -6.902191e-02 1.075856e-01 1.350086e-01 2.554557e-01 2.647679e-02 1.351131e-01 6.102991e-02 5.709644e-02 6.686136e-02
<VARIANCE> 39
 1.772688e+01 3.883269e+01 4.197320e+01 6.270012e+01 5.679660e+01 6.536395e+01 5.697343e+01 6.691721e+01 7.377554e+01 5.023659e+01 6.286166e+01 4.051899e+01 4.910908e+01 2.566871e+00 3.253578e+00 5.185459e+00 5.170705e+00 5.542586e+00 4.562204e+00 4.944716e+00 5.551855e+00 6.399197e+00 4.809613e+00 4.974936e+00 3.774394e+00 3.795517e+00 3.090128e-01 5.062414e-01 5.907928e-01 7.505186e-01 6.667190e-01 6.808464e-01 6.992669e-01 9.343496e-01 1.154935e+00 6.682146e-01 6.765631e-01 5.266042e-01 4.158260e-01
<GCONST> 1.361018e+02
<TRANSP> 5
 0.000000e+00 1.000000e+00 0.000000e+00 0.000000e+00 0.000000e+00
 0.000000e+00 5.185589e-01 4.814411e-01 0.000000e+00 0.000000e+00
 0.000000e+00 0.000000e+00 6.332507e-01 3.667493e-01 0.000000e+00
 0.000000e+00 0.000000e+00 0.000000e+00 5.041490e-01 4.958510e-01
 0.000000e+00 0.000000e+00 0.000000e+00 0.000000e+00 0.000000e+00
<ENDHMM>
~h "n"
<BEGINHMM>
<NUMSTATES> 5
<STATE> 2
<MEAN> 39
 -4.676561e+00 -7.526229e+00 -2.606509e+00 -9.721233e+00 -1.232210e+01 -7.904739e+00 -6.310134e+00 -2.656789e+00 -8.274837e+00 -2.675274e+00 -5.651541e+00 -4.381277e+00 5.654786e+01 2.064014e-01 1.307538e+00 7.062803e-02 1.251058e+00 2.599357e-02 -4.400003e-01 8.770868e-01 -2.151458e+00 -1.133984e+00 8.595473e-01 -5.949143e-01 -2.056023e-01 -1.457046e+00 -1.441711e-01 4.614945e-02 -6.986901e-03 -2.706584e-02 2.616616e-02 7.840107e-02 2.397874e-02 -6.067494e-02 1.177078e-01 7.944737e-03 4.005596e-02 1.042993e-01 -1.175032e-02
<VARIANCE> 39
 1.095562e+01 3.805133e+01 4.928328e+01 7.206764e+01 5.794280e+01 5.714230e+01 6.334754e+01 9.539883e+01 8.357841e+01 6.414417e+01 6.476878e+01 4.975766e+01 3.524198e+01 1.114024e+00 2.721482e+00 3.293102e+00 3.445892e+00 3.876867e+00 4.127203e+00 4.515703e+00 7.128543e+00 5.296596e+00 4.257503e+00 3.514448e+00 3.027849e+00 2.482568e+00 2.129931e-01 3.999608e-01 4.136405e-01 5.739239e-01 5.707307e-01 5.995447e-01 7.246541e-01 1.288334e+00 8.311503e-01 7.093335e-01 5.854475e-01 4.876948e-01 3.624826e-01
<GCONST> 1.312577e+02
<STATE> 3
<MEAN> 39
 -4.242190e+00 -3.427822e+00 -2.619199e+00 -5.863894e+00 -1.236804e+01 -8.974944e+00 -3.196754e+00 -1.039581e+01 -1.075232e+01 5.193211e-01 -7.430739e+00 -4.396141e+00 5.223158e+01 -1.635737e-01 7.177309e-01 4.881363e-02 4.694996e-01 1.688816e-01 3.291931e-02 1.537224e-01 -7.337289e-01 -1.829981e-01 6.059381e-02 -1.794594e-01 6.138116e-02 -7.160814e-01 -2.884991e-01 -4.415754e-01 -5.076152e-02 -4.726620e-01 2.084831e-01 2.753314e-01 -4.280634e-01 1.040204e+00 5.580133e-01 -4.822304e-01 3.066313e-01 1.246057e-01 4.261098e-01
<VARIANCE> 39
 8.752866e+00 3.228119e+01 3.192431e+01 5.694723e+01 4.737067e+01 5.110857e+01 5.910169e+01 8.595068e+01 7.159531e+01 6.534185e+01 6.913488e+01 5.767788e+01 2.440621e+01 9.720790e-01 3.212122e+00 2.348103e+00 2.997255e+00 2.929285e+00 3.069572e+00 3.996286e+00 7.451645e+00 4.830065e+00 3.733841e+00 2.999380e+00 2.558488e+00 2.820297e+00 2.961487e-01 5.251657e-01 5.475489e-01 6.547955e-01 7.241837e-01 7.484035e-01 8.700213e-01 1.307801e+00 1.132060e+00 8.532344e-01 7.582767e-01 6.561831e-01 4.119462e-01
<GCONST> 1.307453e+02
<STATE> 4
<MEAN> 39
 -6.138937e+00 -3.149601e+00 -3.192001e+00 -6.177201e+00 -1.020776e+01 -7.473740e+00 -4.513052e+00 -6.774060e+00 -8.591367e+00 -2.203519e+00 -6.575797e+00 -3.655771e+00 5.056724e+01 -8.694761e-01 -3.479905e-01 -2.393112e-01 -5.332909e-01 7.702726e-01 5.849055e-01 -4.713726e-01 1.398468e+00 8.906736e-01 -6.204238e-01 5.139359e-01 2.223526e-01 1.665857e-01 -2.631907e-01 -3.329524e-01 -1.387298e-01 -3.024841e-01 9.675952e-02 1.651214e-01 -2.877933e-02 4.479389e-01 2.905930e-01 6.653018e-03 1.991413e-01 9.156162e-02 3.297971e-01
<VARIANCE> 39
 2.110822e+01 5.057159e+01 3.599028e+01 5.906942e+01 5.178468e+01 4.760913e+01 5.815406e+01 8.480145e+01 6.810326e+01 5.658966e+01 5.212417e+01 4.483912e+01 5.535596e+01 3.045998e+00 4.018714e+00 3.319651e+00 4.323924e+00 4.354948e+00 3.857262e+00 4.713336e+00 6.862968e+00 5.429163e+00 4.326344e+00 3.853641e+00 3.266928e+00 4.549681e+00 5.016174e-01 6.930844e-01 5.354023e-01 7.033618e-01 7.482106e-01 6.854206e-01 8.256827e-01 1.313494e+00 9.924287e-01 7.803526e-01 6.704932e-01 5.677989e-01 6.359246e-01
<GCONST> 1.370304e+02
<TRANSP> 5
 0.000000e+00 1.000000e+00 0.000000e+00 0.000000e+00 0.000000e+00
 0.000000e+00 5.523823e-01 4.476177e-01 0.000000e+00 0.000000e+00
 0.000000e+00 0.000000e+00 5.118178e-01 4.881822e-01 0.000000e+00
 0.000000e+00 0.000000e+00 0.000000e+00 5.585105e-01 4.414895e-01
 0.000000e+00 0.000000e+00 0.000000e+00 0.000000e+00 0.000000e+00
<ENDHMM>
~h "p"
<BEGINHMM>
<NUMSTATES> 5
<STATE> 2
<MEAN> 39
 -1.127550e+01 -3.595769e-01 -4.223507e+00 -3.707633e+00 -3.198986e+00 -2.605641e+00 -4.768084e+00 -4.293957e+00 -5.025052e+00 -2.300540e+00 -2.436890e+00 -2.765560e+00 4.118295e+01 -2.897475e+00 9.755921e-01 2.996193e-01 2.138804e+00 1.423833e+00 1.301992e+00 1.436156e+00 6.036074e-01 8.246751e-01 3.248799e-01 1.413101e-01 5.382220e-01 -4.529245e+00 -1.871012e-01 -8.446743e-01 -2.291552e-01 -5.462490e-01 -3.275293e-01 -1.460323e-01 -1.088053e-03 4.406058e-01 3.709003e-01 3.218768e-01 1.771730e-01 1.379656e-01 1.045748e+00
<VARIANCE> 39
 5.341899e+01 3.270232e+01 3.146703e+01 4.781237e+01 2.796044e+01 3.271769e+01 3.361963e+01 3.333122e+01 3.746732e+01 3.093001e+01 3.001042e+01 2.386569e+01 7.631769e+01 6.482004e+00 6.668807e+00 5.575285e+00 6.923397e+00 4.869379e+00 5.417944e+00 5.043269e+00 5.455653e+00 5.725315e+00 4.763449e+00 4.416230e+00 3.227373e+00 1.035780e+01 1.099270e+00 9.066741e-01 7.891400e-01 1.181927e+00 8.634444e-01 8.447135e-01 8.197487e-01 8.801094e-01 8.841861e-01 7.622862e-01 7.103418e-01 5.498660e-01 2.090811e+00
<GCONST> 1.392590e+02
<STATE> 3
<MEAN> 39
 -1.911755e+01 -2.916315e+00 -5.372945e+00 -1.810467e+00 -1.605430e+00 -2.220870e-01 -1.152936e+00 7.558864e-02 -2.803109e-01 9.542384e-01 -4.520792e-02 -4.281783e-02 3.534835e+01 -5.014010e-02 -1.142363e+00 -4.703447e-01 -5.979294e-01 -1.754429e-01 -2.469522e-01 1.761075e-01 4.734283e-01 6.287426e-01 3.610865e-01 2.510498e-01 2.510161e-01 2.136642e+00 7.734963e-01 -2.304683e-01 -5.798629e-02 -5.107160e-01 -2.712134e-01 -4.018225e-01 -3.551730e-01 -2.328260e-01 -2.644129e-01 -2.075487e-01 -1.765224e-01 -1.779433e-01 1.553140e+00
<VARIANCE> 39
 7.583292e+00 1.133814e+01 8.808175e+00 1.299152e+01 1.139666e+01 1.399219e+01 1.353620e+01 1.569720e+01 1.569467e+01 1.522945e+01 1.300998e+01 1.231979e+01 5.428190e+01 3.014252e+00 2.302198e+00 1.770172e+00 2.696949e+00 1.909152e+00 2.542530e+00 2.422800e+00 2.796307e+00 2.915211e+00 2.408468e+00 2.090229e+00 1.860019e+00 1.445363e+01 6.348121e-01 4.464546e-01 4.446679e-01 5.757694e-01 4.827996e-01 5.851758e-01 5.545680e-01 5.452595e-01 5.719767e-01 4.925384e-01 4.586340e-01 3.808140e-01 1.843757e+00
<GCONST> 1.113375e+02
<STATE> 4
<MEAN> 39
 -1.404694e+01 -8.859888e+00 -8.126343e+00 -7.821087e+00 -3.271196e+00 -3.121979e+00 -2.109307e+00 -5.287749e-01 -3.016575e-01 2.820334e-01 -1.195216e+00 -8.529607e-01 5.393229e+01 2.191115e+00 -7.065390e-01 -6.294678e-01 -1.491666e+00 -7.931430e-01 -6.443180e-01 -8.829275e-01 -3.466598e-01 -6.001834e-01 -5.302039e-01 -5.241750e-01 -4.024139e-01 2.608622e+00 3.701854e-01 3.163967e-01 4.093326e-02 -6.810352e-04 -1.956282e-01 1.657889e-02 -3.298505e-01 -9.362721e-02 -2.666731e-01 -1.475548e-01 -6.027791e-02 -8.545400e-02 -7.197888e-01
<VARIANCE> 39
 2.860769e+01 2.615126e+01 2.933475e+01 3.754702e+01 2.979415e+01 3.359580e+01 3.441928e+01 3.043095e+01 2.918258e+01 2.488150e+01 2.322582e+01 1.846800e+01 4.557729e+01 5.030580e+00 3.872111e+00 3.638604e+00 4.443631e+00 4.220267e+00 4.839945e+00 5.037354e+00 4.199739e+00 4.158822e+00 3.237942e+00 3.175202e+00 2.361960e+00 9.870363e+00 6.269755e-01 6.358894e-01 5.071344e-01 6.601551e-01 6.833495e-01 7.253651e-01 7.626670e-01 7.753910e-01 8.052920e-01 6.505937e-01 6.020721e-01 4.668370e-01 1.533915e+00
<GCONST> 1.296273e+02
<TRANSP> 5
 0.000000e+00 1.000000e+00 0.000000e+00 0.000000e+00 0.000000e+00
 0.000000e+00 6.067718e-01 3.932282e-01 0.000000e+00 0.000000e+00
 0.000000e+00 0.000000e+00 7.519992e-01 2.480008e-01 0.000000e+00
 0.000000e+00 0.000000e+00 0.000000e+00 7.116202e-01 2.883798e-01
 0.000000e+00 0.000000e+00 0.000000e+00 0.000000e+00 0.000000e+00
<ENDHMM>
~h "r"
<BEGINHMM>
<NUMSTATES> 5
<STATE> 2
<MEAN> 39
 1.680515e+00 -1.116804e+01 -1.343818e+01 -6.562006e+00 -4.813337e+00 -1.160027e+01 -1.663457e+01 1.485985e+00 -1.621673e+00 -3.443039e+00 -9.742217e-01 2.820596e-01 5.770411e+01 1.259418e+00 -3.210046e-01 -9.624196e-01 1.915881e-01 3.398533e-01 -6.578447e-01 -1.560187e+00 5.047959e-01 6.372592e-01 -2.089925e-01 -2.224715e-01 1.166354e-01 3.077363e-01 -4.927065e-01 -1.042882e-01 4.740171e-01 2.116244e-02 -3.455667e-01 9.006014e-02 5.007182e-01 1.323207e-01 -1.053254e-01 1.135033e-02 8.588020e-03 -8.105835e-02 -1.761955e-02
<VARIANCE> 39
 2.381235e+01 3.614175e+01 7.265704e+01 4.263199e+01 6.100853e+01 7.531357e+01 9.439082e+01 9.931096e+01 7.604090e+01 4.450467e+01 4.041718e+01 3.379108e+01 3.033275e+01 4.007336e+00 2.654171e+00 4.146945e+00 2.751195e+00 4.259147e+00 5.025712e+00 6.239221e+00 5.312745e+00 4.306094e+00 3.664591e+00 2.843578e+00 2.352740e+00 2.035118e+00 4.854618e-01 4.501547e-01 5.069669e-01 4.238798e-01 5.536651e-01 6.896659e-01 1.002869e+00 8.789937e-01 6.645406e-01 5.600491e-01 4.657156e-01 4.066423e-01 3.071336e-01
<GCONST> 1.315632e+02
<STATE> 3
<MEAN> 39
 2.351663e+00 -1.397884e+01 -1.384160e+01 -5.407646e+00 -5.566113e+00 -1.425950e+01 -1.902171e+01 5.752969e+00 8.802710e-01 -4.129179e+00 -2.216186e+00 -9.941775e-02 5.950063e+01 -3.969859e-01 -3.830352e-01 1.251590e+00 4.417755e-01 -1.082985e+00 -5.394871e-01 8.223624e-01 7.150227e-01 -4.192526e-01 -4.690382e-01 -6.679942e-02 -6.381708e-02 5.622435e-02 -6.084748e-01 2.549773e-01 6.312333e-01 -1.377957e-01 -2.738027e-01 4.650127e-01 9.261814e-01 -3.645781e-01 -4.852341e-01 6.906723e-02 1.445082e-01 -1.065374e-01 -2.519519e-01
<VARIANCE> 39
 1.328264e+01 2.859955e+01 6.595129e+01 4.741271e+01 6.658726e+01 8.171072e+01 1.167381e+02 8.981678e+01 9.250787e+01 5.224547e+01 4.476894e+01 3.565581e+01 2.532488e+01 1.774511e+00 3.042289e+00 3.771674e+00 2.754273e+00 4.323691e+00 4.195391e+00 5.312884e+00 5.884313e+00 4.146975e+00 3.498666e+00 3.189506e+00 2.446649e+00 2.854787e+00 4.021275e-01 3.298394e-01 3.854391e-01 4.515103e-01 5.777143e-01 7.317988e-01 9.131142e-01 8.026133e-01 6.708434e-01 5.813839e-01 4.701030e-01 4.153818e-01 2.690562e-01
<GCONST> 1.299323e+02
<STATE> 4
<MEAN> 39
 -6.591336e-01 -1.410524e+01 -9.083316e+00 -4.921571e+00 -9.120105e+00 -1.385081e+01 -1.213601e+01 5.974161e+00 -2.278783e+00 -4.968938e+00 -2.135652e+00 -6.202561e-01 5.847471e+01 -1.352546e+00 4.634687e-01 2.033099e+00 -2.606615e-01 -1.073855e+00 8.281369e-01 1.984345e+00 -7.718483e-01 -1.204817e+00 1.239291e-01 1.554382e-01 -4.252933e-01 -5.864715e-01 -3.122241e-01 3.601262e-01 5.066241e-02 -2.687323e-01 2.274239e-01 4.764931e-01 1.028666e-01 -4.950338e-01 -2.170203e-02 2.561597e-01 -1.670805e-02 -1.152679e-01 -2.349610e-01
<VARIANCE> 39
 1.963082e+01 3.746187e+01 7.025935e+01 5.947754e+01 8.325838e+01 9.404002e+01 1.044848e+02 8.229306e+01 9.952338e+01 6.014806e+01 5.376682e+01 3.959661e+01 5.109079e+01 2.084360e+00 3.382391e+00 3.643820e+00 3.849348e+00 4.714806e+00 3.953547e+00 5.285614e+00 5.281859e+00 4.403983e+00 3.490748e+00 3.388839e+00 2.745758e+00 4.024057e+00 3.644804e-01 3.804443e-01 4.113428e-01 5.113346e-01 6.461995e-01 8.503520e-01 8.893614e-01 8.104293e-01 6.999403e-01 6.153284e-01 5.552139e-01 4.762930e-01 2.791355e-01
<GCONST> 1.342292e+02
<TRANSP> 5
 0.000000e+00 1.000000e+00 0.000000e+00 0.000000e+00 0.000000e+00
 0.000000e+00 5.985840e-01 4.014160e-01 0.000000e+00 0.000000e+00
 0.000000e+00 0.000000e+00 4.825922e-01 5.174079e-01 0.000000e+00
 0.000000e+00 0.000000e+00 0.000000e+00 4.918812e-01 5.081188e-01
 0.000000e+00 0.000000e+00 0.000000e+00 0.000000e+00 0.000000e+00
<ENDHMM>
~h "s"
<BEGINHMM>
<NUMSTATES> 5
<STATE> 2
<MEAN> 39
 -2.329312e+01 2.261264e-01 -5.721830e+00 -8.002035e+00 -1.893088e+00 -7.146307e+00 -1.572466e+00 3.645186e-01 -2.200330e+00 -1.624247e+00 -2.612566e+00 -3.264482e-01 5.795137e+01 -4.315346e+00 1.370093e+00 -9.639282e-01 1.884751e-01 1.758472e+00 9.494026e-01 1.359474e+00 8.477054e-01 4.848205e-01 3.271396e-01 7.852676e-01 6.972345e-01 1.339868e-01 6.363748e-01 -4.979271e-01 -2.405175e-02 -1.380531e-01 -3.993930e-01 2.662596e-02 -3.809389e-01 -2.973108e-02 -9.809218e-02 6.573223e-02 -3.040610e-02 -1.008591e-01 -2.866158e-02
<VARIANCE> 39
 6.111326e+01 2.866048e+01 4.333460e+01 3.268476e+01 4.079322e+01 3.917034e+01 3.814147e+01 3.638739e+01 2.941973e+01 2.691940e+01 2.367217e+01 1.935138e+01 2.363985e+01 5.142883e+00 3.782436e+00 4.192665e+00 4.500654e+00 4.072386e+00 4.497665e+00 4.418509e+00 4.030370e+00 3.917997e+00 3.670649e+00 3.557883e+00 2.644786e+00 2.078418e+00 1.035508e+00 5.983329e-01 6.300851e-01 6.592153e-01 6.949431e-01 7.626988e-01 7.422047e-01 7.033082e-01 5.947985e-01 6.163628e-01 5.641541e-01 4.670362e-01 4.077752e-01
<GCONST> 1.284336e+02
<STATE> 3
<MEAN> 39
 -3.011840e+01 1.438638e+00 -9.160572e+00 -7.975258e+00 1.076807e-01 -5.181274e+00 -2.334977e-01 1.677054e+00 -1.551644e+00 -2.572867e-01 -1.217123e+00 7.567587e-01 5.817385e+01 2.566329e-02 -1.818845e-01 7.074137e-02 -1.265263e-01 -3.174909e-02 2.543010e-03 -1.333057e-01 3.014206e-02 5.423305e-02 4.542355e-02 -9.702235e-03 -3.714381e-02 -8.514401e-02 7.196349e-01 -2.491015e-01 2.659346e-01 -1.989813e-02 -2.483702e-01 -1.451596e-01 -2.414342e-01 -1.502441e-01 -4.257215e-02 -6.350162e-02 -1.129171e-01 -1.226779e-01 -1.690870e-01
<VARIANCE> 39
 9.312787e+00 2.085188e+01 3.100117e+01 3.791819e+01 3.433000e+01 3.137508e+01 2.863020e+01 2.510731e+01 1.946065e+01 1.707262e+01 1.614317e+01 1.331336e+01 1.689769e+01 2.080807e+00 1.402425e+00 1.500884e+00 1.466534e+00 1.661465e+00 1.888844e+00 1.751342e+00 1.716516e+00 1.606725e+00 1.558845e+00 1.409831e+00 1.277585e+00 1.035393e+00 4.399931e-01 2.628788e-01 3.030304e-01 3.551171e-01 3.810222e-01 4.235611e-01 4.303427e-01 3.920861e-01 3.752204e-01 3.526029e-01 3.320496e-01 2.875080e-01 2.517241e-01
<GCONST> 1.034834e+02
<STATE> 4
<MEAN> 39
 -2.411762e+01 -2.297006e+00 -5.909093e+00 -8.853957e+00 -1.468732e+00 -5.542776e+00 -2.744181e+00 9.537308e-01 -1.070150e+00 -5.486647e-01 -1.914300e+00 -4.498917e-01 5.436673e+01 3.407014e+00 -1.227073e+00 9.172723e-01 7.838754e-02 -1.307160e+00 -2.536350e-01 -1.309626e+00 -7.607001e-01 -2.238895e-01 -1.233867e-01 -3.351761e-01 -5.611874e-01 -1.146556e+00 5.154051e-01 -1.591702e-01 -5.479512e-02 3.504576e-02 -3.066435e-01 3.651967e-02 -1.722170e-01 -1.071924e-01 -1.432422e-01 6.503910e-03 1.284381e-02 -5.648492e-02 -2.952087e-02
<VARIANCE> 39
 4.878773e+01 2.993359e+01 3.822700e+01 3.369092e+01 3.976846e+01 4.201690e+01 3.977632e+01 3.225536e+01 2.736405e+01 2.385074e+01 2.210566e+01 1.884087e+01 5.856141e+01 6.282745e+00 3.073684e+00 3.949849e+00 4.757599e+00 4.725018e+00 5.486764e+00 5.311201e+00 3.925134e+00 3.745003e+00 2.985401e+00 3.222353e+00 2.508597e+00 6.610980e+00 7.915620e-01 5.530313e-01 5.805927e-01 6.845704e-01 7.061181e-01 7.851869e-01 8.962998e-01 6.809326e-01 6.152077e-01 5.586495e-01 5.607916e-01 4.325018e-01 1.095400e+00
<GCONST> 1.306390e+02
<TRANSP> 5
 0.000000e+00 1.000000e+00 0.000000e+00 0.000000e+00 0.000000e+00
 0.000000e+00 6.282762e-01 3.717238e-01 0.000000e+00 0.000000e+00
 0.000000e+00 0.000000e+00 8.388498e-01 1.611502e-01 0.000000e+00
 0.000000e+00 0.000000e+00 0.000000e+00 6.183243e-01 3.816757e-01
 0.000000e+00 0.000000e+00 0.000000e+00 0.000000e+00 0.000000e+00
<ENDHMM>
~h "t"
<BEGINHMM>
<NUMSTATES> 5
<STATE> 2
<MEAN> 39
 -1.204161e+01 -4.068634e+00 -3.123190e+00 -5.525999e+00 -7.815262e+00 -6.227550e+00 -5.915405e+00 -2.618346e+00 -3.120886e+00 -1.475864e+00 -3.493929e+00 -2.563368e+00 4.615226e+01 -1.563037e+00 5.371773e-01 -1.328406e-01 1.200897e+00 1.244022e+00 9.018463e-01 7.285467e-01 1.271041e-01 4.777541e-01 2.090499e-01 4.342877e-01 3.789781e-01 -2.591821e+00 -3.039712e-02 -4.721209e-01 -1.601086e-01 -5.374305e-01 -1.116783e-01 6.156785e-02 8.102232e-02 2.560416e-01 -1.896422e-02 6.501262e-02 1.654411e-01 1.183405e-01 9.602894e-01
<VARIANCE> 39
 6.272776e+01 5.459119e+01 5.857375e+01 6.497215e+01 6.571765e+01 5.542789e+01 5.063915e+01 5.434037e+01 6.007372e+01 4.518744e+01 4.265322e+01 3.556339e+01 1.139384e+02 5.793766e+00 7.000349e+00 5.635715e+00 7.865485e+00 7.190307e+00 6.805233e+00 5.953462e+00 6.902285e+00 6.231100e+00 4.894592e+00 4.897854e+00 3.675474e+00 1.335362e+01 6.657729e-01 1.006324e+00 7.604691e-01 1.319179e+00 1.217527e+00 1.118309e+00 9.683275e-01 1.086524e+00 1.021015e+00 9.121987e-01 8.286448e-01 6.526881e-01 2.527228e+00
<GCONST> 1.483511e+02
<STATE> 3
<MEAN> 39
 -1.682305e+01 -5.821528e+00 -4.276769e+00 -5.747648e+00 -4.953306e+00 -3.328792e+00 -3.381684e+00 -7.964674e-01 -1.572057e+00 -2.773155e-01 -1.231439e+00 -6.965325e-01 4.500663e+01 -5.745082e-01 -7.622573e-01 -2.254986e-01 -9.876184e-01 -1.367256e-01 -1.710229e-01 3.733632e-01 4.788677e-01 1.299563e-01 1.007470e-01 3.640417e-01 4.908463e-01 2.051431e+00 4.554794e-01 -7.946681e-03 8.208168e-02 -3.653352e-01 -4.356998e-01 -4.209555e-01 -2.243144e-01 -2.801629e-02 -2.508427e-01 -1.305719e-01 -1.793435e-01 -1.189812e-01 1.013137e+00
<VARIANCE> 39
 5.491867e+01 4.427812e+01 3.543227e+01 5.368781e+01 4.832423e+01 4.411213e+01 4.035889e+01 3.547364e+01 3.553453e+01 3.051609e+01 2.794362e+01 2.368287e+01 1.477906e+02 4.607210e+00 4.427034e+00 3.651585e+00 6.647166e+00 4.777423e+00 5.246230e+00 4.512178e+00 4.720723e+00 4.325205e+00 3.682209e+00 3.460428e+00 2.863103e+00 1.667102e+01 7.904783e-01 9.687231e-01 8.194702e-01 1.392363e+00 1.108623e+00 1.040226e+00 9.021870e-01 9.928377e-01 8.786773e-01 7.772362e-01 7.625070e-01 5.752731e-01 3.238342e+00
<GCONST> 1.406620e+02
<STATE> 4
<MEAN> 39
 -1.733730e+01 -6.800064e+00 -4.776068e+00 -7.924037e+00 -6.242731e+00 -5.441280e+00 -2.261937e+00 -1.809281e-02 -1.922428e+00 -8.967936e-01 -1.688614e+00 -1.057698e-01 5.166644e+01 1.191748e+00 -3.020496e-01 1.473836e-01 -3.348834e-01 -6.991401e-01 -7.083833e-01 -4.175020e-01 6.286610e-02 -3.565385e-01 -3.394940e-01 -3.510634e-01 -1.683040e-01 1.286193e+00 5.112007e-01 -1.362576e-02 4.649584e-02 6.801042e-02 -1.359301e-01 -2.104938e-03 -2.960863e-01 -7.169323e-02 -1.056040e-01 -2.798289e-02 -5.706531e-02 -1.564166e-01 -2.517462e-01
<VARIANCE> 39
 5.841644e+01 3.647639e+01 3.788084e+01 4.643710e+01 4.439659e+01 4.117931e+01 4.482956e+01 3.773088e+01 3.495051e+01 3.067921e+01 2.814599e+01 2.277884e+01 1.279255e+02 6.214608e+00 3.024559e+00 3.551779e+00 4.673216e+00 4.392788e+00 4.650712e+00 4.787739e+00 4.129199e+00 3.813529e+00 3.311028e+00 3.312937e+00 2.612540e+00 9.213180e+00 8.018106e-01 6.002088e-01 6.333007e-01 9.351938e-01 7.768631e-01 8.004330e-01 8.295369e-01 7.944674e-01 6.976121e-01 6.294295e-01 6.299350e-01 5.048440e-01 1.824581e+00
<GCONST> 1.351948e+02
<TRANSP> 5
 0.000000e+00 1.000000e+00 0.000000e+00 0.000000e+00 0.000000e+00
 0.000000e+00 4.792629e-01 5.207371e-01 0.000000e+00 0.000000e+00
 0.000000e+00 0.000000e+00 4.296392e-01 5.703608e-01 0.000000e+00
 0.000000e+00 0.000000e+00 0.000000e+00 6.314045e-01 3.685955e-01
 0.000000e+00 0.000000e+00 0.000000e+00 0.000000e+00 0.000000e+00
<ENDHMM>
~h "v"
<BEGINHMM>
<NUMSTATES> 5
<STATE> 2
<MEAN> 39
 -3.783127e+00 -7.279463e+00 -6.884767e+00 -9.411930e+00 -8.188318e+00 -7.571446e+00 -1.079152e+01 -4.491099e+00 -3.302420e+00 -5.113627e-01 -1.743082e+00 -3.612347e+00 5.626939e+01 -1.164166e+00 1.628129e+00 -2.077126e-01 1.062496e+00 1.234214e+00 5.743392e-01 4.994184e-01 -9.880171e-01 -4.498177e-01 -2.706984e-01 4.291721e-02 1.210800e-01 -1.600617e+00 -4.046110e-01 -5.491277e-02 2.034294e-01 -2.002274e-02 -8.180814e-02 7.879584e-02 2.555015e-01 2.929458e-01 1.171457e-02 -1.061177e-01 -1.760951e-01 5.509486e-02 8.861057e-02
<VARIANCE> 39
 2.900942e+01 3.378465e+01 4.182071e+01 4.382696e+01 3.389641e+01 5.111617e+01 4.796058e+01 4.672535e+01 4.275601e+01 4.141482e+01 4.661264e+01 3.049242e+01 3.629735e+01 3.855679e+00 3.607880e+00 3.031005e+00 3.832330e+00 3.411583e+00 3.806807e+00 4.332440e+00 4.605279e+00 3.985146e+00 3.375596e+00 3.090014e+00 2.590287e+00 3.484430e+00 5.604234e-01 5.334371e-01 4.072909e-01 5.104777e-01 5.378677e-01 4.928178e-01 6.290286e-01 6.447107e-01 5.403718e-01 5.321298e-01 5.037040e-01 4.218952e-01 4.650010e-01
<GCONST> 1.275813e+02
<STATE> 3
<MEAN> 39
 -7.441720e+00 -3.543057e+00 -6.759359e+00 -6.844704e+00 -5.752438e+00 -6.050364e+00 -8.974121e+00 -6.079300e+00 -4.844105e+00 -1.805506e+00 -2.184503e+00 -3.097159e+00 5.263776e+01 -1.747096e+00 9.460487e-01 2.426204e-01 8.519710e-01 8.057870e-01 5.218999e-01 8.495551e-01 -1.240957e-02 -1.617763e-01 -3.995904e-01 -3.231183e-01 1.554482e-01 -9.829023e-01 1.961977e-01 -6.352713e-01 6.365822e-02 -3.776548e-01 -3.869772e-01 -1.706329e-01 -3.688851e-02 5.312692e-01 2.400842e-01 9.902576e-02 -4.022765e-02 2.467947e-02 5.957208e-01
<VARIANCE> 39
 4.051400e+01 2.523144e+01 2.996855e+01 3.148636e+01 2.444947e+01 3.530008e+01 3.623260e+01 3.344912e+01 3.030120e+01 3.102545e+01 3.228935e+01 2.348865e+01 3.410443e+01 4.693708e+00 3.467160e+00 2.644543e+00 3.557941e+00 2.793913e+00 3.469820e+00 3.794173e+00 3.534770e+00 3.027074e+00 2.862177e+00 2.674359e+00 2.127166e+00 3.472790e+00 8.848374e-01 5.675294e-01 5.478567e-01 6.170936e-01 6.140894e-01 6.076508e-01 7.897859e-01 7.360803e-01 6.549341e-01 5.928508e-01 5.417559e-01 4.279038e-01 5.459546e-01
<GCONST> 1.250508e+02
<STATE> 4
<MEAN> 39
 -1.137780e+01 -3.844864e+00 -6.658589e+00 -6.214540e+00 -5.046021e+00 -5.221508e+00 -6.476858e+00 -4.056068e+00 -3.833466e+00 -2.039423e+00 -2.867339e+00 -2.462675e+00 5.187057e+01 3.343394e-01 -6.623222e-01 -2.118223e-01 -6.028506e-01 -3.921712e-01 -3.120081e-01 5.788263e-02 6.252502e-01 3.226449e-01 1.236087e-01 1.057055e-02 1.190485e-01 7.751928e-01 6.785063e-01 -4.075961e-01 -6.463385e-02 -4.153228e-01 -3.417424e-01 -2.045560e-01 -2.852508e-01 1.529915e-01 3.689294e-02 9.667123e-02 7.910793e-02 -1.936495e-02 4.221123e-01
<VARIANCE> 39
 5.776825e+01 2.919014e+01 3.125132e+01 3.470491e+01 2.644510e+01 3.416340e+01 3.643149e+01 3.238003e+01 2.933214e+01 2.676901e+01 2.573280e+01 2.062837e+01 4.689637e+01 8.021590e+00 3.517851e+00 3.093858e+00 4.504537e+00 3.602542e+00 3.788763e+00 4.542929e+00 3.586924e+00 3.110593e+00 2.772765e+00 2.605131e+00 2.094559e+00 4.598725e+00 1.044073e+00 6.501060e-01 5.839990e-01 7.457828e-01 6.472209e-01 7.300754e-01 8.379809e-01 7.658409e-01 6.770690e-01 5.739752e-01 5.246360e-01 4.050336e-01 6.542100e-01
<GCONST> 1.281900e+02
<TRANSP> 5
 0.000000e+00 1.000000e+00 0.000000e+00 0.000000e+00 0.000000e+00
 0.000000e+00 3.545737e-01 6.454263e-01 0.000000e+00 0.000000e+00
 0.000000e+00 0.000000e+00 3.435910e-01 6.564090e-01 0.000000e+00
 0.000000e+00 0.000000e+00 0.000000e+00 6.157761e-01 3.842239e-01
 0.000000e+00 0.000000e+00 0.000000e+00 0.000000e+00 0.000000e+00
<ENDHMM>
~h "w"
<BEGINHMM>
<NUMSTATES> 5
<STATE> 2
<MEAN> 39
 -3.700474e+00 -2.137612e+00 -9.573254e+00 -1.261214e+01 -8.620371e+00 -2.482480e+00 -5.936866e+00 -4.310628e+00 -8.295390e+00 -2.481364e+00 -1.400336e+00 -1.969105e+00 4.887367e+01 2.097193e+00 1.527992e+00 -3.150249e-01 -1.998611e+00 -1.575477e+00 6.303781e-01 6.440468e-01 -1.629445e-01 -8.788981e-01 -7.291653e-01 -5.265360e-02 1.294260e-01 -1.272135e-01 -1.445166e-01 -3.102591e-01 2.681670e-01 -1.845062e-01 -3.621383e-01 -1.548201e-01 -8.190177e-02 2.747846e-01 1.713461e-01 6.211213e-02 1.367657e-02 -1.542962e-02 5.525244e-01
<VARIANCE> 39
 5.304457e+01 5.061420e+01 2.579464e+01 5.186448e+01 5.522732e+01 3.719652e+01 4.432548e+01 3.982635e+01 5.569917e+01 3.850299e+01 3.701521e+01 2.468160e+01 3.661237e+01 4.922197e+00 3.502981e+00 3.620771e+00 4.683785e+00 5.061849e+00 4.642044e+00 5.376392e+00 4.730495e+00 5.315474e+00 3.997840e+00 3.356951e+00 2.725617e+00 4.769051e+00 5.037844e-01 8.217486e-01 6.319804e-01 8.010930e-01 1.065170e+00 8.196920e-01 9.723450e-01 8.621315e-01 8.846948e-01 8.810784e-01 6.374039e-01 5.160884e-01 4.290809e-01
<GCONST> 1.347852e+02
<STATE> 3
<MEAN> 39
 2.524789e+00 1.289999e-01 -9.189199e+00 -2.128538e+01 -1.633566e+01 -9.232388e-01 -5.087401e+00 -3.223611e+00 -9.701076e+00 -4.092569e+00 -1.158112e+00 -1.756042e+00 5.275985e+01 6.322061e-01 -9.757764e-01 -2.941123e-01 -1.527002e+00 -6.339533e-01 6.990368e-01 -3.004670e-01 4.058804e-03 1.649292e-01 5.929012e-01 6.167261e-01 1.265693e-01 1.506396e+00 -5.351195e-01 -6.574875e-01 -3.930072e-02 5.503700e-01 6.499785e-01 -6.261376e-02 -2.243040e-01 3.294595e-02 3.767586e-01 3.661889e-01 8.617575e-02 -7.777773e-02 1.703909e-01
<VARIANCE> 39
 7.907320e+00 2.658446e+01 2.971325e+01 4.628394e+01 5.268824e+01 4.563916e+01 4.253046e+01 4.744543e+01 5.375398e+01 4.483591e+01 4.424917e+01 2.890516e+01 1.631781e+01 1.592701e+00 2.872503e+00 1.980366e+00 3.775383e+00 4.447792e+00 3.903246e+00 4.929304e+00 3.676087e+00 4.089062e+00 4.316402e+00 3.709198e+00 2.665165e+00 2.459561e+00 4.114292e-01 2.929570e-01 3.683768e-01 6.003677e-01 6.180966e-01 7.420286e-01 6.923440e-01 7.387162e-01 8.550412e-01 6.611802e-01 6.146724e-01 5.294254e-01 2.256176e-01
<GCONST> 1.244691e+02
<STATE> 4
<MEAN> 39
 1.613899e+00 -6.967986e+00 -1.072921e+01 -2.187354e+01 -1.330444e+01 1.147651e+00 -7.875146e+00 -3.067093e+00 -6.681443e+00 9.426469e-02 1.385910e+00 -2.542857e+00 5.883335e+01 -4.012474e-01 -1.724963e+00 -7.600471e-02 7.135779e-01 8.819681e-01 -5.340917e-01 -7.536314e-01 4.980679e-01 1.152021e+00 7.050449e-01 -1.150198e-01 -5.031571e-01 1.283097e+00 -2.390238e-01 1.502120e-01 1.991101e-01 4.535782e-01 4.583172e-02 -3.716385e-01 1.836962e-01 2.017645e-01 1.109335e-01 -3.033041e-01 -3.214984e-01 -4.784248e-02 -2.464569e-01
<VARIANCE> 39
 8.950071e+00 3.873684e+01 4.305270e+01 7.896440e+01 7.894317e+01 8.048045e+01 9.123775e+01 6.489146e+01 7.002119e+01 8.276260e+01 7.658406e+01 4.319237e+01 2.063531e+01 5.485873e-01 1.613040e+00 2.406503e+00 3.654715e+00 3.541909e+00 5.858346e+00 4.819544e+00 4.268526e+00 4.030072e+00 4.207433e+00 4.155229e+00 3.173922e+00 9.177363e-01 1.927078e-01 2.893295e-01 3.213131e-01 4.890045e-01 7.147627e-01 7.017961e-01 8.811467e-01 7.552502e-01 8.122917e-01 8.977460e-01 7.798164e-01 6.359870e-01 1.604045e-01
<GCONST> 1.276466e+02
<TRANSP> 5
 0.000000e+00 1.000000e+00 0.000000e+00 0.000000e+00 0.000000e+00
 0.000000e+00 7.065130e-01 2.934870e-01 0.000000e+00 0.000000e+00
 0.000000e+00 0.000000e+00 6.310586e-01 3.689413e-01 0.000000e+00
 0.000000e+00 0.000000e+00 0.000000e+00 7.065664e-01 2.934336e-01
 0.000000e+00 0.000000e+00 0.000000e+00 0.000000e+00 0.000000e+00
<ENDHMM>
~h "y"
<BEGINHMM>
<NUMSTATES> 5
<STATE> 2
<MEAN> 39
 -1.061744e+01 -2.381171e+00 1.264616e+01 -1.313526e+01 -1.573549e+01 -6.944276e+00 -1.051916e+01 -5.967511e+00 -1.196201e+01 -3.203491e+00 -3.779187e+00 -2.562762e+00 5.564148e+01 2.577313e-01 -5.197410e-02 1.143070e+00 -6.751625e-02 -1.029451e+00 -8.746372e-02 -4.077611e-02 -2.271810e-01 -7.980557e-01 -1.429677e-01 2.532663e-01 -4.424598e-02 3.270943e-01 1.682587e-01 -2.452509e-01 -5.339581e-01 7.385483e-02 1.504698e-01 -1.315703e-01 3.792833e-02 1.900580e-01 2.092310e-01 1.407946e-01 9.368296e-02 6.912335e-03 5.152321e-02
<VARIANCE> 39
 1.795642e+01 3.741964e+01 3.744267e+01 7.705094e+01 4.208117e+01 4.799677e+01 4.201194e+01 6.008313e+01 4.170832e+01 5.178820e+01 5.208165e+01 2.973787e+01 2.585084e+01 3.006827e+00 2.516343e+00 3.833949e+00 2.430965e+00 4.039762e+00 4.475116e+00 3.284396e+00 3.035636e+00 3.815903e+00 3.267118e+00 2.044782e+00 1.725128e+00 2.083437e+00 2.649417e-01 2.583404e-01 4.121245e-01 5.134115e-01 6.702362e-01 7.280520e-01 5.210554e-01 6.176081e-01 5.412592e-01 4.733314e-01 3.563696e-01 3.229538e-01 2.198491e-01
<GCONST> 1.227176e+02
<STATE> 3
<MEAN> 39
 -7.585344e+00 -8.435020e+00 1.228021e+01 -8.903686e+00 -2.115785e+01 -1.008998e+01 -8.673942e+00 -2.599925e+00 -1.339962e+01 -3.943331e+00 1.337089e+00 -2.409723e+00 5.931255e+01 9.563798e-01 -1.079583e+00 -1.036242e+00 7.696772e-01 -3.205300e-01 -1.629681e+00 7.035062e-03 1.305120e+00 -1.598380e-01 -2.178595e-01 7.779830e-01 3.029158e-01 4.813791e-01 -1.795575e-02 3.921495e-02 -4.482692e-01 5.218356e-02 5.032427e-01 -1.407620e-02 -1.880856e-01 2.246258e-01 3.974957e-01 -1.239203e-01 -1.252102e-01 1.187838e-01 -1.617788e-01
<VARIANCE> 39
 1.223917e+01 2.397331e+01 4.165814e+01 6.305872e+01 3.045890e+01 5.522780e+01 5.105958e+01 5.197088e+01 4.824413e+01 7.323489e+01 4.371568e+01 2.942677e+01 1.690317e+01 1.458540e+00 1.153342e+00 1.656068e+00 1.467669e+00 1.828747e+00 2.751650e+00 3.000932e+00 2.855582e+00 2.105831e+00 2.123238e+00 1.590234e+00 1.396268e+00 6.609191e-01 2.244284e-01 1.649088e-01 3.143998e-01 2.432759e-01 4.158815e-01 4.281363e-01 4.408286e-01 3.720239e-01 4.514025e-01 4.019115e-01 2.990272e-01 2.353573e-01 9.988029e-02
<GCONST> 1.096891e+02
<STATE> 4
<MEAN> 39
 -2.821172e+00 -1.292315e+01 1.352711e+00 -4.732365e+00 -1.625480e+01 -1.771870e+01 -1.131552e+01 6.219385e+00 -7.781841e+00 -6.636494e+00 1.965285e+00 7.516347e-01 5.955702e+01 7.412000e-01 -2.999577e-01 -1.905312e+00 4.427771e-01 1.317662e+00 -5.191671e-01 -9.698843e-01 8.370809e-01 1.418881e+00 -3.149990e-01 -5.622896e-01 2.822628e-01 -1.912872e-01 -1.715395e-01 2.813499e-01 1.166298e-02 -1.218003e-01 2.195223e-01 4.582142e-01 3.756059e-02 -4.335243e-01 1.477729e-01 1.749465e-01 -2.415622e-01 -1.562544e-01 -2.054275e-01
<VARIANCE> 39
 1.612000e+01 2.696462e+01 7.346607e+01 4.903476e+01 4.905674e+01 6.653046e+01 8.623619e+01 6.255207e+01 7.778248e+01 5.765688e+01 4.015391e+01 3.373821e+01 2.106196e+01 8.663921e-01 1.161356e+00 2.145242e+00 1.369071e+00 1.939708e+00 2.551842e+00 2.810953e+00 3.058517e+00 2.613415e+00 2.319423e+00 1.741372e+00 1.587981e+00 5.619754e-01 1.627982e-01 1.782446e-01 2.858595e-01 2.728804e-01 3.941950e-01 4.562428e-01 5.003680e-01 4.483102e-01 4.696499e-01 3.942364e-01 3.183107e-01 2.510352e-01 1.120341e-01
<GCONST> 1.126657e+02
<TRANSP> 5
 0.000000e+00 1.000000e+00 0.000000e+00 0.000000e+00 0.000000e+00
 0.000000e+00 7.893721e-01 2.106279e-01 0.000000e+00 0.000000e+00
 0.000000e+00 0.000000e+00 7.202286e-01 2.797714e-01 0.000000e+00
 0.000000e+00 0.000000e+00 0.000000e+00 7.307873e-01 2.692127e-01
 0.000000e+00 0.000000e+00 0.000000e+00 0.000000e+00 0.000000e+00
<ENDHMM>
~h "z"
<BEGINHMM>
<NUMSTATES> 5
<STATE> 2
<MEAN> 39
 -1.764636e+01 3.235943e+00 -2.916523e+00 -8.613597e+00 -3.324508e+00 -1.078779e+01 -7.254995e+00 -3.583139e+00 -3.556554e+00 -2.458404e+00 -4.223613e+00 -1.075421e+00 5.652057e+01 -4.364537e+00 1.645256e+00 -7.220422e-01 3.119654e-01 2.294344e+00 1.192248e+00 1.574261e+00 9.280126e-01 5.385066e-01 1.346623e-01 5.211662e-01 3.618688e-01 -1.982041e-01 1.941987e-01 -7.212842e-01 -1.191500e-01 -8.341876e-02 -3.155880e-01 3.222864e-01 1.170659e-01 3.204409e-01 3.001874e-02 1.626027e-01 1.255266e-01 -1.156075e-02 6.160226e-02
<VARIANCE> 39
 5.926054e+01 3.537820e+01 4.463289e+01 4.232974e+01 5.368069e+01 5.280263e+01 4.829906e+01 3.860390e+01 3.218242e+01 3.418847e+01 2.460127e+01 2.302379e+01 2.480876e+01 3.682583e+00 4.888365e+00 3.638761e+00 5.188553e+00 3.807081e+00 5.438380e+00 4.555247e+00 4.574862e+00 3.806027e+00 3.502172e+00 3.215836e+00 2.978781e+00 1.525131e+00 1.155630e+00 7.107469e-01 5.342854e-01 6.616053e-01 8.010522e-01 8.455614e-01 7.693523e-01 7.414789e-01 5.712873e-01 6.163503e-01 5.058362e-01 4.899909e-01 1.949462e-01
<GCONST> 1.298095e+02
<STATE> 3
<MEAN> 39
 -2.851594e+01 2.774490e+00 -6.801669e+00 -8.744124e+00 1.185739e+00 -5.981351e+00 -1.609255e+00 1.008611e+00 -1.681845e+00 -7.636060e-01 -2.051347e+00 9.144861e-02 5.628149e+01 -2.520708e-01 -7.655109e-01 -3.643395e-01 -2.270489e-01 -1.481601e-01 2.255773e-01 1.762544e-01 3.664275e-01 3.064905e-01 2.696504e-01 1.746514e-01 3.345658e-02 1.642311e-01 1.221611e+00 -3.578900e-01 2.518857e-01 -6.532981e-02 -5.476128e-01 -3.622414e-01 -5.211475e-01 -3.473411e-01 -1.249002e-01 -5.492764e-02 -1.587208e-01 -1.364090e-01 -7.797026e-02
<VARIANCE> 39
 1.981794e+01 2.482471e+01 4.413625e+01 4.195164e+01 3.672002e+01 3.673146e+01 4.091341e+01 3.119961e+01 2.185336e+01 2.047672e+01 1.849044e+01 1.511165e+01 1.590658e+01 5.520476e+00 1.955138e+00 2.108510e+00 1.995366e+00 2.610040e+00 3.353079e+00 3.173432e+00 2.546204e+00 2.208583e+00 2.020696e+00 1.812524e+00 1.619434e+00 1.057896e+00 6.935555e-01 4.534284e-01 4.296828e-01 5.490324e-01 5.371318e-01 6.960536e-01 6.267226e-01 5.758080e-01 4.916298e-01 4.540163e-01 4.177914e-01 3.723901e-01 2.693853e-01
<GCONST> 1.156886e+02
<STATE> 4
<MEAN> 39
 -2.156647e+01 -2.939370e+00 -6.921266e+00 -8.594029e+00 -2.249924e+00 -5.554360e+00 -3.782213e+00 1.672836e-01 -9.749821e-01 -6.545501e-01 -1.989004e+00 -6.316446e-01 5.106706e+01 2.156882e+00 -9.443793e-01 1.160795e-01 1.449523e-01 -7.694987e-01 -8.250665e-02 -5.287935e-01 -4.229844e-01 -1.277766e-01 -2.270702e-02 -1.548735e-01 -2.274387e-01 -9.334390e-01 2.432557e-01 3.628021e-02 2.131935e-02 3.844862e-02 -7.630506e-02 2.693079e-02 -1.879613e-02 -5.996865e-02 -1.195357e-01 -4.799708e-02 -2.931956e-02 -1.818030e-02 -6.374502e-02
<VARIANCE> 39
 5.305238e+01 3.324334e+01 3.893057e+01 3.914935e+01 3.939554e+01 4.698661e+01 4.567390e+01 3.374126e+01 2.851502e+01 2.762671e+01 2.394651e+01 1.979621e+01 7.892686e+01 5.756246e+00 3.160781e+00 2.886023e+00 3.629657e+00 3.905504e+00 4.417558e+00 4.322805e+00 3.590379e+00 3.108307e+00 2.793905e+00 2.615037e+00 2.184730e+00 4.875232e+00 7.774953e-01 4.737320e-01 4.567514e-01 5.608798e-01 5.792217e-01 7.418091e-01 7.126788e-01 6.418177e-01 5.794344e-01 5.204049e-01 4.794943e-01 4.000860e-01 7.691328e-01
<GCONST> 1.277730e+02
<TRANSP> 5
 0.000000e+00 1.000000e+00 0.000000e+00 0.000000e+00 0.000000e+00
 0.000000e+00 6.791123e-01 3.208877e-01 0.000000e+00 0.000000e+00
 0.000000e+00 0.000000e+00 7.370076e-01 2.629924e-01 0.000000e+00
 0.000000e+00 0.000000e+00 0.000000e+00 7.390396e-01 2.609604e-01
 0.000000e+00 0.000000e+00 0.000000e+00 0.000000e+00 0.000000e+00
<ENDHMM>
~h "aa"
<BEGINHMM>
<NUMSTATES> 5
<STATE> 2
<MEAN> 39
 -1.041616e+00 -1.157880e+01 -1.371311e+01 -1.843185e+01 -9.010689e+00 2.875521e-01 -5.383744e+00 -1.302561e+00 -2.971419e+00 -7.437477e-01 -1.306244e+00 -4.571895e+00 6.094552e+01 1.180900e+00 -1.101009e+00 -1.134834e+00 -1.333719e+00 2.716917e-01 1.388946e+00 2.569532e-01 -2.761928e-01 -1.040883e-01 -9.749277e-02 2.865119e-01 -4.061966e-01 1.130015e+00 -4.928434e-01 1.609854e-01 1.919035e-01 4.185341e-01 2.696514e-01 -1.438907e-01 6.443696e-02 -1.924769e-02 1.055106e-02 -7.390600e-02 -2.343267e-03 2.328025e-01 -2.786755e-01
<VARIANCE> 39
 2.317179e+01 4.813792e+01 3.896210e+01 7.104739e+01 7.174078e+01 8.002670e+01 8.294042e+01 6.802769e+01 6.986771e+01 6.180798e+01 7.142781e+01 4.384076e+01 4.490020e+01 3.350407e+00 2.606620e+00 2.839806e+00 4.622959e+00 4.904052e+00 4.723740e+00 5.183580e+00 4.687103e+00 4.251142e+00 3.755571e+00 3.667238e+00 3.382494e+00 2.205585e+00 6.015786e-01 4.165750e-01 3.771537e-01 6.267229e-01 6.640271e-01 6.947288e-01 9.033610e-01 7.863727e-01 7.776675e-01 6.755590e-01 6.976362e-01 5.410095e-01 3.895895e-01
<GCONST> 1.347897e+02
<STATE> 3
<MEAN> 39
 2.932252e-01 -1.384524e+01 -1.581240e+01 -2.146973e+01 -6.963601e+00 4.714245e+00 -3.406931e+00 -2.963768e+00 -3.023402e+00 -1.835815e+00 -4.583236e-01 -4.667391e+00 6.350571e+01 4.785709e-02 -3.023064e-01 -2.953524e-01 2.441996e-01 4.840589e-01 -4.476971e-02 -1.539797e-01 -4.593454e-03 1.741158e-01 -8.154407e-02 -4.701935e-03 -8.043434e-02 1.600711e-01 -6.594712e-02 1.474182e-01 1.191613e-01 2.317091e-01 -6.937597e-02 -3.329002e-01 -1.629754e-01 1.178801e-01 6.108130e-02 1.673645e-02 -9.287152e-02 3.260167e-02 -1.459867e-01
<VARIANCE> 39
 1.206632e+01 4.429281e+01 3.297298e+01 6.535690e+01 7.556657e+01 7.690718e+01 7.941371e+01 6.959954e+01 6.779241e+01 6.028621e+01 6.709057e+01 4.827376e+01 2.422210e+01 3.761716e-01 9.522669e-01 9.447486e-01 2.007652e+00 1.665874e+00 2.156667e+00 2.160729e+00 1.908479e+00 1.725288e+00 1.715095e+00 1.576571e+00 1.609473e+00 3.734598e-01 9.266704e-02 1.407459e-01 1.548626e-01 2.154656e-01 2.722924e-01 2.719238e-01 3.348588e-01 3.080518e-01 3.052393e-01 2.963089e-01 2.846662e-01 2.817006e-01 7.413838e-02
<GCONST> 1.057025e+02
<STATE> 4
<MEAN> 39
 3.432899e-01 -1.422464e+01 -1.688206e+01 -1.628051e+01 -5.205747e+00 -1.182460e+00 -6.868495e+00 -2.364688e-01 -1.156575e+00 -2.265851e+00 -2.442410e+00 -4.776797e+00 6.272621e+01 -1.995968e-01 5.718969e-01 5.444721e-01 1.039801e+00 -1.473529e-01 -1.399156e+00 -6.534839e-01 5.661044e-01 2.832017e-01 4.008997e-03 -4.959753e-01 2.668755e-01 -6.606414e-01 -2.444544e-01 2.896393e-01 3.498696e-01 1.903242e-01 -8.576379e-02 -1.005032e-01 3.342288e-02 -8.906693e-02 -1.116868e-01 1.154126e-02 2.013022e-02 1.368004e-01 -3.090286e-01
<VARIANCE> 39
 1.403795e+01 4.227809e+01 4.436039e+01 7.809668e+01 6.286545e+01 9.229965e+01 9.876340e+01 8.478917e+01 7.612070e+01 5.832473e+01 6.954432e+01 4.875189e+01 2.395221e+01 8.441059e-01 1.759310e+00 2.061388e+00 2.714637e+00 2.787353e+00 2.739388e+00 3.531502e+00 2.956677e+00 2.884368e+00 2.674376e+00 2.461663e+00 2.335380e+00 1.035642e+00 2.791281e-01 2.596145e-01 2.618526e-01 3.650436e-01 3.982594e-01 4.486457e-01 5.454324e-01 5.055206e-01 4.648741e-01 4.567726e-01 4.418987e-01 4.069323e-01 2.128678e-01
<GCONST> 1.211434e+02
<TRANSP> 5
 0.000000e+00 1.000000e+00 0.000000e+00 0.000000e+00 0.000000e+00
 0.000000e+00 5.745476e-01 4.254524e-01 0.000000e+00 0.000000e+00
 0.000000e+00 0.000000e+00 8.241636e-01 1.758363e-01 0.000000e+00
 0.000000e+00 0.000000e+00 0.000000e+00 7.229703e-01 2.770297e-01
 0.000000e+00 0.000000e+00 0.000000e+00 0.000000e+00 0.000000e+00
<ENDHMM>
~h "ae"
<BEGINHMM>
<NUMSTATES> 5
<STATE> 2
<MEAN> 39
 -5.067443e+00 -1.592104e+01 -3.651725e+00 -1.358100e+01 -1.559068e+01 -8.458362e+00 -2.506839e+00 5.218720e+00 -2.944209e+00 -3.100659e+00 -4.755942e+00 -3.960182e+00 6.532137e+01 8.692710e-02 -7.010505e-01 -1.563260e-01 -2.334976e-01 4.474553e-02 2.522708e-01 4.011385e-01 4.527674e-01 7.240807e-02 -3.846792e-01 -2.362368e-01 -6.639762e-02 5.071256e-01 -9.322423e-02 2.376288e-01 -9.878872e-02 1.986968e-01 2.528288e-01 2.820786e-02 -1.042860e-01 -1.755151e-01 9.470122e-03 2.436604e-02 3.178662e-02 6.701128e-02 -2.783171e-01
<VARIANCE> 39
 1.681241e+01 3.335530e+01 5.071524e+01 5.094872e+01 5.079583e+01 6.028214e+01 7.492001e+01 6.469681e+01 8.386565e+01 4.570942e+01 5.026057e+01 3.625208e+01 2.523689e+01 7.294770e-01 1.279638e+00 1.356905e+00 1.374699e+00 1.670257e+00 1.861199e+00 2.308106e+00 2.229497e+00 1.814890e+00 1.588558e+00 1.553507e+00 1.320793e+00 8.915874e-01 1.850575e-01 2.068118e-01 1.918714e-01 2.367065e-01 3.060080e-01 3.154092e-01 3.781944e-01 3.589028e-01 3.212862e-01 2.972329e-01 2.888193e-01 2.352449e-01 1.635039e-01
<GCONST> 1.088153e+02
<STATE> 3
<MEAN> 39
 -4.319113e+00 -1.718368e+01 -7.330943e+00 -1.243462e+01 -1.211730e+01 -7.724399e+00 -1.992152e+00 4.934623e+00 -2.235147e+00 -5.446159e+00 -6.024866e+00 -3.452278e+00 6.536149e+01 1.281899e-01 2.178488e-01 -2.973918e-01 1.946901e-01 2.865466e-01 -1.871743e-01 -3.598510e-01 -5.907411e-02 8.394827e-02 3.097931e-02 -4.291773e-02 1.821816e-02 -2.760893e-01 -2.697628e-02 3.064655e-01 9.178835e-02 8.773557e-02 -1.102166e-02 -1.083371e-01 -1.199766e-01 -1.655088e-01 -8.180370e-02 1.578235e-01 6.747650e-02 -2.832100e-03 -2.691354e-01
<VARIANCE> 39
 1.371720e+01 3.056757e+01 4.637315e+01 4.241204e+01 5.376179e+01 6.522987e+01 7.513225e+01 6.663541e+01 8.687648e+01 4.522506e+01 4.637933e+01 4.501559e+01 2.629387e+01 3.679722e-01 8.177509e-01 1.338067e+00 1.036319e+00 1.592866e+00 1.505043e+00 1.690400e+00 1.789103e+00 1.674216e+00 1.517758e+00 1.423180e+00 1.191994e+00 3.897065e-01 8.443435e-02 1.831180e-01 1.776581e-01 2.084438e-01 2.548121e-01 2.597495e-01 3.100717e-01 3.464692e-01 3.035867e-01 2.637204e-01 2.522695e-01 2.201851e-01 1.254067e-01
<GCONST> 1.028927e+02
<STATE> 4
<MEAN> 39
 -4.255550e+00 -1.437717e+01 -6.202621e+00 -1.214166e+01 -1.269096e+01 -9.688781e+00 -4.725230e+00 4.391366e+00 -2.106065e+00 -3.512963e+00 -5.555511e+00 -3.848445e+00 6.326448e+01 -2.879233e-01 2.027221e+00 4.025821e-01 1.055153e+00 5.425397e-01 -4.685974e-01 -7.040691e-01 -9.962862e-01 -5.200045e-01 5.265504e-01 3.764293e-01 1.416302e-01 -2.038238e+00 -4.913369e-01 6.261011e-01 1.898409e-01 4.497619e-01 3.341168e-01 2.405321e-01 1.767638e-01 -4.363474e-01 -2.306603e-01 3.108584e-02 1.294356e-01 7.108922e-02 -7.274816e-01
<VARIANCE> 39
 1.450289e+01 3.238577e+01 5.838036e+01 4.677496e+01 5.863078e+01 6.449830e+01 8.019722e+01 6.743609e+01 8.030063e+01 5.522057e+01 5.930573e+01 4.505499e+01 3.433979e+01 1.892919e+00 3.016319e+00 3.037398e+00 2.712387e+00 3.689835e+00 3.559690e+00 4.178119e+00 4.592257e+00 4.554982e+00 3.626485e+00 3.438343e+00 2.886078e+00 2.542282e+00 4.519720e-01 3.965137e-01 3.975667e-01 4.894795e-01 5.899987e-01 6.424413e-01 7.447545e-01 7.807028e-01 7.484098e-01 7.214267e-01 6.779270e-01 5.150959e-01 4.516893e-01
<GCONST> 1.304805e+02
<TRANSP> 5
 0.000000e+00 1.000000e+00 0.000000e+00 0.000000e+00 0.000000e+00
 0.000000e+00 7.705235e-01 2.294765e-01 0.000000e+00 0.000000e+00
 0.000000e+00 0.000000e+00 7.622455e-01 2.377544e-01 0.000000e+00
 0.000000e+00 0.000000e+00 0.000000e+00 5.356784e-01 4.643216e-01
 0.000000e+00 0.000000e+00 0.000000e+00 0.000000e+00 0.000000e+00
<ENDHMM>
~h "ah"
<BEGINHMM>
<NUMSTATES> 5
<STATE> 2
<MEAN> 39
 -6.131754e+00 -9.327169e+00 -6.401791e+00 -1.179062e+01 -9.171387e+00 -7.800060e+00 -9.543179e+00 -7.324902e-01 -8.217090e-01 -3.575251e-01 -4.126105e+00 -3.383557e+00 5.865308e+01 1.569319e+00 -8.519338e-01 1.802100e-01 -9.831140e-01 -6.296670e-01 -2.197989e-01 -1.058904e+00 6.209788e-02 2.407055e-01 1.797662e-01 -4.981847e-01 -5.223120e-01 1.113053e+00 -4.786341e-01 4.312938e-01 5.036087e-02 3.545349e-01 3.121881e-01 2.915335e-01 4.193125e-01 -2.020210e-01 -3.240034e-01 -6.368207e-02 1.456124e-01 6.774155e-02 -6.610835e-01
<VARIANCE> 39
 4.022227e+01 3.984715e+01 5.182190e+01 5.716365e+01 6.023236e+01 7.640564e+01 7.304372e+01 5.865092e+01 5.675709e+01 5.577421e+01 5.600829e+01 3.995692e+01 7.144313e+01 5.939690e+00 4.256855e+00 4.064146e+00 5.516798e+00 5.232618e+00 5.868384e+00 6.034726e+00 5.581270e+00 5.299780e+00 4.322423e+00 4.745944e+00 3.587648e+00 6.041929e+00 7.974153e-01 6.522798e-01 5.421802e-01 8.626889e-01 8.139001e-01 9.777929e-01 1.018833e+00 9.153481e-01 8.944733e-01 7.627949e-01 7.333019e-01 6.153928e-01 1.179454e+00
<GCONST> 1.422117e+02
<STATE> 3
<MEAN> 39
 -3.670445e+00 -1.123737e+01 -6.021582e+00 -1.393764e+01 -1.009319e+01 -7.724654e+00 -1.139129e+01 -5.591605e-01 -8.463329e-01 7.200110e-02 -4.786422e+00 -4.389291e+00 6.167585e+01 2.736883e-01 3.790339e-01 2.537270e-01 8.824836e-02 1.391999e-01 2.342705e-01 2.449608e-02 -4.110813e-01 -4.263762e-01 -5.207669e-02 2.998874e-02 -1.323915e-01 -5.071616e-01 -7.786613e-01 7.867857e-01 3.104223e-02 6.697916e-01 4.470240e-01 2.634334e-01 6.398004e-01 -3.047346e-01 -3.798661e-01 -1.722630e-01 2.317250e-01 1.907966e-01 -9.549329e-01
<VARIANCE> 39
 1.791137e+01 3.678033e+01 5.836931e+01 5.843844e+01 5.761755e+01 8.549689e+01 7.264297e+01 6.277895e+01 6.628299e+01 6.306297e+01 6.707742e+01 4.761265e+01 3.398703e+01 3.358504e+00 3.867621e+00 3.143725e+00 4.730007e+00 4.230008e+00 4.492270e+00 4.498439e+00 4.786851e+00 4.177835e+00 3.707083e+00 3.671832e+00 3.101416e+00 4.287124e+00 7.151047e-01 5.911825e-01 5.796261e-01 8.225304e-01 8.219262e-01 1.089813e+00 1.113257e+00 9.910350e-01 9.448285e-01 8.509799e-01 8.407887e-01 6.992565e-01 7.066637e-01
<GCONST> 1.383586e+02
<STATE> 4
<MEAN> 39
 -4.169932e+00 -9.300238e+00 -6.102721e+00 -1.298692e+01 -9.084223e+00 -6.583685e+00 -9.889452e+00 -2.134491e+00 -1.975591e+00 -5.936927e-01 -4.087672e+00 -4.079051e+00 5.966940e+01 -9.321312e-01 1.704507e+00 3.635302e-01 1.242397e+00 7.440323e-01 3.555499e-01 8.360003e-01 -7.958474e-01 -9.406967e-01 -3.670369e-01 3.138533e-01 2.346142e-01 -1.900619e+00 -5.890206e-01 3.188717e-01 6.751307e-03 3.498155e-01 2.303356e-01 1.434350e-01 3.461306e-01 -2.469905e-02 -1.092824e-01 -4.909117e-02 5.237769e-02 9.442487e-02 -4.667983e-01
<VARIANCE> 39
 2.278929e+01 4.559394e+01 6.808804e+01 6.287879e+01 6.573525e+01 8.239007e+01 6.544389e+01 6.405877e+01 6.682568e+01 6.545090e+01 6.353186e+01 4.466549e+01 4.696059e+01 4.215499e+00 3.995368e+00 3.141942e+00 5.462095e+00 4.397095e+00 4.888160e+00 5.001464e+00 4.926063e+00 4.669673e+00 4.053674e+00 3.787719e+00 3.369303e+00 5.699728e+00 6.011380e-01 6.104301e-01 5.374184e-01 7.238967e-01 7.045932e-01 8.527656e-01 8.082741e-01 9.145242e-01 7.864359e-01 7.604336e-01 6.953524e-01 5.599884e-01 6.551257e-01
<GCONST> 1.386346e+02
<TRANSP> 5
 0.000000e+00 1.000000e+00 0.000000e+00 0.000000e+00 0.000000e+00
 0.000000e+00 3.132773e-01 6.867228e-01 0.000000e+00 0.000000e+00
 0.000000e+00 0.000000e+00 3.166936e-01 6.833063e-01 0.000000e+00
 0.000000e+00 0.000000e+00 0.000000e+00 4.578088e-01 5.421912e-01
 0.000000e+00 0.000000e+00 0.000000e+00 0.000000e+00 0.000000e+00
<ENDHMM>
~h "aw"
<BEGINHMM>
<NUMSTATES> 5
<STATE> 2
<MEAN> 39
 -4.742612e+00 -1.696605e+01 -9.385465e+00 -1.297339e+01 -9.247120e+00 -5.068099e+00 -3.098617e+00 2.380341e+00 -2.082497e+00 -3.892047e+00 -6.598944e+00 -4.426651e+00 6.512165e+01 5.642446e-01 -1.272054e+00 -8.690861e-01 -3.050606e-01 6.989741e-01 7.019664e-01 -6.028252e-02 8.041978e-03 4.490765e-01 -4.599527e-01 -5.246248e-01 -3.412977e-01 1.051942e+00 -2.480036e-01 3.617344e-01 4.530626e-02 1.376629e-01 2.579507e-01 1.350333e-01 -7.065776e-02 -2.897992e-01 -4.713525e-02 1.161569e-01 1.803253e-01 9.787709e-02 -4.106411e-01
<VARIANCE> 39
 2.017464e+01 3.502110e+01 5.119431e+01 4.576458e+01 6.623237e+01 6.095295e+01 7.661629e+01 6.955680e+01 7.555258e+01 5.091594e+01 4.614948e+01 4.090796e+01 3.254626e+01 1.639282e+00 2.287193e+00 1.962781e+00 2.413322e+00 2.940173e+00 2.877443e+00 3.764356e+00 3.470207e+00 2.721080e+00 2.355297e+00 2.314150e+00 2.383638e+00 1.921255e+00 3.898824e-01 3.915516e-01 2.968481e-01 3.997858e-01 4.762099e-01 4.555479e-01 6.082144e-01 6.376070e-01 5.582338e-01 4.505738e-01 4.161081e-01 4.163877e-01 3.002507e-01
<GCONST> 1.231397e+02
<STATE> 3
<MEAN> 39
 -2.378110e+00 -1.855550e+01 -1.333683e+01 -1.443952e+01 -4.560191e+00 -1.097546e+00 -4.809775e+00 -1.274278e+00 5.932192e-01 -3.920763e+00 -6.621323e+00 -5.607629e+00 6.604230e+01 2.570778e-01 2.404881e-01 -4.606869e-01 -4.429464e-01 4.138132e-01 6.335319e-01 -2.643013e-01 -5.336128e-01 1.152957e-01 2.620150e-01 3.195360e-01 -1.485048e-01 -2.361676e-01 1.073521e-02 2.250032e-01 6.187049e-02 -4.740920e-02 -1.717996e-01 -7.272135e-02 -3.353640e-03 7.443356e-03 -9.016471e-02 8.430739e-02 1.273038e-01 6.934526e-02 -1.579261e-01
<VARIANCE> 39
 1.227498e+01 2.610435e+01 3.927733e+01 4.808286e+01 5.473518e+01 7.428130e+01 8.129080e+01 7.109296e+01 6.928394e+01 5.347533e+01 4.639466e+01 4.704282e+01 1.942940e+01 2.769786e-01 7.535099e-01 7.711661e-01 1.253226e+00 1.440656e+00 1.494888e+00 1.672225e+00 1.753837e+00 1.531370e+00 1.441562e+00 1.458425e+00 1.276656e+00 3.044460e-01 5.045638e-02 1.108054e-01 1.231841e-01 1.689356e-01 2.075783e-01 2.294077e-01 2.681266e-01 2.666221e-01 2.531959e-01 2.151024e-01 2.249588e-01 2.197061e-01 5.462219e-02
<GCONST> 9.773516e+01
<STATE> 4
<MEAN> 39
 1.170176e-01 -1.251403e+01 -1.554919e+01 -1.898973e+01 -6.239529e+00 2.245049e+00 -5.385740e+00 -3.576174e+00 -1.092805e+00 -9.256808e-01 -1.624935e+00 -4.667941e+00 6.145605e+01 2.017278e-03 1.017427e+00 3.880849e-01 3.031278e-01 -6.974164e-01 -7.165776e-01 -2.696777e-01 7.643289e-02 -3.875058e-01 3.410855e-01 2.882804e-01 3.173292e-01 -9.494556e-01 -2.116120e-01 1.066945e-01 2.978401e-01 4.753271e-01 -2.906908e-02 -3.636063e-01 -3.616446e-02 -4.771184e-04 -4.314696e-02 -3.798802e-02 -1.685591e-01 3.516724e-02 -2.013124e-01
<VARIANCE> 39
 1.312608e+01 3.880216e+01 3.612732e+01 7.195474e+01 6.333519e+01 8.175621e+01 8.964080e+01 6.252519e+01 6.535108e+01 6.144685e+01 6.682211e+01 4.884883e+01 3.173703e+01 6.582848e-01 1.724991e+00 1.713136e+00 3.383754e+00 2.950361e+00 3.229937e+00 3.310562e+00 3.094031e+00 2.978812e+00 2.688565e+00 2.772842e+00 2.577607e+00 1.023652e+00 1.490519e-01 2.674192e-01 2.705745e-01 4.287706e-01 4.889045e-01 4.321047e-01 5.293813e-01 5.106641e-01 5.135015e-01 4.913945e-01 4.973990e-01 4.418750e-01 2.107138e-01
<GCONST> 1.206506e+02
<TRANSP> 5
 0.000000e+00 1.000000e+00 0.000000e+00 0.000000e+00 0.000000e+00
 0.000000e+00 6.897978e-01 3.102021e-01 0.000000e+00 0.000000e+00
 0.000000e+00 0.000000e+00 8.647713e-01 1.352288e-01 0.000000e+00
 0.000000e+00 0.000000e+00 0.000000e+00 7.959589e-01 2.040411e-01
 0.000000e+00 0.000000e+00 0.000000e+00 0.000000e+00 0.000000e+00
<ENDHMM>
~h "ay"
<BEGINHMM>
<NUMSTATES> 5
<STATE> 2
<MEAN> 39
 -2.062441e+00 -1.482894e+01 -1.423649e+01 -1.708218e+01 -5.145181e+00 6.377567e-01 -5.120806e+00 -2.496806e+00 1.072624e-01 -5.324461e-01 -4.113281e+00 -6.951440e+00 6.339360e+01 5.325245e-01 -1.839395e+00 -4.151917e-01 -2.114024e-01 4.090969e-01 3.815181e-01 -4.850237e-02 3.605113e-01 8.066664e-01 -4.092335e-01 -8.660550e-01 -7.319521e-01 1.377823e+00 -5.023790e-01 3.794548e-01 4.508832e-01 5.096213e-01 -2.246264e-02 -3.862898e-01 9.313856e-02 8.268709e-02 -1.991016e-01 -1.530652e-01 5.719960e-02 3.861374e-01 -4.195535e-01
<VARIANCE> 39
 1.834645e+01 3.264973e+01 3.689803e+01 5.375912e+01 5.688195e+01 7.917730e+01 6.640561e+01 6.330318e+01 6.066382e+01 6.110643e+01 6.700729e+01 4.389719e+01 3.573034e+01 2.532462e+00 2.159084e+00 2.839168e+00 4.211288e+00 3.630040e+00 4.705723e+00 3.674888e+00 4.340478e+00 3.435736e+00 3.008587e+00 3.181490e+00 3.108987e+00 2.169512e+00 5.076661e-01 3.743697e-01 3.682230e-01 6.025668e-01 6.604571e-01 6.827259e-01 6.644090e-01 7.107398e-01 6.445327e-01 6.124531e-01 6.807879e-01 5.522779e-01 3.225554e-01
<GCONST> 1.296396e+02
<STATE> 3
<MEAN> 39
 -1.688073e+00 -1.816483e+01 -1.401473e+01 -1.590880e+01 -4.089454e+00 1.049584e+00 -5.437941e+00 -1.715609e+00 1.718882e+00 -2.030024e+00 -5.681763e+00 -7.821229e+00 6.565298e+01 -2.554628e-01 -5.147321e-01 6.900598e-01 8.288109e-01 -3.995605e-01 -1.063311e+00 1.153800e-01 9.837793e-01 1.820236e-01 -6.544639e-01 -5.241907e-01 3.375336e-01 2.151306e-01 -6.688042e-02 3.488270e-01 2.759154e-01 5.042643e-02 -3.629077e-01 -3.065404e-01 7.898968e-02 1.388849e-01 -2.863503e-01 -1.696035e-02 2.471926e-01 2.724645e-01 -2.027347e-01
<VARIANCE> 39
 1.056907e+01 2.951392e+01 3.160650e+01 4.131582e+01 5.115770e+01 7.449961e+01 6.689033e+01 6.596915e+01 6.054264e+01 5.179156e+01 5.413659e+01 4.642385e+01 2.057164e+01 3.313826e-01 8.105918e-01 1.441163e+00 1.557044e+00 2.203683e+00 2.939317e+00 2.056895e+00 2.906490e+00 1.862355e+00 1.712089e+00 1.764116e+00 1.915002e+00 3.171378e-01 6.999297e-02 1.852160e-01 1.648457e-01 2.394470e-01 2.870052e-01 2.876843e-01 3.401236e-01 3.978802e-01 4.042904e-01 3.241451e-01 3.991285e-01 3.462118e-01 8.474103e-02
<GCONST> 1.059636e+02
<STATE> 4
<MEAN> 39
 -3.721385e+00 -1.718588e+01 -8.867350e+00 -1.289523e+01 -9.475944e+00 -6.765197e+00 -3.452658e+00 2.977899e+00 -5.986874e-01 -4.795598e+00 -6.243847e+00 -3.933492e+00 6.506495e+01 -2.180209e-01 7.175657e-01 1.015279e+00 2.134302e-01 -1.037559e+00 -8.904918e-01 1.012091e-01 2.410510e-01 -5.710303e-01 1.212173e-01 5.002303e-01 4.030308e-01 -4.473537e-01 -1.499716e-02 2.724731e-01 -1.501249e-02 2.635712e-02 1.168647e-01 1.239372e-01 -1.114959e-01 -3.242467e-01 -9.068673e-02 1.588752e-01 9.496673e-02 -6.093950e-02 -2.463596e-01
<VARIANCE> 39
 1.237835e+01 3.283495e+01 5.456830e+01 4.212658e+01 7.110274e+01 6.476062e+01 7.233434e+01 6.952615e+01 8.094179e+01 4.967605e+01 4.620274e+01 4.227433e+01 2.353935e+01 3.688667e-01 1.136644e+00 1.783949e+00 1.547936e+00 2.590478e+00 2.170725e+00 2.645432e+00 2.740142e+00 2.352336e+00 2.183178e+00 1.974503e+00 1.949188e+00 5.111908e-01 8.138084e-02 1.791587e-01 1.851789e-01 2.471417e-01 3.690216e-01 2.986443e-01 3.769524e-01 4.549966e-01 3.784245e-01 3.502263e-01 3.248695e-01 2.780215e-01 1.288711e-01
<GCONST> 1.098298e+02
<TRANSP> 5
 0.000000e+00 1.000000e+00 0.000000e+00 0.000000e+00 0.000000e+00
 0.000000e+00 5.776980e-01 4.223020e-01 0.000000e+00 0.000000e+00
 0.000000e+00 0.000000e+00 7.286884e-01 2.713116e-01 0.000000e+00
 0.000000e+00 0.000000e+00 0.000000e+00 8.493116e-01 1.506884e-01
 0.000000e+00 0.000000e+00 0.000000e+00 0.000000e+00 0.000000e+00
<ENDHMM>
~h "ch"
<BEGINHMM>
<NUMSTATES> 5
<STATE> 2
<MEAN> 39
 -1.857900e+01 -3.957550e+00 -2.714124e-01 -5.389179e+00 -4.312264e+00 -2.811759e+00 -5.425080e+00 -1.726828e+00 -3.023342e+00 -2.632417e+00 -2.323028e+00 -1.349259e+00 4.439660e+01 -3.045758e+00 -5.317721e-01 -2.836469e-01 -6.515340e-01 1.105134e+00 2.014005e+00 9.195251e-01 3.512520e-01 9.526723e-01 6.343750e-01 7.164629e-01 4.153872e-01 -2.387214e-01 1.139033e-02 -4.168837e-01 6.240385e-02 -6.375383e-01 -4.580138e-01 -2.024728e-01 -1.059148e-01 1.772973e-01 7.613356e-02 7.555625e-02 1.017911e-01 3.403951e-02 1.515936e+00
<VARIANCE> 39
 5.045058e+01 5.293299e+01 3.416522e+01 5.520647e+01 4.128285e+01 4.634058e+01 3.106396e+01 3.353619e+01 3.449551e+01 2.955502e+01 2.388150e+01 1.920088e+01 8.990213e+01 5.407133e+00 7.250582e+00 5.650656e+00 8.479437e+00 6.750942e+00 5.203825e+00 4.775548e+00 4.882878e+00 4.402249e+00 3.877324e+00 3.404857e+00 2.723016e+00 2.077194e+01 8.279768e-01 1.546198e+00 9.272813e-01 1.406564e+00 1.056173e+00 1.079624e+00 8.700096e-01 9.224410e-01 7.820864e-01 7.694615e-01 6.729686e-01 4.862301e-01 2.445690e+00
<GCONST> 1.412062e+02
<STATE> 3
<MEAN> 39
 -2.974930e+01 -5.500933e+00 1.581782e+00 -1.129322e+01 -4.102702e+00 1.278607e+00 -2.868847e+00 2.613710e-01 -1.225930e-02 -9.776303e-01 4.193638e-01 1.239979e-01 5.576959e+01 -1.070476e+00 9.307835e-02 5.532915e-01 -2.352862e-01 -7.421333e-01 -1.050855e-01 5.564337e-01 6.600256e-02 1.335826e-01 8.018999e-02 1.123971e-01 9.052674e-02 2.069352e+00 7.831153e-01 8.244050e-02 -8.064236e-02 4.498216e-01 -1.905515e-01 -4.637949e-01 -6.395167e-02 -8.407598e-02 -2.516572e-01 -1.017572e-01 -2.117219e-01 -1.061371e-01 -4.922975e-01
<VARIANCE> 39
 2.575889e+01 3.365256e+01 3.294556e+01 2.860861e+01 3.514437e+01 2.157977e+01 2.188703e+01 2.238629e+01 1.882911e+01 1.565851e+01 1.307163e+01 1.088069e+01 5.513030e+01 4.469355e+00 3.027230e+00 2.977820e+00 3.427418e+00 2.477237e+00 2.488715e+00 2.091698e+00 2.070942e+00 1.804730e+00 1.728551e+00 1.462734e+00 1.274621e+00 7.284052e+00 7.550173e-01 6.749341e-01 6.817227e-01 6.720175e-01 5.246164e-01 5.108726e-01 4.718919e-01 4.320254e-01 3.910836e-01 3.866060e-01 3.091014e-01 2.746530e-01 1.326367e+00
<GCONST> 1.162940e+02
<STATE> 4
<MEAN> 39
 -2.519089e+01 -7.518461e+00 1.329106e+00 -8.703602e+00 -8.996832e+00 -3.657309e+00 -1.406736e+00 -2.433269e-01 -1.265807e+00 -1.428514e+00 -1.110618e+00 -3.945050e-01 5.925976e+01 3.031913e+00 -4.381578e-01 -5.039784e-01 4.360856e-01 -6.304322e-01 -1.461034e+00 -8.170029e-01 1.552106e-02 -5.444027e-01 -4.204447e-01 -4.631908e-01 -2.530866e-01 -3.755163e-01 6.473916e-01 -9.715664e-02 -1.529584e-01 -1.816014e-01 8.863071e-02 -3.169104e-05 -4.672928e-01 1.805023e-02 -4.698613e-02 -5.778660e-02 -3.606122e-03 -4.779675e-02 -1.923290e-01
<VARIANCE> 39
 5.575265e+01 2.314327e+01 2.685460e+01 3.140782e+01 3.753559e+01 3.369342e+01 3.026066e+01 2.586337e+01 2.384881e+01 2.084524e+01 1.925799e+01 1.557521e+01 2.839869e+01 6.258836e+00 1.977344e+00 2.805711e+00 2.651126e+00 3.733981e+00 3.810134e+00 4.694333e+00 3.195109e+00 2.839163e+00 2.629200e+00 2.474394e+00 1.858280e+00 2.938248e+00 8.424296e-01 3.512986e-01 4.624418e-01 4.875604e-01 5.758678e-01 6.642171e-01 6.979902e-01 5.844054e-01 5.268192e-01 5.078832e-01 4.412626e-01 3.596060e-01 6.644689e-01
<GCONST> 1.210077e+02
<TRANSP> 5
 0.000000e+00 1.000000e+00 0.000000e+00 0.000000e+00 0.000000e+00
 0.000000e+00 7.188919e-01 2.811081e-01 0.000000e+00 0.000000e+00
 0.000000e+00 0.000000e+00 7.707914e-01 2.292086e-01 0.000000e+00
 0.000000e+00 0.000000e+00 0.000000e+00 7.924067e-01 2.075933e-01
 0.000000e+00 0.000000e+00 0.000000e+00 0.000000e+00 0.000000e+00
<ENDHMM>
~h "dh"
<BEGINHMM>
<NUMSTATES> 5
<STATE> 2
<MEAN> 39
 -1.710402e+01 -2.119242e+00 -6.338110e+00 -3.215580e+00 -3.111366e+00 -2.885509e+00 -2.690218e+00 -1.347233e+00 -1.510544e+00 -5.996896e-01 -1.790705e+00 -1.042200e+00 4.099030e+01 -1.225886e-01 -8.337466e-02 -8.122023e-02 -1.458452e-01 -1.307158e-01 -7.526822e-03 7.312237e-02 1.452054e-01 1.599879e-01 -1.040330e-01 9.862050e-03 4.728082e-02 7.105862e-01 4.811514e-01 -2.848006e-01 -1.992035e-02 -3.429807e-01 -4.041454e-01 -4.060940e-01 -2.159260e-01 1.166296e-02 3.285958e-02 -2.700202e-02 -6.154200e-02 -2.544880e-02 9.254352e-01
<VARIANCE> 39
 4.043571e+01 2.736829e+01 2.318599e+01 2.574227e+01 2.296988e+01 2.892912e+01 3.109933e+01 3.243270e+01 2.761756e+01 2.232803e+01 2.417190e+01 2.224506e+01 7.353513e+01 3.266019e+00 2.526347e+00 2.868415e+00 2.978356e+00 2.566056e+00 3.111084e+00 2.782175e+00 2.903187e+00 2.732077e+00 2.348503e+00 2.224733e+00 2.011041e+00 8.174282e+00 5.902763e-01 5.370240e-01 5.485807e-01 6.395042e-01 5.684879e-01 6.183032e-01 6.052954e-01 5.971671e-01 5.828646e-01 5.167589e-01 4.733930e-01 4.219928e-01 1.229989e+00
<GCONST> 1.225196e+02
<STATE> 3
<MEAN> 39
 -1.500156e+01 -2.558102e+00 -7.045021e+00 -5.146313e+00 -5.113722e+00 -5.259185e+00 -3.625217e+00 -2.261589e+00 -1.467804e+00 -1.309638e+00 -2.594187e+00 -1.516291e+00 4.923108e+01 2.004533e+00 -9.132959e-01 -1.275890e-01 -1.378186e+00 -1.708115e+00 -1.783907e+00 -1.058778e+00 1.498086e-01 4.216152e-01 -2.026165e-01 -3.591301e-01 -1.537155e-01 4.138232e+00 6.739367e-01 -3.972104e-01 2.978287e-01 -3.771958e-01 -5.014107e-01 -3.443700e-01 -4.402854e-01 8.884808e-02 -2.977537e-03 1.495071e-01 -8.827813e-02 -1.063150e-01 3.779821e-01
<VARIANCE> 39
 3.992975e+01 3.031358e+01 2.669759e+01 2.975491e+01 2.642810e+01 3.017251e+01 3.916796e+01 3.351522e+01 2.759571e+01 2.436458e+01 2.448241e+01 2.470889e+01 6.980261e+01 4.923660e+00 2.902649e+00 3.482628e+00 3.356460e+00 3.614438e+00 4.056747e+00 4.507565e+00 4.257017e+00 4.057816e+00 3.341722e+00 3.087949e+00 3.185116e+00 6.520378e+00 6.518046e-01 7.218324e-01 7.524855e-01 7.632625e-01 6.496240e-01 7.772243e-01 8.445696e-01 7.367397e-01 7.320181e-01 6.072167e-01 6.646719e-01 5.578479e-01 1.273561e+00
<GCONST> 1.299749e+02
<STATE> 4
<MEAN> 39
 -7.907172e+00 -5.534217e+00 -6.127628e+00 -8.747883e+00 -1.105152e+01 -1.088788e+01 -7.646396e+00 -1.925758e+00 -3.616597e-01 -1.303202e+00 -3.792808e+00 -2.592717e+00 5.854992e+01 2.237861e+00 -1.785531e+00 6.365684e-01 -1.638996e+00 -1.990418e+00 -1.504936e+00 -1.300522e+00 6.607959e-01 2.657730e-01 1.153286e-01 -4.022787e-01 -3.059717e-01 3.119696e+00 -3.857690e-01 -3.744600e-02 1.810436e-01 1.822800e-01 3.624156e-01 5.352108e-01 2.606943e-01 1.023170e-01 -2.238789e-01 3.965349e-02 7.241227e-02 5.212228e-02 -8.761873e-01
<VARIANCE> 39
 2.987308e+01 3.297700e+01 3.462754e+01 3.780618e+01 4.425274e+01 4.383329e+01 5.748871e+01 4.294567e+01 4.461659e+01 3.889733e+01 3.380673e+01 3.412281e+01 3.753679e+01 3.766052e+00 3.270469e+00 3.948258e+00 4.116496e+00 4.316468e+00 5.206088e+00 6.110068e+00 4.780176e+00 4.888908e+00 3.836715e+00 4.176255e+00 3.498453e+00 4.822505e+00 6.545563e-01 5.084348e-01 5.104109e-01 6.009745e-01 6.610367e-01 6.383812e-01 7.629903e-01 6.445766e-01 6.125292e-01 5.825896e-01 5.545902e-01 5.103759e-01 7.376349e-01
<GCONST> 1.317852e+02
<TRANSP> 5
 0.000000e+00 1.000000e+00 0.000000e+00 0.000000e+00 0.000000e+00
 0.000000e+00 6.598647e-01 3.401353e-01 0.000000e+00 0.000000e+00
 0.000000e+00 0.000000e+00 4.004600e-01 5.995399e-01 0.000000e+00
 0.000000e+00 0.000000e+00 0.000000e+00 4.698752e-01 5.301248e-01
 0.000000e+00 0.000000e+00 0.000000e+00 0.000000e+00 0.000000e+00
<ENDHMM>
~h "eh"
<BEGINHMM>
<NUMSTATES> 5
<STATE> 2
<MEAN> 39
 -5.612012e+00 -1.164750e+01 -2.984101e+00 -1.244441e+01 -1.429678e+01 -1.058515e+01 -7.886851e+00 2.431542e+00 -1.637774e+00 -1.382421e+00 -3.984251e+00 -2.707607e+00 6.254625e+01 1.412115e+00 -1.875303e+00 2.150426e-01 -1.141201e+00 -1.384091e+00 -5.162196e-01 -4.270711e-01 1.427555e+00 4.038919e-01 -2.438861e-01 -4.708893e-01 -2.047587e-01 1.793516e+00 -5.345424e-01 2.889006e-01 -2.073716e-01 1.708264e-01 4.928268e-01 4.233013e-01 3.570750e-01 -1.508700e-01 -1.374417e-01 3.709287e-03 1.145386e-01 5.005107e-02 -4.354327e-01
<VARIANCE> 39
 2.391653e+01 3.790306e+01 5.691369e+01 5.119556e+01 5.463900e+01 5.621823e+01 7.915755e+01 5.682345e+01 7.146976e+01 5.047208e+01 5.027624e+01 3.727872e+01 4.113092e+01 4.859559e+00 3.436066e+00 3.200275e+00 3.871294e+00 4.602469e+00 4.618152e+00 6.218657e+00 5.018721e+00 4.999304e+00 3.970752e+00 3.749990e+00 3.181050e+00 3.386032e+00 6.960781e-01 4.810023e-01 4.112937e-01 5.632340e-01 6.841843e-01 7.298053e-01 8.757967e-01 7.448487e-01 7.873678e-01 6.083823e-01 6.012071e-01 4.959834e-01 6.059008e-01
<GCONST> 1.347396e+02
<STATE> 3
<MEAN> 39
 -4.758596e+00 -1.547835e+01 -3.162897e+00 -1.442643e+01 -1.541276e+01 -9.791482e+00 -6.764560e+00 6.092321e+00 -1.442221e+00 -2.341169e+00 -4.894709e+00 -2.828892e+00 6.607130e+01 1.484768e-01 -3.774443e-01 -2.890015e-01 -8.773419e-02 1.748290e-01 1.656417e-01 1.188319e-01 3.606413e-01 5.499950e-02 -1.966545e-01 -1.954070e-01 -1.021628e-01 1.662071e-01 -1.805306e-01 5.276546e-01 -8.718474e-02 3.206709e-01 3.686530e-01 8.013071e-02 -2.698947e-02 -4.867194e-01 -1.606670e-01 6.556098e-02 1.204918e-01 1.460692e-02 -5.465349e-01
<VARIANCE> 39
 1.362481e+01 2.727565e+01 4.608424e+01 4.603809e+01 4.962185e+01 5.508779e+01 8.719904e+01 5.643805e+01 7.929919e+01 5.207286e+01 5.303105e+01 3.972506e+01 2.003717e+01 7.982777e-01 1.657227e+00 2.018798e+00 1.722337e+00 2.299161e+00 2.274432e+00 2.905216e+00 2.714807e+00 2.578630e+00 2.125396e+00 1.892310e+00 1.821270e+00 1.178423e+00 2.893013e-01 2.972272e-01 2.689950e-01 3.590609e-01 4.320455e-01 4.816410e-01 6.185238e-01 5.443436e-01 5.134020e-01 4.184124e-01 4.046268e-01 3.561635e-01 2.403821e-01
<GCONST> 1.166444e+02
<STATE> 4
<MEAN> 39
 -4.052251e+00 -1.382717e+01 -5.603690e+00 -1.307580e+01 -1.291753e+01 -9.822757e+00 -7.032682e+00 4.126369e+00 -1.354355e+00 -2.622651e+00 -5.736163e+00 -3.175940e+00 6.379918e+01 -3.341247e-01 1.498627e+00 -1.066162e-01 9.396410e-01 9.857815e-01 1.963186e-01 -1.323641e-01 -1.255082e+00 -5.018648e-01 3.491790e-02 2.930691e-01 2.637200e-02 -1.661848e+00 -3.983450e-01 4.979501e-01 7.673616e-02 2.769262e-01 2.855121e-01 2.112019e-01 1.677160e-01 -3.712715e-01 -1.771838e-01 5.219962e-02 1.434062e-01 4.871422e-02 -5.694256e-01
<VARIANCE> 39
 1.409031e+01 3.244828e+01 5.096792e+01 4.648019e+01 5.674591e+01 6.399088e+01 8.789254e+01 6.046152e+01 8.291898e+01 5.985955e+01 5.737946e+01 4.506920e+01 2.684639e+01 2.204116e+00 3.138823e+00 2.804255e+00 3.180931e+00 3.404246e+00 3.411615e+00 4.206080e+00 4.247816e+00 3.797501e+00 3.093003e+00 3.004103e+00 2.694880e+00 3.131356e+00 4.190711e-01 3.855642e-01 3.703261e-01 4.551446e-01 5.590303e-01 6.171224e-01 7.181993e-01 7.261879e-01 6.911149e-01 5.850340e-01 5.588223e-01 4.592915e-01 4.113283e-01
<GCONST> 1.286874e+02
<TRANSP> 5
 0.000000e+00 1.000000e+00 0.000000e+00 0.000000e+00 0.000000e+00
 0.000000e+00 4.359799e-01 5.640202e-01 0.000000e+00 0.000000e+00
 0.000000e+00 0.000000e+00 6.858450e-01 3.141551e-01 0.000000e+00
 0.000000e+00 0.000000e+00 0.000000e+00 6.503477e-01 3.496523e-01
 0.000000e+00 0.000000e+00 0.000000e+00 0.000000e+00 0.000000e+00
<ENDHMM>
~h "er"
<BEGINHMM>
<NUMSTATES> 5
<STATE> 2
<MEAN> 39
 2.067594e+00 -1.338441e+01 -1.397938e+01 -7.344235e+00 -6.533544e+00 -1.230988e+01 -1.692415e+01 2.824400e+00 5.260363e-01 -2.531956e+00 -1.792686e+00 -8.715531e-01 5.944706e+01 1.389216e+00 -5.041621e-01 -1.386706e+00 -4.832611e-02 7.734360e-01 -7.319298e-01 -1.934281e+00 9.011356e-01 7.701008e-01 -1.751413e-01 -8.523343e-02 2.164614e-01 2.690553e-01 -6.270924e-01 2.596795e-01 2.925660e-01 3.483010e-02 4.993263e-02 2.873856e-01 5.150626e-01 -1.875108e-01 -1.002307e-01 5.906023e-02 -1.046190e-02 -4.795960e-02 -2.258672e-01
<VARIANCE> 39
 1.624253e+01 2.903746e+01 7.278541e+01 4.476405e+01 6.662337e+01 7.754343e+01 9.401244e+01 8.131347e+01 8.428545e+01 4.722935e+01 4.555465e+01 3.480513e+01 2.034859e+01 3.281385e+00 1.953696e+00 2.722934e+00 2.462394e+00 3.272604e+00 3.520452e+00 5.301328e+00 4.282486e+00 3.520720e+00 2.985122e+00 2.530178e+00 2.200022e+00 1.128973e+00 5.285594e-01 3.283084e-01 4.553743e-01 4.112321e-01 5.431060e-01 5.591332e-01 8.007815e-01 6.578621e-01 5.551089e-01 4.810871e-01 4.360259e-01 3.855065e-01 2.064191e-01
<GCONST> 1.256620e+02
<STATE> 3
<MEAN> 39
 3.125580e+00 -1.297497e+01 -1.692388e+01 -6.789706e+00 -3.678728e+00 -1.335996e+01 -1.925854e+01 4.121246e+00 2.511502e+00 -2.426798e+00 -2.678180e+00 -5.855567e-01 5.846961e+01 -2.351721e-01 1.786761e-01 3.648102e-01 2.160887e-01 -1.727269e-01 -3.854363e-02 4.917701e-01 3.698671e-02 -2.578005e-01 -2.264063e-01 -5.150561e-02 9.249732e-02 -3.126678e-01 -3.274726e-01 1.492265e-01 3.958371e-01 1.973307e-02 -2.289427e-01 2.267362e-01 5.567254e-01 -2.181221e-01 -2.698700e-01 -2.373653e-02 4.610170e-02 -4.816679e-02 -1.507002e-01
<VARIANCE> 39
 1.117883e+01 2.822467e+01 6.511301e+01 4.558653e+01 6.617785e+01 8.715807e+01 1.075303e+02 9.016549e+01 9.210228e+01 5.116071e+01 4.066674e+01 3.291632e+01 2.216766e+01 5.534825e-01 1.117893e+00 1.870183e+00 1.466388e+00 2.310276e+00 2.028759e+00 3.055677e+00 2.790519e+00 2.102354e+00 1.979867e+00 1.701752e+00 1.386003e+00 6.756693e-01 2.391429e-01 2.424053e-01 2.445956e-01 2.581153e-01 3.470933e-01 4.074316e-01 6.303382e-01 5.452751e-01 4.053442e-01 3.605594e-01 3.030526e-01 2.685176e-01 1.541684e-01
<GCONST> 1.131956e+02
<STATE> 4
<MEAN> 39
 -1.751375e+00 -1.126419e+01 -1.128595e+01 -5.154283e+00 -6.319050e+00 -1.183642e+01 -1.124096e+01 3.366647e+00 -1.470552e+00 -4.103434e+00 -3.184693e+00 -4.979501e-01 5.453214e+01 -1.706237e+00 8.898908e-01 1.618232e+00 -1.323673e-01 -5.130504e-01 1.303808e+00 2.254003e+00 -1.110916e+00 -1.071473e+00 6.422849e-02 1.217369e-01 -2.988816e-01 -9.998761e-01 -3.767175e-01 2.454433e-01 7.509749e-02 -2.432860e-01 1.420100e-01 3.755061e-01 1.093375e-01 -2.685282e-01 4.494023e-03 1.904744e-01 1.225413e-02 -1.319935e-01 -1.018589e-01
<VARIANCE> 39
 3.281069e+01 3.351001e+01 7.362939e+01 6.182765e+01 7.190361e+01 8.744543e+01 1.041420e+02 7.172434e+01 8.474232e+01 5.636345e+01 4.907949e+01 3.664212e+01 5.717131e+01 3.008900e+00 3.196157e+00 3.456186e+00 3.742110e+00 4.666843e+00 4.511177e+00 6.776253e+00 5.242515e+00 4.663086e+00 3.996847e+00 3.456525e+00 2.771560e+00 2.807684e+00 6.318057e-01 4.940044e-01 5.148544e-01 5.764593e-01 6.732759e-01 8.020407e-01 9.653615e-01 7.983656e-01 6.985782e-01 6.699305e-01 5.940011e-01 4.817002e-01 4.647373e-01
<GCONST> 1.364055e+02
<TRANSP> 5
 0.000000e+00 1.000000e+00 0.000000e+00 0.000000e+00 0.000000e+00
 0.000000e+00 7.003459e-01 2.996541e-01 0.000000e+00 0.000000e+00
 0.000000e+00 0.000000e+00 7.641497e-01 2.358503e-01 0.000000e+00
 0.000000e+00 0.000000e+00 0.000000e+00 6.291441e-01 3.708559e-01
 0.000000e+00 0.000000e+00 0.000000e+00 0.000000e+00 0.000000e+00
<ENDHMM>
~h "ey"
<BEGINHMM>
<NUMSTATES> 5
<STATE> 2
<MEAN> 39
 -4.860955e+00 -1.428682e+01 -1.043045e+00 -1.313454e+01 -1.680364e+01 -1.144228e+01 -7.000401e+00 4.987327e+00 -1.586547e+00 -2.099870e+00 -3.112197e+00 -2.301680e+00 6.496538e+01 6.254303e-02 -7.051813e-01 1.429718e+00 -7.318113e-01 -1.798958e+00 -4.379036e-01 5.138090e-01 7.705706e-01 -8.271407e-01 -1.325297e-01 7.160403e-01 3.746087e-01 8.528714e-01 -3.606651e-01 4.846780e-01 -2.470490e-02 1.409719e-01 3.606714e-01 3.501749e-01 9.934998e-02 -5.695281e-01 -2.470358e-01 2.071278e-01 2.430600e-01 -4.229748e-02 -4.647581e-01
<VARIANCE> 39
 1.454353e+01 2.914448e+01 4.162379e+01 5.361650e+01 4.308630e+01 4.941367e+01 8.290817e+01 6.059742e+01 7.313219e+01 4.835019e+01 5.372751e+01 3.340367e+01 2.274234e+01 1.893788e+00 2.315134e+00 2.085121e+00 2.632401e+00 2.681889e+00 2.953971e+00 4.114302e+00 3.928671e+00 3.330972e+00 3.452027e+00 2.891455e+00 2.321993e+00 1.480783e+00 3.983150e-01 3.191873e-01 2.747854e-01 4.172134e-01 4.374794e-01 5.058673e-01 7.095331e-01 6.665556e-01 6.636371e-01 5.089434e-01 5.305277e-01 4.324811e-01 2.453480e-01
<GCONST> 1.227343e+02
<STATE> 3
<MEAN> 39
 -6.470518e+00 -1.260157e+01 4.325595e+00 -1.490335e+01 -2.117805e+01 -1.051871e+01 -5.458893e+00 2.420793e+00 -6.388535e+00 -7.949340e-01 -1.702929e-01 -1.955800e+00 6.472253e+01 -1.811072e-01 4.947884e-01 7.558076e-01 -2.335742e-03 -3.444574e-01 1.437304e-01 -1.057363e-01 -6.844668e-01 -6.862954e-01 1.814952e-01 2.856752e-01 -3.708827e-02 -3.470027e-01 1.954771e-02 1.476392e-01 -1.737699e-01 1.949057e-01 2.899008e-01 1.113742e-02 -1.136028e-01 -1.053840e-01 5.751641e-02 -6.561436e-02 -1.605483e-01 -4.263589e-02 -2.195121e-01
<VARIANCE> 39
 1.182879e+01 2.694229e+01 4.153688e+01 7.108722e+01 3.852689e+01 5.326859e+01 6.904285e+01 6.667849e+01 5.823895e+01 5.293268e+01 6.686684e+01 2.948548e+01 1.953650e+01 3.057401e-01 7.411817e-01 1.139563e+00 1.007994e+00 1.120994e+00 1.257357e+00 1.564243e+00 1.702198e+00 1.909513e+00 1.470911e+00 1.381497e+00 1.075469e+00 3.655847e-01 7.333378e-02 1.428063e-01 1.789659e-01 1.938582e-01 2.556390e-01 2.357964e-01 2.963941e-01 2.994923e-01 2.834312e-01 2.615681e-01 2.509423e-01 2.003924e-01 9.495780e-02
<GCONST> 9.938786e+01
<STATE> 4
<MEAN> 39
 -7.238308e+00 -8.469505e+00 6.852125e+00 -1.267835e+01 -2.052403e+01 -1.015167e+01 -7.079198e+00 -1.762359e+00 -9.789808e+00 -1.091604e+00 -6.616782e-01 -2.126334e+00 6.022903e+01 -3.974222e-01 1.253073e+00 -7.624310e-01 1.446745e+00 1.751409e+00 1.567536e-01 7.071576e-02 -6.275551e-01 8.159876e-02 -5.228334e-01 -5.410563e-01 -9.456401e-02 -1.789748e+00 -3.432234e-01 1.800094e-01 -6.029452e-01 2.472280e-01 7.266386e-01 2.169532e-01 2.313927e-01 7.500410e-02 4.200576e-01 1.248991e-03 -1.114470e-01 -1.165811e-02 -3.615769e-01
<VARIANCE> 39
 1.445459e+01 3.706817e+01 4.381749e+01 8.220563e+01 4.054686e+01 6.032742e+01 6.487969e+01 7.839624e+01 5.533543e+01 5.968596e+01 7.159773e+01 3.320326e+01 3.601982e+01 2.379033e+00 2.552311e+00 3.174794e+00 3.191564e+00 4.185040e+00 3.406997e+00 4.356723e+00 3.866564e+00 4.026322e+00 3.368131e+00 3.196154e+00 2.381799e+00 2.481055e+00 4.499729e-01 4.136017e-01 4.079162e-01 5.952466e-01 5.990506e-01 6.522794e-01 6.259560e-01 7.493323e-01 6.700165e-01 6.090755e-01 5.764711e-01 4.211480e-01 4.712534e-01
<GCONST> 1.292358e+02
<TRANSP> 5
 0.000000e+00 1.000000e+00 0.000000e+00 0.000000e+00 0.000000e+00
 0.000000e+00 6.394406e-01 3.605594e-01 0.000000e+00 0.000000e+00
 0.000000e+00 0.000000e+00 8.413144e-01 1.586856e-01 0.000000e+00
 0.000000e+00 0.000000e+00 0.000000e+00 6.647789e-01 3.352211e-01
 0.000000e+00 0.000000e+00 0.000000e+00 0.000000e+00 0.000000e+00
<ENDHMM>
~h "hh"
<BEGINHMM>
<NUMSTATES> 5
<STATE> 2
<MEAN> 39
 -1.355319e+01 -7.890054e+00 -2.948988e+00 -8.922832e+00 -6.796152e+00 -2.201763e+00 8.947411e-01 -5.256628e-01 -3.246793e+00 -1.926932e+00 -3.157665e+00 -4.234399e-01 5.262358e+01 1.609687e-01 -2.319103e-01 2.950303e-03 -2.036174e-01 -1.234172e-01 1.679525e-01 4.271353e-01 -6.961619e-02 -1.042829e-01 -1.875779e-01 -2.442075e-01 -1.313886e-01 4.114916e-01 3.193544e-01 8.759926e-02 -1.776333e-02 -8.294499e-02 -2.535229e-01 -2.480024e-01 -3.935147e-01 -1.116686e-01 -1.393432e-01 -6.439282e-02 -2.192555e-02 -1.296235e-01 1.549944e-01
<VARIANCE> 39
 3.085823e+01 3.883422e+01 6.526727e+01 4.547760e+01 6.070865e+01 4.860679e+01 4.805103e+01 5.615739e+01 4.471103e+01 3.664658e+01 3.594527e+01 2.495441e+01 7.015531e+01 2.144625e+00 2.115746e+00 2.378126e+00 2.331786e+00 2.975836e+00 2.885631e+00 3.493721e+00 3.105864e+00 2.985851e+00 2.555778e+00 2.446054e+00 1.944814e+00 1.680091e+00 3.171696e-01 3.882984e-01 3.723106e-01 4.607903e-01 5.311437e-01 5.369918e-01 6.257201e-01 5.542474e-01 5.503160e-01 5.207489e-01 4.758255e-01 3.785925e-01 2.415352e-01
<GCONST> 1.224186e+02
<STATE> 3
<MEAN> 39
 -1.045828e+01 -6.807558e+00 -1.044392e+00 -9.813003e+00 -9.643418e+00 -3.626605e+00 4.187887e-01 -1.802314e+00 -5.556990e+00 -3.297042e+00 -4.884077e+00 -2.101942e+00 5.698324e+01 1.528172e+00 -2.168810e-01 -3.580405e-01 -6.961803e-01 -1.108221e+00 -8.565297e-01 -8.503313e-01 -1.390409e-01 -4.273465e-01 -4.342105e-01 -3.151744e-01 -4.769171e-01 1.272962e+00 2.167689e-01 -2.788120e-01 -1.878283e-01 -2.392081e-01 -1.899524e-01 -1.942445e-01 -4.205958e-01 1.091246e-01 7.170974e-02 6.744750e-02 1.683417e-01 5.407894e-03 2.671669e-01
<VARIANCE> 39
 2.765122e+01 3.966247e+01 6.604736e+01 5.346681e+01 7.194438e+01 5.741996e+01 6.040355e+01 7.284966e+01 5.062775e+01 4.621083e+01 4.913194e+01 2.892855e+01 4.546732e+01 2.374124e+00 2.493268e+00 3.308406e+00 2.540607e+00 3.325383e+00 3.305039e+00 4.153769e+00 3.532025e+00 3.552967e+00 2.679923e+00 2.775833e+00 2.045074e+00 1.669737e+00 3.235228e-01 4.375096e-01 3.715845e-01 4.192084e-01 5.089359e-01 5.034360e-01 6.260582e-01 5.499862e-01 5.137274e-01 5.113870e-01 4.401954e-01 3.743860e-01 2.043407e-01
<GCONST> 1.249191e+02
<STATE> 4
<MEAN> 39
 -7.360358e+00 -8.615518e+00 -1.731474e+00 -1.395410e+01 -1.402211e+01 -6.884702e+00 -2.472275e+00 -2.371014e+00 -6.640119e+00 -3.913714e+00 -5.467681e+00 -2.714994e+00 6.165894e+01 9.347933e-01 -9.864742e-01 -6.687350e-01 -4.350965e-01 -5.120693e-01 -6.051154e-01 -6.138043e-01 5.356904e-01 1.513023e-01 -6.800146e-02 1.836377e-01 -8.705910e-02 9.762152e-01 -1.305330e-01 -8.899379e-02 -4.257580e-03 7.031225e-02 1.778877e-01 1.007189e-01 -2.199378e-02 7.208548e-02 1.429202e-01 7.152539e-02 7.612950e-02 5.073659e-02 -9.282915e-02
<VARIANCE> 39
 2.112689e+01 4.173761e+01 6.663509e+01 7.209067e+01 6.889804e+01 6.769012e+01 6.794072e+01 8.296407e+01 5.864590e+01 5.085993e+01 6.140713e+01 3.297948e+01 4.005323e+01 1.710064e+00 2.291347e+00 2.628389e+00 2.366922e+00 3.029287e+00 2.761756e+00 3.707168e+00 3.057097e+00 2.863760e+00 2.584321e+00 2.146629e+00 1.851194e+00 1.634629e+00 2.142930e-01 3.484028e-01 2.976357e-01 3.178569e-01 3.939382e-01 3.666025e-01 4.567339e-01 4.582771e-01 4.090433e-01 3.839719e-01 3.664933e-01 2.934167e-01 1.694405e-01
<GCONST> 1.206353e+02
<TRANSP> 5
 0.000000e+00 1.000000e+00 0.000000e+00 0.000000e+00 0.000000e+00
 0.000000e+00 6.705962e-01 3.294037e-01 0.000000e+00 0.000000e+00
 0.000000e+00 0.000000e+00 3.726102e-01 6.273897e-01 0.000000e+00
 0.000000e+00 0.000000e+00 0.000000e+00 5.904965e-01 4.095035e-01
 0.000000e+00 0.000000e+00 0.000000e+00 0.000000e+00 0.000000e+00
<ENDHMM>
~h "ih"
<BEGINHMM>
<NUMSTATES> 5
<STATE> 2
<MEAN> 39
 -6.973732e+00 -8.782130e+00 6.134607e-01 -1.069234e+01 -1.429647e+01 -1.199942e+01 -9.625374e+00 3.310172e-01 -4.706367e+00 -2.657536e+00 -2.708820e+00 -1.161730e+00 5.934383e+01 1.458621e+00 -7.355877e-01 9.208254e-01 -5.433238e-01 -1.504415e+00 -8.780369e-01 -8.062630e-01 4.404566e-01 -4.679518e-01 -1.841823e-01 -9.332488e-02 -4.234426e-02 9.152641e-01 -5.005014e-01 3.443290e-01 -3.020315e-01 2.479434e-01 5.007470e-01 4.366918e-01 3.976137e-01 -1.756214e-01 -4.518410e-02 8.793579e-02 4.279932e-02 -4.399303e-02 -5.377035e-01
<VARIANCE> 39
