~o
<STREAMINFO> 1 39
<VECSIZE> 39<NULLD><MFCC_D_A_0><DIAGC>
~h "b"
<BEGINHMM>
<NUMSTATES> 5
<STATE> 2
<MEAN> 39
 -8.278035e+00 -6.435431e+00 -5.311244e+00 -9.865871e+00 -7.747015e+00 -4.786158e+00 -6.268008e+00 -2.218659e+00 -3.999656e+00 -1.545488e+00 -2.250171e+00 -2.548550e+00 5.388230e+01 3.681963e-02 -3.736977e-02 -1.712551e-02 -5.410942e-02 -2.696893e-02 -1.946806e-02 -1.296235e-02 1.201456e-02 1.077464e-02 1.231943e-02 -5.242516e-03 2.737813e-03 9.341551e-02 -9.620193e-04 -9.588974e-03 -3.526526e-03 -6.875010e-03 -6.035458e-03 -5.121221e-03 -1.439499e-03 3.424277e-03 4.006914e-03 8.697637e-04 3.726120e-05 3.547576e-04 1.846692e-02
<VARIANCE> 39
 8.556220e+01 7.015209e+01 7.963994e+01 9.874693e+01 7.681399e+01 7.630386e+01 7.746658e+01 6.868095e+01 6.479505e+01 4.677448e+01 4.835782e+01 3.691988e+01 1.330271e+02 4.271137e+00 4.494167e+00 3.598300e+00 5.625069e+00 4.674681e+00 4.206640e+00 4.579346e+00 4.602926e+00 4.245745e+00 3.387006e+00 3.112922e+00 2.580407e+00 8.316084e+00 6.339095e-01 7.279799e-01 5.627552e-01 8.841609e-01 7.651294e-01 7.154630e-01 7.864255e-01 7.996330e-01 7.518364e-01 6.282257e-01 5.716538e-01 4.703872e-01 1.273484e+00
<GCONST> 1.414946e+02
<STATE> 3
<MEAN> 39
 -8.193112e+00 -6.572400e+00 -5.369987e+00 -1.003376e+01 -7.841163e+00 -4.850902e+00 -6.306511e+00 -2.169986e+00 -3.958029e+00 -1.512329e+00 -2.264327e+00 -2.538281e+00 5.418723e+01 2.744258e-02 -5.783755e-02 -2.210765e-02 -6.508144e-02 -3.938245e-02 -2.980832e-02 -1.416605e-02 2.161348e-02 1.921515e-02 1.314683e-02 -4.828775e-03 3.685449e-03 1.270162e-01 -4.415393e-03 -7.552454e-03 -1.711723e-03 -3.186124e-03 -4.136791e-03 -3.455420e-03 -7.713898e-05 3.602042e-03 3.285720e-03 -6.571574e-05 9.289283e-05 1.935939e-04 1.130032e-02
<VARIANCE> 39
 8.523734e+01 6.972872e+01 8.059823e+01 9.866334e+01 7.733495e+01 7.732801e+01 7.835126e+01 6.913828e+01 6.520038e+01 4.721864e+01 4.870038e+01 3.725427e+01 1.286171e+02 4.330121e+00 4.481977e+00 3.629652e+00 5.659186e+00 4.711821e+00 4.260495e+00 4.616930e+00 4.617499e+00 4.249670e+00 3.400711e+00 3.117553e+00 2.593130e+00 8.460588e+00 6.372711e-01 7.237628e-01 5.642104e-01 8.856497e-01 7.681561e-01 7.228192e-01 7.896076e-01 8.009570e-01 7.505019e-01 6.298845e-01 5.712492e-01 4.712898e-01 1.284299e+00
<GCONST> 1.416524e+02
<STATE> 4
<MEAN> 39
 -8.230485e+00 -6.776268e+00 -5.452042e+00 -1.022781e+01 -7.970674e+00 -4.927102e+00 -6.299749e+00 -2.087625e+00 -3.869506e+00 -1.502866e+00 -2.288219e+00 -2.523885e+00 5.457856e+01 -7.750982e-03 -6.039375e-02 -1.806429e-02 -4.976948e-02 -3.686199e-02 -3.161251e-02 -3.248613e-03 3.425255e-02 2.509183e-02 8.859912e-03 -5.656938e-03 6.792341e-03 1.101129e-01 -1.083380e-02 -4.393220e-04 1.450696e-03 5.740903e-03 1.523894e-03 -5.231065e-04 3.344809e-03 3.503993e-03 1.824867e-03 -1.432918e-03 -2.741225e-04 8.721688e-04 -6.008060e-03
<VARIANCE> 39
 8.601227e+01 6.908545e+01 8.172366e+01 9.801208e+01 7.844564e+01 7.855531e+01 7.939570e+01 6.964886e+01 6.557673e+01 4.797886e+01 4.913250e+01 3.772182e+01 1.242291e+02 4.317755e+00 4.383665e+00 3.617121e+00 5.553989e+00 4.693594e+00 4.289268e+00 4.611149e+00 4.597836e+00 4.199356e+00 3.397776e+00 3.108465e+00 2.593753e+00 8.275540e+00 6.290919e-01 7.058432e-01 5.583704e-01 8.672705e-01 7.613612e-01 7.255111e-01 7.844947e-01 7.959046e-01 7.390146e-01 6.282413e-01 5.674049e-01 4.699497e-01 1.254627e+00
<GCONST> 1.414925e+02
<TRANSP> 5
 0.000000e+00 1.000000e+00 0.000000e+00 0.000000e+00 0.000000e+00
 0.000000e+00 6.129008e-01 3.870992e-01 0.000000e+00 0.000000e+00
 0.000000e+00 0.000000e+00 6.129054e-01 3.870947e-01 0.000000e+00
 0.000000e+00 0.000000e+00 0.000000e+00 7.189583e-01 2.810417e-01
 0.000000e+00 0.000000e+00 0.000000e+00 0.000000e+00 0.000000e+00
<ENDHMM>
~h "d"
<BEGINHMM>
<NUMSTATES> 5
<STATE> 2
<MEAN> 39
 -9.617754e+00 -7.420053e+00 -4.094251e+00 -9.183424e+00 -8.698454e+00 -6.188993e+00 -6.101873e+00 -7.780535e-01 -3.762435e+00 -2.013930e+00 -2.791009e+00 -2.132155e+00 5.452831e+01 1.323824e-02 -4.196017e-02 -3.860799e-02 -3.368054e-02 2.682184e-02 -1.907787e-02 -3.404168e-02 1.168098e-02 1.079427e-02 -4.376163e-05 -9.697586e-03 -6.694463e-03 9.721357e-02 4.439821e-03 -3.488253e-03 -2.527933e-03 -7.421911e-03 -3.718800e-03 -1.339396e-03 -5.743291e-03 -1.274984e-03 -2.074679e-03 -1.130058e-03 -3.895338e-05 4.383943e-05 1.441946e-02
<VARIANCE> 39
 8.784233e+01 6.686778e+01 7.892130e+01 8.275565e+01 7.770246e+01 7.167674e+01 7.715004e+01 6.807510e+01 6.452837e+01 4.648217e+01 4.836835e+01 3.571342e+01 1.349034e+02 4.044095e+00 4.229765e+00 3.260226e+00 4.621995e+00 4.531449e+00 4.497056e+00 4.713798e+00 4.543793e+00 3.876685e+00 3.296947e+00 3.088949e+00 2.543820e+00 7.573610e+00 5.888534e-01 6.993220e-01 4.970602e-01 7.690106e-01 7.754117e-01 7.832869e-01 8.185619e-01 8.025819e-01 6.889748e-01 6.097095e-01 5.667612e-01 4.734287e-01 1.221597e+00
<GCONST> 1.402108e+02
<STATE> 3
<MEAN> 39
 -9.550076e+00 -7.548139e+00 -4.208798e+00 -9.302117e+00 -8.650438e+00 -6.242505e+00 -6.221175e+00 -7.555637e-01 -3.747695e+00 -2.018204e+00 -2.816420e+00 -2.150901e+00 5.484654e+01 2.649385e-02 -4.471521e-02 -4.671908e-02 -4.367928e-02 1.916346e-02 -1.515185e-02 -4.469515e-02 5.380079e-03 3.484843e-03 -2.593827e-03 -9.852108e-03 -7.856772e-03 1.137892e-01 4.559258e-03 -6.134397e-04 -3.195140e-03 -2.690078e-03 -2.811594e-03 2.383838e-03 -3.363102e-03 -2.458676e-03 -2.780777e-03 -5.383655e-04 4.568190e-04 -8.829611e-04 3.990357e-03
<VARIANCE> 39
 8.867607e+01 6.692704e+01 7.943124e+01 8.195386e+01 7.755088e+01 7.241832e+01 7.763303e+01 6.837491e+01 6.469918e+01 4.675657e+01 4.859089e+01 3.601488e+01 1.287189e+02 4.185210e+00 4.279095e+00 3.302978e+00 4.683890e+00 4.599020e+00 4.648883e+00 4.796799e+00 4.597130e+00 3.910104e+00 3.335867e+00 3.126368e+00 2.584802e+00 7.818954e+00 6.053949e-01 7.066432e-01 5.052539e-01 7.757984e-01 7.861896e-01 8.100138e-01 8.318792e-01 8.139392e-01 6.950530e-01 6.179221e-01 5.727878e-01 4.806022e-01 1.243638e+00
<GCONST> 1.406475e+02
<STATE> 4
<MEAN> 39
 -9.472534e+00 -7.694693e+00 -4.414515e+00 -9.454580e+00 -8.616020e+00 -6.254860e+00 -6.351418e+00 -7.727888e-01 -3.776080e+00 -2.044696e+00 -2.842049e+00 -2.188494e+00 5.520951e+01 2.518866e-02 -3.241359e-02 -5.654438e-02 -2.920034e-02 2.087695e-02 3.730316e-03 -3.800975e-02 -3.847299e-03 -5.373188e-03 -3.314883e-03 -6.686829e-03 -8.689388e-03 7.405028e-02 -1.747151e-03 3.614813e-03 -2.446676e-03 4.336816e-03 5.691049e-04 5.472715e-03 2.631753e-03 -2.190416e-03 -1.966563e-03 5.108507e-04 1.575828e-03 -3.806098e-04 -1.216070e-02
<VARIANCE> 39
 9.014398e+01 6.689819e+01 8.050371e+01 8.158143e+01 7.754025e+01 7.416056e+01 7.824483e+01 6.885124e+01 6.500877e+01 4.750609e+01 4.924421e+01 3.652277e+01 1.223129e+02 4.271169e+00 4.255250e+00 3.315003e+00 4.643895e+00 4.602937e+00 4.767789e+00 4.829472e+00 4.626980e+00 3.918467e+00 3.374699e+00 3.152225e+00 2.610121e+00 7.627190e+00 6.117151e-01 7.033231e-01 5.069357e-01 7.664224e-01 7.849997e-01 8.288970e-01 8.354611e-01 8.188203e-01 6.957476e-01 6.250966e-01 5.762609e-01 4.838969e-01 1.209882e+00
<GCONST> 1.407903e+02
<TRANSP> 5
 0.000000e+00 1.000000e+00 0.000000e+00 0.000000e+00 0.000000e+00
 0.000000e+00 6.170411e-01 3.829590e-01 0.000000e+00 0.000000e+00
 0.000000e+00 0.000000e+00 6.170400e-01 3.829601e-01 0.000000e+00
 0.000000e+00 0.000000e+00 0.000000e+00 7.235872e-01 2.764128e-01
 0.000000e+00 0.000000e+00 0.000000e+00 0.000000e+00 0.000000e+00
<ENDHMM>
~h "f"
<BEGINHMM>
<NUMSTATES> 5
<STATE> 2
<MEAN> 39
 -1.155926e+01 -7.954810e+00 -7.079156e+00 -9.909806e+00 -7.260736e+00 -5.083480e+00 -5.436290e+00 -1.078110e+00 -2.850769e+00 -1.339325e+00 -2.293145e+00 -1.836974e+00 5.542007e+01 2.598783e-03 5.560734e-03 -1.106673e-02 5.851641e-03 9.955086e-03 -4.220773e-03 -9.552591e-03 4.040393e-03 -4.862929e-03 -8.898200e-03 1.447872e-02 7.624617e-03 -1.193185e-02 7.224710e-03 5.169398e-05 2.552657e-03 -7.193469e-04 -1.986221e-03 -4.238019e-03 -5.319970e-03 2.393673e-03 -3.133012e-04 -1.976019e-03 -1.288632e-03 -7.411851e-04 -2.257994e-04
<VARIANCE> 39
 1.169435e+02 5.047483e+01 6.979140e+01 7.432607e+01 6.761645e+01 6.738111e+01 6.788793e+01 5.553352e+01 5.672435e+01 4.151707e+01 4.180564e+01 3.244495e+01 8.446368e+01 6.701387e+00 3.155045e+00 3.183749e+00 4.216930e+00 3.961157e+00 3.910408e+00 4.284177e+00 3.855600e+00 3.611336e+00 2.979743e+00 2.809418e+00 2.341134e+00 4.420787e+00 9.269547e-01 5.309352e-01 4.941004e-01 6.805862e-01 6.478858e-01 6.590230e-01 7.341762e-01 6.828215e-01 6.347871e-01 5.504374e-01 5.087001e-01 4.265480e-01 7.053869e-01
<GCONST> 1.356568e+02
<STATE> 3
<MEAN> 39
 -1.151928e+01 -7.939237e+00 -7.092458e+00 -9.895138e+00 -7.247691e+00 -5.118807e+00 -5.487210e+00 -1.058206e+00 -2.862225e+00 -1.369584e+00 -2.259591e+00 -1.818895e+00 5.539042e+01 2.422232e-02 7.849090e-03 -2.884168e-03 4.509441e-03 3.813719e-03 -1.440777e-02 -2.316121e-02 9.150224e-03 -5.567749e-03 -1.309627e-02 1.124669e-02 6.227149e-03 -1.412206e-02 7.854368e-03 1.278676e-03 3.622284e-03 -3.067974e-04 -2.794722e-03 -3.722026e-03 -5.094451e-03 1.728180e-03 -5.649777e-04 -1.513347e-03 -1.382398e-03 -7.440650e-04 -8.486029e-04
<VARIANCE> 39
 1.176896e+02 5.058585e+01 7.049934e+01 7.399935e+01 6.782782e+01 6.746562e+01 6.817325e+01 5.608530e+01 5.701187e+01 4.153226e+01 4.185506e+01 3.244742e+01 8.366558e+01 6.672507e+00 3.151419e+00 3.201525e+00 4.201034e+00 3.956508e+00 3.915308e+00 4.290087e+00 3.871127e+00 3.627746e+00 2.973860e+00 2.808964e+00 2.332597e+00 4.462701e+00 9.223481e-01 5.303969e-01 4.962378e-01 6.780530e-01 6.474475e-01 6.590980e-01 7.352724e-01 6.850057e-01 6.375538e-01 5.494539e-01 5.082717e-01 4.254087e-01 7.127351e-01
<GCONST> 1.357048e+02
<STATE> 4
<MEAN> 39
 -1.140445e+01 -7.887558e+00 -7.085865e+00 -9.874569e+00 -7.256425e+00 -5.188924e+00 -5.576509e+00 -1.036903e+00 -2.859616e+00 -1.443818e+00 -2.223872e+00 -1.801240e+00 5.533762e+01 4.965535e-02 1.482964e-02 1.088008e-02 5.043206e-03 -3.147014e-03 -2.334952e-02 -3.496919e-02 1.148563e-02 -8.441564e-03 -1.628174e-02 7.187948e-03 4.355092e-03 -2.224313e-02 6.667755e-03 2.320423e-03 4.531574e-03 1.612645e-04 -2.400954e-03 -2.458624e-03 -3.359242e-03 2.966133e-04 -1.240746e-03 -8.101425e-04 -1.475691e-03 -7.599473e-04 -2.345431e-03
<VARIANCE> 39
 1.178657e+02 5.128045e+01 7.191997e+01 7.387174e+01 6.881423e+01 6.819550e+01 6.891409e+01 5.731667e+01 5.782049e+01 4.186620e+01 4.226915e+01 3.265503e+01 8.503307e+01 6.509924e+00 3.135334e+00 3.208641e+00 4.158692e+00 3.950871e+00 3.924810e+00 4.272799e+00 3.894484e+00 3.634781e+00 2.970524e+00 2.809918e+00 2.323845e+00 4.526917e+00 8.983349e-01 5.257419e-01 4.955491e-01 6.706891e-01 6.462082e-01 6.583002e-01 7.310950e-01 6.876826e-01 6.375927e-01 5.479756e-01 5.078159e-01 4.239376e-01 7.237657e-01
<GCONST> 1.357832e+02
<TRANSP> 5
 0.000000e+00 1.000000e+00 0.000000e+00 0.000000e+00 0.000000e+00
 0.000000e+00 6.174204e-01 3.825797e-01 0.000000e+00 0.000000e+00
 0.000000e+00 0.000000e+00 6.174212e-01 3.825788e-01 0.000000e+00
 0.000000e+00 0.000000e+00 0.000000e+00 7.240376e-01 2.759624e-01
 0.000000e+00 0.000000e+00 0.000000e+00 0.000000e+00 0.000000e+00
<ENDHMM>
~h "g"
<BEGINHMM>
<NUMSTATES> 5
<STATE> 2
<MEAN> 39
 -8.518951e+00 -7.480400e+00 -4.441737e+00 -8.998391e+00 -8.990705e+00 -7.728333e+00 -6.220479e+00 -9.283365e-01 -5.458264e+00 -1.785444e+00 -2.146012e+00 -2.443170e+00 5.544259e+01 -4.016794e-02 2.781721e-02 -2.970580e-02 -4.649143e-02 2.359392e-02 2.369337e-02 1.866443e-02 -2.225850e-03 4.733162e-03 7.984482e-03 5.381973e-03 -5.249468e-03 2.781502e-02 -7.436303e-04 -1.298927e-03 -3.290495e-03 -3.032098e-03 -1.142800e-03 4.183540e-03 1.153239e-03 2.054018e-03 4.075474e-03 -8.225360e-04 -1.307434e-03 2.161299e-04 -2.146924e-05
<VARIANCE> 39
 8.543376e+01 6.726728e+01 8.689920e+01 8.542149e+01 8.473379e+01 8.021798e+01 8.633670e+01 7.788686e+01 7.608932e+01 5.593341e+01 5.462397e+01 3.647210e+01 9.846131e+01 4.189397e+00 4.746018e+00 4.753045e+00 4.990581e+00 5.677928e+00 4.899943e+00 5.076691e+00 5.129357e+00 4.850077e+00 4.067250e+00 3.510118e+00 2.747586e+00 6.254216e+00 5.855555e-01 8.188480e-01 7.511132e-01 7.924297e-01 9.333530e-01 8.269309e-01 8.494744e-01 8.932065e-01 8.364813e-01 7.423002e-01 6.429012e-01 5.039539e-01 9.988041e-01
<GCONST> 1.438560e+02
<STATE> 3
<MEAN> 39
 -8.621709e+00 -7.412716e+00 -4.531319e+00 -9.138131e+00 -8.936482e+00 -7.651810e+00 -6.170261e+00 -9.278738e-01 -5.427680e+00 -1.766292e+00 -2.137129e+00 -2.453645e+00 5.552282e+01 -3.941918e-02 2.384134e-02 -3.687584e-02 -5.399798e-02 1.872174e-02 3.461318e-02 2.138291e-02 2.709465e-03 1.474744e-02 5.560202e-03 2.371207e-03 -4.550273e-03 2.679572e-02 3.167518e-04 -1.155643e-03 -2.542365e-03 -2.276223e-03 -1.699796e-03 4.219748e-03 1.074624e-03 1.657174e-03 3.657472e-03 -1.286668e-03 -1.190353e-03 6.167286e-04 -1.568432e-03
<VARIANCE> 39
 8.776414e+01 6.684447e+01 8.706816e+01 8.559803e+01 8.419412e+01 8.010991e+01 8.620746e+01 7.686586e+01 7.550224e+01 5.569603e+01 5.443011e+01 3.645898e+01 9.630590e+01 4.278735e+00 4.680119e+00 4.774225e+00 4.958432e+00 5.679538e+00 4.893604e+00 5.067084e+00 5.087177e+00 4.811933e+00 4.022461e+00 3.489972e+00 2.739634e+00 6.161185e+00 5.915067e-01 8.010256e-01 7.542319e-01 7.841598e-01 9.344903e-01 8.237311e-01 8.468314e-01 8.884635e-01 8.309402e-01 7.330672e-01 6.382409e-01 5.012615e-01 9.752956e-01
<GCONST> 1.436865e+02
<STATE> 4
<MEAN> 39
 -8.789002e+00 -7.311769e+00 -4.674006e+00 -9.343657e+00 -8.907229e+00 -7.475288e+00 -6.054790e+00 -9.764152e-01 -5.372115e+00 -1.767060e+00 -2.151399e+00 -2.478000e+00 5.559792e+01 -3.936474e-02 2.318088e-02 -4.110896e-02 -5.640924e-02 1.477128e-02 4.984273e-02 2.772332e-02 5.652971e-03 2.473789e-02 1.753747e-03 -7.992601e-04 -2.199223e-03 1.233172e-02 -4.443202e-04 1.238842e-04 -1.244258e-03 -6.577677e-05 -6.218160e-04 4.867476e-03 2.248797e-03 5.898532e-04 2.862592e-03 -1.606925e-03 -1.159447e-03 9.988758e-04 -5.683200e-03
<VARIANCE> 39
 9.102037e+01 6.625421e+01 8.693823e+01 8.577832e+01 8.336062e+01 8.000912e+01 8.557384e+01 7.536777e+01 7.478342e+01 5.521827e+01 5.405576e+01 3.650576e+01 9.490886e+01 4.337350e+00 4.517828e+00 4.737401e+00 4.864254e+00 5.615386e+00 4.832718e+00 4.991415e+00 4.987065e+00 4.719616e+00 3.927742e+00 3.437218e+00 2.709324e+00 5.943265e+00 5.917641e-01 7.645178e-01 7.464227e-01 7.657087e-01 9.234794e-01 8.113563e-01 8.344268e-01 8.737509e-01 8.154982e-01 7.145075e-01 6.258721e-01 4.936946e-01 9.308651e-01
<GCONST> 1.431603e+02
<TRANSP> 5
 0.000000e+00 1.000000e+00 0.000000e+00 0.000000e+00 0.000000e+00
 0.000000e+00 6.188962e-01 3.811038e-01 0.000000e+00 0.000000e+00
 0.000000e+00 0.000000e+00 6.188942e-01 3.811058e-01 0.000000e+00
 0.000000e+00 0.000000e+00 0.000000e+00 7.252656e-01 2.747344e-01
 0.000000e+00 0.000000e+00 0.000000e+00 0.000000e+00 0.000000e+00
<ENDHMM>
~h "k"
<BEGINHMM>
<NUMSTATES> 5
<STATE> 2
<MEAN> 39
 -1.125249e+01 -8.029656e+00 -5.484410e+00 -9.025731e+00 -7.632962e+00 -6.591349e+00 -5.069912e+00 2.260275e-01 -3.815042e+00 -1.256705e+00 -2.264867e+00 -1.911301e+00 5.460673e+01 5.382778e-02 -1.703846e-02 3.464450e-02 -2.644144e-02 -4.818793e-02 -9.311655e-03 -1.460221e-02 -2.747774e-02 -3.541373e-02 -9.596390e-03 -5.316210e-03 -7.475803e-03 2.865288e-02 7.950071e-03 -7.858934e-04 -6.766890e-04 -4.034496e-03 -3.348277e-03 2.536173e-03 -2.186426e-03 -3.084733e-03 -8.444797e-05 -1.598564e-03 -1.462669e-03 -2.331844e-03 3.668361e-03
<VARIANCE> 39
 1.008165e+02 5.995400e+01 7.437823e+01 7.512000e+01 8.237898e+01 7.387193e+01 7.605479e+01 6.822404e+01 6.517519e+01 4.602736e+01 4.744215e+01 3.447258e+01 1.202422e+02 5.243481e+00 4.118746e+00 3.740887e+00 4.594355e+00 4.985863e+00 4.788667e+00 4.598724e+00 4.524998e+00 4.390194e+00 3.458361e+00 3.208853e+00 2.532053e+00 8.610471e+00 7.420527e-01 7.363800e-01 6.159559e-01 7.745891e-01 8.314801e-01 8.467872e-01 8.052131e-01 8.147971e-01 7.917232e-01 6.432716e-01 5.905238e-01 4.663924e-01 1.485533e+00
<GCONST> 1.418836e+02
<STATE> 3
<MEAN> 39
 -1.108469e+01 -8.074653e+00 -5.396494e+00 -9.109165e+00 -7.770959e+00 -6.608500e+00 -5.117484e+00 1.441286e-01 -3.904595e+00 -1.290445e+00 -2.284796e+00 -1.937701e+00 5.469834e+01 7.114626e-02 -1.648296e-02 3.219072e-02 -3.451643e-02 -5.376524e-02 -2.133645e-03 -1.984612e-02 -3.378493e-02 -3.323846e-02 -1.449195e-02 -8.403881e-03 -1.291080e-02 3.406496e-02 5.005301e-03 1.142404e-03 -1.183489e-03 -2.047751e-03 -1.118140e-03 3.093510e-03 -1.556037e-03 -2.295876e-03 1.230388e-03 -1.453643e-03 -1.019008e-03 -1.700094e-03 2.150825e-04
<VARIANCE> 39
 9.981238e+01 5.934382e+01 7.518223e+01 7.538346e+01 8.287157e+01 7.407288e+01 7.625783e+01 6.857433e+01 6.567394e+01 4.657965e+01 4.793324e+01 3.466152e+01 1.169275e+02 5.141344e+00 4.030707e+00 3.703986e+00 4.569973e+00 4.938617e+00 4.718799e+00 4.554937e+00 4.499443e+00 4.352864e+00 3.446383e+00 3.187038e+00 2.519074e+00 8.405541e+00 7.277200e-01 7.213681e-01 6.088788e-01 7.711902e-01 8.231759e-01 8.316091e-01 7.958941e-01 8.097759e-01 7.850214e-01 6.400601e-01 5.857565e-01 4.636236e-01 1.448628e+00
<GCONST> 1.416028e+02
<STATE> 4
<MEAN> 39
 -1.085781e+01 -8.094979e+00 -5.327402e+00 -9.239046e+00 -7.957882e+00 -6.584357e+00 -5.167285e+00 -1.805776e-02 -4.002761e+00 -1.355752e+00 -2.317752e+00 -1.991676e+00 5.479299e+01 7.772653e-02 -7.588233e-03 2.786558e-02 -3.561521e-02 -5.246938e-02 7.185688e-03 -2.251686e-02 -3.794996e-02 -2.646749e-02 -1.865242e-02 -9.399874e-03 -1.565849e-02 2.270136e-02 4.597148e-04 3.434953e-03 -1.401083e-03 6.565123e-04 1.261195e-03 3.089050e-03 -2.658400e-04 -1.478224e-03 2.006528e-03 -5.626443e-04 -1.253876e-04 -4.852311e-04 -5.238722e-03
<VARIANCE> 39
 9.832619e+01 5.886767e+01 7.632530e+01 7.599242e+01 8.330175e+01 7.459469e+01 7.646767e+01 6.887313e+01 6.625415e+01 4.745271e+01 4.866979e+01 3.509664e+01 1.142039e+02 4.962532e+00 3.898086e+00 3.624300e+00 4.517590e+00 4.854190e+00 4.616018e+00 4.476933e+00 4.451862e+00 4.284878e+00 3.421216e+00 3.158545e+00 2.502609e+00 8.020009e+00 7.021987e-01 6.961895e-01 5.931787e-01 7.617040e-01 8.090404e-01 8.085036e-01 7.791723e-01 7.997864e-01 7.716868e-01 6.330957e-01 5.794250e-01 4.597309e-01 1.378602e+00
<GCONST> 1.411130e+02
<TRANSP> 5
 0.000000e+00 1.000000e+00 0.000000e+00 0.000000e+00 0.000000e+00
 0.000000e+00 6.156343e-01 3.843658e-01 0.000000e+00 0.000000e+00
 0.000000e+00 0.000000e+00 6.156223e-01 3.843777e-01 0.000000e+00
 0.000000e+00 0.000000e+00 0.000000e+00 7.218212e-01 2.781787e-01
 0.000000e+00 0.000000e+00 0.000000e+00 0.000000e+00 0.000000e+00
<ENDHMM>
~h "l"
<BEGINHMM>
<NUMSTATES> 5
<STATE> 2
<MEAN> 39
 -7.687617e+00 -7.088772e+00 -6.731428e+00 -1.327294e+01 -8.069621e+00 -4.298062e+00 -6.382929e+00 -2.055809e+00 -3.436621e+00 -1.360704e+00 -2.134960e+00 -2.300320e+00 5.629925e+01 -4.683816e-02 -2.001917e-03 6.373195e-02 7.964559e-02 -1.238769e-02 -6.737342e-02 -1.202087e-03 3.324643e-02 -1.041046e-02 -1.103144e-02 -1.285478e-02 5.286010e-03 -2.759400e-02 -6.894517e-03 -3.240995e-03 -6.909913e-04 1.333375e-02 1.908833e-03 -4.965429e-03 3.185222e-03 5.715473e-03 1.598890e-03 -4.292128e-04 -7.091250e-04 1.577444e-03 -8.842530e-03
<VARIANCE> 39
 8.660008e+01 5.868810e+01 8.518552e+01 1.081484e+02 7.750890e+01 8.610551e+01 7.841861e+01 6.980391e+01 6.625417e+01 5.070429e+01 5.226244e+01 3.835638e+01 9.025146e+01 3.892728e+00 3.274837e+00 3.492430e+00 5.167538e+00 4.283405e+00 4.439087e+00 4.215808e+00 4.516800e+00 4.206405e+00 3.449766e+00 3.146234e+00 2.663687e+00 4.797443e+00 5.467800e-01 5.250990e-01 5.166742e-01 7.656994e-01 7.030654e-01 7.290101e-01 7.209955e-01 7.855436e-01 7.506559e-01 6.354514e-01 5.758222e-01 4.880464e-01 7.538693e-01
<GCONST> 1.389731e+02
<STATE> 3
<MEAN> 39
 -7.847397e+00 -7.093940e+00 -6.548703e+00 -1.301338e+01 -8.099302e+00 -4.492952e+00 -6.375513e+00 -1.954653e+00 -3.463690e+00 -1.388507e+00 -2.169910e+00 -2.281295e+00 5.618943e+01 -6.441108e-02 -1.087677e-02 5.981779e-02 1.126881e-01 -6.848218e-03 -7.871491e-02 7.950773e-03 4.775894e-02 -5.320470e-03 -1.144911e-02 -1.387592e-02 9.491010e-03 -5.051530e-02 -5.316817e-03 -2.804164e-03 -3.343200e-03 1.066153e-02 2.472669e-03 -3.165297e-03 3.383314e-03 4.728328e-03 2.437948e-03 -8.668642e-05 -3.441926e-04 1.789203e-03 -8.986137e-03
<VARIANCE> 39
 8.651893e+01 5.881786e+01 8.583389e+01 1.063152e+02 7.819801e+01 8.538354e+01 7.835880e+01 7.010366e+01 6.664481e+01 5.061530e+01 5.200457e+01 3.834500e+01 9.119418e+01 3.875167e+00 3.270006e+00 3.471257e+00 5.069643e+00 4.267174e+00 4.397390e+00 4.186178e+00 4.491494e+00 4.183975e+00 3.420382e+00 3.129053e+00 2.651465e+00 4.776666e+00 5.435397e-01 5.238753e-01 5.132559e-01 7.564276e-01 6.992309e-01 7.239453e-01 7.150760e-01 7.799782e-01 7.446416e-01 6.297499e-01 5.715383e-01 4.851145e-01 7.512608e-01
<GCONST> 1.388038e+02
<STATE> 4
<MEAN> 39
 -8.138558e+00 -7.100248e+00 -6.371985e+00 -1.261337e+01 -8.125951e+00 -4.731795e+00 -6.299315e+00 -1.825584e+00 -3.479553e+00 -1.444595e+00 -2.221973e+00 -2.249588e+00 5.597315e+01 -8.000793e-02 -1.730136e-02 4.945576e-02 1.395549e-01 6.186827e-04 -8.467730e-02 1.992859e-02 5.978717e-02 1.699411e-03 -1.056777e-02 -1.354976e-02 1.511622e-02 -7.565863e-02 -2.605178e-03 -1.376438e-03 -6.089099e-03 6.469902e-03 3.283258e-03 -5.329456e-04 3.601234e-03 3.223591e-03 2.985646e-03 -1.866596e-04 -3.355382e-04 1.813343e-03 -7.837621e-03
<VARIANCE> 39
 8.722902e+01 5.896100e+01 8.597890e+01 1.038717e+02 7.900217e+01 8.445847e+01 7.813392e+01 7.017865e+01 6.687201e+01 5.048298e+01 5.150293e+01 3.822512e+01 9.416779e+01 3.834259e+00 3.245435e+00 3.417414e+00 4.897812e+00 4.225350e+00 4.325861e+00 4.129591e+00 4.426012e+00 4.121813e+00 3.368212e+00 3.086746e+00 2.614840e+00 4.749874e+00 5.367659e-01 5.190009e-01 5.047220e-01 7.379078e-01 6.902627e-01 7.132987e-01 7.040295e-01 7.672409e-01 7.304499e-01 6.193356e-01 5.622658e-01 4.777721e-01 7.472979e-01
<GCONST> 1.384281e+02
<TRANSP> 5
 0.000000e+00 1.000000e+00 0.000000e+00 0.000000e+00 0.000000e+00
 0.000000e+00 6.181287e-01 3.818713e-01 0.000000e+00 0.000000e+00
 0.000000e+00 0.000000e+00 6.181342e-01 3.818658e-01 0.000000e+00
 0.000000e+00 0.000000e+00 0.000000e+00 7.249377e-01 2.750623e-01
 0.000000e+00 0.000000e+00 0.000000e+00 0.000000e+00 0.000000e+00
<ENDHMM>
~h "m"
<BEGINHMM>
<NUMSTATES> 5
<STATE> 2
<MEAN> 39
 -8.935184e+00 -6.904073e+00 -4.735272e+00 -9.506177e+00 -8.409517e+00 -5.517901e+00 -6.162536e+00 -2.281917e+00 -5.403471e+00 -2.056027e+00 -2.650136e+00 -3.036448e+00 5.509037e+01 4.069092e-02 -7.031950e-03 5.095387e-02 -1.423356e-02 -3.520504e-02 -1.731826e-02 -1.669220e-02 -2.021092e-02 -2.923334e-02 -3.059013e-03 -7.157072e-04 -7.513661e-03 2.324786e-02 -9.154160e-03 -2.059800e-03 -5.635191e-03 -2.257745e-03 3.333377e-03 1.873203e-03 2.906816e-03 7.155912e-03 1.108276e-02 8.172995e-04 -4.087942e-04 5.370036e-03 -4.900881e-04
<VARIANCE> 39
 8.623058e+01 5.590345e+01 7.700336e+01 7.983601e+01 8.452206e+01 7.287468e+01 7.022163e+01 7.465669e+01 7.699876e+01 5.016093e+01 5.412334e+01 4.003628e+01 9.274471e+01 4.259276e+00 3.507648e+00 3.418134e+00 4.622580e+00 4.583474e+00 4.079805e+00 4.228631e+00 5.061191e+00 4.992912e+00 3.407804e+00 3.232744e+00 2.684667e+00 5.402155e+00 5.915416e-01 5.899810e-01 5.463242e-01 7.637430e-01 7.528694e-01 7.072461e-01 7.488217e-01 8.841846e-01 8.767598e-01 6.290897e-01 5.899560e-01 4.846813e-01 8.886736e-01
<GCONST> 1.398454e+02
<STATE> 3
<MEAN> 39
 -8.868793e+00 -6.931667e+00 -4.636252e+00 -9.559570e+00 -8.481571e+00 -5.551949e+00 -6.194636e+00 -2.296947e+00 -5.429917e+00 -2.056488e+00 -2.649106e+00 -3.030515e+00 5.515025e+01 1.084501e-02 -1.324783e-02 3.327375e-02 -2.009175e-02 -2.409753e-02 -9.375988e-03 -7.419204e-03 2.566569e-03 2.392061e-03 -8.633238e-05 4.227124e-04 8.362927e-03 1.718280e-02 -1.187080e-02 -3.497907e-03 -8.248038e-03 -3.062575e-03 3.897029e-03 3.453821e-03 3.757593e-03 9.750269e-03 1.301731e-02 1.105814e-03 8.838880e-04 6.274793e-03 -2.778480e-03
<VARIANCE> 39
 8.515415e+01 5.610054e+01 7.796129e+01 8.054230e+01 8.527905e+01 7.328688e+01 7.036506e+01 7.496950e+01 7.721124e+01 5.011009e+01 5.434548e+01 3.997210e+01 9.173807e+01 4.229249e+00 3.523232e+00 3.425669e+00 4.662597e+00 4.604228e+00 4.098450e+00 4.222561e+00 5.053231e+00 5.000788e+00 3.400504e+00 3.230865e+00 2.671278e+00 5.505851e+00 5.863338e-01 5.932247e-01 5.468636e-01 7.693948e-01 7.570677e-01 7.096161e-01 7.448117e-01 8.834571e-01 8.789712e-01 6.271235e-01 5.903757e-01 4.826759e-01 9.049687e-01
<GCONST> 1.399206e+02
<STATE> 4
<MEAN> 39
 -8.950670e+00 -6.984996e+00 -4.624343e+00 -9.660767e+00 -8.525046e+00 -5.538567e+00 -6.179020e+00 -2.241162e+00 -5.329352e+00 -2.043115e+00 -2.636665e+00 -2.961749e+00 5.518051e+01 -3.008405e-02 -2.032139e-02 6.827036e-03 -2.211549e-02 -6.650929e-03 1.246127e-03 6.121936e-03 3.309345e-02 4.022624e-02 5.347061e-03 3.953919e-03 2.741233e-02 -2.793093e-03 -1.200672e-02 -2.549446e-03 -8.436025e-03 -1.024605e-03 4.201580e-03 2.974143e-03 4.324692e-03 9.440050e-03 1.143735e-02 1.723159e-03 1.366015e-03 5.661556e-03 -6.185943e-03
<VARIANCE> 39
 8.540214e+01 5.641554e+01 7.893004e+01 8.085356e+01 8.626329e+01 7.404741e+01 7.064501e+01 7.494757e+01 7.683839e+01 4.990668e+01 5.411669e+01 3.962466e+01 9.322903e+01 4.175070e+00 3.509189e+00 3.404194e+00 4.651672e+00 4.594182e+00 4.103361e+00 4.195117e+00 4.979915e+00 4.917236e+00 3.367703e+00 3.205597e+00 2.629415e+00 5.583670e+00 5.783343e-01 5.907581e-01 5.416552e-01 7.669811e-01 7.561917e-01 7.086173e-01 7.363378e-01 8.709286e-01 8.647416e-01 6.195673e-01 5.861574e-01 4.759109e-01 9.229900e-01
<GCONST> 1.397924e+02
<TRANSP> 5
 0.000000e+00 1.000000e+00 0.000000e+00 0.000000e+00 0.000000e+00
 0.000000e+00 6.116035e-01 3.883965e-01 0.000000e+00 0.000000e+00
 0.000000e+00 0.000000e+00 6.116038e-01 3.883962e-01 0.000000e+00
 0.000000e+00 0.000000e+00 0.000000e+00 7.174773e-01 2.825228e-01
 0.000000e+00 0.000000e+00 0.000000e+00 0.000000e+00 0.000000e+00
<ENDHMM>
~h "n"
<BEGINHMM>
<NUMSTATES> 5
<STATE> 2
<MEAN> 39
 -8.701575e+00 -7.379274e+00 -4.632906e+00 -1.004547e+01 -9.163847e+00 -5.869863e+00 -6.047656e+00 -1.669684e+00 -4.759929e+00 -2.062629e+00 -3.329562e+00 -2.654922e+00 5.580800e+01 -1.552594e-02 8.040395e-03 -6.517040e-03 1.345816e-02 2.216209e-02 -2.065666e-02 1.200214e-02 1.207666e-03 -1.030838e-03 -7.076799e-03 -1.011764e-02 9.132516e-03 -2.280121e-03 -8.921911e-03 5.393196e-04 -3.853590e-04 2.973635e-03 4.924312e-03 -2.696923e-04 2.526424e-03 5.890909e-03 4.956106e-03 4.316933e-04 3.527707e-03 3.875910e-03 -7.793414e-03
<VARIANCE> 39
 8.719353e+01 6.054934e+01 7.275862e+01 7.758534e+01 7.747998e+01 7.249508e+01 7.444054e+01 7.606271e+01 7.213679e+01 5.168536e+01 5.386860e+01 3.856066e+01 8.763466e+01 4.200770e+00 3.560934e+00 3.297494e+00 4.093984e+00 4.331656e+00 4.153254e+00 4.408567e+00 5.390728e+00 4.425219e+00 3.528765e+00 3.203448e+00 2.601339e+00 4.687128e+00 5.884882e-01 5.960177e-01 5.119193e-01 6.775760e-01 7.136361e-01 7.129329e-01 7.679148e-01 9.625385e-01 7.855129e-01 6.525759e-01 5.795697e-01 4.760267e-01 7.557167e-01
<GCONST> 1.389568e+02
<STATE> 3
<MEAN> 39
 -8.777510e+00 -7.352550e+00 -4.654463e+00 -1.000167e+01 -9.086055e+00 -5.925765e+00 -6.005624e+00 -1.639804e+00 -4.739798e+00 -2.075990e+00 -3.339741e+00 -2.616731e+00 5.577859e+01 -3.628947e-02 7.848574e-03 -1.023924e-02 1.722938e-02 3.423758e-02 -1.812506e-02 1.659743e-02 1.774484e-02 1.342970e-02 -4.919983e-03 3.298894e-04 1.787122e-02 -1.945220e-02 -7.247312e-03 -3.165742e-04 -2.206523e-03 9.724365e-04 4.106448e-03 1.754344e-03 1.472238e-03 5.958706e-03 5.591085e-03 1.264193e-03 4.293165e-03 3.074730e-03 -6.832075e-03
<VARIANCE> 39
 8.808327e+01 6.096359e+01 7.284263e+01 7.722585e+01 7.779001e+01 7.196824e+01 7.472553e+01 7.612041e+01 7.197689e+01 5.152755e+01 5.353394e+01 3.850063e+01 8.741386e+01 4.211365e+00 3.569039e+00 3.321079e+00 4.069564e+00 4.332387e+00 4.127333e+00 4.400721e+00 5.374428e+00 4.409119e+00 3.515350e+00 3.188501e+00 2.590560e+00 4.637365e+00 5.892869e-01 5.947915e-01 5.144355e-01 6.737641e-01 7.123659e-01 7.085971e-01 7.656579e-01 9.589120e-01 7.827630e-01 6.494753e-01 5.769862e-01 4.741936e-01 7.482008e-01
<GCONST> 1.388815e+02
<STATE> 4
<MEAN> 39
 -8.955218e+00 -7.313658e+00 -4.743937e+00 -9.952817e+00 -8.962788e+00 -5.963388e+00 -5.917500e+00 -1.571542e+00 -4.666090e+00 -2.091422e+00 -3.302093e+00 -2.547736e+00 5.568975e+01 -5.406501e-02 8.274576e-03 -2.054629e-02 1.720484e-02 4.588739e-02 -8.314103e-03 1.955276e-02 3.273218e-02 2.895034e-02 3.851266e-04 1.490530e-02 2.470318e-02 -3.812440e-02 -4.543012e-03 7.889302e-05 -3.764346e-03 -1.199356e-04 2.778320e-03 3.526397e-03 8.280053e-04 3.613463e-03 4.383968e-03 2.039476e-03 4.424354e-03 1.656043e-03 -6.143120e-03
<VARIANCE> 39
 8.980522e+01 6.144664e+01 7.332855e+01 7.700941e+01 7.840653e+01 7.160313e+01 7.511032e+01 7.551897e+01 7.151372e+01 5.116237e+01 5.286590e+01 3.833772e+01 8.940681e+01 4.226647e+00 3.560510e+00 3.342300e+00 4.030509e+00 4.329969e+00 4.090702e+00 4.372358e+00 5.261302e+00 4.341417e+00 3.476380e+00 3.155177e+00 2.569675e+00 4.598712e+00 5.891941e-01 5.883632e-01 5.151229e-01 6.654944e-01 7.087741e-01 7.015555e-01 7.585744e-01 9.368792e-01 7.694344e-01 6.406942e-01 5.707010e-01 4.701529e-01 7.413944e-01
<GCONST> 1.386829e+02
<TRANSP> 5
 0.000000e+00 1.000000e+00 0.000000e+00 0.000000e+00 0.000000e+00
 0.000000e+00 6.125707e-01 3.874293e-01 0.000000e+00 0.000000e+00
 0.000000e+00 0.000000e+00 6.125677e-01 3.874322e-01 0.000000e+00
 0.000000e+00 0.000000e+00 0.000000e+00 7.183267e-01 2.816733e-01
 0.000000e+00 0.000000e+00 0.000000e+00 0.000000e+00 0.000000e+00
<ENDHMM>
~h "p"
<BEGINHMM>
<NUMSTATES> 5
<STATE> 2
<MEAN> 39
 -1.096937e+01 -7.074678e+00 -6.126181e+00 -9.228678e+00 -6.557700e+00 -4.882310e+00 -5.368555e+00 -1.081036e+00 -2.996952e+00 -1.254556e+00 -2.193209e+00 -2.024617e+00 5.331068e+01 4.184964e-02 -2.570581e-02 -2.901714e-02 -1.391541e-02 -1.224479e-02 -2.273970e-02 -1.303252e-02 4.311807e-03 9.034442e-03 -1.750514e-02 -6.223964e-04 4.327490e-03 3.995087e-02 4.186058e-03 -2.291420e-03 1.913284e-03 -1.511541e-03 -5.134501e-03 -4.489407e-03 -3.483726e-03 1.947887e-03 -2.091864e-03 -1.663569e-03 -1.461906e-03 1.037947e-03 7.600463e-03
<VARIANCE> 39
 9.976701e+01 5.917183e+01 6.954629e+01 8.013411e+01 7.201517e+01 7.005020e+01 6.947147e+01 5.801610e+01 5.858434e+01 4.288771e+01 4.468816e+01 3.364244e+01 1.381635e+02 5.793154e+00 4.034124e+00 3.421749e+00 4.911575e+00 4.501750e+00 4.402478e+00 4.694508e+00 4.331463e+00 4.154141e+00 3.320787e+00 3.112695e+00 2.542003e+00 9.828108e+00 8.463299e-01 6.804261e-01 5.428034e-01 7.947659e-01 7.417376e-01 7.558948e-01 8.023458e-01 7.824001e-01 7.452929e-01 6.210898e-01 5.763115e-01 4.695478e-01 1.557462e+00
<GCONST> 1.407659e+02
<STATE> 3
<MEAN> 39
 -1.084171e+01 -7.150117e+00 -6.195315e+00 -9.281843e+00 -6.615572e+00 -4.963001e+00 -5.421148e+00 -1.061380e+00 -2.984048e+00 -1.306978e+00 -2.204065e+00 -2.011696e+00 5.346028e+01 5.195490e-02 -2.977715e-02 -2.223063e-02 -1.933101e-02 -2.590846e-02 -3.289608e-02 -2.306533e-02 9.084471e-03 2.150328e-03 -2.233434e-02 -4.594932e-03 5.551845e-03 5.815087e-02 3.898557e-03 -1.599838e-03 2.930993e-03 -2.759871e-03 -5.348072e-03 -3.430978e-03 -3.839137e-03 1.976934e-03 -3.045449e-03 -1.731814e-03 -1.284048e-03 4.745742e-04 7.284204e-03
<VARIANCE> 39
 9.979886e+01 5.916873e+01 6.980350e+01 8.039468e+01 7.265250e+01 7.053836e+01 7.038769e+01 5.869228e+01 5.897965e+01 4.293041e+01 4.483671e+01 3.362386e+01 1.350716e+02 5.783735e+00 3.987311e+00 3.414262e+00 4.892744e+00 4.497177e+00 4.393569e+00 4.719270e+00 4.338038e+00 4.155857e+00 3.325686e+00 3.106245e+00 2.536742e+00 9.631864e+00 8.406572e-01 6.699311e-01 5.384404e-01 7.879756e-01 7.386203e-01 7.529491e-01 8.032731e-01 7.822498e-01 7.436588e-01 6.212121e-01 5.741382e-01 4.689575e-01 1.523335e+00
<GCONST> 1.406882e+02
<STATE> 4
<MEAN> 39
 -1.069158e+01 -7.243824e+00 -6.271689e+00 -9.390503e+00 -6.743528e+00 -5.083724e+00 -5.494027e+00 -1.041908e+00 -3.001399e+00 -1.400936e+00 -2.247386e+00 -1.997969e+00 5.370834e+01 5.511703e-02 -2.684152e-02 -1.007481e-02 -2.457947e-02 -3.936742e-02 -4.063200e-02 -3.223057e-02 1.275450e-02 -8.636253e-03 -2.662392e-02 -7.510424e-03 6.010966e-03 6.601132e-02 9.601786e-04 8.638434e-04 4.017544e-03 -1.690870e-03 -4.052552e-03 -1.867142e-03 -2.579530e-03 1.010234e-03 -3.744530e-03 -1.421613e-03 -4.531379e-04 7.674139e-05 2.337183e-03
<VARIANCE> 39
 1.001474e+02 5.939595e+01 7.065796e+01 8.107384e+01 7.402396e+01 7.169213e+01 7.180282e+01 5.988374e+01 5.976415e+01 4.330864e+01 4.526378e+01 3.374193e+01 1.315708e+02 5.695591e+00 3.890410e+00 3.391773e+00 4.821294e+00 4.471592e+00 4.368817e+00 4.726225e+00 4.326140e+00 4.128915e+00 3.323105e+00 3.093379e+00 2.520867e+00 9.096033e+00 8.208510e-01 6.499010e-01 5.306838e-01 7.731307e-01 7.308730e-01 7.464920e-01 8.004988e-01 7.766325e-01 7.359422e-01 6.190735e-01 5.700111e-01 4.661163e-01 1.437206e+00
<GCONST> 1.404479e+02
<TRANSP> 5
 0.000000e+00 1.000000e+00 0.000000e+00 0.000000e+00 0.000000e+00
 0.000000e+00 6.089361e-01 3.910639e-01 0.000000e+00 0.000000e+00
 0.000000e+00 0.000000e+00 6.089325e-01 3.910675e-01 0.000000e+00
 0.000000e+00 0.000000e+00 0.000000e+00 7.142275e-01 2.857725e-01
 0.000000e+00 0.000000e+00 0.000000e+00 0.000000e+00 0.000000e+00
<ENDHMM>
~h "r"
<BEGINHMM>
<NUMSTATES> 5
<STATE> 2
<MEAN> 39
 -7.656109e+00 -9.032930e+00 -6.610541e+00 -8.671890e+00 -8.136977e+00 -7.640460e+00 -7.470104e+00 5.200515e-01 -3.670059e+00 -2.333032e+00 -1.979072e+00 -1.730565e+00 5.593399e+01 -2.434522e-02 2.114914e-02 -2.798176e-02 -2.315968e-02 3.153693e-02 4.339191e-02 3.111159e-02 -2.604032e-02 1.076374e-03 8.003998e-04 -2.108262e-02 -1.694485e-02 -1.414523e-02 -9.164707e-03 6.488475e-03 1.154322e-02 -5.695181e-03 -5.177145e-03 6.420218e-03 5.218454e-03 -6.272229e-03 -4.829761e-03 2.651544e-03 1.073591e-03 -5.803255e-04 -6.709334e-03
<VARIANCE> 39
 1.089047e+02 6.414621e+01 9.228526e+01 7.755822e+01 8.133214e+01 8.477026e+01 9.329027e+01 7.783891e+01 7.587939e+01 5.045187e+01 4.959632e+01 3.612473e+01 9.020532e+01 4.892010e+00 3.869423e+00 4.086987e+00 4.100502e+00 4.549730e+00 4.728518e+00 5.307837e+00 4.667949e+00 4.188752e+00 3.375513e+00 3.083327e+00 2.465647e+00 5.349562e+00 6.543196e-01 6.340858e-01 5.806062e-01 6.595203e-01 7.354870e-01 7.808399e-01 8.693260e-01 7.963319e-01 7.173516e-01 6.056556e-01 5.518550e-01 4.489278e-01 8.601785e-01
<GCONST> 1.406277e+02
<STATE> 3
<MEAN> 39
 -7.764487e+00 -8.954702e+00 -6.649173e+00 -8.740205e+00 -8.059511e+00 -7.502110e+00 -7.362602e+00 4.391214e-01 -3.671438e+00 -2.323238e+00 -2.036566e+00 -1.774601e+00 5.586336e+01 -5.083666e-02 3.761163e-02 2.115908e-03 -3.702969e-02 1.808447e-02 6.043219e-02 4.576799e-02 -4.136125e-02 -1.045319e-02 8.673551e-03 -1.693262e-02 -1.757153e-02 -3.357657e-02 -8.583485e-03 6.464321e-03 9.784962e-03 -4.951422e-03 -4.919714e-03 5.002260e-03 4.083319e-03 -4.580290e-03 -3.157023e-03 3.371188e-03 1.877316e-03 1.766403e-04 -6.839304e-03
<VARIANCE> 39
 1.089571e+02 6.419872e+01 9.110852e+01 7.831901e+01 8.118057e+01 8.368147e+01 9.267168e+01 7.698987e+01 7.527486e+01 5.038356e+01 4.978063e+01 3.619205e+01 9.055873e+01 4.870229e+00 3.848144e+00 4.051418e+00 4.113334e+00 4.538121e+00 4.715956e+00 5.280858e+00 4.657769e+00 4.181463e+00 3.376446e+00 3.088787e+00 2.476603e+00 5.276165e+00 6.498915e-01 6.293262e-01 5.788667e-01 6.614891e-01 7.366639e-01 7.794827e-01 8.669342e-01 7.972063e-01 7.185519e-01 6.069177e-01 5.536938e-01 4.515856e-01 8.476337e-01
<GCONST> 1.405387e+02
<STATE> 4
<MEAN> 39
 -8.032873e+00 -8.780092e+00 -6.618258e+00 -8.880795e+00 -8.018230e+00 -7.285014e+00 -7.146058e+00 2.704830e-01 -3.715394e+00 -2.288199e+00 -2.099672e+00 -1.831309e+00 5.570822e+01 -8.039802e-02 5.662841e-02 2.802590e-02 -4.633527e-02 7.402736e-03 7.579487e-02 5.984993e-02 -5.336528e-02 -1.590163e-02 1.848680e-02 -1.095319e-02 -1.515802e-02 -5.890462e-02 -6.688531e-03 6.338346e-03 6.479213e-03 -2.691040e-03 -3.169993e-03 3.204268e-03 2.614706e-03 -2.827552e-03 -8.264202e-04 3.332007e-03 1.909685e-03 7.507126e-04 -6.393690e-03
<VARIANCE> 39
 1.091760e+02 6.419141e+01 8.964478e+01 7.932816e+01 8.106146e+01 8.263748e+01 9.147806e+01 7.573159e+01 7.413418e+01 5.018709e+01 4.990993e+01 3.627019e+01 9.317725e+01 4.761723e+00 3.796623e+00 3.974492e+00 4.104147e+00 4.499096e+00 4.664239e+00 5.163538e+00 4.613712e+00 4.138885e+00 3.358759e+00 3.082271e+00 2.478136e+00 5.174336e+00 6.345810e-01 6.185606e-01 5.707083e-01 6.588340e-01 7.332652e-01 7.724388e-01 8.517256e-01 7.927220e-01 7.135760e-01 6.050556e-01 5.531791e-01 4.523079e-01 8.309788e-01
<GCONST> 1.402367e+02
<TRANSP> 5
 0.000000e+00 1.000000e+00 0.000000e+00 0.000000e+00 0.000000e+00
 0.000000e+00 6.181113e-01 3.818887e-01 0.000000e+00 0.000000e+00
 0.000000e+00 0.000000e+00 6.181175e-01 3.818825e-01 0.000000e+00
 0.000000e+00 0.000000e+00 0.000000e+00 7.245093e-01 2.754907e-01
 0.000000e+00 0.000000e+00 0.000000e+00 0.000000e+00 0.000000e+00
<ENDHMM>
~h "s"
<BEGINHMM>
<NUMSTATES> 5
<STATE> 2
<MEAN> 39
 -1.416495e+01 -5.665431e+00 -5.700197e+00 -9.720150e+00 -6.534940e+00 -6.058753e+00 -5.145479e+00 -4.384824e-01 -3.282408e+00 -1.454562e+00 -2.337897e+00 -1.639581e+00 5.592212e+01 3.176759e-02 -4.334062e-03 1.281462e-02 -4.814330e-03 -9.735674e-03 3.563388e-02 1.210423e-03 -2.594446e-02 -8.473465e-03 1.102130e-02 1.909949e-02 -5.421715e-03 -7.041116e-02 1.693513e-02 -7.118087e-03 2.428044e-03 1.310986e-03 -8.449918e-03 6.207710e-04 -3.476512e-03 -1.960403e-03 -4.170017e-03 -9.057326e-04 -4.285712e-04 -2.196077e-03 -5.468201e-03
<VARIANCE> 39
 1.387884e+02 6.247396e+01 6.978885e+01 7.025644e+01 8.056133e+01 6.653535e+01 7.353516e+01 5.635996e+01 5.874866e+01 4.210737e+01 4.326429e+01 3.249007e+01 9.167183e+01 6.881717e+00 3.761072e+00 3.370256e+00 4.020063e+00 4.594474e+00 4.172689e+00 4.659356e+00 3.953931e+00 3.643138e+00 3.093677e+00 2.964597e+00 2.393281e+00 5.368075e+00 8.765813e-01 5.956190e-01 5.287916e-01 6.529595e-01 7.284993e-01 7.169690e-01 7.920577e-01 7.132390e-01 6.431101e-01 5.751767e-01 5.349729e-01 4.371510e-01 9.004806e-01
<GCONST> 1.380415e+02
<STATE> 3
<MEAN> 39
 -1.400640e+01 -5.712046e+00 -5.655402e+00 -9.744246e+00 -6.597147e+00 -5.969753e+00 -5.162519e+00 -5.138592e-01 -3.323226e+00 -1.431819e+00 -2.293878e+00 -1.664662e+00 5.573483e+01 7.608653e-02 -2.284144e-02 2.001253e-02 -1.324921e-03 -3.325911e-02 3.657769e-02 -7.900502e-03 -2.975988e-02 -1.906391e-02 7.621225e-03 1.634423e-02 -1.129442e-02 -8.142877e-02 1.393524e-02 -5.587905e-03 3.413788e-03 1.634064e-03 -8.633615e-03 -4.776010e-04 -3.273408e-03 -1.014287e-03 -3.880406e-03 -1.409244e-03 -9.578952e-04 -1.867104e-03 -2.167252e-03
<VARIANCE> 39
 1.374113e+02 6.162968e+01 7.033443e+01 7.118953e+01 8.096222e+01 6.657822e+01 7.321641e+01 5.623586e+01 5.896435e+01 4.212943e+01 4.321632e+01 3.250872e+01 9.254982e+01 6.796943e+00 3.733449e+00 3.361897e+00 4.058101e+00 4.596366e+00 4.178784e+00 4.646499e+00 3.963821e+00 3.660143e+00 3.098644e+00 2.961888e+00 2.394133e+00 5.466058e+00 8.686265e-01 5.945339e-01 5.286432e-01 6.585848e-01 7.319213e-01 7.177094e-01 7.917835e-01 7.159289e-01 6.469424e-01 5.768563e-01 5.351688e-01 4.371878e-01 9.162502e-01
<GCONST> 1.380969e+02
<STATE> 4
<MEAN> 39
 -1.366571e+01 -5.818595e+00 -5.593186e+00 -9.766249e+00 -6.788482e+00 -5.851268e+00 -5.201242e+00 -6.463197e-01 -3.422424e+00 -1.424138e+00 -2.254217e+00 -1.715573e+00 5.548219e+01 1.178188e-01 -3.998457e-02 2.978790e-02 2.523327e-03 -5.737964e-02 3.475693e-02 -1.720645e-02 -3.130047e-02 -2.749813e-02 3.584063e-03 1.174395e-02 -1.675645e-02 -8.748364e-02 9.184126e-03 -3.755385e-03 3.566278e-03 1.739263e-03 -6.513770e-03 -1.590045e-03 -2.766824e-03 -1.977466e-04 -2.205238e-03 -1.191985e-03 -9.442919e-04 -1.031802e-03 -3.119080e-04
<VARIANCE> 39
 1.348287e+02 6.079844e+01 7.165130e+01 7.299911e+01 8.170135e+01 6.719344e+01 7.300855e+01 5.659919e+01 5.971881e+01 4.250148e+01 4.350707e+01 3.278899e+01 9.518119e+01 6.533826e+00 3.670099e+00 3.345073e+00 4.087542e+00 4.582206e+00 4.172266e+00 4.602188e+00 3.975031e+00 3.678564e+00 3.107224e+00 2.954591e+00 2.393357e+00 5.522253e+00 8.397728e-01 5.890357e-01 5.261935e-01 6.624144e-01 7.345892e-01 7.159230e-01 7.859789e-01 7.183747e-01 6.507925e-01 5.786588e-01 5.347247e-01 4.368810e-01 9.263349e-01
<GCONST> 1.381179e+02
<TRANSP> 5
 0.000000e+00 1.000000e+00 0.000000e+00 0.000000e+00 0.000000e+00
 0.000000e+00 6.177856e-01 3.822144e-01 0.000000e+00 0.000000e+00
 0.000000e+00 0.000000e+00 6.177900e-01 3.822100e-01 0.000000e+00
 0.000000e+00 0.000000e+00 0.000000e+00 7.242944e-01 2.757056e-01
 0.000000e+00 0.000000e+00 0.000000e+00 0.000000e+00 0.000000e+00
<ENDHMM>
~h "t"
<BEGINHMM>
<NUMSTATES> 5
<STATE> 2
<MEAN> 39
 -1.042818e+01 -7.693213e+00 -5.040199e+00 -9.682051e+00 -8.451092e+00 -5.978997e+00 -5.589406e+00 -7.219470e-01 -3.432545e+00 -1.523992e+00 -2.535923e+00 -2.006404e+00 5.467141e+01 -2.073446e-02 1.709829e-02 5.399679e-03 1.360916e-02 2.555559e-02 -6.844896e-03 2.186286e-02 1.359804e-03 -1.099329e-02 -5.083459e-03 1.539425e-03 1.772936e-02 -4.059896e-02 -5.379147e-04 2.873410e-03 -3.566670e-03 1.909217e-03 4.644955e-03 4.990715e-03 1.244066e-03 -1.030097e-03 -7.980675e-04 8.053877e-04 2.201271e-03 5.851527e-04 -4.951513e-03
<VARIANCE> 39
 1.003527e+02 6.055811e+01 7.880649e+01 7.830224e+01 7.836404e+01 7.189149e+01 7.731953e+01 6.551878e+01 6.587267e+01 4.709943e+01 4.824637e+01 3.547958e+01 1.175804e+02 4.664974e+00 3.686637e+00 3.312285e+00 4.430529e+00 4.557873e+00 4.331109e+00 4.551057e+00 4.381092e+00 4.017451e+00 3.325172e+00 3.086878e+00 2.494299e+00 7.346796e+00 6.578334e-01 6.286243e-01 5.258480e-01 7.495134e-01 7.590965e-01 7.416755e-01 7.719795e-01 7.818316e-01 7.157870e-01 6.166101e-01 5.653931e-01 4.607302e-01 1.241707e+00
<GCONST> 1.398301e+02
<STATE> 3
<MEAN> 39
 -1.046837e+01 -7.643054e+00 -5.041636e+00 -9.649788e+00 -8.374476e+00 -5.983666e+00 -5.540172e+00 -7.237773e-01 -3.463431e+00 -1.533877e+00 -2.524895e+00 -1.963077e+00 5.456295e+01 -1.829860e-02 2.377523e-02 -2.014122e-03 1.854382e-02 3.423238e-02 6.042528e-03 2.261752e-02 -2.053271e-03 -1.424565e-02 -3.046444e-03 6.555322e-03 1.750563e-02 -5.362104e-02 1.104673e-03 2.118193e-03 -2.666390e-03 1.620914e-03 2.617178e-03 4.667004e-03 2.440539e-04 -1.101680e-03 -8.406467e-04 9.983500e-04 1.750245e-03 -4.861085e-04 -3.401192e-03
<VARIANCE> 39
 1.001651e+02 6.031612e+01 7.843909e+01 7.873862e+01 7.800427e+01 7.210694e+01 7.718204e+01 6.580109e+01 6.573545e+01 4.696486e+01 4.788844e+01 3.529680e+01 1.173088e+02 4.686843e+00 3.679829e+00 3.321648e+00 4.385057e+00 4.532208e+00 4.316831e+00 4.550851e+00 4.361933e+00 4.019139e+00 3.323304e+00 3.079150e+00 2.489583e+00 7.204578e+00 6.589807e-01 6.264210e-01 5.249311e-01 7.394888e-01 7.524630e-01 7.379729e-01 7.711531e-01 7.774411e-01 7.150343e-01 6.157672e-01 5.634673e-01 4.594915e-01 1.214631e+00
<GCONST> 1.396960e+02
<STATE> 4
<MEAN> 39
 -1.051655e+01 -7.556567e+00 -5.111252e+00 -9.608965e+00 -8.268495e+00 -5.934116e+00 -5.455353e+00 -7.707253e-01 -3.507850e+00 -1.544290e+00 -2.494385e+00 -1.921899e+00 5.438933e+01 -8.355480e-03 2.853425e-02 -5.351589e-03 2.176888e-02 3.542674e-02 1.704529e-02 1.757119e-02 -6.405128e-03 -1.816700e-02 -5.892685e-04 1.043119e-02 1.327712e-02 -6.364629e-02 2.680377e-03 1.202974e-03 -2.742920e-04 5.571196e-04 -4.378297e-04 2.179629e-03 -1.653924e-03 -1.023168e-03 -9.152408e-04 7.477038e-04 6.804408e-04 -1.520991e-03 -8.791189e-04
<VARIANCE> 39
 1.000471e+02 6.010105e+01 7.833216e+01 7.963699e+01 7.785933e+01 7.287396e+01 7.708167e+01 6.610494e+01 6.557738e+01 4.693304e+01 4.755059e+01 3.512753e+01 1.185147e+02 4.652200e+00 3.631769e+00 3.321198e+00 4.298182e+00 4.479465e+00 4.271042e+00 4.510644e+00 4.311027e+00 3.996729e+00 3.307194e+00 3.052614e+00 2.472647e+00 6.874662e+00 6.513584e-01 6.159924e-01 5.208589e-01 7.200801e-01 7.401735e-01 7.279645e-01 7.636101e-01 7.670799e-01 7.089252e-01 6.118256e-01 5.580491e-01 4.559236e-01 1.155844e+00
<GCONST> 1.393537e+02
<TRANSP> 5
 0.000000e+00 1.000000e+00 0.000000e+00 0.000000e+00 0.000000e+00
 0.000000e+00 6.148485e-01 3.851515e-01 0.000000e+00 0.000000e+00
 0.000000e+00 0.000000e+00 6.148414e-01 3.851586e-01 0.000000e+00
 0.000000e+00 0.000000e+00 0.000000e+00 7.209108e-01 2.790892e-01
 0.000000e+00 0.000000e+00 0.000000e+00 0.000000e+00 0.000000e+00
<ENDHMM>
~h "v"
<BEGINHMM>
<NUMSTATES> 5
<STATE> 2
<MEAN> 39
 -8.447012e+00 -7.336396e+00 -5.875525e+00 -1.047418e+01 -8.415919e+00 -6.037809e+00 -7.012235e+00 -1.723266e+00 -3.543036e+00 -1.540565e+00 -2.411970e+00 -2.481040e+00 5.634600e+01 -1.766114e-04 5.652426e-03 -1.621891e-02 5.336353e-03 3.406045e-02 -5.340409e-03 4.056699e-03 -3.053228e-03 -9.426767e-03 -1.409146e-02 2.707997e-03 -6.548932e-04 -1.138819e-02 -6.500020e-03 2.364303e-03 2.048040e-03 3.155801e-03 2.289138e-03 2.265530e-03 4.953835e-03 6.066445e-04 -8.730682e-04 -6.344999e-04 -4.096736e-04 2.230893e-03 -7.234353e-03
<VARIANCE> 39
 9.265027e+01 5.846470e+01 7.625311e+01 7.866682e+01 7.424982e+01 7.249986e+01 7.845884e+01 6.549413e+01 6.330127e+01 4.737517e+01 5.012623e+01 3.672790e+01 8.647195e+01 4.781827e+00 3.611652e+00 3.159617e+00 4.189281e+00 4.181283e+00 3.969421e+00 4.486012e+00 4.349512e+00 3.806960e+00 3.199558e+00 2.943353e+00 2.439314e+00 5.077142e+00 7.075310e-01 5.982102e-01 4.864567e-01 6.801574e-01 6.785591e-01 6.798511e-01 7.646587e-01 7.672542e-01 6.792381e-01 5.910448e-01 5.380687e-01 4.418676e-01 8.231428e-01
<GCONST> 1.375847e+02
<STATE> 3
<MEAN> 39
 -8.481785e+00 -7.311970e+00 -5.909096e+00 -1.044527e+01 -8.317893e+00 -6.047838e+00 -6.975457e+00 -1.722052e+00 -3.568269e+00 -1.575074e+00 -2.406218e+00 -2.471495e+00 5.628391e+01 -1.721311e-02 1.035559e-02 -1.097667e-02 1.149538e-02 3.746911e-02 8.239444e-04 1.799004e-02 8.100737e-04 -1.090830e-02 -1.432858e-02 1.616233e-03 4.209096e-03 -2.862349e-02 -7.252973e-03 1.871682e-03 2.774965e-03 2.476856e-03 5.925835e-04 2.253235e-03 5.583605e-03 1.735880e-03 -4.740653e-04 2.714561e-04 -5.627497e-04 1.811942e-03 -6.874583e-03
<VARIANCE> 39
 9.295754e+01 5.820032e+01 7.687062e+01 7.848608e+01 7.433517e+01 7.286808e+01 7.828210e+01 6.529688e+01 6.326910e+01 4.739665e+01 4.982692e+01 3.672078e+01 8.622417e+01 4.776418e+00 3.604312e+00 3.188406e+00 4.202943e+00 4.204813e+00 3.990923e+00 4.493845e+00 4.341285e+00 3.822278e+00 3.208392e+00 2.949014e+00 2.440061e+00 5.100476e+00 7.057875e-01 5.982676e-01 4.904787e-01 6.828809e-01 6.823385e-01 6.829053e-01 7.668460e-01 7.663231e-01 6.823081e-01 5.931386e-01 5.390613e-01 4.430414e-01 8.294354e-01
<GCONST> 1.376565e+02
<STATE> 4
<MEAN> 39
 -8.647549e+00 -7.239709e+00 -5.965762e+00 -1.038515e+01 -8.189765e+00 -6.032911e+00 -6.843749e+00 -1.715595e+00 -3.596243e+00 -1.620075e+00 -2.421649e+00 -2.445767e+00 5.612268e+01 -3.796020e-02 1.446778e-02 -2.821731e-03 1.617496e-02 3.547868e-02 7.293220e-03 3.466166e-02 9.199512e-03 -1.098540e-02 -1.082334e-02 -4.056562e-05 8.620202e-03 -4.739649e-02 -6.503610e-03 1.327853e-03 3.226708e-03 1.259870e-03 -1.342356e-03 2.030932e-03 4.753930e-03 2.458830e-03 6.980918e-05 1.270850e-03 -5.611968e-04 1.085610e-03 -5.647159e-03
<VARIANCE> 39
 9.396519e+01 5.810308e+01 7.748736e+01 7.848141e+01 7.487193e+01 7.352637e+01 7.785184e+01 6.509147e+01 6.313116e+01 4.736992e+01 4.938725e+01 3.675342e+01 8.800323e+01 4.734412e+00 3.573855e+00 3.212416e+00 4.200691e+00 4.237873e+00 4.018917e+00 4.472320e+00 4.323980e+00 3.829448e+00 3.215819e+00 2.950834e+00 2.441111e+00 5.125434e+00 6.956144e-01 5.935106e-01 4.935622e-01 6.822168e-01 6.859970e-01 6.860833e-01 7.636451e-01 7.635195e-01 6.836623e-01 5.942770e-01 5.394329e-01 4.444040e-01 8.358009e-01
<GCONST> 1.376967e+02
<TRANSP> 5
 0.000000e+00 1.000000e+00 0.000000e+00 0.000000e+00 0.000000e+00
 0.000000e+00 6.113685e-01 3.886315e-01 0.000000e+00 0.000000e+00
 0.000000e+00 0.000000e+00 6.113653e-01 3.886347e-01 0.000000e+00
 0.000000e+00 0.000000e+00 0.000000e+00 7.171134e-01 2.828865e-01
 0.000000e+00 0.000000e+00 0.000000e+00 0.000000e+00 0.000000e+00
<ENDHMM>
~h "w"
<BEGINHMM>
<NUMSTATES> 5
<STATE> 2
<MEAN> 39
 -6.731865e+00 -7.286103e+00 -8.336494e+00 -1.281615e+01 -8.685610e+00 -3.571659e+00 -6.029321e+00 -1.532367e+00 -4.034041e+00 -1.257290e+00 -1.561014e+00 -2.300058e+00 5.531579e+01 8.421253e-02 -2.639862e-02 -2.688127e-02 -1.807935e-02 -6.634647e-03 -4.260921e-02 -5.616672e-02 -1.313129e-02 1.155035e-02 7.668727e-03 -1.323147e-02 -1.328170e-02 1.121349e-01 -5.801927e-03 -3.559942e-03 8.119399e-03 5.134055e-03 4.541313e-04 -7.164219e-03 -3.641559e-03 7.297475e-04 -1.522090e-03 -1.962244e-03 -1.517610e-03 1.099236e-03 6.295555e-03
<VARIANCE> 39
 1.145345e+02 6.070754e+01 7.982380e+01 1.004918e+02 7.769430e+01 8.196689e+01 7.767176e+01 6.244030e+01 6.989938e+01 4.993950e+01 5.263699e+01 3.560109e+01 8.802938e+01 5.080627e+00 3.611913e+00 3.540241e+00 5.016302e+00 4.629487e+00 4.574769e+00 4.785776e+00 4.275760e+00 4.228177e+00 3.604239e+00 3.254977e+00 2.678396e+00 4.211934e+00 6.472259e-01 5.767596e-01 5.357851e-01 7.344672e-01 7.531700e-01 7.530307e-01 8.003668e-01 7.839824e-01 7.442225e-01 6.750166e-01 5.955182e-01 4.950326e-01 6.400074e-01
<GCONST> 1.398092e+02
<STATE> 3
<MEAN> 39
 -6.559520e+00 -7.384729e+00 -8.379968e+00 -1.282772e+01 -8.688047e+00 -3.703969e+00 -6.180339e+00 -1.551370e+00 -3.991107e+00 -1.241081e+00 -1.599746e+00 -2.324678e+00 5.561552e+01 5.580953e-02 -3.542422e-02 -5.484820e-03 1.243158e-03 -6.191111e-04 -5.637227e-02 -5.813324e-02 -7.334080e-03 1.260712e-02 4.728280e-03 -1.458181e-02 -8.243782e-03 1.146772e-01 -1.167731e-02 -3.635587e-03 8.625253e-03 7.439423e-03 2.073896e-03 -4.613462e-03 1.071294e-04 2.657365e-03 5.167362e-04 -1.127751e-03 -4.172877e-04 1.878236e-03 -5.610217e-04
<VARIANCE> 39
 1.136299e+02 6.080783e+01 8.191019e+01 1.007328e+02 7.792315e+01 8.343571e+01 7.900587e+01 6.345984e+01 7.072070e+01 5.032737e+01 5.322308e+01 3.586768e+01 8.225877e+01 5.093505e+00 3.625643e+00 3.546133e+00 5.061817e+00 4.638808e+00 4.659268e+00 4.891066e+00 4.329637e+00 4.274250e+00 3.642442e+00 3.282494e+00 2.699396e+00 4.352742e+00 6.500494e-01 5.815840e-01 5.361648e-01 7.406550e-01 7.539034e-01 7.646319e-01 8.120323e-01 7.936333e-01 7.520776e-01 6.814686e-01 6.008915e-01 4.985226e-01 6.597645e-01
<GCONST> 1.401285e+02
<STATE> 4
<MEAN> 39
 -6.526253e+00 -7.527301e+00 -8.398971e+00 -1.277832e+01 -8.668019e+00 -3.875109e+00 -6.282921e+00 -1.555907e+00 -3.909082e+00 -1.254906e+00 -1.668157e+00 -2.341677e+00 5.594622e+01 2.705958e-03 -3.787627e-02 1.247093e-02 3.069469e-02 1.511527e-02 -5.769071e-02 -3.784179e-02 5.241567e-03 2.530579e-02 2.945542e-03 -1.470864e-02 2.953035e-04 8.001672e-02 -1.451619e-02 -1.250530e-04 6.024578e-03 7.265960e-03 3.534586e-03 -2.509775e-04 6.194218e-03 3.122675e-03 2.709920e-03 -8.732486e-04 -3.629298e-04 2.058897e-03 -9.865475e-03
<VARIANCE> 39
 1.134339e+02 6.050320e+01 8.530131e+01 1.016836e+02 7.857917e+01 8.511288e+01 8.029463e+01 6.444991e+01 7.156399e+01 5.078043e+01 5.364769e+01 3.607486e+01 7.752208e+01 4.977237e+00 3.580602e+00 3.539430e+00 5.032752e+00 4.609842e+00 4.692899e+00 4.913503e+00 4.334651e+00 4.268773e+00 3.632934e+00 3.266563e+00 2.689202e+00 4.407180e+00 6.366065e-01 5.748234e-01 5.320809e-01 7.350157e-01 7.475628e-01 7.667676e-01 8.090888e-01 7.919851e-01 7.512702e-01 6.770422e-01 5.980428e-01 4.957207e-01 6.749807e-01
<GCONST> 1.401157e+02
<TRANSP> 5
 0.000000e+00 1.000000e+00 0.000000e+00 0.000000e+00 0.000000e+00
 0.000000e+00 6.206584e-01 3.793416e-01 0.000000e+00 0.000000e+00
 0.000000e+00 0.000000e+00 6.206570e-01 3.793429e-01 0.000000e+00
 0.000000e+00 0.000000e+00 0.000000e+00 7.276843e-01 2.723157e-01
 0.000000e+00 0.000000e+00 0.000000e+00 0.000000e+00 0.000000e+00
<ENDHMM>
~h "y"
<BEGINHMM>
<NUMSTATES> 5
<STATE> 2
<MEAN> 39
 -9.090107e+00 -7.593948e+00 1.234748e+00 -9.233270e+00 -1.197818e+01 -8.119670e+00 -7.758485e+00 -7.493093e-01 -6.298685e+00 -3.090554e+00 -1.713080e+00 -1.662867e+00 5.599247e+01 7.025694e-02 -3.562590e-02 -7.687040e-02 1.690373e-01 5.594504e-02 -1.519219e-01 -1.090455e-01 9.128032e-02 4.291580e-02 -4.450243e-02 7.705668e-03 3.516630e-02 -3.252628e-02 8.509949e-03 -3.650388e-03 -3.683866e-02 -1.927470e-03 1.830431e-02 5.780727e-03 5.304808e-03 5.702611e-03 1.602118e-02 1.920665e-03 -4.527295e-03 -1.671718e-03 6.302599e-04
<VARIANCE> 39
 7.487113e+01 5.806223e+01 1.116383e+02 8.474186e+01 8.037417e+01 8.245102e+01 7.977519e+01 7.282004e+01 7.356144e+01 5.388707e+01 4.862141e+01 3.298205e+01 9.421622e+01 3.545255e+00 3.625692e+00 4.085687e+00 3.732656e+00 4.417808e+00 4.763243e+00 4.386644e+00 4.156010e+00 3.890684e+00 3.194649e+00 2.724920e+00 2.182297e+00 5.188447e+00 4.936286e-01 5.842795e-01 5.024985e-01 6.298630e-01 7.248664e-01 7.863092e-01 7.333899e-01 6.996198e-01 6.487020e-01 5.718420e-01 4.869348e-01 3.993680e-01 8.470165e-01
<GCONST> 1.376450e+02
<STATE> 3
<MEAN> 39
 -8.867180e+00 -7.715076e+00 9.103150e-01 -8.785300e+00 -1.179189e+01 -8.522307e+00 -8.026954e+00 -4.788148e-01 -6.137518e+00 -3.195581e+00 -1.690250e+00 -1.574528e+00 5.592374e+01 9.017562e-02 -4.874822e-02 -1.826143e-01 1.616062e-01 1.084588e-01 -1.327755e-01 -8.922171e-02 1.102694e-01 9.123766e-02 -3.628146e-02 -4.913324e-03 2.991750e-02 -3.101990e-02 4.038240e-03 -3.092495e-03 -3.601408e-02 -3.878709e-03 2.011756e-02 1.074099e-02 8.331911e-03 4.385074e-03 1.680203e-02 3.547500e-03 -5.820815e-03 -2.793266e-03 -1.457680e-03
<VARIANCE> 39
 7.624496e+01 5.818248e+01 1.124484e+02 8.399690e+01 8.182143e+01 8.381932e+01 8.105992e+01 7.412455e+01 7.502067e+01 5.436534e+01 4.843000e+01 3.347033e+01 9.133986e+01 3.633161e+00 3.684185e+00 4.063259e+00 3.709892e+00 4.479435e+00 4.802184e+00 4.493981e+00 4.218583e+00 3.920223e+00 3.214978e+00 2.777684e+00 2.198044e+00 5.299510e+00 5.043839e-01 5.967377e-01 5.016304e-01 6.238521e-01 7.287258e-01 7.863119e-01 7.484072e-01 7.073643e-01 6.491874e-01 5.708483e-01 4.928085e-01 4.006397e-01 8.598219e-01
<GCONST> 1.379884e+02
<STATE> 4
<MEAN> 39
 -8.571904e+00 -7.878229e+00 1.263685e-01 -8.347145e+00 -1.139671e+01 -8.865418e+00 -8.248649e+00 -1.562847e-01 -5.789990e+00 -3.259997e+00 -1.717845e+00 -1.524643e+00 5.583545e+01 9.232751e-02 -6.151889e-02 -2.951903e-01 1.441922e-01 1.705222e-01 -9.281719e-02 -5.242918e-02 1.275504e-01 1.445767e-01 -1.890858e-02 -2.051113e-02 2.027304e-02 -4.129880e-02 -4.168560e-03 -9.670319e-04 -2.862620e-02 -6.783924e-03 1.978803e-02 1.755271e-02 1.233950e-02 8.279761e-04 1.388546e-02 5.149619e-03 -6.656784e-03 -3.798268e-03 -6.454981e-03
<VARIANCE> 39
 7.828432e+01 5.884430e+01 1.146001e+02 8.383025e+01 8.406336e+01 8.555249e+01 8.354419e+01 7.585778e+01 7.678101e+01 5.472226e+01 4.853044e+01 3.422773e+01 9.052185e+01 3.664809e+00 3.730199e+00 3.971763e+00 3.684412e+00 4.484813e+00 4.805916e+00 4.605286e+00 4.258015e+00 3.906246e+00 3.226279e+00 2.831784e+00 2.218720e+00 5.373372e+00 5.049090e-01 6.040392e-01 4.953329e-01 6.117382e-01 7.246540e-01 7.795638e-01 7.626877e-01 7.107649e-01 6.444606e-01 5.666613e-01 4.982038e-01 4.034834e-01 8.621536e-01
<GCONST> 1.382551e+02
<TRANSP> 5
 0.000000e+00 1.000000e+00 0.000000e+00 0.000000e+00 0.000000e+00
 0.000000e+00 6.220178e-01 3.779822e-01 0.000000e+00 0.000000e+00
 0.000000e+00 0.000000e+00 6.220187e-01 3.779813e-01 0.000000e+00
 0.000000e+00 0.000000e+00 0.000000e+00 7.288448e-01 2.711552e-01
 0.000000e+00 0.000000e+00 0.000000e+00 0.000000e+00 0.000000e+00
<ENDHMM>
~h "z"
<BEGINHMM>
<NUMSTATES> 5
<STATE> 2
<MEAN> 39
 -1.329794e+01 -5.147080e+00 -5.264085e+00 -9.933128e+00 -6.461370e+00 -6.588976e+00 -5.905060e+00 -1.263234e+00 -3.250432e+00 -1.465822e+00 -2.685197e+00 -1.716264e+00 5.522982e+01 2.018503e-02 -2.670688e-02 -4.922934e-02 3.655034e-02 4.079091e-02 5.208400e-02 2.049366e-02 6.979335e-03 2.277200e-02 1.974009e-03 8.034557e-03 5.805565e-04 -1.533982e-01 1.563446e-02 -1.986713e-03 -2.366022e-03 8.223827e-03 -5.606921e-03 9.632661e-03 3.465689e-03 -1.305111e-03 -2.396563e-03 1.265293e-04 1.247200e-03 -2.992929e-04 -1.739702e-02
<VARIANCE> 39
 1.200499e+02 6.324646e+01 6.936313e+01 6.797753e+01 8.029053e+01 6.929089e+01 7.176641e+01 5.879015e+01 5.715186e+01 4.406007e+01 4.253228e+01 3.261054e+01 8.819852e+01 6.336201e+00 3.762985e+00 2.949507e+00 3.754016e+00 4.322716e+00 4.128181e+00 4.305815e+00 4.006132e+00 3.515093e+00 3.036069e+00 2.786940e+00 2.303551e+00 4.384498e+00 8.556460e-01 5.935487e-01 4.571944e-01 6.070707e-01 6.810775e-01 7.054514e-01 7.375551e-01 7.142994e-01 6.175920e-01 5.571309e-01 5.054284e-01 4.243030e-01 7.052703e-01
<GCONST> 1.363095e+02
<STATE> 3
<MEAN> 39
 -1.320009e+01 -5.241828e+00 -5.398049e+00 -9.831619e+00 -6.369339e+00 -6.430929e+00 -5.847891e+00 -1.241712e+00 -3.196140e+00 -1.462672e+00 -2.658641e+00 -1.716725e+00 5.479366e+01 6.086987e-02 -3.069317e-02 -5.189713e-02 5.620472e-02 2.285047e-02 7.446996e-02 2.779347e-02 2.590422e-03 1.528154e-02 1.788829e-03 1.002819e-02 -3.786809e-04 -1.921181e-01 6.655420e-03 1.680776e-03 8.064681e-04 6.354730e-03 -6.108495e-03 6.814793e-03 4.284942e-03 -6.850631e-04 -2.559152e-03 6.566361e-04 1.090291e-03 4.296735e-04 -7.805212e-03
<VARIANCE> 39
 1.164265e+02 6.216997e+01 6.832572e+01 6.760178e+01 7.900858e+01 6.890429e+01 7.090196e+01 5.822736e+01 5.669575e+01 4.382059e+01 4.220275e+01 3.238687e+01 9.466697e+01 6.273975e+00 3.756200e+00 2.941234e+00 3.789965e+00 4.303843e+00 4.128705e+00 4.303071e+00 4.012830e+00 3.536016e+00 3.041109e+00 2.792436e+00 2.303745e+00 4.501510e+00 8.529242e-01 5.951636e-01 4.583088e-01 6.130621e-01 6.806431e-01 7.063847e-01 7.391903e-01 7.169767e-01 6.227400e-01 5.584173e-01 5.080925e-01 4.248679e-01 7.249134e-01
<GCONST> 1.363312e+02
<STATE> 4
<MEAN> 39
 -1.302291e+01 -5.352342e+00 -5.601542e+00 -9.666143e+00 -6.329052e+00 -6.178043e+00 -5.702811e+00 -1.241141e+00 -3.154298e+00 -1.466780e+00 -2.619402e+00 -1.710301e+00 5.420129e+01 8.148688e-02 -2.885251e-02 -4.391861e-02 6.666576e-02 2.358775e-03 8.766177e-02 3.407082e-02 -2.217428e-04 6.894722e-03 2.236439e-03 1.179713e-02 3.213596e-04 -2.028880e-01 -1.573265e-03 2.812438e-03 4.573317e-03 1.273761e-03 -5.389856e-03 1.437936e-03 2.438073e-03 3.752325e-04 -1.866646e-03 7.234816e-04 1.046795e-03 1.216817e-03 3.670048e-03
<VARIANCE> 39
 1.123091e+02 6.096911e+01 6.722576e+01 6.791790e+01 7.742213e+01 6.867028e+01 6.995333e+01 5.770304e+01 5.630701e+01 4.366582e+01 4.203111e+01 3.220357e+01 1.045187e+02 6.054671e+00 3.687526e+00 2.911462e+00 3.804122e+00 4.234836e+00 4.085352e+00 4.253166e+00 3.996258e+00 3.542360e+00 3.037445e+00 2.790204e+00 2.292423e+00 4.598055e+00 8.286184e-01 5.867923e-01 4.557024e-01 6.154630e-01 6.734226e-01 6.997760e-01 7.328237e-01 7.148646e-01 6.251388e-01 5.580165e-01 5.091898e-01 4.231388e-01 7.426403e-01
<GCONST> 1.361586e+02
<TRANSP> 5
 0.000000e+00 1.000000e+00 0.000000e+00 0.000000e+00 0.000000e+00
 0.000000e+00 6.173121e-01 3.826879e-01 0.000000e+00 0.000000e+00
 0.000000e+00 0.000000e+00 6.173075e-01 3.826925e-01 0.000000e+00
 0.000000e+00 0.000000e+00 0.000000e+00 7.241295e-01 2.758705e-01
 0.000000e+00 0.000000e+00 0.000000e+00 0.000000e+00 0.000000e+00
<ENDHMM>
~h "aa"
<BEGINHMM>
<NUMSTATES> 5
<STATE> 2
<MEAN> 39
 -6.979967e+00 -8.839081e+00 -9.240309e+00 -1.239307e+01 -7.116298e+00 -3.518811e+00 -6.063132e+00 -1.018463e+00 -2.942830e+00 -1.534444e+00 -1.855157e+00 -2.551261e+00 5.664271e+01 7.744045e-03 -2.209249e-03 2.413988e-02 4.120157e-03 -2.789929e-03 -4.011329e-02 -3.135293e-02 3.446250e-03 -8.552237e-03 -8.624084e-03 -6.972933e-03 4.217476e-03 3.502824e-02 -6.739945e-03 6.915407e-03 1.276877e-02 7.556080e-03 -3.946470e-03 -5.624111e-03 3.737985e-05 -9.427826e-04 -3.341473e-03 -1.284701e-03 -2.816828e-04 2.167930e-03 -8.984466e-03
<VARIANCE> 39
 1.109081e+02 6.147994e+01 9.570853e+01 1.025820e+02 7.667627e+01 9.201848e+01 8.273559e+01 6.870097e+01 6.889021e+01 4.931596e+01 5.209636e+01 3.800519e+01 8.956845e+01 4.869121e+00 3.509049e+00 3.630547e+00 4.731316e+00 4.104892e+00 4.622302e+00 4.670561e+00 4.095552e+00 3.919472e+00 3.230471e+00 3.018979e+00 2.522635e+00 5.289110e+00 6.467632e-01 5.620260e-01 5.078261e-01 6.846933e-01 6.715503e-01 7.449642e-01 7.637961e-01 7.192190e-01 6.773045e-01 5.857141e-01 5.423473e-01 4.540366e-01 8.408363e-01
<GCONST> 1.393714e+02
<STATE> 3
<MEAN> 39
 -7.002505e+00 -8.804396e+00 -9.113689e+00 -1.234327e+01 -7.137998e+00 -3.646953e+00 -6.142106e+00 -1.015416e+00 -2.979867e+00 -1.558107e+00 -1.873472e+00 -2.527048e+00 5.667802e+01 -1.277606e-02 1.700841e-02 5.943286e-02 2.579044e-02 -1.358739e-02 -5.610489e-02 -3.058697e-02 8.957456e-04 -1.715507e-02 -1.069427e-02 -7.413884e-03 1.063878e-02 9.607597e-03 -7.275986e-03 6.822892e-03 1.236225e-02 7.410740e-03 -3.892097e-03 -5.400911e-03 9.079922e-04 -8.790540e-04 -2.986423e-03 -7.351711e-04 -6.660444e-05 2.451380e-03 -9.551153e-03
<VARIANCE> 39
 1.110161e+02 6.139678e+01 9.840878e+01 1.019706e+02 7.715747e+01 9.261361e+01 8.315858e+01 6.899588e+01 6.943661e+01 4.948526e+01 5.214266e+01 3.803874e+01 8.745634e+01 4.831577e+00 3.480356e+00 3.621810e+00 4.687531e+00 4.088383e+00 4.615931e+00 4.668010e+00 4.084013e+00 3.911658e+00 3.223729e+00 3.001299e+00 2.506576e+00 5.189415e+00 6.406099e-01 5.585124e-01 5.049083e-01 6.805419e-01 6.680978e-01 7.432163e-01 7.612835e-01 7.163061e-01 6.751814e-01 5.841808e-01 5.392194e-01 4.511572e-01 8.284920e-01
<GCONST> 1.392571e+02
<STATE> 4
<MEAN> 39
 -7.160527e+00 -8.660333e+00 -8.853432e+00 -1.222512e+01 -7.208615e+00 -3.819526e+00 -6.194629e+00 -1.048804e+00 -3.055337e+00 -1.606992e+00 -1.894022e+00 -2.483729e+00 5.660340e+01 -4.033577e-02 3.886164e-02 9.847835e-02 5.176053e-02 -2.551781e-02 -7.343549e-02 -2.662358e-02 -1.976859e-03 -2.503284e-02 -9.897527e-03 -7.831568e-03 1.827153e-02 -2.314984e-02 -6.675680e-03 5.232695e-03 9.670915e-03 6.600181e-03 -3.203520e-03 -4.631083e-03 1.330912e-03 -3.496417e-04 -1.887046e-03 -8.825682e-06 -7.359465e-05 2.161723e-03 -8.661089e-03
<VARIANCE> 39
 1.117236e+02 6.139067e+01 1.016753e+02 1.018113e+02 7.805486e+01 9.310397e+01 8.351903e+01 6.914880e+01 6.986716e+01 4.956980e+01 5.188129e+01 3.797662e+01 8.670521e+01 4.722896e+00 3.421873e+00 3.579788e+00 4.598006e+00 4.059948e+00 4.577652e+00 4.626124e+00 4.052284e+00 3.878782e+00 3.197526e+00 2.965197e+00 2.474156e+00 5.061818e+00 6.259155e-01 5.504546e-01 4.987997e-01 6.714187e-01 6.622165e-01 7.362822e-01 7.518702e-01 7.093748e-01 6.692102e-01 5.789514e-01 5.328974e-01 4.457869e-01 8.122520e-01
<GCONST> 1.389758e+02
<TRANSP> 5
 0.000000e+00 1.000000e+00 0.000000e+00 0.000000e+00 0.000000e+00
 0.000000e+00 6.222088e-01 3.777912e-01 0.000000e+00 0.000000e+00
 0.000000e+00 0.000000e+00 6.222073e-01 3.777927e-01 0.000000e+00
 0.000000e+00 0.000000e+00 0.000000e+00 7.294858e-01 2.705142e-01
 0.000000e+00 0.000000e+00 0.000000e+00 0.000000e+00 0.000000e+00
<ENDHMM>
~h "ae"
<BEGINHMM>
<NUMSTATES> 5
<STATE> 2
<MEAN> 39
 -8.615825e+00 -9.356382e+00 -5.110051e+00 -1.049007e+01 -9.917759e+00 -6.562964e+00 -4.611525e+00 4.655621e-01 -3.551172e+00 -2.086339e+00 -3.264303e+00 -2.532774e+00 5.730388e+01 3.409895e-03 2.798648e-02 -3.275691e-02 -2.606532e-03 3.007309e-02 -1.581581e-03 1.351357e-02 -1.406658e-02 3.339252e-03 5.207881e-03 -5.091849e-03 -6.076451e-03 -1.806522e-02 -7.456416e-03 6.062155e-03 1.434914e-03 4.577381e-03 6.619386e-03 1.895415e-03 -4.930471e-03 -5.554301e-03 -4.378668e-04 1.941905e-03 4.028711e-03 2.006419e-03 -1.288847e-02
<VARIANCE> 39
 8.157185e+01 6.508463e+01 7.214505e+01 7.411540e+01 7.594778e+01 7.264516e+01 7.673006e+01 7.588737e+01 7.008673e+01 4.949083e+01 5.156607e+01 3.760308e+01 1.047945e+02 3.828541e+00 3.743587e+00 3.103272e+00 3.902703e+00 4.093206e+00 3.979227e+00 4.082271e+00 4.488703e+00 3.929822e+00 3.271510e+00 2.977763e+00 2.438841e+00 5.435768e+00 5.465147e-01 5.950630e-01 4.766493e-01 6.395696e-01 6.721374e-01 6.742749e-01 7.018970e-01 7.732331e-01 6.965595e-01 5.974470e-01 5.402250e-01 4.427027e-01 8.540636e-01
<GCONST> 1.374033e+02
<STATE> 3
<MEAN> 39
 -8.633281e+00 -9.258569e+00 -5.187433e+00 -1.047326e+01 -9.815624e+00 -6.558211e+00 -4.603153e+00 4.063345e-01 -3.545636e+00 -2.068204e+00 -3.261413e+00 -2.539389e+00 5.720238e+01 -1.403558e-02 4.591468e-02 -2.390129e-02 1.114692e-02 4.529569e-02 2.914930e-03 -3.423431e-03 -3.034343e-02 -5.364001e-04 9.645184e-03 6.033351e-03 -4.125626e-04 -5.552679e-02 -5.939737e-03 6.294119e-03 3.839944e-03 5.617243e-03 5.113310e-03 1.834499e-03 -6.240522e-03 -5.870795e-03 -1.757485e-03 1.309359e-03 4.298343e-03 2.292223e-03 -1.464550e-02
<VARIANCE> 39
 8.189895e+01 6.518378e+01 7.118858e+01 7.446891e+01 7.631189e+01 7.241037e+01 7.621547e+01 7.524009e+01 6.970750e+01 4.960551e+01 5.138824e+01 3.759136e+01 1.045305e+02 3.883097e+00 3.823352e+00 3.142651e+00 3.963196e+00 4.134878e+00 4.043194e+00 4.100194e+00 4.540360e+00 3.960862e+00 3.293109e+00 3.004179e+00 2.465100e+00 5.551605e+00 5.552279e-01 6.082322e-01 4.848969e-01 6.506351e-01 6.821899e-01 6.873970e-01 7.095238e-01 7.858970e-01 7.047110e-01 6.029614e-01 5.458833e-01 4.479755e-01 8.740320e-01
<GCONST> 1.377367e+02
<STATE> 4
<MEAN> 39
 -8.758101e+00 -9.052372e+00 -5.253287e+00 -1.039399e+01 -9.643968e+00 -6.529249e+00 -4.628160e+00 2.394793e-01 -3.580720e+00 -2.051604e+00 -3.213595e+00 -2.515194e+00 5.690932e+01 -2.839017e-02 6.641988e-02 -6.848792e-03 3.038811e-02 5.636388e-02 7.872427e-03 -2.648558e-02 -4.838870e-02 -8.018304e-03 1.302908e-02 1.968561e-02 7.681202e-03 -1.035262e-01 -3.948327e-03 5.540380e-03 5.113509e-03 6.104234e-03 2.880769e-03 2.025892e-03 -5.667863e-03 -4.865536e-03 -2.385872e-03 7.818944e-04 4.296274e-03 2.616472e-03 -1.478512e-02
<VARIANCE> 39
 8.318007e+01 6.512811e+01 7.070202e+01 7.535239e+01 7.686115e+01 7.233785e+01 7.572348e+01 7.412170e+01 6.907255e+01 4.973903e+01 5.096577e+01 3.749111e+01 1.060724e+02 3.932714e+00 3.876989e+00 3.197556e+00 4.039734e+00 4.203150e+00 4.139052e+00 4.131501e+00 4.596197e+00 3.993743e+00 3.320382e+00 3.032041e+00 2.493826e+00 5.696583e+00 5.632017e-01 6.203253e-01 4.957657e-01 6.656982e-01 6.980242e-01 7.068275e-01 7.204003e-01 8.014267e-01 7.140890e-01 6.101055e-01 5.518681e-01 4.542767e-01 9.034389e-01
<GCONST> 1.381717e+02
<TRANSP> 5
 0.000000e+00 1.000000e+00 0.000000e+00 0.000000e+00 0.000000e+00
 0.000000e+00 6.188915e-01 3.811085e-01 0.000000e+00 0.000000e+00
 0.000000e+00 0.000000e+00 6.188928e-01 3.811072e-01 0.000000e+00
 0.000000e+00 0.000000e+00 0.000000e+00 7.254829e-01 2.745171e-01
 0.000000e+00 0.000000e+00 0.000000e+00 0.000000e+00 0.000000e+00
<ENDHMM>
~h "ah"
<BEGINHMM>
<NUMSTATES> 5
<STATE> 2
<MEAN> 39
 -9.805180e+00 -6.816042e+00 -5.778603e+00 -1.016162e+01 -7.650342e+00 -5.444079e+00 -6.307571e+00 -1.587721e+00 -3.299209e+00 -1.331710e+00 -2.748394e+00 -2.373269e+00 5.518540e+01 3.959334e-02 -2.300480e-02 1.234275e-02 -5.041672e-02 -2.876550e-02 -1.670023e-02 -1.493770e-02 -9.245643e-03 -1.828131e-02 -9.056822e-03 -1.493737e-02 -1.207351e-02 1.281129e-01 -4.467573e-03 -1.748249e-03 -5.237183e-04 2.588612e-03 1.941292e-03 4.469734e-03 4.879622e-03 3.074975e-03 -2.117335e-03 -1.309847e-03 2.764041e-03 2.198494e-03 -1.091721e-02
<VARIANCE> 39
 9.858271e+01 5.954169e+01 6.912747e+01 8.147976e+01 7.319807e+01 7.244323e+01 7.285983e+01 6.425537e+01 6.309308e+01 4.736839e+01 4.846152e+01 3.710839e+01 1.052110e+02 5.271149e+00 3.916700e+00 3.240952e+00 4.672941e+00 4.344248e+00 4.324159e+00 4.659341e+00 4.503726e+00 4.225883e+00 3.394469e+00 3.189994e+00 2.645294e+00 6.893418e+00 7.588264e-01 6.693139e-01 5.187003e-01 7.741258e-01 7.206549e-01 7.466733e-01 8.187852e-01 8.123433e-01 7.584484e-01 6.335400e-01 5.844658e-01 4.851472e-01 1.125203e+00
<GCONST> 1.401276e+02
<STATE> 3
<MEAN> 39
 -9.727447e+00 -6.878157e+00 -5.757620e+00 -1.027523e+01 -7.705662e+00 -5.457512e+00 -6.318735e+00 -1.600588e+00 -3.352995e+00 -1.360762e+00 -2.771564e+00 -2.394894e+00 5.545041e+01 2.495413e-02 -2.455581e-02 9.922856e-03 -4.094160e-02 -2.139817e-02 -5.136661e-03 -1.861292e-03 -1.853445e-03 -2.221981e-02 -1.199603e-02 -6.697720e-03 -5.903313e-03 9.469890e-02 -5.875106e-03 -4.503441e-04 -1.098488e-03 4.084298e-03 2.831694e-03 4.272426e-03 4.916579e-03 2.918320e-03 -9.940132e-04 -1.313424e-03 3.237335e-03 2.403674e-03 -1.312205e-02
<VARIANCE> 39
 9.906947e+01 6.009240e+01 7.039303e+01 8.208717e+01 7.410360e+01 7.273067e+01 7.310378e+01 6.482187e+01 6.354667e+01 4.767769e+01 4.868782e+01 3.734189e+01 1.009862e+02 5.260269e+00 3.934005e+00 3.236924e+00 4.692300e+00 4.344852e+00 4.304017e+00 4.640402e+00 4.512923e+00 4.227736e+00 3.395424e+00 3.190957e+00 2.645772e+00 6.803817e+00 7.555197e-01 6.705856e-01 5.151070e-01 7.752445e-01 7.198606e-01 7.421253e-01 8.146166e-01 8.125778e-01 7.568378e-01 6.324039e-01 5.840721e-01 4.843566e-01 1.118520e+00
<GCONST> 1.401339e+02
<STATE> 4
<MEAN> 39
 -9.715488e+00 -6.957952e+00 -5.784451e+00 -1.039306e+01 -7.754714e+00 -5.425984e+00 -6.264218e+00 -1.610364e+00 -3.413869e+00 -1.421997e+00 -2.765599e+00 -2.398374e+00 5.567107e+01 9.567354e-03 -2.435953e-02 4.947167e-03 -2.643220e-02 -1.228527e-02 3.884435e-03 8.796660e-03 6.141711e-03 -2.118884e-02 -1.507239e-02 2.591267e-03 1.258561e-03 5.394062e-02 -4.460179e-03 -1.056075e-04 -1.157362e-03 4.553711e-03 2.221684e-03 2.164213e-03 2.757029e-03 2.540939e-03 8.372932e-04 -1.098537e-03 2.590987e-03 2.127824e-03 -1.140448e-02
<VARIANCE> 39
 9.993301e+01 6.076188e+01 7.198930e+01 8.295718e+01 7.541547e+01 7.327003e+01 7.326797e+01 6.549590e+01 6.398440e+01 4.796443e+01 4.884486e+01 3.751582e+01 9.901138e+01 5.154685e+00 3.901954e+00 3.205897e+00 4.645950e+00 4.313084e+00 4.255800e+00 4.565574e+00 4.486554e+00 4.182288e+00 3.370823e+00 3.164524e+00 2.620164e+00 6.594016e+00 7.365324e-01 6.601186e-01 5.060548e-01 7.634864e-01 7.119089e-01 7.307296e-01 7.987139e-01 8.043571e-01 7.457699e-01 6.256571e-01 5.783526e-01 4.784432e-01 1.089049e+00
<GCONST> 1.398641e+02
<TRANSP> 5
 0.000000e+00 1.000000e+00 0.000000e+00 0.000000e+00 0.000000e+00
 0.000000e+00 6.105508e-01 3.894492e-01 0.000000e+00 0.000000e+00
 0.000000e+00 0.000000e+00 6.105439e-01 3.894561e-01 0.000000e+00
 0.000000e+00 0.000000e+00 0.000000e+00 7.162400e-01 2.837600e-01
 0.000000e+00 0.000000e+00 0.000000e+00 0.000000e+00 0.000000e+00
<ENDHMM>
~h "aw"
<BEGINHMM>
<NUMSTATES> 5
<STATE> 2
<MEAN> 39
 -7.233039e+00 -1.026938e+01 -8.989729e+00 -1.142561e+01 -6.650901e+00 -3.504348e+00 -4.995523e+00 -1.643262e+00 -2.578065e+00 -1.850839e+00 -3.639591e+00 -3.110377e+00 5.716037e+01 5.696462e-02 1.152546e-02 -1.572196e-02 -6.066315e-02 -1.453852e-02 -1.824939e-03 -2.612596e-02 -1.956118e-02 -1.722291e-02 -4.288191e-03 -1.074141e-02 -2.632611e-02 8.999237e-02 -5.663165e-03 1.214688e-02 7.577644e-03 3.389414e-03 -5.097350e-03 -5.132662e-03 -5.239584e-03 7.454497e-04 1.155315e-03 2.947262e-03 4.721495e-03 2.254459e-03 -1.419486e-02
<VARIANCE> 39
 8.476955e+01 7.234525e+01 7.078165e+01 8.205425e+01 6.812155e+01 7.837880e+01 7.684765e+01 7.022480e+01 6.561169e+01 5.219477e+01 5.284752e+01 4.045528e+01 1.075307e+02 3.848552e+00 3.945300e+00 2.985175e+00 4.170743e+00 3.806465e+00 3.848820e+00 3.964484e+00 4.304244e+00 3.785126e+00 3.107647e+00 3.063406e+00 2.489338e+00 5.561717e+00 5.381525e-01 6.122677e-01 4.522999e-01 6.663117e-01 6.310368e-01 6.395677e-01 6.714876e-01 7.411144e-01 6.645673e-01 5.527256e-01 5.432214e-01 4.398715e-01 8.339944e-01
<GCONST> 1.371725e+02
<STATE> 3
<MEAN> 39
 -7.125092e+00 -1.015851e+01 -8.992459e+00 -1.154841e+01 -6.710690e+00 -3.531580e+00 -5.093866e+00 -1.687010e+00 -2.618556e+00 -1.842289e+00 -3.636678e+00 -3.154413e+00 5.728464e+01 3.362733e-02 4.377908e-02 6.299865e-03 -4.568994e-02 -2.746678e-02 -1.592134e-02 -3.708908e-02 -1.467370e-02 -1.445509e-02 4.700031e-03 3.291210e-03 -1.457819e-02 4.322592e-02 -7.463886e-03 1.079617e-02 7.291581e-03 5.530269e-03 -4.766197e-03 -5.372333e-03 -4.569189e-03 2.112860e-03 9.957270e-04 3.352755e-03 5.458055e-03 4.629514e-03 -1.721099e-02
<VARIANCE> 39
 8.457358e+01 7.285884e+01 7.149155e+01 8.201051e+01 6.913367e+01 7.848178e+01 7.681778e+01 7.017190e+01 6.604099e+01 5.203300e+01 5.359675e+01 4.051217e+01 1.036335e+02 3.879328e+00 3.916792e+00 3.016161e+00 4.218795e+00 3.835492e+00 3.873487e+00 3.991772e+00 4.306320e+00 3.831625e+00 3.128948e+00 3.092003e+00 2.508447e+00 5.464316e+00 5.383009e-01 6.089785e-01 4.561046e-01 6.745982e-01 6.340840e-01 6.422257e-01 6.731843e-01 7.424265e-01 6.726287e-01 5.561810e-01 5.487318e-01 4.447636e-01 8.245471e-01
<GCONST> 1.373027e+02
<STATE> 4
<MEAN> 39
 -7.117229e+00 -9.890692e+00 -8.943861e+00 -1.165704e+01 -6.849496e+00 -3.641893e+00 -5.207015e+00 -1.754060e+00 -2.685127e+00 -1.813774e+00 -3.566434e+00 -3.129449e+00 5.726788e+01 -5.028571e-03 7.744722e-02 3.189613e-02 -1.750498e-02 -3.662437e-02 -3.502868e-02 -4.519397e-02 -2.846907e-03 -1.473490e-02 1.338995e-02 1.872326e-02 7.510946e-03 -2.065099e-02 -8.443181e-03 7.363598e-03 6.114434e-03 7.050953e-03 -2.499258e-03 -5.362124e-03 -2.072263e-03 2.768135e-03 -6.943496e-04 2.087602e-03 3.949023e-03 5.924811e-03 -1.578203e-02
<VARIANCE> 39
 8.606648e+01 7.310473e+01 7.334144e+01 8.287808e+01 7.061789e+01 7.857719e+01 7.680045e+01 6.968450e+01 6.684150e+01 5.170555e+01 5.435329e+01 4.046968e+01 1.006788e+02 3.860635e+00 3.823576e+00 3.034618e+00 4.251611e+00 3.863335e+00 3.893714e+00 4.008911e+00 4.276455e+00 3.861758e+00 3.151593e+00 3.110469e+00 2.519344e+00 5.328180e+00 5.316169e-01 5.934133e-01 4.564895e-01 6.795596e-01 6.359450e-01 6.452073e-01 6.728596e-01 7.385391e-01 6.773191e-01 5.590526e-01 5.536772e-01 4.508104e-01 8.156236e-01
<GCONST> 1.373548e+02
<TRANSP> 5
 0.000000e+00 1.000000e+00 0.000000e+00 0.000000e+00 0.000000e+00
 0.000000e+00 6.260945e-01 3.739055e-01 0.000000e+00 0.000000e+00
 0.000000e+00 0.000000e+00 6.260967e-01 3.739033e-01 0.000000e+00
 0.000000e+00 0.000000e+00 0.000000e+00 7.351971e-01 2.648030e-01
 0.000000e+00 0.000000e+00 0.000000e+00 0.000000e+00 0.000000e+00
<ENDHMM>
~h "ay"
<BEGINHMM>
<NUMSTATES> 5
<STATE> 2
<MEAN> 39
 -8.778687e+00 -9.263785e+00 -7.694766e+00 -1.044273e+01 -7.237881e+00 -4.857183e+00 -4.174561e+00 -6.012071e-01 -2.286331e+00 -1.858116e+00 -3.251409e+00 -2.907310e+00 5.605024e+01 -3.976667e-02 -2.375089e-02 1.953261e-02 -1.612253e-03 -1.481885e-02 -2.918167e-02 1.120759e-02 3.491752e-02 7.076838e-03 -2.858130e-02 -2.460281e-02 8.169400e-03 4.567906e-02 -1.017407e-03 2.401902e-03 4.871458e-03 1.359137e-03 -4.084990e-03 -3.444351e-03 -2.962393e-03 -1.331844e-03 -2.451131e-03 -1.069573e-03 -1.259588e-04 2.433328e-03 -3.354711e-03
<VARIANCE> 39
 8.748899e+01 7.279701e+01 6.946692e+01 7.860687e+01 7.285233e+01 7.461739e+01 6.765560e+01 6.750235e+01 6.509086e+01 4.704896e+01 4.823978e+01 3.992568e+01 1.210150e+02 4.134598e+00 3.856051e+00 3.468368e+00 4.310519e+00 4.421410e+00 4.189023e+00 3.772134e+00 4.302466e+00 3.906790e+00 3.075275e+00 2.993051e+00 2.566345e+00 5.812728e+00 5.889491e-01 5.754515e-01 5.398859e-01 6.841324e-01 7.280430e-01 6.908489e-01 6.489761e-01 7.438905e-01 6.827540e-01 5.599877e-01 5.414003e-01 4.551277e-01 8.627956e-01
<GCONST> 1.379164e+02
<STATE> 3
<MEAN> 39
 -8.897839e+00 -9.288533e+00 -7.610020e+00 -1.042503e+01 -7.294891e+00 -4.952554e+00 -4.156681e+00 -5.118532e-01 -2.284040e+00 -1.932535e+00 -3.306555e+00 -2.871278e+00 5.612638e+01 -4.363882e-02 -1.062874e-02 3.428171e-02 5.929366e-03 -2.539758e-02 -3.926369e-02 4.586051e-03 3.078239e-02 -1.004869e-03 -2.820248e-02 -2.329752e-02 1.557516e-02 2.859921e-02 -2.871319e-05 4.965048e-03 5.441339e-03 3.001060e-03 -4.331557e-03 -3.695623e-03 -2.618714e-03 -1.919427e-03 -3.081793e-03 9.133512e-04 6.854478e-04 2.307632e-03 -6.991540e-03
<VARIANCE> 39
 8.826205e+01 7.292342e+01 6.896122e+01 7.755372e+01 7.327547e+01 7.405088e+01 6.787579e+01 6.729947e+01 6.530887e+01 4.676038e+01 4.805359e+01 3.986122e+01 1.193189e+02 4.150764e+00 3.810521e+00 3.390311e+00 4.216913e+00 4.400492e+00 4.138602e+00 3.760715e+00 4.248842e+00 3.854743e+00 3.044357e+00 2.960439e+00 2.536589e+00 5.780066e+00 5.900779e-01 5.695838e-01 5.282871e-01 6.730682e-01 7.217759e-01 6.829345e-01 6.462675e-01 7.352126e-01 6.731513e-01 5.547958e-01 5.357685e-01 4.504164e-01 8.595296e-01
<GCONST> 1.376147e+02
<STATE> 4
<MEAN> 39
 -9.099818e+00 -9.217023e+00 -7.452934e+00 -1.037856e+01 -7.393844e+00 -5.077907e+00 -4.140738e+00 -4.613563e-01 -2.337745e+00 -2.013966e+00 -3.348316e+00 -2.801015e+00 5.610571e+01 -4.822535e-02 1.644004e-02 4.983482e-02 2.010712e-02 -3.286781e-02 -4.790101e-02 -2.436892e-03 2.304014e-02 -1.238334e-02 -1.890562e-02 -1.648064e-02 2.472194e-02 -1.066370e-02 3.987495e-04 6.663631e-03 3.866507e-03 3.508457e-03 -2.208959e-03 -1.981143e-03 -2.387925e-03 -2.733213e-03 -3.033695e-03 2.870156e-03 1.653632e-03 1.826865e-03 -1.075203e-02
<VARIANCE> 39
 8.874727e+01 7.262599e+01 6.833243e+01 7.643324e+01 7.382110e+01 7.304101e+01 6.821098e+01 6.694672e+01 6.551998e+01 4.653756e+01 4.794474e+01 3.952219e+01 1.189082e+02 4.095274e+00 3.708241e+00 3.271374e+00 4.071809e+00 4.344536e+00 4.050097e+00 3.741266e+00 4.169498e+00 3.773331e+00 3.017083e+00 2.913738e+00 2.477951e+00 5.642622e+00 5.809860e-01 5.568848e-01 5.093102e-01 6.553032e-01 7.078681e-01 6.680526e-01 6.420821e-01 7.220703e-01 6.587548e-01 5.507166e-01 5.275917e-01 4.411835e-01 8.468763e-01
<GCONST> 1.370590e+02
<TRANSP> 5
 0.000000e+00 1.000000e+00 0.000000e+00 0.000000e+00 0.000000e+00
 0.000000e+00 6.202117e-01 3.797883e-01 0.000000e+00 0.000000e+00
 0.000000e+00 0.000000e+00 6.202123e-01 3.797878e-01 0.000000e+00
 0.000000e+00 0.000000e+00 0.000000e+00 7.274016e-01 2.725984e-01
 0.000000e+00 0.000000e+00 0.000000e+00 0.000000e+00 0.000000e+00
<ENDHMM>
~h "ch"
<BEGINHMM>
<NUMSTATES> 5
<STATE> 2
<MEAN> 39
 -1.459903e+01 -7.306615e+00 -2.372575e+00 -9.780168e+00 -7.930074e+00 -5.104218e+00 -5.739460e+00 -7.356335e-01 -3.303544e+00 -1.798502e+00 -1.998263e+00 -1.538795e+00 5.548633e+01 -6.853668e-03 -5.209791e-03 -6.310545e-02 -1.824059e-03 4.583842e-02 9.688673e-03 1.433178e-02 2.062597e-02 3.143794e-02 4.279641e-03 -1.495099e-02 -4.905718e-03 9.092373e-03 1.139315e-02 -2.898121e-03 -1.162872e-02 -4.074408e-04 4.951057e-04 -9.087514e-05 -1.954661e-03 1.569980e-04 4.770980e-04 -1.192787e-03 -5.777642e-04 -6.563509e-04 2.148304e-03
<VARIANCE> 39
 1.379567e+02 5.607997e+01 7.966954e+01 6.845480e+01 7.113560e+01 6.971928e+01 7.219180e+01 5.666342e+01 5.927625e+01 4.210473e+01 4.252852e+01 3.164864e+01 1.047960e+02 6.780214e+00 3.618489e+00 3.482710e+00 4.206185e+00 4.214909e+00 4.466675e+00 4.710238e+00 3.818775e+00 3.594272e+00 3.087574e+00 2.850099e+00 2.276911e+00 7.128000e+00 8.383924e-01 6.334399e-01 5.374936e-01 7.414508e-01 6.813264e-01 7.358238e-01 7.847514e-01 6.815504e-01 6.222552e-01 5.714070e-01 5.150695e-01 4.165995e-01 1.229893e+00
<GCONST> 1.384548e+02
<STATE> 3
<MEAN> 39
 -1.454366e+01 -7.336596e+00 -2.592218e+00 -9.785583e+00 -7.813799e+00 -5.096614e+00 -5.711062e+00 -6.771668e-01 -3.227647e+00 -1.793860e+00 -2.043801e+00 -1.559452e+00 5.553051e+01 2.766024e-02 -1.147391e-02 -8.967143e-02 -1.836543e-03 4.425023e-02 6.374251e-03 8.878636e-03 2.099453e-02 2.943675e-02 2.829959e-03 -1.652732e-02 -6.587615e-03 1.450110e-02 1.219465e-02 -2.238218e-03 -7.684793e-03 -8.070329e-04 -2.325698e-03 -1.514637e-03 -2.510545e-03 -6.715013e-04 -1.724737e-03 -4.538052e-04 5.165896e-05 -1.254089e-03 3.899936e-03
<VARIANCE> 39
 1.386222e+02 5.649981e+01 7.899855e+01 6.816778e+01 7.064314e+01 6.924921e+01 7.229714e+01 5.701072e+01 5.872093e+01 4.209775e+01 4.230101e+01 3.183104e+01 1.025300e+02 6.791568e+00 3.612996e+00 3.441148e+00 4.159464e+00 4.179976e+00 4.429867e+00 4.702415e+00 3.802369e+00 3.551154e+00 3.067731e+00 2.830315e+00 2.274099e+00 7.033114e+00 8.426965e-01 6.308200e-01 5.324017e-01 7.311820e-01 6.746962e-01 7.301562e-01 7.822592e-01 6.762087e-01 6.140978e-01 5.664446e-01 5.099849e-01 4.153452e-01 1.207853e+00
<GCONST> 1.382275e+02
<STATE> 4
<MEAN> 39
 -1.437568e+01 -7.350190e+00 -2.944847e+00 -9.782428e+00 -7.686738e+00 -5.084319e+00 -5.679102e+00 -6.509441e-01 -3.162825e+00 -1.799804e+00 -2.123645e+00 -1.624696e+00 5.558258e+01 7.526036e-02 -1.243437e-02 -1.105877e-01 1.268499e-03 3.828248e-02 -1.162064e-03 2.454004e-03 1.571533e-02 2.104268e-02 4.159272e-03 -1.836490e-02 -1.251649e-02 1.080929e-02 1.279090e-02 -3.246057e-04 -4.059216e-03 1.187232e-04 -3.055253e-03 -2.325000e-03 -2.880854e-03 -1.781410e-03 -2.909956e-03 5.507306e-04 3.784406e-04 -2.315662e-03 -3.240338e-04
<VARIANCE> 39
 1.385524e+02 5.774566e+01 7.853295e+01 6.831419e+01 7.052752e+01 6.908389e+01 7.257758e+01 5.820447e+01 5.839400e+01 4.221347e+01 4.217191e+01 3.235615e+01 1.016604e+02 6.656430e+00 3.557863e+00 3.357125e+00 4.035029e+00 4.134056e+00 4.351704e+00 4.639371e+00 3.783864e+00 3.494421e+00 3.034306e+00 2.799580e+00 2.267727e+00 6.753050e+00 8.285052e-01 6.154586e-01 5.195267e-01 7.051494e-01 6.656728e-01 7.165308e-01 7.699091e-01 6.680363e-01 6.049077e-01 5.586758e-01 5.021979e-01 4.132986e-01 1.148953e+00
<GCONST> 1.377864e+02
<TRANSP> 5
 0.000000e+00 1.000000e+00 0.000000e+00 0.000000e+00 0.000000e+00
 0.000000e+00 6.246760e-01 3.753240e-01 0.000000e+00 0.000000e+00
 0.000000e+00 0.000000e+00 6.246749e-01 3.753252e-01 0.000000e+00
 0.000000e+00 0.000000e+00 0.000000e+00 7.327965e-01 2.672034e-01
 0.000000e+00 0.000000e+00 0.000000e+00 0.000000e+00 0.000000e+00
<ENDHMM>
~h "dh"
<BEGINHMM>
<NUMSTATES> 5
<STATE> 2
<MEAN> 39
 -1.157472e+01 -6.067000e+00 -6.041840e+00 -8.226862e+00 -6.992084e+00 -5.261334e+00 -4.751067e+00 -9.447300e-01 -2.220484e+00 -1.112152e+00 -2.829402e+00 -1.827205e+00 5.107180e+01 1.166291e-01 -4.587621e-02 2.733224e-02 -1.043447e-01 -9.974501e-02 -1.190545e-01 -8.509869e-02 -4.043339e-02 -2.302673e-02 -2.340486e-02 -5.675248e-02 -3.674088e-02 3.859421e-01 2.096294e-02 -1.530772e-02 -2.278537e-03 -1.734981e-02 -2.124278e-02 -1.624988e-02 -1.309663e-02 2.902861e-04 -3.788855e-03 -7.967855e-03 -1.878637e-03 4.759930e-04 4.975565e-02
<VARIANCE> 39
 8.345080e+01 5.375360e+01 5.135014e+01 7.094012e+01 6.341584e+01 6.227243e+01 6.533739e+01 5.406797e+01 5.379254e+01 4.093596e+01 4.328455e+01 3.329812e+01 1.577448e+02 4.129071e+00 3.203275e+00 2.792391e+00 3.754595e+00 3.798597e+00 3.859419e+00 3.975557e+00 3.671212e+00 3.484332e+00 2.921236e+00 2.765102e+00 2.316079e+00 6.864826e+00 6.158319e-01 5.466287e-01 4.799469e-01 6.376893e-01 6.410583e-01 6.733554e-01 7.064030e-01 6.623213e-01 6.348721e-01 5.511585e-01 5.118028e-01 4.318699e-01 1.052837e+00
<GCONST> 1.347899e+02
<STATE> 3
<MEAN> 39
 -1.118131e+01 -6.258390e+00 -5.974926e+00 -8.575119e+00 -7.343529e+00 -5.616033e+00 -5.017441e+00 -1.039725e+00 -2.295245e+00 -1.206977e+00 -2.975499e+00 -1.917254e+00 5.227138e+01 1.525348e-01 -7.334629e-02 2.958632e-02 -1.295072e-01 -1.333745e-01 -1.331162e-01 -1.036729e-01 -3.496341e-02 -3.319134e-02 -3.710278e-02 -5.128775e-02 -3.338290e-02 4.511594e-01 1.105166e-02 -8.889698e-03 1.893542e-03 -7.034671e-03 -1.038066e-02 -3.049670e-03 -6.048596e-03 1.701244e-03 -4.692814e-03 -4.551632e-03 3.388704e-03 1.872586e-03 1.752862e-02
<VARIANCE> 39
 8.449774e+01 5.527994e+01 5.400249e+01 7.127386e+01 6.578813e+01 6.364229e+01 6.731024e+01 5.575327e+01 5.542704e+01 4.219040e+01 4.425734e+01 3.389802e+01 1.447473e+02 4.356481e+00 3.328578e+00 2.888961e+00 3.916117e+00 3.994579e+00 4.049120e+00 4.194968e+00 3.760565e+00 3.589924e+00 2.993763e+00 2.836333e+00 2.370875e+00 7.461914e+00 6.466303e-01 5.684007e-01 4.925567e-01 6.618313e-01 6.675593e-01 7.026681e-01 7.408985e-01 6.767700e-01 6.522334e-01 5.638718e-01 5.226084e-01 4.414991e-01 1.123925e+00
<GCONST> 1.360108e+02
<STATE> 4
<MEAN> 39
 -1.072732e+01 -6.550213e+00 -5.894450e+00 -9.016726e+00 -7.780679e+00 -5.957399e+00 -5.294271e+00 -1.153986e+00 -2.440363e+00 -1.359824e+00 -3.066364e+00 -2.001231e+00 5.369550e+01 1.304605e-01 -7.959689e-02 2.977902e-02 -1.140571e-01 -1.092407e-01 -8.547775e-02 -8.235943e-02 -2.095709e-02 -4.624031e-02 -3.935937e-02 -2.594435e-02 -2.244787e-02 3.637153e-01 -8.886035e-03 -3.493760e-04 6.405623e-05 6.320839e-03 8.754329e-03 1.420607e-02 6.573428e-03 3.454299e-03 -4.367245e-03 -5.400480e-05 7.871916e-03 3.418121e-03 -2.945842e-02
<VARIANCE> 39
 8.631871e+01 5.713583e+01 5.840215e+01 7.256145e+01 6.938433e+01 6.579797e+01 6.991103e+01 5.819902e+01 5.781346e+01 4.404935e+01 4.566434e+01 3.488174e+01 1.294594e+02 4.477635e+00 3.444697e+00 2.960618e+00 4.035505e+00 4.134089e+00 4.170203e+00 4.357685e+00 3.854756e+00 3.690089e+00 3.067680e+00 2.895551e+00 2.416565e+00 7.589859e+00 6.569351e-01 5.853198e-01 4.946571e-01 6.769794e-01 6.835169e-01 7.204710e-01 7.636997e-01 6.913814e-01 6.667190e-01 5.747983e-01 5.302935e-01 4.485831e-01 1.140437e+00
<GCONST> 1.369723e+02
<TRANSP> 5
 0.000000e+00 1.000000e+00 0.000000e+00 0.000000e+00 0.000000e+00
 0.000000e+00 6.154510e-01 3.845490e-01 0.000000e+00 0.000000e+00
 0.000000e+00 0.000000e+00 6.154545e-01 3.845455e-01 0.000000e+00
 0.000000e+00 0.000000e+00 0.000000e+00 7.217056e-01 2.782944e-01
 0.000000e+00 0.000000e+00 0.000000e+00 0.000000e+00 0.000000e+00
<ENDHMM>
~h "eh"
<BEGINHMM>
<NUMSTATES> 5
<STATE> 2
<MEAN> 39
 -1.003308e+01 -7.484674e+00 -5.224627e+00 -1.016137e+01 -8.728760e+00 -6.422681e+00 -6.023806e+00 -3.808265e-01 -3.167752e+00 -1.630982e+00 -2.722249e+00 -2.105366e+00 5.609455e+01 1.301606e-02 -3.506341e-02 -1.706316e-03 -2.242097e-02 -8.894235e-03 -2.418382e-02 -2.229536e-02 1.566305e-02 4.696599e-03 -1.212598e-02 -4.389861e-03 -2.516555e-03 6.315692e-02 -6.897405e-03 5.302483e-03 -7.341920e-04 6.264037e-03 5.253845e-03 3.075695e-03 3.015383e-03 -3.421802e-03 -1.984647e-03 -5.954980e-04 -1.061290e-04 1.610572e-03 -1.531806e-02
<VARIANCE> 39
 1.032377e+02 6.105087e+01 6.965638e+01 7.871465e+01 7.644118e+01 7.044373e+01 7.527766e+01 6.775806e+01 6.664333e+01 4.659233e+01 4.894130e+01 3.541235e+01 1.047537e+02 5.143230e+00 4.012606e+00 3.181008e+00 4.449577e+00 4.493343e+00 4.285321e+00 4.552160e+00 4.821017e+00 4.211135e+00 3.326620e+00 3.117064e+00 2.558733e+00 6.474267e+00 7.210920e-01 6.510528e-01 5.103339e-01 7.362767e-01 7.376580e-01 7.406157e-01 7.898741e-01 8.434284e-01 7.447162e-01 6.166349e-01 5.689789e-01 4.680490e-01 1.020543e+00
<GCONST> 1.397946e+02
<STATE> 3
<MEAN> 39
 -1.002867e+01 -7.542358e+00 -5.239786e+00 -1.018400e+01 -8.718954e+00 -6.466848e+00 -6.065707e+00 -3.601909e-01 -3.162289e+00 -1.660171e+00 -2.731809e+00 -2.103134e+00 5.617490e+01 -5.557864e-03 -1.569225e-02 -4.198753e-03 -4.332510e-03 9.099113e-03 -1.478537e-02 -1.376185e-02 2.447845e-03 -2.415786e-03 -1.199807e-02 -3.679542e-03 2.172339e-03 1.920732e-02 -7.157517e-03 8.060532e-03 -6.803875e-04 7.257563e-03 7.054096e-03 3.954735e-03 3.817628e-03 -5.388652e-03 -3.009937e-03 1.393323e-04 -1.025340e-05 1.958328e-03 -1.798181e-02
<VARIANCE> 39
 1.032087e+02 6.065469e+01 6.995158e+01 7.880727e+01 7.667654e+01 7.082993e+01 7.574738e+01 6.828897e+01 6.679607e+01 4.681890e+01 4.888014e+01 3.529932e+01 1.033806e+02 5.141867e+00 4.000187e+00 3.191685e+00 4.438454e+00 4.486278e+00 4.293325e+00 4.551126e+00 4.831734e+00 4.207623e+00 3.327235e+00 3.123810e+00 2.553091e+00 6.432646e+00 7.209975e-01 6.495854e-01 5.111908e-01 7.345116e-01 7.354065e-01 7.422424e-01 7.900127e-01 8.443246e-01 7.447232e-01 6.157358e-01 5.706105e-01 4.670227e-01 1.020844e+00
<GCONST> 1.397948e+02
<STATE> 4
<MEAN> 39
 -1.014683e+01 -7.497948e+00 -5.298019e+00 -1.015490e+01 -8.636334e+00 -6.461238e+00 -6.037188e+00 -4.270678e-01 -3.188846e+00 -1.695948e+00 -2.745290e+00 -2.075965e+00 5.607617e+01 -2.707606e-02 1.319215e-02 -7.095403e-03 1.809053e-02 3.539164e-02 -1.832277e-04 -3.024446e-03 -1.649597e-02 -1.214881e-02 -8.673125e-03 -1.186368e-03 7.495939e-03 -3.853222e-02 -6.235475e-03 8.496108e-03 -3.058102e-04 6.562832e-03 7.217350e-03 4.676520e-03 3.617656e-03 -5.431296e-03 -3.242763e-03 7.600492e-04 3.436459e-04 1.678451e-03 -1.753183e-02
<VARIANCE> 39
 1.035831e+02 6.014888e+01 7.049617e+01 7.882611e+01 7.710493e+01 7.090388e+01 7.585272e+01 6.842162e+01 6.655691e+01 4.700647e+01 4.851219e+01 3.512012e+01 1.032636e+02 5.117393e+00 3.942993e+00 3.198761e+00 4.408612e+00 4.453085e+00 4.279680e+00 4.522742e+00 4.794333e+00 4.169198e+00 3.318321e+00 3.114355e+00 2.535562e+00 6.340416e+00 7.171444e-01 6.419897e-01 5.108743e-01 7.296125e-01 7.297764e-01 7.397407e-01 7.852263e-01 8.373089e-01 7.389193e-01 6.129540e-01 5.696230e-01 4.641244e-01 1.014304e+00
<GCONST> 1.396333e+02
<TRANSP> 5
 0.000000e+00 1.000000e+00 0.000000e+00 0.000000e+00 0.000000e+00
 0.000000e+00 6.122991e-01 3.877009e-01 0.000000e+00 0.000000e+00
 0.000000e+00 0.000000e+00 6.123006e-01 3.876994e-01 0.000000e+00
 0.000000e+00 0.000000e+00 0.000000e+00 7.178799e-01 2.821201e-01
 0.000000e+00 0.000000e+00 0.000000e+00 0.000000e+00 0.000000e+00
<ENDHMM>
~h "er"
<BEGINHMM>
<NUMSTATES> 5
<STATE> 2
<MEAN> 39
 -6.972247e+00 -8.719625e+00 -8.278828e+00 -9.837001e+00 -7.003575e+00 -6.713459e+00 -7.768264e+00 -1.246302e-01 -2.673805e+00 -1.957697e+00 -2.368823e+00 -1.688412e+00 5.556714e+01 -8.946883e-02 4.365654e-02 9.550486e-02 -7.324141e-03 3.715003e-03 2.958908e-02 4.164317e-02 -1.883970e-02 -4.005343e-02 -1.564712e-02 -5.344216e-03 1.085867e-02 -6.552970e-02 -9.556702e-03 5.488276e-03 1.136728e-02 -1.271787e-03 -5.892442e-03 3.890454e-03 4.323411e-03 -5.725376e-03 -3.773748e-03 2.574151e-03 2.183044e-03 -1.956513e-03 -7.377523e-03
<VARIANCE> 39
 1.106632e+02 5.620331e+01 9.138971e+01 9.263472e+01 7.406966e+01 9.365452e+01 1.035859e+02 7.270677e+01 7.335249e+01 4.912236e+01 4.781140e+01 3.446393e+01 8.224284e+01 4.990197e+00 3.317494e+00 3.480103e+00 3.981288e+00 3.952316e+00 4.539153e+00 5.434565e+00 4.379772e+00 3.891571e+00 3.199229e+00 2.849409e+00 2.349772e+00 4.623481e+00 6.751576e-01 5.450560e-01 5.060499e-01 6.213499e-01 6.369090e-01 7.183470e-01 8.433169e-01 7.550330e-01 6.676828e-01 5.820341e-01 5.168590e-01 4.284606e-01 7.591314e-01
<GCONST> 1.385625e+02
<STATE> 3
<MEAN> 39
 -7.244127e+00 -8.582311e+00 -7.989974e+00 -9.866432e+00 -7.011516e+00 -6.614021e+00 -7.631649e+00 -1.945162e-01 -2.787515e+00 -1.990779e+00 -2.380432e+00 -1.668581e+00 5.538068e+01 -1.138610e-01 5.789578e-02 1.240295e-01 -8.908711e-03 -1.106418e-02 3.899471e-02 5.343688e-02 -3.333101e-02 -4.919697e-02 -8.734458e-03 -1.103771e-04 5.851751e-03 -8.526488e-02 -6.681495e-03 5.607931e-03 9.396700e-03 3.989590e-04 -6.068029e-03 2.227671e-03 2.975201e-03 -4.729350e-03 -2.371301e-03 3.391276e-03 2.428891e-03 -1.667836e-03 -7.561602e-03
<VARIANCE> 39
 1.102121e+02 5.607251e+01 9.205593e+01 9.331345e+01 7.432637e+01 9.246085e+01 1.026619e+02 7.224565e+01 7.277549e+01 4.935031e+01 4.785569e+01 3.424634e+01 8.395061e+01 4.919190e+00 3.286325e+00 3.485796e+00 3.972961e+00 3.932370e+00 4.524722e+00 5.355299e+00 4.351714e+00 3.884144e+00 3.207443e+00 2.843042e+00 2.333616e+00 4.557155e+00 6.636867e-01 5.394686e-01 5.039461e-01 6.216878e-01 6.355751e-01 7.196048e-01 8.351837e-01 7.522559e-01 6.674849e-01 5.843515e-01 5.156629e-01 4.260007e-01 7.492756e-01
<GCONST> 1.384191e+02
<STATE> 4
<MEAN> 39
 -7.636294e+00 -8.362818e+00 -7.638006e+00 -9.951115e+00 -7.060599e+00 -6.438782e+00 -7.391402e+00 -3.366308e-01 -2.949886e+00 -2.000325e+00 -2.374808e+00 -1.686543e+00 5.511976e+01 -1.323973e-01 7.323185e-02 1.481240e-01 -6.202838e-03 -2.614343e-02 4.504843e-02 6.348046e-02 -4.573315e-02 -5.470646e-02 5.229145e-04 5.086763e-03 1.597017e-03 -1.026691e-01 -3.131028e-03 4.858080e-03 6.255229e-03 2.675512e-03 -4.869012e-03 3.714804e-04 1.495667e-03 -2.559980e-03 -7.252393e-04 3.421606e-03 1.893895e-03 -8.926830e-04 -5.926654e-03
<VARIANCE> 39
 1.092349e+02 5.618277e+01 9.303433e+01 9.359095e+01 7.460133e+01 9.100271e+01 1.006583e+02 7.166691e+01 7.188731e+01 4.953096e+01 4.789954e+01 3.412237e+01 8.773334e+01 4.772432e+00 3.233971e+00 3.467374e+00 3.947205e+00 3.894420e+00 4.477135e+00 5.173814e+00 4.301636e+00 3.858875e+00 3.200349e+00 2.828849e+00 2.311095e+00 4.479135e+00 6.417230e-01 5.285019e-01 4.975131e-01 6.187999e-01 6.309566e-01 7.155985e-01 8.126775e-01 7.457689e-01 6.642807e-01 5.832815e-01 5.129362e-01 4.221109e-01 7.347841e-01
<GCONST> 1.380920e+02
<TRANSP> 5
 0.000000e+00 1.000000e+00 0.000000e+00 0.000000e+00 0.000000e+00
 0.000000e+00 6.203586e-01 3.796413e-01 0.000000e+00 0.000000e+00
 0.000000e+00 0.000000e+00 6.203539e-01 3.796461e-01 0.000000e+00
 0.000000e+00 0.000000e+00 0.000000e+00 7.273127e-01 2.726873e-01
 0.000000e+00 0.000000e+00 0.000000e+00 0.000000e+00 0.000000e+00
<ENDHMM>
~h "ey"
<BEGINHMM>
<NUMSTATES> 5
<STATE> 2
<MEAN> 39
 -9.903479e+00 -7.657924e+00 -2.405055e+00 -1.059762e+01 -1.106630e+01 -6.882257e+00 -5.780846e+00 -6.726466e-01 -4.369464e+00 -1.328400e+00 -1.763590e+00 -2.080391e+00 5.676261e+01 -1.779587e-02 2.861080e-03 4.118503e-02 -6.793249e-03 -3.973537e-02 -1.563494e-02 1.394544e-02 -2.986150e-03 -3.521540e-02 -1.926122e-02 1.076998e-02 1.123901e-02 2.761796e-02 -8.052776e-03 6.349404e-03 -1.085841e-02 8.512179e-03 1.758051e-02 7.153691e-03 1.153578e-03 -1.457366e-03 2.587903e-03 -7.667188e-04 -2.197123e-03 1.981305e-03 -2.160585e-02
<VARIANCE> 39
 9.019678e+01 5.811972e+01 8.054932e+01 8.252348e+01 9.573703e+01 7.022978e+01 7.263479e+01 6.772925e+01 6.438246e+01 4.712491e+01 5.136024e+01 3.368036e+01 1.029082e+02 4.449584e+00 3.473656e+00 3.421862e+00 4.135607e+00 4.950512e+00 4.057965e+00 4.208040e+00 4.371344e+00 4.054087e+00 3.152218e+00 3.042478e+00 2.372819e+00 5.876298e+00 6.246420e-01 5.607780e-01 4.995691e-01 6.574723e-01 7.434230e-01 6.777735e-01 7.253256e-01 7.530738e-01 7.138509e-01 5.748928e-01 5.522685e-01 4.408246e-01 9.075744e-01
<GCONST> 1.382078e+02
<STATE> 3
<MEAN> 39
 -9.986452e+00 -7.609515e+00 -2.344200e+00 -1.057566e+01 -1.108661e+01 -6.882333e+00 -5.736215e+00 -6.968955e-01 -4.455989e+00 -1.376727e+00 -1.743176e+00 -2.044004e+00 5.672859e+01 -3.912736e-02 2.166734e-02 7.472084e-03 1.795412e-02 1.312866e-02 3.872020e-03 1.706029e-02 -9.389867e-03 -2.642803e-02 -2.092309e-02 3.182576e-03 1.493638e-02 -3.132368e-02 -7.345472e-03 7.235011e-03 -1.348201e-02 9.461613e-03 2.047330e-02 7.111142e-03 1.098641e-03 -2.654638e-03 4.096196e-03 -3.060221e-04 -3.663239e-03 1.197677e-03 -2.208364e-02
<VARIANCE> 39
 9.098672e+01 5.786102e+01 8.134785e+01 8.209072e+01 9.622977e+01 6.999670e+01 7.243520e+01 6.725219e+01 6.408038e+01 4.724601e+01 5.159699e+01 3.356015e+01 1.019031e+02 4.441160e+00 3.425580e+00 3.421961e+00 4.109259e+00 4.944018e+00 4.013868e+00 4.176116e+00 4.347651e+00 4.027738e+00 3.139796e+00 3.032763e+00 2.359590e+00 5.683649e+00 6.221107e-01 5.548452e-01 4.979213e-01 6.570038e-01 7.443386e-01 6.721403e-01 7.208243e-01 7.499628e-01 7.068654e-01 5.723902e-01 5.496935e-01 4.382642e-01 8.908200e-01
<GCONST> 1.380182e+02
<STATE> 4
<MEAN> 39
 -1.017347e+01 -7.456840e+00 -2.472223e+00 -1.049287e+01 -1.090226e+01 -6.779526e+00 -5.640225e+00 -8.003520e-01 -4.520280e+00 -1.425568e+00 -1.763049e+00 -2.007536e+00 5.649366e+01 -5.613106e-02 4.206501e-02 -3.760178e-02 4.308625e-02 7.559600e-02 2.505427e-02 1.959136e-02 -1.825734e-02 -1.048531e-02 -2.043927e-02 -7.660714e-03 1.618450e-02 -9.067272e-02 -3.931232e-03 5.616203e-03 -1.330677e-02 7.395804e-03 1.766482e-02 6.361664e-03 1.078384e-03 -2.521294e-03 5.359904e-03 3.783054e-04 -3.878946e-03 -1.085898e-04 -1.670445e-02
<VARIANCE> 39
 9.263422e+01 5.777798e+01 8.258083e+01 8.225100e+01 9.660723e+01 6.998089e+01 7.187334e+01 6.653490e+01 6.360156e+01 4.743668e+01 5.168751e+01 3.365227e+01 1.031666e+02 4.430039e+00 3.371248e+00 3.389946e+00 4.082261e+00 4.895060e+00 3.967998e+00 4.130684e+00 4.305051e+00 3.967432e+00 3.128580e+00 3.018206e+00 2.350244e+00 5.520122e+00 6.191365e-01 5.489464e-01 4.938557e-01 6.566221e-01 7.429492e-01 6.666552e-01 7.131095e-01 7.440538e-01 6.933953e-01 5.703272e-01 5.459232e-01 4.362469e-01 8.780967e-01
<GCONST> 1.378151e+02
<TRANSP> 5
 0.000000e+00 1.000000e+00 0.000000e+00 0.000000e+00 0.000000e+00
 0.000000e+00 6.143892e-01 3.856107e-01 0.000000e+00 0.000000e+00
 0.000000e+00 0.000000e+00 6.143889e-01 3.856110e-01 0.000000e+00
 0.000000e+00 0.000000e+00 0.000000e+00 7.204106e-01 2.795894e-01
 0.000000e+00 0.000000e+00 0.000000e+00 0.000000e+00 0.000000e+00
<ENDHMM>
~h "hh"
<BEGINHMM>
<NUMSTATES> 5
<STATE> 2
<MEAN> 39
 -1.136206e+01 -7.189151e+00 -3.230880e+00 -1.035907e+01 -9.009887e+00 -4.664855e+00 -4.327868e+00 -1.086613e+00 -3.949627e+00 -2.019751e+00 -2.485963e+00 -1.870261e+00 5.498405e+01 2.864576e-01 -7.216733e-02 3.606804e-02 -1.077803e-01 -1.667506e-01 -7.718553e-02 -3.885618e-02 -3.383360e-02 -1.027830e-01 -4.467745e-02 -5.027524e-02 -4.886431e-02 2.918296e-01 8.818223e-03 -1.003195e-02 -1.012540e-02 -4.331001e-03 -2.919487e-03 -5.007172e-03 -5.596639e-03 1.628959e-03 2.843506e-03 -1.356006e-03 5.741370e-04 -8.739122e-04 1.339848e-02
<VARIANCE> 39
 9.755122e+01 5.287809e+01 9.595145e+01 7.423191e+01 7.860388e+01 6.845605e+01 7.265619e+01 6.292529e+01 6.271432e+01 4.376346e+01 4.747921e+01 3.254473e+01 1.182227e+02 4.089833e+00 3.073011e+00 2.984730e+00 3.479429e+00 3.905070e+00 3.573339e+00 4.322608e+00 3.761264e+00 3.587015e+00 2.995428e+00 2.714480e+00 2.229443e+00 3.833320e+00 5.706934e-01 5.058136e-01 4.403587e-01 5.679640e-01 6.219412e-01 5.972763e-01 7.086602e-01 6.491039e-01 6.150911e-01 5.436236e-01 4.899396e-01 4.054566e-01 5.656111e-01
<GCONST> 1.342854e+02
<STATE> 3
<MEAN> 39
 -1.061533e+01 -7.415642e+00 -3.196940e+00 -1.064605e+01 -9.438614e+00 -4.884559e+00 -4.455559e+00 -1.154011e+00 -4.178643e+00 -2.140220e+00 -2.611694e+00 -1.998962e+00 5.578886e+01 2.720968e-01 -8.445714e-02 5.238149e-03 -1.049367e-01 -1.536594e-01 -8.424583e-02 -5.418820e-02 -2.383188e-02 -7.904817e-02 -4.341152e-02 -4.405944e-02 -4.842585e-02 3.032393e-01 -8.165888e-03 -3.468372e-03 -1.159661e-02 2.425217e-03 7.317070e-03 -2.241217e-03 -6.654826e-03 3.572378e-03 9.842387e-03 1.185672e-03 2.640104e-03 4.126942e-04 1.896548e-03
<VARIANCE> 39
 9.133420e+01 5.512353e+01 9.835512e+01 7.596812e+01 8.072484e+01 7.020929e+01 7.488099e+01 6.538859e+01 6.432801e+01 4.510575e+01 4.910618e+01 3.333749e+01 1.068645e+02 4.061609e+00 3.245680e+00 3.063503e+00 3.598328e+00 3.990543e+00 3.670481e+00 4.464221e+00 3.838419e+00 3.651892e+00 3.053536e+00 2.773011e+00 2.261164e+00 4.064397e+00 5.690840e-01 5.330791e-01 4.469931e-01 5.852017e-01 6.366185e-01 6.116155e-01 7.271624e-01 6.581962e-01 6.250964e-01 5.518409e-01 4.998123e-01 4.104269e-01 5.892644e-01
<GCONST> 1.350669e+02
<STATE> 4
<MEAN> 39
 -9.907875e+00 -7.695624e+00 -3.305936e+00 -1.094512e+01 -9.837210e+00 -5.159373e+00 -4.641158e+00 -1.200299e+00 -4.348191e+00 -2.280124e+00 -2.743713e+00 -2.147013e+00 5.668215e+01 1.994541e-01 -7.149360e-02 -3.559408e-02 -6.903467e-02 -9.647501e-02 -7.628338e-02 -6.434201e-02 -3.010230e-03 -3.014401e-02 -3.265387e-02 -2.798216e-02 -4.043212e-02 2.372561e-01 -2.083552e-02 4.227194e-03 -1.034805e-02 1.061666e-02 1.716913e-02 2.025008e-03 -3.534461e-03 4.684134e-03 1.288343e-02 3.282502e-03 4.463172e-03 2.174015e-03 -1.970352e-02
<VARIANCE> 39
 8.611635e+01 5.833374e+01 9.917676e+01 7.858106e+01 8.255798e+01 7.266219e+01 7.723933e+01 6.816454e+01 6.618644e+01 4.652201e+01 5.071780e+01 3.432403e+01 9.773274e+01 3.926436e+00 3.423466e+00 3.121825e+00 3.709860e+00 4.045485e+00 3.783435e+00 4.529893e+00 3.923807e+00 3.679966e+00 3.086698e+00 2.810158e+00 2.287064e+00 4.348248e+00 5.519832e-01 5.565594e-01 4.519580e-01 6.026021e-01 6.495330e-01 6.288179e-01 7.351266e-01 6.705369e-01 6.318436e-01 5.563406e-01 5.066731e-01 4.148828e-01 6.341130e-01
<GCONST> 1.357747e+02
<TRANSP> 5
 0.000000e+00 1.000000e+00 0.000000e+00 0.000000e+00 0.000000e+00
 0.000000e+00 6.207601e-01 3.792399e-01 0.000000e+00 0.000000e+00
 0.000000e+00 0.000000e+00 6.207604e-01 3.792396e-01 0.000000e+00
 0.000000e+00 0.000000e+00 0.000000e+00 7.280417e-01 2.719583e-01
 0.000000e+00 0.000000e+00 0.000000e+00 0.000000e+00 0.000000e+00
<ENDHMM>
~h "ih"
<BEGINHMM>
<NUMSTATES> 5
<STATE> 2
<MEAN> 39
 -1.060270e+01 -6.424623e+00 -3.752059e+00 -9.221300e+00 -8.802426e+00 -7.189014e+00 -6.304491e+00 -1.122117e+00 -4.388118e+00 -1.888781e+00 -2.502141e+00 -1.720074e+00 5.498368e+01 -1.050027e-02 1.430968e-02 -4.528323e-02 1.912327e-02 4.049174e-02 -1.507354e-02 1.275779e-02 1.278909e-02 1.045787e-02 -3.734785e-03 -1.841539e-02 4.642628e-03 -1.033012e-02 -1.211121e-03 -1.110799e-03 -3.256584e-03 -1.454761e-03 3.687418e-03 6.871802e-03 2.854640e-03 -1.278262e-03 1.107612e-03 5.489769e-04 -7.241766e-05 -1.284047e-03 -4.848412e-03
<VARIANCE> 39
