~o
<STREAMINFO> 1 39
<VECSIZE> 39<NULLD><MFCC_D_A_0><DIAGC>
~h "b"
<BEGINHMM>
<NUMSTATES> 5
<STATE> 2
<MEAN> 39
 -7.173296e+00 2.695627e-01 -3.199317e+00 -3.619339e+00 -3.702178e+00 -2.944522e+00 -6.728806e+00 -6.351252e+00 -6.511285e+00 -2.859733e+00 -2.764397e+00 -3.643549e+00 4.316557e+01 -4.721373e-01 8.733297e-01 3.066108e-01 8.025047e-01 5.927445e-01 3.562654e-01 3.456950e-01 -2.756103e-01 -1.000763e-01 -2.373569e-01 -3.707716e-02 1.986846e-02 -1.169563e+00 -1.373168e-02 -5.604569e-01 -1.476727e-01 -5.285239e-01 -3.439958e-01 -1.855126e-01 -5.736984e-02 2.854936e-01 2.262209e-01 1.456610e-01 3.399007e-02 8.812204e-02 9.746771e-01
<VARIANCE> 39
 5.057808e+01 5.209956e+01 3.336126e+01 6.622298e+01 3.856597e+01 4.448719e+01 4.514248e+01 4.353411e+01 4.573148e+01 3.887642e+01 3.436237e+01 2.797533e+01 8.871468e+01 3.673185e+00 7.812906e+00 4.415877e+00 8.497342e+00 5.119153e+00 4.411599e+00 4.730874e+00 5.658728e+00 5.343179e+00 4.293502e+00 3.506159e+00 2.917470e+00 1.531003e+01 6.456875e-01 1.174206e+00 7.740068e-01 1.311278e+00 8.689925e-01 7.623963e-01 8.823894e-01 9.537699e-01 9.611594e-01 8.310560e-01 6.841947e-01 5.464157e-01 1.844982e+00
<GCONST> 1.412529e+02
<STATE> 3
<MEAN> 39
 -8.413662e+00 -4.926810e-01 -3.380641e+00 -4.307642e+00 -3.844933e+00 -3.042272e+00 -6.058893e+00 -5.717826e+00 -5.617858e+00 -2.649430e+00 -2.638542e+00 -3.141162e+00 4.495880e+01 1.386148e-01 -1.252159e+00 -4.176700e-01 -1.421003e+00 -7.673974e-01 -2.906685e-01 -3.262899e-02 4.980308e-01 6.013960e-01 3.831146e-01 2.147159e-01 2.415029e-01 2.315121e+00 3.174753e-01 -5.547057e-01 -1.777880e-01 -6.319067e-01 -4.249973e-01 -1.504589e-01 -1.698830e-01 1.901702e-01 9.318211e-02 1.441509e-01 5.244808e-02 1.617040e-02 8.693463e-01
<VARIANCE> 39
 4.475967e+01 5.018317e+01 3.398631e+01 7.028735e+01 3.848829e+01 4.090226e+01 4.035522e+01 4.117075e+01 4.246453e+01 3.604487e+01 3.265096e+01 2.610485e+01 1.034048e+02 5.622471e+00 8.199442e+00 5.032990e+00 1.095822e+01 6.130661e+00 5.122602e+00 5.122106e+00 5.650068e+00 5.634121e+00 4.644652e+00 3.912329e+00 3.084204e+00 1.739619e+01 8.331812e-01 1.214388e+00 8.679983e-01 1.449055e+00 9.903698e-01 9.102154e-01 9.480073e-01 1.032961e+00 1.061355e+00 8.731160e-01 7.438902e-01 5.937053e-01 2.344502e+00
<GCONST> 1.440092e+02
<STATE> 4
<MEAN> 39
 -6.807828e+00 -5.449551e+00 -5.277421e+00 -1.016404e+01 -7.182332e+00 -4.181456e+00 -6.573199e+00 -4.089330e+00 -3.765313e+00 -1.026652e+00 -1.748826e+00 -2.571538e+00 5.349016e+01 9.327064e-01 -1.813234e+00 -5.544201e-01 -2.211262e+00 -1.354137e+00 -3.980176e-01 -4.479648e-01 6.454152e-01 4.383304e-01 4.318202e-01 1.916217e-01 1.148955e-01 3.058795e+00 4.792777e-02 1.760005e-01 9.428173e-02 1.992949e-01 6.952138e-02 7.247639e-02 -5.572644e-02 -8.994719e-03 -1.607696e-01 -1.152109e-01 -8.196438e-02 -7.034969e-02 -3.782287e-01
<VARIANCE> 39
 4.962038e+01 5.883139e+01 5.747781e+01 1.067518e+02 5.797962e+01 6.493912e+01 5.434714e+01 5.056421e+01 4.871822e+01 4.266701e+01 4.383304e+01 3.097456e+01 1.147889e+02 5.768740e+00 5.760278e+00 5.835012e+00 8.519735e+00 6.573361e+00 6.094479e+00 6.323287e+00 5.938472e+00 5.827638e+00 4.624249e+00 4.387516e+00 3.534074e+00 1.037657e+01 9.125459e-01 1.058048e+00 7.345434e-01 1.558666e+00 1.063744e+00 9.523385e-01 9.385589e-01 9.255666e-01 9.221094e-01 8.037395e-01 7.295135e-01 5.632036e-01 2.166477e+00
<GCONST> 1.467835e+02
<TRANSP> 5
 0.000000e+00 1.000000e+00 0.000000e+00 0.000000e+00 0.000000e+00
 0.000000e+00 6.489537e-01 3.510463e-01 0.000000e+00 0.000000e+00
 0.000000e+00 0.000000e+00 5.874823e-01 4.125177e-01 0.000000e+00
 0.000000e+00 0.000000e+00 0.000000e+00 5.588425e-01 4.411574e-01
 0.000000e+00 0.000000e+00 0.000000e+00 0.000000e+00 0.000000e+00
<ENDHMM>
~h "d"
<BEGINHMM>
<NUMSTATES> 5
<STATE> 2
<MEAN> 39
 -9.089865e+00 -3.922614e+00 -1.040237e+00 -4.797020e+00 -8.289670e+00 -6.839621e+00 -6.575242e+00 -2.523048e+00 -4.489443e+00 -3.052559e+00 -4.186237e+00 -2.551408e+00 4.832460e+01 -5.623840e-01 4.794874e-01 1.034207e-01 4.179901e-01 7.354874e-01 3.463792e-01 1.711269e-01 -1.517393e-01 9.135453e-03 -1.321994e-01 -1.806246e-02 -1.780117e-02 -7.171216e-01 -1.957601e-02 -3.306241e-01 -1.483141e-01 -4.100784e-01 -1.223876e-01 -2.861635e-02 -5.639411e-02 1.589001e-01 9.335370e-02 7.119358e-02 1.040898e-01 5.525113e-02 6.554407e-01
<VARIANCE> 39
 5.247473e+01 7.368530e+01 4.959569e+01 7.970290e+01 7.049518e+01 5.587709e+01 5.700370e+01 5.915120e+01 5.191354e+01 3.934177e+01 4.093763e+01 3.194936e+01 1.436516e+02 3.109284e+00 7.400047e+00 3.711849e+00 7.676573e+00 5.948658e+00 4.950543e+00 5.378589e+00 5.645219e+00 4.543689e+00 3.816341e+00 3.813462e+00 3.017087e+00 1.530544e+01 5.289562e-01 1.160853e+00 5.739878e-01 1.262958e+00 1.102211e+00 8.890504e-01 9.342601e-01 9.401168e-01 7.917346e-01 7.108936e-01 7.234180e-01 5.863481e-01 2.180889e+00
<GCONST> 1.440804e+02
<STATE> 3
<MEAN> 39
 -1.029545e+01 -4.488219e+00 -1.314500e+00 -5.773800e+00 -7.481524e+00 -6.357868e+00 -6.395659e+00 -2.368136e+00 -4.220139e+00 -3.001610e+00 -3.911234e+00 -2.392476e+00 4.977977e+01 -3.477595e-01 -4.984300e-01 -2.188465e-01 -6.975582e-01 3.934277e-02 2.136276e-02 -6.554310e-02 2.480659e-01 2.283401e-01 9.832213e-02 2.071731e-01 1.329954e-01 1.203286e+00 1.759007e-01 -2.835141e-01 -1.003156e-01 -3.254870e-01 -2.977963e-01 -1.259296e-01 -1.146026e-01 1.314443e-01 4.693652e-02 1.095043e-01 5.640340e-02 1.908047e-02 5.488567e-01
<VARIANCE> 39
 5.173450e+01 7.196817e+01 5.015590e+01 7.485806e+01 6.324381e+01 5.246264e+01 5.408583e+01 5.407743e+01 4.797705e+01 3.662450e+01 3.844584e+01 3.105297e+01 1.314423e+02 4.706999e+00 8.012566e+00 3.788436e+00 8.594350e+00 7.287702e+00 6.284059e+00 5.940979e+00 5.888816e+00 4.779035e+00 4.067459e+00 4.164885e+00 3.358676e+00 1.877892e+01 7.336938e-01 1.321018e+00 6.914628e-01 1.477847e+00 1.256426e+00 1.091255e+00 1.072664e+00 1.027755e+00 8.777694e-01 7.749458e-01 8.137122e-01 6.738120e-01 2.673769e+00
<GCONST> 1.470845e+02
<STATE> 4
<MEAN> 39
 -1.017504e+01 -6.741664e+00 -2.174400e+00 -8.546135e+00 -8.787697e+00 -7.032245e+00 -6.965903e+00 -1.358972e+00 -3.513313e+00 -2.416193e+00 -3.548543e+00 -2.060715e+00 5.449240e+01 2.443658e-01 -6.987349e-01 -3.355905e-01 -8.319689e-01 -4.431070e-01 -1.511382e-01 -2.610150e-01 3.171196e-01 1.737968e-01 2.610172e-01 1.597478e-01 1.738049e-02 1.446958e+00 1.677402e-01 4.346827e-02 -3.771866e-02 7.750268e-02 -4.768854e-02 2.958600e-02 8.259015e-03 -4.621615e-02 -8.487558e-02 2.441684e-02 1.800884e-03 -5.028693e-02 -1.670928e-01
<VARIANCE> 39
 5.713021e+01 6.525013e+01 5.586994e+01 6.880923e+01 6.293205e+01 5.700537e+01 6.484299e+01 5.919032e+01 5.222225e+01 3.896629e+01 3.996035e+01 3.278838e+01 1.139228e+02 6.057368e+00 5.692208e+00 4.211358e+00 6.405489e+00 7.089173e+00 6.619005e+00 6.232918e+00 5.643898e+00 4.827929e+00 4.135495e+00 4.333925e+00 3.623322e+00 1.157265e+01 8.448887e-01 1.083457e+00 7.011185e-01 1.230595e+00 1.310878e+00 1.291288e+00 1.136378e+00 1.042775e+00 8.768947e-01 7.763089e-01 7.905088e-01 6.544317e-01 2.176917e+00
<GCONST> 1.467599e+02
<TRANSP> 5
 0.000000e+00 1.000000e+00 0.000000e+00 0.000000e+00 0.000000e+00
 0.000000e+00 4.792260e-01 5.207741e-01 0.000000e+00 0.000000e+00
 0.000000e+00 0.000000e+00 4.819057e-01 5.180943e-01 0.000000e+00
 0.000000e+00 0.000000e+00 0.000000e+00 5.165986e-01 4.834013e-01
 0.000000e+00 0.000000e+00 0.000000e+00 0.000000e+00 0.000000e+00
<ENDHMM>
~h "f"
<BEGINHMM>
<NUMSTATES> 5
<STATE> 2
<MEAN> 39
 -1.884601e+01 -7.473631e+00 -8.411846e+00 -6.751611e+00 -4.686595e+00 -3.859759e+00 -3.026238e+00 -6.502241e-01 -1.449991e+00 -6.848401e-01 -2.265939e+00 -9.062864e-01 5.366127e+01 -1.907686e+00 -1.822814e-01 -2.613229e-01 3.552484e-01 1.717726e-01 1.791116e-01 3.028250e-01 1.972257e-01 2.883453e-01 2.015132e-01 2.015818e-01 2.723714e-01 -3.678327e-01 4.515170e-01 -8.527222e-02 3.111825e-02 -1.940868e-01 -1.617128e-01 -1.122440e-01 -1.968416e-01 -5.266361e-02 -8.934920e-02 -2.064140e-02 -1.745632e-02 -6.143368e-02 1.499279e-01
<VARIANCE> 39
 7.256049e+01 2.013606e+01 2.016567e+01 2.498317e+01 2.033808e+01 2.455026e+01 2.427521e+01 2.114593e+01 2.056556e+01 2.043239e+01 1.890146e+01 1.662222e+01 3.380484e+01 7.865256e+00 2.566689e+00 2.596290e+00 3.600162e+00 2.800881e+00 2.938324e+00 3.176131e+00 2.798994e+00 2.725005e+00 2.455251e+00 2.422084e+00 2.088470e+00 2.511393e+00 1.099575e+00 4.923638e-01 4.527732e-01 5.910846e-01 5.198854e-01 4.856980e-01 5.678486e-01 5.125390e-01 4.979080e-01 4.622127e-01 4.371101e-01 3.897384e-01 3.799072e-01
<GCONST> 1.181781e+02
<STATE> 3
<MEAN> 39
 -2.130737e+01 -8.129809e+00 -9.018983e+00 -6.713140e+00 -4.840937e+00 -3.822169e+00 -2.996955e+00 -4.764407e-01 -1.135243e+00 -3.115958e-01 -1.897157e+00 -5.164071e-01 5.335707e+01 2.357672e-01 -1.434972e-01 -1.367650e-01 -1.890765e-01 -1.257870e-01 -7.125729e-02 -1.292941e-01 -3.812946e-02 3.584472e-02 3.145827e-02 7.579178e-02 2.113337e-02 1.302926e-01 7.500269e-01 1.401604e-02 4.399005e-02 -1.921942e-01 -1.137136e-01 -7.669467e-02 -1.634199e-01 -6.435988e-02 -8.600502e-02 -6.821033e-02 -4.333061e-02 -8.853042e-02 1.643214e-01
<VARIANCE> 39
 4.885598e+01 1.733777e+01 1.571987e+01 1.965278e+01 1.802744e+01 1.977223e+01 2.024863e+01 1.774715e+01 1.725524e+01 1.700506e+01 1.605036e+01 1.441707e+01 3.112482e+01 8.847429e+00 1.768986e+00 1.839133e+00 2.525301e+00 2.211920e+00 2.309013e+00 2.494637e+00 2.155222e+00 2.138108e+00 1.984871e+00 1.929442e+00 1.762096e+00 2.243456e+00 8.646083e-01 3.819606e-01 3.854307e-01 4.936217e-01 4.638128e-01 4.637476e-01 5.260440e-01 4.521238e-01 4.504508e-01 4.117090e-01 4.002733e-01 3.538793e-01 3.523558e-01
<GCONST> 1.111299e+02
<STATE> 4
<MEAN> 39
 -1.720129e+01 -8.160412e+00 -9.111138e+00 -7.947828e+00 -5.612321e+00 -4.230749e+00 -3.685078e+00 -8.557796e-01 -1.249957e+00 -4.481199e-01 -1.884827e+00 -8.372161e-01 5.402905e+01 2.359762e+00 -5.302410e-02 -3.511935e-03 -7.172222e-01 -5.096180e-01 -2.431338e-01 -5.897329e-01 -1.898159e-01 -2.006143e-01 -1.853445e-01 -8.151315e-03 -2.111396e-01 5.550791e-01 3.944751e-01 -5.675405e-02 2.225980e-02 -1.600036e-01 -1.413034e-01 -4.204539e-02 -1.856034e-01 -3.353389e-03 -7.031862e-02 -5.255839e-02 -2.927491e-03 -5.098490e-02 1.239685e-01
<VARIANCE> 39
 9.362772e+01 2.268841e+01 2.362272e+01 3.184017e+01 2.794022e+01 2.976176e+01 3.043174e+01 2.495497e+01 2.316840e+01 2.033758e+01 1.945800e+01 1.768989e+01 4.066039e+01 9.410690e+00 2.421415e+00 2.992235e+00 3.773990e+00 3.396411e+00 3.470001e+00 4.004199e+00 2.985805e+00 2.990648e+00 2.476785e+00 2.430859e+00 2.104088e+00 2.835932e+00 1.342354e+00 4.171138e-01 4.406827e-01 5.675787e-01 5.625292e-01 5.488996e-01 6.445221e-01 5.338497e-01 5.204935e-01 4.616385e-01 4.253896e-01 3.705068e-01 4.069516e-01
<GCONST> 1.218139e+02
<TRANSP> 5
 0.000000e+00 1.000000e+00 0.000000e+00 0.000000e+00 0.000000e+00
 0.000000e+00 6.972728e-01 3.027271e-01 0.000000e+00 0.000000e+00
 0.000000e+00 0.000000e+00 6.820103e-01 3.179897e-01 0.000000e+00
 0.000000e+00 0.000000e+00 0.000000e+00 7.505928e-01 2.494072e-01
 0.000000e+00 0.000000e+00 0.000000e+00 0.000000e+00 0.000000e+00
<ENDHMM>
~h "g"
<BEGINHMM>
<NUMSTATES> 5
<STATE> 2
<MEAN> 39
 -7.987660e+00 -4.679727e+00 -2.076416e-01 -4.675300e+00 -1.076837e+01 -1.045151e+01 -5.923391e+00 -2.374089e+00 -9.760117e+00 -2.375502e+00 -2.003393e+00 -3.048325e+00 5.010900e+01 -4.911683e-01 5.376937e-01 -3.458268e-01 8.300843e-01 1.090334e+00 1.531055e-01 -2.438896e-01 -3.719795e-01 6.268568e-02 -1.383059e-01 -1.240385e-01 7.018191e-02 -1.233636e+00 -1.313147e-02 -3.148654e-01 -3.636760e-01 -2.962681e-01 1.772641e-01 1.808620e-01 -4.754742e-02 4.733330e-02 3.493723e-01 1.302575e-01 -8.137939e-02 2.469722e-02 4.284806e-01
<VARIANCE> 39
 3.426917e+01 7.066808e+01 6.541132e+01 7.466135e+01 9.089216e+01 6.781297e+01 6.762901e+01 9.009837e+01 6.953679e+01 6.494409e+01 6.476756e+01 3.664207e+01 1.001923e+02 3.154873e+00 1.080111e+01 6.739266e+00 8.274925e+00 8.556500e+00 6.736507e+00 6.760774e+00 8.271843e+00 7.870834e+00 6.852432e+00 5.225638e+00 3.608443e+00 1.406399e+01 5.442784e-01 1.918738e+00 1.122756e+00 1.407776e+00 1.572284e+00 1.255575e+00 1.211974e+00 1.383047e+00 1.306836e+00 1.358124e+00 1.030996e+00 6.967129e-01 2.361496e+00
<GCONST> 1.541952e+02
<STATE> 3
<MEAN> 39
 -9.200610e+00 -5.340269e+00 -3.419713e+00 -4.310614e+00 -7.097534e+00 -9.264014e+00 -6.656440e+00 -2.944200e+00 -7.795036e+00 -1.700398e+00 -2.443671e+00 -2.638146e+00 4.979254e+01 5.745009e-02 -6.360185e-01 -1.027440e+00 -6.393076e-01 6.952599e-01 2.291631e-01 -5.392648e-01 -4.416513e-02 7.604481e-01 4.502576e-01 -5.292642e-02 1.802389e-01 9.050041e-01 2.820858e-01 -9.824777e-02 3.491688e-02 -3.583484e-01 -2.992936e-01 -2.316733e-02 -6.955739e-02 5.808357e-02 4.415320e-02 5.838276e-02 8.071163e-02 -1.497780e-02 4.507444e-01
<VARIANCE> 39
 3.460719e+01 7.538018e+01 8.584564e+01 6.696066e+01 9.035620e+01 6.406953e+01 6.090649e+01 6.995238e+01 6.560254e+01 5.573327e+01 4.978272e+01 3.200529e+01 8.537836e+01 4.325584e+00 1.058109e+01 7.984159e+00 8.471420e+00 9.773500e+00 7.393198e+00 6.870691e+00 7.966170e+00 7.443796e+00 6.762754e+00 5.140995e+00 3.588282e+00 1.243780e+01 6.985062e-01 2.099426e+00 1.540930e+00 1.443752e+00 1.620416e+00 1.292470e+00 1.255042e+00 1.357849e+00 1.411631e+00 1.346428e+00 1.007895e+00 6.981916e-01 2.055562e+00
<GCONST> 1.543873e+02
<STATE> 4
<MEAN> 39
 -7.788046e+00 -6.859567e+00 -5.656772e+00 -7.226683e+00 -6.915613e+00 -8.899778e+00 -8.015888e+00 -3.054698e+00 -6.113610e+00 -3.366990e-01 -2.143472e+00 -2.346393e+00 5.361105e+01 8.855289e-01 -3.435599e-01 -4.495379e-01 -1.107517e+00 -2.409021e-01 1.213531e-02 -6.817334e-01 9.451818e-02 4.868424e-01 1.905112e-01 1.931635e-01 6.733459e-02 1.329120e+00 1.258710e-01 9.077634e-02 1.782208e-01 3.116088e-03 -1.754645e-01 -1.613818e-02 3.867554e-02 1.020409e-01 -1.061867e-01 -1.737197e-01 1.841994e-02 -3.645692e-02 -7.289286e-02
<VARIANCE> 39
 3.845351e+01 6.327504e+01 8.920194e+01 7.490924e+01 9.268822e+01 6.862470e+01 6.755256e+01 6.953600e+01 6.320646e+01 5.288463e+01 5.190828e+01 3.134874e+01 7.295776e+01 4.724764e+00 6.614081e+00 6.605780e+00 6.872045e+00 7.716703e+00 6.881189e+00 6.577630e+00 6.486777e+00 6.713346e+00 5.916497e+00 4.687789e+00 3.479385e+00 5.869581e+00 7.280514e-01 1.479405e+00 1.343060e+00 1.091507e+00 1.419977e+00 1.105686e+00 1.161287e+00 1.202991e+00 1.236666e+00 1.101689e+00 8.678180e-01 6.376240e-01 1.149062e+00
<GCONST> 1.496182e+02
<TRANSP> 5
 0.000000e+00 1.000000e+00 0.000000e+00 0.000000e+00 0.000000e+00
 0.000000e+00 7.213064e-01 2.786935e-01 0.000000e+00 0.000000e+00
 0.000000e+00 0.000000e+00 6.357474e-01 3.642525e-01 0.000000e+00
 0.000000e+00 0.000000e+00 0.000000e+00 6.124051e-01 3.875949e-01
 0.000000e+00 0.000000e+00 0.000000e+00 0.000000e+00 0.000000e+00
<ENDHMM>
~h "k"
<BEGINHMM>
<NUMSTATES> 5
<STATE> 2
<MEAN> 39
 -1.504202e+01 -6.056612e+00 -4.213853e+00 -3.871438e+00 -4.772073e+00 -6.596400e+00 -3.436720e+00 8.347878e-01 -4.137781e+00 -2.208788e-01 -1.571675e+00 -1.024325e+00 4.519011e+01 -1.091168e+00 2.534397e-02 -3.521182e-01 5.167979e-01 7.420864e-01 9.904205e-01 5.230578e-01 -2.089812e-01 4.511009e-01 4.384171e-01 1.687104e-01 3.172609e-01 -1.688133e+00 1.812846e-01 -2.942402e-01 -1.961502e-01 -4.470099e-01 -1.455654e-01 -2.899089e-02 -1.112291e-01 -8.928455e-03 6.068576e-02 1.996505e-02 -6.638359e-02 -4.863870e-02 8.788217e-01
<VARIANCE> 39
 5.417353e+01 4.611397e+01 5.020906e+01 5.233755e+01 7.646134e+01 7.399648e+01 5.254445e+01 5.905220e+01 5.847018e+01 3.862430e+01 3.725353e+01 2.563775e+01 1.394246e+02 6.696057e+00 7.844991e+00 6.132182e+00 7.641937e+00 8.053548e+00 8.413506e+00 6.013998e+00 6.349361e+00 7.294040e+00 4.539636e+00 4.535318e+00 3.072389e+00 2.353033e+01 1.007676e+00 1.453332e+00 1.026676e+00 1.253723e+00 1.490562e+00 1.745244e+00 1.111344e+00 1.243220e+00 1.370492e+00 8.814955e-01 8.502437e-01 6.007828e-01 4.037373e+00
<GCONST> 1.513628e+02
<STATE> 3
<MEAN> 39
 -1.664531e+01 -7.924103e+00 -6.015808e+00 -5.193942e+00 -3.872760e+00 -4.826282e+00 -2.788620e+00 4.070829e-01 -3.026104e+00 9.886881e-01 -1.583861e+00 -4.295890e-01 4.660882e+01 1.462122e-02 -5.315148e-01 -4.835509e-01 -8.226075e-01 -1.002352e-01 5.951871e-02 2.660618e-02 -1.712212e-01 9.673467e-02 2.178530e-01 -1.144322e-01 4.669674e-02 1.563794e+00 2.924898e-01 1.223471e-01 1.093228e-01 -2.133351e-01 -2.225478e-01 -2.391870e-01 -1.377184e-01 -3.065797e-03 -9.791160e-02 -1.647463e-01 -3.924730e-02 -1.071173e-01 5.804462e-01
<VARIANCE> 39
 3.426340e+01 4.947165e+01 5.340499e+01 5.326472e+01 5.792196e+01 5.471041e+01 4.463543e+01 4.539086e+01 4.469356e+01 3.406094e+01 2.890642e+01 2.189314e+01 1.316439e+02 6.047615e+00 6.724857e+00 5.768721e+00 6.808011e+00 6.868439e+00 7.027690e+00 5.031317e+00 5.197812e+00 5.888400e+00 4.187683e+00 3.696864e+00 2.794614e+00 2.104525e+01 8.709533e-01 1.520807e+00 1.123635e+00 1.283750e+00 1.217466e+00 1.343060e+00 9.971952e-01 1.022117e+00 1.147871e+00 8.229094e-01 7.432142e-01 5.510668e-01 3.873470e+00
<GCONST> 1.460656e+02
<STATE> 4
<MEAN> 39
 -1.544243e+01 -8.565526e+00 -6.419575e+00 -7.881495e+00 -4.991991e+00 -5.551644e+00 -2.914350e+00 -8.925377e-02 -3.208888e+00 8.483891e-01 -2.089578e+00 -7.204384e-01 5.228693e+01 7.621482e-01 1.452083e-01 1.113180e-01 -7.571982e-01 -6.181920e-01 -3.455530e-01 -2.065671e-01 -1.847482e-01 -2.051947e-01 -3.757729e-01 -9.161129e-02 -2.509809e-01 1.654258e+00 1.774201e-01 1.592841e-01 1.493209e-01 7.617360e-02 -1.247355e-01 -3.352350e-02 -8.407502e-02 2.539635e-02 -5.417454e-02 -1.601608e-01 4.769891e-02 -6.759174e-02 -1.737667e-01
<VARIANCE> 39
 4.364291e+01 4.230714e+01 6.386700e+01 5.296299e+01 6.140601e+01 5.298590e+01 4.961609e+01 4.698564e+01 4.342498e+01 3.620380e+01 3.139412e+01 2.332207e+01 1.004694e+02 6.724885e+00 5.261556e+00 4.881090e+00 5.328149e+00 5.814945e+00 5.769639e+00 4.795235e+00 4.787232e+00 5.381341e+00 4.075050e+00 3.567742e+00 2.815165e+00 1.050318e+01 8.383235e-01 1.196254e+00 1.004509e+00 1.051855e+00 1.009346e+00 1.036858e+00 9.127638e-01 8.989530e-01 9.515907e-01 7.794910e-01 6.756933e-01 5.343583e-01 2.318598e+00
<GCONST> 1.423792e+02
<TRANSP> 5
 0.000000e+00 1.000000e+00 0.000000e+00 0.000000e+00 0.000000e+00
 0.000000e+00 7.281604e-01 2.718396e-01 0.000000e+00 0.000000e+00
 0.000000e+00 0.000000e+00 6.059633e-01 3.940367e-01 0.000000e+00
 0.000000e+00 0.000000e+00 0.000000e+00 5.858905e-01 4.141096e-01
 0.000000e+00 0.000000e+00 0.000000e+00 0.000000e+00 0.000000e+00
<ENDHMM>
~h "l"
<BEGINHMM>
<NUMSTATES> 5
<STATE> 2
<MEAN> 39
 -1.875449e+00 -5.648851e+00 -1.059864e+01 -2.400183e+01 -8.080875e+00 1.087021e+00 -7.645776e+00 -5.834785e+00 -3.359143e+00 -4.685447e-01 -9.808770e-01 -2.563240e+00 5.980458e+01 4.516936e-01 1.935833e-01 -8.970036e-02 -1.018501e+00 -4.640143e-02 4.286956e-01 -2.258500e-01 -2.030017e-01 -7.961781e-02 2.797031e-02 1.263819e-01 2.913665e-02 1.500221e-01 -2.459904e-01 -1.154486e-01 1.206706e-01 4.811418e-01 3.309067e-02 -2.738580e-01 4.209456e-02 2.304944e-01 7.423404e-02 -4.373319e-02 -9.938198e-02 1.236254e-03 -8.782723e-02
<VARIANCE> 39
 1.988910e+01 4.884496e+01 4.881344e+01 9.129874e+01 6.544665e+01 8.020070e+01 7.840220e+01 6.440569e+01 6.272836e+01 6.033139e+01 6.332583e+01 4.353592e+01 3.501266e+01 1.960720e+00 2.855479e+00 2.445081e+00 5.793272e+00 3.547343e+00 4.665945e+00 4.144126e+00 4.514487e+00 4.396986e+00 3.973164e+00 3.582583e+00 3.153801e+00 1.857620e+00 3.390716e-01 4.148993e-01 3.744182e-01 7.618192e-01 6.279963e-01 6.749189e-01 6.878440e-01 7.978213e-01 8.271518e-01 7.436453e-01 6.523114e-01 5.823425e-01 2.747418e-01
<GCONST> 1.323606e+02
<STATE> 3
<MEAN> 39
 -1.694628e+00 -5.611722e+00 -1.057523e+01 -2.380772e+01 -7.893359e+00 5.537038e-01 -8.055532e+00 -5.544291e+00 -3.148583e+00 -3.604156e-01 -1.199802e+00 -2.738309e+00 5.966980e+01 -1.461663e-01 -2.158376e-01 2.545349e-01 5.556380e-01 -1.738780e-02 -4.940941e-01 -1.775084e-01 3.417749e-01 1.957822e-01 -2.090311e-02 -2.587245e-01 -1.206271e-01 1.939233e-02 -2.180042e-01 -7.692268e-02 1.784572e-01 4.831075e-01 -3.629697e-02 -2.619279e-01 8.596914e-02 1.725243e-01 -3.859884e-03 -9.650155e-02 -9.469946e-02 1.598017e-02 -9.593001e-02
<VARIANCE> 39
 1.684283e+01 4.857569e+01 5.206575e+01 8.550128e+01 6.576592e+01 8.193591e+01 8.007478e+01 6.635529e+01 6.587166e+01 6.334257e+01 6.378928e+01 4.535592e+01 3.573619e+01 1.330200e+00 3.036150e+00 2.480332e+00 5.443100e+00 3.441800e+00 4.546970e+00 3.911887e+00 4.521335e+00 4.575631e+00 3.940692e+00 3.490693e+00 3.234629e+00 1.867771e+00 2.552541e-01 3.913284e-01 3.652933e-01 7.153799e-01 6.306405e-01 6.633918e-01 6.768364e-01 7.962765e-01 8.555987e-01 7.614132e-01 6.484153e-01 5.890751e-01 2.495830e-01
<GCONST> 1.314865e+02
<STATE> 4
<MEAN> 39
 -2.830745e+00 -6.158963e+00 -9.706723e+00 -2.040703e+01 -7.874142e+00 -1.731229e+00 -7.739256e+00 -4.214054e+00 -2.611279e+00 -7.839691e-01 -2.451039e+00 -3.025047e+00 5.875331e+01 -5.785231e-01 -2.889031e-01 6.603808e-01 1.437284e+00 -1.084962e-01 -8.920510e-01 6.259480e-02 5.404062e-01 -1.005277e-03 -2.448019e-01 -3.237867e-01 1.385734e-02 -2.670135e-01 -1.615296e-01 3.908827e-02 1.536677e-01 1.917970e-01 -3.731294e-02 -3.425039e-02 1.102708e-01 2.825255e-02 -1.336631e-01 -7.574003e-02 5.256140e-02 6.892739e-02 -1.264916e-01
<VARIANCE> 39
 2.261360e+01 5.416753e+01 5.875170e+01 8.923325e+01 6.653392e+01 8.777701e+01 8.366786e+01 6.994918e+01 6.887151e+01 6.240321e+01 6.124345e+01 4.575452e+01 5.400360e+01 1.760759e+00 2.731215e+00 3.001054e+00 5.205994e+00 4.169401e+00 4.147741e+00 3.768037e+00 4.440786e+00 4.571717e+00 3.841655e+00 3.294676e+00 3.090403e+00 2.191071e+00 2.741550e-01 3.850609e-01 3.641484e-01 7.392676e-01 6.077033e-01 6.760229e-01 6.589034e-01 7.677447e-01 8.326216e-01 6.988195e-01 6.028225e-01 5.511140e-01 2.767431e-01
<GCONST> 1.328904e+02
<TRANSP> 5
 0.000000e+00 1.000000e+00 0.000000e+00 0.000000e+00 0.000000e+00
 0.000000e+00 6.908959e-01 3.091041e-01 0.000000e+00 0.000000e+00
 0.000000e+00 0.000000e+00 6.265979e-01 3.734021e-01 0.000000e+00
 0.000000e+00 0.000000e+00 0.000000e+00 6.774036e-01 3.225964e-01
 0.000000e+00 0.000000e+00 0.000000e+00 0.000000e+00 0.000000e+00
<ENDHMM>
~h "m"
<BEGINHMM>
<NUMSTATES> 5
<STATE> 2
<MEAN> 39
 -4.659547e+00 -5.394480e+00 -4.679370e+00 -6.214619e+00 -8.140868e+00 -6.778471e+00 -7.097477e+00 -7.059090e+00 -1.006603e+01 -2.094577e+00 -2.533203e+00 -6.125236e+00 5.319429e+01 3.685407e-01 5.533203e-01 4.341257e-01 7.420262e-01 -6.782560e-02 -4.139964e-01 -3.182779e-02 -1.201987e+00 -1.253751e+00 1.246073e-01 1.149149e-01 -4.757171e-01 -3.074864e-01 -1.858118e-01 -1.941641e-01 4.434596e-03 -2.629529e-01 -8.350219e-02 9.068050e-02 -2.163600e-03 3.505111e-01 3.291580e-01 -3.263139e-02 -5.188257e-02 1.825188e-01 2.362099e-01
<VARIANCE> 39
 2.418029e+01 3.969020e+01 4.258015e+01 6.652559e+01 5.675449e+01 6.599963e+01 6.394603e+01 7.981476e+01 8.517737e+01 5.801311e+01 7.630829e+01 5.019094e+01 4.981028e+01 3.001360e+00 3.185111e+00 3.378261e+00 4.624687e+00 4.250401e+00 3.946980e+00 4.477454e+00 6.400050e+00 7.114478e+00 4.102012e+00 4.252226e+00 3.474687e+00 4.238303e+00 3.870153e-01 5.112587e-01 5.966645e-01 7.856489e-01 6.607450e-01 6.915121e-01 7.732620e-01 1.096586e+00 1.284172e+00 7.334275e-01 7.491560e-01 6.152109e-01 4.712737e-01
<GCONST> 1.377027e+02
<STATE> 3
<MEAN> 39
 -4.342414e+00 -4.814160e+00 -3.859052e+00 -5.387435e+00 -8.453546e+00 -7.375493e+00 -7.217253e+00 -8.599094e+00 -1.165133e+01 -1.945343e+00 -2.532055e+00 -6.519596e+00 5.313693e+01 -2.208098e-02 -7.933511e-02 1.893342e-01 -2.019008e-01 -2.208222e-01 3.424665e-02 -3.041770e-02 1.072215e-01 9.836989e-02 -1.087987e-01 -8.978808e-02 1.159673e-01 2.673593e-01 -1.951844e-01 -2.675874e-01 -9.887581e-02 -4.273748e-01 -6.262688e-02 2.258809e-01 3.503701e-02 5.704447e-01 5.542436e-01 -7.368407e-02 -6.789189e-02 2.383236e-01 2.191354e-01
<VARIANCE> 39
 1.559348e+01 3.506361e+01 4.028698e+01 6.483727e+01 5.725696e+01 6.638679e+01 6.208387e+01 8.078491e+01 8.192775e+01 5.962880e+01 8.118951e+01 5.135224e+01 3.788986e+01 2.166875e+00 3.581892e+00 3.314185e+00 5.270186e+00 3.975284e+00 3.822305e+00 3.953012e+00 6.925714e+00 7.703387e+00 3.926306e+00 3.949012e+00 3.268949e+00 4.216418e+00 3.618256e-01 4.849004e-01 6.164048e-01 7.760125e-01 6.769477e-01 6.839205e-01 7.445488e-01 1.086375e+00 1.284933e+00 7.643871e-01 7.910429e-01 6.342040e-01 4.166394e-01
<GCONST> 1.363796e+02
<STATE> 4
<MEAN> 39
 -4.903963e+00 -5.622691e+00 -4.022357e+00 -7.137210e+00 -8.910969e+00 -6.460611e+00 -7.160261e+00 -6.656707e+00 -9.511826e+00 -2.558121e+00 -3.120102e+00 -5.541642e+00 5.414191e+01 -4.058752e-01 -6.035368e-01 -1.118302e-01 -1.066939e+00 -2.685961e-01 4.982438e-01 9.947608e-02 1.301498e+00 1.187880e+00 -2.464410e-01 -1.657916e-01 5.648062e-01 6.411749e-01 -1.570627e-01 -1.122993e-01 -3.430838e-02 -1.862371e-01 -1.305268e-02 9.846369e-02 6.550017e-02 2.450213e-01 1.814943e-01 4.363348e-02 2.218794e-02 9.519187e-02 8.303882e-02
<VARIANCE> 39
 2.137555e+01 4.257232e+01 4.833752e+01 7.440881e+01 6.660800e+01 6.833826e+01 6.098185e+01 8.594200e+01 8.419009e+01 5.591250e+01 7.065911e+01 4.665295e+01 5.362448e+01 2.402196e+00 3.551691e+00 4.057982e+00 5.533995e+00 4.722138e+00 4.030881e+00 4.125633e+00 6.337631e+00 6.985623e+00 4.103588e+00 4.142617e+00 3.286811e+00 4.048299e+00 3.194685e-01 5.670649e-01 5.985105e-01 8.805845e-01 6.940131e-01 6.988547e-01 6.977301e-01 1.132668e+00 1.293495e+00 7.142119e-01 7.205376e-01 5.697112e-01 5.012307e-01
<GCONST> 1.380680e+02
<TRANSP> 5
 0.000000e+00 1.000000e+00 0.000000e+00 0.000000e+00 0.000000e+00
 0.000000e+00 5.526061e-01 4.473939e-01 0.000000e+00 0.000000e+00
 0.000000e+00 0.000000e+00 5.499869e-01 4.500132e-01 0.000000e+00
 0.000000e+00 0.000000e+00 0.000000e+00 6.143885e-01 3.856114e-01
 0.000000e+00 0.000000e+00 0.000000e+00 0.000000e+00 0.000000e+00
<ENDHMM>
~h "n"
<BEGINHMM>
<NUMSTATES> 5
<STATE> 2
<MEAN> 39
 -5.007177e+00 -7.267832e+00 -2.837156e+00 -9.367376e+00 -1.228214e+01 -7.520689e+00 -5.942921e+00 -3.955581e+00 -7.920957e+00 -2.271329e+00 -6.019355e+00 -4.228203e+00 5.622299e+01 1.363645e-01 6.277838e-01 1.156107e-01 5.683450e-01 -1.573628e-03 -1.484994e-01 3.195097e-01 -1.077582e+00 -6.225684e-01 3.317430e-01 -3.753363e-01 -1.342845e-01 -6.681321e-01 -1.540854e-01 -1.929280e-02 -4.516388e-02 -6.742935e-02 9.060931e-02 8.172373e-02 -2.439050e-02 1.343043e-01 1.559511e-01 -4.591572e-02 1.003384e-01 8.781640e-02 2.239392e-02
<VARIANCE> 39
 1.633611e+01 4.716992e+01 4.779442e+01 7.068941e+01 5.792129e+01 5.789122e+01 6.681516e+01 1.102937e+02 8.391725e+01 6.552623e+01 6.521843e+01 4.978241e+01 4.864720e+01 1.572756e+00 3.314106e+00 2.924664e+00 3.806340e+00 3.717360e+00 3.868126e+00 4.571429e+00 8.779837e+00 5.562137e+00 4.361397e+00 3.513029e+00 2.940258e+00 3.315613e+00 2.874929e-01 5.605886e-01 4.495466e-01 6.846886e-01 6.363010e-01 6.638435e-01 8.501624e-01 1.706000e+00 1.030146e+00 8.334950e-01 6.621892e-01 5.471442e-01 5.112252e-01
<GCONST> 1.358637e+02
<STATE> 3
<MEAN> 39
 -4.970385e+00 -6.025904e+00 -2.838197e+00 -8.258603e+00 -1.199705e+01 -7.659603e+00 -5.330778e+00 -5.762580e+00 -8.654016e+00 -1.782432e+00 -6.560297e+00 -4.184697e+00 5.482785e+01 -1.738151e-01 3.936417e-01 -2.472349e-02 2.635627e-01 2.162741e-01 6.301721e-02 1.065818e-01 -2.780955e-01 -8.215801e-02 2.569287e-02 -7.007004e-02 5.065540e-02 -4.518160e-01 -1.773607e-01 -1.396407e-01 -7.560852e-02 -1.803179e-01 1.121908e-01 1.189589e-01 -9.324572e-02 3.984253e-01 2.562240e-01 -1.370241e-01 1.652180e-01 8.592935e-02 1.355789e-01
<VARIANCE> 39
 1.523071e+01 4.819324e+01 4.143380e+01 6.613460e+01 5.441612e+01 5.323834e+01 6.502557e+01 1.121406e+02 8.235313e+01 6.625138e+01 6.421561e+01 5.101492e+01 4.709915e+01 1.595302e+00 3.727058e+00 2.829728e+00 3.861103e+00 3.577695e+00 3.556015e+00 4.568542e+00 9.980435e+00 5.782423e+00 4.398090e+00 3.526656e+00 2.900625e+00 3.553264e+00 3.118603e-01 5.829761e-01 4.790989e-01 6.711569e-01 6.555090e-01 6.609570e-01 8.591547e-01 1.727271e+00 1.073705e+00 8.502926e-01 6.877369e-01 5.676835e-01 5.055254e-01
<GCONST> 1.359799e+02
<STATE> 4
<MEAN> 39
 -5.746821e+00 -5.350460e+00 -3.246365e+00 -7.951740e+00 -1.102856e+01 -7.268850e+00 -5.195683e+00 -5.135427e+00 -8.193827e+00 -2.401096e+00 -6.347717e+00 -3.760533e+00 5.373028e+01 -5.491365e-01 9.314466e-02 -2.022248e-01 -9.226447e-02 4.741080e-01 2.787591e-01 -6.165974e-02 5.639292e-01 4.237776e-01 -2.046932e-01 3.084204e-01 1.758826e-01 -2.051356e-01 -1.877645e-01 -1.246091e-01 -7.465012e-02 -1.382187e-01 9.418654e-02 8.358492e-02 -2.169962e-02 2.384543e-01 1.783803e-01 -1.386521e-02 1.426260e-01 6.505978e-02 1.181609e-01
<VARIANCE> 39
 2.289604e+01 5.596700e+01 4.235987e+01 6.555724e+01 5.770243e+01 5.099278e+01 6.351435e+01 1.037493e+02 7.804607e+01 6.080491e+01 5.678308e+01 4.712144e+01 6.017147e+01 2.662939e+00 3.604138e+00 2.967470e+00 3.825563e+00 3.883736e+00 3.519405e+00 4.293722e+00 7.936720e+00 5.247292e+00 4.073075e+00 3.591259e+00 2.904738e+00 3.560449e+00 3.781400e-01 6.115125e-01 4.795413e-01 6.417566e-01 6.557905e-01 6.211389e-01 7.933066e-01 1.451622e+00 9.535155e-01 7.610219e-01 6.362884e-01 5.348188e-01 5.382704e-01
<GCONST> 1.360902e+02
<TRANSP> 5
 0.000000e+00 1.000000e+00 0.000000e+00 0.000000e+00 0.000000e+00
 0.000000e+00 5.511632e-01 4.488367e-01 0.000000e+00 0.000000e+00
 0.000000e+00 0.000000e+00 5.392025e-01 4.607975e-01 0.000000e+00
 0.000000e+00 0.000000e+00 0.000000e+00 6.125118e-01 3.874882e-01
 0.000000e+00 0.000000e+00 0.000000e+00 0.000000e+00 0.000000e+00
<ENDHMM>
~h "p"
<BEGINHMM>
<NUMSTATES> 5
<STATE> 2
<MEAN> 39
 -1.383534e+01 -2.686956e+00 -5.052185e+00 -4.331606e+00 -3.236246e+00 -2.241455e+00 -3.688438e+00 -2.080683e+00 -2.585656e+00 -6.700411e-01 -1.330225e+00 -1.605419e+00 4.162182e+01 -1.375030e+00 3.177749e-01 -7.016638e-02 1.025230e+00 7.327818e-01 6.610991e-01 7.629662e-01 3.287927e-01 5.861529e-01 2.914584e-01 2.073721e-01 3.505636e-01 -2.192681e+00 6.779115e-02 -3.784061e-01 -8.282854e-02 -3.262787e-01 -2.080637e-01 -1.645425e-01 -7.874475e-02 9.863319e-02 3.434062e-02 4.117684e-02 -2.852550e-03 4.637435e-03 8.771512e-01
<VARIANCE> 39
 6.321622e+01 3.587959e+01 2.856787e+01 4.842141e+01 3.025116e+01 3.592796e+01 3.706183e+01 3.209534e+01 3.558482e+01 2.933132e+01 2.746276e+01 2.285039e+01 1.233717e+02 7.231030e+00 6.547662e+00 4.300474e+00 7.362995e+00 4.719939e+00 4.912288e+00 4.636694e+00 4.630047e+00 4.798938e+00 3.829486e+00 3.483819e+00 2.731458e+00 2.154992e+01 1.301201e+00 9.800155e-01 6.835025e-01 1.163321e+00 7.895624e-01 8.549854e-01 8.251078e-01 8.428280e-01 8.477376e-01 7.266894e-01 6.431398e-01 5.107014e-01 3.126637e+00
<GCONST> 1.394731e+02
<STATE> 3
<MEAN> 39
 -1.670448e+01 -4.173156e+00 -5.865927e+00 -3.818722e+00 -2.426779e+00 -1.558415e+00 -2.174933e+00 -8.237810e-01 -9.209125e-01 3.277178e-01 -7.075489e-01 -7.050883e-01 4.163197e+01 4.707435e-02 -8.493353e-01 -3.840405e-01 -5.350549e-01 -9.768042e-02 -1.750359e-01 1.124633e-01 2.681642e-01 3.585065e-01 1.390728e-01 3.933035e-02 1.398225e-01 1.789510e+00 5.647159e-01 -1.681754e-01 -5.385432e-02 -3.913656e-01 -2.429345e-01 -2.280598e-01 -2.664600e-01 -1.082258e-01 -1.891937e-01 -1.282519e-01 -1.100186e-01 -1.074362e-01 8.335891e-01
<VARIANCE> 39
 2.780050e+01 2.800359e+01 1.932854e+01 3.261723e+01 2.119359e+01 2.505066e+01 2.514853e+01 2.471184e+01 2.591509e+01 2.250220e+01 1.977292e+01 1.714504e+01 1.256571e+02 6.494637e+00 4.003865e+00 2.846818e+00 5.393502e+00 3.443777e+00 4.014172e+00 3.910986e+00 3.651088e+00 3.870605e+00 3.114970e+00 2.807465e+00 2.333452e+00 1.991941e+01 8.719360e-01 8.096731e-01 5.579811e-01 8.751661e-01 6.661580e-01 7.657829e-01 7.327051e-01 7.495146e-01 7.875096e-01 6.448441e-01 5.861271e-01 4.605733e-01 3.291361e+00
<GCONST> 1.300183e+02
<STATE> 4
<MEAN> 39
 -1.421908e+01 -6.963006e+00 -7.355320e+00 -6.900616e+00 -3.381058e+00 -2.701512e+00 -2.612945e+00 -7.362363e-01 -7.114305e-01 1.476183e-01 -1.118837e+00 -8.476357e-01 4.979139e+01 1.699957e+00 -7.757282e-01 -4.825271e-01 -1.292368e+00 -6.833853e-01 -5.756888e-01 -6.892511e-01 -1.164932e-01 -3.149131e-01 -3.313512e-01 -3.103255e-01 -1.966943e-01 2.606737e+00 3.285161e-01 9.854742e-02 1.537205e-02 -8.054066e-02 -1.732484e-01 -5.931102e-02 -2.643614e-01 -5.697269e-02 -1.855128e-01 -1.086368e-01 -5.321370e-02 -7.743450e-02 -2.024961e-01
<VARIANCE> 39
 4.544516e+01 3.236628e+01 2.989603e+01 4.969242e+01 3.213941e+01 3.532637e+01 3.613487e+01 3.056636e+01 2.974656e+01 2.492976e+01 2.359942e+01 1.878896e+01 1.146662e+02 6.115203e+00 3.763186e+00 3.553414e+00 4.839515e+00 4.245083e+00 4.660779e+00 5.125192e+00 4.191666e+00 4.301751e+00 3.387010e+00 3.180727e+00 2.413966e+00 1.075110e+01 8.513836e-01 7.049606e-01 5.277572e-01 7.862650e-01 6.906781e-01 7.509834e-01 7.871580e-01 7.504191e-01 7.927042e-01 6.443341e-01 5.915123e-01 4.620354e-01 2.356861e+00
<GCONST> 1.332022e+02
<TRANSP> 5
 0.000000e+00 1.000000e+00 0.000000e+00 0.000000e+00 0.000000e+00
 0.000000e+00 7.438028e-01 2.561972e-01 0.000000e+00 0.000000e+00
 0.000000e+00 0.000000e+00 6.670954e-01 3.329046e-01 0.000000e+00
 0.000000e+00 0.000000e+00 0.000000e+00 6.611732e-01 3.388269e-01
 0.000000e+00 0.000000e+00 0.000000e+00 0.000000e+00 0.000000e+00
<ENDHMM>
~h "r"
<BEGINHMM>
<NUMSTATES> 5
<STATE> 2
<MEAN> 39
 -2.473760e-01 -1.288453e+01 -1.209207e+01 -6.466534e+00 -5.993165e+00 -1.238596e+01 -1.531167e+01 4.196043e+00 -1.172742e+00 -3.464570e+00 -1.369248e+00 -4.248374e-01 5.872219e+01 9.656752e-01 -2.274914e-01 -4.248233e-01 2.502033e-01 8.749649e-02 -6.765341e-01 -1.112950e+00 5.210786e-01 2.725075e-01 -3.219869e-01 -1.802404e-01 3.966153e-02 1.955219e-01 -3.567221e-01 7.527480e-02 3.493951e-01 -3.598265e-02 -1.861451e-01 2.115191e-01 4.373195e-01 -1.015783e-01 -1.693945e-01 2.240224e-02 1.733738e-02 -4.559687e-02 -1.421549e-01
<VARIANCE> 39
 4.360373e+01 3.948009e+01 7.457870e+01 4.701373e+01 6.921954e+01 8.365829e+01 1.171994e+02 9.816895e+01 8.607481e+01 4.777626e+01 4.423302e+01 3.386703e+01 3.816750e+01 4.741265e+00 2.821859e+00 5.124128e+00 2.838531e+00 4.580945e+00 4.982137e+00 7.274027e+00 5.330378e+00 4.486322e+00 3.508688e+00 2.889903e+00 2.385792e+00 2.433608e+00 6.344943e-01 4.769827e-01 5.934396e-01 4.518295e-01 6.367486e-01 7.467613e-01 1.139770e+00 8.805512e-01 7.023320e-01 5.727136e-01 4.880092e-01 4.088199e-01 3.663104e-01
<GCONST> 1.354354e+02
<STATE> 3
<MEAN> 39
 6.893611e-01 -1.339803e+01 -1.221264e+01 -5.991894e+00 -6.356285e+00 -1.310050e+01 -1.597281e+01 4.959283e+00 -8.711996e-01 -3.992355e+00 -1.889014e+00 -5.159322e-01 5.889455e+01 -1.354375e-01 -9.882565e-02 7.640623e-01 1.462553e-01 -5.698733e-01 -1.669802e-01 4.083528e-01 1.944081e-01 -3.308409e-01 -2.134577e-01 -5.523428e-02 -1.044665e-01 -4.638721e-02 -4.515429e-01 1.552126e-01 3.954286e-01 -1.045017e-01 -1.513413e-01 3.230180e-01 5.525804e-01 -2.538196e-01 -2.271582e-01 8.873057e-02 6.388605e-02 -6.704142e-02 -1.616416e-01
<VARIANCE> 39
 2.799997e+01 3.881587e+01 7.052874e+01 5.073584e+01 7.265349e+01 8.663937e+01 1.217318e+02 9.598535e+01 9.309830e+01 5.161682e+01 4.694707e+01 3.625055e+01 3.792124e+01 3.731479e+00 3.081771e+00 5.226458e+00 3.042170e+00 4.666435e+00 4.762765e+00 7.273475e+00 5.741038e+00 4.635888e+00 3.472602e+00 3.075736e+00 2.461178e+00 2.942951e+00 5.043482e-01 4.442753e-01 5.321910e-01 4.729573e-01 6.680241e-01 8.215735e-01 1.123486e+00 9.213427e-01 7.302139e-01 5.937731e-01 5.050404e-01 4.306674e-01 3.229903e-01
<GCONST> 1.355088e+02
<STATE> 4
<MEAN> 39
 -7.845273e-01 -1.339295e+01 -9.554863e+00 -5.886372e+00 -8.185755e+00 -1.264310e+01 -1.288489e+01 4.701390e+00 -2.130532e+00 -4.244456e+00 -1.956524e+00 -9.390129e-01 5.837978e+01 -9.841648e-01 3.261983e-01 1.472477e+00 -1.866906e-01 -7.706684e-01 5.449694e-01 1.385748e+00 -5.108622e-01 -7.795249e-01 6.325293e-02 6.690341e-02 -2.802443e-01 -3.821546e-01 -2.698359e-01 2.106002e-01 9.160573e-02 -1.534536e-01 7.008898e-02 2.991793e-01 1.718910e-01 -2.697312e-01 -4.749495e-02 1.307708e-01 1.827097e-02 -4.748942e-02 -1.340331e-01
<VARIANCE> 39
 3.023069e+01 4.373294e+01 8.006956e+01 5.869848e+01 8.142887e+01 8.858015e+01 1.147854e+02 8.852467e+01 9.713940e+01 5.648545e+01 5.229801e+01 3.907740e+01 5.448016e+01 3.075108e+00 3.325241e+00 4.297810e+00 3.407310e+00 4.499454e+00 4.588691e+00 5.842834e+00 5.594995e+00 4.476226e+00 3.395015e+00 3.136450e+00 2.553042e+00 3.555177e+00 4.094383e-01 4.361852e-01 5.399579e-01 5.069091e-01 6.891759e-01 7.964525e-01 1.001328e+00 8.473585e-01 7.332122e-01 5.992669e-01 5.340605e-01 4.482886e-01 3.360633e-01
<GCONST> 1.361284e+02
<TRANSP> 5
 0.000000e+00 1.000000e+00 0.000000e+00 0.000000e+00 0.000000e+00
 0.000000e+00 5.879664e-01 4.120336e-01 0.000000e+00 0.000000e+00
 0.000000e+00 0.000000e+00 5.440031e-01 4.559968e-01 0.000000e+00
 0.000000e+00 0.000000e+00 0.000000e+00 5.793989e-01 4.206011e-01
 0.000000e+00 0.000000e+00 0.000000e+00 0.000000e+00 0.000000e+00
<ENDHMM>
~h "s"
<BEGINHMM>
<NUMSTATES> 5
<STATE> 2
<MEAN> 39
 -2.534982e+01 3.784304e-01 -7.089165e+00 -8.206337e+00 -1.086203e+00 -6.563529e+00 -1.358130e+00 9.593635e-01 -1.900373e+00 -9.124497e-01 -2.206935e+00 4.899037e-02 5.787876e+01 -2.467606e+00 8.387552e-01 -4.953516e-01 6.242784e-02 9.843239e-01 4.947776e-01 7.059020e-01 3.989899e-01 2.561215e-01 1.835011e-01 3.765273e-01 3.627472e-01 9.158358e-02 5.334331e-01 -3.286587e-01 8.679765e-02 -6.809217e-02 -2.817647e-01 -2.874312e-02 -2.569311e-01 -6.472488e-02 -6.844977e-02 2.501425e-03 -4.105852e-02 -9.102678e-02 -5.299373e-02
<VARIANCE> 39
 7.155000e+01 3.103377e+01 4.029150e+01 3.533862e+01 4.292797e+01 3.748745e+01 3.916861e+01 3.253751e+01 2.632953e+01 2.414270e+01 2.251765e+01 1.849566e+01 2.743804e+01 7.997118e+00 3.575264e+00 3.184460e+00 3.237694e+00 3.904402e+00 3.580260e+00 3.965751e+00 3.182467e+00 2.899612e+00 2.694071e+00 2.709990e+00 2.193988e+00 2.083667e+00 1.026634e+00 5.083879e-01 5.172064e-01 5.253050e-01 5.984629e-01 6.238256e-01 6.549659e-01 5.707374e-01 4.951077e-01 5.027604e-01 4.702062e-01 3.910239e-01 3.883288e-01
<GCONST> 1.244549e+02
<STATE> 3
<MEAN> 39
 -2.865464e+01 7.492852e-01 -7.942085e+00 -8.336777e+00 -1.767812e-01 -5.498383e+00 -8.979473e-01 1.483767e+00 -1.505444e+00 -4.619060e-01 -1.562637e+00 4.272891e-01 5.773364e+01 4.870507e-02 -2.398302e-01 7.983538e-02 -8.181585e-02 -7.215704e-02 7.740344e-02 -1.800509e-01 -1.568673e-03 7.296104e-02 7.520205e-02 5.232121e-02 -3.025798e-02 -1.816388e-01 7.658849e-01 -2.883061e-01 1.873025e-01 -2.158210e-02 -3.041012e-01 -1.115609e-01 -2.584853e-01 -1.319821e-01 -6.123827e-02 -4.275715e-02 -8.743369e-02 -1.197361e-01 -1.175849e-01
<VARIANCE> 39
 3.049706e+01 2.649139e+01 3.648711e+01 3.707330e+01 3.772240e+01 3.449940e+01 3.415662e+01 2.788817e+01 2.216832e+01 1.961234e+01 1.841738e+01 1.538573e+01 2.473636e+01 7.212174e+00 2.365961e+00 2.337673e+00 2.295171e+00 3.029466e+00 2.861031e+00 3.085040e+00 2.435902e+00 2.172158e+00 2.034409e+00 1.995508e+00 1.726348e+00 2.125926e+00 6.478360e-01 3.913417e-01 4.275131e-01 4.662015e-01 5.106310e-01 5.466651e-01 5.883570e-01 4.892357e-01 4.507344e-01 4.254389e-01 4.080814e-01 3.429816e-01 4.194642e-01
<GCONST> 1.167189e+02
<STATE> 4
<MEAN> 39
 -2.479861e+01 -1.336329e+00 -6.961769e+00 -8.484993e+00 -1.833844e+00 -5.582543e+00 -2.425040e+00 7.643049e-01 -1.455327e+00 -5.166529e-01 -1.769408e+00 -2.253568e-01 5.588619e+01 2.222326e+00 -9.160872e-01 5.818725e-01 -8.746123e-02 -9.294497e-01 -2.228384e-01 -8.638399e-01 -4.002668e-01 -1.352929e-01 -8.570281e-02 -1.575310e-01 -3.411982e-01 -5.240044e-01 4.440089e-01 -1.755817e-01 7.063349e-02 -1.498865e-02 -2.186762e-01 -2.213678e-02 -1.534915e-01 -6.444790e-02 -8.460938e-02 -2.843891e-02 -1.661582e-02 -6.186208e-02 -3.993414e-02
<VARIANCE> 39
 7.073392e+01 3.276154e+01 4.154866e+01 3.867251e+01 4.505856e+01 4.260009e+01 4.358046e+01 3.157852e+01 2.661392e+01 2.294643e+01 2.182686e+01 1.886474e+01 5.105246e+01 7.356445e+00 2.926980e+00 3.267142e+00 3.640737e+00 4.308183e+00 4.166528e+00 4.659332e+00 3.297628e+00 3.044561e+00 2.592922e+00 2.662658e+00 2.182638e+00 4.814885e+00 9.598027e-01 4.601816e-01 5.123205e-01 5.597826e-01 6.342467e-01 6.811955e-01 7.727783e-01 5.888560e-01 5.264014e-01 4.868451e-01 4.865108e-01 3.861036e-01 8.228330e-01
<GCONST> 1.276038e+02
<TRANSP> 5
 0.000000e+00 1.000000e+00 0.000000e+00 0.000000e+00 0.000000e+00
 0.000000e+00 7.570707e-01 2.429293e-01 0.000000e+00 0.000000e+00
 0.000000e+00 0.000000e+00 7.015278e-01 2.984722e-01 0.000000e+00
 0.000000e+00 0.000000e+00 0.000000e+00 7.348738e-01 2.651262e-01
 0.000000e+00 0.000000e+00 0.000000e+00 0.000000e+00 0.000000e+00
<ENDHMM>
~h "t"
<BEGINHMM>
<NUMSTATES> 5
<STATE> 2
<MEAN> 39
 -1.290068e+01 -6.048834e+00 -3.575687e+00 -6.984164e+00 -7.850515e+00 -5.830979e+00 -5.127748e+00 -1.079154e+00 -2.589230e+00 -1.095948e+00 -2.731947e+00 -1.833476e+00 4.876547e+01 -7.177820e-01 1.244102e-01 -7.454076e-02 4.468384e-01 4.476102e-01 2.110899e-01 3.232341e-01 1.167658e-01 2.687522e-01 1.218911e-01 2.346420e-01 3.054293e-01 -9.425292e-01 2.658356e-02 -1.378015e-01 -7.319351e-02 -2.668349e-01 -5.301055e-02 -2.351508e-02 5.892282e-03 4.022869e-02 -7.826414e-02 -2.143906e-02 3.341092e-02 2.388112e-02 6.073381e-01
<VARIANCE> 39
 7.485599e+01 5.507044e+01 5.419867e+01 6.493784e+01 6.925385e+01 5.618502e+01 5.632133e+01 5.024715e+01 5.320536e+01 4.107747e+01 4.059175e+01 3.252328e+01 1.466051e+02 5.315257e+00 5.901630e+00 4.321593e+00 7.352404e+00 6.271139e+00 5.756774e+00 5.193593e+00 5.459062e+00 4.922917e+00 4.029155e+00 3.993194e+00 3.031996e+00 1.793873e+01 7.371143e-01 9.404150e-01 6.999710e-01 1.304618e+00 1.083171e+00 1.019347e+00 8.924895e-01 9.632464e-01 8.477167e-01 7.552096e-01 7.286517e-01 5.661800e-01 3.071203e+00
<GCONST> 1.457299e+02
<STATE> 3
<MEAN> 39
 -1.435085e+01 -6.433171e+00 -4.015298e+00 -7.193204e+00 -7.231563e+00 -5.581650e+00 -4.407490e+00 -7.418340e-01 -2.266560e+00 -8.980778e-01 -2.235088e+00 -1.177248e+00 4.940741e+01 -3.559957e-01 -1.316154e-01 -9.640925e-02 -1.484289e-01 9.779622e-02 -9.184511e-02 2.197447e-01 1.456170e-01 1.015054e-02 -2.611101e-02 1.423383e-01 2.513142e-01 5.908310e-01 2.532768e-01 -6.533450e-02 1.601065e-04 -1.650904e-01 -1.465842e-01 -9.186442e-02 -9.815703e-02 -6.987553e-04 -1.141590e-01 -5.165230e-02 -4.705790e-02 -7.023442e-02 3.987057e-01
<VARIANCE> 39
 7.191198e+01 4.953092e+01 4.599228e+01 5.981226e+01 6.090571e+01 5.124173e+01 5.350536e+01 4.549159e+01 4.592489e+01 3.689790e+01 3.568925e+01 2.920790e+01 1.488566e+02 5.344535e+00 4.752185e+00 3.744316e+00 6.657312e+00 5.628536e+00 5.510463e+00 4.939025e+00 4.787066e+00 4.429204e+00 3.794364e+00 3.738732e+00 2.969674e+00 1.685158e+01 8.246170e-01 8.860441e-01 7.211071e-01 1.283767e+00 1.057388e+00 1.003484e+00 9.156448e-01 9.384235e-01 8.400711e-01 7.462360e-01 7.357976e-01 5.697213e-01 2.965042e+00
<GCONST> 1.433743e+02
<STATE> 4
<MEAN> 39
 -1.475084e+01 -6.810097e+00 -4.432163e+00 -7.584649e+00 -7.168165e+00 -5.831203e+00 -3.715744e+00 -4.593381e-01 -2.351259e+00 -1.074275e+00 -2.182515e+00 -8.128490e-01 5.073096e+01 4.654835e-01 -1.811900e-01 3.838317e-03 -2.089821e-01 -2.444591e-01 -2.757007e-01 -1.132266e-01 6.743257e-02 -2.095177e-01 -1.764139e-01 -6.100381e-02 8.286987e-03 7.651259e-01 3.039767e-01 -2.785436e-02 1.520567e-02 -4.390950e-02 -1.117116e-01 -2.343058e-02 -1.646003e-01 -2.640421e-02 -7.613529e-02 -2.137225e-02 -3.336106e-02 -9.753472e-02 2.755606e-02
<VARIANCE> 39
 7.226982e+01 4.481887e+01 4.557189e+01 5.545347e+01 5.744273e+01 4.920950e+01 5.470166e+01 4.525032e+01 4.395839e+01 3.611691e+01 3.410189e+01 2.715189e+01 1.422273e+02 5.966401e+00 3.526178e+00 3.551208e+00 5.090127e+00 5.011709e+00 4.925406e+00 4.903230e+00 4.351954e+00 4.052028e+00 3.513152e+00 3.448648e+00 2.761307e+00 1.024402e+01 8.204186e-01 6.864424e-01 6.338595e-01 9.964209e-01 8.962561e-01 8.627499e-01 8.565010e-01 8.247796e-01 7.516514e-01 6.751731e-01 6.560288e-01 5.239691e-01 2.013093e+00
<GCONST> 1.392731e+02
<TRANSP> 5
 0.000000e+00 1.000000e+00 0.000000e+00 0.000000e+00 0.000000e+00
 0.000000e+00 4.733277e-01 5.266723e-01 0.000000e+00 0.000000e+00
 0.000000e+00 0.000000e+00 4.462951e-01 5.537049e-01 0.000000e+00
 0.000000e+00 0.000000e+00 0.000000e+00 5.167456e-01 4.832544e-01
 0.000000e+00 0.000000e+00 0.000000e+00 0.000000e+00 0.000000e+00
<ENDHMM>
~h "v"
<BEGINHMM>
<NUMSTATES> 5
<STATE> 2
<MEAN> 39
 -5.633208e+00 -7.588971e+00 -6.294873e+00 -9.876687e+00 -8.878155e+00 -6.822820e+00 -9.178502e+00 -3.092906e+00 -3.340458e+00 -9.680445e-01 -2.271919e+00 -3.471556e+00 5.693786e+01 -3.844891e-01 4.538014e-01 -2.076202e-01 3.298790e-01 4.697070e-01 1.491060e-01 1.166842e-01 -2.597889e-01 -4.777222e-02 -4.984601e-02 6.302812e-02 1.949986e-02 -4.480557e-01 -7.041494e-02 -2.342359e-02 2.613035e-02 -1.870892e-02 -6.438310e-03 4.308564e-03 6.662479e-02 8.850507e-02 4.780657e-03 -2.564251e-02 -3.274050e-02 4.181620e-02 1.742291e-02
<VARIANCE> 39
 4.754489e+01 4.525623e+01 4.411336e+01 5.465644e+01 4.735580e+01 5.678398e+01 5.901040e+01 5.714862e+01 4.862582e+01 4.336324e+01 4.879161e+01 3.334798e+01 5.260458e+01 4.616702e+00 3.856597e+00 2.648408e+00 3.829113e+00 3.595222e+00 3.255475e+00 3.924930e+00 4.096162e+00 3.338791e+00 3.005803e+00 2.778746e+00 2.381591e+00 4.071742e+00 8.481188e-01 6.471381e-01 4.281839e-01 6.206374e-01 5.948185e-01 5.594421e-01 7.099746e-01 7.012619e-01 5.624858e-01 5.479066e-01 5.053946e-01 4.209715e-01 5.929368e-01
<GCONST> 1.312337e+02
<STATE> 3
<MEAN> 39
 -6.591904e+00 -6.690760e+00 -6.567586e+00 -9.214414e+00 -7.966759e+00 -6.537002e+00 -8.744614e+00 -3.540751e+00 -3.520542e+00 -1.174028e+00 -2.234016e+00 -3.307085e+00 5.602470e+01 -3.903516e-01 2.928337e-01 -1.589938e-01 2.303998e-01 3.680072e-01 9.683993e-02 2.138031e-01 -1.582626e-02 -1.415409e-03 -9.595226e-02 -2.082395e-02 1.027102e-01 -3.179083e-01 7.391766e-02 -1.361345e-01 2.335210e-02 -9.632044e-02 -8.900807e-02 -3.744926e-02 8.985434e-03 1.518355e-01 2.688822e-02 -1.215896e-02 -2.650163e-02 3.502958e-02 1.132716e-01
<VARIANCE> 39
 5.347416e+01 4.364482e+01 4.193194e+01 5.106841e+01 4.356988e+01 5.227860e+01 5.382742e+01 5.306976e+01 4.316066e+01 4.002327e+01 4.312616e+01 3.028169e+01 5.069167e+01 5.231802e+00 3.903592e+00 2.624000e+00 3.947304e+00 3.403914e+00 3.263131e+00 4.018897e+00 4.018587e+00 3.160784e+00 2.867722e+00 2.686404e+00 2.293597e+00 4.130132e+00 9.480878e-01 6.498048e-01 4.593484e-01 6.287691e-01 5.979741e-01 5.673636e-01 7.297055e-01 7.073940e-01 5.769710e-01 5.520065e-01 4.961726e-01 4.065925e-01 5.956675e-01
<GCONST> 1.305982e+02
<STATE> 4
<MEAN> 39
 -7.400609e+00 -6.160819e+00 -6.847402e+00 -8.873666e+00 -7.379470e+00 -6.437978e+00 -8.069484e+00 -3.473913e+00 -3.482495e+00 -1.472714e+00 -2.403758e+00 -2.965686e+00 5.542031e+01 -8.363119e-02 -3.367464e-02 -1.293330e-01 -2.095616e-02 1.279005e-01 -3.410335e-02 1.650613e-01 2.821998e-01 6.794582e-02 -1.051707e-01 -5.178860e-02 1.598389e-01 -4.636883e-02 1.502125e-01 -1.444052e-01 2.572969e-02 -1.210943e-01 -1.105165e-01 -3.974226e-02 -5.847540e-02 1.097537e-01 6.837787e-03 5.555005e-03 4.303179e-03 1.571509e-02 1.190286e-01
<VARIANCE> 39
 5.947915e+01 4.444411e+01 4.446225e+01 5.115139e+01 4.366598e+01 5.180618e+01 5.293074e+01 5.101513e+01 4.162656e+01 3.782715e+01 3.831305e+01 2.903545e+01 5.418721e+01 6.042190e+00 3.781407e+00 2.896109e+00 4.228750e+00 3.651420e+00 3.499007e+00 4.479507e+00 3.984629e+00 3.208556e+00 2.868044e+00 2.687389e+00 2.218337e+00 4.274534e+00 8.938952e-01 6.145487e-01 4.663226e-01 6.341475e-01 5.956706e-01 5.873334e-01 7.298904e-01 7.071558e-01 5.897133e-01 5.328647e-01 4.814910e-01 3.975409e-01 5.997679e-01
<GCONST> 1.309502e+02
<TRANSP> 5
 0.000000e+00 1.000000e+00 0.000000e+00 0.000000e+00 0.000000e+00
 0.000000e+00 4.362919e-01 5.637081e-01 0.000000e+00 0.000000e+00
 0.000000e+00 0.000000e+00 4.302042e-01 5.697957e-01 0.000000e+00
 0.000000e+00 0.000000e+00 0.000000e+00 5.124769e-01 4.875231e-01
 0.000000e+00 0.000000e+00 0.000000e+00 0.000000e+00 0.000000e+00
<ENDHMM>
~h "w"
<BEGINHMM>
<NUMSTATES> 5
<STATE> 2
<MEAN> 39
 -2.398571e+00 -2.748488e+00 -9.798079e+00 -1.595310e+01 -1.109928e+01 -1.476472e+00 -5.626343e+00 -3.232180e+00 -7.798951e+00 -2.415842e+00 -9.335347e-01 -1.946936e+00 5.128989e+01 1.503136e+00 5.394861e-01 -3.231623e-01 -1.610987e+00 -1.007589e+00 6.030291e-01 2.106679e-01 -1.581979e-01 -4.611686e-01 -2.179934e-01 1.625377e-01 5.471404e-02 3.308386e-01 -1.838524e-01 -2.595378e-01 1.757440e-01 6.194337e-02 -1.653125e-02 -1.216484e-01 -1.083651e-01 1.096624e-01 1.442346e-01 8.867367e-02 1.418245e-02 -2.596270e-02 3.059347e-01
<VARIANCE> 39
 6.029727e+01 5.000900e+01 3.177344e+01 7.646236e+01 7.531712e+01 4.760988e+01 4.850409e+01 4.426909e+01 5.984183e+01 4.762016e+01 4.381899e+01 2.848763e+01 4.342171e+01 4.278867e+00 4.465317e+00 3.073460e+00 4.738887e+00 5.328640e+00 4.243706e+00 4.981203e+00 4.326251e+00 5.181971e+00 4.416793e+00 3.487586e+00 2.786568e+00 4.066185e+00 5.121887e-01 7.028558e-01 5.466408e-01 8.850351e-01 1.038877e+00 7.847167e-01 8.791574e-01 8.030989e-01 9.046355e-01 8.636788e-01 6.523418e-01 5.447828e-01 4.405472e-01
<GCONST> 1.364200e+02
<STATE> 3
<MEAN> 39
 6.018920e-01 -3.025121e+00 -1.028770e+01 -1.994302e+01 -1.336420e+01 -1.950870e-01 -5.741549e+00 -3.276856e+00 -8.317944e+00 -2.241280e+00 -2.892005e-01 -1.884845e+00 5.389141e+01 7.375628e-01 -6.707068e-01 -1.831960e-01 -9.220260e-01 -3.313065e-01 2.582848e-01 -3.535437e-01 1.458582e-02 1.325442e-01 3.631780e-01 2.807688e-01 -1.127604e-01 1.186761e+00 -3.625154e-01 -3.362503e-01 9.003969e-02 3.926349e-01 2.647062e-01 -2.134779e-01 -1.038399e-01 1.347720e-01 2.766988e-01 1.153453e-01 -6.838983e-02 -8.151081e-02 1.303416e-01
<VARIANCE> 39
 2.846741e+01 4.481139e+01 3.418531e+01 7.182228e+01 7.104337e+01 5.837449e+01 5.704795e+01 4.980644e+01 5.978136e+01 5.878820e+01 5.571881e+01 3.232803e+01 3.751267e+01 3.343704e+00 4.309367e+00 2.472359e+00 5.632401e+00 5.602773e+00 4.774653e+00 5.315903e+00 4.179819e+00 5.132670e+00 4.892612e+00 3.925152e+00 3.086689e+00 2.830742e+00 4.495037e-01 5.641763e-01 4.380272e-01 7.653855e-01 8.625312e-01 8.119219e-01 8.234713e-01 8.115686e-01 8.811570e-01 8.982033e-01 7.362655e-01 5.797291e-01 3.739024e-01
<GCONST> 1.353566e+02
<STATE> 4
<MEAN> 39
 1.184738e+00 -6.894562e+00 -1.116644e+01 -2.101683e+01 -1.277340e+01 2.545650e-01 -6.965198e+00 -2.641407e+00 -6.396838e+00 -6.061197e-01 3.643383e-01 -2.715224e+00 5.816689e+01 -2.137262e-01 -1.267757e+00 -1.416833e-03 4.911159e-01 5.115033e-01 -4.457166e-01 -4.084351e-01 3.538533e-01 7.563075e-01 3.647294e-01 -9.369647e-02 -3.211630e-01 1.086063e+00 -2.414668e-01 7.407421e-02 1.333397e-01 3.442447e-01 7.815071e-02 -2.070968e-01 1.112197e-01 8.920792e-02 5.904807e-02 -1.557912e-01 -1.493938e-01 -7.115503e-03 -1.703184e-01
<VARIANCE> 39
 1.565670e+01 4.990368e+01 4.436107e+01 8.059346e+01 7.354514e+01 8.665907e+01 8.666209e+01 6.029878e+01 7.039746e+01 7.384050e+01 7.514092e+01 4.075637e+01 3.233551e+01 1.419739e+00 2.476389e+00 2.646403e+00 4.661520e+00 4.455411e+00 5.749978e+00 5.056873e+00 4.224139e+00 4.334864e+00 4.407601e+00 4.050335e+00 3.146590e+00 1.549344e+00 2.733921e-01 4.618853e-01 3.476251e-01 5.939484e-01 7.371522e-01 7.799795e-01 9.018383e-01 7.663611e-01 8.355817e-01 8.689451e-01 7.742403e-01 6.066425e-01 2.418561e-01
<GCONST> 1.328431e+02
<TRANSP> 5
 0.000000e+00 1.000000e+00 0.000000e+00 0.000000e+00 0.000000e+00
 0.000000e+00 6.576404e-01 3.423596e-01 0.000000e+00 0.000000e+00
 0.000000e+00 0.000000e+00 6.290382e-01 3.709618e-01 0.000000e+00
 0.000000e+00 0.000000e+00 0.000000e+00 7.187921e-01 2.812079e-01
 0.000000e+00 0.000000e+00 0.000000e+00 0.000000e+00 0.000000e+00
<ENDHMM>
~h "y"
<BEGINHMM>
<NUMSTATES> 5
<STATE> 2
<MEAN> 39
 -9.677477e+00 -4.568341e+00 1.203277e+01 -1.171919e+01 -1.679625e+01 -7.622397e+00 -1.007693e+01 -4.420011e+00 -1.184186e+01 -3.479775e+00 -2.039904e+00 -2.615277e+00 5.667995e+01 2.414186e-01 -1.232801e-01 8.828875e-01 1.152852e-01 -8.130948e-01 -2.971431e-01 -4.945929e-02 1.205739e-02 -6.873688e-01 -2.567061e-01 3.147727e-01 3.521559e-02 2.597839e-01 1.073584e-01 -1.199175e-01 -4.073053e-01 2.077875e-02 1.702338e-01 -4.655807e-02 1.391895e-02 1.141927e-01 1.878384e-01 8.421036e-02 3.615520e-02 1.222584e-02 2.314274e-03
<VARIANCE> 39
 2.198255e+01 4.503104e+01 4.826258e+01 7.326314e+01 4.746347e+01 5.432499e+01 4.744712e+01 6.163692e+01 4.850187e+01 5.525803e+01 5.009847e+01 2.822647e+01 3.346178e+01 2.418266e+00 2.321571e+00 4.375557e+00 2.367613e+00 3.628867e+00 4.131716e+00 3.073398e+00 3.164044e+00 3.491684e+00 3.024894e+00 1.951628e+00 1.640494e+00 1.990440e+00 2.742462e-01 2.788225e-01 4.397533e-01 4.693880e-01 6.285615e-01 7.289197e-01 5.073499e-01 5.652786e-01 5.417327e-01 4.689057e-01 3.449959e-01 2.961067e-01 2.652324e-01
<GCONST> 1.233373e+02
<STATE> 3
<MEAN> 39
 -7.521248e+00 -8.246300e+00 1.059865e+01 -8.736314e+00 -1.904858e+01 -1.078762e+01 -9.450351e+00 -1.483943e+00 -1.217275e+01 -4.616006e+00 5.065812e-01 -1.756135e+00 5.877071e+01 7.951672e-01 -7.320552e-01 -7.864175e-01 5.761610e-01 -1.533359e-01 -1.125077e+00 -2.452030e-01 8.934188e-01 5.578518e-02 -2.341501e-01 4.026026e-01 2.582708e-01 3.370949e-01 -1.801777e-02 3.942712e-02 -3.787141e-01 5.550398e-02 3.472987e-01 4.757024e-02 -7.546920e-02 7.428532e-02 2.968549e-01 -4.473590e-03 -1.082161e-01 2.974880e-02 -1.420843e-01
<VARIANCE> 39
 2.105630e+01 3.865760e+01 5.303371e+01 6.734958e+01 4.188531e+01 6.842030e+01 5.685960e+01 6.656323e+01 5.495791e+01 6.724546e+01 4.826600e+01 3.035479e+01 2.572180e+01 1.665665e+00 1.741758e+00 2.981164e+00 1.854179e+00 3.075476e+00 3.416085e+00 3.293512e+00 3.308076e+00 3.004400e+00 2.445671e+00 1.972353e+00 1.578638e+00 1.439147e+00 2.777656e-01 2.782267e-01 4.026647e-01 3.511471e-01 5.352570e-01 6.113716e-01 5.328845e-01 5.584545e-01 5.137337e-01 4.642338e-01 3.656843e-01 2.768314e-01 2.107273e-01
<GCONST> 1.203941e+02
<STATE> 4
<MEAN> 39
 -3.856596e+00 -1.156356e+01 3.381409e+00 -5.418004e+00 -1.653165e+01 -1.584209e+01 -1.157633e+01 3.965245e+00 -8.506784e+00 -6.256410e+00 1.279492e+00 1.398146e-01 5.927993e+01 5.703054e-01 -2.009074e-01 -1.554356e+00 4.981452e-01 9.570808e-01 -4.463795e-01 -5.529812e-01 5.773981e-01 1.016675e+00 -1.438922e-01 -3.626572e-01 1.888673e-01 -2.471201e-01 -1.503567e-01 2.444897e-01 -3.571894e-02 -3.658708e-02 2.124954e-01 3.236400e-01 8.579125e-02 -2.875399e-01 1.119384e-01 1.038132e-01 -1.799802e-01 -9.698808e-02 -2.164299e-01
<VARIANCE> 39
 2.234274e+01 3.514598e+01 8.037389e+01 5.750208e+01 5.356459e+01 7.469803e+01 8.416657e+01 7.632411e+01 7.636269e+01 6.324333e+01 4.361588e+01 3.591957e+01 2.580301e+01 1.135928e+00 1.825728e+00 2.791788e+00 1.795608e+00 2.877622e+00 3.308404e+00 3.487007e+00 3.646913e+00 3.153592e+00 2.586943e+00 2.230449e+00 1.713924e+00 1.445491e+00 1.945738e-01 2.761422e-01 3.677501e-01 3.301839e-01 4.831145e-01 5.497757e-01 6.214063e-01 5.732673e-01 5.173185e-01 4.413594e-01 3.726580e-01 2.925864e-01 2.209187e-01
<GCONST> 1.212866e+02
<TRANSP> 5
 0.000000e+00 1.000000e+00 0.000000e+00 0.000000e+00 0.000000e+00
 0.000000e+00 8.218794e-01 1.781206e-01 0.000000e+00 0.000000e+00
 0.000000e+00 0.000000e+00 6.858930e-01 3.141070e-01 0.000000e+00
 0.000000e+00 0.000000e+00 0.000000e+00 7.715876e-01 2.284124e-01
 0.000000e+00 0.000000e+00 0.000000e+00 0.000000e+00 0.000000e+00
<ENDHMM>
~h "z"
<BEGINHMM>
<NUMSTATES> 5
<STATE> 2
<MEAN> 39
 -2.030650e+01 2.064914e+00 -4.073108e+00 -9.055260e+00 -2.172975e+00 -9.055353e+00 -5.425171e+00 -1.688192e+00 -2.836302e+00 -1.504790e+00 -3.476606e+00 -6.840701e-01 5.626233e+01 -2.725352e+00 8.196437e-01 -5.471579e-01 9.027494e-02 1.336638e+00 6.779239e-01 9.033297e-01 6.065622e-01 4.039234e-01 1.492046e-01 2.961467e-01 2.385685e-01 -4.398946e-02 4.140628e-01 -4.426677e-01 3.626600e-04 -4.125995e-02 -2.982347e-01 8.022530e-02 -7.490753e-02 5.393000e-02 -3.189979e-02 4.412045e-02 2.616496e-02 -5.246738e-02 1.009778e-02
<VARIANCE> 39
 9.314294e+01 3.881005e+01 4.584843e+01 4.291824e+01 5.969596e+01 5.366368e+01 5.558170e+01 4.156017e+01 3.095912e+01 3.033858e+01 2.480885e+01 2.201385e+01 2.692906e+01 7.812001e+00 4.829687e+00 2.924029e+00 3.833094e+00 4.488188e+00 4.542529e+00 4.403303e+00 3.859174e+00 3.063302e+00 2.833025e+00 2.620324e+00 2.361839e+00 1.503942e+00 1.344614e+00 6.932562e-01 4.965099e-01 5.808223e-01 7.429681e-01 8.232155e-01 7.776182e-01 7.276313e-01 5.176638e-01 5.271596e-01 4.634902e-01 4.269947e-01 2.378780e-01
<GCONST> 1.292699e+02
<STATE> 3
<MEAN> 39
 -2.477977e+01 1.749764e+00 -5.760188e+00 -8.839521e+00 -6.102705e-01 -7.049001e+00 -3.614377e+00 -2.133604e-01 -1.956939e+00 -1.032202e+00 -2.671879e+00 -4.201674e-01 5.601073e+01 -3.056305e-01 -5.227221e-01 -3.296913e-01 4.646346e-03 6.215531e-02 3.809284e-01 2.222055e-01 2.832778e-01 2.538130e-01 1.771121e-01 1.794671e-01 4.968030e-03 -1.672419e-01 8.534824e-01 -3.498287e-01 1.100469e-01 -3.504662e-02 -3.971451e-01 -1.458063e-01 -2.683494e-01 -1.600766e-01 -8.033856e-02 -1.149539e-02 -6.939413e-02 -8.111529e-02 -7.630014e-02
<VARIANCE> 39
 6.089960e+01 3.564287e+01 4.397312e+01 4.124623e+01 4.706848e+01 4.614458e+01 4.960752e+01 3.709889e+01 2.668342e+01 2.552023e+01 2.192389e+01 1.835948e+01 2.638816e+01 1.005813e+01 3.387805e+00 2.473335e+00 2.845586e+00 4.112450e+00 4.223212e+00 4.248366e+00 3.317322e+00 2.646020e+00 2.413711e+00 2.221910e+00 1.965732e+00 1.943565e+00 1.082775e+00 6.168031e-01 4.618921e-01 5.640022e-01 6.448317e-01 7.907869e-01 7.625974e-01 6.673833e-01 5.166919e-01 4.917475e-01 4.471265e-01 4.012198e-01 3.371983e-01
<GCONST> 1.255585e+02
<STATE> 4
<MEAN> 39
 -2.171653e+01 -1.543517e+00 -6.766595e+00 -8.393737e+00 -2.002696e+00 -6.048100e+00 -3.722972e+00 -1.862872e-01 -1.508832e+00 -7.927952e-01 -2.273242e+00 -6.319818e-01 5.253305e+01 1.491921e+00 -8.095135e-01 -1.033900e-02 5.741698e-02 -6.110188e-01 4.759919e-02 -3.054257e-01 -1.744335e-01 -2.865314e-02 1.407216e-02 -1.993388e-02 -1.464226e-01 -6.201212e-01 3.183169e-01 -5.735262e-02 6.966459e-02 -1.250155e-02 -1.482091e-01 -4.197937e-02 -9.198280e-02 -6.744916e-02 -8.059748e-02 -3.374354e-02 -3.576447e-02 -2.952408e-02 -2.752098e-02
<VARIANCE> 39
 7.524770e+01 3.978582e+01 3.964560e+01 4.106555e+01 4.499166e+01 4.706742e+01 4.806853e+01 3.600925e+01 2.907258e+01 2.739922e+01 2.403578e+01 1.999530e+01 7.247973e+01 6.672939e+00 3.064858e+00 2.568038e+00 3.138686e+00 3.696218e+00 4.036618e+00 4.015018e+00 3.354818e+00 2.856214e+00 2.547452e+00 2.403396e+00 2.046282e+00 3.684714e+00 1.010653e+00 5.072587e-01 4.297407e-01 5.264133e-01 6.010447e-01 7.240525e-01 7.234361e-01 6.273617e-01 5.281539e-01 4.842695e-01 4.549348e-01 3.866864e-01 5.754384e-01
<GCONST> 1.271895e+02
<TRANSP> 5
 0.000000e+00 1.000000e+00 0.000000e+00 0.000000e+00 0.000000e+00
 0.000000e+00 7.265798e-01 2.734203e-01 0.000000e+00 0.000000e+00
 0.000000e+00 0.000000e+00 6.654269e-01 3.345731e-01 0.000000e+00
 0.000000e+00 0.000000e+00 0.000000e+00 7.533683e-01 2.466317e-01
 0.000000e+00 0.000000e+00 0.000000e+00 0.000000e+00 0.000000e+00
<ENDHMM>
~h "aa"
<BEGINHMM>
<NUMSTATES> 5
<STATE> 2
<MEAN> 39
 -1.160171e+00 -1.268989e+01 -1.490354e+01 -1.869327e+01 -7.178980e+00 1.974617e+00 -4.665884e+00 -1.924325e+00 -2.536095e+00 -1.059110e+00 -9.298282e-01 -4.603448e+00 6.140265e+01 6.843037e-01 -6.890878e-01 -6.716663e-01 -5.980822e-01 3.190642e-01 7.440160e-01 9.416725e-02 -2.229666e-01 5.318249e-03 -1.192195e-01 9.343658e-02 -2.989211e-01 6.737502e-01 -2.313107e-01 1.508577e-01 1.639390e-01 2.582276e-01 4.066537e-02 -2.223171e-01 -4.977139e-02 4.943949e-02 9.590669e-04 -3.553284e-02 -4.274397e-02 1.177522e-01 -1.658991e-01
<VARIANCE> 39
 3.068809e+01 4.661921e+01 4.120044e+01 7.628755e+01 7.023250e+01 8.505064e+01 8.004276e+01 6.643916e+01 6.666286e+01 5.810273e+01 6.679246e+01 4.529877e+01 4.943064e+01 3.065495e+00 2.220125e+00 2.395154e+00 4.518479e+00 3.547067e+00 4.357221e+00 4.273878e+00 3.594071e+00 3.372162e+00 2.993934e+00 2.929256e+00 2.723294e+00 2.078240e+00 4.906321e-01 3.247412e-01 3.299655e-01 5.396068e-01 5.311520e-01 5.710799e-01 6.774340e-01 5.812462e-01 5.706519e-01 5.172815e-01 5.198733e-01 4.530208e-01 3.584566e-01
<GCONST> 1.299572e+02
<STATE> 3
<MEAN> 39
 -6.106615e-02 -1.389013e+01 -1.609821e+01 -1.913894e+01 -6.281070e+00 2.733006e+00 -4.711074e+00 -2.194399e+00 -2.474127e+00 -1.623369e+00 -9.175502e-01 -4.841560e+00 6.278272e+01 1.865381e-01 -2.113358e-01 -1.940890e-01 1.834073e-01 2.547934e-01 -1.685736e-01 -2.010400e-01 1.078430e-01 1.456870e-01 -1.283890e-01 -1.086312e-01 -1.492530e-02 1.801397e-01 -1.705795e-01 1.778966e-01 1.875580e-01 2.351137e-01 -4.843204e-02 -2.714437e-01 -8.223470e-02 8.747311e-02 3.243775e-02 3.892832e-03 -6.538217e-02 8.916296e-02 -1.879986e-01
<VARIANCE> 39
 1.817129e+01 4.523696e+01 3.935260e+01 6.985959e+01 7.070390e+01 8.855513e+01 8.528170e+01 7.211861e+01 6.998365e+01 5.954775e+01 6.806248e+01 4.905196e+01 3.240072e+01 1.359303e+00 1.604285e+00 1.743406e+00 3.305366e+00 2.494705e+00 3.470350e+00 3.295282e+00 2.781414e+00 2.546319e+00 2.380726e+00 2.304792e+00 2.154342e+00 1.230126e+00 2.671126e-01 2.413057e-01 2.576857e-01 3.626097e-01 4.029475e-01 4.299897e-01 5.106187e-01 4.493969e-01 4.437666e-01 4.173636e-01 4.068030e-01 3.852390e-01 1.843445e-01
<GCONST> 1.206498e+02
<STATE> 4
<MEAN> 39
 6.211567e-02 -1.337891e+01 -1.643959e+01 -1.791931e+01 -5.757852e+00 1.383656e+00 -5.568130e+00 -1.741185e+00 -1.865964e+00 -2.237908e+00 -1.659176e+00 -4.507973e+00 6.236723e+01 -2.479245e-01 3.377857e-01 4.045529e-01 7.552875e-01 4.430713e-03 -8.731564e-01 -4.095584e-01 3.241446e-01 1.696479e-01 -1.095001e-02 -2.313961e-01 1.661796e-01 -4.128799e-01 -2.036682e-01 1.745030e-01 2.241345e-01 1.699502e-01 -5.271524e-02 -1.345188e-01 -2.030343e-02 -7.464462e-03 -3.954622e-02 2.408433e-02 -5.758204e-04 6.959389e-02 -2.062890e-01
<VARIANCE> 39
 1.718431e+01 4.458144e+01 4.569369e+01 8.131303e+01 6.980159e+01 9.665535e+01 9.373343e+01 7.554416e+01 7.262796e+01 6.002994e+01 6.719336e+01 4.798687e+01 2.923201e+01 1.644235e+00 1.927688e+00 2.225383e+00 2.992720e+00 2.581268e+00 3.168393e+00 3.432329e+00 2.803823e+00 2.700941e+00 2.467537e+00 2.378886e+00 2.224893e+00 1.385455e+00 2.691085e-01 2.570397e-01 2.763746e-01 3.718942e-01 3.871761e-01 4.565381e-01 5.036505e-01 4.725034e-01 4.509649e-01 4.305176e-01 4.150086e-01 3.744610e-01 2.180070e-01
<GCONST> 1.222204e+02
<TRANSP> 5
 0.000000e+00 1.000000e+00 0.000000e+00 0.000000e+00 0.000000e+00
 0.000000e+00 6.661380e-01 3.338620e-01 0.000000e+00 0.000000e+00
 0.000000e+00 0.000000e+00 6.603326e-01 3.396674e-01 0.000000e+00
 0.000000e+00 0.000000e+00 0.000000e+00 7.893140e-01 2.106860e-01
 0.000000e+00 0.000000e+00 0.000000e+00 0.000000e+00 0.000000e+00
<ENDHMM>
~h "ae"
<BEGINHMM>
<NUMSTATES> 5
<STATE> 2
<MEAN> 39
 -5.438493e+00 -1.590782e+01 -4.994379e+00 -1.300023e+01 -1.407013e+01 -7.937358e+00 -1.921421e+00 4.778469e+00 -2.598374e+00 -3.644538e+00 -5.426686e+00 -3.695260e+00 6.464371e+01 2.219691e-01 -5.283938e-01 -1.333957e-01 -1.620953e-01 -1.355292e-02 1.020891e-01 2.500667e-01 3.193364e-01 2.288788e-03 -3.100465e-01 -2.401098e-01 -7.314742e-02 4.251295e-01 -8.292852e-02 2.123006e-01 -4.854705e-02 1.470280e-01 1.798279e-01 1.359048e-02 -9.717648e-02 -1.433965e-01 -1.697611e-02 5.589881e-02 5.867217e-02 4.312745e-02 -2.449126e-01
<VARIANCE> 39
 2.201575e+01 3.865206e+01 4.987580e+01 4.657664e+01 5.331499e+01 5.833728e+01 7.128033e+01 6.665982e+01 8.130585e+01 4.732237e+01 4.797356e+01 3.920815e+01 3.815566e+01 1.153480e+00 1.763848e+00 1.535835e+00 1.690546e+00 2.106470e+00 2.165134e+00 2.464252e+00 2.558735e+00 2.103351e+00 1.887993e+00 1.768529e+00 1.502762e+00 1.562099e+00 2.152946e-01 2.643824e-01 2.190192e-01 2.816407e-01 3.509617e-01 3.570131e-01 4.068258e-01 4.143976e-01 3.641133e-01 3.351112e-01 3.174086e-01 2.640135e-01 2.564630e-01
<GCONST> 1.144923e+02
<STATE> 3
<MEAN> 39
 -5.084788e+00 -1.618021e+01 -5.718550e+00 -1.269970e+01 -1.313433e+01 -7.944875e+00 -2.029443e+00 4.764630e+00 -2.509110e+00 -4.239118e+00 -5.763968e+00 -3.667327e+00 6.464055e+01 1.879006e-01 1.303612e-01 -1.948987e-01 1.859354e-01 2.177629e-01 -1.742498e-01 -2.361891e-01 -2.870004e-02 -6.658830e-03 -3.096808e-02 -6.273665e-02 -2.730972e-02 -1.917291e-01 -7.410701e-02 3.048522e-01 3.707645e-02 1.434637e-01 8.813098e-02 -5.210703e-02 -1.073050e-01 -1.776928e-01 -6.750535e-02 1.054198e-01 7.836942e-02 2.736011e-02 -2.943598e-01
<VARIANCE> 39
 1.896789e+01 3.742702e+01 4.923344e+01 4.572744e+01 5.479416e+01 6.053275e+01 7.123035e+01 6.674951e+01 8.222045e+01 4.784952e+01 4.835392e+01 4.167423e+01 3.758996e+01 8.761012e-01 1.838564e+00 1.669311e+00 1.614580e+00 2.046380e+00 2.119426e+00 2.293880e+00 2.672739e+00 2.230558e+00 2.041341e+00 1.853274e+00 1.526981e+00 1.562429e+00 1.803473e-01 2.876456e-01 2.357646e-01 2.889304e-01 3.440537e-01 3.579204e-01 4.082248e-01 4.619279e-01 3.989910e-01 3.566185e-01 3.272234e-01 2.782693e-01 2.443316e-01
<GCONST> 1.146355e+02
<STATE> 4
<MEAN> 39
 -4.927695e+00 -1.449264e+01 -6.180902e+00 -1.183865e+01 -1.234967e+01 -8.811211e+00 -3.093017e+00 3.879365e+00 -2.645715e+00 -3.927520e+00 -5.708855e+00 -3.620553e+00 6.286319e+01 -8.279356e-02 1.133917e+00 6.151875e-02 6.284980e-01 3.760937e-01 -3.345931e-01 -5.007904e-01 -5.456879e-01 -2.480760e-01 2.976087e-01 2.019250e-01 5.449995e-02 -1.147951e+00 -2.598030e-01 3.807950e-01 1.018028e-01 2.189587e-01 1.568698e-01 8.641338e-02 2.573886e-03 -2.337778e-01 -1.156188e-01 7.209322e-02 1.068798e-01 5.429291e-02 -4.246686e-01
<VARIANCE> 39
 1.917060e+01 4.116371e+01 5.297615e+01 4.889437e+01 5.738337e+01 6.384645e+01 7.389157e+01 6.959935e+01 8.097083e+01 5.284827e+01 5.258313e+01 4.389854e+01 4.832157e+01 1.865133e+00 3.404905e+00 2.474086e+00 2.595962e+00 3.065998e+00 3.081516e+00 3.337352e+00 4.310350e+00 3.651150e+00 3.064896e+00 2.823819e+00 2.287094e+00 3.108001e+00 3.592050e-01 4.377877e-01 3.353953e-01 4.545967e-01 4.982906e-01 5.255934e-01 5.897836e-01 6.799925e-01 6.006829e-01 5.495113e-01 4.987701e-01 4.026647e-01 4.734672e-01
<GCONST> 1.275321e+02
<TRANSP> 5
 0.000000e+00 1.000000e+00 0.000000e+00 0.000000e+00 0.000000e+00
 0.000000e+00 7.612826e-01 2.387174e-01 0.000000e+00 0.000000e+00
 0.000000e+00 0.000000e+00 6.471639e-01 3.528362e-01 0.000000e+00
 0.000000e+00 0.000000e+00 0.000000e+00 6.317672e-01 3.682329e-01
 0.000000e+00 0.000000e+00 0.000000e+00 0.000000e+00 0.000000e+00
<ENDHMM>
~h "ah"
<BEGINHMM>
<NUMSTATES> 5
<STATE> 2
<MEAN> 39
 -7.429131e+00 -7.919728e+00 -6.283228e+00 -1.072898e+01 -8.020939e+00 -6.985038e+00 -8.614605e+00 -1.678499e+00 -1.504884e+00 -3.013563e-01 -3.828992e+00 -3.247123e+00 5.691733e+01 8.788611e-01 -2.295746e-01 1.650937e-01 -5.034883e-01 -2.355318e-01 -1.228788e-01 -5.226781e-01 -2.110090e-01 4.858574e-02 7.490559e-02 -3.014187e-01 -2.945483e-01 5.396015e-01 -2.670005e-01 2.307500e-01 3.916166e-02 1.667113e-01 1.252047e-01 1.617563e-01 2.436794e-01 -5.863974e-02 -2.173147e-01 -7.538846e-02 9.865355e-02 6.036956e-02 -3.692808e-01
<VARIANCE> 39
 5.489962e+01 4.676068e+01 4.729308e+01 6.256052e+01 5.615381e+01 6.992101e+01 7.040981e+01 5.721210e+01 5.523363e+01 5.164696e+01 5.205594e+01 4.021973e+01 8.550169e+01 6.662249e+00 4.964554e+00 3.669448e+00 6.011631e+00 5.084562e+00 5.691005e+00 6.188439e+00 5.224175e+00 5.030428e+00 4.151003e+00 4.265239e+00 3.433150e+00 7.901182e+00 9.959627e-01 8.360373e-01 5.678726e-01 9.905403e-01 8.490248e-01 9.735407e-01 1.103080e+00 9.356329e-01 9.001020e-01 7.667016e-01 7.564916e-01 6.355385e-01 1.402622e+00
<GCONST> 1.436892e+02
<STATE> 3
<MEAN> 39
 -6.084990e+00 -8.299217e+00 -6.049307e+00 -1.161854e+01 -8.349278e+00 -6.981992e+00 -9.226815e+00 -2.050698e+00 -1.770316e+00 -3.412293e-01 -4.228017e+00 -3.682805e+00 5.790841e+01 2.302620e-01 2.783284e-01 1.925094e-01 -5.590494e-02 3.701837e-02 1.442502e-01 3.461268e-02 -2.881117e-01 -3.371072e-01 -1.001209e-01 -3.646351e-02 -1.066954e-01 -1.532769e-01 -4.533054e-01 2.968379e-01 1.195057e-02 2.796446e-01 1.670148e-01 1.612720e-01 3.375029e-01 -2.679631e-02 -1.985795e-01 -8.291292e-02 1.509710e-01 1.167858e-01 -4.361504e-01
<VARIANCE> 39
 4.253970e+01 4.821090e+01 5.142777e+01 6.577347e+01 5.719045e+01 7.328724e+01 7.014043e+01 5.995380e+01 5.948466e+01 5.567854e+01 5.628440e+01 4.257312e+01 7.226445e+01 6.276639e+00 5.349454e+00 3.347768e+00 6.403897e+00 4.971068e+00 5.300505e+00 5.842378e+00 5.259789e+00 4.883461e+00 4.090468e+00 4.185215e+00 3.438894e+00 7.946212e+00 9.549926e-01 8.804564e-01 5.697067e-01 1.038524e+00 8.431146e-01 9.860405e-01 1.106927e+00 9.703825e-01 9.373765e-01 8.024042e-01 7.766484e-01 6.561419e-01 1.258630e+00
<GCONST> 1.437511e+02
<STATE> 4
<MEAN> 39
 -6.051948e+00 -7.706652e+00 -5.970214e+00 -1.164555e+01 -8.077057e+00 -6.439674e+00 -8.625187e+00 -2.509537e+00 -2.459850e+00 -6.276188e-01 -4.080440e+00 -3.747051e+00 5.762694e+01 -5.379899e-01 7.759913e-01 2.110056e-01 4.689403e-01 2.886443e-01 2.931713e-01 5.058993e-01 -2.930639e-01 -5.800935e-01 -2.037843e-01 2.301171e-01 1.214843e-01 -8.346718e-01 -3.956991e-01 1.608506e-01 -2.801130e-03 1.979685e-01 1.089245e-01 8.975407e-02 2.159270e-01 2.431425e-02 -7.736857e-02 -2.624457e-02 8.955292e-02 9.806691e-02 -2.803539e-01
<VARIANCE> 39
 4.405499e+01 5.469217e+01 5.601270e+01 7.053010e+01 6.107616e+01 7.361680e+01 6.647870e+01 6.143380e+01 6.132698e+01 5.649619e+01 5.647365e+01 4.204658e+01 7.361844e+01 6.114547e+00 5.015732e+00 3.177921e+00 6.155255e+00 4.707852e+00 4.966024e+00 5.380435e+00 5.208239e+00 4.853814e+00 4.008786e+00 3.965618e+00 3.365016e+00 7.316084e+00 8.155614e-01 8.768951e-01 5.363601e-01 9.778112e-01 7.719206e-01 8.809785e-01 9.467511e-01 9.449569e-01 8.746409e-01 7.716478e-01 7.151500e-01 5.943211e-01 1.140730e+00
<GCONST> 1.425301e+02
<TRANSP> 5
 0.000000e+00 1.000000e+00 0.000000e+00 0.000000e+00 0.000000e+00
 0.000000e+00 3.608381e-01 6.391619e-01 0.000000e+00 0.000000e+00
 0.000000e+00 0.000000e+00 3.536190e-01 6.463810e-01 0.000000e+00
 0.000000e+00 0.000000e+00 0.000000e+00 4.190187e-01 5.809813e-01
 0.000000e+00 0.000000e+00 0.000000e+00 0.000000e+00 0.000000e+00
<ENDHMM>
~h "aw"
<BEGINHMM>
<NUMSTATES> 5
<STATE> 2
<MEAN> 39
 -4.229431e+00 -1.724596e+01 -1.150370e+01 -1.335142e+01 -6.553565e+00 -2.750981e+00 -3.296612e+00 3.481857e-01 -5.315523e-01 -3.623180e+00 -6.389227e+00 -4.797801e+00 6.437273e+01 4.805238e-01 -6.973900e-01 -5.911207e-01 -2.835092e-01 5.300264e-01 5.761737e-01 -1.140076e-01 -2.966638e-01 2.396847e-01 -1.746767e-01 -2.973247e-01 -3.186748e-01 6.220205e-01 -8.590563e-02 2.614350e-01 5.478467e-02 3.328189e-02 3.536768e-02 1.415228e-02 -7.401823e-02 -1.307626e-01 -5.262578e-02 9.004399e-02 1.495204e-01 7.305859e-02 -2.254932e-01
<VARIANCE> 39
 2.765730e+01 3.709063e+01 4.370044e+01 5.335829e+01 5.862971e+01 6.844194e+01 7.703270e+01 7.417097e+01 6.904633e+01 5.422121e+01 4.459156e+01 4.634010e+01 4.822270e+01 1.599944e+00 2.497163e+00 1.565422e+00 2.199464e+00 2.410424e+00 2.477619e+00 2.827261e+00 3.028648e+00 2.439139e+00 2.207711e+00 2.316961e+00 2.113957e+00 2.113864e+00 3.068857e-01 3.749760e-01 2.382388e-01 3.487523e-01 3.976594e-01 3.963942e-01 4.659318e-01 5.068210e-01 4.478855e-01 3.806748e-01 3.862787e-01 3.537514e-01 3.079570e-01
<GCONST> 1.207489e+02
<STATE> 3
<MEAN> 39
 -2.575457e+00 -1.765829e+01 -1.340779e+01 -1.488851e+01 -4.920412e+00 -4.916794e-01 -4.514709e+00 -1.386240e+00 -1.150241e-01 -3.202247e+00 -6.110305e+00 -5.558368e+00 6.505933e+01 3.512979e-01 1.714062e-01 -4.071757e-01 -4.251559e-01 2.589768e-01 4.611513e-01 -2.672123e-01 -3.903292e-01 6.498222e-02 1.935156e-01 2.280346e-01 -1.017986e-01 -8.133076e-02 -4.991443e-02 2.197068e-01 9.221681e-02 2.548144e-02 -1.200877e-01 -1.001812e-01 -1.815841e-02 1.183384e-02 -6.583315e-02 7.036413e-02 1.023475e-01 7.517254e-02 -1.883244e-01
<VARIANCE> 39
 1.785237e+01 3.441169e+01 3.886281e+01 5.444585e+01 5.464552e+01 7.632027e+01 7.845889e+01 7.014934e+01 6.823096e+01 5.471688e+01 5.185096e+01 4.806157e+01 3.236598e+01 8.051020e-01 1.635821e+00 1.235643e+00 1.923276e+00 2.175315e+00 2.166400e+00 2.290853e+00 2.492296e+00 2.101984e+00 1.880688e+00 1.978935e+00 1.791290e+00 1.344207e+00 1.442583e-01 2.287772e-01 1.908990e-01 3.018741e-01 3.160860e-01 3.286252e-01 3.607627e-01 3.907319e-01 3.560880e-01 3.035179e-01 3.242570e-01 3.051157e-01 1.631123e-01
<GCONST> 1.127559e+02
<STATE> 4
<MEAN> 39
 -1.092810e+00 -1.446348e+01 -1.470900e+01 -1.667508e+01 -5.352054e+00 5.134020e-01 -5.502065e+00 -2.921110e+00 -4.547980e-01 -2.103756e+00 -3.920051e+00 -5.070518e+00 6.250302e+01 4.627613e-02 7.389740e-01 1.552571e-01 1.159495e-01 -2.893220e-01 -3.135750e-01 -2.748196e-01 -9.097838e-02 -1.965628e-01 2.916530e-01 2.814858e-01 1.393765e-01 -6.779361e-01 -1.355512e-01 1.298655e-01 1.891994e-01 2.410595e-01 -6.726018e-02 -1.923209e-01 -2.006837e-03 8.213970e-03 -7.726632e-02 -1.339152e-02 -3.740636e-02 5.580554e-02 -1.631071e-01
<VARIANCE> 39
 1.665979e+01 4.543117e+01 3.960595e+01 6.870498e+01 6.078316e+01 8.192744e+01 8.456570e+01 6.669464e+01 6.997379e+01 6.174002e+01 6.629297e+01 4.819380e+01 3.796841e+01 8.693591e-01 1.904447e+00 1.786034e+00 3.101466e+00 2.715098e+00 3.119124e+00 2.886264e+00 2.948524e+00 2.779983e+00 2.422637e+00 2.564334e+00 2.283856e+00 1.453403e+00 1.698646e-01 2.563036e-01 2.483083e-01 4.491235e-01 4.131573e-01 4.100749e-01 4.515790e-01 4.563660e-01 4.663521e-01 4.179118e-01 4.462914e-01 3.749440e-01 2.200169e-01
<GCONST> 1.203660e+02
<TRANSP> 5
 0.000000e+00 1.000000e+00 0.000000e+00 0.000000e+00 0.000000e+00
 0.000000e+00 7.832384e-01 2.167616e-01 0.000000e+00 0.000000e+00
 0.000000e+00 0.000000e+00 7.592306e-01 2.407693e-01 0.000000e+00
 0.000000e+00 0.000000e+00 0.000000e+00 8.645764e-01 1.354236e-01
 0.000000e+00 0.000000e+00 0.000000e+00 0.000000e+00 0.000000e+00
<ENDHMM>
~h "ay"
<BEGINHMM>
<NUMSTATES> 5
<STATE> 2
<MEAN> 39
 -3.246097e+00 -1.563205e+01 -1.330693e+01 -1.519439e+01 -4.909153e+00 -3.913422e-01 -4.462006e+00 -1.519584e+00 6.107838e-01 -1.476288e+00 -4.862088e+00 -6.455505e+00 6.308413e+01 2.974159e-01 -1.151599e+00 -1.253041e-02 1.087974e-01 7.293203e-02 -1.437887e-01 1.176492e-01 4.219821e-01 3.809741e-01 -4.736746e-01 -6.418315e-01 -2.989442e-01 8.429406e-01 -2.272755e-01 3.104451e-01 2.971424e-01 2.104723e-01 -1.474370e-01 -2.712232e-01 1.959143e-02 4.509528e-02 -2.092005e-01 -4.921667e-02 1.369430e-01 2.602354e-01 -2.395857e-01
<VARIANCE> 39
 2.971530e+01 4.007814e+01 3.911674e+01 5.366827e+01 5.730853e+01 7.744947e+01 6.364272e+01 6.445650e+01 6.232134e+01 5.530934e+01 5.853189e+01 4.878203e+01 5.622682e+01 2.230984e+00 2.271565e+00 2.827855e+00 3.467925e+00 3.311282e+00 4.331623e+00 3.059578e+00 3.866062e+00 3.083205e+00 2.537470e+00 2.729531e+00 2.936684e+00 2.147894e+00 4.038547e-01 3.492126e-01 3.466681e-01 5.398496e-01 5.523385e-01 5.549534e-01 5.162881e-01 6.118181e-01 5.500682e-01 4.901635e-01 5.465372e-01 5.112329e-01 3.441314e-01
<GCONST> 1.275788e+02
<STATE> 3
<MEAN> 39
 -2.886051e+00 -1.760283e+01 -1.246469e+01 -1.445806e+01 -5.383496e+00 -1.804609e+00 -4.214022e+00 -2.476194e-01 9.480486e-01 -2.848577e+00 -6.074097e+00 -6.356298e+00 6.478448e+01 -7.849431e-02 -3.178708e-01 6.645019e-01 4.107122e-01 -5.668807e-01 -8.390351e-01 1.658030e-01 6.694686e-01 -7.339863e-02 -4.331459e-01 -1.969402e-01 2.690550e-01 2.735039e-01 -1.025454e-01 3.355352e-01 2.151378e-01 5.633108e-02 -2.161919e-01 -1.708318e-01 4.850580e-03 -9.709071e-03 -2.040147e-01 6.338926e-02 2.179621e-01 1.631489e-01 -2.259954e-01
<VARIANCE> 39
 1.797017e+01 3.590273e+01 3.959587e+01 4.440517e+01 5.987487e+01 7.722612e+01 6.472462e+01 6.786595e+01 6.700019e+01 5.205145e+01 5.016658e+01 5.012332e+01 3.567927e+01 1.025954e+00 1.722131e+00 2.086487e+00 2.177090e+00 2.976728e+00 3.222499e+00 2.502975e+00 3.260000e+00 2.426771e+00 2.100991e+00 2.265385e+00 2.270581e+00 1.374115e+00 1.781464e-01 2.546019e-01 2.410225e-01 3.299696e-01 3.999881e-01 3.970927e-01 3.936607e-01 5.187999e-01 4.549105e-01 3.893166e-01 4.210184e-01 4.091986e-01 1.871427e-01
<GCONST> 1.178155e+02
<STATE> 4
<MEAN> 39
 -3.624498e+00 -1.718275e+01 -9.881090e+00 -1.305156e+01 -8.077600e+00 -5.233426e+00 -3.129244e+00 1.648763e+00 2.422056e-01 -4.294178e+00 -6.172204e+00 -4.863232e+00 6.464690e+01 -2.090868e-01 5.621659e-01 8.649070e-01 3.009944e-01 -8.515725e-01 -8.602364e-01 3.507160e-02 3.492503e-01 -3.789735e-01 1.101740e-02 3.096642e-01 3.607544e-01 -3.564053e-01 -5.355565e-02 2.493701e-01 3.301501e-02 3.379127e-02 4.754032e-02 5.736930e-02 -7.092952e-02 -1.940596e-01 -1.104959e-01 1.069654e-01 1.161147e-01 1.068976e-02 -2.181336e-01
<VARIANCE> 39
 1.571555e+01 3.670553e+01 5.041183e+01 4.368105e+01 6.797704e+01 7.252940e+01 6.665172e+01 6.944794e+01 7.313502e+01 4.806506e+01 4.505205e+01 4.592012e+01 3.524928e+01 6.411641e-01 1.595535e+00 1.857301e+00 1.779211e+00 2.762687e+00 2.453027e+00 2.475905e+00 3.016274e+00 2.379322e+00 2.164879e+00 2.075596e+00 1.969353e+00 1.037260e+00 1.262676e-01 2.094815e-01 2.129681e-01 2.700704e-01 4.129580e-01 3.431137e-01 3.786075e-01 4.809424e-01 3.869151e-01 3.434262e-01 3.393397e-01 3.013869e-01 1.715879e-01
<GCONST> 1.140565e+02
<TRANSP> 5
 0.000000e+00 1.000000e+00 0.000000e+00 0.000000e+00 0.000000e+00
 0.000000e+00 6.129297e-01 3.870703e-01 0.000000e+00 0.000000e+00
 0.000000e+00 0.000000e+00 6.294864e-01 3.705136e-01 0.000000e+00
 0.000000e+00 0.000000e+00 0.000000e+00 8.312114e-01 1.687885e-01
 0.000000e+00 0.000000e+00 0.000000e+00 0.000000e+00 0.000000e+00
<ENDHMM>
~h "ch"
<BEGINHMM>
<NUMSTATES> 5
<STATE> 2
<MEAN> 39
 -2.212050e+01 -4.869151e+00 8.176723e-01 -7.567214e+00 -5.035789e+00 -1.873859e+00 -4.662904e+00 -9.900119e-01 -1.960458e+00 -2.205541e+00 -1.400389e+00 -7.466398e-01 4.949588e+01 -2.362814e+00 -1.603538e-01 7.466622e-02 -3.671183e-01 4.937776e-01 1.223441e+00 7.702702e-01 1.798027e-01 6.023526e-01 3.791259e-01 4.839458e-01 2.786346e-01 2.909951e-01 2.626118e-01 -2.238088e-01 -3.446904e-02 -2.253084e-01 -2.808567e-01 -2.345217e-01 -7.787526e-02 6.910778e-02 -3.182941e-02 2.581156e-02 -1.032932e-02 -3.579573e-02 7.173864e-01
<VARIANCE> 39
 7.867097e+01 4.632089e+01 3.582462e+01 5.256812e+01 4.244514e+01 4.580822e+01 3.272705e+01 3.027926e+01 3.120473e+01 2.492035e+01 2.218492e+01 1.681970e+01 1.074309e+02 6.630492e+00 5.913682e+00 4.866099e+00 6.569710e+00 5.846810e+00 5.544259e+00 4.090724e+00 3.843416e+00 3.565080e+00 3.257929e+00 2.797769e+00 2.214570e+00 1.745665e+01 1.003411e+00 1.224275e+00 8.412942e-01 1.403195e+00 9.156639e-01 9.365916e-01 7.601484e-01 7.025079e-01 6.365369e-01 6.252136e-01 5.536135e-01 4.073266e-01 2.962666e+00
<GCONST> 1.379146e+02
<STATE> 3
<MEAN> 39
 -2.725617e+01 -6.157768e+00 1.232576e+00 -9.571057e+00 -5.614650e+00 -4.760122e-01 -2.731295e+00 -2.151380e-01 -6.659272e-01 -1.242471e+00 -3.046854e-01 -1.323429e-01 5.493417e+01 -4.213158e-01 -2.735363e-01 7.535528e-02 -2.026823e-01 -4.367551e-01 -1.963785e-01 3.376788e-01 1.709472e-01 1.254115e-01 9.207242e-02 9.699374e-02 6.679995e-02 1.340648e+00 7.048283e-01 -6.815504e-03 -7.246314e-02 1.352269e-01 -1.483871e-01 -3.500552e-01 -1.987250e-01 -1.874768e-02 -1.509340e-01 -9.373838e-02 -1.340845e-01 -7.198248e-02 -9.112748e-02
<VARIANCE> 39
 4.520671e+01 3.519443e+01 3.259442e+01 3.688499e+01 4.202955e+01 3.213727e+01 2.827026e+01 2.450224e+01 2.263858e+01 1.901510e+01 1.690124e+01 1.334108e+01 8.294505e+01 8.778388e+00 3.464157e+00 3.467317e+00 4.274606e+00 3.635454e+00 4.312863e+00 3.131541e+00 2.563455e+00 2.542267e+00 2.293617e+00 2.048040e+00 1.611771e+00 9.385213e+00 9.131306e-01 7.508233e-01 7.047844e-01 8.864471e-01 6.903748e-01 6.756740e-01 6.568100e-01 5.273705e-01 4.886522e-01 4.713134e-01 4.057125e-01 3.300644e-01 2.059053e+00
<GCONST> 1.265068e+02
<STATE> 4
<MEAN> 39
 -2.460165e+01 -6.739583e+00 7.913945e-01 -9.207445e+00 -7.406714e+00 -2.988206e+00 -2.471245e+00 6.437629e-02 -1.103803e+00 -1.372151e+00 -8.334501e-01 -3.425885e-01 5.752052e+01 2.150896e+00 -3.515205e-01 -3.381945e-01 1.635740e-01 -5.686069e-01 -9.672635e-01 -5.905375e-01 1.783185e-02 -3.236155e-01 -2.265792e-01 -2.794179e-01 -1.578855e-01 8.730501e-02 4.611332e-01 -7.326245e-02 -1.035215e-01 -7.758082e-02 -9.502141e-03 -5.406590e-02 -2.753423e-01 -1.388459e-02 -6.751479e-02 -3.481556e-02 -2.755507e-02 -5.053238e-02 -1.377629e-01
<VARIANCE> 39
 8.133479e+01 3.182815e+01 3.396160e+01 3.557961e+01 4.599390e+01 4.221729e+01 3.499735e+01 2.650074e+01 2.511212e+01 2.147808e+01 1.947327e+01 1.529549e+01 5.687492e+01 8.410229e+00 2.554601e+00 3.097878e+00 3.014716e+00 3.563501e+00 4.078606e+00 4.724173e+00 3.003849e+00 2.732804e+00 2.506288e+00 2.321800e+00 1.815636e+00 5.490037e+00 1.045563e+00 4.561935e-01 5.042668e-01 5.917861e-01 5.829409e-01 6.875191e-01 7.179115e-01 5.293564e-01 4.921639e-01 4.774999e-01 4.144315e-01 3.369474e-01 9.986758e-01
<GCONST> 1.255118e+02
<TRANSP> 5
 0.000000e+00 1.000000e+00 0.000000e+00 0.000000e+00 0.000000e+00
 0.000000e+00 7.346233e-01 2.653767e-01 0.000000e+00 0.000000e+00
 0.000000e+00 0.000000e+00 7.135857e-01 2.864143e-01 0.000000e+00
 0.000000e+00 0.000000e+00 0.000000e+00 8.112826e-01 1.887174e-01
 0.000000e+00 0.000000e+00 0.000000e+00 0.000000e+00 0.000000e+00
<ENDHMM>
~h "dh"
<BEGINHMM>
<NUMSTATES> 5
<STATE> 2
<MEAN> 39
 -1.649413e+01 -3.039929e+00 -6.651346e+00 -3.982456e+00 -3.824526e+00 -3.515778e+00 -2.861146e+00 -1.186580e+00 -1.296776e+00 -4.844710e-01 -1.857972e+00 -9.416037e-01 4.246598e+01 9.229252e-02 -1.377010e-01 -1.176658e-01 -2.257385e-01 -1.884237e-01 -1.041908e-01 -5.015707e-02 8.354633e-02 1.741052e-01 -4.146836e-02 -6.260992e-02 7.958978e-03 6.481886e-01 3.563733e-01 -1.895966e-01 4.364207e-02 -2.419339e-01 -2.992654e-01 -3.030481e-01 -1.631660e-01 5.660719e-03 -2.001539e-02 -2.881674e-02 -4.151604e-02 -3.341281e-02 6.651439e-01
<VARIANCE> 39
 4.622342e+01 3.095856e+01 2.615759e+01 3.217266e+01 2.879369e+01 3.458742e+01 3.517552e+01 3.337779e+01 2.908377e+01 2.395014e+01 2.602003e+01 2.287784e+01 9.330704e+01 3.303982e+00 2.550730e+00 2.670721e+00 2.973951e+00 2.849519e+00 3.355261e+00 2.919780e+00 2.883562e+00 2.751811e+00 2.401180e+00 2.220155e+00 2.026375e+00 8.639025e+00 5.908947e-01 5.131575e-01 5.456489e-01 6.246162e-01 5.748413e-01 6.449826e-01 5.979730e-01 5.701441e-01 5.661224e-01 4.975871e-01 4.639633e-01 4.132896e-01 1.310117e+00
<GCONST> 1.242756e+02
<STATE> 3
<MEAN> 39
 -1.399568e+01 -3.154534e+00 -6.615396e+00 -5.393705e+00 -5.760859e+00 -5.683157e+00 -4.159338e+00 -1.884900e+00 -1.165154e+00 -8.517586e-01 -2.715631e+00 -1.619963e+00 4.882400e+01 1.369161e+00 -7.565316e-01 -3.087667e-02 -1.018726e+00 -1.188197e+00 -1.201348e+00 -6.706805e-01 1.149479e-01 2.614539e-01 -1.386097e-01 -2.928362e-01 -1.437654e-01 3.034683e+00 3.895188e-01 -2.573370e-01 1.499309e-01 -2.464157e-01 -2.910134e-01 -2.177798e-01 -2.207847e-01 5.447112e-02 -2.876865e-02 3.729936e-02 -4.497215e-02 -5.705269e-02 3.674856e-01
<VARIANCE> 39
 5.324373e+01 3.144795e+01 2.846165e+01 3.656664e+01 3.515077e+01 4.017950e+01 4.383689e+01 3.477888e+01 3.100197e+01 2.641517e+01 2.730445e+01 2.583858e+01 9.878152e+01 4.887718e+00 3.085573e+00 3.048563e+00 3.561258e+00 3.859609e+00 4.339470e+00 4.227288e+00 3.462337e+00 3.387930e+00 2.907146e+00 2.784600e+00 2.689220e+00 9.780285e+00 7.859216e-01 6.483940e-01 6.339875e-01 7.302372e-01 6.769670e-01 7.936938e-01 7.836200e-01 6.307209e-01 6.368665e-01 5.510032e-01 5.579324e-01 4.938246e-01 1.661812e+00
<GCONST> 1.310730e+02
<STATE> 4
<MEAN> 39
 -9.620372e+00 -5.320399e+00 -6.161084e+00 -8.082684e+00 -9.439917e+00 -9.274055e+00 -6.189875e+00 -1.711593e+00 -6.384077e-01 -1.213288e+00 -3.663714e+00 -2.280123e+00 5.643477e+01 1.637135e+00 -1.180008e+00 3.582614e-01 -1.223325e+00 -1.384909e+00 -1.129145e+00 -8.452868e-01 3.472509e-01 1.577263e-01 -2.557841e-02 -3.228739e-01 -2.182213e-01 2.652547e+00 -1.528837e-01 -3.510685e-02 1.477176e-01 8.070157e-02 1.662996e-01 2.808561e-01 8.988243e-02 6.390391e-02 -1.458050e-01 2.456530e-02 4.434409e-02 1.766736e-02 -5.423484e-01
<VARIANCE> 39
 4.750734e+01 3.674669e+01 3.511574e+01 4.216035e+01 4.770318e+01 4.948103e+01 5.863568e+01 4.192026e+01 4.213322e+01 3.588470e+01 3.391618e+01 3.275008e+01 6.868163e+01 4.667670e+00 3.585290e+00 3.363758e+00 4.075189e+00 4.558394e+00 4.968426e+00 5.457531e+00 3.972563e+00 3.984918e+00 3.283516e+00 3.441935e+00 3.050910e+00 7.934899e+00 8.301120e-01 6.232780e-01 5.444278e-01 7.016219e-01 7.457094e-01 8.036706e-01 8.596093e-01 6.393898e-01 6.207589e-01 5.622985e-01 5.585544e-01 5.021990e-01 1.289680e+00
<GCONST> 1.344044e+02
<TRANSP> 5
 0.000000e+00 1.000000e+00 0.000000e+00 0.000000e+00 0.000000e+00
 0.000000e+00 6.686262e-01 3.313738e-01 0.000000e+00 0.000000e+00
 0.000000e+00 0.000000e+00 4.557947e-01 5.442054e-01 0.000000e+00
 0.000000e+00 0.000000e+00 0.000000e+00 4.763070e-01 5.236930e-01
 0.000000e+00 0.000000e+00 0.000000e+00 0.000000e+00 0.000000e+00
<ENDHMM>
~h "eh"
<BEGINHMM>
<NUMSTATES> 5
<STATE> 2
<MEAN> 39
 -6.561724e+00 -1.174755e+01 -4.163480e+00 -1.217483e+01 -1.281565e+01 -9.565775e+00 -6.628374e+00 2.926800e+00 -1.258920e+00 -1.455002e+00 -4.343802e+00 -2.534290e+00 6.198213e+01 8.507404e-01 -8.964550e-01 1.020173e-01 -4.902795e-01 -6.562316e-01 -3.430664e-01 -2.129198e-01 6.707178e-01 2.023297e-01 -1.898925e-01 -3.978370e-01 -1.350062e-01 8.738552e-01 -2.555632e-01 2.677713e-01 -7.731923e-02 1.414634e-01 2.737328e-01 2.158733e-01 1.086742e-01 -1.945406e-01 -1.513862e-01 8.535434e-04 9.457246e-02 9.901419e-03 -3.414691e-01
<VARIANCE> 39
 4.092617e+01 4.866388e+01 4.645327e+01 5.333152e+01 5.707232e+01 5.686111e+01 7.964986e+01 5.985153e+01 6.798889e+01 4.807860e+01 4.894567e+01 3.832056e+01 6.397579e+01 4.856099e+00 4.278004e+00 2.886807e+00 3.891337e+00 4.692355e+00 4.232366e+00 5.223955e+00 4.892566e+00 4.367377e+00 3.406613e+00 3.314487e+00 2.866555e+00 4.644622e+00 7.149684e-01 5.957626e-01 4.033834e-01 5.959554e-01 7.114629e-01 7.277483e-01 8.758423e-01 7.957085e-01 7.216532e-01 5.802327e-01 5.698647e-01 4.800193e-01 7.249676e-01
<GCONST> 1.358134e+02
<STATE> 3
<MEAN> 39
 -5.444850e+00 -1.312036e+01 -4.299067e+00 -1.287903e+01 -1.340818e+01 -9.742694e+00 -6.730853e+00 3.948745e+00 -1.139309e+00 -1.832033e+00 -4.954952e+00 -2.847660e+00 6.326175e+01 2.756936e-01 -1.567178e-01 -5.152769e-02 -7.071237e-02 -9.675883e-05 3.993949e-02 -2.754989e-02 8.933318e-02 -7.205325e-02 -1.446935e-01 -1.654641e-01 -1.209874e-01 1.040508e-01 -3.150739e-01 4.148881e-01 -5.541789e-02 2.222172e-01 3.244775e-01 2.098824e-01 9.745580e-02 -3.256295e-01 -1.620691e-01 3.868469e-02 1.538658e-01 2.390812e-02 -4.493666e-01
<VARIANCE> 39
 2.701976e+01 4.220871e+01 4.667481e+01 5.239075e+01 5.482592e+01 5.749212e+01 8.205105e+01 6.119127e+01 7.309099e+01 5.127695e+01 5.211619e+01 3.989193e+01 5.131939e+01 3.309599e+00 4.482508e+00 2.756355e+00 3.551465e+00 4.215694e+00 3.683589e+00 4.436024e+00 4.858588e+00 3.983087e+00 3.140123e+00 2.997535e+00 2.642760e+00 4.533774e+00 5.560731e-01 5.273079e-01 3.858569e-01 5.511227e-01 6.346200e-01 6.691884e-01 8.072346e-01 7.674901e-01 6.980872e-01 5.622314e-01 5.594696e-01 4.640009e-01 5.733269e-01
<GCONST> 1.328509e+02
<STATE> 4
<MEAN> 39
 -5.363493e+00 -1.246330e+01 -4.689209e+00 -1.255467e+01 -1.278482e+01 -9.448267e+00 -6.463051e+00 3.449725e+00 -1.462097e+00 -2.054819e+00 -5.229969e+00 -2.995045e+00 6.258019e+01 -3.339740e-01 7.649363e-01 -6.496991e-02 4.595501e-01 6.009920e-01 3.302782e-01 6.609747e-02 -6.128339e-01 -3.360144e-01 -4.714445e-02 1.629879e-01 -5.195984e-02 -8.460733e-01 -3.128005e-01 3.273782e-01 -9.668170e-03 1.790821e-01 2.442262e-01 1.720436e-01 7.873445e-02 -2.406597e-01 -1.182090e-01 4.509283e-02 1.520057e-01 4.488982e-02 -3.946283e-01
<VARIANCE> 39
 2.568450e+01 4.584705e+01 4.924516e+01 5.372869e+01 5.892205e+01 5.928568e+01 7.962079e+01 6.379561e+01 7.389055e+01 5.372817e+01 5.294560e+01 4.051557e+01 5.295773e+01 3.765934e+00 4.435484e+00 2.686027e+00 3.805071e+00 4.028008e+00 3.821056e+00 4.399676e+00 4.935464e+00 4.022079e+00 3.230373e+00 3.170846e+00 2.663766e+00 4.809906e+00 5.017728e-01 5.896195e-01 3.920717e-01 5.602576e-01 6.288425e-01 6.397736e-01 7.440751e-01 8.031051e-01 7.033688e-01 5.784768e-01 5.637004e-01 4.630208e-01 6.357999e-01
<GCONST> 1.336140e+02
<TRANSP> 5
 0.000000e+00 1.000000e+00 0.000000e+00 0.000000e+00 0.000000e+00
 0.000000e+00 4.324137e-01 5.675864e-01 0.000000e+00 0.000000e+00
 0.000000e+00 0.000000e+00 4.348187e-01 5.651814e-01 0.000000e+00
 0.000000e+00 0.000000e+00 0.000000e+00 5.240680e-01 4.759320e-01
 0.000000e+00 0.000000e+00 0.000000e+00 0.000000e+00 0.000000e+00
<ENDHMM>
~h "er"
<BEGINHMM>
<NUMSTATES> 5
<STATE> 2
<MEAN> 39
 1.696376e+00 -1.289593e+01 -1.497745e+01 -7.150451e+00 -4.916756e+00 -1.239036e+01 -1.743153e+01 3.360392e+00 1.386370e+00 -2.494076e+00 -2.138721e+00 -7.754847e-01 5.885685e+01 8.958212e-01 -1.645238e-01 -8.160440e-01 1.942329e-02 5.356702e-01 -5.040641e-01 -1.225433e+00 5.159363e-01 4.267019e-01 -1.766886e-01 -9.770067e-02 1.490602e-01 5.214982e-02 -4.361982e-01 1.665785e-01 2.854822e-01 1.649983e-02 -6.009015e-02 2.273269e-01 4.416150e-01 -1.582788e-01 -1.399985e-01 3.573140e-02 1.171598e-02 -4.435638e-02 -1.687484e-01
<VARIANCE> 39
 2.623307e+01 3.011827e+01 7.077715e+01 4.697765e+01 6.530066e+01 8.350768e+01 1.169780e+02 8.567542e+01 8.717015e+01 4.810175e+01 4.327971e+01 3.328205e+01 2.518092e+01 3.571666e+00 1.923363e+00 3.112541e+00 2.298149e+00 3.016709e+00 3.449401e+00 6.445989e+00 4.013590e+00 3.285400e+00 2.705809e+00 2.286999e+00 1.958420e+00 1.328280e+00 5.166681e-01 3.243289e-01 4.270741e-01 3.772473e-01 4.739870e-01 5.331466e-01 8.792288e-01 6.418386e-01 5.252230e-01 4.541374e-01 3.947785e-01 3.487006e-01 2.305051e-01
<GCONST> 1.261300e+02
<STATE> 3
<MEAN> 39
 1.864172e+00 -1.253921e+01 -1.520981e+01 -6.657466e+00 -4.407865e+00 -1.291178e+01 -1.750544e+01 3.859024e+00 1.353349e+00 -2.912033e+00 -2.632565e+00 -5.602580e-01 5.796838e+01 -3.035493e-01 2.079838e-01 3.537960e-01 1.565612e-01 -4.793511e-02 7.346036e-02 4.906193e-01 -3.256999e-02 -2.423556e-01 -1.667240e-01 -4.733812e-02 4.283612e-02 -3.703668e-01 -3.884064e-01 1.589023e-01 3.395532e-01 -1.920702e-02 -1.502808e-01 2.547825e-01 4.972269e-01 -2.232255e-01 -1.962079e-01 3.761640e-02 3.118794e-02 -6.093966e-02 -1.456662e-01
<VARIANCE> 39
 2.196783e+01 3.120899e+01 7.165215e+01 5.189643e+01 6.648965e+01 8.831618e+01 1.222106e+02 8.723680e+01 9.113364e+01 5.155708e+01 4.266239e+01 3.295395e+01 3.037090e+01 2.205092e+00 1.768036e+00 2.999401e+00 2.141031e+00 3.050276e+00 3.199574e+00 5.813480e+00 3.776839e+00 3.042143e+00 2.566190e+00 2.184175e+00 1.795399e+00 1.355609e+00 3.982578e-01 3.247437e-01 3.652247e-01 3.604440e-01 4.504468e-01 5.526658e-01 8.628918e-01 6.406416e-01 5.140140e-01 4.588740e-01 3.828324e-01 3.313110e-01 2.245965e-01
<GCONST> 1.247521e+02
<STATE> 4
<MEAN> 39
 -6.049790e-01 -1.154342e+01 -1.276279e+01 -6.196592e+00 -5.476198e+00 -1.162216e+01 -1.306896e+01 2.893341e+00 -4.998519e-01 -3.421462e+00 -2.842893e+00 -6.415663e-01 5.584102e+01 -1.114883e+00 5.322778e-01 1.100147e+00 -9.290676e-02 -4.230745e-01 7.517623e-01 1.462008e+00 -6.225147e-01 -6.915343e-01 -5.838031e-03 7.421385e-02 -1.385771e-01 -6.318020e-01 -2.625355e-01 1.556738e-01 1.311331e-01 -1.270378e-01 -1.341225e-02 2.461068e-01 1.714263e-01 -1.665575e-01 -5.247600e-02 9.326128e-02 2.388798e-02 -7.082525e-02 -7.993583e-02
<VARIANCE> 39
 3.873304e+01 3.639137e+01 7.946437e+01 6.157706e+01 6.829193e+01 8.967235e+01 1.198443e+02 7.995908e+01 8.615152e+01 5.413644e+01 4.457551e+01 3.385992e+01 5.120003e+01 3.052639e+00 2.455578e+00 3.106564e+00 2.937411e+00 3.463113e+00 4.065565e+00 5.974105e+00 4.399735e+00 3.683242e+00 3.096936e+00 2.624730e+00 2.189416e+00 2.174005e+00 4.524871e-01 3.816441e-01 4.332524e-01 4.511985e-01 5.407344e-01 6.309178e-01 8.704012e-01 6.836548e-01 5.838022e-01 5.319726e-01 4.552321e-01 3.783323e-01 3.212518e-01
<GCONST> 1.310659e+02
<TRANSP> 5
 0.000000e+00 1.000000e+00 0.000000e+00 0.000000e+00 0.000000e+00
 0.000000e+00 7.359374e-01 2.640625e-01 0.000000e+00 0.000000e+00
 0.000000e+00 0.000000e+00 6.636783e-01 3.363216e-01 0.000000e+00
 0.000000e+00 0.000000e+00 0.000000e+00 7.066101e-01 2.933898e-01
 0.000000e+00 0.000000e+00 0.000000e+00 0.000000e+00 0.000000e+00
<ENDHMM>
~h "ey"
<BEGINHMM>
<NUMSTATES> 5
<STATE> 2
<MEAN> 39
 -6.165245e+00 -1.304614e+01 1.276548e+00 -1.346178e+01 -1.849030e+01 -1.088001e+01 -5.982746e+00 3.757156e+00 -3.789972e+00 -1.294115e+00 -1.675811e+00 -1.956274e+00 6.425367e+01 1.218923e-01 -2.081921e-01 1.164376e+00 -4.873303e-01 -1.339120e+00 -2.100462e-01 1.712594e-01 6.820031e-02 -7.442663e-01 2.254514e-02 5.200446e-01 1.190593e-01 4.712538e-01 -1.905937e-01 2.849095e-01 -1.061151e-01 1.488393e-01 3.251648e-01 2.019686e-01 -3.049200e-02 -3.115563e-01 -7.503294e-02 6.971599e-02 5.069282e-02 -4.591052e-02 -3.339044e-01
<VARIANCE> 39
 1.961661e+01 3.283024e+01 4.255750e+01 6.109039e+01 4.709973e+01 4.919602e+01 7.681543e+01 6.470398e+01 6.640193e+01 4.875977e+01 5.681236e+01 2.940356e+01 3.056790e+01 2.000469e+00 2.359520e+00 1.972094e+00 2.440939e+00 3.005424e+00 2.639681e+00 3.194741e+00 3.744433e+00 3.175466e+00 2.752170e+00 2.645540e+00 1.933371e+00 2.030640e+00 3.304950e-01 3.235486e-01 2.749337e-01 3.686784e-01 4.550863e-01 4.514678e-01 5.753108e-01 5.844942e-01 5.421057e-01 4.364371e-01 4.681732e-01 3.473733e-01 3.131781e-01
<GCONST> 1.217598e+02
<STATE> 3
<MEAN> 39
 -6.480816e+00 -1.233070e+01 4.183082e+00 -1.408151e+01 -2.090789e+01 -1.070859e+01 -5.963778e+00 2.457256e+00 -6.144719e+00 -9.641768e-01 -1.327950e-01 -1.903338e+00 6.425108e+01 -1.809876e-01 4.658301e-01 7.311241e-01 7.248867e-02 -3.402141e-01 9.218576e-02 -3.167263e-02 -5.700952e-01 -6.937885e-01 4.576118e-02 2.903297e-01 -1.532097e-02 -3.324274e-01 -8.770246e-02 1.954678e-01 -2.309431e-01 2.059508e-01 3.921945e-01 8.709439e-02 -3.795016e-02 -1.262425e-01 9.227896e-02 -2.314977e-02 -1.290379e-01 -4.312204e-02 -2.740957e-01
<VARIANCE> 39
 1.411427e+01 3.084283e+01 4.343082e+01 6.807751e+01 4.225914e+01 5.016713e+01 6.920975e+01 6.712851e+01 6.148132e+01 5.291273e+01 6.466710e+01 2.870941e+01 2.669220e+01 8.919384e-01 1.568040e+00 1.735379e+00 1.862128e+00 2.435374e+00 1.856921e+00 2.301142e+00 2.484319e+00 2.534375e+00 2.054156e+00 2.036302e+00 1.451636e+00 1.307858e+00 2.054165e-01 2.366125e-01 2.866625e-01 2.996161e-01 4.114963e-01 3.490197e-01 4.178842e-01 4.484811e-01 4.463556e-01 3.633361e-01 3.726620e-01 2.699361e-01 2.024722e-01
<GCONST> 1.137025e+02
<STATE> 4
<MEAN> 39
 -7.348584e+00 -9.541007e+00 5.594290e+00 -1.298957e+01 -2.058367e+01 -9.854672e+00 -5.991990e+00 -4.618549e-01 -8.171455e+00 -1.050021e+00 -2.993757e-01 -2.161007e+00 6.150503e+01 -3.913041e-01 7.947136e-01 -2.309043e-01 7.308601e-01 9.636632e-01 2.075792e-01 -1.408094e-02 -4.954700e-01 -1.351327e-01 -1.622902e-01 -1.948736e-01 -5.578837e-02 -1.069295e+00 -1.620088e-01 8.395773e-02 -3.382929e-01 1.411241e-01 4.255448e-01 1.157665e-01 6.549981e-02 4.333930e-02 2.119592e-01 -1.380793e-02 -9.891861e-02 -1.207673e-02 -2.213433e-01
<VARIANCE> 39
 1.712170e+01 3.796952e+01 4.640398e+01 7.756219e+01 4.798093e+01 5.552184e+01 6.398585e+01 7.222652e+01 5.651215e+01 5.458872e+01 6.740207e+01 3.139922e+01 4.238880e+01 2.116375e+00 2.025920e+00 2.885145e+00 2.727614e+00 4.357547e+00 2.568257e+00 3.040834e+00 3.067801e+00 3.240718e+00 2.579334e+00 2.615295e+00 1.806041e+00 2.313977e+00 3.120248e-01 3.195977e-01 3.583281e-01 4.326864e-01 5.679499e-01 4.614670e-01 4.816567e-01 5.384927e-01 5.165069e-01 4.418483e-01 4.285993e-01 3.189788e-01 3.454929e-01
<GCONST> 1.234012e+02
<TRANSP> 5
 0.000000e+00 1.000000e+00 0.000000e+00 0.000000e+00 0.000000e+00
 0.000000e+00 6.636933e-01 3.363067e-01 0.000000e+00 0.000000e+00
 0.000000e+00 0.000000e+00 6.822755e-01 3.177246e-01 0.000000e+00
 0.000000e+00 0.000000e+00 0.000000e+00 7.883832e-01 2.116167e-01
 0.000000e+00 0.000000e+00 0.000000e+00 0.000000e+00 0.000000e+00
<ENDHMM>
~h "hh"
<BEGINHMM>
<NUMSTATES> 5
<STATE> 2
<MEAN> 39
 -1.261282e+01 -6.988969e+00 -1.969771e+00 -9.564216e+00 -8.952180e+00 -3.529607e+00 -5.104678e-01 -8.538819e-01 -4.065975e+00 -2.024175e+00 -3.001776e+00 -9.192614e-01 5.413788e+01 3.717654e-01 -2.901057e-01 -6.388128e-02 -3.044291e-01 -3.212649e-01 2.093434e-03 2.643701e-01 -1.922515e-02 -9.514520e-02 -1.730886e-01 -1.881271e-01 -1.149433e-01 4.695544e-01 1.744666e-01 -2.496697e-02 -4.168362e-02 -5.484329e-02 -1.164471e-01 -1.431208e-01 -2.514760e-01 -3.846381e-02 -6.711654e-02 -4.037156e-02 -9.662834e-03 -6.756473e-02 9.352100e-02
<VARIANCE> 39
 4.400057e+01 3.680075e+01 7.198734e+01 5.200686e+01 6.602413e+01 5.031182e+01 5.398220e+01 5.788998e+01 4.806359e+01 3.817805e+01 4.016334e+01 2.589854e+01 8.446069e+01 2.220106e+00 2.175578e+00 2.389854e+00 2.273675e+00 2.939710e+00 2.754624e+00 3.521535e+00 2.877607e+00 2.825037e+00 2.443433e+00 2.237139e+00 1.851840e+00 1.931680e+00 3.287017e-01 3.703007e-01 3.386355e-01 4.082871e-01 4.739940e-01 4.816047e-01 5.846621e-01 4.991500e-01 4.904682e-01 4.578532e-01 4.195907e-01 3.456355e-01 2.594558e-01
<GCONST> 1.224681e+02
<STATE> 3
<MEAN> 39
 -1.000157e+01 -7.607975e+00 -1.205172e+00 -1.124245e+01 -1.134872e+01 -4.331763e+00 -8.417356e-01 -1.535977e+00 -5.331377e+00 -2.923444e+00 -4.020358e+00 -1.883999e+00 5.799658e+01 8.564579e-01 -4.715048e-01 -2.801851e-01 -4.615470e-01 -6.199547e-01 -3.940946e-01 -3.414810e-01 4.551888e-02 -1.536091e-01 -2.561399e-01 -1.656843e-01 -2.416456e-01 8.746853e-01 9.951292e-02 -7.530042e-02 -7.617272e-02 -4.201144e-02 -2.799188e-02 -8.629348e-02 -2.273118e-01 3.623932e-02 3.262210e-02 1.356937e-02 5.990982e-02 -1.320412e-02 8.055851e-02
<VARIANCE> 39
 3.680299e+01 4.212477e+01 7.392487e+01 5.840962e+01 7.519638e+01 5.769669e+01 6.342833e+01 6.918666e+01 5.194989e+01 4.373135e+01 4.958731e+01 2.933571e+01 5.910611e+01 2.218564e+00 2.447382e+00 2.626945e+00 2.313496e+00 3.102735e+00 2.837492e+00 3.875467e+00 2.984599e+00 2.956775e+00 2.481719e+00 2.348217e+00 1.844582e+00 1.854012e+00 3.271525e-01 4.252285e-01 3.354164e-01 3.956719e-01 4.860712e-01 4.601738e-01 5.999259e-01 4.717298e-01 4.644320e-01 4.385514e-01 4.082613e-01 3.286492e-01 2.441232e-01
<GCONST> 1.236805e+02
<STATE> 4
<MEAN> 39
 -7.814586e+00 -9.508809e+00 -1.810705e+00 -1.361868e+01 -1.390459e+01 -5.915080e+00 -2.124417e+00 -1.546261e+00 -6.170645e+00 -3.577809e+00 -4.819209e+00 -2.599140e+00 6.132951e+01 6.836957e-01 -6.241111e-01 -4.446467e-01 -2.508195e-01 -2.849061e-01 -3.923578e-01 -4.218118e-01 3.162141e-01 1.037452e-01 -1.004898e-01 2.830625e-02 -1.074187e-01 6.736810e-01 -5.010670e-02 2.278575e-02 -2.158242e-02 6.095482e-02 1.197360e-01 2.355709e-02 -6.117651e-02 5.835467e-03 7.031336e-02 4.687290e-02 3.827333e-02 2.172659e-02 -7.684805e-02
<VARIANCE> 39
 2.936711e+01 5.121521e+01 7.760200e+01 6.828055e+01 7.520534e+01 6.757160e+01 7.213237e+01 7.987622e+01 5.995624e+01 4.784112e+01 5.861890e+01 3.271296e+01 4.898827e+01 1.712073e+00 2.399102e+00 2.364546e+00 2.276275e+00 2.850852e+00 2.656323e+00 3.483842e+00 2.912019e+00 2.687076e+00 2.335775e+00 2.110059e+00 1.736321e+00 1.763449e+00 2.546147e-01 3.917489e-01 3.034011e-01 3.375944e-01 4.358478e-01 3.982606e-01 5.107141e-01 4.451438e-01 4.092450e-01 3.865526e-01 3.604295e-01 2.881286e-01 2.170636e-01
<GCONST> 1.218602e+02
<TRANSP> 5
 0.000000e+00 1.000000e+00 0.000000e+00 0.000000e+00 0.000000e+00
 0.000000e+00 6.497044e-01 3.502956e-01 0.000000e+00 0.000000e+00
 0.000000e+00 0.000000e+00 5.482123e-01 4.517876e-01 0.000000e+00
 0.000000e+00 0.000000e+00 0.000000e+00 6.908696e-01 3.091304e-01
 0.000000e+00 0.000000e+00 0.000000e+00 0.000000e+00 0.000000e+00
<ENDHMM>
~h "ih"
<BEGINHMM>
<NUMSTATES> 5
<STATE> 2
<MEAN> 39
 -8.289734e+00 -7.598314e+00 -4.962327e-01 -9.735702e+00 -1.273303e+01 -1.109450e+01 -8.502054e+00 -3.074499e-01 -4.735361e+00 -2.503868e+00 -2.770778e+00 -1.092070e+00 5.768365e+01 8.234479e-01 -7.396467e-03 4.962042e-01 -4.939229e-02 -7.114347e-01 -5.895125e-01 -3.026561e-01 1.531310e-02 -3.212834e-01 -1.614901e-01 -2.091024e-01 -4.985791e-02 1.991160e-01 -2.936398e-01 2.047052e-01 -1.835208e-01 1.267760e-01 3.102632e-01 3.068064e-01 2.274743e-01 -1.073035e-01 -3.105799e-02 5.496624e-02 2.804951e-02 -5.492082e-02 -3.063133e-01
<VARIANCE> 39
