<BEGINHMM>
<NUMSTATES> 5
<STATE> 2
<MEAN> 39
 -1.012254e+01 -7.264364e+00 -5.370496e+00 -9.712435e+00 -8.047647e+00 -5.681997e+00 -5.715511e+00 -8.866540e-01 -3.691144e+00 -1.679044e+00 -2.372037e+00 -1.992824e+00 5.435912e+01 3.500773e-03 3.751601e-03 -3.257730e-04 8.666853e-04 4.723825e-03 -5.870872e-04 2.242867e-04 -5.077744e-03 -4.136851e-03 -6.560485e-04 -4.315064e-03 -2.692429e-03 3.635390e-03 -9.591001e-05 -2.103235e-04 1.351038e-04 -1.666076e-05 -3.385021e-04 -2.177526e-04 -1.438116e-04 1.637090e-04 2.628690e-04 5.648763e-06 2.228725e-04 2.034275e-04 -1.619477e-05
<VARIANCE> 39
 1.019832e+02 5.941970e+01 7.969288e+01 8.208760e+01 7.802106e+01 7.487110e+01 7.643834e+01 6.621703e+01 6.555447e+01 4.695152e+01 4.796841e+01 3.524455e+01 1.176575e+02 4.561978e+00 3.523971e+00 3.336667e+00 4.190840e+00 4.308219e+00 4.198891e+00 4.400949e+00 4.303593e+00 3.945015e+00 3.243124e+00 2.985297e+00 2.440730e+00 5.602094e+00 6.297911e-01 5.834280e-01 5.080847e-01 6.770200e-01 7.052052e-01 7.098476e-01 7.490622e-01 7.594711e-01 6.945443e-01 5.957132e-01 5.417582e-01 4.464071e-01 8.994135e-01
<GCONST> 1.383850e+02
<STATE> 3
<MEAN> 39
 -1.012254e+01 -7.264364e+00 -5.370496e+00 -9.712435e+00 -8.047647e+00 -5.681997e+00 -5.715511e+00 -8.866540e-01 -3.691144e+00 -1.679044e+00 -2.372037e+00 -1.992824e+00 5.435912e+01 3.500773e-03 3.751601e-03 -3.257730e-04 8.666853e-04 4.723825e-03 -5.870872e-04 2.242867e-04 -5.077744e-03 -4.136851e-03 -6.560485e-04 -4.315064e-03 -2.692429e-03 3.635390e-03 -9.591001e-05 -2.103235e-04 1.351038e-04 -1.666076e-05 -3.385021e-04 -2.177526e-04 -1.438116e-04 1.637090e-04 2.628690e-04 5.648763e-06 2.228725e-04 2.034275e-04 -1.619477e-05
<VARIANCE> 39
 1.019832e+02 5.941970e+01 7.969288e+01 8.208760e+01 7.802106e+01 7.487110e+01 7.643834e+01 6.621703e+01 6.555447e+01 4.695152e+01 4.796841e+01 3.524455e+01 1.176575e+02 4.561978e+00 3.523971e+00 3.336667e+00 4.190840e+00 4.308219e+00 4.198891e+00 4.400949e+00 4.303593e+00 3.945015e+00 3.243124e+00 2.985297e+00 2.440730e+00 5.602094e+00 6.297911e-01 5.834280e-01 5.080847e-01 6.770200e-01 7.052052e-01 7.098476e-01 7.490622e-01 7.594711e-01 6.945443e-01 5.957132e-01 5.417582e-01 4.464071e-01 8.994135e-01
<GCONST> 1.383850e+02
<STATE> 4
<MEAN> 39
 -1.012254e+01 -7.264364e+00 -5.370496e+00 -9.712435e+00 -8.047647e+00 -5.681997e+00 -5.715511e+00 -8.866540e-01 -3.691144e+00 -1.679044e+00 -2.372037e+00 -1.992824e+00 5.435912e+01 3.500773e-03 3.751601e-03 -3.257730e-04 8.666853e-04 4.723825e-03 -5.870872e-04 2.242867e-04 -5.077744e-03 -4.136851e-03 -6.560485e-04 -4.315064e-03 -2.692429e-03 3.635390e-03 -9.591001e-05 -2.103235e-04 1.351038e-04 -1.666076e-05 -3.385021e-04 -2.177526e-04 -1.438116e-04 1.637090e-04 2.628690e-04 5.648763e-06 2.228725e-04 2.034275e-04 -1.619477e-05
<VARIANCE> 39
 1.019832e+02 5.941970e+01 7.969288e+01 8.208760e+01 7.802106e+01 7.487110e+01 7.643834e+01 6.621703e+01 6.555447e+01 4.695152e+01 4.796841e+01 3.524455e+01 1.176575e+02 4.561978e+00 3.523971e+00 3.336667e+00 4.190840e+00 4.308219e+00 4.198891e+00 4.400949e+00 4.303593e+00 3.945015e+00 3.243124e+00 2.985297e+00 2.440730e+00 5.602094e+00 6.297911e-01 5.834280e-01 5.080847e-01 6.770200e-01 7.052052e-01 7.098476e-01 7.490622e-01 7.594711e-01 6.945443e-01 5.957132e-01 5.417582e-01 4.464071e-01 8.994135e-01
<GCONST> 1.383850e+02
<TRANSP> 5
 0.000000e+00 1.000000e+00 0.000000e+00 0.000000e+00 0.000000e+00
 0.000000e+00 6.000000e-01 4.000000e-01 0.000000e+00 0.000000e+00
 0.000000e+00 0.000000e+00 6.000000e-01 4.000000e-01 0.000000e+00
 0.000000e+00 0.000000e+00 0.000000e+00 7.000000e-01 3.000000e-01
 0.000000e+00 0.000000e+00 0.000000e+00 0.000000e+00 0.000000e+00
<ENDHMM>
